%YAML:1.0
my_svm: !!opencv-ml-svm
   svm_type: C_SVC
   kernel: { type:RBF, gamma:3. }
   C: 1.
   term_criteria: { epsilon:2.2204460492503131e-16, iterations:100 }
   var_all: 1200
   var_count: 1200
   class_count: 3
   class_labels: !!opencv-matrix
      rows: 1
      cols: 3
      dt: i
      data: [ 0, 1, 2 ]
   sv_total: 12
   support_vectors:
      - [ 3.42465751e-03, 3.42465751e-03, 0., 0., 0., 0., 0., 0.,
          3.42465751e-03, 0., 3.42465751e-03, 3.42465751e-03,
          3.42465751e-03, 0., 0., 0., 0., 3.42465751e-03, 3.42465751e-03,
          0., 3.42465751e-03, 3.42465751e-03, 3.42465751e-03, 0.,
          3.42465751e-03, 0., 0., 0., 0., 0., 3.42465751e-03, 0.,
          3.42465751e-03, 3.42465751e-03, 3.42465751e-03, 0.,
          3.42465751e-03, 0., 0., 0., 6.84931502e-03, 0., 0., 0., 0., 0.,
          0., 0., 0., 3.42465751e-03, 3.42465751e-03, 0., 0.,
          3.42465751e-03, 0., 3.42465751e-03, 3.42465751e-03, 0., 0., 0.,
          0., 0., 3.42465751e-03, 0., 3.42465751e-03, 3.42465751e-03, 0.,
          0., 0., 0., 0., 0., 0., 0., 0., 0., 0., 0., 3.42465751e-03, 0.,
          3.42465751e-03, 0., 3.42465751e-03, 3.42465751e-03,
          3.42465751e-03, 0., 0., 0., 0., 0., 3.42465751e-03, 0., 0., 0.,
          0., 3.42465751e-03, 6.84931502e-03, 0., 0., 3.42465751e-03, 0.,
          0., 0., 3.42465751e-03, 3.42465751e-03, 3.42465751e-03, 0., 0.,
          0., 0., 0., 3.42465751e-03, 0., 0., 3.42465751e-03, 0., 0., 0.,
          3.42465751e-03, 3.42465751e-03, 0., 0., 0., 0., 3.42465751e-03,
          3.42465751e-03, 0., 0., 0., 3.42465751e-03, 0., 3.42465751e-03,
          0., 0., 0., 0., 0., 0., 0., 3.42465751e-03, 0., 3.42465751e-03,
          3.42465751e-03, 0., 3.42465751e-03, 0., 0., 0., 0., 0., 0., 0.,
          0., 3.42465751e-03, 3.42465751e-03, 0., 0., 3.42465751e-03, 0.,
          0., 0., 3.42465751e-03, 0., 3.42465751e-03, 3.42465751e-03,
          3.42465751e-03, 0., 0., 3.42465751e-03, 3.42465751e-03, 0., 0.,
          3.42465751e-03, 0., 3.42465751e-03, 0., 0., 0., 3.42465751e-03,
          0., 0., 3.42465751e-03, 0., 0., 0., 0., 3.42465751e-03, 0., 0.,
          0., 3.42465751e-03, 0., 0., 0., 0., 0., 0., 0., 3.42465751e-03,
          3.42465751e-03, 0., 0., 3.42465751e-03, 3.42465751e-03,
          3.42465751e-03, 0., 0., 3.42465751e-03, 3.42465751e-03, 0., 0.,
          0., 3.42465751e-03, 0., 3.42465751e-03, 3.42465751e-03, 0., 0.,
          0., 0., 0., 0., 0., 3.42465751e-03, 0., 3.42465751e-03, 0.,
          3.42465751e-03, 0., 0., 0., 0., 0., 3.42465751e-03, 0., 0., 0.,
          0., 0., 3.42465751e-03, 0., 0., 0., 0., 0., 0., 0., 0., 0., 0.,
          0., 3.42465751e-03, 0., 3.42465751e-03, 0., 3.42465751e-03,
          3.42465751e-03, 0., 0., 0., 0., 0., 0., 0., 3.42465751e-03, 0.,
          0., 3.42465751e-03, 0., 0., 0., 3.42465751e-03, 0.,
          3.42465751e-03, 0., 0., 0., 0., 0., 0., 0., 0., 0., 0., 0.,
          3.42465751e-03, 3.42465751e-03, 0., 0., 3.42465751e-03, 0., 0.,
          3.42465751e-03, 0., 0., 0., 0., 0., 0., 0., 0., 0., 0.,
          3.42465751e-03, 0., 3.42465751e-03, 0., 0., 0., 0., 0.,
          3.42465751e-03, 0., 0., 3.42465751e-03, 0., 0., 0., 0., 0.,
          3.42465751e-03, 3.42465751e-03, 3.42465751e-03, 0.,
          3.42465751e-03, 3.42465751e-03, 0., 0., 3.42465751e-03,
          3.42465751e-03, 0., 0., 3.42465751e-03, 3.42465751e-03, 0.,
          3.42465751e-03, 0., 0., 0., 3.42465751e-03, 0., 0.,
          3.42465751e-03, 3.42465751e-03, 0., 3.42465751e-03, 0., 0., 0.,
          3.42465751e-03, 0., 3.42465751e-03, 3.42465751e-03, 0., 0., 0.,
          0., 0., 0., 3.42465751e-03, 0., 0., 0., 3.42465751e-03,
          3.42465751e-03, 3.42465751e-03, 3.42465751e-03, 0., 0., 0.,
          3.42465751e-03, 0., 0., 3.42465751e-03, 0., 0., 0., 0., 0., 0.,
          0., 0., 3.42465751e-03, 3.42465751e-03, 0., 0., 3.42465751e-03,
          0., 0., 0., 0., 0., 3.42465751e-03, 0., 3.42465751e-03, 0., 0.,
          0., 3.42465751e-03, 3.42465751e-03, 3.42465751e-03,
          3.42465751e-03, 0., 0., 3.42465751e-03, 3.42465751e-03,
          3.42465751e-03, 3.42465751e-03, 0., 0., 3.42465751e-03,
          3.42465751e-03, 0., 0., 0., 0., 0., 0., 0., 0., 3.42465751e-03,
          3.42465751e-03, 0., 0., 0., 0., 0., 0., 0., 3.42465751e-03,
          3.42465751e-03, 3.42465751e-03, 3.42465751e-03, 0.,
          3.42465751e-03, 0., 3.42465751e-03, 0., 0., 0., 0.,
          3.42465751e-03, 0., 0., 0., 0., 0., 0., 0., 0., 3.42465751e-03,
          0., 3.42465751e-03, 3.42465751e-03, 0., 0., 0., 0., 0., 0., 0.,
          0., 0., 0., 3.42465751e-03, 0., 0., 3.42465751e-03, 0., 0., 0.,
          0., 0., 0., 3.42465751e-03, 0., 3.42465751e-03, 0., 0.,
          3.42465751e-03, 0., 0., 0., 3.42465751e-03, 3.42465751e-03,
          3.42465751e-03, 3.42465751e-03, 0., 0., 0., 3.42465751e-03, 0.,
          3.42465751e-03, 3.42465751e-03, 3.42465751e-03, 3.42465751e-03,
          3.42465751e-03, 0., 0., 3.42465751e-03, 0., 0., 0., 0., 0., 0.,
          3.42465751e-03, 3.42465751e-03, 0., 0., 0., 3.42465751e-03, 0.,
          0., 0., 3.42465751e-03, 0., 0., 0., 0., 0., 0., 3.42465751e-03,
          0., 3.42465751e-03, 3.42465751e-03, 3.42465751e-03, 0., 0., 0.,
          0., 0., 0., 3.42465751e-03, 3.42465751e-03, 0., 0., 0., 0.,
          3.42465751e-03, 3.42465751e-03, 0., 0., 3.42465751e-03, 0., 0.,
          3.42465751e-03, 0., 0., 3.42465751e-03, 3.42465751e-03,
          3.42465751e-03, 0., 0., 0., 3.42465751e-03, 3.42465751e-03, 0.,
          0., 0., 0., 0., 3.42465751e-03, 0., 0., 0., 0., 0., 0.,
          3.42465751e-03, 0., 0., 0., 0., 0., 0., 0., 0., 0.,
          3.42465751e-03, 0., 0., 0., 0., 0., 3.42465751e-03, 0., 0., 0.,
          3.42465751e-03, 3.42465751e-03, 0., 0., 3.42465751e-03, 0.,
          3.42465751e-03, 0., 0., 3.42465751e-03, 0., 0., 0., 0., 0., 0.,
          0., 0., 0., 0., 0., 0., 0., 0., 0., 0., 0., 0., 0., 0., 0., 0.,
          0., 3.42465751e-03, 0., 0., 0., 0., 0., 0., 3.42465751e-03, 0.,
          0., 0., 0., 0., 0., 3.42465751e-03, 0., 0., 0., 0., 0., 0.,
          3.42465751e-03, 3.42465751e-03, 0., 0., 0., 0., 0., 0., 0.,
          3.42465751e-03, 0., 0., 3.42465751e-03, 0., 0., 0.,
          3.42465751e-03, 0., 3.42465751e-03, 0., 3.42465751e-03, 0.,
          3.42465751e-03, 0., 3.42465751e-03, 0., 0., 0., 0., 0., 0., 0.,
          0., 0., 0., 0., 0., 0., 3.42465751e-03, 0., 0., 0., 0., 0., 0.,
          0., 0., 0., 3.42465751e-03, 3.42465751e-03, 0., 0., 0., 0., 0.,
          0., 0., 0., 0., 0., 3.42465751e-03, 0., 0., 0., 0., 0.,
          3.42465751e-03, 0., 0., 0., 0., 3.42465751e-03, 0., 0., 0., 0.,
          0., 0., 0., 3.42465751e-03, 0., 0., 0., 0., 0., 0.,
          3.42465751e-03, 0., 0., 0., 0., 0., 0., 0., 0., 0.,
          3.42465751e-03, 0., 0., 0., 0., 0., 0., 0., 3.42465751e-03, 0.,
          0., 3.42465751e-03, 0., 0., 0., 3.42465751e-03, 0.,
          3.42465751e-03, 0., 0., 0., 0., 0., 0., 0., 0., 0., 0., 0., 0.,
          0., 0., 0., 0., 0., 0., 3.42465751e-03, 0., 0., 0., 0., 0.,
          3.42465751e-03, 0., 0., 0., 0., 0., 0., 0., 3.42465751e-03, 0.,
          0., 0., 0., 0., 0., 0., 0., 0., 0., 0., 0., 0., 0., 0.,
          3.42465751e-03, 0., 0., 3.42465751e-03, 0., 0., 0., 0., 0., 0.,
          0., 3.42465751e-03, 0., 0., 0., 0., 0., 0., 0., 0.,
          3.42465751e-03, 3.42465751e-03, 0., 0., 0., 0., 0., 0., 0., 0.,
          3.42465751e-03, 0., 0., 3.42465751e-03, 0., 0., 0., 0., 0., 0.,
          0., 0., 0., 3.42465751e-03, 0., 3.42465751e-03, 0., 0.,
          3.42465751e-03, 0., 0., 3.42465751e-03, 0., 0., 0., 0., 0., 0.,
          0., 0., 0., 3.42465751e-03, 0., 0., 0., 0., 0., 3.42465751e-03,
          0., 0., 0., 0., 3.42465751e-03, 0., 0., 0., 0., 0., 0., 0.,
          3.42465751e-03, 0., 0., 0., 0., 0., 3.42465751e-03, 0., 0., 0.,
          3.42465751e-03, 0., 0., 0., 3.42465751e-03, 0., 0., 0., 0.,
          3.42465751e-03, 3.42465751e-03, 0., 0., 0., 3.42465751e-03, 0.,
          0., 0., 0., 0., 0., 0., 3.42465751e-03, 0., 0., 0., 0., 0., 0.,
          0., 0., 0., 0., 0., 0., 3.42465751e-03, 0., 0., 3.42465751e-03,
          0., 3.42465751e-03, 0., 0., 0., 0., 0., 0., 0., 0.,
          3.42465751e-03, 0., 3.42465751e-03, 0., 0., 3.42465751e-03, 0.,
          0., 0., 0., 0., 0., 3.42465751e-03, 0., 0., 0., 0., 0., 0., 0.,
          3.42465751e-03, 0., 3.42465751e-03, 0., 0., 0., 0., 0., 0., 0.,
          0., 3.42465751e-03, 0., 0., 0., 0., 0., 0., 0., 0., 0., 0., 0.,
          0., 0., 0., 3.42465751e-03, 0., 3.42465751e-03, 0., 0., 0., 0.,
          3.42465751e-03, 0., 0., 3.42465751e-03, 0., 0., 0., 0.,
          3.42465751e-03, 3.42465751e-03, 0., 0., 0., 0., 0., 0.,
          3.42465751e-03, 0., 3.42465751e-03, 3.42465751e-03, 0., 0., 0.,
          0., 3.42465751e-03, 0., 0., 3.42465751e-03, 0., 0., 0., 0., 0.,
          0., 0., 3.42465751e-03, 0., 0., 0., 0., 3.42465751e-03,
          3.42465751e-03, 0., 0., 0., 0., 0., 0., 0., 0., 0.,
          3.42465751e-03, 0., 0., 0., 0., 3.42465751e-03, 0., 0., 0., 0.,
          0., 0., 0., 0., 0., 0., 0., 0., 3.42465751e-03, 0., 0.,
          3.42465751e-03, 0., 0., 0., 0., 0., 0., 0., 0., 6.84931502e-03,
          0., 0., 0., 3.42465751e-03, 0., 0., 3.42465751e-03, 0.,
          3.42465751e-03, 0., 0., 0., 0., 0., 0., 0., 0., 0., 0., 0., 0.,
          0., 3.42465751e-03, 0., 0., 0., 0., 0., 0., 0., 0.,
          3.42465751e-03, 0., 0., 0., 0., 0., 3.42465751e-03, 0., 0., 0.,
          0., 0., 0., 0., 0., 0., 0., 0., 0., 3.42465751e-03, 0., 0.,
          6.84931502e-03, 0., 0., 0., 3.42465751e-03, 0., 0., 0., 0., 0.,
          0., 0., 0., 0., 3.42465751e-03, 0., 0., 3.42465751e-03, 0., 0.,
          0., 0., 0., 0., 3.42465751e-03, 0., 0., 0., 0., 0., 0.,
          3.42465751e-03, 0., 3.42465751e-03, 0., 0., 0., 0., 0., 0., 0.,
          0., 0., 0., 0., 0., 0., 0., 0., 0., 0., 0., 3.42465751e-03, 0.,
          0., 0., 3.42465751e-03, 0., 3.42465751e-03, 3.42465751e-03, 0.,
          0., 0., 0., 0., 0., 0., 0. ]
      - [ 3.46020772e-03, 3.46020772e-03, 3.46020772e-03, 0., 0., 0., 0.,
          0., 3.46020772e-03, 0., 3.46020772e-03, 3.46020772e-03,
          3.46020772e-03, 0., 0., 0., 3.46020772e-03, 0., 3.46020772e-03,
          0., 3.46020772e-03, 3.46020772e-03, 3.46020772e-03, 0., 0.,
          3.46020772e-03, 0., 0., 0., 0., 3.46020772e-03, 0.,
          3.46020772e-03, 0., 3.46020772e-03, 0., 3.46020772e-03,
          3.46020772e-03, 0., 0., 0., 0., 0., 0., 0., 0., 0.,
          3.46020772e-03, 0., 3.46020772e-03, 0., 0., 0., 0., 0.,
          3.46020772e-03, 0., 3.46020772e-03, 0., 0., 0., 0.,
          3.46020772e-03, 0., 3.46020772e-03, 3.46020772e-03, 0., 0., 0.,
          0., 0., 0., 0., 0., 0., 0., 0., 0., 0., 0., 3.46020772e-03, 0.,
          3.46020772e-03, 3.46020772e-03, 3.46020772e-03, 3.46020772e-03,
          0., 0., 0., 3.46020772e-03, 3.46020772e-03, 0., 0., 0., 0.,
          3.46020772e-03, 0., 0., 0., 3.46020772e-03, 0., 0., 0.,
          3.46020772e-03, 3.46020772e-03, 3.46020772e-03, 3.46020772e-03,
          0., 3.46020772e-03, 0., 0., 3.46020772e-03, 0., 0.,
          3.46020772e-03, 0., 0., 3.46020772e-03, 3.46020772e-03,
          3.46020772e-03, 0., 0., 3.46020772e-03, 0., 3.46020772e-03,
          3.46020772e-03, 0., 0., 3.46020772e-03, 3.46020772e-03,
          3.46020772e-03, 3.46020772e-03, 0., 0., 0., 0., 3.46020772e-03,
          0., 0., 3.46020772e-03, 0., 0., 3.46020772e-03, 0.,
          3.46020772e-03, 0., 0., 3.46020772e-03, 0., 0., 0.,
          3.46020772e-03, 0., 0., 3.46020772e-03, 0., 0., 3.46020772e-03,
          0., 0., 0., 3.46020772e-03, 3.46020772e-03, 3.46020772e-03, 0.,
          3.46020772e-03, 0., 0., 3.46020772e-03, 3.46020772e-03,
          3.46020772e-03, 3.46020772e-03, 0., 0., 0., 0., 0., 0.,
          3.46020772e-03, 0., 0., 3.46020772e-03, 0., 0., 0., 0.,
          3.46020772e-03, 0., 0., 0., 3.46020772e-03, 0., 0., 0.,
          3.46020772e-03, 3.46020772e-03, 0., 0., 3.46020772e-03, 0., 0.,
          0., 3.46020772e-03, 0., 0., 0., 0., 3.46020772e-03,
          3.46020772e-03, 0., 0., 0., 0., 0., 3.46020772e-03, 0., 0., 0.,
          0., 0., 0., 3.46020772e-03, 0., 3.46020772e-03, 0.,
          3.46020772e-03, 0., 0., 0., 0., 0., 0., 3.46020772e-03,
          3.46020772e-03, 0., 0., 0., 0., 0., 3.46020772e-03, 0.,
          3.46020772e-03, 0., 0., 0., 0., 3.46020772e-03, 0., 0., 0., 0.,
          3.46020772e-03, 0., 0., 0., 3.46020772e-03, 0., 0., 0., 0., 0.,
          0., 0., 0., 3.46020772e-03, 0., 0., 3.46020772e-03, 0., 0., 0.,
          3.46020772e-03, 0., 3.46020772e-03, 0., 0., 0., 0., 0., 0., 0.,
          0., 0., 0., 0., 3.46020772e-03, 3.46020772e-03, 0.,
          3.46020772e-03, 3.46020772e-03, 0., 0., 3.46020772e-03,
          3.46020772e-03, 0., 3.46020772e-03, 0., 0., 0., 3.46020772e-03,
          0., 0., 0., 3.46020772e-03, 0., 3.46020772e-03, 0., 0., 0., 0.,
          0., 3.46020772e-03, 0., 0., 3.46020772e-03, 0., 0., 0., 0., 0.,
          3.46020772e-03, 3.46020772e-03, 0., 0., 0., 3.46020772e-03, 0.,
          0., 3.46020772e-03, 3.46020772e-03, 0., 0., 3.46020772e-03,
          3.46020772e-03, 0., 3.46020772e-03, 0., 0., 0., 0., 0., 0.,
          3.46020772e-03, 3.46020772e-03, 0., 0., 0., 0., 0., 0., 0.,
          3.46020772e-03, 3.46020772e-03, 0., 0., 0., 0., 0., 0.,
          3.46020772e-03, 0., 0., 0., 3.46020772e-03, 0., 0.,
          3.46020772e-03, 0., 0., 0., 3.46020772e-03, 0., 0., 0., 0., 0.,
          0., 0., 0., 0., 0., 0., 3.46020772e-03, 3.46020772e-03, 0., 0.,
          3.46020772e-03, 0., 0., 3.46020772e-03, 0., 0., 0., 0.,
          3.46020772e-03, 0., 3.46020772e-03, 3.46020772e-03,
          3.46020772e-03, 3.46020772e-03, 0., 0., 0., 0., 0.,
          3.46020772e-03, 3.46020772e-03, 3.46020772e-03, 0., 0.,
          3.46020772e-03, 0., 0., 0., 0., 0., 0., 0., 0., 0.,
          3.46020772e-03, 0., 3.46020772e-03, 0., 0., 0., 0.,
          3.46020772e-03, 0., 0., 3.46020772e-03, 3.46020772e-03,
          3.46020772e-03, 0., 3.46020772e-03, 0., 3.46020772e-03, 0., 0.,
          0., 0., 3.46020772e-03, 0., 0., 3.46020772e-03, 0.,
          3.46020772e-03, 3.46020772e-03, 0., 0., 3.46020772e-03,
          3.46020772e-03, 0., 0., 0., 3.46020772e-03, 0., 0., 0., 0., 0.,
          3.46020772e-03, 0., 0., 3.46020772e-03, 0., 0., 0.,
          3.46020772e-03, 0., 0., 0., 3.46020772e-03, 0., 0., 0.,
          3.46020772e-03, 0., 0., 0., 0., 0., 0., 0., 0., 0.,
          3.46020772e-03, 0., 0., 0., 3.46020772e-03, 0., 0.,
          3.46020772e-03, 3.46020772e-03, 0., 3.46020772e-03, 0., 0.,
          3.46020772e-03, 0., 0., 3.46020772e-03, 0., 0., 0., 0., 0.,
          3.46020772e-03, 0., 0., 0., 0., 0., 3.46020772e-03,
          3.46020772e-03, 0., 0., 3.46020772e-03, 0., 0., 0., 0., 0.,
          3.46020772e-03, 3.46020772e-03, 0., 0., 3.46020772e-03, 0., 0.,
          0., 0., 3.46020772e-03, 3.46020772e-03, 0., 0., 0., 0.,
          3.46020772e-03, 0., 3.46020772e-03, 0., 3.46020772e-03, 0., 0.,
          3.46020772e-03, 0., 0., 3.46020772e-03, 3.46020772e-03, 0.,
          3.46020772e-03, 3.46020772e-03, 0., 3.46020772e-03, 0., 0., 0.,
          0., 0., 0., 0., 0., 3.46020772e-03, 0., 0., 0., 0., 0., 0., 0.,
          0., 3.46020772e-03, 0., 0., 0., 0., 0., 3.46020772e-03,
          3.46020772e-03, 0., 0., 0., 0., 0., 0., 0., 0., 0.,
          3.46020772e-03, 0., 0., 0., 0., 0., 0., 0., 3.46020772e-03, 0.,
          0., 0., 3.46020772e-03, 0., 0., 0., 0., 0., 0., 3.46020772e-03,
          0., 3.46020772e-03, 3.46020772e-03, 0., 3.46020772e-03, 0.,
          3.46020772e-03, 0., 0., 0., 3.46020772e-03, 0., 0.,
          3.46020772e-03, 3.46020772e-03, 3.46020772e-03, 0., 0., 0., 0.,
          0., 0., 0., 0., 0., 0., 3.46020772e-03, 3.46020772e-03, 0., 0.,
          0., 0., 3.46020772e-03, 0., 0., 0., 0., 0., 0., 0., 0., 0., 0.,
          0., 0., 3.46020772e-03, 0., 0., 0., 0., 0., 3.46020772e-03,
          3.46020772e-03, 6.92041544e-03, 0., 3.46020772e-03, 0.,
          3.46020772e-03, 0., 0., 0., 0., 0., 6.92041544e-03,
          3.46020772e-03, 0., 0., 0., 0., 0., 0., 3.46020772e-03,
          3.46020772e-03, 0., 0., 0., 0., 0., 0., 0., 0., 0.,
          3.46020772e-03, 3.46020772e-03, 0., 0., 0., 3.46020772e-03,
          3.46020772e-03, 3.46020772e-03, 0., 0., 0., 3.46020772e-03, 0.,
          3.46020772e-03, 0., 3.46020772e-03, 0., 0., 0., 0., 0., 0., 0.,
          0., 3.46020772e-03, 0., 0., 0., 0., 0., 0., 0., 0., 0., 0., 0.,
          0., 3.46020772e-03, 0., 0., 0., 0., 0., 0., 0., 0., 0., 0., 0.,
          0., 0., 0., 0., 0., 0., 3.46020772e-03, 0., 0., 0., 0., 0., 0.,
          3.46020772e-03, 0., 0., 0., 0., 0., 0., 0., 0., 0., 0., 0., 0.,
          0., 0., 0., 0., 0., 0., 3.46020772e-03, 0., 0., 3.46020772e-03,
          0., 0., 0., 0., 0., 3.46020772e-03, 0., 3.46020772e-03, 0., 0.,
          0., 0., 0., 0., 0., 0., 0., 0., 0., 0., 0., 0., 0., 0., 0., 0.,
          0., 3.46020772e-03, 0., 0., 0., 0., 0., 0., 0., 0., 0., 0., 0.,
          0., 0., 0., 0., 0., 0., 0., 0., 0., 3.46020772e-03,
          3.46020772e-03, 0., 0., 0., 0., 0., 0., 0., 0., 0., 0., 0.,
          3.46020772e-03, 0., 0., 0., 3.46020772e-03, 0., 0., 0., 0., 0.,
          0., 0., 3.46020772e-03, 0., 0., 0., 0., 0., 0., 0., 0., 0., 0.,
          0., 0., 3.46020772e-03, 0., 0., 0., 0., 0., 0., 0., 0., 0., 0.,
          0., 0., 0., 0., 0., 0., 0., 0., 3.46020772e-03, 0., 0., 0.,
          3.46020772e-03, 0., 0., 0., 0., 3.46020772e-03, 0., 0., 0.,
          3.46020772e-03, 0., 0., 0., 0., 0., 0., 0., 0., 3.46020772e-03,
          3.46020772e-03, 0., 0., 0., 3.46020772e-03, 0., 0., 0., 0., 0.,
          0., 0., 0., 0., 0., 0., 0., 0., 3.46020772e-03, 0., 0., 0., 0.,
          0., 0., 0., 0., 0., 3.46020772e-03, 0., 3.46020772e-03, 0., 0.,
          0., 0., 0., 0., 0., 0., 3.46020772e-03, 0., 0., 0., 0., 0.,
          3.46020772e-03, 0., 0., 0., 0., 0., 0., 0., 0., 0., 0., 0., 0.,
          0., 3.46020772e-03, 0., 0., 3.46020772e-03, 0., 0., 0., 0., 0.,
          0., 0., 0., 3.46020772e-03, 0., 0., 3.46020772e-03,
          3.46020772e-03, 0., 0., 0., 0., 0., 0., 3.46020772e-03, 0., 0.,
          3.46020772e-03, 0., 0., 0., 0., 0., 0., 0., 0., 0.,
          3.46020772e-03, 0., 0., 3.46020772e-03, 0., 0., 3.46020772e-03,
          0., 0., 0., 0., 0., 3.46020772e-03, 0., 0., 3.46020772e-03,
          3.46020772e-03, 0., 0., 0., 0., 3.46020772e-03, 0., 0.,
          3.46020772e-03, 0., 0., 0., 0., 0., 0., 3.46020772e-03, 0., 0.,
          0., 0., 0., 0., 0., 0., 0., 0., 0., 0., 3.46020772e-03,
          3.46020772e-03, 3.46020772e-03, 0., 0., 3.46020772e-03,
          3.46020772e-03, 0., 0., 0., 0., 3.46020772e-03, 0., 0., 0., 0.,
          0., 0., 0., 0., 3.46020772e-03, 0., 0., 0., 3.46020772e-03, 0.,
          0., 3.46020772e-03, 0., 0., 0., 0., 0., 0., 0., 0., 0., 0., 0.,
          0., 0., 3.46020772e-03, 0., 0., 0., 0., 3.46020772e-03, 0.,
          3.46020772e-03, 0., 0., 3.46020772e-03, 0., 0., 0., 0., 0., 0.,
          0., 0., 3.46020772e-03, 0., 0., 0., 3.46020772e-03, 0., 0., 0.,
          3.46020772e-03, 0., 0., 0., 3.46020772e-03, 0., 0.,
          3.46020772e-03, 0., 0., 0., 0., 0., 0., 0., 0., 0., 0., 0., 0.,
          0., 0., 0., 0., 3.46020772e-03, 3.46020772e-03, 3.46020772e-03,
          0., 0., 0., 0., 3.46020772e-03, 0., 0., 0., 0., 3.46020772e-03,
          0., 0., 0., 3.46020772e-03, 0., 0., 0., 3.46020772e-03,
          3.46020772e-03, 0., 0., 0., 0., 0., 3.46020772e-03, 0., 0., 0.,
          0., 3.46020772e-03, 0., 0., 0., 0., 0., 0., 0., 0., 0., 0., 0.,
          0., 0., 0., 0., 0., 0., 0., 0., 0., 0., 0., 0., 0., 0., 0.,
          3.46020772e-03, 0., 0., 0., 0. ]
      - [ 4.27350448e-03, 4.27350448e-03, 0., 0., 0., 0., 0., 0.,
          4.27350448e-03, 4.27350448e-03, 4.27350448e-03, 4.27350448e-03,
          0., 0., 0., 0., 4.27350448e-03, 4.27350448e-03, 4.27350448e-03,
          0., 0., 0., 0., 0., 0., 4.27350448e-03, 0., 0., 0., 0.,
          4.27350448e-03, 0., 0., 0., 0., 0., 0., 0., 0., 0., 0., 0., 0.,
          0., 0., 0., 0., 4.27350448e-03, 0., 0., 0., 0., 0., 0., 0.,
          4.27350448e-03, 4.27350448e-03, 0., 0., 0., 0., 4.27350448e-03,
          4.27350448e-03, 0., 4.27350448e-03, 4.27350448e-03, 0., 0.,
          4.27350448e-03, 0., 0., 0., 0., 0., 4.27350448e-03, 0.,
          4.27350448e-03, 0., 4.27350448e-03, 4.27350448e-03, 0., 0., 0.,
          0., 4.27350448e-03, 4.27350448e-03, 0., 0., 0., 0.,
          4.27350448e-03, 4.27350448e-03, 0., 0., 0., 0., 0., 0., 0., 0.,
          0., 0., 0., 4.27350448e-03, 0., 4.27350448e-03, 4.27350448e-03,
          0., 0., 0., 0., 0., 0., 4.27350448e-03, 4.27350448e-03, 0., 0.,
          4.27350448e-03, 0., 4.27350448e-03, 0., 4.27350448e-03,
          4.27350448e-03, 4.27350448e-03, 0., 4.27350448e-03,
          4.27350448e-03, 0., 0., 0., 4.27350448e-03, 4.27350448e-03, 0.,
          0., 0., 0., 0., 4.27350448e-03, 0., 4.27350448e-03, 0.,
          4.27350448e-03, 0., 0., 4.27350448e-03, 0., 0., 4.27350448e-03,
          0., 4.27350448e-03, 0., 0., 0., 0., 0., 0., 0., 0.,
          4.27350448e-03, 0., 0., 4.27350448e-03, 4.27350448e-03,
          4.27350448e-03, 4.27350448e-03, 0., 0., 0., 4.27350448e-03,
          4.27350448e-03, 0., 0., 4.27350448e-03, 0., 0., 0.,
          4.27350448e-03, 0., 0., 0., 0., 4.27350448e-03, 0., 0., 0., 0.,
          4.27350448e-03, 0., 0., 0., 4.27350448e-03, 0., 4.27350448e-03,
          0., 4.27350448e-03, 0., 0., 0., 4.27350448e-03, 0., 0.,
          4.27350448e-03, 4.27350448e-03, 4.27350448e-03, 4.27350448e-03,
          0., 0., 0., 0., 0., 0., 0., 0., 0., 4.27350448e-03,
          4.27350448e-03, 0., 0., 0., 0., 0., 4.27350448e-03, 0., 0., 0.,
          0., 0., 4.27350448e-03, 0., 0., 0., 0., 4.27350448e-03, 0.,
          4.27350448e-03, 0., 0., 0., 0., 4.27350448e-03, 0., 0., 0., 0.,
          0., 0., 0., 4.27350448e-03, 4.27350448e-03, 4.27350448e-03, 0.,
          0., 0., 4.27350448e-03, 0., 0., 0., 4.27350448e-03, 0.,
          4.27350448e-03, 0., 0., 0., 0., 4.27350448e-03, 0., 0.,
          4.27350448e-03, 0., 0., 0., 0., 0., 4.27350448e-03, 0., 0., 0.,
          0., 0., 0., 4.27350448e-03, 0., 0., 0., 0., 0., 4.27350448e-03,
          0., 4.27350448e-03, 4.27350448e-03, 0., 0., 4.27350448e-03,
          4.27350448e-03, 0., 0., 0., 0., 0., 4.27350448e-03, 0., 0., 0.,
          4.27350448e-03, 0., 4.27350448e-03, 4.27350448e-03,
          4.27350448e-03, 0., 0., 0., 0., 0., 4.27350448e-03, 0., 0.,
          4.27350448e-03, 0., 0., 4.27350448e-03, 0., 4.27350448e-03,
          4.27350448e-03, 0., 0., 4.27350448e-03, 0., 0., 0.,
          4.27350448e-03, 0., 0., 4.27350448e-03, 0., 4.27350448e-03, 0.,
          0., 4.27350448e-03, 0., 0., 0., 0., 0., 4.27350448e-03, 0.,
          4.27350448e-03, 0., 0., 0., 4.27350448e-03, 4.27350448e-03,
          4.27350448e-03, 0., 0., 0., 0., 4.27350448e-03, 0., 0., 0., 0.,
          0., 0., 0., 4.27350448e-03, 4.27350448e-03, 0., 4.27350448e-03,
          0., 0., 4.27350448e-03, 0., 0., 4.27350448e-03, 0., 0., 0.,
          4.27350448e-03, 0., 0., 0., 0., 4.27350448e-03, 4.27350448e-03,
          0., 0., 0., 0., 0., 0., 0., 0., 4.27350448e-03, 0., 0., 0., 0.,
          0., 0., 0., 0., 0., 4.27350448e-03, 0., 4.27350448e-03, 0., 0.,
          4.27350448e-03, 0., 0., 0., 0., 0., 0., 0., 0., 0., 0., 0., 0.,
          0., 0., 0., 0., 0., 0., 4.27350448e-03, 0., 0., 0.,
          4.27350448e-03, 0., 4.27350448e-03, 0., 0., 0., 4.27350448e-03,
          0., 0., 0., 0., 4.27350448e-03, 0., 0., 4.27350448e-03, 0.,
          4.27350448e-03, 0., 0., 0., 0., 0., 0., 0., 0., 4.27350448e-03,
          0., 0., 0., 0., 0., 0., 0., 0., 0., 0., 0., 0., 0., 0., 0., 0.,
          0., 0., 0., 0., 0., 0., 0., 0., 0., 0., 0., 0., 4.27350448e-03,
          0., 4.27350448e-03, 4.27350448e-03, 0., 0., 4.27350448e-03, 0.,
          0., 0., 0., 0., 0., 0., 0., 4.27350448e-03, 0., 0., 0.,
          4.27350448e-03, 4.27350448e-03, 0., 4.27350448e-03,
          4.27350448e-03, 0., 0., 0., 0., 0., 0., 0., 0., 0.,
          4.27350448e-03, 0., 0., 0., 0., 0., 4.27350448e-03, 0., 0., 0.,
          0., 0., 0., 0., 0., 0., 0., 0., 0., 4.27350448e-03, 0., 0., 0.,
          0., 0., 0., 0., 4.27350448e-03, 0., 0., 0., 0., 4.27350448e-03,
          0., 0., 0., 0., 0., 0., 0., 0., 4.27350448e-03, 0., 0., 0., 0.,
          0., 0., 0., 0., 0., 0., 0., 0., 0., 0., 4.27350448e-03, 0.,
          4.27350448e-03, 0., 0., 0., 0., 4.27350448e-03, 0., 0., 0., 0.,
          0., 4.27350448e-03, 0., 4.27350448e-03, 0., 4.27350448e-03, 0.,
          4.27350448e-03, 0., 0., 0., 4.27350448e-03, 0., 0., 0., 0.,
          4.27350448e-03, 0., 0., 0., 0., 0., 0., 0., 0., 0., 0., 0., 0.,
          0., 0., 0., 0., 0., 0., 0., 0., 4.27350448e-03, 0., 0., 0.,
          4.27350448e-03, 0., 0., 0., 0., 0., 0., 0., 0., 0., 0., 0., 0.,
          0., 0., 4.27350448e-03, 0., 4.27350448e-03, 0., 0., 0., 0.,
          4.27350448e-03, 0., 0., 4.27350448e-03, 0., 0., 0., 0., 0., 0.,
          4.27350448e-03, 0., 4.27350448e-03, 4.27350448e-03, 0.,
          4.27350448e-03, 0., 0., 0., 0., 0., 0., 0., 4.27350448e-03, 0.,
          8.54700897e-03, 0., 0., 0., 0., 0., 0., 0., 0., 0., 0., 0., 0.,
          4.27350448e-03, 0., 0., 4.27350448e-03, 0., 0., 0.,
          4.27350448e-03, 0., 0., 0., 0., 0., 0., 0., 4.27350448e-03, 0.,
          4.27350448e-03, 0., 0., 0., 0., 0., 0., 0., 0., 0., 0., 0.,
          4.27350448e-03, 0., 0., 0., 0., 0., 0., 0., 0., 0., 0., 0., 0.,
          0., 4.27350448e-03, 4.27350448e-03, 0., 0., 0., 0., 0., 0., 0.,
          0., 4.27350448e-03, 0., 0., 0., 0., 0., 4.27350448e-03,
          4.27350448e-03, 0., 0., 0., 0., 0., 0., 0., 0., 0., 0.,
          4.27350448e-03, 0., 0., 0., 0., 0., 0., 0., 0., 0.,
          4.27350448e-03, 4.27350448e-03, 0., 0., 0., 0., 0., 0., 0., 0.,
          0., 0., 0., 0., 0., 0., 4.27350448e-03, 0., 0., 0., 0., 0., 0.,
          0., 0., 0., 0., 0., 0., 0., 0., 0., 4.27350448e-03,
          4.27350448e-03, 0., 0., 0., 0., 4.27350448e-03, 0., 0., 0., 0.,
          0., 4.27350448e-03, 0., 0., 0., 0., 0., 4.27350448e-03, 0., 0.,
          4.27350448e-03, 0., 0., 0., 0., 0., 0., 0., 0., 0., 0., 0., 0.,
          0., 0., 4.27350448e-03, 0., 0., 0., 0., 0., 0., 0., 0., 0., 0.,
          0., 0., 0., 4.27350448e-03, 0., 0., 4.27350448e-03, 0., 0., 0.,
          0., 0., 0., 0., 0., 0., 0., 0., 0., 0., 0., 4.27350448e-03, 0.,
          4.27350448e-03, 0., 0., 0., 0., 0., 0., 4.27350448e-03, 0., 0.,
          0., 0., 0., 0., 0., 4.27350448e-03, 0., 0., 0., 0., 0., 0., 0.,
          0., 0., 0., 0., 0., 0., 0., 0., 0., 0., 0., 4.27350448e-03, 0.,
          0., 0., 0., 0., 0., 0., 0., 0., 0., 0., 0., 0., 0., 0., 0.,
          4.27350448e-03, 0., 0., 0., 0., 0., 0., 0., 0., 4.27350448e-03,
          4.27350448e-03, 0., 0., 0., 0., 0., 0., 0., 0., 0., 0., 0., 0.,
          0., 0., 0., 0., 0., 0., 0., 0., 0., 0., 0., 4.27350448e-03, 0.,
          4.27350448e-03, 0., 0., 0., 0., 0., 0., 0., 0., 0., 0., 0., 0.,
          0., 0., 0., 4.27350448e-03, 0., 0., 0., 0., 0., 0., 0., 0., 0.,
          0., 0., 0., 0., 0., 0., 4.27350448e-03, 0., 4.27350448e-03, 0.,
          0., 4.27350448e-03, 0., 0., 0., 4.27350448e-03, 0., 0., 0.,
          4.27350448e-03, 4.27350448e-03, 0., 0., 4.27350448e-03, 0., 0.,
          0., 0., 4.27350448e-03, 4.27350448e-03, 0., 0., 0.,
          4.27350448e-03, 0., 0., 0., 0., 4.27350448e-03, 0., 0., 0., 0.,
          0., 0., 0., 0., 0., 0., 0., 0., 0., 4.27350448e-03, 0.,
          4.27350448e-03, 0., 0., 0., 0., 4.27350448e-03, 0.,
          4.27350448e-03, 0., 0., 4.27350448e-03, 0., 0., 0., 0., 0., 0.,
          0., 0., 0., 0., 0., 0., 0., 0., 0., 0., 4.27350448e-03, 0., 0.,
          0., 0., 0., 0., 0., 0., 0., 0., 0., 0., 0., 0., 0., 0., 0., 0.,
          4.27350448e-03, 0., 0., 0., 4.27350448e-03, 0., 0., 0., 0., 0.,
          0., 0., 4.27350448e-03, 0., 0., 4.27350448e-03, 0., 0., 0., 0.,
          0., 0., 0., 0., 0., 0., 0., 0., 4.27350448e-03, 0., 0., 0., 0.,
          0., 0., 0., 0., 0., 0., 0., 0., 0., 0., 4.27350448e-03,
          4.27350448e-03, 0., 0., 4.27350448e-03, 4.27350448e-03, 0., 0.,
          4.27350448e-03, 0., 0., 0., 0., 0., 0., 0., 0., 0., 0., 0., 0.,
          0., 0., 0., 0., 0., 0., 0., 0., 4.27350448e-03, 0., 0., 0.,
          4.27350448e-03, 4.27350448e-03, 0., 0., 0., 0., 0., 0., 0., 0.,
          0., 0., 0., 0., 0., 0., 4.27350448e-03, 0., 0., 0., 0., 0., 0.,
          0., 4.27350448e-03, 0., 0., 0., 0., 0., 0., 0., 0.,
          4.27350448e-03, 0., 0., 0., 0., 0., 0., 0., 0. ]
      - [ 4.18410031e-03, 4.18410031e-03, 0., 0., 0., 0., 0., 0.,
          4.18410031e-03, 0., 4.18410031e-03, 4.18410031e-03, 0., 0., 0.,
          0., 0., 4.18410031e-03, 4.18410031e-03, 0., 4.18410031e-03,
          4.18410031e-03, 4.18410031e-03, 0., 0., 4.18410031e-03, 0., 0.,
          0., 0., 4.18410031e-03, 0., 0., 0., 0., 0., 4.18410031e-03, 0.,
          0., 0., 0., 0., 0., 0., 0., 0., 0., 4.18410031e-03, 0.,
          4.18410031e-03, 0., 0., 0., 0., 0., 4.18410031e-03,
          4.18410031e-03, 0., 0., 0., 0., 0., 4.18410031e-03, 0.,
          4.18410031e-03, 0., 0., 0., 4.18410031e-03, 0., 0., 0., 0., 0.,
          4.18410031e-03, 0., 0., 0., 4.18410031e-03, 0., 4.18410031e-03,
          0., 0., 0., 4.18410031e-03, 0., 0., 0., 0., 0., 0., 0., 0., 0.,
          0., 0., 0., 0., 0., 0., 0., 0., 0., 4.18410031e-03, 0.,
          4.18410031e-03, 4.18410031e-03, 0., 0., 0., 0., 0., 0.,
          4.18410031e-03, 4.18410031e-03, 0., 0., 0., 0., 4.18410031e-03,
          0., 4.18410031e-03, 4.18410031e-03, 4.18410031e-03,
          4.18410031e-03, 4.18410031e-03, 4.18410031e-03, 0., 0., 0.,
          4.18410031e-03, 4.18410031e-03, 0., 0., 0., 0., 4.18410031e-03,
          0., 0., 4.18410031e-03, 0., 4.18410031e-03, 0., 0.,
          4.18410031e-03, 0., 0., 4.18410031e-03, 0., 4.18410031e-03, 0.,
          0., 0., 0., 0., 0., 0., 4.18410031e-03, 4.18410031e-03, 0., 0.,
          4.18410031e-03, 4.18410031e-03, 0., 4.18410031e-03, 0., 0., 0.,
          4.18410031e-03, 0., 4.18410031e-03, 0., 4.18410031e-03, 0., 0.,
          0., 0., 0., 4.18410031e-03, 4.18410031e-03, 0., 4.18410031e-03,
          0., 0., 0., 0., 4.18410031e-03, 0., 0., 0., 4.18410031e-03, 0.,
          0., 0., 4.18410031e-03, 0., 0., 0., 4.18410031e-03,
          4.18410031e-03, 0., 4.18410031e-03, 4.18410031e-03,
          4.18410031e-03, 0., 0., 0., 4.18410031e-03, 4.18410031e-03, 0.,
          0., 0., 4.18410031e-03, 0., 4.18410031e-03, 4.18410031e-03, 0.,
          0., 4.18410031e-03, 0., 0., 4.18410031e-03, 0., 4.18410031e-03,
          4.18410031e-03, 0., 0., 0., 0., 0., 0., 0., 4.18410031e-03, 0.,
          4.18410031e-03, 0., 0., 0., 0., 4.18410031e-03, 0.,
          4.18410031e-03, 0., 0., 0., 0., 0., 4.18410031e-03,
          4.18410031e-03, 0., 0., 0., 0., 4.18410031e-03, 4.18410031e-03,
          0., 0., 4.18410031e-03, 0., 0., 0., 0., 0., 0., 4.18410031e-03,
          0., 0., 4.18410031e-03, 0., 0., 0., 0., 0., 4.18410031e-03, 0.,
          0., 0., 0., 0., 0., 4.18410031e-03, 4.18410031e-03, 0., 0., 0.,
          0., 4.18410031e-03, 0., 4.18410031e-03, 4.18410031e-03, 0., 0.,
          4.18410031e-03, 0., 0., 0., 0., 0., 4.18410031e-03, 0., 0., 0.,
          0., 4.18410031e-03, 0., 0., 4.18410031e-03, 4.18410031e-03, 0.,
          0., 0., 0., 0., 4.18410031e-03, 0., 0., 0., 0., 0., 0., 0.,
          4.18410031e-03, 4.18410031e-03, 0., 4.18410031e-03,
          4.18410031e-03, 0., 0., 0., 4.18410031e-03, 0., 0.,
          4.18410031e-03, 4.18410031e-03, 0., 0., 0., 4.18410031e-03, 0.,
          4.18410031e-03, 4.18410031e-03, 0., 0., 4.18410031e-03, 0., 0.,
          4.18410031e-03, 0., 0., 4.18410031e-03, 0., 4.18410031e-03, 0.,
          0., 0., 0., 4.18410031e-03, 0., 0., 0., 0., 0., 0., 0.,
          4.18410031e-03, 0., 0., 0., 0., 0., 4.18410031e-03, 0., 0.,
          4.18410031e-03, 0., 0., 0., 4.18410031e-03, 0., 0., 0., 0., 0.,
          4.18410031e-03, 0., 0., 0., 0., 0., 4.18410031e-03, 0., 0.,
          4.18410031e-03, 0., 4.18410031e-03, 0., 4.18410031e-03, 0., 0.,
          0., 0., 0., 0., 0., 0., 0., 0., 0., 0., 0., 0., 0., 0., 0., 0.,
          0., 0., 0., 0., 0., 0., 4.18410031e-03, 0., 0., 0., 0., 0., 0.,
          0., 0., 0., 0., 0., 0., 0., 0., 4.18410031e-03, 0., 0., 0., 0.,
          0., 0., 0., 4.18410031e-03, 0., 4.18410031e-03, 0., 0., 0.,
          4.18410031e-03, 0., 0., 0., 0., 4.18410031e-03, 0., 0., 0., 0.,
          0., 0., 0., 0., 4.18410031e-03, 0., 0., 0., 0., 0., 0., 0.,
          4.18410031e-03, 0., 4.18410031e-03, 0., 0., 0., 0., 0., 0., 0.,
          0., 0., 0., 4.18410031e-03, 4.18410031e-03, 4.18410031e-03, 0.,
          0., 0., 0., 0., 0., 0., 0., 0., 0., 0., 4.18410031e-03,
          4.18410031e-03, 0., 0., 4.18410031e-03, 4.18410031e-03, 0., 0.,
          0., 0., 0., 0., 0., 4.18410031e-03, 0., 0., 0., 0., 0., 0., 0.,
          0., 0., 0., 4.18410031e-03, 0., 0., 0., 0., 0., 0., 0., 0., 0.,
          0., 0., 0., 4.18410031e-03, 0., 0., 4.18410031e-03, 0., 0., 0.,
          0., 4.18410031e-03, 0., 0., 4.18410031e-03, 0., 4.18410031e-03,
          0., 0., 0., 0., 0., 0., 0., 0., 0., 0., 0., 0., 0., 0., 0., 0.,
          0., 0., 0., 4.18410031e-03, 0., 0., 0., 4.18410031e-03, 0., 0.,
          0., 0., 0., 0., 0., 0., 0., 4.18410031e-03, 0., 4.18410031e-03,
          4.18410031e-03, 0., 0., 0., 4.18410031e-03, 4.18410031e-03, 0.,
          4.18410031e-03, 0., 0., 0., 0., 0., 4.18410031e-03, 0., 0., 0.,
          0., 0., 0., 0., 0., 4.18410031e-03, 0., 0., 0., 0.,
          4.18410031e-03, 0., 0., 0., 0., 0., 4.18410031e-03, 0., 0., 0.,
          0., 0., 0., 4.18410031e-03, 0., 0., 0., 0., 0., 0., 0., 0., 0.,
          0., 0., 0., 0., 0., 4.18410031e-03, 0., 0., 0., 0., 0., 0.,
          4.18410031e-03, 0., 0., 4.18410031e-03, 0., 0., 0., 0., 0., 0.,
          0., 0., 4.18410031e-03, 4.18410031e-03, 0., 4.18410031e-03, 0.,
          0., 0., 0., 0., 0., 0., 0., 0., 8.36820062e-03, 0., 0., 0., 0.,
          0., 4.18410031e-03, 0., 0., 0., 0., 0., 0., 4.18410031e-03, 0.,
          0., 4.18410031e-03, 0., 0., 0., 0., 0., 0., 0., 0., 0., 0., 0.,
          0., 0., 4.18410031e-03, 0., 0., 0., 0., 0., 0., 4.18410031e-03,
          0., 0., 0., 4.18410031e-03, 4.18410031e-03, 0., 0., 0., 0., 0.,
          0., 0., 0., 0., 0., 0., 0., 0., 4.18410031e-03, 4.18410031e-03,
          0., 4.18410031e-03, 0., 0., 0., 4.18410031e-03, 0., 0.,
          4.18410031e-03, 0., 4.18410031e-03, 0., 0., 0., 0.,
          4.18410031e-03, 0., 0., 0., 0., 0., 0., 0., 0., 0., 0., 0., 0.,
          0., 0., 0., 0., 0., 0., 0., 0., 0., 4.18410031e-03, 0., 0., 0.,
          0., 0., 0., 0., 0., 0., 0., 0., 0., 0., 0., 4.18410031e-03,
          4.18410031e-03, 0., 0., 0., 0., 0., 0., 0., 0., 0., 0., 0., 0.,
          0., 0., 4.18410031e-03, 0., 0., 0., 0., 4.18410031e-03, 0., 0.,
          0., 0., 0., 0., 4.18410031e-03, 0., 0., 0., 0., 0., 0., 0., 0.,
          0., 0., 0., 0., 0., 0., 0., 0., 0., 0., 0., 0., 0., 0., 0.,
          4.18410031e-03, 0., 0., 0., 0., 0., 4.18410031e-03, 0., 0., 0.,
          0., 0., 0., 0., 0., 0., 0., 0., 0., 0., 0., 0., 0.,
          4.18410031e-03, 0., 0., 0., 0., 0., 0., 0., 0., 0., 0.,
          4.18410031e-03, 0., 0., 0., 0., 0., 0., 0., 0., 0., 0., 0., 0.,
          0., 4.18410031e-03, 0., 0., 0., 0., 4.18410031e-03, 0., 0.,
          4.18410031e-03, 0., 0., 0., 0., 0., 0., 0., 0., 0., 0., 0., 0.,
          0., 0., 0., 4.18410031e-03, 0., 0., 0., 4.18410031e-03, 0., 0.,
          0., 0., 0., 0., 0., 0., 0., 0., 0., 0., 0., 4.18410031e-03, 0.,
          0., 0., 4.18410031e-03, 4.18410031e-03, 0., 0., 0., 0.,
          4.18410031e-03, 0., 0., 0., 0., 0., 0., 0., 0., 4.18410031e-03,
          0., 0., 0., 0., 0., 0., 0., 4.18410031e-03, 0., 0., 0., 0., 0.,
          0., 0., 0., 0., 0., 0., 0., 4.18410031e-03, 0., 0., 0., 0., 0.,
          0., 4.18410031e-03, 0., 0., 0., 0., 0., 0., 0., 0., 0.,
          4.18410031e-03, 0., 0., 0., 4.18410031e-03, 0., 4.18410031e-03,
          0., 0., 0., 0., 4.18410031e-03, 0., 0., 0., 0., 0., 0., 0.,
          4.18410031e-03, 4.18410031e-03, 0., 0., 0., 4.18410031e-03, 0.,
          0., 0., 0., 0., 0., 4.18410031e-03, 0., 4.18410031e-03, 0., 0.,
          0., 0., 4.18410031e-03, 0., 0., 0., 0., 4.18410031e-03, 0.,
          4.18410031e-03, 0., 0., 0., 0., 0., 0., 4.18410031e-03, 0.,
          4.18410031e-03, 0., 0., 0., 0., 4.18410031e-03, 0., 0., 0., 0.,
          4.18410031e-03, 0., 0., 0., 0., 0., 0., 0., 0., 0., 0., 0., 0.,
          0., 0., 0., 0., 0., 0., 0., 0., 0., 0., 0., 0., 0., 0., 0., 0.,
          0., 0., 0., 0., 0., 0., 0., 4.18410031e-03, 4.18410031e-03, 0.,
          0., 4.18410031e-03, 0., 0., 4.18410031e-03, 0., 0., 0.,
          4.18410031e-03, 4.18410031e-03, 0., 0., 4.18410031e-03, 0., 0.,
          0., 0., 0., 0., 0., 0., 0., 0., 0., 0., 0., 0., 0.,
          4.18410031e-03, 4.18410031e-03, 0., 0., 0., 0., 0., 0., 0., 0.,
          0., 0., 0., 4.18410031e-03, 0., 0., 0., 4.18410031e-03, 0., 0.,
          0., 0., 0., 0., 0., 0., 0., 4.18410031e-03, 0., 4.18410031e-03,
          0., 0., 0., 0., 4.18410031e-03, 0., 0., 0., 0., 0., 0., 0.,
          4.18410031e-03, 0., 0., 0., 0., 0., 0., 0., 0., 0., 0., 0., 0.,
          0., 0., 0., 0., 0., 0., 0., 0., 0., 0., 4.18410031e-03, 0.,
          4.18410031e-03, 4.18410031e-03, 0., 0., 0., 0., 0., 0., 0.,
          4.18410031e-03, 4.18410031e-03, 0., 0., 0., 4.18410031e-03, 0.,
          0., 4.18410031e-03, 4.18410031e-03, 0. ]
      - [ 0., 0., 0., 5.64971752e-03, 5.64971752e-03, 0., 5.64971752e-03,
          0., 0., 0., 0., 0., 0., 5.64971752e-03, 0., 0., 0., 0., 0.,
          5.64971752e-03, 0., 0., 0., 0., 0., 0., 0., 0., 0., 0., 0., 0.,
          0., 0., 0., 0., 0., 0., 0., 0., 0., 0., 0., 0., 0., 0.,
          5.64971752e-03, 0., 0., 0., 0., 5.64971752e-03, 5.64971752e-03,
          0., 0., 0., 0., 0., 0., 0., 0., 0., 0., 5.64971752e-03, 0., 0.,
          5.64971752e-03, 5.64971752e-03, 0., 0., 0., 0., 0.,
          5.64971752e-03, 0., 5.64971752e-03, 0., 0., 0., 0., 0., 0., 0.,
          0., 0., 0., 0., 0., 0., 0., 0., 0., 0., 0., 0., 0., 0.,
          5.64971752e-03, 0., 0., 5.64971752e-03, 0., 0., 0., 0., 0., 0.,
          0., 0., 0., 0., 0., 0., 0., 0., 0., 5.64971752e-03, 0., 0., 0.,
          0., 0., 0., 0., 0., 0., 0., 5.64971752e-03, 0., 0., 0., 0.,
          5.64971752e-03, 0., 0., 0., 0., 0., 0., 0., 0., 0., 0., 0., 0.,
          5.64971752e-03, 0., 0., 0., 0., 0., 0., 0., 0., 0., 0., 0., 0.,
          0., 0., 0., 0., 0., 0., 0., 0., 0., 0., 0., 0., 0., 0., 0., 0.,
          0., 0., 0., 5.64971752e-03, 0., 0., 5.64971752e-03, 0.,
          5.64971752e-03, 0., 0., 5.64971752e-03, 0., 0., 0., 0., 0., 0.,
          0., 0., 0., 0., 0., 0., 0., 0., 0., 0., 0., 0., 0., 0., 0., 0.,
          0., 0., 0., 5.64971752e-03, 0., 0., 0., 0., 0., 5.64971752e-03,
          0., 5.64971752e-03, 0., 0., 5.64971752e-03, 0., 0., 0., 0., 0.,
          0., 0., 0., 0., 0., 0., 0., 0., 0., 0., 1.12994350e-02, 0., 0.,
          0., 5.64971752e-03, 0., 0., 0., 0., 0., 0., 0., 5.64971752e-03,
          0., 0., 0., 0., 0., 0., 0., 0., 0., 0., 0., 0., 0., 0., 0.,
          5.64971752e-03, 0., 0., 0., 5.64971752e-03, 0., 0., 0., 0., 0.,
          0., 0., 0., 0., 0., 0., 0., 0., 5.64971752e-03, 0., 0., 0., 0.,
          0., 5.64971752e-03, 0., 0., 0., 0., 0., 0., 0., 0., 0.,
          5.64971752e-03, 0., 5.64971752e-03, 0., 0., 0., 0., 0.,
          5.64971752e-03, 2.25988701e-02, 0., 0., 0., 0., 0., 0., 0., 0.,
          0., 0., 0., 0., 0., 0., 0., 0., 0., 0., 0., 0., 0., 0., 0., 0.,
          0., 0., 0., 0., 0., 0., 0., 0., 0., 0., 5.64971752e-03, 0., 0.,
          0., 0., 0., 0., 0., 0., 0., 5.64971752e-03, 5.64971752e-03, 0.,
          0., 5.64971752e-03, 0., 4.51977402e-02, 0., 0., 0., 0., 0., 0.,
          0., 2.25988701e-02, 0., 0., 0., 0., 0., 0., 0., 0., 0., 0., 0.,
          0., 0., 0., 0., 0., 0., 0., 0., 0., 0., 0., 0., 0., 0., 0., 0.,
          0., 0., 0., 0., 0., 0., 0., 5.64971752e-03, 0., 0., 0., 0., 0.,
          0., 0., 0., 5.64971752e-03, 5.64971752e-03, 5.64971752e-03, 0.,
          5.64971752e-03, 0., 0., 0., 0., 0., 0., 5.64971752e-03, 0., 0.,
          0., 0., 0., 0., 0., 0., 0., 5.64971752e-03, 0., 0., 0., 0., 0.,
          0., 5.64971752e-03, 0., 0., 0., 0., 0., 0., 0., 0., 0., 0., 0.,
          0., 0., 0., 0., 0., 0., 0., 0., 0., 0., 0., 0., 0., 0., 0., 0.,
          0., 0., 0., 5.64971752e-03, 0., 0., 0., 0., 0., 5.64971752e-03,
          0., 0., 0., 5.64971752e-03, 0., 0., 0., 0., 0., 0., 0., 0., 0.,
          0., 0., 0., 0., 0., 0., 0., 0., 0., 0., 0., 0., 0., 0., 0., 0.,
          0., 0., 0., 0., 0., 0., 0., 0., 0., 0., 0., 0., 0., 0., 0., 0.,
          0., 0., 0., 0., 5.64971752e-03, 0., 5.64971752e-03,
          5.64971752e-03, 0., 0., 0., 0., 0., 0., 0., 0., 0., 0., 0., 0.,
          0., 0., 0., 0., 0., 5.64971752e-03, 0., 0., 0., 0., 0.,
          5.64971752e-03, 0., 0., 0., 0., 0., 5.64971752e-03,
          5.64971752e-03, 0., 5.64971752e-03, 0., 0., 0., 0., 0., 0., 0.,
          0., 0., 0., 0., 0., 5.64971752e-03, 5.64971752e-03, 0., 0., 0.,
          0., 0., 0., 1.12994350e-02, 0., 0., 0., 0., 0., 0., 0., 0., 0.,
          0., 0., 0., 0., 0., 0., 0., 0., 0., 0., 0., 5.64971752e-03, 0.,
          0., 0., 0., 0., 0., 0., 0., 0., 5.64971752e-03, 0., 0., 0., 0.,
          0., 0., 0., 0., 0., 0., 0., 0., 0., 0., 0., 5.64971752e-03,
          5.64971752e-03, 0., 0., 0., 0., 0., 0., 0., 5.64971752e-03, 0.,
          0., 0., 0., 0., 0., 0., 0., 0., 0., 0., 0., 0., 0., 0., 0., 0.,
          0., 0., 0., 0., 0., 0., 0., 0., 0., 0., 0., 0., 0., 0.,
          2.25988701e-02, 0., 0., 0., 0., 0., 5.64971752e-03, 0., 0., 0.,
          0., 5.64971752e-03, 0., 5.64971752e-03, 0., 0., 0., 0.,
          5.64971752e-03, 0., 0., 0., 0., 0., 5.64971752e-03, 0., 0., 0.,
          0., 0., 0., 0., 5.64971752e-03, 0., 0., 0., 0., 0., 0., 0., 0.,
          5.64971752e-03, 0., 0., 0., 0., 0., 0., 5.64971752e-03, 0., 0.,
          5.64971752e-03, 0., 0., 5.64971752e-03, 0., 0., 0., 0., 0., 0.,
          0., 0., 0., 0., 0., 0., 0., 5.64971752e-03, 0., 0., 0., 0., 0.,
          0., 0., 0., 0., 0., 0., 0., 0., 0., 0., 0., 0., 0., 0.,
          5.64971752e-03, 0., 0., 0., 5.64971752e-03, 5.64971752e-03,
          5.64971752e-03, 0., 0., 0., 0., 5.64971752e-03, 0., 0., 0., 0.,
          0., 0., 5.64971752e-03, 2.82485876e-02, 0., 0., 0., 0., 0.,
          5.64971752e-03, 0., 0., 0., 0., 1.12994350e-02, 0., 0.,
          5.64971752e-03, 0., 0., 0., 0., 5.64971752e-03, 0., 0., 0., 0.,
          0., 0., 0., 0., 0., 0., 0., 0., 0., 5.64971752e-03, 0., 0.,
          5.64971752e-03, 0., 0., 0., 0., 0., 0., 0., 0., 0., 0., 0., 0.,
          0., 0., 0., 5.64971752e-03, 0., 0., 0., 0., 0., 0., 0., 0., 0.,
          0., 0., 0., 0., 0., 0., 5.64971752e-03, 0., 0., 0., 0., 0., 0.,
          0., 0., 0., 0., 0., 0., 0., 0., 5.64971752e-03, 0.,
          5.64971752e-03, 5.64971752e-03, 0., 0., 0., 0., 0., 0., 0.,
          5.64971752e-03, 5.64971752e-03, 0., 0., 0., 0., 0.,
          5.64971752e-03, 1.12994350e-02, 0., 0., 0., 0., 0., 0., 0., 0.,
          0., 0., 0., 0., 0., 0., 5.64971752e-03, 5.64971752e-03, 0., 0.,
          0., 5.64971752e-03, 0., 0., 0., 0., 5.64971752e-03, 0., 0., 0.,
          0., 0., 0., 0., 0., 0., 1.12994350e-02, 0., 0., 0., 0.,
          5.64971752e-03, 0., 0., 0., 0., 1.12994350e-02, 5.64971752e-03,
          0., 0., 0., 0., 0., 0., 0., 0., 0., 0., 0., 0., 0., 0., 0., 0.,
          0., 5.64971752e-03, 0., 5.64971752e-03, 5.64971752e-03, 0., 0.,
          0., 0., 0., 0., 5.64971752e-03, 0., 0., 5.64971752e-03, 0., 0.,
          0., 0., 0., 0., 0., 0., 0., 0., 0., 0., 5.64971752e-03, 0., 0.,
          5.64971752e-03, 0., 0., 0., 0., 0., 0., 0., 0., 5.64971752e-03,
          0., 0., 0., 0., 0., 0., 0., 0., 0., 0., 0., 5.64971752e-03,
          5.64971752e-03, 0., 0., 0., 0., 0., 0., 0., 0., 0., 0., 0.,
          5.64971752e-03, 5.64971752e-03, 0., 0., 0., 0., 0., 0., 0., 0.,
          0., 0., 0., 0., 0., 0., 0., 0., 0., 0., 0., 0., 5.64971752e-03,
          0., 0., 0., 0., 0., 0., 0., 0., 5.64971752e-03, 5.64971752e-03,
          0., 0., 0., 0., 0., 0., 0., 0., 0., 0., 0., 0., 0.,
          5.64971752e-03, 0., 0., 0., 0., 5.64971752e-03, 0., 0., 0., 0.,
          0., 5.64971752e-03, 0., 0., 0., 0., 0., 0., 0., 0.,
          5.64971752e-03, 0., 5.64971752e-03, 5.64971752e-03, 0., 0., 0.,
          0., 0., 0., 0., 0., 0., 0., 0., 0., 0., 0., 0., 0., 0., 0., 0.,
          0., 0., 5.64971752e-03, 0., 0., 0., 0., 0., 0., 0., 0., 0.,
          5.64971752e-03, 0., 1.12994350e-02, 0., 0., 0., 0., 0., 0., 0.,
          0., 0., 0., 0., 0., 5.64971752e-03, 0., 0., 0., 5.64971752e-03,
          0., 0., 5.64971752e-03, 0., 0., 0., 0., 0., 0., 0.,
          5.64971752e-03, 0., 0., 0., 0., 0., 0., 0., 0., 0., 0.,
          5.64971752e-03, 5.64971752e-03, 0., 0., 0., 0., 0., 0., 0., 0.,
          5.64971752e-03, 0., 5.64971752e-03, 0., 0., 0., 0., 0., 0.,
          5.64971752e-03, 5.64971752e-03, 5.64971752e-03, 5.64971752e-03,
          0., 0., 0., 5.64971752e-03, 0., 0., 0., 0., 0., 0., 0., 0., 0.,
          0., 0., 0., 0., 0., 0., 0., 0., 0., 0., 0., 0., 0., 0. ]
      - [ 0., 0., 0., 6.09756075e-03, 6.09756075e-03, 0., 0., 0., 0., 0.,
          0., 0., 0., 6.09756075e-03, 0., 0., 0., 0., 0., 6.09756075e-03,
          0., 0., 0., 0., 0., 0., 0., 0., 0., 0., 0., 0., 0., 0., 0., 0.,
          0., 0., 0., 0., 0., 0., 0., 0., 6.09756075e-03, 0.,
          6.09756075e-03, 0., 0., 0., 0., 6.09756075e-03, 6.09756075e-03,
          0., 0., 0., 0., 0., 0., 0., 0., 0., 0., 6.09756075e-03, 0., 0.,
          6.09756075e-03, 0., 0., 0., 0., 0., 0., 6.09756075e-03, 0.,
          6.09756075e-03, 0., 6.09756075e-03, 0., 0., 0., 0., 0., 0., 0.,
          0., 0., 0., 0., 0., 0., 0., 0., 0., 0., 0., 0., 6.09756075e-03,
          0., 0., 6.09756075e-03, 0., 0., 0., 0., 0., 0., 0., 0., 0., 0.,
          0., 0., 0., 0., 0., 0., 0., 0., 0., 0., 0., 0., 0., 0., 0., 0.,
          0., 0., 0., 0., 0., 0., 0., 0., 0., 0., 0., 0., 0., 0., 0., 0.,
          0., 0., 6.09756075e-03, 0., 0., 0., 0., 0., 0., 0., 0., 0., 0.,
          0., 0., 0., 0., 0., 0., 0., 0., 0., 0., 0., 0., 0., 0., 0., 0.,
          0., 0., 0., 0., 0., 6.09756075e-03, 0., 0., 6.09756075e-03, 0.,
          6.09756075e-03, 0., 0., 6.09756075e-03, 0., 0., 0.,
          6.09756075e-03, 0., 0., 0., 0., 0., 0., 0., 0., 0., 0., 0., 0.,
          0., 0., 0., 0., 0., 0., 0., 0., 0., 6.09756075e-03, 0., 0., 0.,
          0., 0., 0., 0., 0., 0., 0., 6.09756075e-03, 0., 0., 0., 0., 0.,
          0., 0., 0., 0., 0., 0., 0., 0., 0., 0., 6.09756075e-03, 0., 0.,
          0., 0., 0., 0., 0., 0., 0., 0., 0., 6.09756075e-03, 0., 0., 0.,
          0., 0., 0., 0., 0., 0., 0., 0., 0., 0., 0., 0., 6.09756075e-03,
          0., 0., 0., 0., 0., 0., 0., 0., 0., 0., 0., 0., 0., 0., 0., 0.,
          0., 6.09756075e-03, 0., 0., 0., 0., 0., 6.09756075e-03, 0., 0.,
          0., 0., 0., 0., 0., 0., 0., 6.09756075e-03, 0., 1.21951215e-02,
          0., 0., 0., 0., 0., 6.09756075e-03, 1.82926822e-02, 0., 0., 0.,
          0., 0., 0., 0., 0., 0., 0., 0., 0., 0., 0., 0., 0., 0.,
          6.09756075e-03, 0., 0., 0., 0., 0., 0., 0., 0., 0., 0., 0., 0.,
          0., 0., 0., 0., 6.09756075e-03, 0., 0., 0., 0., 0., 0., 0., 0.,
          0., 6.09756075e-03, 6.09756075e-03, 0., 0., 6.09756075e-03, 0.,
          4.26829234e-02, 0., 0., 0., 0., 0., 0., 0., 1.21951215e-02, 0.,
          0., 0., 0., 0., 0., 0., 0., 0., 0., 0., 0., 6.09756075e-03, 0.,
          0., 0., 0., 0., 0., 0., 0., 6.09756075e-03, 0., 0., 0., 0.,
          6.09756075e-03, 0., 0., 0., 0., 0., 0., 0., 6.09756075e-03, 0.,
          0., 0., 0., 0., 0., 0., 0., 0., 0., 6.09756075e-03, 0.,
          6.09756075e-03, 0., 0., 6.09756075e-03, 0., 0., 0., 0., 0., 0.,
          0., 0., 0., 0., 0., 0., 0., 6.09756075e-03, 0., 0., 0., 0., 0.,
          0., 6.09756075e-03, 0., 0., 0., 0., 0., 0., 0., 0., 0., 0., 0.,
          0., 0., 0., 0., 0., 0., 0., 0., 0., 0., 0., 0., 0., 0., 0., 0.,
          0., 6.09756075e-03, 0., 6.09756075e-03, 0., 0., 0.,
          6.09756075e-03, 0., 6.09756075e-03, 0., 0., 0., 0., 0., 0., 0.,
          0., 0., 0., 0., 0., 0., 0., 0., 0., 0., 0., 0., 0., 0., 0., 0.,
          0., 0., 0., 0., 0., 0., 0., 0., 6.09756075e-03, 0., 0., 0., 0.,
          0., 0., 0., 0., 0., 0., 0., 0., 0., 0., 0., 0., 0.,
          6.09756075e-03, 0., 6.09756075e-03, 0., 6.09756075e-03, 0., 0.,
          0., 0., 0., 0., 0., 0., 0., 0., 0., 0., 0., 0., 0., 0., 0., 0.,
          0., 0., 0., 0., 6.09756075e-03, 0., 0., 0., 0., 0., 0., 0., 0.,
          6.09756075e-03, 0., 0., 0., 0., 6.09756075e-03, 0., 0., 0., 0.,
          0., 0., 0., 6.09756075e-03, 6.09756075e-03, 0., 0., 0., 0., 0.,
          0., 6.09756075e-03, 0., 0., 0., 0., 0., 0., 0., 0., 0., 0., 0.,
          0., 0., 0., 0., 0., 0., 0., 0., 0., 0., 0., 0., 0., 0., 0., 0.,
          0., 0., 0., 6.09756075e-03, 0., 0., 0., 0., 0., 0., 0., 0., 0.,
          0., 0., 0., 0., 0., 0., 6.09756075e-03, 0., 0., 0., 0., 0., 0.,
          0., 6.09756075e-03, 6.09756075e-03, 0., 0., 0., 0., 0., 0.,
          6.09756075e-03, 0., 0., 6.09756075e-03, 0., 0., 0., 0., 0.,
          6.09756075e-03, 6.09756075e-03, 0., 0., 0., 0., 0., 0., 0., 0.,
          0., 0., 6.09756075e-03, 0., 0., 0., 6.09756075e-03, 0., 0.,
          6.09756075e-03, 0., 0., 0., 0., 0., 0., 0., 6.09756075e-03, 0.,
          0., 0., 0., 0., 0., 0., 0., 0., 0., 0., 0., 0., 0., 0., 0., 0.,
          0., 0., 0., 0., 0., 0., 0., 0., 0., 0., 0., 0., 6.09756075e-03,
          0., 0., 0., 0., 0., 0., 0., 0., 0., 0., 0., 0., 6.09756075e-03,
          0., 0., 0., 0., 6.09756075e-03, 0., 0., 0., 0., 0., 0., 0., 0.,
          0., 0., 0., 0., 0., 0., 0., 0., 6.09756075e-03, 6.09756075e-03,
          0., 0., 6.09756075e-03, 0., 0., 0., 0., 0., 0., 0.,
          6.09756075e-03, 0., 0., 0., 6.09756075e-03, 0., 6.09756075e-03,
          0., 0., 0., 0., 6.09756075e-03, 6.09756075e-03, 0., 0., 0., 0.,
          0., 0., 1.21951215e-02, 0., 0., 0., 0., 0., 6.09756075e-03, 0.,
          0., 0., 0., 0., 0., 0., 6.09756075e-03, 0., 0., 0., 0.,
          6.09756075e-03, 0., 0., 6.09756075e-03, 0., 0., 0., 0., 0., 0.,
          0., 0., 0., 0., 6.09756075e-03, 0., 0., 6.09756075e-03, 0., 0.,
          0., 6.09756075e-03, 0., 0., 0., 0., 0., 0., 0., 6.09756075e-03,
          0., 0., 6.09756075e-03, 6.09756075e-03, 0., 0., 0., 0., 0., 0.,
          0., 0., 0., 0., 0., 0., 0., 0., 0., 6.09756075e-03, 0., 0., 0.,
          0., 0., 0., 0., 6.09756075e-03, 0., 0., 0., 0., 6.09756075e-03,
          0., 6.09756075e-03, 0., 0., 0., 0., 0., 0., 0., 0., 0., 0.,
          6.09756075e-03, 1.21951215e-02, 0., 0., 0., 0., 0., 0.,
          1.21951215e-02, 0., 0., 0., 0., 0., 0., 0., 0., 0., 0., 0., 0.,
          0., 0., 0., 6.09756075e-03, 0., 0., 0., 6.09756075e-03,
          6.09756075e-03, 0., 0., 0., 0., 0., 0., 0., 0., 0.,
          6.09756075e-03, 0., 0., 0., 6.09756075e-03, 0., 0.,
          6.09756075e-03, 0., 6.09756075e-03, 0., 0., 0., 0.,
          6.09756075e-03, 6.09756075e-03, 0., 0., 0., 0., 6.09756075e-03,
          0., 0., 0., 0., 6.09756075e-03, 0., 0., 0., 0., 0., 0., 0.,
          6.09756075e-03, 0., 0., 0., 0., 0., 0., 0., 0., 0.,
          6.09756075e-03, 0., 0., 0., 0., 0., 0., 0., 0., 0., 0., 0., 0.,
          0., 0., 0., 0., 0., 0., 6.09756075e-03, 0., 0., 0., 0., 0., 0.,
          0., 0., 6.09756075e-03, 0., 0., 0., 0., 0., 0., 0., 0., 0., 0.,
          0., 6.09756075e-03, 0., 0., 0., 6.09756075e-03, 0., 0., 0., 0.,
          0., 0., 0., 0., 6.09756075e-03, 0., 0., 0., 0., 0.,
          1.21951215e-02, 0., 0., 0., 0., 0., 0., 0., 0., 0., 0., 0., 0.,
          0., 0., 0., 0., 0., 0., 6.09756075e-03, 0., 0., 0., 0., 0., 0.,
          0., 0., 6.09756075e-03, 0., 0., 0., 0., 0., 0., 0., 0., 0., 0.,
          0., 6.09756075e-03, 0., 0., 0., 6.09756075e-03, 6.09756075e-03,
          0., 0., 0., 0., 0., 6.09756075e-03, 0., 0., 0., 0., 0., 0., 0.,
          6.09756075e-03, 1.21951215e-02, 6.09756075e-03, 6.09756075e-03,
          6.09756075e-03, 0., 0., 0., 0., 0., 0., 0., 0., 0., 0., 0., 0.,
          0., 0., 0., 0., 0., 0., 0., 0., 0., 0., 0., 0., 0.,
          6.09756075e-03, 0., 0., 0., 0., 0., 0., 0., 1.21951215e-02, 0.,
          0., 0., 0., 0., 0., 0., 0., 0., 0., 0., 0., 1.21951215e-02, 0.,
          0., 0., 1.21951215e-02, 0., 0., 1.21951215e-02, 0., 0., 0., 0.,
          0., 0., 0., 0., 0., 0., 0., 0., 0., 0., 0., 0., 0., 0., 0., 0.,
          0., 0., 0., 0., 0., 0., 0., 0., 6.09756075e-03, 0.,
          6.09756075e-03, 0., 0., 0., 0., 0., 0., 6.09756075e-03,
          6.09756075e-03, 1.21951215e-02, 0., 0., 0., 0., 0., 0., 0., 0.,
          0., 0., 0., 0., 0., 0., 0., 0., 0., 0., 0., 0., 6.09756075e-03,
          0., 0., 0., 0., 0., 0., 0. ]
      - [ 0., 0., 0., 0., 0., 1.82926822e-02, 6.09756075e-03, 0., 0., 0.,
          0., 0., 0., 6.09756075e-03, 0., 0., 0., 0., 0., 0., 0., 0., 0.,
          6.09756075e-03, 0., 0., 0., 0., 0., 0., 0., 0., 0., 0., 0., 0.,
          0., 0., 0., 0., 0., 0., 0., 0., 6.09756075e-03, 0., 0., 0., 0.,
          0., 0., 0., 6.09756075e-03, 0., 0., 0., 0., 0., 0., 0., 0., 0.,
          0., 0., 0., 0., 0., 6.09756075e-03, 0., 0., 0., 6.09756075e-03,
          0., 6.09756075e-03, 0., 0., 0., 0., 0., 0., 0., 0., 0., 0., 0.,
          0., 0., 6.09756075e-03, 0., 0., 0., 0., 0., 0., 0., 0., 0.,
          6.09756075e-03, 0., 0., 0., 0., 0., 0., 0., 0., 0., 0., 0., 0.,
          0., 0., 0., 0., 0., 0., 6.09756075e-03, 0., 0., 0., 0., 0., 0.,
          0., 0., 0., 0., 6.09756075e-03, 0., 0., 0., 0., 0., 0., 0., 0.,
          0., 0., 0., 0., 0., 0., 0., 0., 0., 6.09756075e-03,
          6.09756075e-03, 0., 0., 0., 0., 0., 0., 0., 0., 0., 0., 0., 0.,
          0., 0., 0., 0., 0., 0., 0., 0., 0., 0., 0., 0., 0., 0., 0., 0.,
          0., 0., 6.09756075e-03, 0., 0., 6.09756075e-03, 0., 0., 0., 0.,
          6.09756075e-03, 0., 0., 0., 6.09756075e-03, 0., 0., 0., 0., 0.,
          0., 0., 0., 0., 0., 0., 0., 0., 0., 0., 0., 0., 0., 0., 0., 0.,
          6.09756075e-03, 0., 0., 0., 0., 0., 0., 0., 0., 0., 0.,
          6.09756075e-03, 0., 0., 0., 0., 0., 0., 0., 0., 0., 0., 0., 0.,
          0., 0., 0., 6.09756075e-03, 0., 0., 0., 0., 0., 0., 0., 0., 0.,
          0., 0., 6.09756075e-03, 0., 0., 0., 0., 0., 0., 0., 0., 0., 0.,
          0., 0., 6.09756075e-03, 0., 0., 6.09756075e-03, 0., 0.,
          6.09756075e-03, 6.09756075e-03, 0., 0., 0., 0., 0., 0., 0., 0.,
          0., 0., 0., 0., 0., 0., 0., 0., 0., 0., 0., 0., 0., 0., 0., 0.,
          0., 0., 0., 0., 0., 0., 0., 0., 0., 0., 0., 0., 0.,
          6.09756075e-03, 1.21951215e-02, 0., 0., 6.09756075e-03, 0., 0.,
          0., 0., 0., 0., 0., 0., 0., 0., 0., 0., 0., 0., 6.09756075e-03,
          0., 0., 0., 0., 0., 0., 0., 0., 0., 0., 0., 0., 0., 0., 0., 0.,
          0., 0., 0., 0., 0., 0., 0., 0., 0., 0., 6.09756075e-03,
          1.21951215e-02, 0., 0., 0., 0., 3.65853645e-02, 0., 0., 0., 0.,
          0., 0., 0., 1.21951215e-02, 0., 0., 0., 0., 0., 0., 0., 0., 0.,
          0., 0., 0., 0., 0., 0., 0., 6.09756075e-03, 0., 0.,
          6.09756075e-03, 0., 0., 6.09756075e-03, 0., 0., 0., 0., 0., 0.,
          0., 0., 0., 0., 0., 6.09756075e-03, 0., 0., 0., 0., 0., 0., 0.,
          0., 0., 0., 0., 0., 0., 0., 0., 0., 0., 0., 0., 6.09756075e-03,
          0., 0., 0., 0., 0., 0., 0., 0., 0., 0., 0., 0., 0., 0., 0., 0.,
          0., 0., 0., 6.09756075e-03, 0., 0., 0., 0., 0., 0., 0., 0., 0.,
          0., 0., 0., 0., 6.09756075e-03, 0., 0., 0., 0., 0., 0., 0., 0.,
          0., 0., 0., 6.09756075e-03, 0., 1.21951215e-02, 0., 0., 0., 0.,
          0., 6.09756075e-03, 0., 0., 0., 6.09756075e-03, 0., 0., 0., 0.,
          0., 0., 6.09756075e-03, 0., 0., 0., 0., 0., 0., 0., 0., 0., 0.,
          0., 0., 0., 0., 0., 0., 0., 0., 0., 0., 0., 0., 0., 0., 0., 0.,
          0., 0., 0., 0., 0., 0., 0., 0., 0., 0., 0., 0., 6.09756075e-03,
          0., 0., 0., 0., 0., 0., 0., 0., 0., 0., 0., 0., 0., 0., 0., 0.,
          0., 0., 0., 0., 0., 0., 0., 0., 0., 0., 6.09756075e-03, 0., 0.,
          0., 0., 0., 0., 0., 0., 0., 0., 0., 0., 6.09756075e-03,
          6.09756075e-03, 0., 0., 0., 0., 0., 0., 0., 0., 6.09756075e-03,
          0., 0., 0., 6.09756075e-03, 0., 0., 6.09756075e-03, 0., 0., 0.,
          0., 0., 0., 0., 0., 0., 6.09756075e-03, 0., 0., 0., 0., 0., 0.,
          0., 0., 0., 0., 0., 0., 0., 0., 0., 6.09756075e-03, 0., 0., 0.,
          0., 6.09756075e-03, 0., 6.09756075e-03, 0., 0., 0., 0., 0., 0.,
          0., 0., 0., 0., 0., 0., 0., 6.09756075e-03, 0., 0., 0., 0., 0.,
          0., 0., 0., 0., 0., 0., 0., 0., 0., 0., 0., 0., 0., 0., 0., 0.,
          0., 0., 0., 0., 6.09756075e-03, 0., 0., 0., 0., 0., 0., 0., 0.,
          0., 0., 0., 0., 0., 0., 2.43902430e-02, 0., 0., 6.09756075e-03,
          0., 0., 0., 0., 0., 0., 0., 0., 0., 6.09756075e-03, 0., 0., 0.,
          0., 0., 0., 0., 0., 0., 6.09756075e-03, 0., 0., 0., 0., 0., 0.,
          0., 0., 0., 0., 0., 0., 0., 0., 0., 0., 0., 0., 0., 0., 0., 0.,
          0., 6.09756075e-03, 6.09756075e-03, 0., 0., 0., 0., 0.,
          1.21951215e-02, 6.09756075e-03, 6.09756075e-03, 0., 0., 0., 0.,
          6.09756075e-03, 6.09756075e-03, 0., 0., 0., 0., 0., 0., 0., 0.,
          0., 6.09756075e-03, 0., 0., 0., 0., 0., 0., 0., 6.09756075e-03,
          0., 0., 0., 0., 0., 0., 0., 1.21951215e-02, 0., 0., 0.,
          6.09756075e-03, 0., 0., 0., 0., 0., 0., 6.09756075e-03, 0., 0.,
          0., 0., 0., 0., 0., 1.21951215e-02, 0., 0., 0., 0., 0., 0., 0.,
          6.09756075e-03, 0., 0., 0., 0., 0., 6.09756075e-03, 0., 0., 0.,
          1.21951215e-02, 6.09756075e-03, 0., 0., 0., 0., 0., 0., 0.,
          6.09756075e-03, 0., 0., 0., 0., 0., 0., 0., 6.09756075e-03, 0.,
          0., 0., 6.09756075e-03, 0., 0., 0., 0., 0., 0., 0., 0., 0., 0.,
          0., 6.09756075e-03, 6.09756075e-03, 0., 0., 0., 0.,
          6.09756075e-03, 0., 0., 0., 0., 0., 0., 0., 0., 0., 0.,
          6.09756075e-03, 0., 0., 0., 0., 0., 0., 0., 0., 0., 0., 0., 0.,
          0., 0., 0., 0., 0., 0., 0., 0., 0., 0., 0., 6.09756075e-03, 0.,
          6.09756075e-03, 0., 0., 0., 0., 6.09756075e-03, 0., 0.,
          1.82926822e-02, 0., 0., 0., 0., 0., 0., 0., 0., 0., 0.,
          6.09756075e-03, 0., 0., 0., 0., 0., 6.09756075e-03, 0., 0., 0.,
          0., 0., 0., 0., 0., 0., 0., 0., 0., 0., 0., 0., 0., 0., 0., 0.,
          0., 0., 0., 0., 0., 0., 0., 0., 1.82926822e-02, 0., 0., 0., 0.,
          0., 6.09756075e-03, 0., 0., 0., 0., 0., 0., 6.09756075e-03, 0.,
          0., 0., 0., 0., 6.09756075e-03, 0., 6.09756075e-03, 0., 0., 0.,
          6.09756075e-03, 0., 0., 0., 6.09756075e-03, 0., 0., 0., 0.,
          6.09756075e-03, 0., 0., 0., 0., 0., 0., 0., 0., 0., 0., 0., 0.,
          0., 6.09756075e-03, 0., 0., 0., 0., 0., 0., 6.09756075e-03, 0.,
          0., 0., 0., 0., 0., 0., 6.09756075e-03, 0., 6.09756075e-03, 0.,
          0., 0., 0., 0., 0., 0., 6.09756075e-03, 0., 0., 0., 0., 0., 0.,
          0., 0., 0., 0., 0., 0., 0., 0., 1.21951215e-02, 0., 0., 0., 0.,
          0., 0., 0., 6.09756075e-03, 0., 0., 0., 0., 0., 0.,
          6.09756075e-03, 0., 0., 0., 6.09756075e-03, 0., 0., 0., 0., 0.,
          6.09756075e-03, 0., 0., 0., 0., 0., 0., 0., 0., 0., 0., 0., 0.,
          0., 0., 0., 0., 6.09756075e-03, 0., 6.09756075e-03, 0., 0.,
          6.09756075e-03, 0., 0., 0., 0., 0., 6.09756075e-03, 0., 0.,
          6.09756075e-03, 0., 0., 0., 6.09756075e-03, 0., 6.09756075e-03,
          0., 0., 6.09756075e-03, 0., 6.09756075e-03, 0., 0., 0., 0., 0.,
          0., 0., 0., 0., 0., 0., 0., 0., 0., 0., 0., 0., 1.21951215e-02,
          0., 0., 0., 0., 0., 6.09756075e-03, 0., 0., 0., 0., 0.,
          1.21951215e-02, 0., 0., 0., 6.09756075e-03, 0., 0., 0., 0.,
          6.09756075e-03, 0., 0., 0., 6.09756075e-03, 0., 0., 0.,
          1.21951215e-02, 0., 0., 2.43902430e-02, 0., 0., 6.09756075e-03,
          0., 0., 0., 0., 0., 0., 0., 0., 0., 0., 0., 0., 0., 0., 0., 0.,
          0., 0., 0., 0., 0., 0., 0., 0., 0., 6.09756075e-03, 0., 0., 0.,
          0., 0., 0., 0., 0., 0., 6.09756075e-03, 1.21951215e-02, 0., 0.,
          0., 0., 6.09756075e-03, 0., 0., 0., 0., 0., 0., 0., 0., 0., 0.,
          0., 0., 0., 0., 0., 0., 0., 0., 0., 0., 0., 0., 0. ]
      - [ 0., 0., 0., 0., 0., 1.64835174e-02, 5.49450563e-03, 0., 0., 0.,
          0., 0., 0., 5.49450563e-03, 0., 5.49450563e-03, 0., 0., 0.,
          5.49450563e-03, 0., 0., 0., 0., 0., 0., 0., 0., 0.,
          5.49450563e-03, 0., 0., 0., 0., 0., 5.49450563e-03, 0., 0., 0.,
          0., 0., 0., 5.49450563e-03, 0., 0., 0., 0., 0., 0., 0., 0., 0.,
          0., 0., 0., 0., 0., 0., 0., 0., 0., 0., 0., 0., 0., 0., 0.,
          5.49450563e-03, 0., 0., 0., 5.49450563e-03, 0., 5.49450563e-03,
          0., 0., 0., 0., 0., 0., 0., 0., 0., 0., 0., 0., 0., 0.,
          5.49450563e-03, 0., 0., 0., 0., 0., 0., 0., 0., 0., 0., 0., 0.,
          0., 0., 0., 0., 0., 0., 0., 0., 0., 0., 0., 5.49450563e-03, 0.,
          0., 0., 5.49450563e-03, 0., 0., 0., 0., 0., 0., 0., 0., 0., 0.,
          5.49450563e-03, 0., 0., 0., 0., 0., 5.49450563e-03, 0., 0., 0.,
          0., 0., 0., 5.49450563e-03, 0., 0., 0., 0., 0., 0., 0., 0., 0.,
          0., 0., 0., 0., 0., 5.49450563e-03, 0., 0., 0., 0., 0., 0., 0.,
          0., 0., 0., 0., 0., 0., 0., 0., 0., 0., 0., 0., 0., 0., 0., 0.,
          0., 5.49450563e-03, 0., 5.49450563e-03, 0., 0., 5.49450563e-03,
          0., 0., 0., 5.49450563e-03, 0., 0., 0., 0., 0., 0., 0., 0., 0.,
          0., 0., 0., 0., 0., 0., 0., 0., 0., 0., 0., 5.49450563e-03,
          5.49450563e-03, 0., 0., 0., 0., 0., 0., 0., 0., 5.49450563e-03,
          0., 0., 0., 0., 0., 5.49450563e-03, 0., 0., 0., 0., 0., 0., 0.,
          0., 0., 0., 0., 1.09890113e-02, 0., 0., 0., 0., 0., 0., 0., 0.,
          0., 0., 0., 5.49450563e-03, 0., 5.49450563e-03, 0., 0., 0., 0.,
          0., 0., 0., 0., 0., 0., 0., 0., 0., 5.49450563e-03, 0., 0., 0.,
          0., 0., 0., 0., 0., 5.49450563e-03, 0., 0., 0., 5.49450563e-03,
          0., 0., 0., 0., 0., 0., 0., 0., 0., 0., 5.49450563e-03, 0., 0.,
          0., 0., 0., 0., 0., 0., 0., 0., 0., 0., 0., 0., 0., 0., 0.,
          5.49450563e-03, 5.49450563e-03, 0., 0., 0., 0., 0., 0., 0., 0.,
          0., 0., 0., 0., 0., 0., 0., 0., 0., 0., 0., 0., 0., 0., 0., 0.,
          0., 0., 0., 0., 0., 0., 0., 0., 0., 0., 5.49450563e-03, 0., 0.,
          0., 0., 0., 0., 0., 0., 0., 0., 5.49450563e-03, 0., 0., 0., 0.,
          3.29670347e-02, 5.49450563e-03, 0., 0., 0., 0., 0., 0.,
          2.74725277e-02, 0., 0., 0., 0., 0., 0., 0., 0., 0., 0., 0.,
          5.49450563e-03, 5.49450563e-03, 0., 0., 0., 0., 0.,
          5.49450563e-03, 0., 0., 0., 5.49450563e-03, 0., 0., 0., 0., 0.,
          0., 0., 0., 0., 0., 0., 0., 0., 0., 0., 0., 5.49450563e-03, 0.,
          0., 0., 5.49450563e-03, 0., 0., 0., 0., 0., 0., 0., 0., 0., 0.,
          5.49450563e-03, 0., 0., 0., 0., 0., 0., 0., 0., 0., 0., 0., 0.,
          0., 5.49450563e-03, 0., 0., 5.49450563e-03, 0., 0., 0., 0.,
          1.09890113e-02, 0., 0., 5.49450563e-03, 0., 0., 0., 0., 0., 0.,
          0., 0., 0., 0., 0., 5.49450563e-03, 0., 0., 0., 0., 0., 0., 0.,
          0., 0., 5.49450563e-03, 0., 0., 0., 0., 0., 0., 0.,
          5.49450563e-03, 0., 0., 0., 0., 0., 0., 0., 0., 0.,
          5.49450563e-03, 0., 0., 0., 0., 0., 0., 0., 0., 0., 0., 0., 0.,
          0., 0., 0., 0., 0., 0., 0., 0., 0., 0., 0., 0., 0., 0., 0., 0.,
          0., 0., 5.49450563e-03, 0., 0., 0., 0., 0., 0., 0.,
          5.49450563e-03, 0., 0., 0., 0., 0., 0., 0., 0., 0., 0., 0., 0.,
          0., 0., 0., 0., 0., 0., 0., 0., 0., 0., 0., 0., 0., 0., 0., 0.,
          0., 5.49450563e-03, 0., 5.49450563e-03, 0., 0., 0., 0., 0., 0.,
          0., 0., 0., 0., 0., 0., 0., 0., 0., 0., 0., 0., 0., 0., 0., 0.,
          0., 0., 0., 0., 0., 0., 0., 0., 0., 0., 0., 0., 0., 0., 0., 0.,
          0., 0., 5.49450563e-03, 0., 0., 0., 0., 0., 0., 0., 0., 0., 0.,
          0., 0., 0., 0., 0., 0., 0., 0., 0., 0., 0., 0., 0., 0., 0., 0.,
          0., 0., 0., 0., 0., 0., 0., 5.49450563e-03, 0., 0., 0., 0., 0.,
          5.49450563e-03, 0., 0., 0., 0., 0., 0., 5.49450563e-03, 0.,
          5.49450563e-03, 0., 0., 0., 0., 5.49450563e-03, 0., 0., 0., 0.,
          0., 0., 0., 0., 0., 5.49450563e-03, 0., 5.49450563e-03, 0., 0.,
          0., 0., 0., 1.09890113e-02, 0., 0., 5.49450563e-03,
          5.49450563e-03, 0., 0., 0., 0., 0., 0., 0., 5.49450563e-03,
          1.09890113e-02, 0., 0., 5.49450563e-03, 0., 0., 0., 0., 0.,
          5.49450563e-03, 0., 0., 0., 0., 0., 0., 0., 0., 0., 0., 0.,
          5.49450563e-03, 0., 0., 0., 0., 0., 0., 0., 0., 0., 0.,
          5.49450563e-03, 0., 0., 5.49450563e-03, 0., 0., 0., 0., 0.,
          5.49450563e-03, 0., 0., 0., 0., 0., 0., 0., 0., 0., 0., 0.,
          5.49450563e-03, 0., 0., 0., 0., 0., 0., 0., 0., 0., 0., 0., 0.,
          5.49450563e-03, 5.49450563e-03, 0., 0., 0., 0., 0.,
          5.49450563e-03, 0., 2.19780225e-02, 0., 0., 5.49450563e-03,
          5.49450563e-03, 5.49450563e-03, 0., 0., 0., 0., 0.,
          5.49450563e-03, 0., 0., 5.49450563e-03, 0., 0., 0., 0.,
          1.09890113e-02, 0., 0., 0., 0., 0., 0., 0., 0., 0., 0.,
          5.49450563e-03, 0., 0., 0., 0., 0., 5.49450563e-03, 0., 0., 0.,
          0., 0., 0., 0., 0., 0., 0., 0., 0., 5.49450563e-03, 0., 0., 0.,
          0., 0., 5.49450563e-03, 0., 0., 0., 0., 0., 0., 0., 0., 0., 0.,
          0., 0., 0., 5.49450563e-03, 0., 5.49450563e-03, 0.,
          5.49450563e-03, 0., 0., 0., 0., 0., 0., 0., 0., 0., 0.,
          5.49450563e-03, 0., 5.49450563e-03, 0., 0., 0., 0., 0., 0., 0.,
          0., 0., 0., 0., 0., 0., 0., 0., 0., 0., 0., 0., 0., 0., 0., 0.,
          0., 0., 0., 5.49450563e-03, 0., 5.49450563e-03, 0., 0., 0., 0.,
          0., 1.09890113e-02, 0., 0., 0., 0., 0., 5.49450563e-03, 0.,
          5.49450563e-03, 5.49450563e-03, 0., 5.49450563e-03, 0.,
          5.49450563e-03, 0., 0., 0., 0., 0., 5.49450563e-03,
          5.49450563e-03, 0., 0., 0., 0., 0., 0., 5.49450563e-03, 0., 0.,
          0., 0., 0., 0., 0., 0., 0., 0., 0., 0., 5.49450563e-03, 0., 0.,
          0., 0., 5.49450563e-03, 0., 0., 0., 0., 5.49450563e-03, 0., 0.,
          5.49450563e-03, 0., 0., 5.49450563e-03, 0., 0., 0.,
          5.49450563e-03, 5.49450563e-03, 0., 0., 0., 0., 0., 0., 0., 0.,
          0., 0., 5.49450563e-03, 0., 0., 0., 0., 0., 0., 5.49450563e-03,
          5.49450563e-03, 0., 0., 0., 0., 0., 0., 0., 0., 5.49450563e-03,
          0., 0., 0., 0., 0., 0., 0., 0., 0., 0., 0., 0., 0., 0., 0., 0.,
          0., 0., 0., 0., 0., 0., 0., 5.49450563e-03, 0., 0., 0., 0., 0.,
          0., 0., 0., 0., 5.49450563e-03, 0., 0., 0., 0., 5.49450563e-03,
          0., 0., 0., 0., 0., 0., 0., 0., 0., 5.49450563e-03, 0., 0., 0.,
          0., 0., 0., 0., 0., 5.49450563e-03, 0., 0., 0., 0., 0., 0., 0.,
          0., 0., 0., 0., 0., 0., 0., 0., 0., 0., 0., 0., 0., 0., 0., 0.,
          0., 0., 5.49450563e-03, 0., 0., 0., 1.09890113e-02, 0.,
          5.49450563e-03, 1.64835174e-02, 5.49450563e-03, 0., 0., 0., 0.,
          0., 0., 0., 0., 0., 0., 0., 1.09890113e-02, 0., 0.,
          5.49450563e-03, 0., 0., 0., 0., 0., 0., 0., 0., 0., 0., 0., 0.,
          0., 0., 0., 0., 0., 0., 0., 0., 5.49450563e-03, 5.49450563e-03,
          5.49450563e-03, 0., 0., 0., 0., 0., 0., 0., 0., 0., 0.,
          5.49450563e-03, 0., 0., 0., 0., 0., 0., 5.49450563e-03, 0., 0.,
          0., 0., 0., 5.49450563e-03, 0., 0., 5.49450563e-03,
          1.09890113e-02, 0., 0., 2.74725277e-02, 0., 0., 0., 0., 0., 0.,
          0., 0., 0., 0., 0., 0., 0., 0., 0., 0., 0., 0., 0., 0., 0.,
          5.49450563e-03, 0., 0., 0., 0., 0., 0., 1.09890113e-02, 0., 0.,
          0., 0., 0., 0., 0., 0., 0., 5.49450563e-03, 1.09890113e-02, 0.,
          0., 0., 5.49450563e-03, 0., 0., 0., 5.49450563e-03, 0., 0., 0.,
          0., 0., 0., 0., 0., 0., 0., 0., 0., 0., 1.64835174e-02, 0., 0.,
          5.49450563e-03, 0., 0., 0. ]
      - [ 0., 0., 0., 0., 0., 0., 0., 5.98802418e-03, 0., 0., 0., 0., 0.,
          0., 5.98802418e-03, 0., 0., 0., 0., 0., 0., 0., 0., 0., 0., 0.,
          5.98802418e-03, 5.98802418e-03, 5.98802418e-03, 0., 0.,
          5.98802418e-03, 0., 0., 0., 0., 0., 0., 5.98802418e-03,
          5.98802418e-03, 0., 5.98802418e-03, 0., 5.98802418e-03, 0.,
          5.98802418e-03, 0., 0., 5.98802418e-03, 0., 0., 0., 0., 0., 0.,
          0., 0., 0., 5.98802418e-03, 5.98802418e-03, 5.98802418e-03, 0.,
          0., 0., 0., 0., 0., 0., 0., 0., 5.98802418e-03, 0.,
          5.98802418e-03, 0., 0., 0., 0., 0., 0., 0., 0., 5.98802418e-03,
          0., 0., 0., 0., 5.98802418e-03, 0., 0., 0., 0., 0.,
          5.98802418e-03, 0., 5.98802418e-03, 0., 0., 0., 5.98802418e-03,
          0., 0., 5.98802418e-03, 0., 0., 0., 0., 0., 5.98802418e-03, 0.,
          5.98802418e-03, 5.98802418e-03, 0., 0., 0., 0., 5.98802418e-03,
          0., 0., 0., 0., 0., 0., 0., 0., 0., 0., 0., 0., 0., 0., 0., 0.,
          0., 0., 5.98802418e-03, 0., 0., 0., 5.98802418e-03, 0., 0., 0.,
          0., 0., 0., 0., 0., 0., 5.98802418e-03, 0., 5.98802418e-03, 0.,
          5.98802418e-03, 0., 0., 0., 5.98802418e-03, 0., 0.,
          5.98802418e-03, 5.98802418e-03, 0., 0., 0., 0., 0.,
          5.98802418e-03, 5.98802418e-03, 0., 0., 0., 0., 0.,
          5.98802418e-03, 0., 5.98802418e-03, 0., 0., 0., 0., 0., 0., 0.,
          5.98802418e-03, 5.98802418e-03, 0., 0., 5.98802418e-03,
          5.98802418e-03, 0., 0., 5.98802418e-03, 0., 5.98802418e-03, 0.,
          0., 5.98802418e-03, 5.98802418e-03, 0., 0., 5.98802418e-03, 0.,
          0., 0., 0., 5.98802418e-03, 5.98802418e-03, 0., 0.,
          5.98802418e-03, 0., 0., 0., 5.98802418e-03, 0., 0.,
          5.98802418e-03, 0., 0., 0., 0., 0., 0., 0., 0., 0., 0., 0.,
          5.98802418e-03, 5.98802418e-03, 0., 0., 0., 0., 0.,
          5.98802418e-03, 5.98802418e-03, 5.98802418e-03, 0., 0.,
          5.98802418e-03, 0., 0., 5.98802418e-03, 5.98802418e-03, 0., 0.,
          0., 0., 0., 0., 0., 0., 0., 0., 0., 0., 0., 5.98802418e-03, 0.,
          0., 5.98802418e-03, 5.98802418e-03, 0., 0., 5.98802418e-03, 0.,
          0., 5.98802418e-03, 0., 0., 0., 0., 0., 5.98802418e-03, 0.,
          5.98802418e-03, 5.98802418e-03, 5.98802418e-03, 0., 0., 0., 0.,
          0., 0., 0., 0., 0., 0., 0., 0., 0., 0., 0., 5.98802418e-03, 0.,
          0., 0., 0., 0., 0., 5.98802418e-03, 0., 0., 0., 0., 0., 0., 0.,
          0., 5.98802418e-03, 0., 0., 0., 0., 5.98802418e-03, 0.,
          5.98802418e-03, 5.98802418e-03, 0., 0., 0., 0., 5.98802418e-03,
          0., 0., 5.98802418e-03, 0., 0., 0., 0., 0., 0., 0., 0., 0.,
          5.98802418e-03, 0., 5.98802418e-03, 0., 0., 5.98802418e-03, 0.,
          0., 0., 0., 0., 5.98802418e-03, 0., 0., 0., 0., 0.,
          5.98802418e-03, 0., 0., 0., 0., 0., 0., 0., 0., 5.98802418e-03,
          0., 0., 0., 0., 0., 0., 0., 0., 5.98802418e-03, 5.98802418e-03,
          0., 5.98802418e-03, 5.98802418e-03, 0., 0., 5.98802418e-03,
          5.98802418e-03, 0., 0., 0., 0., 0., 0., 0., 0., 0., 0., 0., 0.,
          0., 0., 0., 0., 0., 0., 0., 0., 0., 0., 0., 0., 0., 0., 0., 0.,
          0., 5.98802418e-03, 0., 0., 0., 0., 0., 0., 0., 0., 0., 0., 0.,
          0., 0., 0., 5.98802418e-03, 0., 0., 0., 5.98802418e-03, 0., 0.,
          0., 0., 0., 0., 0., 0., 0., 5.98802418e-03, 5.98802418e-03, 0.,
          0., 0., 0., 0., 0., 0., 0., 0., 5.98802418e-03, 0., 0., 0., 0.,
          5.98802418e-03, 0., 5.98802418e-03, 0., 5.98802418e-03,
          5.98802418e-03, 0., 0., 0., 5.98802418e-03, 0., 5.98802418e-03,
          0., 0., 0., 0., 0., 0., 0., 0., 0., 0., 0., 0., 0., 0.,
          5.98802418e-03, 0., 0., 0., 0., 0., 0., 0., 0., 5.98802418e-03,
          0., 5.98802418e-03, 0., 0., 0., 0., 0., 0., 0., 0., 0., 0., 0.,
          0., 0., 5.98802418e-03, 0., 0., 0., 0., 5.98802418e-03, 0., 0.,
          5.98802418e-03, 0., 0., 5.98802418e-03, 0., 0., 0.,
          5.98802418e-03, 5.98802418e-03, 0., 0., 0., 0., 0., 0., 0., 0.,
          0., 0., 5.98802418e-03, 0., 0., 5.98802418e-03, 0.,
          5.98802418e-03, 5.98802418e-03, 0., 0., 0., 5.98802418e-03, 0.,
          0., 5.98802418e-03, 0., 0., 0., 0., 0., 0., 0., 0., 0., 0., 0.,
          0., 0., 0., 0., 0., 0., 0., 0., 5.98802418e-03, 0., 0., 0., 0.,
          0., 5.98802418e-03, 5.98802418e-03, 0., 0., 0., 0., 0.,
          5.98802418e-03, 0., 0., 0., 5.98802418e-03, 0., 0., 0., 0.,
          5.98802418e-03, 0., 0., 0., 0., 0., 0., 0., 0., 0., 0., 0., 0.,
          0., 0., 0., 5.98802418e-03, 0., 0., 0., 5.98802418e-03, 0., 0.,
          0., 0., 0., 0., 0., 0., 0., 0., 0., 0., 0., 5.98802418e-03, 0.,
          0., 0., 0., 0., 0., 0., 0., 0., 0., 0., 5.98802418e-03, 0.,
          5.98802418e-03, 0., 0., 0., 0., 0., 0., 0., 0., 0., 0., 0., 0.,
          0., 0., 0., 0., 0., 0., 0., 0., 0., 0., 0., 0., 0., 0., 0., 0.,
          0., 0., 0., 0., 0., 5.98802418e-03, 5.98802418e-03, 0., 0., 0.,
          0., 0., 0., 5.98802418e-03, 0., 0., 0., 0., 0., 0., 0., 0., 0.,
          0., 0., 0., 0., 0., 0., 0., 0., 0., 0., 0., 0., 0., 0., 0., 0.,
          0., 0., 0., 0., 0., 0., 0., 0., 0., 5.98802418e-03, 0., 0., 0.,
          0., 0., 0., 0., 0., 0., 0., 0., 0., 5.98802418e-03, 0., 0., 0.,
          0., 0., 0., 0., 0., 0., 0., 0., 0., 0., 0., 0., 0.,
          5.98802418e-03, 0., 0., 0., 0., 0., 0., 0., 0., 0., 0.,
          5.98802418e-03, 0., 5.98802418e-03, 0., 0., 0., 5.98802418e-03,
          0., 5.98802418e-03, 0., 0., 0., 0., 0., 0., 0., 0., 0., 0., 0.,
          0., 0., 0., 0., 0., 0., 0., 5.98802418e-03, 0., 0., 0., 0., 0.,
          0., 0., 0., 0., 0., 0., 5.98802418e-03, 0., 5.98802418e-03, 0.,
          0., 0., 0., 0., 0., 0., 0., 0., 0., 0., 0., 0., 0., 0.,
          5.98802418e-03, 0., 0., 0., 0., 0., 0., 0., 0., 0., 0., 0.,
          5.98802418e-03, 5.98802418e-03, 0., 0., 0., 0., 0., 0., 0., 0.,
          0., 0., 0., 0., 0., 0., 0., 0., 0., 0., 0., 0., 0., 0., 0., 0.,
          0., 0., 0., 0., 0., 0., 5.98802418e-03, 0., 0., 5.98802418e-03,
          0., 0., 0., 0., 0., 0., 0., 0., 0., 0., 5.98802418e-03, 0., 0.,
          0., 0., 0., 0., 0., 0., 0., 0., 0., 0., 0., 0., 0., 0., 0., 0.,
          0., 0., 0., 0., 0., 0., 5.98802418e-03, 0., 0., 0., 0., 0., 0.,
          0., 0., 0., 0., 0., 0., 0., 0., 0., 0., 0., 0., 0.,
          5.98802418e-03, 0., 0., 0., 0., 0., 0., 0., 0., 0., 0., 0., 0.,
          0., 0., 0., 0., 0., 0., 0., 0., 0., 0., 0., 0., 0., 0., 0., 0.,
          0., 0., 0., 0., 0., 0., 0., 0., 0., 0., 0., 0., 0., 0., 0., 0.,
          0., 0., 0., 0., 0., 5.98802418e-03, 0., 0., 0., 0., 0., 0., 0.,
          0., 0., 5.98802418e-03, 0., 0., 0., 0., 5.98802418e-03, 0., 0.,
          0., 0., 0., 5.98802418e-03, 0., 0., 0., 0., 0., 0., 0., 0., 0.,
          0., 0., 0., 0., 5.98802418e-03, 0., 0., 0., 0., 0., 0., 0., 0.,
          0., 0., 0., 0., 0., 0., 0., 0., 0., 0., 0., 0., 0., 0., 0., 0.,
          0., 0., 0., 0., 0., 0., 0., 0., 0., 0., 0., 0., 0., 0., 0., 0.,
          0., 0., 0., 0., 0., 0., 0., 0., 5.98802418e-03, 0., 0., 0.,
          5.98802418e-03, 5.98802418e-03, 0., 0., 0., 0., 5.98802418e-03,
          0., 0., 0., 0., 0., 0., 0., 0., 0., 0., 0., 0., 0., 0., 0., 0.,
          0., 0., 0., 0., 0., 0., 0., 0., 0., 0., 0., 0., 0., 0., 0., 0.,
          0., 0., 0., 0., 0., 0., 5.98802418e-03, 0., 0., 0., 0., 0., 0.,
          0., 0., 0., 0., 5.98802418e-03, 0., 0., 0., 0., 0., 0., 0., 0.,
          0., 0., 0., 0., 0., 5.98802418e-03, 0., 0., 0., 0., 0., 0., 0.,
          0., 0., 0., 0., 0., 0., 0., 0., 0., 0., 0., 0., 0., 0., 0.,
          5.98802418e-03, 5.98802418e-03, 0., 0., 0., 0., 0., 0., 0., 0.,
          0., 0., 0., 0., 0., 0., 0., 5.98802418e-03, 0., 0.,
          5.98802418e-03, 0., 0., 0., 0., 0., 0., 0., 0., 5.98802418e-03,
          0., 0., 0., 0., 0., 0., 0., 0., 0., 0., 0., 5.98802418e-03, 0.,
          0., 0., 0., 0., 0., 0., 0., 0., 0., 0., 0., 0., 0. ]
      - [ 0., 0., 0., 0., 0., 0., 0., 7.87401572e-03, 0., 0., 0., 0., 0.,
          0., 7.87401572e-03, 0., 0., 0., 0., 0., 0., 0., 0., 0., 0., 0.,
          0., 7.87401572e-03, 7.87401572e-03, 0., 0., 7.87401572e-03, 0.,
          0., 0., 0., 0., 0., 7.87401572e-03, 7.87401572e-03, 0.,
          7.87401572e-03, 0., 7.87401572e-03, 0., 7.87401572e-03, 0., 0.,
          7.87401572e-03, 0., 0., 0., 0., 0., 0., 0., 0., 0.,
          7.87401572e-03, 0., 7.87401572e-03, 0., 0., 0., 0., 0., 0., 0.,
          0., 7.87401572e-03, 7.87401572e-03, 0., 7.87401572e-03, 0., 0.,
          0., 0., 0., 0., 0., 0., 0., 0., 0., 0., 0., 7.87401572e-03, 0.,
          0., 0., 0., 0., 7.87401572e-03, 0., 7.87401572e-03, 0., 0., 0.,
          0., 0., 0., 0., 0., 0., 0., 0., 0., 7.87401572e-03, 0.,
          7.87401572e-03, 0., 0., 0., 0., 0., 7.87401572e-03, 0., 0., 0.,
          0., 0., 0., 0., 0., 0., 0., 0., 0., 0., 0., 0., 0., 0., 0., 0.,
          0., 0., 0., 7.87401572e-03, 0., 0., 0., 0., 0., 0., 0., 0., 0.,
          7.87401572e-03, 0., 7.87401572e-03, 0., 7.87401572e-03, 0., 0.,
          0., 7.87401572e-03, 0., 0., 7.87401572e-03, 7.87401572e-03, 0.,
          0., 0., 0., 0., 7.87401572e-03, 0., 0., 0., 0., 0., 0., 0., 0.,
          0., 0., 0., 0., 0., 0., 0., 0., 7.87401572e-03, 7.87401572e-03,
          0., 0., 7.87401572e-03, 7.87401572e-03, 0., 0., 0., 0.,
          7.87401572e-03, 0., 0., 7.87401572e-03, 7.87401572e-03, 0., 0.,
          0., 0., 0., 0., 0., 7.87401572e-03, 0., 0., 0., 7.87401572e-03,
          0., 0., 0., 0., 0., 0., 7.87401572e-03, 0., 0., 0., 0., 0., 0.,
          0., 0., 0., 0., 0., 0., 0., 0., 7.87401572e-03, 0., 0., 0., 0.,
          7.87401572e-03, 7.87401572e-03, 0., 0., 7.87401572e-03, 0., 0.,
          7.87401572e-03, 7.87401572e-03, 0., 0., 0., 0., 0., 0., 0., 0.,
          0., 0., 0., 0., 0., 7.87401572e-03, 0., 0., 0., 7.87401572e-03,
          0., 0., 7.87401572e-03, 0., 0., 7.87401572e-03, 0., 0., 0.,
          7.87401572e-03, 0., 0., 0., 7.87401572e-03, 0., 0., 0., 0., 0.,
          0., 0., 0., 0., 0., 0., 0., 0., 0., 7.87401572e-03, 0., 0.,
          7.87401572e-03, 0., 7.87401572e-03, 7.87401572e-03, 0., 0., 0.,
          7.87401572e-03, 0., 0., 7.87401572e-03, 0., 0., 0., 0., 0., 0.,
          0., 0., 0., 0., 0., 0., 7.87401572e-03, 7.87401572e-03, 0., 0.,
          0., 0., 7.87401572e-03, 0., 0., 7.87401572e-03, 0., 0., 0.,
          7.87401572e-03, 7.87401572e-03, 0., 0., 0., 0., 0., 0., 0., 0.,
          0., 7.87401572e-03, 0., 0., 0., 0., 0., 7.87401572e-03, 0., 0.,
          0., 0., 0., 7.87401572e-03, 0., 0., 0., 0., 0., 0., 0., 0.,
          7.87401572e-03, 0., 0., 0., 0., 0., 0., 0., 0., 0., 0., 0., 0.,
          0., 0., 0., 0., 0., 0., 0., 0., 0., 0., 0., 0., 0., 0., 0., 0.,
          0., 0., 7.87401572e-03, 0., 0., 0., 0., 0., 0., 0., 0., 0., 0.,
          0., 0., 0., 0., 0., 7.87401572e-03, 0., 0., 0., 0., 0., 0., 0.,
          7.87401572e-03, 0., 0., 0., 0., 0., 0., 7.87401572e-03, 0., 0.,
          0., 0., 0., 0., 0., 0., 0., 0., 7.87401572e-03, 0., 0., 0., 0.,
          0., 0., 7.87401572e-03, 0., 0., 0., 0., 0., 0., 0., 0., 0., 0.,
          0., 7.87401572e-03, 0., 7.87401572e-03, 0., 7.87401572e-03, 0.,
          0., 0., 0., 0., 0., 7.87401572e-03, 0., 0., 0., 0., 0., 0., 0.,
          0., 0., 0., 0., 0., 0., 0., 0., 0., 7.87401572e-03, 0., 0., 0.,
          0., 0., 0., 0., 0., 0., 0., 0., 0., 0., 0., 7.87401572e-03,
          7.87401572e-03, 0., 0., 7.87401572e-03, 0., 0., 0.,
          7.87401572e-03, 0., 0., 0., 0., 0., 0., 0., 0., 0., 0.,
          7.87401572e-03, 0., 0., 0., 7.87401572e-03, 7.87401572e-03, 0.,
          0., 0., 0., 0., 0., 0., 0., 0., 0., 7.87401572e-03, 0., 0., 0.,
          0., 0., 0., 0., 0., 0., 0., 0., 0., 7.87401572e-03, 0., 0., 0.,
          0., 0., 0., 0., 0., 0., 0., 0., 0., 0., 0., 0., 0., 0., 0., 0.,
          0., 0., 0., 0., 0., 7.87401572e-03, 0., 0., 0., 0., 0., 0., 0.,
          0., 0., 0., 0., 0., 0., 0., 0., 0., 0., 0., 0., 0., 0., 0., 0.,
          0., 0., 0., 0., 0., 0., 0., 0., 0., 7.87401572e-03,
          7.87401572e-03, 0., 0., 7.87401572e-03, 0., 0., 0., 0., 0., 0.,
          0., 0., 0., 0., 7.87401572e-03, 0., 0., 0., 0., 0., 0., 0., 0.,
          0., 0., 0., 7.87401572e-03, 0., 0., 7.87401572e-03, 0., 0., 0.,
          0., 7.87401572e-03, 0., 0., 0., 0., 0., 0., 7.87401572e-03, 0.,
          0., 0., 0., 0., 0., 0., 0., 0., 0., 0., 0., 0., 0., 0., 0., 0.,
          0., 0., 0., 0., 0., 0., 7.87401572e-03, 0., 0., 0., 0., 0., 0.,
          0., 0., 0., 0., 0., 0., 0., 0., 0., 0., 0., 7.87401572e-03, 0.,
          0., 0., 0., 0., 0., 0., 0., 0., 0., 0., 0., 0., 0., 0., 0., 0.,
          0., 0., 0., 0., 0., 0., 0., 0., 0., 0., 0., 0., 0., 0., 0., 0.,
          0., 0., 0., 7.87401572e-03, 0., 0., 0., 0., 0., 0., 0., 0., 0.,
          0., 0., 0., 0., 0., 0., 0., 0., 7.87401572e-03, 0., 0., 0., 0.,
          0., 0., 0., 0., 0., 0., 7.87401572e-03, 0., 0., 0., 0., 0., 0.,
          0., 7.87401572e-03, 0., 0., 0., 0., 0., 0., 0., 7.87401572e-03,
          0., 0., 0., 0., 0., 0., 0., 0., 0., 0., 0., 0., 0., 0., 0., 0.,
          0., 0., 0., 0., 0., 0., 0., 0., 0., 0., 0., 0., 0., 0., 0., 0.,
          0., 0., 0., 0., 0., 7.87401572e-03, 0., 0., 7.87401572e-03, 0.,
          0., 0., 0., 0., 0., 0., 0., 0., 0., 0., 7.87401572e-03, 0., 0.,
          0., 0., 0., 0., 0., 0., 0., 0., 0., 0., 0., 0., 0., 0., 0.,
          7.87401572e-03, 0., 0., 0., 0., 0., 0., 0., 0., 0., 0., 0., 0.,
          0., 0., 0., 0., 0., 0., 0., 0., 0., 0., 0., 0., 0., 0., 0., 0.,
          0., 0., 0., 0., 0., 0., 0., 0., 0., 0., 0., 0., 0., 0., 0., 0.,
          0., 0., 0., 0., 0., 0., 0., 0., 0., 0., 0., 0., 0., 0., 0., 0.,
          0., 0., 0., 0., 0., 0., 0., 0., 0., 7.87401572e-03, 0., 0., 0.,
          0., 7.87401572e-03, 0., 0., 0., 0., 0., 0., 7.87401572e-03, 0.,
          0., 0., 0., 0., 0., 0., 0., 0., 0., 0., 0., 0., 7.87401572e-03,
          0., 7.87401572e-03, 0., 0., 0., 0., 0., 0., 0., 0., 0., 0., 0.,
          0., 0., 0., 0., 0., 0., 0., 7.87401572e-03, 0., 0., 0., 0., 0.,
          0., 0., 0., 0., 0., 7.87401572e-03, 0., 0., 0., 0.,
          7.87401572e-03, 0., 0., 0., 0., 0., 0., 0., 0., 0., 0., 0., 0.,
          0., 0., 0., 0., 0., 0., 0., 0., 0., 0., 0., 0., 0., 0., 0., 0.,
          0., 0., 0., 0., 0., 0., 0., 0., 0., 0., 0., 0., 0., 0., 0.,
          7.87401572e-03, 0., 0., 0., 0., 0., 0., 0., 0., 0., 0., 0., 0.,
          0., 0., 0., 0., 0., 0., 0., 0., 0., 0., 0., 0., 0., 0., 0., 0.,
          0., 0., 0., 0., 0., 0., 0., 0., 0., 0., 0., 0., 0., 0., 0., 0.,
          0., 0., 0., 0., 0., 0., 0., 0., 0., 0., 0., 0., 0., 0., 0., 0.,
          0., 0., 0., 0., 0., 0., 7.87401572e-03, 0., 0., 0.,
          7.87401572e-03, 0., 0., 0., 0., 0., 0., 0., 7.87401572e-03, 0.,
          0., 0., 0., 0., 7.87401572e-03, 0., 0., 0., 0., 0., 0., 0., 0.,
          0., 0., 0., 0., 0., 0., 7.87401572e-03, 0., 0., 0., 0.,
          7.87401572e-03, 7.87401572e-03, 0., 0., 0., 0., 0., 0., 0., 0.,
          0., 0., 0., 0., 0., 0., 0., 0., 0., 0., 0., 0., 0.,
          7.87401572e-03, 0., 0., 0., 0., 0., 0., 0., 0., 0., 0., 0., 0.,
          0., 0., 0., 0., 0., 0., 0., 0., 0., 7.87401572e-03, 0., 0., 0.,
          0., 0., 0., 0., 0., 0., 0., 0., 0., 0., 0., 0., 0., 0.,
          7.87401572e-03, 0., 0., 0., 0., 0., 0., 0., 0., 0., 0., 0., 0.,
          0., 0. ]
      - [ 0., 0., 0., 0., 0., 0., 0., 6.28930796e-03, 0., 0., 0., 0., 0.,
          0., 6.28930796e-03, 0., 0., 0., 0., 0., 0., 0., 0., 0., 0., 0.,
          6.28930796e-03, 0., 6.28930796e-03, 0., 0., 6.28930796e-03, 0.,
          0., 0., 0., 0., 0., 6.28930796e-03, 6.28930796e-03, 0.,
          6.28930796e-03, 0., 6.28930796e-03, 0., 6.28930796e-03, 0., 0.,
          6.28930796e-03, 0., 0., 0., 0., 0., 0., 0., 0., 0.,
          6.28930796e-03, 0., 6.28930796e-03, 0., 0., 0., 0., 0., 0., 0.,
          0., 6.28930796e-03, 6.28930796e-03, 0., 6.28930796e-03, 0., 0.,
          0., 0., 0., 0., 0., 0., 0., 0., 0., 0., 0., 6.28930796e-03, 0.,
          0., 0., 0., 0., 6.28930796e-03, 6.28930796e-03, 6.28930796e-03,
          0., 0., 0., 6.28930796e-03, 0., 0., 6.28930796e-03,
          6.28930796e-03, 0., 0., 0., 0., 6.28930796e-03, 0.,
          6.28930796e-03, 6.28930796e-03, 0., 0., 0., 0., 6.28930796e-03,
          0., 0., 0., 0., 0., 0., 0., 0., 0., 0., 0., 0., 0., 0., 0., 0.,
          0., 0., 6.28930796e-03, 0., 0., 0., 6.28930796e-03, 0., 0., 0.,
          0., 0., 0., 0., 0., 0., 0., 0., 0., 0., 6.28930796e-03, 0., 0.,
          0., 6.28930796e-03, 0., 0., 6.28930796e-03, 6.28930796e-03, 0.,
          0., 0., 0., 0., 6.28930796e-03, 0., 0., 0., 0., 0., 0.,
          6.28930796e-03, 0., 6.28930796e-03, 0., 0., 0., 0., 0., 0., 0.,
          6.28930796e-03, 0., 0., 0., 6.28930796e-03, 6.28930796e-03, 0.,
          0., 0., 0., 6.28930796e-03, 0., 0., 6.28930796e-03, 0., 0., 0.,
          6.28930796e-03, 0., 0., 0., 0., 6.28930796e-03, 6.28930796e-03,
          0., 0., 6.28930796e-03, 0., 0., 0., 6.28930796e-03, 0., 0.,
          6.28930796e-03, 0., 0., 0., 0., 0., 0., 0., 0., 0., 0., 0.,
          6.28930796e-03, 6.28930796e-03, 6.28930796e-03, 6.28930796e-03,
          0., 0., 0., 6.28930796e-03, 6.28930796e-03, 6.28930796e-03, 0.,
          0., 6.28930796e-03, 0., 0., 6.28930796e-03, 6.28930796e-03, 0.,
          0., 0., 0., 0., 0., 0., 0., 0., 0., 0., 0., 0., 6.28930796e-03,
          0., 6.28930796e-03, 6.28930796e-03, 0., 0., 0., 6.28930796e-03,
          0., 0., 6.28930796e-03, 0., 0., 0., 6.28930796e-03, 0., 0., 0.,
          6.28930796e-03, 6.28930796e-03, 6.28930796e-03, 0., 0., 0., 0.,
          6.28930796e-03, 0., 0., 0., 0., 0., 0., 0., 0., 0., 0.,
          6.28930796e-03, 0., 6.28930796e-03, 6.28930796e-03, 0., 0., 0.,
          6.28930796e-03, 0., 0., 0., 0., 0., 0., 0., 0., 0., 0., 0., 0.,
          0., 0., 0., 6.28930796e-03, 6.28930796e-03, 0., 0., 0., 0.,
          6.28930796e-03, 0., 0., 6.28930796e-03, 0., 0., 0.,
          6.28930796e-03, 6.28930796e-03, 0., 0., 0., 0., 0., 0., 0., 0.,
          0., 6.28930796e-03, 0., 0., 0., 0., 0., 6.28930796e-03, 0., 0.,
          0., 0., 0., 6.28930796e-03, 0., 0., 0., 0., 0., 0., 0., 0.,
          6.28930796e-03, 0., 0., 0., 0., 0., 0., 0., 0., 6.28930796e-03,
          0., 0., 0., 6.28930796e-03, 6.28930796e-03, 0., 0.,
          6.28930796e-03, 0., 0., 0., 0., 6.28930796e-03, 0., 0., 0., 0.,
          0., 0., 0., 0., 0., 0., 0., 0., 0., 0., 0., 0., 0., 0., 0., 0.,
          0., 0., 0., 0., 6.28930796e-03, 0., 0., 0., 0., 0.,
          6.28930796e-03, 0., 0., 6.28930796e-03, 0., 0., 0., 0., 0.,
          6.28930796e-03, 0., 0., 0., 6.28930796e-03, 0., 0., 0., 0., 0.,
          0., 6.28930796e-03, 0., 0., 6.28930796e-03, 6.28930796e-03, 0.,
          0., 6.28930796e-03, 0., 0., 0., 0., 0., 0., 6.28930796e-03, 0.,
          0., 0., 0., 0., 0., 6.28930796e-03, 0., 6.28930796e-03, 0., 0.,
          0., 0., 6.28930796e-03, 0., 6.28930796e-03, 0., 0., 0., 0., 0.,
          0., 0., 0., 0., 0., 0., 0., 0., 0., 6.28930796e-03, 0.,
          6.28930796e-03, 0., 0., 0., 0., 0., 0., 0., 0., 0., 0., 0., 0.,
          0., 0., 6.28930796e-03, 0., 0., 0., 0., 0., 0., 0., 0., 0., 0.,
          0., 0., 6.28930796e-03, 0., 0., 6.28930796e-03, 0., 0.,
          6.28930796e-03, 0., 0., 0., 0., 0., 0., 0., 0., 0., 0., 0., 0.,
          0., 0., 0., 6.28930796e-03, 0., 0., 6.28930796e-03, 0., 0., 0.,
          0., 0., 0., 6.28930796e-03, 0., 0., 6.28930796e-03, 0., 0., 0.,
          0., 0., 0., 0., 0., 0., 0., 0., 0., 0., 0., 0., 0., 0., 0., 0.,
          6.28930796e-03, 6.28930796e-03, 0., 0., 0., 0., 0., 0., 0.,
          6.28930796e-03, 0., 0., 0., 6.28930796e-03, 0., 0., 0., 0., 0.,
          0., 0., 0., 0., 0., 0., 0., 0., 0., 0., 0., 0., 0.,
          6.28930796e-03, 0., 0., 0., 0., 0., 0., 0., 0., 6.28930796e-03,
          6.28930796e-03, 0., 0., 0., 0., 0., 0., 0., 0., 0., 0.,
          6.28930796e-03, 0., 0., 0., 0., 0., 0., 0., 0., 0.,
          6.28930796e-03, 0., 6.28930796e-03, 0., 0., 0., 0., 0., 0., 0.,
          0., 0., 0., 0., 0., 0., 0., 0., 6.28930796e-03, 0., 0., 0., 0.,
          0., 0., 6.28930796e-03, 0., 0., 0., 0., 0., 0., 0., 0., 0., 0.,
          0., 0., 0., 0., 0., 6.28930796e-03, 0., 0., 0., 0., 0., 0., 0.,
          0., 0., 0., 6.28930796e-03, 0., 0., 0., 0., 0., 0., 0., 0., 0.,
          0., 0., 0., 0., 0., 0., 0., 0., 0., 0., 0., 0., 6.28930796e-03,
          0., 0., 0., 0., 0., 0., 0., 0., 6.28930796e-03, 0., 0., 0., 0.,
          0., 0., 0., 0., 0., 0., 0., 0., 0., 6.28930796e-03, 0., 0., 0.,
          0., 0., 0., 0., 0., 0., 0., 0., 0., 0., 0., 0., 0.,
          6.28930796e-03, 0., 0., 0., 0., 0., 0., 0., 0., 0., 0., 0., 0.,
          0., 0., 0., 0., 0., 0., 0., 6.28930796e-03, 0., 0., 0., 0., 0.,
          0., 0., 6.28930796e-03, 0., 0., 0., 0., 0., 0., 0., 0., 0., 0.,
          0., 0., 0., 0., 0., 0., 0., 0., 0., 0., 0., 0., 0., 0., 0., 0.,
          0., 0., 0., 0., 0., 0., 6.28930796e-03, 0., 0., 0.,
          6.28930796e-03, 0., 0., 6.28930796e-03, 0., 0., 6.28930796e-03,
          0., 0., 0., 0., 0., 0., 0., 0., 0., 0., 6.28930796e-03, 0., 0.,
          0., 0., 0., 0., 0., 6.28930796e-03, 0., 0., 0., 0.,
          6.28930796e-03, 0., 0., 0., 0., 0., 6.28930796e-03, 0.,
          6.28930796e-03, 0., 0., 0., 0., 0., 0., 0., 0., 0., 0., 0.,
          6.28930796e-03, 0., 0., 0., 6.28930796e-03, 0., 0., 0., 0., 0.,
          0., 6.28930796e-03, 0., 6.28930796e-03, 0., 0., 0., 0., 0., 0.,
          0., 0., 6.28930796e-03, 0., 0., 0., 0., 0., 0., 0., 0., 0., 0.,
          0., 0., 0., 0., 0., 0., 0., 0., 0., 0., 0., 0., 0., 0., 0., 0.,
          0., 0., 0., 0., 6.28930796e-03, 0., 0., 0., 0., 0., 0., 0., 0.,
          0., 0., 0., 0., 0., 0., 0., 0., 0., 0., 0., 0., 0., 0., 0., 0.,
          0., 0., 0., 0., 0., 0., 0., 0., 6.28930796e-03, 0., 0., 0., 0.,
          0., 0., 0., 0., 0., 0., 0., 0., 0., 0., 0., 0., 0., 0., 0., 0.,
          0., 0., 0., 0., 0., 0., 0., 0., 0., 0., 0., 0., 0.,
          6.28930796e-03, 0., 0., 0., 0., 0., 0., 0., 6.28930796e-03, 0.,
          0., 0., 0., 0., 0., 0., 0., 0., 0., 0., 0., 0., 0., 0., 0., 0.,
          0., 0., 0., 0., 0., 0., 0., 0., 0., 0., 0., 0., 0., 0.,
          6.28930796e-03, 0., 0., 0., 0., 0., 0., 0., 0., 0., 0., 0., 0.,
          0., 0., 0., 0., 0., 0., 0., 0., 0., 0., 0., 0., 0., 0., 0., 0.,
          0., 0., 0., 0., 0., 0., 0., 0., 0., 0., 0., 0., 0., 0., 0., 0.,
          0., 0., 0., 0., 0., 0., 0., 0., 0., 0., 6.28930796e-03, 0., 0.,
          0., 0., 0., 0., 0., 6.28930796e-03, 0., 0., 0., 0., 0., 0., 0.,
          6.28930796e-03, 0., 0., 0., 0., 0., 0., 0., 0., 0., 0., 0., 0.,
          0., 0., 0., 0., 0., 0., 0., 0., 0., 0., 0., 0., 0., 0., 0., 0.,
          6.28930796e-03, 0., 0., 0., 0., 0., 6.28930796e-03, 0., 0., 0.,
          0., 0., 0., 0., 0., 0., 0., 0., 0., 0., 0., 0., 0., 0., 0., 0.,
          0., 0., 6.28930796e-03, 0., 0., 0., 0., 0., 0., 0., 0., 0., 0.,
          0., 0., 0., 0., 0., 0., 0., 0., 6.28930796e-03, 0., 0., 0., 0.,
          0., 0., 0., 0., 0., 0., 0., 0., 6.28930796e-03, 0., 0., 0., 0.,
          0., 6.28930796e-03, 0., 6.28930796e-03, 0., 0., 0., 0., 0., 0.,
          0., 0., 0., 0., 0., 0., 0., 0. ]
      - [ 0., 0., 0., 0., 0., 0., 0., 8.06451589e-03, 0., 0., 0., 0., 0.,
          0., 8.06451589e-03, 0., 0., 0., 0., 0., 0., 0., 0., 0., 0., 0.,
          0., 0., 0., 0., 0., 8.06451589e-03, 0., 0., 0., 0., 0., 0., 0.,
          0., 0., 0., 0., 0., 0., 8.06451589e-03, 0., 0., 8.06451589e-03,
          0., 0., 0., 0., 0., 8.06451589e-03, 0., 0., 0., 8.06451589e-03,
          8.06451589e-03, 0., 0., 0., 0., 0., 0., 0., 0., 0.,
          8.06451589e-03, 8.06451589e-03, 0., 8.06451589e-03, 0., 0., 0.,
          0., 0., 0., 0., 0., 0., 0., 0., 0., 0., 0., 0., 0., 0., 0., 0.,
          0., 0., 8.06451589e-03, 0., 0., 0., 8.06451589e-03, 0., 0., 0.,
          8.06451589e-03, 0., 0., 0., 0., 0., 0., 8.06451589e-03, 0., 0.,
          0., 0., 0., 0., 0., 0., 0., 0., 8.06451589e-03, 0., 0., 0., 0.,
          0., 0., 0., 0., 0., 0., 0., 0., 0., 8.06451589e-03,
          8.06451589e-03, 0., 0., 8.06451589e-03, 0., 0., 0., 0.,
          8.06451589e-03, 0., 0., 0., 0., 8.06451589e-03, 0.,
          8.06451589e-03, 0., 0., 0., 0., 0., 0., 0., 0., 8.06451589e-03,
          8.06451589e-03, 0., 0., 0., 0., 0., 8.06451589e-03, 0., 0., 0.,
          0., 0., 0., 8.06451589e-03, 0., 0., 0., 0., 0., 0., 0., 0., 0.,
          0., 0., 0., 0., 8.06451589e-03, 8.06451589e-03, 0., 0., 0., 0.,
          8.06451589e-03, 0., 0., 0., 0., 0., 0., 8.06451589e-03, 0., 0.,
          0., 0., 8.06451589e-03, 0., 0., 0., 8.06451589e-03, 0., 0., 0.,
          8.06451589e-03, 0., 0., 8.06451589e-03, 0., 0., 0., 0., 0., 0.,
          0., 0., 0., 0., 0., 8.06451589e-03, 0., 8.06451589e-03,
          8.06451589e-03, 0., 0., 0., 0., 8.06451589e-03, 8.06451589e-03,
          0., 0., 0., 0., 0., 0., 8.06451589e-03, 8.06451589e-03, 0., 0.,
          0., 0., 0., 0., 0., 0., 0., 0., 0., 0., 0., 0., 8.06451589e-03,
          8.06451589e-03, 0., 0., 0., 0., 0., 0., 0., 0., 0., 0.,
          8.06451589e-03, 0., 0., 0., 0., 0., 8.06451589e-03, 0., 0., 0.,
          8.06451589e-03, 0., 0., 0., 0., 8.06451589e-03, 0., 0., 0., 0.,
          0., 0., 0., 0., 0., 0., 0., 0., 0., 8.06451589e-03, 0., 0., 0.,
          0., 0., 0., 0., 0., 8.06451589e-03, 0., 0., 0., 0., 0., 0., 0.,
          0., 0., 0., 0., 0., 8.06451589e-03, 0., 0., 0., 0., 0., 0., 0.,
          0., 0., 0., 0., 0., 8.06451589e-03, 0., 0., 0., 0., 0., 0., 0.,
          0., 0., 0., 0., 8.06451589e-03, 0., 0., 0., 0., 0., 0., 0., 0.,
          8.06451589e-03, 0., 0., 0., 0., 0., 0., 0., 0., 0., 0., 0.,
          8.06451589e-03, 0., 0., 0., 0., 0., 0., 0., 0., 8.06451589e-03,
          8.06451589e-03, 0., 0., 0., 0., 0., 0., 0., 0., 0., 0., 0., 0.,
          0., 0., 0., 0., 0., 0., 0., 0., 0., 0., 0., 0., 0., 0., 0., 0.,
          0., 8.06451589e-03, 0., 0., 0., 0., 0., 0., 0., 0., 0., 0., 0.,
          0., 0., 0., 0., 8.06451589e-03, 0., 0., 0., 0., 0., 0., 0., 0.,
          0., 0., 0., 0., 0., 0., 0., 0., 0., 0., 0., 0., 0., 0., 0., 0.,
          0., 0., 0., 0., 0., 0., 0., 0., 0., 0., 0., 0., 8.06451589e-03,
          0., 0., 0., 8.06451589e-03, 0., 0., 0., 0., 0., 0.,
          8.06451589e-03, 0., 0., 0., 0., 0., 0., 8.06451589e-03, 0., 0.,
          0., 0., 0., 0., 0., 0., 8.06451589e-03, 0., 0., 0., 0., 0., 0.,
          0., 8.06451589e-03, 8.06451589e-03, 0., 0., 0., 0., 0., 0., 0.,
          0., 0., 0., 0., 8.06451589e-03, 0., 0., 0., 0., 0., 0., 0., 0.,
          0., 0., 0., 0., 0., 0., 0., 0., 0., 0., 0., 0., 0., 0., 0., 0.,
          0., 0., 0., 0., 0., 0., 0., 0., 0., 0., 8.06451589e-03, 0., 0.,
          0., 0., 0., 0., 0., 0., 0., 0., 0., 0., 0., 0., 0., 0., 0., 0.,
          0., 0., 8.06451589e-03, 0., 0., 0., 0., 8.06451589e-03, 0., 0.,
          0., 0., 0., 0., 0., 0., 0., 0., 0., 0., 0., 0., 0., 0., 0., 0.,
          0., 0., 0., 0., 0., 0., 0., 8.06451589e-03, 0., 0., 0., 0., 0.,
          0., 8.06451589e-03, 0., 0., 0., 0., 0., 0., 0., 0., 0., 0., 0.,
          0., 0., 0., 0., 0., 8.06451589e-03, 0., 0., 0., 0., 0.,
          8.06451589e-03, 0., 0., 0., 0., 0., 0., 0., 0., 0., 0., 0., 0.,
          0., 0., 0., 0., 0., 0., 0., 0., 0., 0., 0., 0., 0., 0., 0., 0.,
          0., 0., 0., 0., 0., 0., 0., 0., 0., 0., 0., 0., 0., 0., 0., 0.,
          0., 0., 0., 0., 0., 8.06451589e-03, 0., 0., 0., 0., 0., 0., 0.,
          0., 0., 0., 0., 0., 0., 0., 0., 0., 0., 0., 0., 0., 0., 0.,
          8.06451589e-03, 0., 0., 0., 0., 0., 0., 0., 8.06451589e-03, 0.,
          0., 0., 0., 0., 0., 0., 0., 0., 8.06451589e-03, 0., 0.,
          8.06451589e-03, 0., 0., 0., 0., 0., 0., 0., 0., 0., 0., 0., 0.,
          0., 8.06451589e-03, 0., 8.06451589e-03, 0., 0., 0., 0., 0.,
          8.06451589e-03, 0., 0., 0., 0., 0., 0., 0., 0., 0., 0., 0., 0.,
          0., 0., 0., 0., 0., 0., 8.06451589e-03, 0., 0., 0., 0., 0., 0.,
          0., 0., 0., 0., 0., 0., 0., 0., 8.06451589e-03, 0., 0., 0., 0.,
          0., 0., 0., 0., 8.06451589e-03, 0., 8.06451589e-03, 0., 0.,
          8.06451589e-03, 0., 0., 0., 8.06451589e-03, 0., 0., 0., 0., 0.,
          0., 8.06451589e-03, 0., 0., 0., 0., 0., 0., 0., 0., 0., 0., 0.,
          0., 0., 0., 0., 0., 0., 0., 8.06451589e-03, 0., 0., 0., 0., 0.,
          0., 8.06451589e-03, 0., 0., 0., 0., 0., 1.61290318e-02, 0., 0.,
          0., 0., 8.06451589e-03, 8.06451589e-03, 0., 0., 0., 0., 0., 0.,
          0., 0., 0., 0., 8.06451589e-03, 0., 0., 0., 0., 0., 0., 0.,
          8.06451589e-03, 0., 0., 0., 0., 0., 0., 0., 0., 0., 0., 0., 0.,
          0., 0., 0., 0., 0., 0., 0., 8.06451589e-03, 0., 0., 0., 0., 0.,
          0., 0., 0., 0., 0., 0., 0., 0., 0., 0., 0., 0., 0., 0., 0., 0.,
          0., 0., 0., 0., 0., 0., 0., 0., 0., 0., 0., 0., 0.,
          8.06451589e-03, 0., 0., 0., 8.06451589e-03, 0., 0., 0.,
          8.06451589e-03, 0., 8.06451589e-03, 0., 0., 0., 8.06451589e-03,
          0., 0., 0., 0., 0., 0., 0., 0., 0., 0., 0., 8.06451589e-03, 0.,
          0., 0., 0., 0., 0., 0., 0., 0., 0., 0., 0., 0., 0.,
          8.06451589e-03, 0., 0., 0., 8.06451589e-03, 0., 0.,
          8.06451589e-03, 0., 0., 0., 0., 0., 8.06451589e-03,
          8.06451589e-03, 0., 0., 0., 8.06451589e-03, 0., 0., 0., 0., 0.,
          0., 0., 0., 0., 0., 0., 0., 0., 0., 0., 0., 0., 0., 0., 0., 0.,
          0., 0., 0., 0., 0., 0., 0., 0., 0., 0., 0., 0., 8.06451589e-03,
          0., 0., 0., 0., 0., 0., 0., 0., 0., 8.06451589e-03,
          8.06451589e-03, 0., 0., 0., 0., 8.06451589e-03, 0., 0.,
          8.06451589e-03, 0., 0., 0., 0., 0., 0., 0., 0., 8.06451589e-03,
          0., 0., 0., 0., 0., 0., 0., 0., 0., 0., 0., 0., 0., 0., 0., 0.,
          0., 0., 0., 0., 0., 0., 0., 0., 0., 0., 8.06451589e-03, 0., 0.,
          0., 0., 0., 0., 0., 0., 0., 0., 0., 0., 0., 0., 0., 0., 0., 0.,
          0., 0., 0., 0., 0., 0., 0., 0., 0., 0., 8.06451589e-03, 0., 0.,
          0., 0., 0., 0., 0., 0., 0., 0., 0., 0., 0., 0., 8.06451589e-03,
          0., 0., 0., 0., 0., 0., 0., 0., 0., 0., 0., 0., 0., 0., 0., 0.,
          0., 0., 0., 0., 0., 0., 0., 0., 0., 0., 0., 0., 8.06451589e-03,
          0., 0., 0., 0., 0., 8.06451589e-03, 0., 0., 0., 0., 0., 0., 0.,
          0., 0., 0., 0., 0., 0., 0., 0., 0., 0., 0., 0., 0., 0., 0., 0.,
          0., 8.06451589e-03, 0., 0., 0., 0., 0., 0., 0., 0., 0., 0., 0.,
          0., 0., 0., 0., 0., 0., 0., 0., 8.06451589e-03, 8.06451589e-03,
          0., 0., 0., 0., 0., 0., 0., 0., 0., 0., 0., 8.06451589e-03 ]
   decision_functions:
      -
         sv_count: 8
         rho: 1.1823982000350952e-02
         alpha: [ 1., 1., 1., 1., -1., -1., -1., -1. ]
         index: [ 0, 1, 2, 3, 4, 5, 6, 7 ]
      -
         sv_count: 8
         rho: 1.1845380067825317e-02
         alpha: [ 1., 1., 1., 1., -1., -1., -1., -1. ]
         index: [ 0, 1, 2, 3, 8, 9, 10, 11 ]
      -
         sv_count: 8
         rho: -6.5058469772338867e-05
         alpha: [ 1., 1., 1., 1., -1., -1., -1., -1. ]
         index: [ 4, 5, 6, 7, 8, 9, 10, 11 ]
