%YAML:1.0
my_svm: !!opencv-ml-svm
   svm_type: C_SVC
   kernel: { type:RBF, gamma:3. }
   C: 1.
   term_criteria: { epsilon:2.2204460492503131e-16, iterations:100 }
   var_all: 500
   var_count: 500
   class_count: 4
   class_labels: !!opencv-matrix
      rows: 1
      cols: 4
      dt: i
      data: [ 0, 1, 2, 3 ]
   sv_total: 16
   support_vectors:
      - [ 0., 0., 0., 0., 0., 0., 0., 0., 0., 0., 0., 0., 0., 0., 0., 0.,
          0., 0., 0., 3.57142873e-02, 0., 3.57142873e-02, 0.,
          1.78571437e-02, 0., 0., 0., 0., 0., 0., 0., 0., 1.78571437e-02,
          0., 1.78571437e-02, 0., 0., 0., 0., 0., 0., 0., 0., 0., 0., 0.,
          0., 0., 0., 1.78571437e-02, 0., 0., 1.78571437e-02, 0., 0., 0.,
          0., 0., 0., 0., 0., 0., 0., 0., 0., 0., 0., 0., 0., 0., 0., 0.,
          0., 1.78571437e-02, 0., 0., 0., 0., 0., 0., 0., 0., 0., 0., 0.,
          0., 0., 1.78571437e-02, 0., 0., 0., 0., 0., 0., 0., 0., 0., 0.,
          0., 0., 1.78571437e-02, 0., 0., 1.78571437e-02, 0., 0., 0., 0.,
          0., 0., 0., 0., 1.78571437e-02, 0., 0., 0., 0., 0., 0., 0., 0.,
          0., 0., 0., 0., 3.57142873e-02, 0., 0., 0., 0., 0., 0., 0., 0.,
          0., 0., 0., 0., 0., 0., 0., 0., 0., 0., 0., 0., 0., 0., 0., 0.,
          0., 0., 0., 0., 0., 0., 0., 1.78571437e-02, 0., 0., 0.,
          1.78571437e-02, 0., 0., 0., 0., 0., 0., 0., 0., 0.,
          3.57142873e-02, 0., 0., 0., 1.78571437e-02, 0., 0., 0., 0., 0.,
          0., 0., 0., 0., 1.78571437e-02, 0., 0., 0., 0., 0., 0., 0., 0.,
          0., 0., 0., 0., 1.78571437e-02, 0., 0., 0., 0., 0., 0., 0., 0.,
          0., 0., 1.78571437e-02, 0., 0., 0., 0., 0., 0., 0., 0., 0., 0.,
          0., 0., 0., 0., 0., 1.78571437e-02, 1.78571437e-02, 0., 0., 0.,
          0., 0., 0., 1.78571437e-02, 0., 0., 0., 0., 0., 1.78571437e-02,
          0., 0., 0., 0., 0., 0., 0., 0., 0., 0., 0., 1.78571437e-02, 0.,
          0., 0., 0., 0., 0., 0., 0., 0., 0., 0., 0., 0., 1.78571437e-02,
          0., 0., 1.78571437e-02, 0., 0., 0., 1.78571437e-02, 0., 0., 0.,
          0., 0., 0., 0., 0., 0., 0., 0., 0., 0., 0., 0., 0., 0., 0., 0.,
          0., 1.78571437e-02, 0., 0., 0., 0., 0., 0., 0., 0., 0., 0., 0.,
          0., 0., 0., 0., 0., 1.78571437e-02, 1.78571437e-02,
          3.57142873e-02, 0., 0., 0., 0., 0., 0., 0., 1.78571437e-02, 0.,
          0., 0., 0., 0., 0., 0., 0., 0., 0., 0., 0., 0., 0., 0., 0., 0.,
          0., 0., 0., 1.78571437e-02, 0., 1.78571437e-02, 0., 0., 0.,
          1.78571437e-02, 1.78571437e-02, 0., 0., 0., 0., 0., 0., 0., 0.,
          0., 0., 0., 0., 0., 0., 0., 0., 0., 1.78571437e-02, 0., 0., 0.,
          0., 0., 1.78571437e-02, 0., 0., 1.78571437e-02, 0., 0.,
          1.78571437e-02, 0., 0., 0., 0., 0., 0., 0., 0., 0., 0.,
          1.78571437e-02, 0., 0., 1.78571437e-02, 0., 0., 0., 0., 0., 0.,
          0., 0., 1.78571437e-02, 0., 0., 0., 0., 0., 0., 0., 0., 0., 0.,
          0., 0., 1.78571437e-02, 0., 0., 0., 0., 0., 0., 0., 0., 0., 0.,
          0., 0., 0., 0., 0., 0., 0., 0., 0., 1.78571437e-02, 0., 0., 0.,
          0., 0., 0., 0., 0., 0., 0., 0., 0., 0., 0., 0., 0., 0., 0., 0.,
          0., 0., 0., 0., 0., 0., 0., 0., 0., 0., 0., 0., 0., 0., 0., 0.,
          0., 0., 0., 0., 0., 0., 1.78571437e-02, 0., 0., 0., 0., 0., 0.,
          0., 0., 0., 3.57142873e-02, 0., 0., 0., 0., 1.78571437e-02, 0.,
          0., 0., 0., 0., 0., 1.78571437e-02, 0. ]
      - [ 0., 0., 0., 0., 0., 0., 0., 0., 0., 0., 0., 0., 0.,
          2.17391308e-02, 0., 0., 0., 0., 0., 0., 0., 0., 0.,
          2.17391308e-02, 0., 0., 0., 0., 0., 0., 0., 0., 2.17391308e-02,
          0., 0., 0., 0., 0., 0., 0., 0., 0., 0., 0., 0., 0., 0., 0., 0.,
          2.17391308e-02, 0., 0., 0., 0., 0., 0., 0., 2.17391308e-02, 0.,
          2.17391308e-02, 0., 0., 0., 0., 0., 0., 0., 0., 2.17391308e-02,
          0., 0., 0., 0., 0., 0., 0., 2.17391308e-02, 0., 0., 0., 0., 0.,
          4.34782617e-02, 0., 0., 0., 0., 0., 0., 0., 0., 0., 0., 0., 0.,
          0., 0., 0., 0., 0., 0., 0., 0., 0., 0., 0., 0., 0., 0., 0.,
          2.17391308e-02, 0., 2.17391308e-02, 2.17391308e-02, 0., 0., 0.,
          0., 0., 2.17391308e-02, 0., 0., 0., 0., 0., 0., 0., 0., 0., 0.,
          0., 0., 0., 0., 0., 0., 0., 0., 0., 2.17391308e-02, 0., 0., 0.,
          0., 0., 0., 2.17391308e-02, 0., 0., 0., 0., 0., 0., 0.,
          2.17391308e-02, 0., 0., 4.34782617e-02, 0., 0., 0., 0., 0., 0.,
          0., 0., 0., 0., 0., 0., 0., 2.17391308e-02, 0., 0., 0., 0.,
          2.17391308e-02, 0., 0., 0., 0., 0., 0., 0., 0., 0., 0., 0., 0.,
          0., 0., 0., 0., 0., 0., 0., 0., 0., 0., 0., 0., 0., 0., 0., 0.,
          0., 0., 2.17391308e-02, 0., 2.17391308e-02, 0., 0., 0., 0., 0.,
          0., 0., 0., 0., 0., 0., 0., 0., 0., 0., 2.17391308e-02, 0., 0.,
          2.17391308e-02, 0., 0., 0., 0., 0., 0., 0., 0., 0., 0., 0., 0.,
          0., 0., 0., 0., 0., 0., 2.17391308e-02, 0., 0., 0.,
          2.17391308e-02, 0., 0., 0., 0., 0., 0., 0., 0., 0., 0., 0., 0.,
          0., 2.17391308e-02, 0., 0., 0., 0., 0., 0., 2.17391308e-02, 0.,
          0., 0., 0., 0., 0., 2.17391308e-02, 0., 0., 0., 0., 0., 0., 0.,
          0., 0., 0., 0., 2.17391308e-02, 0., 0., 0., 0., 0., 0., 0., 0.,
          0., 0., 0., 0., 0., 0., 0., 0., 0., 0., 0., 2.17391308e-02, 0.,
          0., 0., 0., 0., 0., 0., 0., 2.17391308e-02, 0., 0., 0.,
          2.17391308e-02, 0., 0., 0., 0., 0., 0., 0., 0., 0., 0., 0., 0.,
          0., 0., 0., 0., 0., 0., 0., 2.17391308e-02, 0., 0., 0., 0., 0.,
          0., 0., 0., 0., 0., 0., 0., 0., 0., 0., 0., 0., 0.,
          4.34782617e-02, 0., 0., 0., 0., 0., 0., 0., 0., 0., 0., 0., 0.,
          0., 0., 0., 0., 0., 0., 0., 0., 0., 0., 0., 0., 0., 0., 0., 0.,
          2.17391308e-02, 0., 0., 0., 0., 0., 0., 0., 0., 4.34782617e-02,
          0., 2.17391308e-02, 0., 0., 2.17391308e-02, 0., 0., 0., 0., 0.,
          0., 0., 0., 0., 0., 0., 0., 0., 0., 0., 0., 0., 0., 0., 0., 0.,
          0., 0., 0., 0., 0., 0., 0., 0., 2.17391308e-02, 0., 0., 0., 0.,
          0., 0., 0., 0., 0., 2.17391308e-02, 2.17391308e-02, 0., 0., 0.,
          0., 0., 0., 0., 0., 0., 0., 0., 2.17391308e-02, 0., 0., 0., 0.,
          0., 0., 0., 0., 0., 0., 0., 0., 0., 0., 0., 0., 0., 0., 0., 0.,
          0., 0., 0., 0., 0., 0., 0., 0., 0., 0., 0., 0., 0., 0., 0., 0.,
          0., 0., 0., 0. ]
      - [ 0., 0., 0., 0., 0., 0., 0., 0., 0., 0., 1.23456791e-02,
          1.23456791e-02, 0., 1.23456791e-02, 0., 0., 0., 0., 0., 0., 0.,
          1.23456791e-02, 0., 1.23456791e-02, 0., 2.46913582e-02, 0., 0.,
          1.23456791e-02, 0., 0., 0., 1.23456791e-02, 2.46913582e-02, 0.,
          0., 0., 0., 0., 0., 0., 1.23456791e-02, 0., 0., 0., 0., 0., 0.,
          0., 0., 2.46913582e-02, 0., 0., 0., 0., 0., 0., 0., 0., 0., 0.,
          0., 0., 0., 1.23456791e-02, 0., 0., 0., 0., 0., 0., 0., 0., 0.,
          1.23456791e-02, 0., 1.23456791e-02, 0., 0., 0., 0., 0.,
          1.23456791e-02, 0., 0., 0., 0., 1.23456791e-02, 0., 0., 0., 0.,
          0., 0., 0., 0., 0., 0., 0., 0., 0., 0., 0., 0., 0., 0., 0., 0.,
          0., 0., 0., 0., 1.23456791e-02, 1.23456791e-02, 0.,
          1.23456791e-02, 0., 0., 0., 0., 0., 0., 0., 0., 0., 0., 0., 0.,
          0., 1.23456791e-02, 0., 0., 0., 0., 0., 3.70370373e-02, 0., 0.,
          0., 0., 1.23456791e-02, 0., 0., 0., 0., 0., 1.23456791e-02, 0.,
          0., 0., 1.23456791e-02, 0., 0., 0., 1.23456791e-02, 0., 0.,
          1.23456791e-02, 0., 0., 0., 0., 0., 0., 0., 2.46913582e-02, 0.,
          2.46913582e-02, 0., 0., 0., 1.23456791e-02, 0., 0., 0.,
          1.23456791e-02, 0., 2.46913582e-02, 0., 0., 0., 0., 0., 0., 0.,
          0., 0., 0., 1.23456791e-02, 1.23456791e-02, 0., 0., 0., 0., 0.,
          0., 0., 1.23456791e-02, 0., 0., 0., 0., 0., 0., 0., 0.,
          1.23456791e-02, 0., 0., 0., 0., 0., 0., 0., 0., 0.,
          1.23456791e-02, 0., 0., 1.23456791e-02, 0., 0., 0., 0., 0., 0.,
          0., 1.23456791e-02, 0., 0., 0., 0., 0., 0., 0., 0., 0., 0., 0.,
          1.23456791e-02, 0., 0., 0., 0., 0., 0., 0., 0., 0., 0., 0.,
          1.23456791e-02, 0., 0., 0., 0., 0., 0., 0., 0., 0., 0., 0., 0.,
          0., 0., 0., 0., 1.23456791e-02, 0., 0., 0., 1.23456791e-02, 0.,
          0., 0., 0., 1.23456791e-02, 0., 0., 0., 0., 0., 0., 0., 0., 0.,
          0., 0., 1.23456791e-02, 1.23456791e-02, 0., 0., 0., 0., 0., 0.,
          0., 0., 0., 0., 0., 0., 0., 0., 0., 0., 0., 0., 0.,
          2.46913582e-02, 1.23456791e-02, 0., 0., 1.23456791e-02, 0., 0.,
          0., 0., 0., 0., 0., 0., 1.23456791e-02, 1.23456791e-02, 0., 0.,
          1.23456791e-02, 0., 0., 0., 0., 0., 1.23456791e-02, 0., 0., 0.,
          0., 0., 1.23456791e-02, 0., 0., 0., 1.23456791e-02, 0., 0., 0.,
          0., 1.23456791e-02, 0., 0., 0., 0., 1.23456791e-02,
          1.23456791e-02, 1.23456791e-02, 0., 0., 0., 0., 0., 0., 0., 0.,
          0., 0., 0., 0., 0., 1.23456791e-02, 0., 0., 0., 0., 0., 0., 0.,
          0., 0., 0., 0., 0., 0., 1.23456791e-02, 0., 0., 0., 0., 0., 0.,
          0., 0., 0., 0., 0., 1.23456791e-02, 0., 0., 0., 1.23456791e-02,
          0., 0., 0., 0., 0., 0., 0., 0., 0., 1.23456791e-02, 0.,
          1.23456791e-02, 0., 1.23456791e-02, 0., 0., 2.46913582e-02, 0.,
          0., 0., 0., 0., 0., 0., 0., 0., 0., 0., 0., 1.23456791e-02, 0.,
          0., 0., 0., 0., 0., 0., 0., 0., 0., 0., 2.46913582e-02, 0., 0.,
          0., 0., 0., 0., 0., 0., 0., 0., 0., 0., 0., 0., 0., 0., 0., 0.,
          0., 0., 0., 0., 0., 0., 0., 0., 0., 0., 0., 0., 1.23456791e-02,
          0., 0., 0., 0., 0., 0., 0., 0., 0., 0., 0., 0., 0., 0., 0., 0.,
          0., 0., 0., 0., 0., 0., 0., 0., 1.23456791e-02, 0., 0. ]
      - [ 0., 0., 0., 0., 0., 0., 0., 0., 0., 0., 0., 0., 0., 0., 0., 0.,
          0., 0., 0., 0., 0., 0., 0., 2.22222228e-02, 0., 0., 0., 0., 0.,
          0., 0., 0., 2.22222228e-02, 0., 0., 0., 2.22222228e-02,
          2.22222228e-02, 0., 0., 0., 0., 0., 0., 0., 0., 0.,
          2.22222228e-02, 0., 0., 2.22222228e-02, 0., 0., 0., 0., 0., 0.,
          0., 0., 0., 0., 0., 0., 0., 2.22222228e-02, 0., 0., 0., 0., 0.,
          0., 0., 2.22222228e-02, 0., 2.22222228e-02, 0., 0., 0., 0., 0.,
          0., 0., 0., 0., 0., 0., 0., 0., 0., 0., 0., 0., 0.,
          4.44444455e-02, 0., 0., 0., 0., 0., 4.44444455e-02, 0., 0., 0.,
          2.22222228e-02, 0., 0., 0., 0., 0., 0., 0., 0., 2.22222228e-02,
          2.22222228e-02, 0., 0., 0., 0., 0., 0., 0., 0., 0., 0., 0., 0.,
          0., 0., 0., 0., 0., 0., 0., 0., 0., 2.22222228e-02, 0., 0., 0.,
          0., 0., 2.22222228e-02, 0., 0., 0., 0., 0., 0., 0., 0.,
          2.22222228e-02, 0., 0., 0., 0., 0., 0., 0., 0., 0., 0.,
          2.22222228e-02, 0., 0., 0., 0., 0., 0., 0., 0., 0.,
          2.22222228e-02, 0., 0., 0., 2.22222228e-02, 0., 0., 0., 0., 0.,
          0., 0., 0., 0., 0., 0., 0., 0., 0., 0., 0., 0., 0., 0., 0., 0.,
          0., 0., 0., 0., 0., 0., 0., 0., 0., 2.22222228e-02,
          2.22222228e-02, 0., 0., 0., 0., 0., 0., 0., 0., 0., 0., 0.,
          2.22222228e-02, 0., 0., 0., 2.22222228e-02, 0., 0., 0.,
          2.22222228e-02, 0., 0., 0., 0., 0., 0., 0., 0., 0., 0., 0., 0.,
          0., 0., 0., 0., 0., 2.22222228e-02, 0., 0., 0., 0.,
          2.22222228e-02, 0., 0., 2.22222228e-02, 0., 0., 0., 0., 0., 0.,
          0., 0., 0., 0., 0., 0., 0., 0., 2.22222228e-02, 0., 0., 0.,
          2.22222228e-02, 0., 0., 0., 0., 0., 0., 0., 0., 0., 0., 0., 0.,
          0., 0., 2.22222228e-02, 0., 0., 2.22222228e-02, 0., 0., 0., 0.,
          0., 0., 0., 0., 2.22222228e-02, 0., 0., 0., 0., 0., 0.,
          2.22222228e-02, 0., 0., 0., 2.22222228e-02, 0., 0., 0., 0., 0.,
          0., 0., 0., 0., 0., 0., 0., 0., 0., 0., 0., 0., 0., 0., 0., 0.,
          0., 0., 0., 0., 0., 0., 0., 0., 0., 0., 0., 0., 0., 0., 0., 0.,
          0., 0., 0., 0., 0., 0., 0., 0., 0., 0., 0., 0., 0., 0., 0., 0.,
          0., 0., 0., 0., 0., 0., 0., 0., 0., 0., 0., 0., 0., 0., 0., 0.,
          0., 0., 0., 0., 0., 0., 0., 0., 0., 0., 0., 0., 0., 0., 0., 0.,
          2.22222228e-02, 0., 0., 2.22222228e-02, 0., 0., 0., 0., 0., 0.,
          2.22222228e-02, 0., 0., 0., 0., 0., 0., 0., 0., 0., 0., 0., 0.,
          0., 2.22222228e-02, 0., 0., 0., 0., 0., 0., 0., 0., 0., 0., 0.,
          0., 0., 0., 0., 0., 2.22222228e-02, 0., 2.22222228e-02, 0., 0.,
          0., 0., 0., 0., 0., 0., 0., 0., 0., 0., 0., 0., 0., 0., 0., 0.,
          0., 2.22222228e-02, 0., 2.22222228e-02, 0., 0., 0., 0., 0., 0.,
          0., 0., 0., 0., 0., 0., 0., 0., 0., 0., 0., 0., 0., 0., 0., 0.,
          0., 0., 0., 0., 0., 0., 0., 0., 0., 0., 0., 0., 0., 0., 0., 0. ]
      - [ 0., 0., 9.61538497e-03, 9.61538497e-03, 0., 9.61538497e-03, 0.,
          0., 9.61538497e-03, 9.61538497e-03, 0., 0., 0., 9.61538497e-03,
          0., 0., 9.61538497e-03, 0., 0., 0., 0., 0., 0., 0., 0.,
          9.61538497e-03, 0., 0., 0., 0., 0., 0., 0., 0., 0., 0., 0., 0.,
          0., 0., 2.88461559e-02, 0., 0., 1.92307699e-02, 0., 0., 0., 0.,
          0., 0., 0., 0., 0., 9.61538497e-03, 9.61538497e-03, 0., 0., 0.,
          0., 0., 0., 9.61538497e-03, 0., 0., 0., 9.61538497e-03,
          9.61538497e-03, 9.61538497e-03, 0., 0., 0., 0., 0., 0., 0., 0.,
          0., 0., 0., 9.61538497e-03, 9.61538497e-03, 0., 0.,
          9.61538497e-03, 0., 0., 1.92307699e-02, 0., 0., 9.61538497e-03,
          9.61538497e-03, 9.61538497e-03, 0., 0., 0., 9.61538497e-03, 0.,
          9.61538497e-03, 0., 0., 0., 9.61538497e-03, 0., 0.,
          9.61538497e-03, 0., 0., 9.61538497e-03, 0., 0., 0., 0., 0., 0.,
          0., 0., 9.61538497e-03, 9.61538497e-03, 0., 0., 0., 0.,
          9.61538497e-03, 0., 0., 0., 0., 0., 9.61538497e-03,
          9.61538497e-03, 0., 9.61538497e-03, 0., 0., 0., 0., 0.,
          9.61538497e-03, 0., 0., 0., 0., 0., 0., 9.61538497e-03, 0., 0.,
          9.61538497e-03, 0., 0., 0., 9.61538497e-03, 9.61538497e-03, 0.,
          0., 0., 0., 0., 9.61538497e-03, 0., 0., 0., 0., 9.61538497e-03,
          9.61538497e-03, 0., 0., 0., 0., 0., 0., 0., 9.61538497e-03, 0.,
          0., 0., 2.88461559e-02, 0., 0., 9.61538497e-03, 9.61538497e-03,
          9.61538497e-03, 0., 0., 0., 0., 0., 0., 0., 0., 0., 0.,
          9.61538497e-03, 0., 0., 9.61538497e-03, 0., 0., 0., 0.,
          9.61538497e-03, 0., 0., 9.61538497e-03, 0., 0., 0., 0., 0., 0.,
          0., 9.61538497e-03, 0., 0., 9.61538497e-03, 0., 0., 0.,
          9.61538497e-03, 0., 0., 9.61538497e-03, 0., 0., 0., 0., 0., 0.,
          0., 0., 0., 0., 9.61538497e-03, 0., 0., 0., 0., 0., 0., 0., 0.,
          9.61538497e-03, 0., 0., 9.61538497e-03, 0., 0., 9.61538497e-03,
          0., 9.61538497e-03, 0., 0., 0., 0., 0., 0., 0., 0.,
          9.61538497e-03, 9.61538497e-03, 0., 0., 0., 0., 9.61538497e-03,
          0., 9.61538497e-03, 9.61538497e-03, 0., 0., 0., 0., 0., 0., 0.,
          0., 0., 0., 0., 0., 0., 0., 0., 9.61538497e-03, 0., 0., 0., 0.,
          9.61538497e-03, 0., 0., 0., 9.61538497e-03, 0., 9.61538497e-03,
          9.61538497e-03, 0., 9.61538497e-03, 0., 0., 0., 0., 0.,
          9.61538497e-03, 0., 9.61538497e-03, 0., 0., 0., 0., 0., 0.,
          1.92307699e-02, 0., 0., 0., 1.92307699e-02, 0., 0., 0., 0., 0.,
          9.61538497e-03, 0., 0., 0., 0., 0., 0., 9.61538497e-03, 0., 0.,
          0., 0., 0., 0., 0., 9.61538497e-03, 0., 0., 0., 0., 0., 0., 0.,
          0., 0., 0., 0., 0., 0., 0., 0., 0., 0., 0., 0., 0., 0., 0., 0.,
          0., 0., 0., 0., 9.61538497e-03, 0., 0., 0., 0., 9.61538497e-03,
          0., 0., 0., 0., 0., 9.61538497e-03, 0., 0., 0., 0., 0., 0., 0.,
          0., 0., 9.61538497e-03, 0., 0., 9.61538497e-03, 0., 0., 0., 0.,
          0., 0., 0., 0., 0., 0., 0., 0., 0., 0., 0., 0., 0., 0., 0., 0.,
          1.92307699e-02, 0., 9.61538497e-03, 0., 0., 0., 0., 0.,
          9.61538497e-03, 0., 0., 9.61538497e-03, 0., 0., 0., 0., 0., 0.,
          0., 0., 0., 9.61538497e-03, 0., 0., 0., 0., 0., 0., 0., 0., 0.,
          9.61538497e-03, 0., 0., 0., 0., 0., 9.61538497e-03, 0.,
          9.61538497e-03, 0., 0., 0., 0., 0., 0., 0., 0., 0., 0., 0., 0.,
          0., 0., 0., 0., 0., 0., 0., 0., 9.61538497e-03, 0., 0.,
          9.61538497e-03, 0., 0., 0., 0., 0., 9.61538497e-03, 0., 0., 0.,
          0., 0., 0., 0., 0., 0., 0., 0., 0., 0., 0., 0., 0., 0., 0., 0.,
          9.61538497e-03 ]
      - [ 0., 9.61538497e-03, 9.61538497e-03, 9.61538497e-03, 0.,
          9.61538497e-03, 0., 0., 9.61538497e-03, 9.61538497e-03, 0., 0.,
          0., 9.61538497e-03, 0., 0., 9.61538497e-03, 0., 0., 0., 0., 0.,
          0., 0., 0., 0., 0., 0., 0., 0., 0., 0., 0., 0., 0., 0., 0., 0.,
          0., 0., 3.84615399e-02, 0., 0., 2.88461559e-02, 0., 0., 0., 0.,
          0., 0., 0., 0., 0., 0., 9.61538497e-03, 0., 0., 0., 0., 0., 0.,
          9.61538497e-03, 0., 0., 0., 1.92307699e-02, 9.61538497e-03,
          9.61538497e-03, 0., 0., 9.61538497e-03, 0., 0., 0., 0., 0., 0.,
          9.61538497e-03, 0., 9.61538497e-03, 9.61538497e-03, 0., 0., 0.,
          0., 0., 9.61538497e-03, 0., 0., 9.61538497e-03, 9.61538497e-03,
          9.61538497e-03, 0., 0., 0., 9.61538497e-03, 0., 0., 0., 0., 0.,
          9.61538497e-03, 0., 0., 9.61538497e-03, 0., 0., 0., 0., 0., 0.,
          0., 0., 0., 0., 0., 0., 9.61538497e-03, 0., 0., 0., 0.,
          9.61538497e-03, 0., 0., 0., 0., 0., 9.61538497e-03,
          9.61538497e-03, 0., 1.92307699e-02, 0., 0., 0., 0.,
          9.61538497e-03, 1.92307699e-02, 0., 0., 0., 0., 9.61538497e-03,
          0., 9.61538497e-03, 0., 0., 1.92307699e-02, 0., 0., 0.,
          9.61538497e-03, 9.61538497e-03, 0., 0., 0., 0., 0.,
          9.61538497e-03, 0., 0., 0., 0., 9.61538497e-03, 0., 0., 0., 0.,
          0., 0., 0., 0., 9.61538497e-03, 0., 0., 0., 3.84615399e-02, 0.,
          0., 9.61538497e-03, 9.61538497e-03, 9.61538497e-03, 0., 0., 0.,
          0., 0., 0., 0., 9.61538497e-03, 0., 0., 9.61538497e-03, 0., 0.,
          0., 0., 0., 0., 0., 9.61538497e-03, 0., 0., 9.61538497e-03,
          9.61538497e-03, 0., 0., 0., 0., 0., 0., 0., 0., 0., 0., 0., 0.,
          0., 9.61538497e-03, 0., 0., 9.61538497e-03, 0., 0., 0., 0., 0.,
          0., 0., 0., 0., 0., 9.61538497e-03, 0., 0., 0., 0., 0., 0., 0.,
          0., 9.61538497e-03, 0., 0., 9.61538497e-03, 0., 0.,
          9.61538497e-03, 0., 9.61538497e-03, 0., 0., 0., 0., 0., 0., 0.,
          0., 9.61538497e-03, 0., 0., 0., 0., 0., 9.61538497e-03, 0.,
          9.61538497e-03, 9.61538497e-03, 0., 0., 0., 0., 0., 0., 0., 0.,
          0., 0., 0., 0., 0., 0., 0., 1.92307699e-02, 0., 0., 0., 0.,
          9.61538497e-03, 0., 0., 0., 9.61538497e-03, 0., 9.61538497e-03,
          0., 0., 9.61538497e-03, 0., 0., 9.61538497e-03, 0., 0.,
          9.61538497e-03, 0., 9.61538497e-03, 0., 0., 0., 0., 0., 0.,
          1.92307699e-02, 0., 0., 0., 9.61538497e-03, 0., 0., 0., 0., 0.,
          9.61538497e-03, 0., 0., 0., 0., 0., 0., 0., 0., 0., 0., 0., 0.,
          0., 0., 9.61538497e-03, 0., 0., 0., 0., 0., 0., 0.,
          9.61538497e-03, 0., 0., 0., 0., 0., 0., 0., 0., 0., 0., 0., 0.,
          9.61538497e-03, 0., 0., 9.61538497e-03, 0., 0., 0.,
          9.61538497e-03, 0., 0., 0., 0., 9.61538497e-03, 0., 0., 0., 0.,
          0., 0., 0., 0., 0., 0., 0., 0., 0., 0., 0., 9.61538497e-03, 0.,
          0., 0., 0., 0., 0., 0., 0., 0., 0., 0., 0., 0., 9.61538497e-03,
          0., 0., 0., 0., 9.61538497e-03, 0., 0., 0., 0., 9.61538497e-03,
          0., 9.61538497e-03, 0., 0., 0., 0., 0., 9.61538497e-03, 0., 0.,
          9.61538497e-03, 0., 0., 0., 0., 0., 0., 0., 0., 0.,
          9.61538497e-03, 0., 0., 0., 0., 0., 0., 0., 0., 0., 0., 0., 0.,
          0., 0., 0., 9.61538497e-03, 0., 0., 0., 0., 0., 0., 0., 0., 0.,
          0., 0., 0., 0., 0., 0., 0., 0., 0., 0., 0., 0., 0., 0., 0., 0.,
          9.61538497e-03, 0., 0., 0., 0., 0., 9.61538497e-03, 0., 0., 0.,
          0., 0., 0., 0., 0., 0., 0., 0., 0., 0., 0., 0., 0., 0., 0., 0.,
          9.61538497e-03 ]
      - [ 7.81250000e-03, 0., 0., 0., 0., 7.81250000e-03, 0., 0., 0.,
          7.81250000e-03, 0., 0., 0., 0., 0., 0., 7.81250000e-03,
          7.81250000e-03, 0., 0., 0., 0., 0., 0., 0., 0., 7.81250000e-03,
          0., 0., 7.81250000e-03, 0., 0., 0., 0., 0., 0., 0., 0., 0., 0.,
          6.25000000e-02, 0., 0., 0., 7.81250000e-03, 1.56250000e-02, 0.,
          0., 0., 0., 0., 7.81250000e-03, 0., 0., 0., 1.56250000e-02, 0.,
          0., 0., 0., 0., 0., 7.81250000e-03, 7.81250000e-03, 0.,
          1.56250000e-02, 0., 7.81250000e-03, 0., 0., 0., 0., 0., 0., 0.,
          0., 0., 7.81250000e-03, 7.81250000e-03, 7.81250000e-03,
          7.81250000e-03, 0., 7.81250000e-03, 0., 0., 0., 0., 0., 0., 0.,
          7.81250000e-03, 0., 7.81250000e-03, 0., 0., 7.81250000e-03,
          1.56250000e-02, 0., 0., 0., 0., 0., 0., 0., 0., 0.,
          7.81250000e-03, 0., 1.56250000e-02, 0., 0., 0., 0., 0., 0., 0.,
          0., 7.81250000e-03, 7.81250000e-03, 0., 0., 0., 0., 0., 0., 0.,
          0., 0., 7.81250000e-03, 0., 7.81250000e-03, 0., 0.,
          7.81250000e-03, 0., 0., 7.81250000e-03, 0., 0., 7.81250000e-03,
          7.81250000e-03, 0., 7.81250000e-03, 0., 0., 0., 0.,
          7.81250000e-03, 7.81250000e-03, 0., 0., 0., 0., 7.81250000e-03,
          0., 7.81250000e-03, 0., 0., 0., 0., 0., 0., 0., 0.,
          7.81250000e-03, 0., 0., 0., 7.81250000e-03, 0., 7.81250000e-03,
          0., 0., 0., 7.81250000e-03, 0., 2.34375000e-02, 0., 0.,
          7.81250000e-03, 7.81250000e-03, 0., 0., 0., 0., 0., 0., 0., 0.,
          0., 7.81250000e-03, 7.81250000e-03, 0., 0., 7.81250000e-03, 0.,
          7.81250000e-03, 0., 0., 7.81250000e-03, 0., 7.81250000e-03, 0.,
          0., 0., 0., 0., 0., 1.56250000e-02, 0., 0., 0., 0., 0.,
          7.81250000e-03, 1.56250000e-02, 0., 0., 0., 0., 0.,
          7.81250000e-03, 0., 0., 7.81250000e-03, 0., 0., 0., 0., 0., 0.,
          0., 7.81250000e-03, 0., 0., 0., 0., 0., 0., 0., 0., 0., 0., 0.,
          0., 0., 0., 7.81250000e-03, 7.81250000e-03, 7.81250000e-03, 0.,
          0., 0., 0., 7.81250000e-03, 0., 0., 7.81250000e-03, 0.,
          7.81250000e-03, 0., 0., 0., 7.81250000e-03, 0., 7.81250000e-03,
          0., 0., 0., 0., 7.81250000e-03, 0., 0., 0., 7.81250000e-03, 0.,
          0., 0., 0., 0., 0., 0., 0., 0., 0., 7.81250000e-03, 0., 0., 0.,
          0., 0., 0., 7.81250000e-03, 0., 0., 0., 0., 0., 0., 0., 0., 0.,
          0., 0., 0., 7.81250000e-03, 0., 0., 0., 0., 0., 0., 0.,
          7.81250000e-03, 0., 7.81250000e-03, 0., 0., 0., 0., 0., 0., 0.,
          0., 0., 0., 7.81250000e-03, 7.81250000e-03, 7.81250000e-03,
          7.81250000e-03, 0., 0., 0., 0., 0., 0., 7.81250000e-03,
          7.81250000e-03, 0., 0., 7.81250000e-03, 0., 0., 0., 0., 0.,
          7.81250000e-03, 0., 0., 0., 0., 1.56250000e-02, 0., 0., 0., 0.,
          0., 0., 7.81250000e-03, 0., 7.81250000e-03, 7.81250000e-03, 0.,
          0., 0., 0., 0., 0., 0., 0., 7.81250000e-03, 0., 0., 0., 0., 0.,
          0., 7.81250000e-03, 0., 0., 0., 0., 0., 0., 0., 0., 0., 0., 0.,
          0., 1.56250000e-02, 0., 0., 0., 7.81250000e-03, 0., 0., 0., 0.,
          0., 0., 0., 7.81250000e-03, 0., 0., 0., 0., 0., 0., 0., 0., 0.,
          0., 0., 0., 0., 0., 0., 0., 7.81250000e-03, 0., 7.81250000e-03,
          0., 0., 0., 0., 0., 7.81250000e-03, 0., 0., 7.81250000e-03, 0.,
          0., 0., 0., 0., 0., 0., 7.81250000e-03, 0., 0., 0., 0.,
          2.34375000e-02, 0., 0., 0., 7.81250000e-03, 0., 0., 0.,
          1.56250000e-02, 0., 0., 7.81250000e-03, 7.81250000e-03, 0., 0.,
          0., 0., 0., 0., 0., 7.81250000e-03, 0., 0., 0., 0., 0., 0., 0.,
          0., 0., 0., 0., 0., 0., 7.81250000e-03, 0., 0., 0.,
          7.81250000e-03, 7.81250000e-03, 0., 7.81250000e-03, 0., 0., 0.,
          0., 0., 7.81250000e-03, 0., 0., 0., 0., 0., 0., 0., 0., 0. ]
      - [ 8.62068962e-03, 0., 0., 0., 8.62068962e-03, 0., 0., 0., 0., 0.,
          0., 0., 0., 0., 0., 0., 8.62068962e-03, 0., 0., 0., 0., 0., 0.,
          8.62068962e-03, 0., 0., 0., 0., 0., 0., 0., 0., 0., 0., 0., 0.,
          0., 0., 0., 0., 7.75862038e-02, 0., 0., 0., 0., 0.,
          8.62068962e-03, 8.62068962e-03, 0., 0., 0., 0., 0., 0.,
          1.72413792e-02, 8.62068962e-03, 0., 0., 8.62068962e-03, 0., 0.,
          0., 0., 8.62068962e-03, 0., 0., 0., 0., 8.62068962e-03, 0.,
          8.62068962e-03, 0., 0., 0., 0., 0., 0., 8.62068962e-03, 0., 0.,
          8.62068962e-03, 0., 0., 0., 0., 0., 0., 0., 8.62068962e-03,
          8.62068962e-03, 0., 0., 0., 0., 0., 0., 8.62068962e-03, 0., 0.,
          0., 0., 0., 0., 0., 0., 4.31034490e-02, 8.62068962e-03, 0.,
          3.44827585e-02, 0., 0., 8.62068962e-03, 0., 0., 0., 0., 0., 0.,
          8.62068962e-03, 0., 0., 0., 0., 0., 0., 0., 0., 0., 0.,
          1.72413792e-02, 8.62068962e-03, 0., 8.62068962e-03, 0., 0., 0.,
          8.62068962e-03, 0., 0., 0., 0., 0., 0., 8.62068962e-03, 0., 0.,
          0., 8.62068962e-03, 0., 0., 0., 0., 8.62068962e-03, 0., 0.,
          1.72413792e-02, 0., 0., 0., 0., 0., 0., 0., 0., 0., 0., 0., 0.,
          8.62068962e-03, 0., 1.72413792e-02, 0., 0., 0., 0.,
          8.62068962e-03, 0., 0., 0., 0., 8.62068962e-03, 0., 0., 0., 0.,
          0., 0., 0., 0., 0., 0., 8.62068962e-03, 0., 0., 8.62068962e-03,
          0., 8.62068962e-03, 0., 0., 8.62068962e-03, 0., 0.,
          8.62068962e-03, 0., 0., 0., 0., 0., 0., 0., 0., 0., 0.,
          8.62068962e-03, 0., 0., 8.62068962e-03, 8.62068962e-03, 0., 0.,
          0., 0., 0., 0., 8.62068962e-03, 0., 0., 0., 0., 0., 0., 0., 0.,
          0., 0., 0., 0., 0., 8.62068962e-03, 0., 0., 0., 0.,
          8.62068962e-03, 0., 0., 0., 0., 8.62068962e-03, 0.,
          8.62068962e-03, 0., 8.62068962e-03, 0., 8.62068962e-03, 0., 0.,
          0., 0., 0., 8.62068962e-03, 0., 0., 8.62068962e-03, 0.,
          8.62068962e-03, 8.62068962e-03, 0., 0., 0., 8.62068962e-03, 0.,
          0., 8.62068962e-03, 0., 0., 0., 0., 0., 0., 0., 0., 0., 0., 0.,
          0., 0., 0., 0., 0., 8.62068962e-03, 0., 0., 0., 8.62068962e-03,
          0., 0., 0., 8.62068962e-03, 0., 0., 0., 0., 0., 8.62068962e-03,
          0., 0., 8.62068962e-03, 0., 8.62068962e-03, 0., 0., 0., 0., 0.,
          0., 0., 0., 0., 0., 0., 1.72413792e-02, 0., 0., 0., 0., 0.,
          8.62068962e-03, 0., 0., 0., 0., 0., 0., 0., 0., 0.,
          8.62068962e-03, 0., 0., 0., 0., 0., 0., 0., 0., 8.62068962e-03,
          0., 8.62068962e-03, 8.62068962e-03, 0., 0., 8.62068962e-03, 0.,
          0., 0., 0., 0., 0., 0., 0., 8.62068962e-03, 0., 0., 0., 0., 0.,
          8.62068962e-03, 0., 0., 0., 0., 0., 8.62068962e-03, 0., 0., 0.,
          0., 0., 0., 0., 0., 0., 0., 0., 1.72413792e-02, 0., 0.,
          8.62068962e-03, 8.62068962e-03, 0., 8.62068962e-03, 0., 0., 0.,
          0., 0., 8.62068962e-03, 0., 8.62068962e-03, 0., 0., 0., 0., 0.,
          0., 0., 0., 0., 0., 0., 0., 0., 0., 0., 0., 0., 0., 0., 0., 0.,
          8.62068962e-03, 0., 0., 0., 0., 0., 8.62068962e-03,
          8.62068962e-03, 0., 8.62068962e-03, 0., 0., 8.62068962e-03, 0.,
          0., 0., 0., 8.62068962e-03, 8.62068962e-03, 8.62068962e-03, 0.,
          0., 8.62068962e-03, 0., 0., 0., 0., 0., 0., 0., 0.,
          8.62068962e-03, 0., 0., 0., 0., 0., 0., 0., 0., 0., 0., 0., 0.,
          0., 0., 0., 0., 0., 0., 0., 8.62068962e-03, 0., 8.62068962e-03,
          0., 0., 0., 0., 0., 0., 8.62068962e-03, 0., 8.62068962e-03, 0.,
          8.62068962e-03, 0., 0., 0., 0., 0., 0., 0., 8.62068962e-03, 0.,
          0., 8.62068962e-03, 0., 0., 0. ]
      - [ 0., 0., 0., 0., 0., 0., 0., 0., 0., 0., 0., 0., 0., 0., 0., 0.,
          0., 0., 2.27272734e-02, 0., 0., 0., 2.27272734e-02, 0., 0., 0.,
          0., 0., 0., 0., 0., 0., 0., 2.27272734e-02, 0., 0.,
          4.54545468e-02, 0., 0., 2.27272734e-02, 0., 2.27272734e-02, 0.,
          0., 0., 0., 0., 0., 0., 0., 0., 2.27272734e-02, 0., 0., 0., 0.,
          0., 0., 2.27272734e-02, 0., 0., 0., 0., 0., 0., 0., 0., 0., 0.,
          0., 0., 0., 0., 0., 0., 0., 2.27272734e-02, 2.27272734e-02, 0.,
          0., 0., 0., 0., 0., 0., 2.27272734e-02, 0., 2.27272734e-02, 0.,
          0., 2.27272734e-02, 0., 0., 0., 0., 0., 0., 0., 2.27272734e-02,
          0., 0., 0., 0., 2.27272734e-02, 0., 0., 0., 0., 0., 0., 0.,
          2.27272734e-02, 0., 0., 0., 0., 2.27272734e-02, 0., 0., 0., 0.,
          0., 0., 0., 2.27272734e-02, 0., 0., 0., 2.27272734e-02, 0., 0.,
          0., 0., 0., 0., 0., 0., 0., 0., 0., 2.27272734e-02, 0., 0., 0.,
          0., 0., 0., 0., 0., 0., 0., 0., 0., 2.27272734e-02, 0., 0., 0.,
          0., 0., 0., 0., 0., 0., 0., 0., 0., 0., 0., 0., 0., 0., 0., 0.,
          0., 0., 0., 0., 0., 0., 0., 2.27272734e-02, 0., 0., 0., 0., 0.,
          0., 0., 0., 2.27272734e-02, 0., 0., 0., 0., 0., 0., 0., 0., 0.,
          0., 0., 0., 0., 0., 0., 0., 0., 0., 0., 0., 0., 0., 0., 0., 0.,
          0., 0., 0., 0., 0., 0., 0., 4.54545468e-02, 0., 0., 0., 0., 0.,
          0., 0., 0., 0., 0., 0., 2.27272734e-02, 0., 0., 0., 0., 0.,
          2.27272734e-02, 0., 0., 2.27272734e-02, 0., 0., 2.27272734e-02,
          0., 0., 0., 0., 0., 0., 0., 0., 0., 2.27272734e-02, 0., 0., 0.,
          0., 0., 0., 0., 0., 0., 0., 0., 0., 0., 0., 2.27272734e-02, 0.,
          0., 0., 2.27272734e-02, 0., 0., 0., 2.27272734e-02, 0., 0., 0.,
          0., 0., 0., 0., 0., 0., 0., 0., 0., 0., 0., 0., 0., 0., 0., 0.,
          0., 0., 0., 2.27272734e-02, 0., 0., 0., 0., 0., 0., 0., 0., 0.,
          0., 0., 0., 0., 0., 0., 0., 0., 0., 0., 0., 0., 0., 0., 0., 0.,
          0., 0., 0., 0., 0., 0., 0., 0., 0., 0., 0., 0., 0., 0., 0., 0.,
          2.27272734e-02, 0., 0., 0., 0., 0., 0., 0., 0., 0., 0., 0.,
          2.27272734e-02, 0., 0., 0., 2.27272734e-02, 0., 0., 0.,
          2.27272734e-02, 0., 0., 0., 0., 0., 0., 0., 0., 0., 0., 0., 0.,
          0., 0., 0., 0., 0., 2.27272734e-02, 0., 2.27272734e-02, 0., 0.,
          0., 0., 0., 0., 0., 0., 0., 0., 0., 0., 0., 0., 0., 0.,
          2.27272734e-02, 0., 0., 0., 0., 0., 0., 0., 0., 0., 0., 0., 0.,
          0., 0., 0., 0., 0., 0., 0., 0., 0., 0., 0., 0., 0., 0., 0., 0.,
          0., 0., 0., 0., 0., 0., 0., 0., 0., 0., 0., 0., 0.,
          2.27272734e-02, 0., 0., 0., 0., 0., 2.27272734e-02, 0., 0., 0.,
          0., 0., 0., 0., 0., 0., 0., 0., 0., 0., 0., 0., 0., 0., 0., 0.,
          0., 0., 0., 0., 0., 0., 0., 0., 0., 0., 0., 0., 0., 0., 0., 0.,
          0., 0., 0., 0., 0., 0., 0., 0., 0., 0., 0., 0., 0., 0., 0. ]
      - [ 0., 0., 0., 0., 0., 0., 0., 0., 0., 0., 0., 0., 0., 0., 0., 0.,
          0., 0., 2.43902430e-02, 0., 0., 0., 0., 0., 0., 0., 0., 0., 0.,
          0., 0., 0., 0., 0., 0., 0., 2.43902430e-02, 0., 0.,
          2.43902430e-02, 0., 2.43902430e-02, 4.87804860e-02, 0., 0., 0.,
          0., 2.43902430e-02, 0., 0., 0., 2.43902430e-02, 0., 0., 0., 0.,
          0., 0., 2.43902430e-02, 0., 0., 0., 0., 0., 0., 0., 0., 0., 0.,
          0., 0., 0., 0., 0., 0., 0., 2.43902430e-02, 0., 0., 0., 0., 0.,
          0., 0., 0., 2.43902430e-02, 0., 4.87804860e-02, 0., 0., 0., 0.,
          0., 0., 0., 0., 0., 0., 2.43902430e-02, 0., 0., 0., 0.,
          2.43902430e-02, 0., 0., 0., 0., 0., 2.43902430e-02, 0., 0., 0.,
          0., 0., 0., 0., 0., 0., 0., 0., 0., 0., 0., 2.43902430e-02, 0.,
          0., 0., 0., 0., 0., 0., 0., 0., 0., 0., 0., 0., 2.43902430e-02,
          0., 0., 0., 0., 0., 0., 2.43902430e-02, 0., 0., 0., 0., 0., 0.,
          0., 0., 0., 0., 0., 0., 0., 0., 0., 0., 2.43902430e-02, 0., 0.,
          0., 0., 0., 0., 0., 0., 0., 0., 0., 0., 0., 0., 0., 0., 0., 0.,
          0., 0., 0., 0., 0., 0., 0., 0., 0., 0., 0., 0., 0., 0., 0., 0.,
          0., 0., 0., 0., 0., 0., 0., 0., 4.87804860e-02, 0., 0., 0., 0.,
          0., 0., 0., 0., 0., 0., 0., 0., 0., 0., 0., 0., 0., 0., 0., 0.,
          0., 0., 0., 0., 0., 0., 0., 0., 2.43902430e-02, 0., 0., 0., 0.,
          0., 0., 0., 0., 2.43902430e-02, 0., 0., 2.43902430e-02, 0., 0.,
          0., 0., 0., 0., 0., 0., 0., 0., 0., 0., 0., 0., 0., 0., 0., 0.,
          0., 0., 0., 0., 0., 0., 2.43902430e-02, 0., 0., 0.,
          2.43902430e-02, 0., 0., 0., 0., 0., 0., 0., 0., 0., 0.,
          2.43902430e-02, 0., 0., 0., 0., 0., 0., 0., 0., 0., 0., 0., 0.,
          0., 0., 0., 0., 0., 0., 0., 0., 0., 0., 2.43902430e-02,
          4.87804860e-02, 0., 0., 0., 0., 0., 0., 0., 0., 0., 0., 0., 0.,
          0., 0., 2.43902430e-02, 0., 0., 0., 0., 0., 0., 0., 0., 0., 0.,
          0., 0., 0., 0., 2.43902430e-02, 0., 0., 0., 0., 0., 0., 0., 0.,
          0., 0., 0., 0., 0., 2.43902430e-02, 0., 0., 0., 0., 0., 0., 0.,
          0., 0., 0., 0., 0., 0., 0., 0., 0., 0., 0., 0., 0., 0., 0., 0.,
          0., 0., 0., 0., 0., 0., 0., 0., 0., 2.43902430e-02, 0., 0., 0.,
          0., 0., 0., 0., 0., 0., 0., 0., 0., 0., 0., 0., 0., 0., 0., 0.,
          0., 0., 0., 0., 0., 0., 0., 0., 0., 4.87804860e-02,
          2.43902430e-02, 0., 0., 0., 0., 0., 0., 0., 0., 0., 0., 0., 0.,
          0., 0., 0., 0., 0., 0., 0., 0., 0., 0., 0., 0., 0., 0., 0., 0.,
          0., 0., 0., 2.43902430e-02, 0., 0., 0., 0., 0., 0., 0., 0., 0.,
          0., 0., 0., 0., 0., 0., 0., 0., 0., 0., 2.43902430e-02, 0., 0.,
          0., 0., 0., 0., 0., 0., 0., 0., 0., 0., 0., 0., 0., 0., 0., 0.,
          0., 0., 0., 0., 0., 0., 2.43902430e-02, 0., 0., 0., 0., 0. ]
      - [ 0., 0., 0., 0., 0., 0., 0., 0., 0., 0., 0., 0., 0., 0., 0.,
          2.22222228e-02, 0., 0., 0., 0., 0., 0., 0., 0., 0., 0., 0., 0.,
          0., 2.22222228e-02, 0., 0., 0., 0., 0., 2.22222228e-02,
          4.44444455e-02, 2.22222228e-02, 0., 2.22222228e-02,
          2.22222228e-02, 0., 0., 2.22222228e-02, 0., 0., 0.,
          4.44444455e-02, 0., 0., 0., 0., 4.44444455e-02, 0., 0., 0., 0.,
          0., 2.22222228e-02, 0., 0., 0., 0., 0., 0., 0., 0., 0., 0., 0.,
          0., 0., 0., 0., 0., 0., 2.22222228e-02, 0., 0., 0., 0., 0., 0.,
          0., 0., 2.22222228e-02, 0., 2.22222228e-02, 2.22222228e-02, 0.,
          0., 0., 0., 0., 0., 0., 0., 0., 0., 0., 0., 0., 0.,
          2.22222228e-02, 0., 0., 0., 0., 0., 0., 0., 0., 2.22222228e-02,
          0., 0., 2.22222228e-02, 0., 0., 0., 0., 0., 0., 2.22222228e-02,
          0., 2.22222228e-02, 0., 0., 0., 0., 0., 0., 0., 0., 0., 0., 0.,
          0., 0., 2.22222228e-02, 0., 2.22222228e-02, 0., 0., 0., 0., 0.,
          0., 0., 0., 0., 0., 0., 0., 0., 0., 0., 0., 0., 0., 0., 0., 0.,
          0., 0., 0., 0., 0., 2.22222228e-02, 0., 0., 0., 0., 0., 0., 0.,
          0., 0., 0., 2.22222228e-02, 0., 0., 0., 0., 0., 0., 0., 0., 0.,
          0., 0., 0., 0., 0., 0., 0., 0., 0., 4.44444455e-02, 0., 0., 0.,
          0., 0., 0., 0., 0., 0., 0., 0., 0., 0., 0., 0., 0., 0., 0., 0.,
          0., 0., 0., 0., 0., 0., 0., 0., 0., 0., 0., 0., 0., 0., 0., 0.,
          0., 2.22222228e-02, 0., 0., 0., 0., 0., 0., 0., 0., 0., 0., 0.,
          0., 0., 0., 0., 2.22222228e-02, 0., 0., 0., 0., 0., 0., 0., 0.,
          0., 0., 0., 0., 0., 0., 0., 0., 0., 0., 0., 0., 0., 0., 0., 0.,
          2.22222228e-02, 0., 0., 0., 0., 0., 0., 0., 0., 0., 0.,
          2.22222228e-02, 0., 0., 0., 0., 0., 0., 0., 0., 0., 0., 0., 0.,
          0., 0., 0., 2.22222228e-02, 0., 0., 0., 0., 0., 0.,
          2.22222228e-02, 0., 0., 2.22222228e-02, 0., 0., 0., 0., 0., 0.,
          0., 0., 0., 0., 0., 0., 0., 0., 0., 0., 0., 0., 0., 0., 0., 0.,
          0., 0., 0., 0., 0., 0., 0., 0., 0., 0., 0., 0., 0., 0., 0., 0.,
          0., 0., 0., 0., 0., 0., 0., 0., 0., 2.22222228e-02, 0., 0., 0.,
          0., 0., 0., 2.22222228e-02, 0., 0., 0., 0., 0., 0., 0., 0., 0.,
          0., 0., 0., 0., 0., 0., 0., 0., 0., 0., 0., 0., 0., 0., 0., 0.,
          0., 0., 2.22222228e-02, 0., 0., 0., 0., 0., 0., 0., 0., 0., 0.,
          0., 0., 0., 0., 0., 0., 0., 0., 0., 0., 0., 2.22222228e-02, 0.,
          0., 0., 2.22222228e-02, 0., 0., 0., 0., 0., 0., 0., 0., 0., 0.,
          0., 0., 0., 2.22222228e-02, 0., 0., 0., 0., 0., 0., 0., 0., 0.,
          0., 0., 0., 0., 0., 0., 0., 0., 0., 0., 0., 0., 2.22222228e-02,
          0., 0., 0., 0., 0., 0., 2.22222228e-02, 0., 0., 0., 0., 0., 0.,
          0., 0., 0., 0., 0., 0., 0., 0., 0., 0., 0., 0., 0., 0., 0., 0.,
          0., 0., 0., 0., 2.22222228e-02, 0., 0., 0., 0., 0., 0., 0., 0. ]
      - [ 0., 0., 0., 0., 0., 0., 0., 0., 0., 0., 0., 0., 0., 0., 0., 0.,
          0., 0., 1.85185187e-02, 1.85185187e-02, 0., 0., 1.85185187e-02,
          0., 0., 0., 0., 0., 0., 0., 0., 0., 0., 1.85185187e-02, 0., 0.,
          0., 0., 0., 0., 0., 3.70370373e-02, 3.70370373e-02, 0., 0., 0.,
          0., 0., 0., 0., 1.85185187e-02, 0., 0., 0., 0., 0.,
          3.70370373e-02, 0., 1.85185187e-02, 0., 0., 0., 0., 0., 0., 0.,
          0., 0., 0., 0., 0., 0., 1.85185187e-02, 0., 0., 3.70370373e-02,
          0., 0., 0., 0., 0., 0., 0., 0., 1.85185187e-02, 0., 0.,
          1.85185187e-02, 0., 0., 0., 0., 0., 0., 0., 0., 0., 0.,
          1.85185187e-02, 0., 0., 0., 0., 1.85185187e-02, 0., 0., 0., 0.,
          1.85185187e-02, 0., 0., 0., 0., 0., 0., 0., 0., 0., 0., 0., 0.,
          0., 0., 3.70370373e-02, 0., 0., 1.85185187e-02, 0., 0., 0., 0.,
          0., 0., 0., 0., 0., 0., 0., 1.85185187e-02, 0., 0.,
          1.85185187e-02, 0., 0., 0., 0., 0., 0., 0., 0., 0., 0., 0., 0.,
          0., 0., 0., 0., 0., 0., 0., 3.70370373e-02, 1.85185187e-02, 0.,
          0., 0., 0., 0., 0., 0., 0., 0., 0., 0., 0., 0., 0., 0., 0., 0.,
          0., 0., 1.85185187e-02, 0., 0., 0., 0., 0., 1.85185187e-02, 0.,
          0., 0., 0., 0., 0., 0., 0., 3.70370373e-02, 0., 0., 0., 0., 0.,
          0., 0., 0., 3.70370373e-02, 0., 0., 0., 0., 0., 0., 0., 0., 0.,
          0., 0., 0., 0., 0., 0., 0., 1.85185187e-02, 0., 0., 0., 0., 0.,
          0., 0., 0., 0., 0., 0., 0., 0., 0., 0., 0., 1.85185187e-02, 0.,
          0., 0., 0., 0., 0., 0., 0., 0., 0., 0., 0., 0., 0.,
          3.70370373e-02, 1.85185187e-02, 0., 0., 0., 0., 0., 0., 0., 0.,
          0., 0., 0., 0., 1.85185187e-02, 0., 0., 0., 0., 0., 0., 0., 0.,
          0., 0., 0., 0., 0., 0., 0., 0., 0., 0., 0., 0., 0., 0., 0.,
          1.85185187e-02, 0., 0., 0., 0., 0., 0., 0., 0., 0., 0., 0., 0.,
          0., 0., 0., 1.85185187e-02, 0., 0., 0., 0., 0., 0., 0., 0., 0.,
          0., 0., 0., 0., 0., 0., 0., 0., 0., 0., 0., 0., 0.,
          3.70370373e-02, 0., 0., 0., 0., 0., 0., 0., 0., 0., 0., 0., 0.,
          0., 0., 0., 0., 0., 1.85185187e-02, 0., 0., 0., 1.85185187e-02,
          0., 0., 0., 0., 0., 0., 0., 0., 0., 0., 0., 0., 1.85185187e-02,
          0., 0., 0., 0., 0., 0., 0., 0., 0., 0., 0., 0., 0., 0., 0., 0.,
          0., 0., 0., 0., 0., 0., 0., 0., 0., 0., 0., 0., 0., 0., 0., 0.,
          0., 0., 0., 0., 0., 0., 0., 1.85185187e-02, 0., 0., 0., 0., 0.,
          0., 0., 0., 0., 0., 0., 0., 0., 0., 0., 0., 0., 0., 0., 0., 0.,
          0., 0., 0., 0., 0., 0., 0., 0., 0., 0., 3.70370373e-02, 0., 0.,
          0., 0., 0., 0., 0., 1.85185187e-02, 0., 1.85185187e-02, 0., 0.,
          0., 0., 0., 0., 0., 0., 0., 0., 0., 0., 1.85185187e-02, 0., 0.,
          0., 0., 1.85185187e-02, 0., 0., 0., 0., 0., 0., 0., 0., 0., 0.,
          0., 0., 0., 0., 0., 0., 0., 0., 0., 0., 0., 0., 0., 0., 0., 0.,
          0., 0., 0., 0., 0., 0. ]
      - [ 0., 0., 0., 0., 0., 0., 1.36986300e-02, 1.36986300e-02, 0., 0.,
          0., 0., 0., 0., 1.36986300e-02, 0., 0., 0., 0., 1.36986300e-02,
          0., 0., 0., 0., 0., 0., 0., 1.36986300e-02, 1.36986300e-02,
          1.36986300e-02, 0., 1.36986300e-02, 0., 0., 0., 0.,
          1.36986300e-02, 1.36986300e-02, 1.36986300e-02, 0., 0.,
          2.73972601e-02, 0., 1.36986300e-02, 0., 0., 0., 0.,
          1.36986300e-02, 0., 0., 1.36986300e-02, 0., 0., 0., 0., 0., 0.,
          0., 0., 0., 0., 0., 0., 0., 0., 0., 0., 0., 0., 0., 0., 0., 0.,
          0., 0., 0., 0., 0., 0., 0., 1.36986300e-02, 0., 0., 0., 0., 0.,
          0., 0., 0., 0., 0., 0., 0., 1.36986300e-02, 0., 0., 0., 0., 0.,
          0., 1.36986300e-02, 1.36986300e-02, 0., 0., 0., 0., 0., 0., 0.,
          0., 4.10958901e-02, 0., 0., 0., 0., 0., 0., 0., 0., 0.,
          1.36986300e-02, 0., 0., 0., 1.36986300e-02, 0., 1.36986300e-02,
          0., 0., 0., 0., 1.36986300e-02, 0., 2.73972601e-02, 0., 0., 0.,
          0., 0., 0., 0., 0., 0., 0., 0., 0., 0., 0., 1.36986300e-02, 0.,
          0., 0., 0., 0., 0., 1.36986300e-02, 0., 0., 0., 1.36986300e-02,
          0., 0., 0., 0., 0., 0., 0., 0., 1.36986300e-02, 0.,
          1.36986300e-02, 0., 0., 0., 0., 0., 0., 0., 0., 0., 0., 0.,
          1.36986300e-02, 2.73972601e-02, 0., 1.36986300e-02,
          1.36986300e-02, 0., 0., 0., 0., 0., 0., 0., 0., 0.,
          1.36986300e-02, 0., 0., 0., 0., 0., 0., 0., 0., 0., 0., 0., 0.,
          1.36986300e-02, 0., 0., 0., 0., 1.36986300e-02, 0., 0., 0., 0.,
          1.36986300e-02, 0., 0., 0., 0., 0., 0., 0., 0., 0., 0., 0., 0.,
          0., 0., 0., 0., 1.36986300e-02, 0., 0., 0., 0., 0., 0., 0., 0.,
          0., 0., 0., 0., 0., 0., 0., 0., 0., 0., 0., 0., 0., 0., 0., 0.,
          0., 0., 0., 0., 0., 0., 0., 0., 0., 0., 0., 0., 0., 0.,
          1.36986300e-02, 0., 0., 1.36986300e-02, 0., 1.36986300e-02, 0.,
          0., 1.36986300e-02, 0., 0., 0., 0., 0., 0., 0., 0., 0., 0., 0.,
          0., 0., 0., 0., 0., 0., 0., 0., 0., 0., 0., 0., 0., 0., 0., 0.,
          0., 0., 0., 0., 0., 0., 1.36986300e-02, 0., 0., 0., 0., 0., 0.,
          0., 0., 0., 0., 0., 0., 1.36986300e-02, 0., 0., 0., 0., 0., 0.,
          0., 0., 0., 0., 0., 0., 0., 0., 0., 0., 0., 0., 0., 0., 0., 0.,
          0., 0., 0., 0., 0., 1.36986300e-02, 0., 0., 1.36986300e-02, 0.,
          0., 0., 0., 0., 1.36986300e-02, 0., 0., 0., 0., 0., 0.,
          2.73972601e-02, 0., 0., 0., 0., 1.36986300e-02, 0., 0., 0., 0.,
          0., 0., 1.36986300e-02, 0., 0., 0., 0., 1.36986300e-02,
          1.36986300e-02, 0., 0., 0., 0., 1.36986300e-02, 0., 0.,
          1.36986300e-02, 0., 0., 0., 0., 0., 0., 1.36986300e-02, 0., 0.,
          0., 0., 0., 0., 0., 0., 0., 0., 0., 0., 0., 0., 1.36986300e-02,
          1.36986300e-02, 0., 1.36986300e-02, 0., 0., 0., 0., 0., 0., 0.,
          0., 1.36986300e-02, 0., 0., 0., 0., 0., 0., 1.36986300e-02, 0.,
          1.36986300e-02, 1.36986300e-02, 0., 0., 1.36986300e-02, 0., 0.,
          0., 0., 0., 0., 0., 0., 0., 0., 0., 1.36986300e-02, 0., 0., 0.,
          0., 0., 0., 0., 0., 0., 0., 1.36986300e-02, 0., 0., 0., 0., 0.,
          0., 0., 0., 0., 0., 0., 0., 0., 0., 0., 0., 0., 0., 0., 0., 0.,
          0., 0., 1.36986300e-02, 0., 0., 0., 0. ]
      - [ 0., 0., 0., 0., 0., 0., 0., 0., 0., 0., 0., 1.40845068e-02,
          2.81690136e-02, 1.40845068e-02, 1.40845068e-02, 0., 0., 0., 0.,
          0., 1.40845068e-02, 0., 0., 0., 0., 0., 0., 1.40845068e-02, 0.,
          0., 0., 0., 0., 0., 0., 0., 0., 0., 0., 0., 0., 0., 0.,
          1.40845068e-02, 0., 0., 0., 0., 1.40845068e-02, 0.,
          1.40845068e-02, 0., 0., 0., 0., 0., 0., 0., 0., 0., 0., 0., 0.,
          0., 0., 0., 0., 0., 0., 0., 0., 0., 0., 0., 0., 1.40845068e-02,
          0., 0., 0., 0., 0., 0., 0., 0., 0., 0., 0., 1.40845068e-02, 0.,
          0., 0., 0., 1.40845068e-02, 0., 0., 0., 0., 1.40845068e-02, 0.,
          0., 0., 0., 1.40845068e-02, 1.40845068e-02, 0., 0., 0., 0., 0.,
          0., 0., 1.40845068e-02, 0., 0., 0., 2.81690136e-02, 0., 0., 0.,
          0., 0., 1.40845068e-02, 1.40845068e-02, 0., 0., 0., 0.,
          1.40845068e-02, 0., 0., 0., 0., 0., 0., 2.81690136e-02, 0., 0.,
          0., 0., 0., 0., 0., 0., 1.40845068e-02, 0., 0., 0., 0., 0., 0.,
          0., 0., 0., 0., 0., 0., 0., 0., 0., 1.40845068e-02, 0.,
          1.40845068e-02, 0., 0., 1.40845068e-02, 0., 0., 0., 0., 0., 0.,
          0., 0., 0., 0., 0., 0., 0., 0., 0., 0., 0., 0., 0., 0., 0.,
          1.40845068e-02, 0., 0., 0., 0., 0., 0., 1.40845068e-02, 0., 0.,
          0., 1.40845068e-02, 0., 0., 0., 0., 0., 0., 0., 0.,
          1.40845068e-02, 0., 0., 0., 0., 0., 0., 0., 0., 1.40845068e-02,
          0., 0., 0., 0., 0., 0., 0., 0., 0., 0., 0., 1.40845068e-02, 0.,
          1.40845068e-02, 0., 0., 0., 0., 0., 0., 0., 0., 0., 0., 0., 0.,
          0., 0., 0., 0., 0., 0., 0., 0., 1.40845068e-02, 0., 0., 0., 0.,
          0., 0., 0., 1.40845068e-02, 0., 0., 1.40845068e-02,
          1.40845068e-02, 0., 0., 0., 0., 0., 0., 0., 0., 0., 0., 0., 0.,
          0., 0., 0., 1.40845068e-02, 0., 0., 0., 0., 0., 1.40845068e-02,
          0., 0., 0., 0., 0., 0., 0., 0., 0., 0., 0., 0., 0., 0., 0., 0.,
          0., 0., 0., 0., 0., 0., 0., 0., 1.40845068e-02, 4.22535203e-02,
          0., 0., 0., 0., 0., 0., 0., 0., 0., 0., 0., 0., 1.40845068e-02,
          0., 0., 0., 0., 0., 0., 0., 0., 0., 0., 0., 0., 0., 0.,
          1.40845068e-02, 0., 0., 0., 1.40845068e-02, 0., 1.40845068e-02,
          0., 0., 0., 0., 0., 0., 0., 0., 0., 0., 0., 0., 0., 0., 0., 0.,
          0., 1.40845068e-02, 0., 0., 0., 0., 0., 0., 0., 0.,
          1.40845068e-02, 0., 0., 1.40845068e-02, 0., 0., 0., 0., 0., 0.,
          0., 0., 0., 0., 0., 0., 0., 0., 0., 0., 0., 0., 0., 0., 0., 0.,
          0., 0., 0., 1.40845068e-02, 1.40845068e-02, 0., 0.,
          1.40845068e-02, 0., 0., 0., 0., 1.40845068e-02, 0., 0., 0., 0.,
          0., 1.40845068e-02, 1.40845068e-02, 0., 0., 0., 0., 0.,
          1.40845068e-02, 0., 0., 0., 0., 0., 1.40845068e-02, 0., 0., 0.,
          1.40845068e-02, 0., 0., 0., 0., 0., 0., 1.40845068e-02, 0., 0.,
          0., 0., 0., 0., 0., 0., 0., 0., 0., 0., 0., 0., 0., 0.,
          1.40845068e-02, 0., 0., 0., 0., 0., 0., 0., 0., 1.40845068e-02,
          1.40845068e-02, 0., 1.40845068e-02, 0., 0., 0., 0., 0., 0., 0.,
          0., 0., 1.40845068e-02, 0., 1.40845068e-02, 0., 0., 0., 0., 0.,
          0., 1.40845068e-02, 0., 0., 0., 0., 1.40845068e-02, 0., 0., 0.,
          0., 1.40845068e-02, 0., 0. ]
      - [ 0., 0., 0., 0., 0., 0., 1.63934417e-02, 1.63934417e-02, 0., 0.,
          0., 0., 0., 0., 1.63934417e-02, 0., 0., 0., 0., 1.63934417e-02,
          0., 0., 0., 0., 0., 0., 0., 0., 1.63934417e-02, 0.,
          1.63934417e-02, 1.63934417e-02, 0., 0., 0., 0., 0.,
          1.63934417e-02, 3.27868834e-02, 0., 1.63934417e-02,
          1.63934417e-02, 0., 0., 0., 0., 0., 0., 1.63934417e-02, 0., 0.,
          0., 0., 0., 0., 0., 0., 0., 0., 0., 0., 0., 0., 0., 0., 0., 0.,
          0., 0., 1.63934417e-02, 0., 1.63934417e-02, 0., 0., 0., 0., 0.,
          0., 1.63934417e-02, 0., 0., 0., 0., 0., 0., 1.63934417e-02, 0.,
          0., 0., 0., 0., 0., 0., 0., 1.63934417e-02, 0., 0., 0., 0., 0.,
          0., 0., 1.63934417e-02, 0., 0., 0., 0., 0., 0., 0., 0., 0., 0.,
          0., 0., 0., 0., 0., 0., 0., 0., 0., 0., 0., 0., 0., 0.,
          1.63934417e-02, 0., 0., 0., 0., 0., 0., 1.63934417e-02, 0., 0.,
          0., 0., 0., 0., 0., 0., 0., 0., 0., 0., 0., 0., 1.63934417e-02,
          0., 0., 0., 0., 0., 0., 1.63934417e-02, 0., 0., 0.,
          1.63934417e-02, 0., 0., 0., 0., 0., 1.63934417e-02,
          1.63934417e-02, 0., 1.63934417e-02, 0., 0., 0., 0., 0., 0., 0.,
          0., 0., 0., 0., 0., 0., 3.27868834e-02, 1.63934417e-02, 0.,
          1.63934417e-02, 1.63934417e-02, 0., 0., 0., 0., 0., 0., 0., 0.,
          0., 3.27868834e-02, 0., 0., 0., 0., 0., 0., 0., 0., 0., 0., 0.,
          0., 0., 0., 0., 0., 0., 0., 0., 0., 0., 0., 0., 0., 0., 0., 0.,
          0., 0., 0., 0., 0., 0., 0., 0., 0., 0., 0., 0., 0., 0., 0., 0.,
          0., 0., 0., 0., 0., 0., 0., 0., 0., 0., 0., 0., 0., 0., 0.,
          1.63934417e-02, 0., 0., 0., 0., 1.63934417e-02, 0., 0., 0., 0.,
          0., 0., 0., 0., 0., 0., 0., 0., 0., 0., 1.63934417e-02, 0., 0.,
          0., 0., 0., 0., 0., 1.63934417e-02, 0., 1.63934417e-02, 0., 0.,
          0., 0., 0., 0., 0., 0., 0., 0., 0., 0., 0., 0., 3.27868834e-02,
          0., 0., 0., 0., 0., 0., 1.63934417e-02, 0., 1.63934417e-02, 0.,
          0., 0., 0., 0., 0., 0., 0., 1.63934417e-02, 0., 0., 0., 0., 0.,
          0., 0., 0., 0., 0., 3.27868834e-02, 1.63934417e-02, 0., 0., 0.,
          0., 0., 0., 0., 0., 0., 0., 1.63934417e-02, 0., 0., 0., 0., 0.,
          0., 0., 0., 0., 0., 0., 0., 0., 0., 0., 0., 1.63934417e-02, 0.,
          0., 1.63934417e-02, 0., 0., 0., 0., 0., 1.63934417e-02, 0., 0.,
          0., 0., 0., 0., 0., 0., 0., 0., 0., 0., 0., 0., 0., 0., 0., 0.,
          0., 0., 0., 0., 0., 0., 1.63934417e-02, 0., 0., 0., 0.,
          1.63934417e-02, 0., 0., 0., 0., 0., 0., 0., 1.63934417e-02, 0.,
          0., 0., 0., 0., 0., 0., 0., 0., 1.63934417e-02, 1.63934417e-02,
          0., 0., 0., 0., 0., 0., 1.63934417e-02, 0., 0., 0., 0., 0., 0.,
          0., 0., 0., 0., 1.63934417e-02, 0., 0., 0., 0., 0., 0., 0., 0.,
          0., 0., 0., 0., 0., 0., 1.63934417e-02, 0., 0., 0., 0., 0., 0.,
          0., 0., 0., 0., 0., 0., 0., 0., 0., 0., 0., 0., 0., 0., 0., 0.,
          0., 0., 0., 0., 0., 0., 0., 0., 0., 0., 0., 0., 0., 0., 0., 0.,
          0., 0., 1.63934417e-02, 0., 0., 0., 1.63934417e-02, 0., 0., 0.,
          0. ]
      - [ 0., 0., 0., 0., 0., 0., 9.99999978e-03, 0., 0., 0., 0., 0.,
          9.99999978e-03, 0., 0., 0., 9.99999978e-03, 9.99999978e-03, 0.,
          0., 0., 0., 0., 0., 9.99999978e-03, 9.99999978e-03,
          9.99999978e-03, 0., 0., 0., 9.99999978e-03, 0., 0., 0., 0., 0.,
          0., 1.99999996e-02, 0., 0., 2.99999993e-02, 9.99999978e-03, 0.,
          9.99999978e-03, 0., 0., 0., 0., 0., 0., 9.99999978e-03, 0., 0.,
          9.99999978e-03, 0., 0., 0., 0., 0., 9.99999978e-03,
          9.99999978e-03, 0., 0., 0., 0., 0., 0., 0., 9.99999978e-03, 0.,
          0., 0., 0., 0., 0., 0., 9.99999978e-03, 0., 0., 0., 0., 0., 0.,
          0., 0., 0., 0., 0., 0., 0., 0., 0., 0., 0., 0., 0., 0.,
          9.99999978e-03, 0., 0., 0., 0., 0., 0., 0., 0., 0.,
          9.99999978e-03, 9.99999978e-03, 0., 0., 0., 0., 0.,
          9.99999978e-03, 0., 0., 0., 0., 0., 2.99999993e-02, 0., 0., 0.,
          0., 0., 9.99999978e-03, 0., 0., 0., 0., 0., 0., 0.,
          9.99999978e-03, 0., 0., 0., 0., 0., 0., 0., 0., 9.99999978e-03,
          0., 0., 0., 0., 0., 0., 0., 0., 0., 0., 0., 0., 0., 0., 0., 0.,
          0., 0., 0., 0., 0., 0., 0., 0., 0., 0., 0., 9.99999978e-03, 0.,
          9.99999978e-03, 9.99999978e-03, 0., 0., 9.99999978e-03, 0., 0.,
          9.99999978e-03, 0., 0., 0., 0., 0., 0., 0., 0., 0., 0., 0.,
          9.99999978e-03, 9.99999978e-03, 0., 0., 0., 0., 0., 0., 0., 0.,
          0., 0., 0., 0., 0., 0., 0., 0., 0., 0., 9.99999978e-03,
          9.99999978e-03, 0., 0., 0., 0., 0., 0., 0., 0., 0.,
          2.99999993e-02, 0., 0., 0., 0., 9.99999978e-03, 0.,
          1.99999996e-02, 9.99999978e-03, 0., 0., 0., 9.99999978e-03,
          9.99999978e-03, 0., 0., 0., 0., 0., 9.99999978e-03, 0., 0., 0.,
          0., 0., 0., 0., 9.99999978e-03, 0., 0., 0., 0., 0., 0., 0., 0.,
          0., 0., 0., 0., 0., 0., 0., 0., 0., 0., 0., 0., 0., 0., 0.,
          9.99999978e-03, 0., 0., 9.99999978e-03, 9.99999978e-03, 0.,
          9.99999978e-03, 0., 9.99999978e-03, 0., 0., 0., 0., 0., 0., 0.,
          0., 0., 0., 0., 0., 0., 1.99999996e-02, 0., 0., 0., 0.,
          9.99999978e-03, 9.99999978e-03, 0., 0., 0., 0., 0., 0., 0., 0.,
          0., 2.99999993e-02, 0., 0., 0., 9.99999978e-03, 9.99999978e-03,
          0., 0., 0., 0., 0., 0., 0., 0., 0., 9.99999978e-03, 0., 0., 0.,
          0., 9.99999978e-03, 0., 1.99999996e-02, 4.99999970e-02, 0., 0.,
          0., 0., 0., 0., 0., 0., 0., 0., 0., 0., 0., 0., 0., 0., 0., 0.,
          0., 0., 0., 9.99999978e-03, 0., 0., 0., 0., 0., 0., 0., 0., 0.,
          0., 0., 0., 1.99999996e-02, 9.99999978e-03, 0., 0., 0., 0., 0.,
          0., 0., 1.99999996e-02, 0., 9.99999978e-03, 0., 0., 0., 0., 0.,
          0., 0., 0., 0., 0., 0., 0., 0., 0., 0., 9.99999978e-03, 0., 0.,
          0., 0., 0., 0., 0., 0., 0., 0., 0., 9.99999978e-03, 0., 0., 0.,
          0., 0., 9.99999978e-03, 9.99999978e-03, 0., 0., 0., 0., 0., 0.,
          9.99999978e-03, 0., 9.99999978e-03, 0., 0., 0., 0.,
          9.99999978e-03, 9.99999978e-03, 0., 0., 0., 0., 0., 0., 0., 0.,
          0., 0., 0., 0., 0., 0., 0., 0., 0., 0., 0., 0., 0.,
          9.99999978e-03, 0., 0., 0., 0., 9.99999978e-03, 0., 0., 0.,
          1.99999996e-02, 0., 0., 0., 0., 0., 0., 0., 0., 0.,
          1.99999996e-02, 0., 0., 9.99999978e-03, 0., 0., 0., 0.,
          9.99999978e-03, 0., 0., 0., 0., 0., 0., 0., 9.99999978e-03,
          9.99999978e-03, 0., 0., 0., 0., 0., 0., 0., 9.99999978e-03, 0.,
          0. ]
   decision_functions:
      -
         sv_count: 8
         rho: -7.2981745004653931e-02
         alpha: [ 1., 1., 1., 1., -1., -1., -1., -1. ]
         index: [ 0, 1, 2, 3, 4, 5, 6, 7 ]
      -
         sv_count: 8
         rho: 1.9815385341644287e-02
         alpha: [ 1., 1., 1., 1., -1., -1., -1., -1. ]
         index: [ 0, 1, 2, 3, 8, 9, 10, 11 ]
      -
         sv_count: 8
         rho: -3.1949818134307861e-02
         alpha: [ 1., 1., 1., 1., -1., -1., -1., -1. ]
         index: [ 0, 1, 2, 3, 12, 13, 14, 15 ]
      -
         sv_count: 8
         rho: 7.1711361408233643e-02
         alpha: [ 1., 1., 1., 1., -1., -1., -1., -1. ]
         index: [ 4, 5, 6, 7, 8, 9, 10, 11 ]
      -
         sv_count: 8
         rho: 3.3312916755676270e-02
         alpha: [ 1., 1., 1., 1., -1., -1., -1., -1. ]
         index: [ 4, 5, 6, 7, 12, 13, 14, 15 ]
      -
         sv_count: 8
         rho: -3.7186384201049805e-02
         alpha: [ 1., 1., 1., 1., -1., -1., -1., -1. ]
         index: [ 8, 9, 10, 11, 12, 13, 14, 15 ]
