%YAML:1.0
my_svm: !!opencv-ml-svm
   svm_type: C_SVC
   kernel: { type:RBF, gamma:3. }
   C: 1.
   term_criteria: { epsilon:2.2204460492503131e-16, iterations:100 }
   var_all: 1200
   var_count: 1200
   class_count: 5
   class_labels: !!opencv-matrix
      rows: 1
      cols: 5
      dt: i
      data: [ 0, 1, 2, 3, 4 ]
   sv_total: 20
   support_vectors:
      - [ 5.43478271e-03, 1.87406302e-04, 1.87406302e-04, 1.87406305e-03,
          2.06146925e-03, 1.12443778e-03, 7.49625207e-04, 7.49625207e-04,
          1.87406302e-04, 1.87406305e-03, 0., 5.62218891e-04,
          3.74812604e-04, 1.87406302e-04, 1.49925041e-03, 3.74812604e-04,
          3.74812604e-04, 5.62218891e-04, 7.49625207e-04, 3.74812604e-04,
          2.81109451e-03, 9.37031524e-04, 1.49925041e-03, 3.37331346e-03,
          5.62218891e-04, 1.49925041e-03, 3.74812604e-04, 1.87406302e-04,
          1.31184410e-03, 1.68665673e-03, 1.87406302e-04, 1.31184410e-03,
          3.18590715e-03, 7.49625207e-04, 0., 9.37031524e-04,
          1.12443778e-03, 7.49625207e-04, 1.68665673e-03, 1.87406302e-04,
          3.74812604e-04, 1.12443778e-03, 1.87406302e-04, 1.87406302e-04,
          0., 3.74812604e-04, 1.87406302e-04, 1.49925041e-03,
          1.87406302e-04, 1.87406302e-04, 3.74812604e-04, 1.68665673e-03,
          1.87406302e-04, 2.62368820e-03, 0., 1.31184410e-03,
          5.62218891e-04, 7.49625207e-04, 1.12443778e-03, 3.74812604e-04,
          9.37031524e-04, 3.74812604e-04, 2.81109451e-03, 9.37031524e-04,
          9.37031524e-04, 5.62218891e-04, 2.24887556e-03, 1.12443778e-03,
          5.62218891e-04, 1.87406302e-04, 9.37031524e-04, 2.24887556e-03,
          9.37031524e-04, 3.74812604e-04, 1.87406302e-04, 1.12443778e-03,
          3.74812604e-04, 2.24887556e-03, 1.49925041e-03, 3.74812604e-04,
          5.62218891e-04, 3.74812604e-04, 3.74812604e-04, 9.37031524e-04,
          0., 1.68665673e-03, 1.12443778e-03, 1.87406302e-04,
          1.87406302e-04, 1.87406302e-04, 5.62218891e-04, 9.37031524e-04,
          1.87406302e-04, 3.93553218e-03, 5.62218891e-04, 3.37331346e-03,
          5.62218891e-04, 1.87406302e-04, 1.87406305e-03, 1.12443778e-03,
          1.87406302e-04, 0., 3.74812604e-04, 3.74812604e-04,
          5.43478271e-03, 5.62218891e-04, 1.12443778e-03, 1.12443778e-03,
          1.12443778e-03, 3.74812604e-04, 6.55922061e-03, 1.87406302e-04,
          3.74812604e-04, 7.30884587e-03, 1.49925041e-03, 5.62218891e-04,
          5.62218891e-04, 7.49625207e-04, 1.87406302e-04, 4.31034481e-03,
          0., 0., 4.31034481e-03, 1.12443778e-03, 3.74812604e-04, 0.,
          1.87406302e-04, 5.62218891e-04, 1.87406305e-03, 7.49625207e-04,
          1.87406302e-04, 1.87406302e-04, 0., 1.87406305e-03,
          1.87406302e-04, 2.43628188e-03, 1.87406305e-03, 1.87406302e-04,
          9.37031524e-04, 1.87406302e-04, 1.31184410e-03, 0.,
          7.49625207e-04, 5.62218891e-04, 5.62218891e-04, 2.81109451e-03,
          3.74812604e-04, 3.18590715e-03, 1.87406305e-03, 3.74812604e-04,
          1.31184410e-03, 1.87406302e-04, 3.74812604e-04, 1.87406305e-03,
          1.87406302e-04, 3.74812604e-04, 7.49625207e-04, 3.74812604e-04,
          0., 0., 1.87406302e-04, 5.62218891e-04, 9.37031524e-04,
          1.31184410e-03, 1.87406302e-04, 1.49925041e-03, 1.68665673e-03,
          3.74812604e-04, 9.37031524e-04, 5.62218891e-04, 7.49625207e-04,
          1.31184410e-03, 5.62218891e-04, 3.74812604e-04, 5.62218891e-04,
          9.37031524e-04, 3.37331346e-03, 1.12443778e-03, 3.74812604e-04,
          3.74812604e-04, 5.62218891e-04, 1.87406302e-04, 0.,
          1.31184410e-03, 2.24887556e-03, 5.62218891e-04, 1.87406302e-04,
          0., 5.62218891e-04, 1.87406302e-04, 1.12443778e-03,
          2.24887556e-03, 5.62218891e-04, 1.49925041e-03, 9.37031524e-04,
          3.74812604e-04, 0., 5.62218891e-04, 9.37031524e-04, 0.,
          7.49625207e-04, 1.87406302e-04, 1.31184410e-03, 1.68665673e-03,
          1.87406302e-04, 3.74812604e-04, 1.31184410e-03, 0., 0.,
          3.74812604e-04, 1.87406302e-04, 7.49625207e-04, 1.12443778e-03,
          9.37031524e-04, 3.74812604e-04, 3.74812604e-04, 5.62218891e-04,
          9.37031524e-04, 0., 1.12443778e-03, 3.74812604e-04,
          1.68665673e-03, 0., 5.62218891e-04, 0., 3.74812604e-04,
          1.12443778e-03, 1.68665673e-03, 3.74812604e-04, 7.49625207e-04,
          1.87406302e-04, 5.62218891e-04, 0., 1.68665673e-03,
          7.49625207e-04, 1.12443778e-03, 1.68665673e-03, 1.12443778e-03,
          3.74812604e-04, 5.62218891e-04, 1.12443778e-03, 1.87406302e-04,
          7.49625207e-04, 9.37031524e-04, 7.49625207e-04, 1.87406302e-04,
          1.49925041e-03, 0., 0., 1.12443778e-03, 3.74812604e-04,
          2.81109451e-03, 3.74812604e-04, 3.93553218e-03, 0., 0.,
          1.12443778e-03, 3.74812604e-04, 0., 3.74812604e-04,
          3.74812604e-04, 1.87406302e-04, 1.12443778e-03, 1.87406302e-04,
          0., 5.62218891e-04, 1.87406302e-04, 0., 3.74812604e-04,
          1.31184410e-03, 3.74812604e-04, 9.37031524e-04, 7.49625207e-04,
          1.12443778e-03, 1.87406305e-03, 1.87406305e-03, 1.49925041e-03,
          9.37031524e-04, 1.12443778e-03, 5.62218891e-04, 1.87406302e-04,
          0., 7.49625207e-04, 3.74812604e-04, 1.87406302e-04,
          1.12443778e-03, 7.49625207e-04, 9.37031524e-04, 1.87406305e-03,
          7.49625207e-04, 3.74812604e-04, 0., 5.62218891e-04,
          1.12443778e-03, 3.74812604e-04, 1.31184410e-03, 0.,
          3.74812604e-04, 0., 0., 3.74812604e-04, 2.99850083e-03,
          7.49625207e-04, 7.49625207e-04, 1.87406302e-04, 5.62218891e-04,
          5.62218891e-04, 1.87406302e-04, 3.74812604e-04, 1.31184410e-03,
          1.87406302e-04, 1.12443778e-03, 9.37031524e-04, 1.87406302e-04,
          2.06146925e-03, 1.31184410e-03, 1.68665673e-03, 2.43628188e-03,
          1.87406302e-04, 7.49625207e-04, 5.62218891e-04, 1.68665673e-03,
          7.49625207e-04, 1.31184410e-03, 5.62218891e-04, 9.37031524e-04,
          5.62218891e-04, 0., 7.49625207e-04, 3.74812604e-04,
          3.74812604e-04, 1.49925041e-03, 3.74812604e-04, 7.49625207e-04,
          1.87406302e-04, 2.06146925e-03, 1.87406302e-04, 3.74812604e-04,
          0., 1.12443778e-03, 5.62218891e-04, 5.62218891e-04,
          1.87406305e-03, 3.74812604e-04, 5.62218891e-04, 1.87406302e-04,
          1.87406302e-04, 7.49625207e-04, 5.62218891e-04, 3.74812604e-04,
          9.37031524e-04, 9.37031524e-04, 7.49625207e-04, 1.68665673e-03,
          0., 1.68665673e-03, 9.37031524e-04, 1.87406302e-04,
          1.87406302e-04, 9.37031524e-04, 1.31184410e-03, 3.74812604e-04,
          1.87406302e-04, 1.68665673e-03, 9.37031524e-04, 0.,
          1.49925041e-03, 0., 5.62218891e-04, 9.37031524e-04,
          7.49625207e-04, 1.68665673e-03, 7.49625207e-04, 0.,
          1.31184410e-03, 1.49925041e-03, 9.37031524e-04, 9.37031524e-04,
          1.12443778e-03, 0., 1.87406302e-04, 5.62218891e-04,
          3.74812604e-04, 0., 1.87406302e-04, 2.43628188e-03,
          3.93553218e-03, 3.37331346e-03, 3.74812604e-04, 9.37031524e-04,
          3.74812604e-04, 3.74812604e-04, 0., 1.87406302e-04, 0.,
          5.62218891e-04, 1.87406302e-04, 1.87406302e-04, 7.49625207e-04,
          1.12443778e-03, 9.37031524e-04, 0., 7.49625207e-04,
          3.74812604e-04, 7.49625207e-04, 3.74812604e-04, 9.37031524e-04,
          5.62218891e-04, 7.49625207e-04, 1.87406302e-04, 5.62218891e-04,
          1.87406305e-03, 1.12443778e-03, 1.87406302e-04, 3.74812604e-04,
          7.49625207e-04, 3.74812604e-04, 3.74812604e-04, 9.37031524e-04,
          1.12443778e-03, 7.49625207e-04, 5.62218891e-04, 1.12443778e-03,
          2.06146925e-03, 7.49625207e-04, 7.49625207e-04, 5.62218891e-04,
          7.49625207e-04, 2.06146925e-03, 0., 9.37031524e-04,
          5.62218891e-04, 1.68665673e-03, 2.24887556e-03, 9.37031524e-04,
          1.87406302e-04, 5.62218891e-04, 3.74812604e-04, 5.62218891e-04,
          9.37031524e-04, 1.87406302e-04, 5.62218891e-04, 2.06146925e-03,
          9.37031524e-04, 0., 1.68665673e-03, 2.06146925e-03, 0.,
          1.87406302e-04, 9.37031524e-04, 9.37031524e-04, 3.74812610e-03,
          1.12443778e-03, 1.12443778e-03, 7.49625207e-04, 2.06146925e-03,
          1.87406302e-04, 7.49625207e-04, 3.74812604e-04, 2.24887556e-03,
          1.31184410e-03, 9.37031524e-04, 2.81109451e-03, 4.31034481e-03,
          1.31184410e-03, 1.87406302e-04, 9.37031524e-04, 2.62368820e-03,
          1.87406302e-04, 1.87406302e-04, 1.87406302e-04, 3.74812604e-04,
          3.74812604e-04, 3.74812604e-04, 1.31184410e-03, 1.87406302e-04,
          3.74812604e-04, 5.62218891e-04, 1.87406302e-04, 1.12443778e-03,
          1.87406302e-04, 5.62218891e-04, 0., 1.49925041e-03,
          5.62218891e-04, 7.49625207e-04, 5.62218891e-04, 1.87406302e-04,
          5.62218891e-04, 3.74812604e-04, 0., 1.87406302e-04,
          3.18590715e-03, 1.12443778e-03, 1.49925041e-03, 1.49925041e-03,
          5.62218891e-04, 1.12443778e-03, 1.87406302e-04, 5.62218891e-04,
          9.37031524e-04, 7.49625207e-04, 0., 9.37031524e-04,
          5.62218891e-04, 1.31184410e-03, 0., 1.31184410e-03,
          9.37031524e-04, 5.62218891e-04, 7.49625207e-04, 7.49625207e-04,
          1.87406302e-04, 7.49625207e-04, 9.37031524e-04, 0.,
          1.12443778e-03, 7.49625207e-04, 5.62218891e-04, 3.74812604e-04,
          0., 0., 7.49625207e-04, 1.87406302e-04, 2.24887556e-03,
          9.37031524e-04, 0., 5.62218891e-04, 5.62218891e-04,
          7.49625207e-04, 1.87406302e-04, 0., 5.62218891e-04, 0.,
          2.06146925e-03, 3.74812604e-04, 1.87406302e-04, 1.12443778e-03,
          2.24887556e-03, 0., 0., 3.74812604e-04, 3.74812604e-04,
          1.12443778e-03, 5.62218891e-04, 1.31184410e-03, 7.49625207e-04,
          5.62218891e-04, 1.87406302e-04, 1.87406305e-03, 5.62218891e-04,
          3.74812604e-04, 7.49625207e-04, 1.68665673e-03, 0.,
          1.87406302e-04, 1.87406302e-04, 2.62368820e-03, 0., 0.,
          1.12443778e-03, 1.49925041e-03, 1.87406302e-04, 0.,
          1.12443778e-03, 3.74812604e-04, 1.87406302e-04, 0.,
          5.62218891e-04, 7.12143956e-03, 7.49625207e-04, 1.87406302e-04,
          5.62218891e-04, 3.74812604e-04, 1.87406302e-04, 0.,
          3.74812604e-04, 0., 0., 5.62218891e-04, 3.74812604e-04,
          1.12443778e-03, 5.62218891e-04, 1.87406302e-04, 3.37331346e-03,
          5.62218891e-04, 1.87406302e-04, 1.68665673e-03, 3.37331346e-03,
          7.49625207e-04, 2.62368820e-03, 1.49925041e-03, 1.87406302e-04,
          7.49625207e-04, 0., 3.74812604e-04, 1.87406302e-04,
          1.87406302e-04, 2.06146925e-03, 5.62218891e-04, 5.62218891e-04,
          5.62218891e-04, 1.87406302e-04, 1.87406302e-04, 1.31184410e-03,
          1.12443778e-03, 3.74812604e-04, 1.87406302e-04, 1.49925041e-03,
          1.31184410e-03, 5.62218891e-04, 3.74812604e-04, 1.31184410e-03,
          3.74812604e-04, 9.37031524e-04, 9.37031524e-04, 5.62218891e-04,
          7.49625207e-04, 7.49625207e-04, 5.62218891e-04, 7.49625207e-04,
          5.62218891e-04, 9.37031524e-04, 9.37031524e-04, 1.12443778e-03,
          9.37031524e-04, 0., 7.49625207e-04, 7.49625207e-04,
          1.31184410e-03, 9.37031524e-04, 1.49925041e-03, 1.87406302e-04,
          5.62218891e-04, 7.49625207e-04, 9.37031524e-04, 3.74812604e-04,
          0., 5.62218891e-04, 5.62218891e-04, 3.74812604e-04,
          1.87406302e-04, 5.62218891e-04, 7.49625207e-04, 2.24887556e-03,
          3.74812604e-04, 1.87406305e-03, 1.87406302e-04, 1.87406302e-04,
          1.12443778e-03, 1.31184410e-03, 7.49625207e-04, 9.37031524e-04,
          2.43628188e-03, 5.62218891e-04, 1.12443778e-03, 1.12443778e-03,
          0., 0., 2.06146925e-03, 0., 1.68665673e-03, 5.62218891e-04,
          1.31184410e-03, 9.37031524e-04, 1.87406302e-04, 7.49625207e-04,
          1.12443778e-03, 7.49625207e-04, 0., 3.74812604e-04,
          1.87406302e-04, 0., 3.74812604e-04, 3.74812604e-04,
          1.12443778e-03, 7.49625207e-04, 5.62218891e-04, 9.37031524e-04,
          3.74812604e-04, 5.62218891e-04, 0., 1.31184410e-03,
          7.49625207e-04, 9.37031489e-03, 7.49625207e-04, 5.62218891e-04,
          3.74812604e-04, 1.49925041e-03, 1.31184410e-03, 7.49625207e-04,
          2.24887556e-03, 1.12443778e-03, 1.31184410e-03, 3.74812604e-04,
          1.12443778e-03, 7.49625207e-04, 3.74812604e-04, 2.62368820e-03,
          1.87406302e-04, 9.37031524e-04, 1.87406302e-04, 3.74812604e-04,
          1.68665673e-03, 5.62218891e-04, 0., 2.24887556e-03,
          1.87406302e-04, 1.49925041e-03, 5.62218891e-04, 2.43628188e-03,
          3.74812604e-04, 1.87406302e-04, 0., 5.62218891e-04, 0.,
          5.62218891e-04, 0., 5.62218891e-04, 5.62218891e-04,
          9.37031524e-04, 0., 7.49625207e-04, 2.81109451e-03,
          7.49625207e-04, 2.24887556e-03, 3.74812604e-04, 1.87406302e-04,
          0., 1.87406302e-04, 0., 2.24887556e-03, 1.12443778e-03,
          7.49625207e-04, 0., 5.62218891e-04, 0., 0., 3.74812604e-04,
          1.49925041e-03, 1.31184410e-03, 1.31184410e-03, 2.81109451e-03,
          1.87406302e-04, 0., 0., 1.87406302e-04, 9.37031524e-04,
          5.62218891e-04, 5.62218891e-04, 0., 1.87406302e-04,
          5.62218891e-04, 1.12443778e-03, 2.06146925e-03, 1.87406302e-04,
          1.12443778e-03, 0., 1.87406305e-03, 3.18590715e-03,
          1.87406302e-04, 2.43628188e-03, 5.62218891e-04, 5.62218891e-04,
          0., 1.12443778e-03, 1.12443778e-03, 5.62218891e-04,
          1.87406302e-04, 7.49625207e-04, 0., 7.49625207e-04, 0.,
          5.62218891e-04, 9.37031524e-04, 9.37031524e-04, 2.62368820e-03,
          9.37031524e-04, 1.87406302e-04, 3.74812604e-04, 5.62218891e-04,
          3.74812604e-04, 5.62218891e-04, 1.87406302e-04, 7.49625207e-04,
          0., 7.49625207e-04, 0., 1.87406302e-04, 3.18590715e-03,
          1.31184410e-03, 0., 3.74812604e-04, 9.37031524e-04,
          1.68665673e-03, 5.62218891e-04, 7.49625207e-04, 1.87406302e-04,
          2.62368820e-03, 5.62218891e-04, 0., 3.74812604e-04, 0.,
          3.74812604e-04, 5.62218891e-04, 1.31184410e-03, 7.49625207e-04,
          3.74812604e-04, 0., 9.37031524e-04, 0., 1.87406302e-04,
          5.62218891e-04, 1.87406302e-04, 7.49625207e-04, 1.31184410e-03,
          0., 0., 1.49925041e-03, 1.87406302e-04, 0., 3.74812604e-04,
          7.49625207e-04, 5.62218891e-04, 9.37031524e-04, 1.87406302e-04,
          1.87406302e-04, 9.37031524e-04, 1.87406302e-04, 0.,
          7.49625207e-04, 1.31184410e-03, 9.37031524e-04, 5.62218891e-04,
          1.12443778e-03, 0., 5.62218891e-04, 3.74812604e-04,
          1.49925041e-03, 1.87406302e-04, 7.49625207e-04, 1.68665673e-03,
          1.87406305e-03, 9.37031524e-04, 3.74812604e-04, 3.74812604e-04,
          7.49625207e-04, 1.31184410e-03, 1.12443778e-03, 1.87406302e-04,
          1.87406302e-04, 1.87406302e-04, 9.37031524e-04, 7.49625207e-04,
          1.12443778e-03, 1.68665673e-03, 7.49625207e-04, 7.49625207e-04,
          0., 3.74812604e-04, 0., 7.49625207e-04, 1.12443778e-03,
          5.62218891e-04, 3.74812604e-04, 5.62218891e-04, 1.31184410e-03,
          5.62218891e-04, 5.62218891e-04, 1.31184410e-03, 1.87406305e-03,
          0., 1.49925041e-03, 7.49625207e-04, 3.18590715e-03,
          1.31184410e-03, 3.74812604e-04, 2.99850083e-03, 7.49625207e-04,
          5.62218891e-04, 0., 1.87406302e-04, 1.87406302e-04,
          3.74812604e-04, 1.87406302e-04, 7.49625207e-04, 7.49625207e-04,
          1.87406302e-04, 0., 3.74812604e-04, 1.31184410e-03,
          3.74812604e-04, 2.81109451e-03, 7.49625207e-04, 5.62218891e-04,
          4.31034481e-03, 1.87406302e-04, 0., 1.68665673e-03,
          7.49625207e-04, 9.37031524e-04, 2.24887556e-03, 1.68665673e-03,
          0., 1.31184410e-03, 2.43628188e-03, 2.06146925e-03,
          1.87406302e-04, 1.87406302e-04, 1.87406302e-04, 1.87406302e-04,
          3.74812604e-04, 5.62218891e-04, 3.74812604e-04, 1.12443778e-03,
          3.74812604e-04, 0., 7.49625207e-04, 3.74812604e-04,
          1.31184410e-03, 1.87406305e-03, 7.49625207e-04, 2.24887556e-03,
          1.12443778e-03, 5.62218891e-04, 1.87406305e-03, 7.49625207e-04,
          7.49625207e-04, 3.74812604e-04, 2.06146925e-03, 3.74812604e-04,
          1.87406302e-04, 1.68665673e-03, 1.31184410e-03, 9.37031524e-04,
          0., 1.87406302e-04, 3.74812604e-04, 5.62218891e-04,
          7.49625207e-04, 5.62218891e-04, 1.87406302e-04, 2.06146925e-03,
          3.74812604e-04, 0., 5.62218891e-04, 1.49925041e-03,
          1.87406302e-04, 5.62218891e-04, 1.68665673e-03, 9.37031524e-04,
          2.06146925e-03, 5.62218891e-04, 1.31184410e-03, 1.87406302e-04,
          1.12443778e-03, 0., 9.37031524e-04, 3.74812604e-04, 0.,
          5.62218891e-04, 1.87406302e-04, 1.12443778e-03, 1.87406302e-04,
          5.62218891e-04, 1.87406302e-04, 2.06146925e-03, 9.37031524e-04,
          7.49625207e-04, 0., 3.74812604e-04, 1.12443778e-03,
          1.87406302e-04, 1.68665673e-03, 0., 5.62218891e-04, 0.,
          1.49925041e-03, 1.87406302e-04, 1.12443778e-03, 3.74812604e-04,
          5.62218891e-04, 1.68665673e-03, 5.62218891e-04, 1.87406305e-03,
          1.87406302e-04, 9.37031524e-04, 1.12443778e-03, 3.74812604e-04,
          5.62218891e-04, 1.49925041e-03, 0., 2.62368820e-03,
          1.12443778e-03, 1.87406302e-04, 1.87406302e-04, 1.12443778e-03,
          5.62218891e-04, 3.74812604e-04, 5.62218891e-04, 1.49925041e-03,
          7.49625207e-04, 0., 2.43628188e-03, 1.87406302e-04,
          9.37031524e-04, 7.49625207e-04, 1.68665673e-03, 0.,
          1.87406302e-04, 7.49625207e-04, 7.49625207e-04, 2.43628188e-03,
          1.31184410e-03, 5.62218891e-04, 9.37031524e-04, 3.74812604e-04,
          7.49625207e-04, 5.62218891e-04, 1.68665673e-03, 9.37031524e-04,
          0., 9.37031524e-04, 1.87406302e-04, 1.87406302e-04,
          5.62218891e-04, 3.74812604e-04, 3.18590715e-03, 1.49925041e-03,
          7.49625207e-04, 1.31184410e-03, 1.68665673e-03, 1.87406302e-04,
          3.74812604e-04, 1.87406305e-03, 1.87406302e-04, 5.62218891e-04,
          2.24887556e-03, 2.43628188e-03, 1.87406305e-03, 0.,
          1.87406302e-04, 0., 1.12443778e-03, 3.74812604e-04, 0.,
          2.81109451e-03, 9.37031524e-04, 7.49625207e-04, 5.62218891e-04,
          1.12443778e-03, 0., 5.62218891e-04, 1.12443778e-03,
          1.68665673e-03, 5.62218891e-04, 5.62218891e-04, 1.87406305e-03,
          0., 3.74812604e-04, 1.87406302e-04, 1.68665673e-03,
          1.87406302e-04, 9.37031524e-04, 7.49625207e-04, 1.87406302e-04,
          1.31184410e-03, 1.87406302e-04, 5.62218891e-04, 2.06146925e-03,
          7.49625207e-04, 3.74812604e-04, 3.74812604e-04, 0.,
          5.62218891e-04, 7.49625207e-04, 5.62218891e-04, 1.31184410e-03,
          5.62218891e-04, 0., 0., 1.87406302e-04, 1.31184410e-03,
          1.49925041e-03, 1.49925041e-03, 1.12443778e-03, 0.,
          1.49925041e-03, 7.49625207e-04, 3.74812604e-04, 9.37031524e-04,
          0., 1.12443778e-03, 1.31184410e-03, 3.74812604e-04,
          3.93553218e-03, 1.31184410e-03, 3.74812604e-04, 5.62218891e-04,
          1.12443778e-03, 1.49925041e-03, 1.12443778e-03, 1.31184410e-03,
          2.06146925e-03, 5.62218891e-04, 2.24887556e-03, 7.49625207e-04,
          1.87406302e-04, 0., 9.37031524e-04, 1.87406302e-04,
          5.62218891e-04, 3.18590715e-03, 9.37031524e-04, 0.,
          5.62218891e-04, 9.37031524e-04, 7.49625207e-04, 1.49925041e-03,
          4.87256376e-03, 9.37031524e-04, 0., 1.87406302e-04,
          3.74812604e-04, 3.74812604e-04, 1.12443778e-03, 7.49625207e-04,
          1.49925041e-03, 7.49625207e-04, 1.87406302e-04, 0.,
          5.62218891e-04, 1.49925041e-03, 3.74812604e-04, 7.49625207e-04,
          3.37331346e-03, 0., 0., 1.68665673e-03, 0., 5.62218891e-04,
          1.49925041e-03, 1.87406302e-04, 9.37031524e-04, 3.74812604e-04,
          7.49625207e-04, 5.62218891e-04, 3.74812604e-04, 9.37031524e-04,
          7.49625207e-04, 3.74812604e-04, 0., 9.37031524e-04,
          2.06146925e-03, 5.62218891e-04, 9.37031524e-04, 1.87406302e-04,
          1.68665673e-03, 3.56071978e-03, 0., 7.49625207e-04,
          7.49625207e-04, 9.37031524e-04, 1.49925041e-03, 1.49925041e-03,
          0., 5.62218891e-04, 9.37031524e-04, 1.49925041e-03,
          1.87406302e-04, 2.24887556e-03, 2.24887556e-03, 1.31184410e-03,
          1.87406302e-04, 1.87406302e-04, 5.62218891e-04, 0., 0.,
          1.49925041e-03, 9.37031524e-04, 3.74812604e-04, 0.,
          1.31184410e-03, 3.74812604e-04, 1.87406305e-03, 3.74812604e-04,
          5.62218891e-04, 7.49625207e-04, 0., 9.37031524e-04, 0.,
          3.74812604e-04, 1.87406302e-04, 1.87406302e-04, 1.87406302e-04,
          1.87406302e-04, 9.37031524e-04, 0., 1.31184410e-03,
          1.31184410e-03 ]
      - [ 8.42911936e-03, 1.27713918e-03, 5.10855694e-04, 2.04342278e-03,
          2.80970638e-03, 1.02171139e-03, 1.27713918e-03, 1.53256708e-03,
          2.55427847e-04, 2.55427836e-03, 2.55427847e-04, 5.10855694e-04,
          2.55427847e-04, 2.55427847e-04, 1.53256708e-03, 0.,
          1.02171139e-03, 7.66283541e-04, 2.55427847e-04, 5.10855694e-04,
          2.29885057e-03, 1.53256708e-03, 1.02171139e-03, 2.29885057e-03,
          2.55427847e-04, 2.55427847e-04, 5.10855694e-04, 2.55427847e-04,
          5.10855694e-04, 2.55427836e-03, 0., 1.27713918e-03,
          2.80970638e-03, 7.66283541e-04, 0., 5.10855694e-04,
          5.10855694e-04, 2.55427847e-04, 1.53256708e-03, 2.55427847e-04,
          1.02171139e-03, 1.02171139e-03, 2.55427847e-04, 2.55427847e-04,
          0., 5.10855694e-04, 2.55427847e-04, 5.10855694e-04, 0., 0.,
          1.27713918e-03, 7.66283541e-04, 7.66283541e-04, 1.27713918e-03,
          0., 1.27713918e-03, 2.55427847e-04, 1.02171139e-03, 0.,
          2.55427847e-04, 0., 2.55427847e-04, 4.59770113e-03,
          1.27713918e-03, 1.27713918e-03, 1.02171139e-03, 2.04342278e-03,
          1.27713918e-03, 2.55427847e-04, 0., 1.27713918e-03,
          2.55427836e-03, 1.27713918e-03, 7.66283541e-04, 0.,
          5.10855694e-04, 2.55427847e-04, 2.29885057e-03, 2.04342278e-03,
          1.02171139e-03, 0., 0., 1.53256708e-03, 7.66283541e-04, 0.,
          2.29885057e-03, 0., 5.10855694e-04, 2.55427847e-04, 0.,
          5.10855694e-04, 2.04342278e-03, 0., 5.36398496e-03,
          2.55427847e-04, 4.59770113e-03, 5.10855694e-04, 2.55427847e-04,
          1.53256708e-03, 7.66283541e-04, 2.55427847e-04, 0.,
          2.55427847e-04, 0., 4.85312892e-03, 2.55427847e-04,
          1.02171139e-03, 1.02171139e-03, 5.10855694e-04, 5.10855694e-04,
          2.80970638e-03, 2.55427847e-04, 5.10855694e-04, 5.61941275e-03,
          5.10855694e-04, 5.10855694e-04, 2.55427847e-04, 0., 0.,
          4.34227334e-03, 0., 0., 4.08684555e-03, 1.27713918e-03,
          1.27713918e-03, 0., 2.55427847e-04, 2.55427847e-04,
          1.27713918e-03, 1.27713918e-03, 2.55427847e-04, 0., 0.,
          2.04342278e-03, 0., 2.04342278e-03, 2.29885057e-03, 0.,
          1.02171139e-03, 2.55427847e-04, 1.78799499e-03, 0.,
          2.55427847e-04, 1.02171139e-03, 2.55427847e-04, 1.27713918e-03,
          2.55427847e-04, 3.32056195e-03, 2.29885057e-03, 2.55427847e-04,
          2.55427836e-03, 5.10855694e-04, 7.66283541e-04, 2.04342278e-03,
          7.66283541e-04, 2.55427847e-04, 7.66283541e-04, 2.55427847e-04,
          0., 0., 2.55427847e-04, 0., 5.10855694e-04, 2.29885057e-03,
          2.55427847e-04, 1.78799499e-03, 2.55427847e-04, 5.10855694e-04,
          2.55427847e-04, 5.10855694e-04, 1.02171139e-03, 1.02171139e-03,
          5.10855694e-04, 5.10855694e-04, 1.02171139e-03, 5.10855694e-04,
          5.36398496e-03, 2.55427847e-04, 0., 1.02171139e-03,
          2.55427847e-04, 0., 0., 2.55427836e-03, 1.78799499e-03,
          2.55427847e-04, 0., 2.55427847e-04, 2.55427847e-04,
          2.55427847e-04, 1.02171139e-03, 2.04342278e-03, 5.10855694e-04,
          1.02171139e-03, 1.27713918e-03, 1.27713918e-03, 2.55427847e-04,
          5.10855694e-04, 1.02171139e-03, 0., 2.55427847e-04,
          7.66283541e-04, 1.27713918e-03, 7.66283541e-04, 0.,
          2.55427847e-04, 1.02171139e-03, 2.55427847e-04, 2.55427847e-04,
          1.02171139e-03, 2.55427847e-04, 7.66283541e-04, 1.02171139e-03,
          7.66283541e-04, 5.10855694e-04, 0., 2.55427847e-04,
          7.66283541e-04, 2.55427847e-04, 5.10855694e-04, 0.,
          1.02171139e-03, 0., 5.10855694e-04, 2.55427847e-04, 0.,
          1.27713918e-03, 1.78799499e-03, 2.55427847e-04, 5.10855694e-04,
          2.55427847e-04, 5.10855694e-04, 0., 1.78799499e-03,
          1.27713918e-03, 7.66283541e-04, 1.27713918e-03, 2.04342278e-03,
          1.02171139e-03, 5.10855694e-04, 1.78799499e-03, 2.55427847e-04,
          5.10855694e-04, 7.66283541e-04, 1.02171139e-03, 1.27713918e-03,
          7.66283541e-04, 0., 2.55427847e-04, 7.66283541e-04,
          5.10855694e-04, 3.57598998e-03, 7.66283541e-04, 6.64112391e-03,
          1.02171139e-03, 2.55427847e-04, 1.02171139e-03, 2.55427847e-04,
          5.10855694e-04, 0., 7.66283541e-04, 2.55427847e-04,
          1.02171139e-03, 5.10855694e-04, 0., 7.66283541e-04, 0., 0.,
          2.55427847e-04, 2.04342278e-03, 2.55427847e-04, 5.10855694e-04,
          1.02171139e-03, 5.10855694e-04, 5.10855694e-04, 1.78799499e-03,
          1.53256708e-03, 1.78799499e-03, 1.53256708e-03, 5.10855694e-04,
          2.55427847e-04, 2.55427847e-04, 7.66283541e-04, 7.66283541e-04,
          2.55427847e-04, 1.27713918e-03, 1.02171139e-03, 1.02171139e-03,
          2.55427836e-03, 7.66283541e-04, 7.66283541e-04, 0.,
          1.02171139e-03, 1.27713918e-03, 2.55427847e-04, 1.78799499e-03,
          0., 0., 0., 2.55427847e-04, 5.10855694e-04, 2.55427836e-03,
          2.55427847e-04, 7.66283541e-04, 5.10855694e-04, 1.02171139e-03,
          1.53256708e-03, 7.66283541e-04, 2.55427847e-04, 5.10855694e-04,
          2.55427847e-04, 1.02171139e-03, 0., 7.66283541e-04,
          1.78799499e-03, 1.02171139e-03, 1.53256708e-03, 2.29885057e-03,
          5.10855694e-04, 5.10855694e-04, 2.55427847e-04, 1.78799499e-03,
          5.10855694e-04, 1.02171139e-03, 5.10855694e-04, 7.66283541e-04,
          2.55427847e-04, 0., 1.27713918e-03, 0., 2.55427847e-04,
          2.55427847e-04, 2.55427847e-04, 5.10855694e-04, 5.10855694e-04,
          1.53256708e-03, 2.55427847e-04, 2.55427847e-04, 0.,
          7.66283541e-04, 7.66283541e-04, 5.10855694e-04, 2.29885057e-03,
          0., 2.55427847e-04, 0., 5.10855694e-04, 7.66283541e-04,
          1.02171139e-03, 1.02171139e-03, 1.27713918e-03, 7.66283541e-04,
          1.27713918e-03, 1.02171139e-03, 0., 1.78799499e-03,
          1.02171139e-03, 2.55427847e-04, 7.66283541e-04, 5.10855694e-04,
          2.80970638e-03, 2.55427847e-04, 7.66283541e-04, 1.78799499e-03,
          5.10855694e-04, 0., 1.27713918e-03, 0., 5.10855694e-04,
          7.66283541e-04, 2.55427847e-04, 1.53256708e-03, 2.55427847e-04,
          0., 7.66283541e-04, 1.53256708e-03, 1.02171139e-03,
          5.10855694e-04, 1.02171139e-03, 0., 2.55427847e-04,
          1.02171139e-03, 0., 5.10855694e-04, 0., 2.80970638e-03,
          4.85312892e-03, 4.08684555e-03, 2.55427847e-04, 7.66283541e-04,
          5.10855694e-04, 7.66283541e-04, 0., 2.55427847e-04, 0.,
          1.27713918e-03, 5.10855694e-04, 7.66283541e-04, 1.02171139e-03,
          1.78799499e-03, 1.78799499e-03, 5.10855694e-04, 2.55427847e-04,
          5.10855694e-04, 2.55427847e-04, 7.66283541e-04, 1.27713918e-03,
          7.66283541e-04, 5.10855694e-04, 5.10855694e-04, 7.66283541e-04,
          5.10855694e-04, 5.10855694e-04, 5.10855694e-04, 7.66283541e-04,
          1.53256708e-03, 0., 2.55427847e-04, 2.55427847e-04,
          1.53256708e-03, 1.53256708e-03, 2.55427847e-04, 1.78799499e-03,
          1.02171139e-03, 1.27713918e-03, 1.27713918e-03, 0.,
          5.10855694e-04, 1.78799499e-03, 0., 1.02171139e-03,
          1.02171139e-03, 2.55427836e-03, 2.29885057e-03, 1.53256708e-03,
          0., 7.66283541e-04, 0., 5.10855694e-04, 1.02171139e-03,
          2.55427847e-04, 5.10855694e-04, 1.27713918e-03, 5.10855694e-04,
          2.55427847e-04, 1.02171139e-03, 1.53256708e-03, 0.,
          2.55427847e-04, 1.02171139e-03, 7.66283541e-04, 2.55427836e-03,
          1.78799499e-03, 1.02171139e-03, 7.66283541e-04, 2.04342278e-03,
          2.55427847e-04, 2.55427847e-04, 2.55427847e-04, 1.53256708e-03,
          1.53256708e-03, 5.10855694e-04, 1.02171139e-03, 4.08684555e-03,
          5.10855694e-04, 0., 1.02171139e-03, 2.55427836e-03,
          7.66283541e-04, 2.55427847e-04, 2.55427847e-04, 5.10855694e-04,
          7.66283541e-04, 5.10855694e-04, 1.27713918e-03, 5.10855694e-04,
          2.55427847e-04, 1.53256708e-03, 0., 1.78799499e-03,
          1.53256708e-03, 7.66283541e-04, 0., 1.02171139e-03,
          7.66283541e-04, 1.27713918e-03, 2.55427847e-04, 2.55427847e-04,
          2.55427847e-04, 0., 0., 0., 4.08684555e-03, 1.27713918e-03,
          7.66283541e-04, 1.27713918e-03, 0., 7.66283541e-04, 0.,
          5.10855694e-04, 5.10855694e-04, 7.66283541e-04, 0.,
          1.53256708e-03, 7.66283541e-04, 1.02171139e-03, 0.,
          1.53256708e-03, 1.27713918e-03, 5.10855694e-04, 5.10855694e-04,
          7.66283541e-04, 2.55427847e-04, 5.10855694e-04, 1.02171139e-03,
          2.55427847e-04, 1.02171139e-03, 1.02171139e-03, 2.55427847e-04,
          2.55427847e-04, 5.10855694e-04, 0., 5.10855694e-04, 0.,
          3.06513417e-03, 1.27713918e-03, 0., 7.66283541e-04,
          1.02171139e-03, 7.66283541e-04, 2.55427847e-04, 7.66283541e-04,
          2.55427847e-04, 0., 2.55427836e-03, 1.53256708e-03,
          5.10855694e-04, 2.55427836e-03, 1.53256708e-03, 2.55427847e-04,
          0., 2.55427847e-04, 5.10855694e-04, 1.27713918e-03,
          1.02171139e-03, 2.80970638e-03, 1.27713918e-03, 1.02171139e-03,
          7.66283541e-04, 2.29885057e-03, 2.55427847e-04, 7.66283541e-04,
          1.27713918e-03, 1.53256708e-03, 0., 0., 0., 2.29885057e-03, 0.,
          0., 2.04342278e-03, 1.78799499e-03, 0., 2.55427847e-04,
          1.02171139e-03, 2.55427847e-04, 5.10855694e-04, 0.,
          7.66283541e-04, 4.59770113e-03, 1.02171139e-03, 5.10855694e-04,
          2.55427847e-04, 7.66283541e-04, 0., 0., 5.10855694e-04, 0., 0.,
          1.78799499e-03, 5.10855694e-04, 1.27713918e-03, 7.66283541e-04,
          0., 5.10855671e-03, 2.55427847e-04, 2.55427847e-04,
          1.02171139e-03, 5.10855671e-03, 2.55427847e-04, 1.02171139e-03,
          1.53256708e-03, 7.66283541e-04, 7.66283541e-04, 0.,
          2.55427847e-04, 5.10855694e-04, 2.55427847e-04, 1.53256708e-03,
          7.66283541e-04, 5.10855694e-04, 7.66283541e-04, 2.55427847e-04,
          5.10855694e-04, 1.27713918e-03, 1.78799499e-03, 5.10855694e-04,
          2.55427847e-04, 7.66283541e-04, 1.27713918e-03, 7.66283541e-04,
          2.55427847e-04, 1.78799499e-03, 2.55427847e-04, 1.27713918e-03,
          5.10855694e-04, 7.66283541e-04, 5.10855694e-04, 0.,
          7.66283541e-04, 7.66283541e-04, 1.27713918e-03, 7.66283541e-04,
          1.02171139e-03, 1.53256708e-03, 2.55427847e-04, 0.,
          1.02171139e-03, 1.02171139e-03, 3.32056195e-03, 5.10855694e-04,
          5.10855694e-04, 2.55427847e-04, 2.55427847e-04, 5.10855694e-04,
          2.55427847e-04, 5.10855694e-04, 0., 2.55427847e-04,
          2.55427847e-04, 2.55427847e-04, 0., 1.53256708e-03,
          2.55427847e-04, 1.78799499e-03, 7.66283541e-04, 1.02171139e-03,
          1.02171139e-03, 2.55427847e-04, 1.53256708e-03, 1.53256708e-03,
          5.10855694e-04, 5.10855694e-04, 4.85312892e-03, 1.27713918e-03,
          1.27713918e-03, 2.04342278e-03, 0., 0., 2.04342278e-03, 0.,
          2.29885057e-03, 5.10855694e-04, 7.66283541e-04, 5.10855694e-04,
          2.55427847e-04, 0., 1.27713918e-03, 5.10855694e-04, 0.,
          2.55427847e-04, 0., 0., 0., 2.55427847e-04, 1.53256708e-03,
          5.10855694e-04, 7.66283541e-04, 1.02171139e-03, 2.55427847e-04,
          5.10855694e-04, 0., 1.78799499e-03, 1.02171139e-03,
          4.08684555e-03, 2.55427847e-04, 5.10855694e-04, 5.10855694e-04,
          1.02171139e-03, 1.78799499e-03, 7.66283541e-04, 2.80970638e-03,
          2.04342278e-03, 5.10855694e-04, 0., 1.02171139e-03,
          1.02171139e-03, 7.66283541e-04, 4.59770113e-03, 0.,
          2.55427847e-04, 2.55427847e-04, 5.10855694e-04, 1.78799499e-03,
          2.55427847e-04, 2.55427847e-04, 2.55427836e-03, 0.,
          1.53256708e-03, 2.55427847e-04, 1.78799499e-03, 2.55427847e-04,
          5.10855694e-04, 0., 1.27713918e-03, 1.02171139e-03,
          2.55427847e-04, 0., 1.27713918e-03, 5.10855694e-04,
          1.02171139e-03, 5.10855694e-04, 2.55427847e-04, 1.02171139e-03,
          5.10855694e-04, 2.04342278e-03, 1.53256708e-03, 2.55427847e-04,
          1.02171139e-03, 0., 0., 1.53256708e-03, 1.02171139e-03,
          2.04342278e-03, 0., 5.10855694e-04, 0., 0., 2.55427847e-04,
          7.66283541e-04, 1.53256708e-03, 2.55427847e-04, 2.80970638e-03,
          2.55427847e-04, 0., 2.55427847e-04, 0., 1.78799499e-03,
          5.10855694e-04, 5.10855694e-04, 0., 2.55427847e-04, 0.,
          1.53256708e-03, 1.53256708e-03, 2.55427847e-04, 7.66283541e-04,
          0., 1.53256708e-03, 2.80970638e-03, 2.55427847e-04,
          2.04342278e-03, 5.10855694e-04, 2.55427847e-04, 0.,
          5.10855694e-04, 7.66283541e-04, 2.55427847e-04, 2.55427847e-04,
          2.55427847e-04, 0., 5.10855694e-04, 0., 7.66283541e-04,
          2.29885057e-03, 2.55427847e-04, 3.06513417e-03, 1.02171139e-03,
          5.10855694e-04, 1.27713918e-03, 7.66283541e-04, 7.66283541e-04,
          1.02171139e-03, 7.66283541e-04, 1.02171139e-03, 5.10855694e-04,
          2.55427847e-04, 2.55427847e-04, 2.55427847e-04, 1.78799499e-03,
          5.10855694e-04, 0., 0., 1.27713918e-03, 0., 2.55427847e-04,
          7.66283541e-04, 2.55427847e-04, 1.78799499e-03, 5.10855694e-04,
          0., 7.66283541e-04, 0., 2.55427847e-04, 2.55427847e-04,
          1.53256708e-03, 7.66283541e-04, 5.10855694e-04, 2.55427847e-04,
          1.02171139e-03, 0., 5.10855694e-04, 5.10855694e-04,
          2.55427847e-04, 1.27713918e-03, 1.02171139e-03, 7.66283541e-04,
          0., 7.66283541e-04, 2.55427847e-04, 0., 7.66283541e-04,
          1.27713918e-03, 5.10855694e-04, 1.02171139e-03, 0.,
          2.55427847e-04, 2.55427847e-04, 2.55427847e-04, 0.,
          5.10855694e-04, 7.66283541e-04, 2.55427847e-04, 2.55427847e-04,
          0., 0., 5.10855694e-04, 2.55427847e-04, 1.27713918e-03, 0.,
          7.66283541e-04, 1.53256708e-03, 5.10855694e-04, 7.66283541e-04,
          5.10855694e-04, 5.10855694e-04, 0., 1.53256708e-03,
          1.53256708e-03, 5.10855694e-04, 0., 0., 7.66283541e-04,
          1.02171139e-03, 1.27713918e-03, 1.53256708e-03, 2.55427847e-04,
          5.10855694e-04, 2.55427847e-04, 5.10855694e-04, 0., 0.,
          7.66283541e-04, 5.10855694e-04, 7.66283541e-04, 5.10855694e-04,
          7.66283541e-04, 5.10855694e-04, 0., 1.27713918e-03,
          2.80970638e-03, 0., 2.80970638e-03, 2.55427847e-04,
          2.04342278e-03, 7.66283541e-04, 2.55427847e-04, 2.55427836e-03,
          2.55427847e-04, 1.27713918e-03, 0., 0., 2.55427847e-04,
          2.55427847e-04, 0., 7.66283541e-04, 1.02171139e-03,
          2.55427847e-04, 0., 0., 1.02171139e-03, 0., 2.04342278e-03,
          2.55427847e-04, 5.10855694e-04, 2.80970638e-03, 5.10855694e-04,
          0., 1.53256708e-03, 1.02171139e-03, 1.02171139e-03,
          1.53256708e-03, 3.06513417e-03, 5.10855694e-04, 1.02171139e-03,
          1.78799499e-03, 2.04342278e-03, 0., 0., 0., 2.55427847e-04,
          5.10855694e-04, 2.55427847e-04, 2.55427847e-04, 5.10855694e-04,
          7.66283541e-04, 0., 1.27713918e-03, 0., 5.10855694e-04,
          1.78799499e-03, 5.10855694e-04, 2.04342278e-03, 7.66283541e-04,
          2.55427847e-04, 1.78799499e-03, 7.66283541e-04, 5.10855694e-04,
          7.66283541e-04, 1.02171139e-03, 0., 0., 2.04342278e-03,
          5.10855694e-04, 7.66283541e-04, 0., 5.10855694e-04,
          5.10855694e-04, 7.66283541e-04, 7.66283541e-04, 0., 0.,
          3.06513417e-03, 5.10855694e-04, 0., 2.55427847e-04,
          1.02171139e-03, 5.10855694e-04, 1.02171139e-03, 1.02171139e-03,
          1.53256708e-03, 1.27713918e-03, 7.66283541e-04, 1.27713918e-03,
          2.55427847e-04, 1.02171139e-03, 0., 7.66283541e-04,
          7.66283541e-04, 0., 7.66283541e-04, 5.10855694e-04,
          1.02171139e-03, 2.55427847e-04, 1.02171139e-03, 5.10855694e-04,
          2.55427836e-03, 7.66283541e-04, 7.66283541e-04, 2.55427847e-04,
          0., 1.27713918e-03, 2.55427847e-04, 1.53256708e-03,
          2.55427847e-04, 7.66283541e-04, 0., 1.53256708e-03,
          5.10855694e-04, 2.29885057e-03, 1.02171139e-03, 2.55427847e-04,
          2.29885057e-03, 5.10855694e-04, 5.10855694e-04, 2.55427847e-04,
          1.53256708e-03, 5.10855694e-04, 0., 2.55427847e-04,
          7.66283541e-04, 0., 2.55427836e-03, 5.10855694e-04,
          2.55427847e-04, 2.55427847e-04, 5.10855694e-04, 1.27713918e-03,
          7.66283541e-04, 2.55427847e-04, 7.66283541e-04, 7.66283541e-04,
          0., 7.66283541e-04, 2.55427847e-04, 2.55427847e-04,
          7.66283541e-04, 1.27713918e-03, 2.55427847e-04, 0.,
          1.27713918e-03, 1.02171139e-03, 2.55427836e-03, 1.53256708e-03,
          1.02171139e-03, 1.02171139e-03, 1.02171139e-03, 1.02171139e-03,
          5.10855694e-04, 2.29885057e-03, 0., 2.55427847e-04,
          7.66283541e-04, 5.10855694e-04, 7.66283541e-04, 5.10855694e-04,
          2.55427847e-04, 5.36398496e-03, 2.04342278e-03, 1.53256708e-03,
          5.10855694e-04, 7.66283541e-04, 0., 7.66283541e-04,
          7.66283541e-04, 5.10855694e-04, 2.55427847e-04, 2.04342278e-03,
          3.06513417e-03, 1.02171139e-03, 0., 2.55427847e-04, 0.,
          7.66283541e-04, 0., 0., 1.78799499e-03, 1.02171139e-03,
          7.66283541e-04, 5.10855694e-04, 1.78799499e-03, 2.55427847e-04,
          2.55427847e-04, 7.66283541e-04, 1.27713918e-03, 7.66283541e-04,
          5.10855694e-04, 2.04342278e-03, 0., 2.55427847e-04,
          2.55427847e-04, 1.27713918e-03, 1.02171139e-03, 1.02171139e-03,
          5.10855694e-04, 7.66283541e-04, 1.27713918e-03, 2.55427847e-04,
          0., 1.27713918e-03, 1.27713918e-03, 2.55427847e-04,
          2.55427847e-04, 0., 5.10855694e-04, 1.02171139e-03,
          5.10855694e-04, 5.10855694e-04, 5.10855694e-04, 0., 0.,
          1.53256708e-03, 1.27713918e-03, 1.53256708e-03, 1.53256708e-03,
          7.66283541e-04, 0., 1.53256708e-03, 5.10855694e-04,
          7.66283541e-04, 7.66283541e-04, 2.55427847e-04, 1.27713918e-03,
          2.29885057e-03, 7.66283541e-04, 4.59770113e-03, 5.10855694e-04,
          5.10855694e-04, 1.27713918e-03, 7.66283541e-04, 5.10855694e-04,
          1.53256708e-03, 2.29885057e-03, 1.53256708e-03, 1.02171139e-03,
          2.04342278e-03, 2.55427847e-04, 0., 0., 7.66283541e-04,
          1.53256708e-03, 1.27713918e-03, 2.80970638e-03, 2.55427847e-04,
          0., 1.78799499e-03, 2.55427847e-04, 7.66283541e-04,
          1.02171139e-03, 6.13026833e-03, 7.66283541e-04, 0.,
          2.55427847e-04, 1.02171139e-03, 1.02171139e-03, 7.66283541e-04,
          1.02171139e-03, 1.02171139e-03, 7.66283541e-04, 5.10855694e-04,
          0., 5.10855694e-04, 1.53256708e-03, 5.10855694e-04, 0.,
          1.53256708e-03, 0., 0., 1.27713918e-03, 0., 0., 1.78799499e-03,
          2.55427847e-04, 7.66283541e-04, 7.66283541e-04, 2.55427847e-04,
          1.53256708e-03, 0., 1.27713918e-03, 7.66283541e-04,
          2.55427847e-04, 0., 5.10855694e-04, 1.27713918e-03,
          2.55427847e-04, 2.55427847e-04, 0., 1.53256708e-03,
          2.80970638e-03, 0., 7.66283541e-04, 2.55427847e-04,
          1.02171139e-03, 1.78799499e-03, 2.29885057e-03, 0.,
          5.10855694e-04, 7.66283541e-04, 1.78799499e-03, 0.,
          5.10855694e-04, 1.78799499e-03, 1.02171139e-03, 5.10855694e-04,
          2.55427847e-04, 1.27713918e-03, 0., 0., 1.78799499e-03,
          1.02171139e-03, 2.55427847e-04, 2.55427847e-04, 1.53256708e-03,
          7.66283541e-04, 2.29885057e-03, 5.10855694e-04, 2.55427847e-04,
          7.66283541e-04, 2.55427847e-04, 5.10855694e-04, 5.10855694e-04,
          7.66283541e-04, 0., 0., 0., 2.55427847e-04, 7.66283541e-04, 0.,
          1.27713918e-03, 7.66283541e-04 ]
      - [ 6.28930843e-03, 2.99490872e-04, 5.98981744e-04, 1.19796349e-03,
          2.39592697e-03, 0., 2.99490872e-04, 2.09643599e-03, 0.,
          2.99490872e-03, 2.99490872e-04, 5.98981744e-04, 2.99490872e-04,
          1.19796349e-03, 1.79694523e-03, 0., 1.19796349e-03,
          2.99490872e-04, 0., 5.98981744e-04, 2.39592697e-03,
          8.98472616e-04, 1.19796349e-03, 2.69541796e-03, 2.99490872e-04,
          5.98981744e-04, 5.98981744e-04, 8.98472616e-04, 8.98472616e-04,
          2.39592697e-03, 0., 8.98472616e-04, 2.39592697e-03,
          5.98981744e-04, 0., 8.98472616e-04, 8.98472616e-04,
          8.98472616e-04, 5.98981744e-04, 5.98981744e-04, 1.19796349e-03,
          1.19796349e-03, 0., 0., 2.99490872e-04, 5.98981744e-04,
          2.99490872e-04, 1.49745436e-03, 0., 0., 5.98981744e-04,
          1.79694523e-03, 5.98981744e-04, 1.49745436e-03, 0.,
          1.49745436e-03, 5.98981744e-04, 8.98472616e-04, 2.99490872e-04,
          2.99490872e-04, 0., 0., 5.09134494e-03, 2.09643599e-03,
          1.79694523e-03, 5.98981744e-04, 2.09643599e-03, 5.98981744e-04,
          2.99490872e-04, 0., 1.19796349e-03, 1.79694523e-03,
          1.19796349e-03, 2.99490872e-04, 0., 0., 0., 1.79694523e-03,
          1.19796349e-03, 2.99490872e-04, 5.98981744e-04, 0.,
          2.99490872e-04, 1.49745436e-03, 0., 4.19287197e-03, 0.,
          8.98472616e-04, 0., 0., 8.98472616e-04, 1.79694523e-03, 0.,
          4.79185395e-03, 5.98981744e-04, 3.29439947e-03, 5.98981744e-04,
          5.98981744e-04, 8.98472616e-04, 5.98981744e-04, 2.99490872e-04,
          0., 0., 0., 4.19287197e-03, 2.99490872e-04, 0., 1.49745436e-03,
          8.98472616e-04, 2.99490872e-04, 4.49236296e-03, 0.,
          2.99490872e-04, 3.29439947e-03, 5.98981744e-04, 2.99490872e-04,
          0., 8.98472616e-04, 2.99490872e-04, 2.69541796e-03,
          2.99490872e-04, 0., 4.79185395e-03, 5.98981744e-04,
          5.98981744e-04, 0., 0., 0., 8.98472616e-04, 5.98981744e-04,
          5.98981744e-04, 0., 0., 2.69541796e-03, 0., 2.09643599e-03,
          2.39592697e-03, 0., 1.19796349e-03, 2.99490872e-04,
          5.98981744e-04, 0., 2.99490872e-04, 5.98981744e-04,
          5.98981744e-04, 2.09643599e-03, 0., 2.69541796e-03,
          2.09643599e-03, 8.98472616e-04, 8.98472616e-04, 0.,
          5.98981744e-04, 1.79694523e-03, 0., 2.99490872e-04,
          2.09643599e-03, 2.99490872e-04, 0., 0., 2.99490872e-04,
          5.98981744e-04, 5.98981744e-04, 8.98472616e-04, 2.99490872e-04,
          2.09643599e-03, 0., 1.19796349e-03, 8.98472616e-04,
          5.98981744e-04, 1.19796349e-03, 5.98981744e-04, 8.98472616e-04,
          2.99490872e-04, 8.98472616e-04, 2.99490872e-04, 4.79185395e-03,
          2.99490872e-04, 2.99490872e-04, 5.98981744e-04, 1.19796349e-03,
          2.99490872e-04, 0., 1.79694523e-03, 1.79694523e-03,
          5.98981744e-04, 2.99490872e-04, 2.99490872e-04, 2.99490872e-04,
          5.98981744e-04, 5.98981744e-04, 2.09643599e-03, 8.98472616e-04,
          5.98981744e-04, 1.19796349e-03, 5.98981744e-04, 0.,
          2.99490872e-04, 8.98472616e-04, 0., 2.99490872e-04,
          8.98472616e-04, 1.19796349e-03, 8.98472616e-04, 0.,
          2.99490872e-04, 2.09643599e-03, 2.99490872e-04, 0.,
          5.98981744e-04, 2.99490872e-04, 0., 5.98981744e-04,
          1.19796349e-03, 5.98981744e-04, 0., 5.98981744e-04,
          5.98981744e-04, 0., 8.98472616e-04, 0., 1.79694523e-03, 0.,
          2.99490872e-04, 5.98981744e-04, 2.99490872e-04, 5.98981744e-04,
          2.09643599e-03, 0., 1.19796349e-03, 0., 2.99490872e-04, 0.,
          2.39592697e-03, 1.19796349e-03, 5.98981744e-04, 1.49745436e-03,
          1.49745436e-03, 1.79694523e-03, 2.99490872e-04, 8.98472616e-04,
          5.98981744e-04, 0., 0., 1.19796349e-03, 5.98981744e-04,
          8.98472616e-04, 0., 1.19796349e-03, 2.09643599e-03,
          8.98472616e-04, 3.29439947e-03, 1.49745436e-03, 7.18778092e-03,
          0., 0., 8.98472616e-04, 0., 2.99490872e-04, 8.98472616e-04,
          5.98981744e-04, 2.99490872e-04, 1.19796349e-03, 2.99490872e-04,
          0., 0., 0., 0., 0., 2.09643599e-03, 2.99490872e-04,
          8.98472616e-04, 5.98981744e-04, 2.99490872e-04, 2.99490872e-04,
          8.98472616e-04, 1.19796349e-03, 1.19796349e-03, 8.98472616e-04,
          5.98981744e-04, 5.98981744e-04, 0., 2.99490872e-04,
          1.19796349e-03, 0., 1.49745436e-03, 1.49745436e-03,
          8.98472616e-04, 2.69541796e-03, 5.98981744e-04, 8.98472616e-04,
          2.99490872e-04, 0., 5.98981744e-04, 2.99490872e-04,
          1.19796349e-03, 0., 2.99490872e-04, 0., 2.99490872e-04,
          2.99490872e-04, 2.39592697e-03, 2.99490872e-04, 1.49745436e-03,
          5.98981744e-04, 5.98981744e-04, 8.98472616e-04, 2.99490872e-04,
          5.98981744e-04, 5.98981744e-04, 2.99490872e-04, 8.98472616e-04,
          2.99490872e-04, 5.98981744e-04, 2.09643599e-03, 2.09643599e-03,
          8.98472616e-04, 2.69541796e-03, 5.98981744e-04, 1.19796349e-03,
          0., 5.98981744e-04, 0., 2.09643599e-03, 1.19796349e-03,
          2.99490872e-04, 0., 0., 1.19796349e-03, 2.99490872e-04,
          2.99490872e-04, 5.98981744e-04, 0., 8.98472616e-04,
          5.98981744e-04, 2.39592697e-03, 5.98981744e-04, 0., 0.,
          8.98472616e-04, 5.98981744e-04, 8.98472616e-04, 1.79694523e-03,
          0., 2.99490872e-04, 2.99490872e-04, 2.99490872e-04,
          1.19796349e-03, 2.99490872e-04, 8.98472616e-04, 1.79694523e-03,
          1.49745436e-03, 1.19796349e-03, 2.99490872e-04, 0.,
          1.19796349e-03, 5.98981744e-04, 0., 5.98981744e-04,
          2.99490872e-04, 2.99490872e-03, 5.98981744e-04, 0.,
          2.69541796e-03, 2.99490872e-04, 0., 1.49745436e-03, 0.,
          8.98472616e-04, 5.98981744e-04, 2.99490872e-04, 1.19796349e-03,
          5.98981744e-04, 0., 2.99490872e-04, 1.19796349e-03,
          1.79694523e-03, 2.99490872e-04, 8.98472616e-04, 2.99490872e-04,
          2.99490872e-04, 8.98472616e-04, 5.98981744e-04, 5.98981744e-04,
          2.99490872e-04, 2.99490872e-03, 6.28930843e-03, 4.19287197e-03,
          1.19796349e-03, 8.98472616e-04, 8.98472616e-04, 5.98981744e-04,
          0., 5.98981744e-04, 0., 2.99490872e-04, 5.98981744e-04, 0.,
          1.19796349e-03, 2.09643599e-03, 2.09643599e-03, 2.99490872e-04,
          8.98472616e-04, 8.98472616e-04, 2.99490872e-04, 1.19796349e-03,
          1.79694523e-03, 2.99490872e-04, 1.19796349e-03, 2.99490872e-04,
          2.99490872e-04, 1.19796349e-03, 2.99490872e-04, 0., 0.,
          1.49745436e-03, 0., 2.99490872e-04, 0., 1.19796349e-03,
          2.99490872e-04, 2.99490872e-04, 2.09643599e-03, 1.19796349e-03,
          8.98472616e-04, 1.19796349e-03, 2.99490872e-04, 2.99490872e-04,
          2.39592697e-03, 0., 5.98981744e-04, 1.19796349e-03,
          1.19796349e-03, 2.39592697e-03, 2.99490872e-04, 0.,
          1.19796349e-03, 0., 0., 5.98981744e-04, 2.99490872e-04, 0.,
          1.19796349e-03, 8.98472616e-04, 2.99490872e-04, 5.98981744e-04,
          1.79694523e-03, 0., 0., 8.98472616e-04, 1.19796349e-03,
          3.59389046e-03, 1.79694523e-03, 8.98472616e-04, 1.19796349e-03,
          1.49745436e-03, 2.99490872e-04, 5.98981744e-04, 0.,
          8.98472616e-04, 1.49745436e-03, 8.98472616e-04, 1.49745436e-03,
          3.59389046e-03, 5.98981744e-04, 0., 1.19796349e-03,
          3.89338145e-03, 8.98472616e-04, 5.98981744e-04, 5.98981744e-04,
          2.99490872e-04, 5.98981744e-04, 0., 8.98472616e-04,
          5.98981744e-04, 2.99490872e-04, 8.98472616e-04, 0.,
          8.98472616e-04, 8.98472616e-04, 8.98472616e-04, 0.,
          1.79694523e-03, 5.98981744e-04, 5.98981744e-04, 1.19796349e-03,
          2.99490872e-04, 2.99490872e-04, 5.98981744e-04, 0.,
          2.99490872e-04, 5.09134494e-03, 5.98981744e-04, 1.19796349e-03,
          2.99490872e-04, 5.98981744e-04, 8.98472616e-04, 0.,
          1.49745436e-03, 0., 8.98472616e-04, 0., 1.79694523e-03,
          5.98981744e-04, 1.19796349e-03, 2.99490872e-04, 1.49745436e-03,
          1.19796349e-03, 5.98981744e-04, 2.99490872e-04, 8.98472616e-04,
          2.99490872e-04, 5.98981744e-04, 1.19796349e-03, 8.98472616e-04,
          8.98472616e-04, 2.99490872e-04, 0., 5.98981744e-04,
          2.99490872e-04, 0., 5.98981744e-04, 2.99490872e-04,
          2.99490872e-03, 1.19796349e-03, 5.98981744e-04, 8.98472616e-04,
          8.98472616e-04, 2.99490872e-04, 5.98981744e-04, 0.,
          2.99490872e-04, 0., 2.39592697e-03, 2.99490872e-04,
          8.98472616e-04, 1.49745436e-03, 1.19796349e-03, 0., 0., 0.,
          2.99490872e-04, 8.98472616e-04, 2.99490872e-04, 1.79694523e-03,
          1.19796349e-03, 2.99490872e-04, 8.98472616e-04, 1.49745436e-03,
          8.98472616e-04, 8.98472616e-04, 1.49745436e-03, 1.19796349e-03,
          2.99490872e-04, 0., 0., 1.19796349e-03, 0., 0., 2.09643599e-03,
          2.39592697e-03, 0., 0., 2.99490872e-04, 0., 2.99490872e-04, 0.,
          8.98472616e-04, 6.88828994e-03, 2.99490872e-04, 2.99490872e-04,
          0., 8.98472616e-04, 2.99490872e-04, 0., 2.99490872e-04, 0., 0.,
          1.79694523e-03, 2.99490872e-04, 2.09643599e-03, 5.98981744e-04,
          2.99490872e-04, 5.39083593e-03, 2.99490872e-04, 2.99490872e-04,
          1.79694523e-03, 5.09134494e-03, 2.99490872e-04, 1.19796349e-03,
          2.69541796e-03, 2.99490872e-04, 8.98472616e-04, 0., 0., 0.,
          5.98981744e-04, 2.99490872e-03, 5.98981744e-04, 2.99490872e-04,
          8.98472616e-04, 5.98981744e-04, 0., 2.99490872e-04,
          3.29439947e-03, 5.98981744e-04, 5.98981744e-04, 8.98472616e-04,
          1.19796349e-03, 8.98472616e-04, 2.99490872e-04, 1.19796349e-03,
          2.99490872e-04, 1.19796349e-03, 2.99490872e-04, 2.99490872e-04,
          2.99490872e-04, 0., 2.99490872e-04, 8.98472616e-04,
          1.19796349e-03, 5.98981744e-04, 1.79694523e-03, 1.19796349e-03,
          2.99490872e-04, 0., 1.79694523e-03, 1.79694523e-03,
          2.09643599e-03, 8.98472616e-04, 8.98472616e-04, 2.99490872e-04,
          2.99490872e-04, 5.98981744e-04, 0., 0., 0., 2.99490872e-04,
          8.98472616e-04, 8.98472616e-04, 2.99490872e-04, 1.19796349e-03,
          8.98472616e-04, 8.98472616e-04, 2.99490872e-04, 1.49745436e-03,
          2.99490872e-04, 0., 2.39592697e-03, 1.79694523e-03,
          8.98472616e-04, 2.99490872e-04, 4.79185395e-03, 2.09643599e-03,
          1.79694523e-03, 1.49745436e-03, 0., 0., 3.89338145e-03, 0.,
          1.79694523e-03, 1.19796349e-03, 1.49745436e-03, 8.98472616e-04,
          8.98472616e-04, 5.98981744e-04, 1.19796349e-03, 0., 0.,
          2.99490872e-04, 0., 0., 0., 0., 1.19796349e-03, 5.98981744e-04,
          8.98472616e-04, 2.99490872e-04, 1.19796349e-03, 5.98981744e-04,
          0., 1.49745436e-03, 5.98981744e-04, 4.49236296e-03,
          2.99490872e-04, 2.99490872e-04, 2.99490872e-04, 1.79694523e-03,
          2.39592697e-03, 2.99490872e-04, 1.79694523e-03, 8.98472616e-04,
          1.49745436e-03, 2.99490872e-04, 2.99490872e-04, 5.98981744e-04,
          5.98981744e-04, 4.49236296e-03, 0., 2.99490872e-04,
          5.98981744e-04, 2.99490872e-04, 2.09643599e-03, 2.99490872e-04,
          0., 2.39592697e-03, 5.98981744e-04, 2.39592697e-03,
          5.98981744e-04, 2.09643599e-03, 0., 5.98981744e-04, 0.,
          1.19796349e-03, 2.99490872e-04, 8.98472616e-04, 0.,
          2.99490872e-04, 5.98981744e-04, 1.19796349e-03, 0., 0.,
          2.39592697e-03, 2.99490872e-04, 2.39592697e-03, 8.98472616e-04,
          2.99490872e-04, 1.19796349e-03, 0., 0., 1.49745436e-03,
          8.98472616e-04, 1.19796349e-03, 0., 0., 5.98981744e-04, 0.,
          2.99490872e-04, 8.98472616e-04, 8.98472616e-04, 2.99490872e-04,
          1.49745436e-03, 0., 0., 1.19796349e-03, 2.99490872e-04,
          2.09643599e-03, 5.98981744e-04, 2.99490872e-04, 0.,
          2.99490872e-04, 2.99490872e-04, 1.79694523e-03, 1.79694523e-03,
          5.98981744e-04, 2.99490872e-04, 0., 2.69541796e-03,
          4.49236296e-03, 2.99490872e-04, 1.19796349e-03, 2.99490872e-04,
          8.98472616e-04, 0., 1.19796349e-03, 8.98472616e-04,
          2.99490872e-04, 2.99490872e-04, 5.98981744e-04, 0.,
          5.98981744e-04, 0., 2.99490872e-04, 1.19796349e-03, 0.,
          2.69541796e-03, 2.99490872e-04, 5.98981744e-04, 5.98981744e-04,
          1.79694523e-03, 0., 1.19796349e-03, 5.98981744e-04,
          1.79694523e-03, 5.98981744e-04, 5.98981744e-04, 2.99490872e-04,
          2.99490872e-04, 8.98472616e-04, 2.99490872e-04, 0., 0.,
          2.09643599e-03, 2.99490872e-04, 0., 8.98472616e-04,
          5.98981744e-04, 1.79694523e-03, 2.99490872e-04, 0.,
          8.98472616e-04, 0., 0., 8.98472616e-04, 2.09643599e-03,
          8.98472616e-04, 2.99490872e-04, 1.19796349e-03, 8.98472616e-04,
          0., 0., 2.99490872e-04, 5.98981744e-04, 2.99490872e-04,
          1.49745436e-03, 1.19796349e-03, 0., 8.98472616e-04,
          5.98981744e-04, 0., 8.98472616e-04, 8.98472616e-04,
          5.98981744e-04, 1.19796349e-03, 0., 2.99490872e-04,
          2.99490872e-04, 0., 5.98981744e-04, 5.98981744e-04,
          8.98472616e-04, 5.98981744e-04, 2.99490872e-04, 5.98981744e-04,
          0., 2.99490872e-04, 2.99490872e-04, 2.69541796e-03, 0.,
          5.98981744e-04, 2.09643599e-03, 8.98472616e-04, 2.99490872e-04,
          5.98981744e-04, 8.98472616e-04, 0., 5.98981744e-04,
          3.29439947e-03, 2.99490872e-04, 5.98981744e-04, 0.,
          5.98981744e-04, 8.98472616e-04, 2.99490872e-03, 5.98981744e-04,
          0., 2.99490872e-04, 0., 5.98981744e-04, 0., 2.99490872e-04,
          2.09643599e-03, 8.98472616e-04, 5.98981744e-04, 5.98981744e-04,
          8.98472616e-04, 5.98981744e-04, 2.99490872e-04, 1.49745436e-03,
          1.79694523e-03, 2.99490872e-04, 1.49745436e-03, 2.99490872e-04,
          8.98472616e-04, 1.19796349e-03, 2.99490872e-04, 2.69541796e-03,
          0., 1.19796349e-03, 0., 0., 0., 5.98981744e-04, 0., 0.,
          1.49745436e-03, 0., 0., 2.99490872e-04, 5.98981744e-04, 0.,
          1.49745436e-03, 2.99490872e-04, 5.98981744e-04, 3.29439947e-03,
          0., 0., 1.19796349e-03, 5.98981744e-04, 1.79694523e-03,
          2.09643599e-03, 4.49236296e-03, 2.99490872e-04, 2.99490872e-04,
          2.39592697e-03, 2.09643599e-03, 0., 0., 5.98981744e-04,
          1.19796349e-03, 5.98981744e-04, 2.99490872e-04, 2.99490872e-04,
          1.19796349e-03, 2.99490872e-04, 0., 1.49745436e-03,
          5.98981744e-04, 8.98472616e-04, 1.79694523e-03, 8.98472616e-04,
          8.98472616e-04, 2.39592697e-03, 2.99490872e-04, 1.79694523e-03,
          2.99490872e-04, 5.98981744e-04, 0., 5.98981744e-04, 0., 0.,
          2.69541796e-03, 5.98981744e-04, 5.98981744e-04, 0.,
          2.99490872e-04, 0., 5.98981744e-04, 1.19796349e-03,
          5.98981744e-04, 2.99490872e-04, 1.49745436e-03, 1.19796349e-03,
          2.99490872e-04, 0., 1.79694523e-03, 2.99490872e-04,
          1.49745436e-03, 1.19796349e-03, 2.09643599e-03, 1.19796349e-03,
          5.98981744e-04, 1.79694523e-03, 2.99490872e-04, 8.98472616e-04,
          0., 0., 8.98472616e-04, 0., 0., 5.98981744e-04, 1.49745436e-03,
          2.99490872e-04, 8.98472616e-04, 0., 1.79694523e-03,
          2.99490872e-04, 8.98472616e-04, 0., 0., 5.98981744e-04,
          2.99490872e-04, 5.98981744e-04, 0., 5.98981744e-04, 0.,
          1.49745436e-03, 0., 8.98472616e-04, 5.98981744e-04,
          5.98981744e-04, 2.99490872e-03, 5.98981744e-04, 1.19796349e-03,
          0., 1.19796349e-03, 2.99490872e-04, 5.98981744e-04,
          5.98981744e-04, 2.99490872e-04, 0., 3.59389046e-03,
          2.99490872e-04, 5.98981744e-04, 2.99490872e-04, 1.19796349e-03,
          2.09643599e-03, 1.19796349e-03, 1.19796349e-03, 5.98981744e-04,
          2.99490872e-04, 2.99490872e-04, 8.98472616e-04, 2.99490872e-04,
          2.99490872e-04, 1.19796349e-03, 5.98981744e-04, 0., 0.,
          8.98472616e-04, 2.99490872e-04, 4.19287197e-03, 1.49745436e-03,
          5.98981744e-04, 1.19796349e-03, 8.98472616e-04, 5.98981744e-04,
          5.98981744e-04, 1.79694523e-03, 8.98472616e-04, 2.99490872e-04,
          1.19796349e-03, 2.99490872e-04, 8.98472616e-04, 1.19796349e-03,
          2.99490872e-04, 4.79185395e-03, 1.49745436e-03, 8.98472616e-04,
          1.19796349e-03, 1.19796349e-03, 0., 5.98981744e-04,
          5.98981744e-04, 5.98981744e-04, 2.99490872e-04, 1.79694523e-03,
          2.09643599e-03, 2.99490872e-04, 0., 5.98981744e-04, 0.,
          5.98981744e-04, 0., 0., 1.79694523e-03, 5.98981744e-04,
          5.98981744e-04, 2.99490872e-04, 1.49745436e-03, 5.98981744e-04,
          0., 8.98472616e-04, 2.99490872e-03, 1.19796349e-03,
          8.98472616e-04, 2.09643599e-03, 2.99490872e-04, 0., 0.,
          1.19796349e-03, 0., 8.98472616e-04, 2.99490872e-04,
          8.98472616e-04, 1.19796349e-03, 2.99490872e-04, 2.99490872e-04,
          2.99490872e-03, 8.98472616e-04, 2.99490872e-04, 2.99490872e-04,
          0., 2.99490872e-04, 1.19796349e-03, 8.98472616e-04,
          1.19796349e-03, 8.98472616e-04, 0., 0., 0., 8.98472616e-04,
          1.19796349e-03, 8.98472616e-04, 1.49745436e-03, 0.,
          1.19796349e-03, 2.99490872e-04, 8.98472616e-04, 5.98981744e-04,
          0., 5.98981744e-04, 1.19796349e-03, 0., 5.09134494e-03,
          2.99490872e-04, 2.99490872e-04, 8.98472616e-04, 1.49745436e-03,
          5.98981744e-04, 5.98981744e-04, 2.09643599e-03, 2.09643599e-03,
          8.98472616e-04, 2.39592697e-03, 1.19796349e-03, 0., 0.,
          8.98472616e-04, 5.98981744e-04, 5.98981744e-04, 2.99490872e-03,
          1.19796349e-03, 2.99490872e-04, 8.98472616e-04, 5.98981744e-04,
          5.98981744e-04, 1.79694523e-03, 5.69032645e-03, 5.98981744e-04,
          0., 0., 0., 5.98981744e-04, 8.98472616e-04, 8.98472616e-04,
          1.79694523e-03, 1.19796349e-03, 5.98981744e-04, 0.,
          2.99490872e-04, 1.79694523e-03, 2.99490872e-04, 2.99490872e-04,
          1.49745436e-03, 0., 0., 8.98472616e-04, 0., 0., 1.79694523e-03,
          0., 1.79694523e-03, 5.98981744e-04, 5.98981744e-04,
          1.49745436e-03, 2.99490872e-04, 5.98981744e-04, 1.49745436e-03,
          2.99490872e-04, 0., 2.99490872e-04, 1.19796349e-03,
          2.99490872e-04, 2.99490872e-04, 0., 1.79694523e-03,
          2.09643599e-03, 0., 0., 2.99490872e-04, 2.99490872e-04,
          2.09643599e-03, 2.39592697e-03, 0., 8.98472616e-04,
          8.98472616e-04, 2.69541796e-03, 0., 2.99490872e-04,
          1.79694523e-03, 2.99490872e-04, 8.98472616e-04, 0.,
          8.98472616e-04, 0., 0., 1.79694523e-03, 2.69541796e-03, 0., 0.,
          1.19796349e-03, 8.98472616e-04, 1.49745436e-03, 2.99490872e-04,
          2.99490872e-04, 2.99490872e-04, 0., 1.19796349e-03, 0., 0., 0.,
          2.99490872e-04, 0., 2.99490872e-04, 8.98472616e-04, 0.,
          2.09643599e-03, 2.99490872e-04 ]
      - [ 6.70960778e-03, 5.36768639e-04, 5.36768639e-04, 1.07353728e-03,
          3.48899607e-03, 2.68384319e-04, 1.07353728e-03, 5.36768639e-04,
          2.68384319e-04, 1.61030586e-03, 5.36768639e-04, 8.05152929e-04,
          0., 0., 1.61030586e-03, 0., 8.05152929e-04, 0., 5.36768639e-04,
          8.05152929e-04, 3.48899607e-03, 1.87869021e-03, 1.34192163e-03,
          2.14707456e-03, 0., 0., 2.68384319e-04, 5.36768639e-04,
          5.36768639e-04, 1.34192163e-03, 0., 1.87869021e-03,
          2.14707456e-03, 2.68384319e-04, 0., 5.36768639e-04,
          1.07353728e-03, 2.68384319e-04, 1.34192163e-03, 8.05152929e-04,
          8.05152929e-04, 0., 0., 0., 0., 5.36768639e-04, 0.,
          8.05152929e-04, 0., 0., 8.05152929e-04, 1.07353728e-03,
          2.68384319e-04, 2.14707456e-03, 0., 5.36768639e-04,
          8.05152929e-04, 5.36768639e-04, 8.05152929e-04, 0., 0.,
          5.36768639e-04, 3.75738041e-03, 3.48899607e-03, 5.36768639e-04,
          2.68384319e-04, 3.22061172e-03, 8.05152929e-04, 2.68384319e-04,
          0., 1.07353728e-03, 1.34192163e-03, 1.07353728e-03,
          1.07353728e-03, 0., 5.36768639e-04, 0., 4.02576476e-03,
          1.07353728e-03, 8.05152929e-04, 0., 2.68384319e-04,
          5.36768639e-04, 1.34192163e-03, 0., 2.41545890e-03,
          1.07353728e-03, 2.68384319e-04, 0., 5.36768639e-04,
          5.36768639e-04, 1.87869021e-03, 2.68384319e-04, 7.24637648e-03,
          1.34192163e-03, 2.68384325e-03, 5.36768639e-04, 2.68384319e-04,
          1.07353728e-03, 5.36768639e-04, 2.68384319e-04, 0., 0., 0.,
          5.09930216e-03, 0., 0., 1.07353728e-03, 0., 2.68384319e-04,
          5.90445520e-03, 2.68384319e-04, 2.68384319e-04, 4.29414911e-03,
          5.36768639e-04, 8.05152929e-04, 2.68384319e-04, 2.68384319e-04,
          0., 2.41545890e-03, 2.68384319e-04, 0., 5.09930216e-03,
          1.61030586e-03, 5.36768639e-04, 0., 2.68384319e-04,
          2.68384319e-04, 2.14707456e-03, 5.36768639e-04, 2.68384319e-04,
          0., 0., 3.22061172e-03, 0., 2.14707456e-03, 1.87869021e-03, 0.,
          1.07353728e-03, 5.36768639e-04, 8.05152929e-04, 0.,
          2.68384319e-04, 5.36768639e-04, 1.61030586e-03, 1.61030586e-03,
          0., 3.75738041e-03, 1.87869021e-03, 5.36768639e-04,
          1.34192163e-03, 5.36768639e-04, 8.05152929e-04, 1.87869021e-03,
          0., 2.68384319e-04, 2.95222760e-03, 2.68384319e-04, 0., 0.,
          2.68384319e-04, 2.68384319e-04, 2.68384319e-04, 1.61030586e-03,
          5.36768639e-04, 1.87869021e-03, 8.05152929e-04, 2.68384319e-04,
          1.87869021e-03, 5.36768639e-04, 8.05152929e-04, 1.87869021e-03,
          5.36768639e-04, 2.68384319e-04, 5.36768639e-04, 2.68384319e-04,
          4.29414911e-03, 2.68384319e-04, 0., 2.68384319e-04,
          8.05152929e-04, 0., 0., 1.34192163e-03, 1.87869021e-03,
          5.36768639e-04, 2.68384319e-04, 2.68384319e-04, 8.05152929e-04,
          2.68384319e-04, 1.34192163e-03, 1.87869021e-03, 2.68384319e-04,
          1.34192163e-03, 8.05152929e-04, 1.34192163e-03, 2.68384319e-04,
          5.36768639e-04, 5.36768639e-04, 2.68384319e-04, 0.,
          8.05152929e-04, 1.61030586e-03, 8.05152929e-04, 2.68384319e-04,
          0., 1.34192163e-03, 8.05152929e-04, 0., 5.36768639e-04,
          8.05152929e-04, 5.36768639e-04, 8.05152929e-04, 1.34192163e-03,
          2.68384319e-04, 0., 0., 1.07353728e-03, 0., 1.07353728e-03, 0.,
          5.36768639e-04, 0., 5.36768639e-04, 5.36768639e-04,
          2.68384319e-04, 1.61030586e-03, 3.22061172e-03, 0.,
          8.05152929e-04, 0., 1.34192163e-03, 2.68384319e-04,
          2.41545890e-03, 8.05152929e-04, 5.36768639e-04, 1.87869021e-03,
          1.07353728e-03, 2.14707456e-03, 8.05152929e-04, 8.05152929e-04,
          2.68384319e-04, 8.05152929e-04, 0., 2.68384319e-04,
          5.36768639e-04, 1.61030586e-03, 2.68384319e-04, 1.07353728e-03,
          1.61030586e-03, 1.07353728e-03, 1.87869021e-03, 8.05152929e-04,
          6.17283955e-03, 2.68384319e-04, 0., 1.34192163e-03,
          5.36768639e-04, 0., 1.07353728e-03, 0., 2.68384319e-04,
          1.34192163e-03, 0., 0., 5.36768639e-04, 0., 0., 0.,
          2.68384325e-03, 0., 5.36768639e-04, 1.07353728e-03,
          8.05152929e-04, 5.36768639e-04, 2.68384325e-03, 8.05152929e-04,
          2.68384325e-03, 1.34192163e-03, 1.07353728e-03, 0.,
          8.05152929e-04, 2.68384319e-04, 8.05152929e-04, 0.,
          8.05152929e-04, 8.05152929e-04, 1.07353728e-03, 2.14707456e-03,
          2.68384319e-04, 5.36768639e-04, 2.68384319e-04, 2.68384319e-04,
          1.61030586e-03, 0., 1.07353728e-03, 0., 2.68384319e-04, 0.,
          5.36768639e-04, 5.36768639e-04, 2.41545890e-03, 8.05152929e-04,
          1.07353728e-03, 2.68384319e-04, 0., 5.36768639e-04,
          2.68384319e-04, 8.05152929e-04, 1.34192163e-03, 2.68384319e-04,
          1.87869021e-03, 2.68384319e-04, 8.05152929e-04, 1.34192163e-03,
          1.07353728e-03, 1.34192163e-03, 2.95222760e-03, 2.68384319e-04,
          5.36768639e-04, 5.36768639e-04, 1.34192163e-03, 2.68384319e-04,
          5.36768639e-04, 1.07353728e-03, 2.68384319e-04, 0., 0.,
          1.61030586e-03, 5.36768639e-04, 2.68384319e-04, 1.07353728e-03,
          8.05152929e-04, 8.05152929e-04, 2.68384319e-04, 1.34192163e-03,
          5.36768639e-04, 5.36768639e-04, 0., 8.05152929e-04,
          5.36768639e-04, 2.68384319e-04, 1.87869021e-03, 0.,
          5.36768639e-04, 2.68384319e-04, 0., 0., 8.05152929e-04,
          5.36768639e-04, 1.07353728e-03, 1.07353728e-03, 8.05152929e-04,
          1.07353728e-03, 0., 1.07353728e-03, 1.34192163e-03,
          5.36768639e-04, 0., 0., 1.07353728e-03, 2.68384319e-04,
          5.36768639e-04, 1.87869021e-03, 2.68384319e-04, 0.,
          2.14707456e-03, 0., 1.07353728e-03, 5.36768639e-04, 0.,
          1.61030586e-03, 1.07353728e-03, 0., 1.07353728e-03,
          1.07353728e-03, 5.36768639e-04, 2.68384319e-04, 5.36768639e-04,
          2.68384319e-04, 8.05152929e-04, 0., 0., 0., 0., 3.75738041e-03,
          6.17283955e-03, 4.56253346e-03, 8.05152929e-04, 5.36768639e-04,
          0., 2.68384319e-04, 0., 0., 0., 8.05152929e-04, 5.36768639e-04,
          2.68384319e-04, 8.05152929e-04, 1.34192163e-03, 1.34192163e-03,
          0., 2.68384319e-04, 8.05152929e-04, 2.68384319e-04,
          8.05152929e-04, 1.07353728e-03, 1.07353728e-03, 1.87869021e-03,
          2.68384319e-04, 8.05152929e-04, 1.07353728e-03, 1.07353728e-03,
          2.68384319e-04, 5.36768639e-04, 1.87869021e-03, 0.,
          2.68384319e-04, 8.05152929e-04, 1.61030586e-03, 1.61030586e-03,
          2.68384319e-04, 1.61030586e-03, 1.61030586e-03, 5.36768639e-04,
          1.07353728e-03, 0., 0., 2.41545890e-03, 0., 8.05152929e-04,
          8.05152929e-04, 2.14707456e-03, 2.41545890e-03, 1.34192163e-03,
          0., 5.36768639e-04, 2.68384319e-04, 0., 1.34192163e-03,
          2.68384319e-04, 2.68384319e-04, 1.87869021e-03, 1.07353728e-03,
          0., 1.34192163e-03, 2.41545890e-03, 0., 2.68384319e-04,
          1.07353728e-03, 1.07353728e-03, 3.22061172e-03, 1.34192163e-03,
          5.36768639e-04, 8.05152929e-04, 1.61030586e-03, 5.36768639e-04,
          8.05152929e-04, 0., 1.87869021e-03, 1.34192163e-03,
          1.07353728e-03, 1.07353728e-03, 3.48899607e-03, 8.05152929e-04,
          5.36768639e-04, 8.05152929e-04, 2.14707456e-03, 2.68384319e-04,
          2.68384319e-04, 2.68384319e-04, 5.36768639e-04, 5.36768639e-04,
          5.36768639e-04, 5.36768639e-04, 2.68384319e-04, 2.68384319e-04,
          8.05152929e-04, 2.68384319e-04, 1.07353728e-03, 5.36768639e-04,
          8.05152929e-04, 0., 1.07353728e-03, 1.07353728e-03,
          2.14707456e-03, 5.36768639e-04, 8.05152929e-04, 5.36768639e-04,
          2.68384319e-04, 0., 8.05152929e-04, 2.41545890e-03,
          1.61030586e-03, 5.36768639e-04, 5.36768639e-04, 5.36768639e-04,
          5.36768639e-04, 0., 5.36768639e-04, 2.68384319e-04,
          2.68384319e-04, 0., 1.07353728e-03, 5.36768639e-04,
          1.34192163e-03, 2.68384319e-04, 1.34192163e-03, 8.05152929e-04,
          8.05152929e-04, 2.68384319e-04, 8.05152929e-04, 2.68384319e-04,
          1.61030586e-03, 8.05152929e-04, 5.36768639e-04, 8.05152929e-04,
          8.05152929e-04, 0., 1.07353728e-03, 0., 0., 1.34192163e-03,
          2.68384319e-04, 3.75738041e-03, 5.36768639e-04, 0.,
          5.36768639e-04, 1.07353728e-03, 0., 0., 0., 5.36768639e-04, 0.,
          1.07353728e-03, 1.07353728e-03, 2.68384319e-04, 1.07353728e-03,
          1.61030586e-03, 2.68384319e-04, 0., 8.05152929e-04,
          2.68384319e-04, 2.41545890e-03, 1.61030586e-03, 1.87869021e-03,
          1.07353728e-03, 5.36768639e-04, 0., 8.05152929e-04,
          1.07353728e-03, 5.36768639e-04, 8.05152929e-04, 2.41545890e-03,
          0., 0., 0., 2.41545890e-03, 2.68384319e-04, 0., 1.61030586e-03,
          8.05152929e-04, 2.68384319e-04, 0., 8.05152929e-04,
          2.68384319e-04, 2.68384319e-04, 0., 1.07353728e-03,
          6.44122344e-03, 1.07353728e-03, 5.36768639e-04, 1.34192163e-03,
          5.36768639e-04, 2.68384319e-04, 0., 5.36768639e-04, 0.,
          2.68384319e-04, 1.87869021e-03, 8.05152929e-04, 5.36768639e-04,
          5.36768639e-04, 0., 4.02576476e-03, 2.68384319e-04,
          2.68384319e-04, 1.61030586e-03, 5.36768651e-03, 5.36768639e-04,
          2.68384325e-03, 2.95222760e-03, 0., 2.68384319e-04, 0., 0.,
          8.05152929e-04, 2.68384319e-04, 3.48899607e-03, 1.34192163e-03,
          1.07353728e-03, 8.05152929e-04, 2.68384319e-04, 2.68384319e-04,
          0., 1.87869021e-03, 2.68384319e-04, 0., 5.36768639e-04,
          2.14707456e-03, 2.68384319e-04, 2.68384319e-04, 1.87869021e-03,
          2.68384319e-04, 8.05152929e-04, 8.05152929e-04, 5.36768639e-04,
          2.68384319e-04, 2.68384319e-04, 0., 1.61030586e-03,
          8.05152929e-04, 8.05152929e-04, 1.61030586e-03, 5.36768639e-04,
          8.05152929e-04, 0., 2.68384319e-04, 8.05152929e-04,
          1.61030586e-03, 1.34192163e-03, 1.34192163e-03, 5.36768639e-04,
          2.68384319e-04, 1.07353728e-03, 2.68384319e-04, 2.68384319e-04,
          0., 8.05152929e-04, 0., 2.68384319e-04, 0., 1.34192163e-03, 0.,
          1.61030586e-03, 1.34192163e-03, 1.34192163e-03, 2.68384319e-04,
          8.05152929e-04, 1.87869021e-03, 1.87869021e-03, 8.05152929e-04,
          5.36768639e-04, 3.22061172e-03, 2.68384319e-04, 8.05152929e-04,
          1.87869021e-03, 0., 0., 2.41545890e-03, 0., 1.34192163e-03,
          1.07353728e-03, 5.36768639e-04, 5.36768639e-04, 5.36768639e-04,
          5.36768639e-04, 1.07353728e-03, 2.68384319e-04, 0.,
          8.05152929e-04, 0., 0., 5.36768639e-04, 0., 1.34192163e-03,
          5.36768639e-04, 5.36768639e-04, 2.68384319e-04, 1.34192163e-03,
          8.05152929e-04, 5.36768639e-04, 1.07353728e-03, 2.68384325e-03,
          2.95222760e-03, 8.05152929e-04, 5.36768639e-04, 2.68384319e-04,
          1.07353728e-03, 1.07353728e-03, 0., 3.75738041e-03,
          1.07353728e-03, 1.07353728e-03, 1.07353728e-03, 1.34192163e-03,
          2.14707456e-03, 2.68384319e-04, 2.95222760e-03, 2.68384319e-04,
          5.36768639e-04, 5.36768639e-04, 5.36768639e-04, 1.87869021e-03,
          2.68384319e-04, 2.68384319e-04, 4.02576476e-03, 0.,
          1.87869021e-03, 2.68384319e-04, 2.41545890e-03, 2.68384319e-04,
          2.68384319e-04, 0., 1.34192163e-03, 0., 8.05152929e-04, 0.,
          1.61030586e-03, 1.07353728e-03, 1.61030586e-03, 0.,
          2.68384319e-04, 1.61030586e-03, 5.36768639e-04, 2.68384325e-03,
          1.07353728e-03, 2.68384319e-04, 8.05152929e-04, 0.,
          2.68384319e-04, 5.36768639e-04, 8.05152929e-04, 5.36768639e-04,
          0., 5.36768639e-04, 5.36768639e-04, 0., 8.05152929e-04,
          8.05152929e-04, 5.36768639e-04, 0., 2.41545890e-03,
          2.68384319e-04, 0., 5.36768639e-04, 5.36768639e-04,
          1.61030586e-03, 8.05152929e-04, 0., 0., 5.36768639e-04, 0.,
          1.07353728e-03, 1.61030586e-03, 2.68384319e-04, 2.68384319e-04,
          0., 2.14707456e-03, 5.36768651e-03, 2.68384319e-04,
          2.95222760e-03, 1.34192163e-03, 8.05152929e-04, 0.,
          8.05152929e-04, 1.07353728e-03, 0., 2.68384319e-04,
          5.36768639e-04, 2.68384319e-04, 8.05152929e-04, 0.,
          5.36768639e-04, 1.07353728e-03, 5.36768639e-04, 1.61030586e-03,
          1.07353728e-03, 8.05152929e-04, 8.05152929e-04, 2.68384319e-04,
          2.68384319e-04, 1.34192163e-03, 0., 1.07353728e-03, 0.,
          1.07353728e-03, 5.36768639e-04, 0., 1.07353728e-03,
          8.05152929e-04, 2.68384319e-04, 0., 1.87869021e-03,
          2.68384319e-04, 2.68384319e-04, 8.05152929e-04, 5.36768639e-04,
          1.61030586e-03, 5.36768639e-04, 0., 1.07353728e-03,
          2.68384319e-04, 5.36768639e-04, 2.68384319e-04, 5.36768639e-04,
          5.36768639e-04, 8.05152929e-04, 5.36768639e-04, 8.05152929e-04,
          0., 8.05152929e-04, 2.68384319e-04, 8.05152929e-04,
          5.36768639e-04, 8.05152929e-04, 2.68384319e-04, 0., 0.,
          2.68384319e-04, 0., 5.36768639e-04, 8.05152929e-04,
          2.68384319e-04, 2.68384319e-04, 5.36768639e-04, 2.68384319e-04,
          8.05152929e-04, 8.05152929e-04, 8.05152929e-04, 1.07353728e-03,
          1.34192163e-03, 8.05152929e-04, 2.68384319e-04, 2.68384319e-04,
          0., 5.36768639e-04, 2.68384319e-04, 1.87869021e-03,
          1.07353728e-03, 5.36768639e-04, 1.34192163e-03, 1.07353728e-03,
          1.34192163e-03, 5.36768639e-04, 2.68384319e-04, 5.36768639e-04,
          8.05152929e-04, 1.61030586e-03, 2.68384319e-04, 0., 0.,
          5.36768639e-04, 8.05152929e-04, 2.41545890e-03, 1.07353728e-03,
          5.36768639e-04, 2.68384319e-04, 0., 5.36768639e-04, 0.,
          1.07353728e-03, 5.36768639e-04, 1.07353728e-03, 2.68384319e-04,
          2.68384319e-04, 5.36768639e-04, 8.05152929e-04, 5.36768639e-04,
          1.07353728e-03, 1.07353728e-03, 5.36768639e-04, 2.41545890e-03,
          5.36768639e-04, 1.07353728e-03, 2.14707456e-03, 2.68384319e-04,
          2.14707456e-03, 5.36768639e-04, 1.87869021e-03, 0., 0.,
          5.36768639e-04, 0., 0., 5.36768639e-04, 1.61030586e-03, 0., 0.,
          2.68384319e-04, 1.07353728e-03, 0., 1.87869021e-03,
          5.36768639e-04, 0., 3.22061172e-03, 1.07353728e-03,
          2.68384319e-04, 1.61030586e-03, 8.05152929e-04, 1.34192163e-03,
          1.34192163e-03, 2.41545890e-03, 2.68384319e-04, 8.05152929e-04,
          2.14707456e-03, 1.34192163e-03, 2.68384319e-04, 0.,
          8.05152929e-04, 5.36768639e-04, 2.68384319e-04, 8.05152929e-04,
          2.68384319e-04, 5.36768639e-04, 2.68384319e-04, 0.,
          1.61030586e-03, 2.68384319e-04, 8.05152929e-04, 1.34192163e-03,
          5.36768639e-04, 1.61030586e-03, 1.61030586e-03, 8.05152929e-04,
          2.68384325e-03, 8.05152929e-04, 5.36768639e-04, 2.68384319e-04,
          8.05152929e-04, 2.68384319e-04, 0., 2.14707456e-03,
          2.68384319e-04, 5.36768639e-04, 2.68384319e-04, 2.68384319e-04,
          2.68384319e-04, 5.36768639e-04, 5.36768639e-04, 2.68384319e-04,
          0., 1.34192163e-03, 8.05152929e-04, 2.68384319e-04, 0.,
          1.87869021e-03, 5.36768639e-04, 1.07353728e-03, 1.87869021e-03,
          1.34192163e-03, 1.07353728e-03, 5.36768639e-04, 1.61030586e-03,
          1.07353728e-03, 5.36768639e-04, 0., 1.07353728e-03,
          2.68384319e-04, 2.68384319e-04, 1.34192163e-03, 8.05152929e-04,
          1.07353728e-03, 2.68384319e-04, 2.68384319e-04, 2.68384319e-04,
          1.61030586e-03, 1.87869021e-03, 0., 0., 2.68384319e-04, 0.,
          2.68384319e-04, 2.41545890e-03, 2.68384319e-04, 1.61030586e-03,
          0., 1.07353728e-03, 2.68384319e-04, 2.14707456e-03, 0.,
          8.05152929e-04, 5.63607085e-03, 1.07353728e-03, 5.36768639e-04,
          0., 1.07353728e-03, 1.61030586e-03, 0., 2.68384319e-04,
          8.05152929e-04, 0., 2.41545890e-03, 5.36768639e-04,
          5.36768639e-04, 5.36768639e-04, 8.05152929e-04, 1.87869021e-03,
          5.36768639e-04, 5.36768639e-04, 1.07353728e-03, 8.05152929e-04,
          5.36768639e-04, 1.87869021e-03, 2.68384319e-04, 2.68384319e-04,
          5.36768639e-04, 1.61030586e-03, 2.68384319e-04, 0.,
          5.36768639e-04, 2.68384319e-04, 2.14707456e-03, 1.87869021e-03,
          1.61030586e-03, 2.68384319e-04, 2.68384319e-04, 1.34192163e-03,
          2.68384319e-04, 5.36768639e-04, 2.68384319e-04, 0.,
          1.34192163e-03, 2.68384319e-04, 5.36768639e-04, 5.36768639e-04,
          2.68384319e-04, 4.83091781e-03, 1.07353728e-03, 5.36768639e-04,
          8.05152929e-04, 5.36768639e-04, 0., 8.05152929e-04,
          5.36768639e-04, 5.36768639e-04, 0., 2.68384325e-03,
          1.07353728e-03, 5.36768639e-04, 0., 0., 0., 0., 2.68384319e-04,
          0., 1.61030586e-03, 1.34192163e-03, 2.68384319e-04, 0.,
          2.68384325e-03, 0., 0., 0., 1.07353728e-03, 8.05152929e-04,
          8.05152929e-04, 2.14707456e-03, 5.36768639e-04, 8.05152929e-04,
          0., 1.61030586e-03, 8.05152929e-04, 1.61030586e-03,
          8.05152929e-04, 2.68384319e-04, 1.07353728e-03, 5.36768639e-04,
          0., 1.61030586e-03, 5.36768639e-04, 0., 0., 5.36768639e-04,
          5.36768639e-04, 5.36768639e-04, 1.07353728e-03, 0., 0., 0., 0.,
          1.34192163e-03, 2.41545890e-03, 1.07353728e-03, 1.61030586e-03,
          1.34192163e-03, 0., 8.05152929e-04, 1.34192163e-03, 0.,
          1.34192163e-03, 0., 8.05152929e-04, 1.34192163e-03,
          5.36768639e-04, 3.22061172e-03, 5.36768639e-04, 5.36768639e-04,
          8.05152929e-04, 1.07353728e-03, 8.05152929e-04, 5.36768639e-04,
          1.34192163e-03, 2.68384325e-03, 1.61030586e-03, 1.87869021e-03,
          1.07353728e-03, 0., 0., 1.07353728e-03, 8.05152929e-04,
          8.05152929e-04, 1.61030586e-03, 1.07353728e-03, 0.,
          1.07353728e-03, 0., 2.68384319e-04, 1.34192163e-03,
          7.24637648e-03, 5.36768639e-04, 2.68384319e-04, 2.68384319e-04,
          5.36768639e-04, 8.05152929e-04, 5.36768639e-04, 1.61030586e-03,
          1.61030586e-03, 5.36768639e-04, 2.68384319e-04, 0.,
          2.68384319e-04, 1.87869021e-03, 1.07353728e-03, 5.36768639e-04,
          2.14707456e-03, 0., 0., 1.61030586e-03, 0., 0., 1.87869021e-03,
          2.68384319e-04, 1.61030586e-03, 5.36768639e-04, 2.68384319e-04,
          8.05152929e-04, 0., 8.05152929e-04, 1.07353728e-03,
          2.68384319e-04, 2.68384319e-04, 1.07353728e-03, 5.36768639e-04,
          8.05152929e-04, 2.68384319e-04, 0., 1.07353728e-03,
          2.95222760e-03, 0., 8.05152929e-04, 2.68384319e-04,
          5.36768639e-04, 1.61030586e-03, 2.41545890e-03, 0.,
          8.05152929e-04, 1.07353728e-03, 2.41545890e-03, 0.,
          2.14707456e-03, 1.61030586e-03, 5.36768639e-04, 0., 0.,
          5.36768639e-04, 2.68384319e-04, 0., 8.05152929e-04,
          1.61030586e-03, 0., 2.68384319e-04, 2.14707456e-03,
          1.34192163e-03, 1.61030586e-03, 2.68384319e-04, 2.68384319e-04,
          1.34192163e-03, 2.68384319e-04, 2.68384319e-04, 0.,
          8.05152929e-04, 5.36768639e-04, 2.68384319e-04, 0.,
          1.07353728e-03, 1.07353728e-03, 0., 1.87869021e-03,
          2.68384319e-04 ]
      - [ 1.25628139e-03, 1.88442203e-03, 6.28140697e-04, 0., 0.,
          6.28140697e-04, 0., 1.25628139e-03, 0., 0., 0., 0.,
          6.28140697e-04, 6.28140697e-04, 0., 6.28140697e-04,
          2.51256279e-03, 0., 6.28140697e-04, 0., 3.76884406e-03, 0., 0.,
          0., 1.25628139e-03, 1.25628139e-03, 1.88442203e-03, 0.,
          6.28140697e-04, 1.25628139e-03, 6.28140697e-04, 6.28140697e-04,
          3.14070354e-03, 0., 0., 6.28140697e-04, 0., 0., 1.88442203e-03,
          0., 6.28140697e-04, 6.28140697e-04, 0., 0., 1.25628139e-03, 0.,
          0., 6.28140697e-04, 0., 6.28140697e-04, 0., 6.28140697e-04,
          1.25628139e-03, 6.28140697e-04, 0., 1.88442203e-03,
          6.28140697e-04, 1.25628139e-03, 6.28140697e-04, 3.14070354e-03,
          1.88442203e-03, 0., 1.25628139e-03, 1.88442203e-03, 0.,
          6.28140697e-04, 6.28140697e-04, 0., 0., 6.28140697e-04,
          6.28140697e-04, 6.28140697e-04, 1.25628139e-03, 6.28140697e-04,
          0., 1.25628139e-03, 6.28140708e-03, 1.25628139e-03,
          6.28140697e-04, 6.28140697e-04, 2.51256279e-03, 0., 0.,
          6.28140697e-04, 0., 0., 1.88442203e-03, 6.28140697e-04,
          6.28140697e-04, 0., 1.25628139e-03, 6.28140697e-04,
          1.25628139e-03, 0., 1.88442203e-03, 3.14070354e-03, 0., 0., 0.,
          6.28140697e-04, 6.28140697e-04, 6.28140697e-04, 1.88442203e-03,
          6.28140697e-04, 1.88442203e-03, 3.14070354e-03, 6.28140697e-04,
          0., 6.28140697e-04, 1.88442203e-03, 2.51256279e-03,
          1.25628139e-03, 5.65326633e-03, 1.25628139e-03, 0., 0.,
          3.76884406e-03, 0., 1.25628139e-03, 3.14070354e-03, 0., 0.,
          6.28140697e-04, 6.28140697e-04, 6.28140697e-04, 0., 0.,
          4.39698482e-03, 0., 0., 6.28140697e-04, 0., 2.51256279e-03,
          1.25628139e-03, 0., 1.25628139e-03, 3.14070354e-03, 0., 0., 0.,
          0., 0., 0., 1.25628139e-03, 1.25628139e-03, 1.88442203e-03, 0.,
          1.25628139e-03, 0., 0., 0., 6.28140697e-04, 2.51256279e-03,
          6.28140697e-04, 6.28140697e-04, 0., 2.51256279e-03, 0.,
          1.25628139e-03, 0., 3.76884406e-03, 6.28140697e-04, 0.,
          6.28140697e-04, 6.28140697e-04, 0., 0., 3.14070354e-03,
          1.25628139e-03, 0., 6.28140697e-04, 0., 0., 1.25628139e-03,
          6.28140697e-04, 6.28140697e-04, 6.28140697e-04, 0., 0., 0., 0.,
          0., 1.25628139e-03, 0., 1.25628139e-03, 1.25628139e-03,
          1.88442203e-03, 1.88442203e-03, 2.51256279e-03, 1.25628139e-03,
          0., 6.28140697e-04, 6.28140697e-04, 1.25628139e-03,
          6.28140697e-04, 2.51256279e-03, 0., 0., 6.28140697e-04, 0.,
          1.25628139e-03, 0., 0., 6.28140697e-04, 0., 6.28140697e-04,
          2.51256279e-03, 0., 0., 6.28140697e-04, 0., 6.28140697e-04, 0.,
          1.25628139e-03, 4.39698482e-03, 6.28140697e-04, 6.28140697e-04,
          6.28140697e-04, 6.28140697e-04, 6.28140697e-04, 3.14070354e-03,
          0., 0., 6.28140697e-04, 0., 0., 6.28140697e-04, 6.28140697e-04,
          6.28140697e-04, 6.28140697e-04, 5.02512557e-03, 0., 0.,
          6.28140697e-04, 6.28140697e-04, 0., 0., 6.28140697e-04,
          1.25628139e-03, 0., 3.14070354e-03, 0., 0., 6.28140697e-04, 0.,
          0., 3.14070354e-03, 0., 6.28140697e-04, 6.28140697e-04,
          1.25628139e-03, 6.28140697e-04, 0., 1.25628139e-03, 0., 0., 0.,
          0., 0., 6.28140697e-04, 1.25628139e-03, 0., 0., 6.28140697e-04,
          0., 0., 6.28140697e-04, 3.14070354e-03, 1.88442203e-03, 0., 0.,
          0., 1.25628139e-03, 6.28140697e-04, 6.28140697e-04, 0., 0., 0.,
          0., 2.51256279e-03, 0., 0., 1.88442203e-03, 3.76884406e-03, 0.,
          6.28140697e-04, 0., 6.28140697e-04, 1.25628139e-03,
          6.28140697e-04, 1.88442203e-03, 6.28140697e-04, 1.88442203e-03,
          1.25628139e-03, 1.88442203e-03, 6.28140697e-04, 6.28140697e-04,
          1.25628139e-03, 0., 0., 6.28140697e-04, 0., 1.25628139e-03, 0.,
          0., 1.25628139e-03, 1.88442203e-03, 0., 0., 6.28140697e-04,
          6.28140697e-04, 0., 1.88442203e-03, 0., 6.28140697e-04,
          6.28140697e-04, 3.76884406e-03, 6.28140697e-04, 0.,
          6.28140697e-04, 0., 0., 6.28140708e-03, 0., 0., 0.,
          1.88442203e-03, 0., 2.51256279e-03, 6.28140697e-04,
          6.28140697e-04, 1.25628139e-03, 6.28140697e-04, 1.25628139e-03,
          1.88442203e-03, 0., 0., 1.25628142e-02, 6.28140697e-04,
          1.88442203e-03, 6.28140697e-04, 0., 6.28140697e-04,
          2.51256279e-03, 1.88442203e-03, 6.28140708e-03, 0., 0., 0.,
          1.25628139e-03, 2.51256279e-03, 0., 6.28140697e-04,
          6.28140697e-04, 5.65326633e-03, 6.28140697e-04, 3.14070354e-03,
          6.28140697e-04, 1.88442203e-03, 6.28140697e-04, 6.28140697e-04,
          6.28140697e-04, 0., 1.25628139e-03, 0., 8.16582888e-03,
          2.51256279e-03, 5.02512557e-03, 0., 6.28140697e-04,
          1.25628139e-03, 1.25628139e-03, 1.88442203e-03, 0., 0., 0., 0.,
          1.88442203e-03, 1.88442203e-03, 1.25628139e-03, 6.28140697e-04,
          6.28140697e-04, 1.25628139e-03, 1.25628139e-03, 6.28140697e-04,
          1.25628139e-03, 7.53768813e-03, 1.88442203e-03, 6.28140697e-04,
          0., 0., 3.14070354e-03, 1.88442203e-03, 6.28140697e-04,
          3.14070354e-03, 0., 6.28140697e-04, 6.28140697e-04,
          6.28140697e-04, 0., 0., 0., 0., 6.28140697e-04, 0.,
          6.28140697e-04, 0., 3.14070354e-03, 0., 2.51256279e-03, 0., 0.,
          6.28140697e-04, 1.25628139e-03, 0., 6.28140697e-04, 0.,
          2.51256279e-03, 6.28140697e-04, 0., 1.25628139e-03, 0., 0.,
          1.25628139e-03, 6.28140697e-04, 6.28140697e-04, 0., 0., 0., 0.,
          6.28140697e-04, 1.25628139e-03, 0., 0., 0., 0., 0.,
          3.14070354e-03, 0., 6.28140697e-04, 0., 6.28140697e-04,
          6.28140697e-04, 0., 0., 6.28140697e-04, 1.88442203e-03, 0., 0.,
          3.76884406e-03, 0., 2.51256279e-03, 6.28140697e-04,
          6.28140697e-04, 6.28140697e-04, 6.28140697e-04, 0.,
          6.28140697e-04, 0., 0., 0., 1.25628139e-03, 2.51256279e-03,
          1.88442203e-03, 0., 1.25628139e-03, 0., 0., 1.25628139e-03, 0.,
          4.39698482e-03, 6.28140697e-04, 1.88442203e-03, 5.65326633e-03,
          0., 6.28140697e-04, 0., 1.25628139e-03, 0., 6.28140697e-04,
          6.28140697e-04, 0., 0., 1.25628139e-03, 0., 0., 1.25628139e-03,
          0., 2.51256279e-03, 0., 0., 0., 0., 3.14070354e-03,
          1.25628139e-03, 6.28140697e-04, 0., 0., 0., 1.88442203e-03,
          6.28140697e-04, 6.28140697e-04, 1.25628139e-03, 1.25628139e-03,
          6.28140697e-04, 0., 0., 0., 6.28140697e-04, 6.28140697e-04,
          2.51256279e-03, 0., 0., 6.28140697e-04, 1.25628139e-03,
          1.25628139e-03, 6.28140697e-04, 1.25628139e-03, 1.25628139e-03,
          6.28140697e-04, 0., 2.51256279e-03, 0., 0., 0., 0., 0.,
          6.28140697e-04, 0., 6.28140697e-04, 0., 2.51256279e-03,
          1.25628139e-03, 6.28140697e-04, 2.51256279e-03, 6.28140697e-04,
          0., 0., 0., 0., 0., 2.51256279e-03, 0., 1.88442203e-03, 0.,
          1.25628139e-03, 1.25628139e-03, 1.25628139e-03, 1.25628139e-03,
          0., 0., 1.88442203e-03, 0., 0., 1.25628139e-03, 6.28140697e-04,
          0., 1.25628139e-03, 0., 0., 6.28140697e-04, 1.25628139e-03,
          1.25628139e-03, 1.88442203e-03, 0., 1.25628139e-03,
          2.51256279e-03, 6.28140697e-04, 0., 6.28140697e-04,
          6.28140697e-04, 2.51256279e-03, 1.88442203e-03, 6.28140697e-04,
          6.28140697e-04, 0., 0., 0., 0., 6.28140697e-04, 1.88442203e-03,
          6.28140697e-04, 6.28140697e-04, 0., 6.28140697e-04,
          6.28140697e-04, 1.25628139e-03, 6.28140697e-04, 0.,
          1.88442203e-03, 0., 0., 0., 1.25628139e-03, 0., 1.25628139e-03,
          2.51256279e-03, 0., 0., 0., 6.28140697e-04, 6.28140697e-04, 0.,
          6.28140697e-04, 6.28140697e-04, 0., 1.88442203e-03, 0., 0.,
          1.25628139e-03, 6.28140697e-04, 0., 0., 3.14070354e-03,
          1.25628139e-03, 0., 0., 0., 4.39698482e-03, 0., 0.,
          6.28140697e-04, 6.28140697e-04, 0., 0., 6.28140697e-04, 0.,
          1.25628139e-03, 0., 0., 2.51256279e-03, 6.28140697e-04,
          6.28140697e-04, 0., 1.88442203e-03, 6.28140697e-04,
          3.76884406e-03, 0., 0., 6.28140697e-04, 0., 1.88442203e-03,
          1.25628139e-03, 0., 5.02512557e-03, 1.25628139e-03, 0.,
          1.25628139e-03, 6.28140697e-04, 1.88442203e-03, 6.28140697e-04,
          0., 0., 0., 0., 6.28140697e-04, 0., 0., 3.14070354e-03, 0., 0.,
          1.25628139e-03, 0., 0., 1.88442203e-03, 3.76884406e-03, 0., 0.,
          6.28140697e-04, 0., 6.28140697e-04, 1.25628139e-03, 0.,
          6.28140697e-04, 0., 6.28140697e-04, 6.28140697e-04,
          6.28140697e-04, 0., 0., 6.28140697e-04, 0., 1.25628139e-03,
          6.28140697e-04, 6.28140697e-04, 6.28140697e-04, 0.,
          6.28140697e-04, 1.25628139e-03, 0., 0., 0., 0., 6.28140697e-04,
          0., 6.28140697e-04, 6.28140697e-04, 6.28140697e-04,
          1.25628139e-03, 6.28140697e-04, 2.51256279e-03, 3.14070354e-03,
          0., 0., 2.51256279e-03, 0., 0., 0., 0., 1.88442203e-03,
          6.28140697e-04, 6.28140697e-04, 0., 1.25628139e-03,
          6.28140697e-04, 0., 0., 0., 6.28140697e-04, 6.28140697e-04,
          6.28140697e-04, 1.25628139e-03, 6.28140697e-04, 0.,
          6.28140697e-04, 0., 1.25628139e-03, 0., 0., 5.65326633e-03, 0.,
          6.28140697e-04, 6.28140697e-04, 6.28140697e-04, 0., 0., 0., 0.,
          0., 6.28140697e-04, 6.28140697e-04, 0., 0., 3.76884406e-03, 0.,
          0., 0., 6.28140697e-04, 2.51256279e-03, 1.88442203e-03, 0., 0.,
          0., 0., 6.28140697e-04, 2.51256279e-03, 0., 0., 0.,
          6.28140697e-04, 1.88442203e-03, 6.28140697e-04, 1.88442203e-03,
          0., 0., 0., 6.28140697e-04, 3.76884406e-03, 6.28140697e-04,
          3.14070354e-03, 6.28140708e-03, 2.51256279e-03, 1.25628139e-03,
          0., 1.25628139e-03, 6.28140697e-04, 0., 0., 0., 1.25628139e-03,
          1.25628139e-03, 0., 1.25628139e-03, 6.28140697e-04,
          1.25628139e-03, 0., 6.28140697e-04, 1.88442203e-03,
          5.02512557e-03, 1.88442203e-03, 0., 0., 1.25628139e-03, 0., 0.,
          0., 0., 0., 0., 6.28140697e-04, 2.51256279e-03, 1.25628139e-03,
          6.28140697e-04, 1.25628139e-03, 0., 6.28140697e-04,
          6.28140697e-04, 0., 0., 0., 0., 4.39698482e-03, 6.28140697e-04,
          0., 0., 0., 6.28140697e-04, 0., 1.25628139e-03, 6.28140697e-04,
          0., 6.28140697e-04, 0., 6.28140697e-04, 0., 0., 6.28140697e-04,
          0., 6.28140697e-04, 0., 0., 6.28140697e-04, 0., 0., 0., 0., 0.,
          6.28140697e-04, 1.25628139e-03, 1.25628139e-03, 0.,
          6.28140697e-04, 1.88442203e-03, 1.25628139e-03, 6.28140697e-04,
          0., 0., 1.25628139e-03, 0., 0., 4.39698482e-03, 6.28140697e-04,
          1.25628139e-03, 0., 6.28140697e-04, 1.88442203e-03,
          1.88442203e-03, 6.28140697e-04, 0., 1.88442203e-03, 0.,
          1.25628139e-03, 0., 0., 0., 1.25628139e-03, 0., 0., 0.,
          5.65326633e-03, 6.28140708e-03, 0., 0., 2.51256279e-03,
          6.28140697e-04, 6.28140697e-04, 6.28140697e-04, 0., 0.,
          6.28140697e-04, 0., 3.76884406e-03, 1.25628139e-03, 0.,
          3.14070354e-03, 6.28140697e-04, 1.25628139e-03, 1.25628139e-03,
          0., 0., 6.28140697e-04, 0., 1.88442203e-03, 3.14070354e-03, 0.,
          0., 0., 2.51256279e-03, 0., 1.88442203e-03, 6.28140697e-04,
          6.28140697e-04, 0., 3.14070354e-03, 6.28140697e-04, 0., 0., 0.,
          0., 2.51256279e-03, 6.28140697e-04, 6.28140697e-04, 0., 0., 0.,
          0., 6.28140697e-04, 0., 0., 6.28140697e-04, 1.25628139e-03, 0.,
          1.25628139e-03, 6.28140697e-04, 6.28140697e-04, 0., 0., 0.,
          3.76884406e-03, 6.28140697e-04, 1.88442203e-03, 0., 0., 0.,
          6.28140697e-04, 6.28140697e-04, 6.28140697e-04, 1.88442203e-03,
          1.88442203e-03, 6.28140697e-04, 6.28140697e-04, 5.02512557e-03,
          6.28140697e-04, 1.25628139e-03, 0., 6.28140697e-04,
          6.28140697e-04, 1.25628139e-03, 6.28140697e-04, 0.,
          6.28140697e-04, 6.28140697e-04, 0., 1.25628139e-03,
          1.88442203e-03, 6.28140697e-04, 0., 0., 6.28140697e-04, 0.,
          6.28140697e-04, 1.25628139e-03, 0., 0., 0., 0., 0., 0., 0.,
          4.39698482e-03, 2.51256279e-03, 1.25628139e-03, 6.28140697e-04,
          1.25628139e-03, 0., 6.28140697e-04, 7.53768813e-03,
          6.28140697e-04, 6.28140697e-04, 0., 1.88442203e-03,
          1.25628139e-03, 6.28140697e-04, 6.28140697e-04, 1.25628139e-03,
          6.28140697e-04, 0., 6.28140697e-04, 6.28140697e-04,
          6.28140697e-04, 1.88442203e-03, 1.25628139e-03, 0.,
          1.25628139e-03, 6.28140697e-04, 0., 1.25628139e-03, 0., 0., 0.,
          0., 1.25628139e-03, 6.28140697e-04, 1.88442203e-03,
          4.39698482e-03, 6.28140697e-04, 1.25628139e-03, 0.,
          2.51256279e-03, 6.28140697e-04, 1.25628139e-03, 1.25628139e-03,
          0., 0., 0., 6.28140697e-04, 0., 0., 1.88442203e-03,
          1.88442203e-03, 0., 0., 6.28140697e-04, 6.28140697e-04, 0., 0.,
          1.88442203e-03, 0., 6.28140697e-04, 6.28140697e-04, 0.,
          5.02512557e-03, 8.79396964e-03, 1.25628139e-03, 0.,
          6.28140697e-04, 0., 0., 1.25628139e-03, 6.28140697e-04, 0., 0.,
          0., 6.28140697e-04, 0., 0., 1.25628139e-03, 1.88442203e-03,
          6.28140697e-04, 1.25628139e-03, 3.14070354e-03, 6.28140708e-03,
          6.28140697e-04, 2.51256279e-03, 0., 0., 6.28140697e-04,
          6.28140697e-04, 2.51256279e-03, 6.28140697e-04, 2.51256279e-03,
          1.88442203e-03, 1.25628139e-03, 0., 1.88442203e-03, 0., 0., 0.,
          0., 0., 0., 0., 1.25628139e-03, 0., 0., 6.28140697e-04,
          6.28140697e-04, 2.51256279e-03, 6.28140697e-04, 3.76884406e-03,
          6.28140708e-03, 0., 0., 0., 6.28140697e-04, 0., 0., 0.,
          6.28140697e-04, 3.14070354e-03, 1.25628139e-03, 1.25628139e-03,
          1.25628139e-03, 6.28140697e-04, 6.28140697e-04, 0.,
          6.28140697e-04, 1.88442203e-03, 0., 1.25628139e-03, 0., 0.,
          6.28140697e-04, 6.28140697e-04, 0., 0., 0., 1.25628139e-03,
          1.13065327e-02, 0., 0., 6.28140697e-04, 0., 6.28140697e-04, 0.,
          1.25628139e-03, 6.28140697e-04, 0., 0., 6.28140697e-04,
          2.51256279e-03, 0., 0., 0., 6.28140697e-04, 6.28140697e-04,
          1.88442203e-03, 1.25628139e-03, 0., 1.25628139e-03,
          1.25628139e-03, 0., 0., 0., 6.28140697e-04, 6.28140697e-04, 0.,
          0., 6.28140697e-04, 0., 1.25628139e-03, 0., 1.25628139e-03,
          6.28140697e-04, 0., 6.28140697e-04, 1.25628139e-03,
          6.28140697e-04, 6.28140697e-04, 0., 0., 6.28140697e-04,
          6.28140697e-04, 1.25628139e-03, 1.25628139e-03, 0.,
          3.76884406e-03, 0., 0., 4.39698482e-03, 0., 6.28140697e-04, 0.,
          6.28140697e-04, 0., 0., 6.28140697e-04, 0., 6.28140697e-04, 0.,
          0., 6.28140697e-04, 0., 0., 3.76884406e-03, 0., 5.65326633e-03,
          6.28140697e-04, 0., 0., 0., 1.88442203e-03, 0., 0.,
          1.25628139e-03, 6.28140697e-04, 2.51256279e-03, 6.28140697e-04,
          0., 6.28140697e-04, 1.25628139e-03, 6.28140697e-04, 0.,
          6.28140697e-04, 4.39698482e-03, 0., 1.25628139e-03, 0.,
          6.28140697e-04, 0. ]
      - [ 1.60256412e-03, 1.60256412e-03, 0., 8.01282062e-04, 0., 0., 0.,
          8.01282062e-04, 0., 0., 0., 0., 1.60256412e-03, 8.01282062e-04,
          0., 0., 3.20512825e-03, 0., 8.01282062e-04, 0., 2.40384624e-03,
          0., 0., 8.01282062e-04, 8.01282062e-04, 8.01282062e-04,
          2.40384624e-03, 0., 1.60256412e-03, 8.01282062e-04,
          8.01282062e-04, 8.01282062e-04, 1.60256412e-03, 0., 0.,
          8.01282062e-04, 0., 0., 3.20512825e-03, 0., 0., 0., 0., 0., 0.,
          0., 0., 1.60256412e-03, 0., 8.01282062e-04, 0., 0., 0., 0., 0.,
          8.01282062e-04, 2.40384624e-03, 1.60256412e-03, 0.,
          3.20512825e-03, 8.01282062e-04, 0., 1.60256412e-03,
          8.01282062e-04, 0., 0., 8.01282062e-04, 0., 0., 8.01282062e-04,
          8.01282062e-04, 8.01282062e-04, 1.60256412e-03, 0., 0.,
          8.01282062e-04, 4.00641048e-03, 3.20512825e-03, 0.,
          8.01282062e-04, 0., 0., 8.01282062e-04, 1.60256412e-03, 0., 0.,
          8.01282062e-04, 8.01282062e-04, 0., 0., 1.60256412e-03, 0.,
          8.01282062e-04, 8.01282062e-04, 8.01282062e-04, 3.20512825e-03,
          0., 0., 0., 1.60256412e-03, 8.01282062e-04, 0., 1.60256412e-03,
          0., 1.60256412e-03, 2.40384624e-03, 8.01282062e-04, 0.,
          8.01282062e-04, 1.60256412e-03, 1.60256412e-03, 8.01282062e-04,
          3.20512825e-03, 0., 8.01282062e-04, 0., 2.40384624e-03, 0.,
          1.60256412e-03, 3.20512825e-03, 0., 0., 0., 0., 8.01282062e-04,
          0., 0., 6.41025649e-03, 0., 0., 0., 0., 8.01282062e-04, 0., 0.,
          1.60256412e-03, 4.80769249e-03, 0., 0., 0., 0., 0., 0.,
          1.60256412e-03, 1.60256412e-03, 8.01282062e-04, 0.,
          8.01282062e-04, 8.01282062e-04, 0., 8.01282062e-04, 0.,
          3.20512825e-03, 8.01282062e-04, 8.01282062e-04, 8.01282062e-04,
          8.01282062e-04, 0., 8.01282062e-04, 0., 3.20512825e-03,
          8.01282062e-04, 0., 8.01282062e-04, 0., 0., 0., 5.60897449e-03,
          8.01282062e-04, 0., 0., 0., 0., 8.01282062e-04, 8.01282062e-04,
          0., 1.60256412e-03, 0., 0., 0., 0., 0., 8.01282062e-04,
          8.01282062e-04, 8.01282062e-04, 0., 1.60256412e-03, 0.,
          1.60256412e-03, 1.60256412e-03, 8.01282062e-04, 0.,
          8.01282062e-04, 1.60256412e-03, 8.01282062e-04, 8.01282062e-04,
          0., 0., 0., 0., 8.01282062e-04, 8.01282062e-04, 0., 0., 0.,
          8.01282062e-04, 3.20512825e-03, 0., 0., 0., 0., 8.01282062e-04,
          0., 8.01282062e-04, 5.60897449e-03, 8.01282062e-04,
          2.40384624e-03, 8.01282062e-04, 0., 8.01282062e-04,
          3.20512825e-03, 0., 0., 8.01282062e-04, 0., 0., 0., 0., 0.,
          8.01282062e-04, 3.20512825e-03, 0., 0., 0., 0., 0., 0., 0.,
          8.01282062e-04, 0., 3.20512825e-03, 0., 0., 8.01282062e-04, 0.,
          0., 4.00641048e-03, 0., 0., 1.60256412e-03, 8.01282062e-04,
          1.60256412e-03, 8.01282062e-04, 0., 0., 0., 0., 0.,
          8.01282062e-04, 8.01282062e-04, 0., 1.60256412e-03, 0.,
          8.01282062e-04, 0., 0., 1.60256412e-03, 3.20512825e-03,
          8.01282062e-04, 0., 0., 0., 0., 1.60256412e-03, 1.60256412e-03,
          0., 0., 0., 0., 1.60256412e-03, 0., 0., 1.60256412e-03,
          4.00641048e-03, 0., 0., 0., 8.01282062e-04, 8.01282062e-04,
          8.01282062e-04, 8.01282062e-04, 8.01282062e-04, 0., 0.,
          8.01282062e-04, 8.01282062e-04, 8.01282062e-04, 1.60256412e-03,
          0., 0., 8.01282062e-04, 0., 0., 0., 0., 1.60256412e-03,
          6.41025649e-03, 0., 0., 8.01282062e-04, 8.01282062e-04,
          1.60256412e-03, 0., 0., 1.60256412e-03, 1.60256412e-03,
          2.40384624e-03, 0., 8.01282062e-04, 8.01282062e-04, 0.,
          8.01282062e-04, 1.04166670e-02, 0., 0., 8.01282062e-04, 0., 0.,
          8.01282062e-04, 0., 0., 8.01282062e-04, 8.01282062e-04, 0.,
          1.60256412e-03, 8.01282062e-04, 0., 8.01282097e-03,
          8.01282062e-04, 8.01282062e-04, 0., 0., 8.01282062e-04,
          1.60256412e-03, 1.60256412e-03, 4.80769249e-03, 0., 0., 0.,
          8.01282062e-04, 3.20512825e-03, 0., 1.60256412e-03,
          8.01282062e-04, 9.61538497e-03, 8.01282062e-04, 4.00641048e-03,
          0., 8.01282062e-04, 8.01282062e-04, 0., 0., 0., 1.60256412e-03,
          0., 8.01282097e-03, 2.40384624e-03, 4.00641048e-03, 0.,
          8.01282062e-04, 8.01282062e-04, 8.01282062e-04, 1.60256412e-03,
          0., 0., 8.01282062e-04, 8.01282062e-04, 1.60256412e-03,
          8.01282062e-04, 4.00641048e-03, 8.01282062e-04, 0.,
          2.40384624e-03, 0., 0., 0., 5.60897449e-03, 4.00641048e-03,
          8.01282062e-04, 0., 0., 3.20512825e-03, 1.60256412e-03, 0.,
          2.40384624e-03, 0., 8.01282062e-04, 0., 8.01282062e-04, 0., 0.,
          0., 2.40384624e-03, 0., 0., 0., 0., 2.40384624e-03, 0.,
          3.20512825e-03, 0., 0., 8.01282062e-04, 8.01282062e-04, 0.,
          8.01282062e-04, 0., 1.60256412e-03, 0., 8.01282062e-04, 0., 0.,
          8.01282062e-04, 1.60256412e-03, 0., 0., 0., 0., 0., 0.,
          8.01282062e-04, 0., 0., 0., 0., 0., 0., 4.00641048e-03,
          1.60256412e-03, 8.01282062e-04, 0., 8.01282062e-04,
          8.01282062e-04, 0., 0., 1.60256412e-03, 0., 0., 0.,
          3.20512825e-03, 0., 1.60256412e-03, 8.01282062e-04,
          1.60256412e-03, 8.01282062e-04, 0., 0., 0., 0., 1.60256412e-03,
          8.01282062e-04, 1.60256412e-03, 3.20512825e-03, 8.01282062e-04,
          0., 8.01282062e-04, 0., 0., 8.01282062e-04, 8.01282062e-04,
          3.20512825e-03, 1.60256412e-03, 3.20512825e-03, 8.81410297e-03,
          0., 8.01282062e-04, 8.01282062e-04, 0., 0., 2.40384624e-03, 0.,
          0., 0., 0., 0., 8.01282062e-04, 2.40384624e-03, 8.01282062e-04,
          3.20512825e-03, 0., 0., 0., 0., 2.40384624e-03, 0.,
          8.01282062e-04, 0., 8.01282062e-04, 0., 8.01282062e-04,
          8.01282062e-04, 8.01282062e-04, 4.00641048e-03, 8.01282062e-04,
          8.01282062e-04, 0., 0., 0., 8.01282062e-04, 0., 1.60256412e-03,
          0., 0., 0., 1.60256412e-03, 1.60256412e-03, 8.01282062e-04,
          3.20512825e-03, 0., 8.01282062e-04, 0., 4.00641048e-03, 0., 0.,
          8.01282062e-04, 0., 0., 8.01282062e-04, 0., 8.01282062e-04, 0.,
          0., 0., 0., 8.01282062e-04, 8.01282062e-04, 0., 0., 0., 0., 0.,
          2.40384624e-03, 1.60256412e-03, 1.60256412e-03, 0.,
          8.01282062e-04, 8.01282062e-04, 0., 8.01282062e-04, 0.,
          8.01282062e-04, 2.40384624e-03, 0., 0., 2.40384624e-03,
          8.01282062e-04, 0., 8.01282062e-04, 0., 0., 1.60256412e-03,
          8.01282062e-04, 3.20512825e-03, 8.01282062e-04, 0., 0.,
          1.60256412e-03, 0., 0., 8.01282062e-04, 8.01282062e-04,
          1.60256412e-03, 0., 0., 8.01282062e-04, 0., 0., 0., 0., 0.,
          4.00641048e-03, 0., 8.01282062e-04, 0., 0., 8.01282062e-04,
          1.60256412e-03, 8.01282062e-04, 8.01282062e-04, 0.,
          1.60256412e-03, 0., 8.01282062e-04, 1.60256412e-03, 0., 0.,
          1.60256412e-03, 0., 0., 8.01282062e-04, 8.01282062e-04,
