%YAML:1.0
my_svm: !!opencv-ml-svm
   svm_type: C_SVC
   kernel: { type:RBF, gamma:1. }
   C: 1.
   term_criteria: { epsilon:2.2204460492503131e-16, iterations:100 }
   var_all: 150
   var_count: 150
   class_count: 5
   class_labels: !!opencv-matrix
      rows: 1
      cols: 5
      dt: i
      data: [ 0, 1, 2, 3, 4 ]
   sv_total: 23
   support_vectors:
      - [ 7.51879718e-03, 9.39849671e-03, 1.31578948e-02, 1.87969930e-03,
          1.12781953e-02, 5.63909765e-03, 2.44360901e-02, 7.51879718e-03,
          7.51879718e-03, 1.12781953e-02, 9.39849671e-03, 1.87969930e-03,
          1.87969930e-03, 5.63909765e-03, 7.51879718e-03, 1.87969930e-03,
          1.12781953e-02, 1.12781953e-02, 1.12781953e-02, 1.12781953e-02,
          0., 9.39849671e-03, 1.12781953e-02, 9.39849671e-03,
          1.50375944e-02, 1.87969930e-03, 0., 1.87969930e-03,
          3.75939859e-03, 1.87969930e-03, 0., 1.87969930e-03,
          3.75939859e-03, 5.63909765e-03, 7.51879718e-03, 3.75939859e-03,
          1.12781953e-02, 1.87969930e-03, 1.87969930e-03, 1.87969930e-03,
          3.75939859e-03, 2.06766929e-02, 7.51879718e-03, 9.39849671e-03,
          1.87969930e-03, 1.12781953e-02, 5.63909765e-03, 1.12781953e-02,
          1.69172939e-02, 1.31578948e-02, 7.51879718e-03, 1.12781953e-02,
          1.87969930e-03, 9.39849671e-03, 5.63909765e-03, 1.12781953e-02,
          5.63909765e-03, 9.39849671e-03, 3.75939859e-03, 1.87969930e-03,
          0., 1.50375944e-02, 7.51879718e-03, 5.63909765e-03, 0.,
          7.51879718e-03, 1.87969930e-03, 1.87969930e-03, 7.51879718e-03,
          5.63909765e-03, 5.63909765e-03, 5.63909765e-03, 1.87969930e-03,
          1.87969930e-03, 2.25563906e-02, 1.12781953e-02, 3.75939859e-03,
          1.69172939e-02, 9.39849671e-03, 1.50375944e-02, 5.63909765e-03,
          0., 7.51879718e-03, 3.75939859e-03, 5.63909765e-03,
          1.31578948e-02, 3.75939859e-03, 3.75939859e-03, 9.39849671e-03,
          1.50375944e-02, 0., 1.87969930e-03, 5.63909765e-03,
          1.12781953e-02, 3.75939859e-03, 1.12781953e-02, 3.75939868e-02,
          7.51879718e-03, 9.39849671e-03, 3.75939859e-03, 5.63909765e-03,
          5.63909765e-03, 7.51879718e-03, 1.87969930e-03, 9.39849671e-03,
          1.31578948e-02, 0., 5.63909765e-03, 1.87969930e-03, 0., 0.,
          3.75939868e-02, 3.75939859e-03, 5.63909765e-03, 5.63909765e-03,
          3.75939859e-03, 3.75939859e-03, 1.87969930e-03, 0.,
          1.87969930e-03, 1.87969930e-03, 7.51879718e-03, 1.87969934e-02,
          1.87969930e-03, 1.12781953e-02, 0., 1.87969930e-03,
          1.12781953e-02, 3.75939859e-03, 1.87969930e-03, 3.75939859e-03,
          1.87969930e-03, 5.63909765e-03, 3.75939859e-03, 3.75939859e-03,
          3.75939859e-03, 1.50375944e-02, 7.51879718e-03, 3.75939859e-03,
          0., 1.87969930e-03, 3.75939859e-03, 0., 7.51879718e-03,
          5.63909765e-03, 7.51879718e-03, 0., 5.63909765e-03, 0.,
          1.87969930e-03 ]
      - [ 5.29100513e-03, 7.05467351e-03, 1.23456791e-02, 5.29100513e-03,
          1.05820103e-02, 8.81834142e-03, 2.11640205e-02, 7.05467351e-03,
          8.81834142e-03, 2.64550261e-02, 3.52733675e-03, 0., 0.,
          1.23456791e-02, 1.23456791e-02, 1.76366838e-03, 1.23456791e-02,
          8.81834142e-03, 5.29100513e-03, 1.05820103e-02, 1.76366838e-03,
          0., 1.23456791e-02, 8.81834142e-03, 1.23456791e-02,
          3.52733675e-03, 0., 1.76366838e-03, 1.76366838e-03,
          3.52733675e-03, 1.76366838e-03, 1.76366838e-03, 5.29100513e-03,
          5.29100513e-03, 1.23456791e-02, 5.29100513e-03, 1.76366828e-02,
          5.29100513e-03, 3.52733675e-03, 5.29100513e-03, 8.81834142e-03,
          1.58730149e-02, 1.05820103e-02, 1.76366838e-03, 1.76366838e-03,
          8.81834142e-03, 7.05467351e-03, 1.05820103e-02, 1.76366828e-02,
          1.76366828e-02, 1.76366838e-03, 3.52733675e-03, 0.,
          1.41093470e-02, 5.29100513e-03, 1.76366828e-02, 1.76366838e-03,
          5.29100513e-03, 1.76366838e-03, 3.52733675e-03, 1.76366838e-03,
          1.41093470e-02, 1.23456791e-02, 1.76366838e-03, 1.76366838e-03,
          3.52733675e-03, 1.76366838e-03, 5.29100513e-03, 8.81834142e-03,
          5.29100513e-03, 3.52733675e-03, 3.52733675e-03, 1.76366838e-03,
          1.76366838e-03, 7.05467351e-03, 8.81834142e-03, 3.52733675e-03,
          1.58730149e-02, 3.52733675e-03, 1.05820103e-02, 8.81834142e-03,
          0., 7.05467351e-03, 1.76366838e-03, 1.76366838e-03,
          1.94003526e-02, 8.81834142e-03, 1.76366838e-03, 7.05467351e-03,
          7.05467351e-03, 1.76366838e-03, 7.05467351e-03, 5.29100513e-03,
          1.76366828e-02, 5.29100513e-03, 8.81834142e-03, 4.40917090e-02,
          5.29100513e-03, 8.81834142e-03, 5.29100513e-03, 8.81834142e-03,
          5.29100513e-03, 8.81834142e-03, 1.76366838e-03, 3.52733675e-03,
          1.41093470e-02, 0., 3.52733675e-03, 7.05467351e-03,
          7.05467351e-03, 0., 3.35096978e-02, 1.76366838e-03,
          8.81834142e-03, 7.05467351e-03, 7.05467351e-03, 8.81834142e-03,
          0., 3.52733675e-03, 0., 3.52733675e-03, 1.76366838e-03,
          1.05820103e-02, 5.29100513e-03, 5.29100513e-03, 0.,
          1.76366838e-03, 3.52733675e-03, 3.52733675e-03, 1.76366838e-03,
          8.81834142e-03, 0., 1.05820103e-02, 1.58730149e-02,
          7.05467351e-03, 1.76366838e-03, 1.41093470e-02, 0.,
          3.52733675e-03, 0., 5.29100513e-03, 5.29100513e-03, 0.,
          3.52733675e-03, 5.29100513e-03, 7.05467351e-03, 1.76366838e-03,
          5.29100513e-03, 1.76366838e-03, 1.76366838e-03 ]
      - [ 5.53505542e-03, 5.53505542e-03, 5.53505542e-03, 1.84501847e-03,
          7.38007389e-03, 3.69003695e-03, 1.66051667e-02, 9.22509283e-03,
          1.10701108e-02, 1.47601478e-02, 1.10701108e-02, 0.,
          1.84501847e-03, 5.53505542e-03, 1.10701108e-02, 1.84501847e-03,
          1.47601478e-02, 1.10701108e-02, 5.53505542e-03, 1.29151288e-02,
          0., 0., 1.47601478e-02, 9.22509283e-03, 1.47601478e-02,
          3.69003695e-03, 3.69003695e-03, 1.84501847e-03, 1.84501847e-03,
          3.69003695e-03, 0., 0., 1.84501847e-03, 5.53505542e-03,
          7.38007389e-03, 1.84501847e-03, 1.47601478e-02, 5.53505542e-03,
          1.84501847e-03, 3.69003695e-03, 7.38007389e-03, 1.84501857e-02,
          7.38007389e-03, 0., 1.84501847e-03, 1.10701108e-02,
          3.69003695e-03, 1.47601478e-02, 2.02952027e-02, 1.84501857e-02,
          5.53505542e-03, 9.22509283e-03, 1.84501847e-03, 1.10701108e-02,
          9.22509283e-03, 9.22509283e-03, 5.53505542e-03, 9.22509283e-03,
          7.38007389e-03, 1.84501847e-03, 1.84501847e-03, 1.10701108e-02,
          1.10701108e-02, 3.69003695e-03, 0., 7.38007389e-03,
          3.69003695e-03, 3.69003695e-03, 1.10701108e-02, 9.22509283e-03,
          7.38007389e-03, 5.53505542e-03, 1.84501847e-03, 3.69003695e-03,
          9.22509283e-03, 9.22509283e-03, 9.22509283e-03, 9.22509283e-03,
          5.53505542e-03, 7.38007389e-03, 7.38007389e-03, 0.,
          3.69003695e-03, 3.69003695e-03, 5.53505542e-03, 1.84501857e-02,
          9.22509283e-03, 1.84501847e-03, 7.38007389e-03, 9.22509283e-03,
          0., 5.53505542e-03, 5.53505542e-03, 1.66051667e-02,
          7.38007389e-03, 9.22509283e-03, 4.24354263e-02, 0.,
          1.29151288e-02, 7.38007389e-03, 5.53505542e-03, 3.69003695e-03,
          9.22509283e-03, 3.69003695e-03, 5.53505542e-03, 1.29151288e-02,
          0., 3.69003695e-03, 1.84501847e-03, 1.84501847e-03, 0.,
          3.50553505e-02, 1.84501847e-03, 1.29151288e-02, 7.38007389e-03,
          1.29151288e-02, 7.38007389e-03, 0., 3.69003695e-03,
          1.84501847e-03, 5.53505542e-03, 7.38007389e-03, 7.38007389e-03,
          5.53505542e-03, 7.38007389e-03, 0., 3.69003695e-03,
          9.22509283e-03, 0., 1.84501847e-03, 3.69003695e-03, 0.,
          7.38007389e-03, 1.29151288e-02, 3.69003695e-03, 0.,
          1.29151288e-02, 1.84501847e-03, 3.69003695e-03, 0.,
          5.53505542e-03, 7.38007389e-03, 1.84501847e-03, 5.53505542e-03,
          9.22509283e-03, 5.53505542e-03, 0., 7.38007389e-03, 0.,
          1.84501847e-03 ]
      - [ 5.42005431e-03, 8.13008100e-03, 1.89701896e-02, 5.42005431e-03,
          1.62601620e-02, 2.71002715e-03, 1.89701896e-02, 2.71002715e-03,
          2.71002715e-03, 2.16802172e-02, 5.42005431e-03, 0.,
          2.71002715e-03, 2.71002715e-03, 8.13008100e-03, 5.42005431e-03,
          1.35501362e-02, 1.35501362e-02, 5.42005431e-03, 5.42005431e-03,
          0., 2.71002715e-03, 8.13008100e-03, 8.13008100e-03,
          1.35501362e-02, 5.42005431e-03, 0., 2.71002715e-03,
          8.13008100e-03, 2.71002715e-03, 2.71002715e-03, 5.42005431e-03,
          1.08401086e-02, 0., 2.71002715e-03, 0., 1.62601620e-02, 0., 0.,
          8.13008100e-03, 2.71002715e-03, 8.13008100e-03, 8.13008100e-03,
          2.71002715e-03, 0., 1.35501362e-02, 1.35501362e-02, 0.,
          1.89701896e-02, 1.35501362e-02, 2.71002715e-03, 5.42005431e-03,
          0., 1.08401086e-02, 0., 3.25203240e-02, 2.71002715e-03,
          1.35501362e-02, 5.42005431e-03, 2.71002715e-03, 2.71002715e-03,
          8.13008100e-03, 1.08401086e-02, 2.71002715e-03, 2.71002715e-03,
          8.13008100e-03, 2.71002715e-03, 1.08401086e-02, 5.42005431e-03,
          5.42005431e-03, 2.71002715e-03, 2.71002715e-03, 5.42005431e-03,
          0., 2.71002715e-03, 2.71002715e-03, 5.42005431e-03,
          8.13008100e-03, 1.08401086e-02, 8.13008100e-03, 1.08401086e-02,
          0., 8.13008100e-03, 2.71002715e-03, 8.13008100e-03,
          2.43902449e-02, 1.89701896e-02, 2.71002715e-03, 1.62601620e-02,
          8.13008100e-03, 0., 8.13008100e-03, 2.71002715e-03,
          2.16802172e-02, 1.08401086e-02, 5.42005431e-03, 2.16802172e-02,
          2.71002715e-03, 1.35501362e-02, 1.08401086e-02, 8.13008100e-03,
          8.13008100e-03, 5.42005431e-03, 5.42005431e-03, 8.13008100e-03,
          5.42005431e-03, 0., 2.71002715e-03, 0., 5.42005431e-03,
          2.71002715e-03, 2.71002725e-02, 0., 1.08401086e-02,
          1.08401086e-02, 1.35501362e-02, 8.13008100e-03, 0.,
          2.71002715e-03, 5.42005431e-03, 1.08401086e-02, 2.71002715e-03,
          1.89701896e-02, 8.13008100e-03, 8.13008100e-03, 0.,
          2.71002715e-03, 2.71002715e-03, 2.71002715e-03, 0.,
          5.42005431e-03, 0., 0., 1.89701896e-02, 5.42005431e-03,
          8.13008100e-03, 1.62601620e-02, 5.42005431e-03, 2.71002715e-03,
          0., 2.71002715e-03, 2.71002715e-03, 0., 5.42005431e-03,
          8.13008100e-03, 5.42005431e-03, 0., 0., 0., 0. ]
      - [ 6.55737706e-03, 9.83606558e-03, 2.62295082e-02, 0.,
          9.83606558e-03, 0., 1.63934417e-02, 9.83606558e-03,
          9.83606558e-03, 2.29508206e-02, 6.55737706e-03, 0., 0.,
          9.83606558e-03, 1.63934417e-02, 9.83606558e-03, 1.63934417e-02,
          1.63934417e-02, 6.55737706e-03, 3.27868853e-03, 0.,
          3.27868853e-03, 1.96721312e-02, 1.31147541e-02, 6.55737706e-03,
          3.27868853e-03, 0., 3.27868853e-03, 3.27868853e-03, 0., 0., 0.,
          6.55737706e-03, 3.27868853e-03, 0., 0., 1.31147541e-02, 0., 0.,
          0., 3.27868853e-03, 6.55737706e-03, 3.27868853e-03,
          9.83606558e-03, 3.27868853e-03, 1.63934417e-02, 6.55737706e-03,
          6.55737706e-03, 3.27868834e-02, 1.31147541e-02, 3.27868853e-03,
          1.31147541e-02, 0., 9.83606558e-03, 0., 4.26229499e-02,
          3.27868853e-03, 1.96721312e-02, 6.55737706e-03, 6.55737706e-03,
          3.27868853e-03, 9.83606558e-03, 1.31147541e-02, 3.27868853e-03,
          3.27868853e-03, 1.63934417e-02, 3.27868853e-03, 3.27868853e-03,
          3.27868853e-03, 0., 0., 3.27868853e-03, 3.27868853e-03, 0.,
          6.55737706e-03, 1.31147541e-02, 3.27868853e-03, 6.55737706e-03,
          6.55737706e-03, 6.55737706e-03, 1.63934417e-02, 0.,
          1.31147541e-02, 3.27868853e-03, 9.83606558e-03, 1.31147541e-02,
          2.95081958e-02, 0., 1.96721312e-02, 1.31147541e-02,
          3.27868853e-03, 6.55737706e-03, 0., 4.59016412e-02,
          9.83606558e-03, 0., 9.83606558e-03, 0., 6.55737706e-03,
          3.27868853e-03, 6.55737706e-03, 6.55737706e-03, 3.27868853e-03,
          3.27868853e-03, 9.83606558e-03, 1.63934417e-02, 3.27868853e-03,
          0., 0., 3.27868853e-03, 3.27868853e-03, 1.31147541e-02, 0.,
          3.27868853e-03, 3.27868853e-03, 0., 3.27868853e-03, 0.,
          3.27868853e-03, 3.27868853e-03, 3.27868853e-03, 3.27868853e-03,
          1.63934417e-02, 0., 6.55737706e-03, 0., 6.55737706e-03,
          9.83606558e-03, 0., 0., 9.83606558e-03, 0., 6.55737706e-03,
          9.83606558e-03, 9.83606558e-03, 9.83606558e-03, 3.27868853e-03,
          6.55737706e-03, 0., 0., 3.27868853e-03, 0., 0., 3.27868853e-03,
          3.27868853e-03, 6.55737706e-03, 0., 6.55737706e-03, 0., 0. ]
      - [ 4.62962966e-03, 4.62962966e-03, 9.25925933e-03, 0.,
          4.62962966e-03, 4.62962966e-03, 1.85185187e-02, 2.31481483e-03,
          6.94444450e-03, 4.62962966e-03, 1.38888890e-02, 4.62962966e-03,
          2.31481483e-03, 4.62962966e-03, 6.94444450e-03, 4.62962966e-03,
          9.25925933e-03, 1.62037034e-02, 6.94444450e-03, 0.,
          4.62962966e-03, 4.62962966e-03, 1.38888890e-02, 1.15740746e-02,
          1.38888890e-02, 4.62962966e-03, 2.31481483e-03, 2.31481483e-03,
          6.94444450e-03, 2.31481483e-03, 0., 4.62962966e-03,
          2.31481483e-03, 4.62962966e-03, 2.31481483e-03, 2.31481483e-03,
          2.77777780e-02, 2.31481483e-03, 4.62962966e-03, 0.,
          4.62962966e-03, 2.08333340e-02, 9.25925933e-03, 6.94444450e-03,
          2.31481483e-03, 2.08333340e-02, 9.25925933e-03, 1.38888890e-02,
          2.08333340e-02, 1.38888890e-02, 4.62962966e-03, 6.94444450e-03,
          0., 1.15740746e-02, 4.62962966e-03, 1.85185187e-02,
          6.94444450e-03, 9.25925933e-03, 6.94444450e-03, 4.62962966e-03,
          2.31481483e-03, 1.62037034e-02, 2.31481483e-03, 4.62962966e-03,
          4.62962966e-03, 4.62962966e-03, 0., 2.31481483e-03,
          4.62962966e-03, 6.94444450e-03, 4.62962966e-03, 2.31481483e-03,
          2.31481483e-03, 2.31481483e-03, 9.25925933e-03, 6.94444450e-03,
          4.62962966e-03, 6.94444450e-03, 4.62962966e-03, 6.94444450e-03,
          1.38888890e-02, 0., 9.25925933e-03, 4.62962966e-03,
          9.25925933e-03, 1.62037034e-02, 1.62037034e-02, 0.,
          1.38888890e-02, 9.25925933e-03, 0., 2.31481483e-03, 0.,
          3.00925933e-02, 4.62962966e-03, 2.31481483e-03, 2.08333340e-02,
          2.31481483e-03, 1.85185187e-02, 2.31481483e-03, 4.62962966e-03,
          1.15740746e-02, 9.25925933e-03, 2.31481483e-03, 9.25925933e-03,
          1.62037034e-02, 0., 4.62962966e-03, 0., 4.62962966e-03,
          2.31481483e-03, 2.31481493e-02, 4.62962966e-03, 1.15740746e-02,
          4.62962966e-03, 4.62962966e-03, 9.25925933e-03, 0.,
          4.62962966e-03, 6.94444450e-03, 4.62962966e-03, 9.25925933e-03,
          1.38888890e-02, 2.31481483e-03, 4.62962966e-03, 2.31481483e-03,
          4.62962966e-03, 6.94444450e-03, 4.62962966e-03, 0.,
          4.62962966e-03, 0., 9.25925933e-03, 9.25925933e-03,
          9.25925933e-03, 2.31481483e-03, 9.25925933e-03, 4.62962966e-03,
          2.31481483e-03, 2.31481483e-03, 0., 4.62962966e-03,
          4.62962966e-03, 4.62962966e-03, 4.62962966e-03, 4.62962966e-03,
          2.31481483e-03, 9.25925933e-03, 2.31481483e-03, 2.31481483e-03 ]
      - [ 7.11743813e-03, 5.93119813e-03, 1.30486358e-02, 1.06761567e-02,
          3.55871907e-03, 4.74495860e-03, 2.37247925e-02, 1.30486358e-02,
          8.30367766e-03, 4.86358255e-02, 4.74495860e-03, 5.93119813e-03,
          2.37247930e-03, 3.55871907e-03, 1.30486358e-02, 5.93119813e-03,
          4.74495860e-03, 1.06761567e-02, 8.30367766e-03, 9.48991720e-03,
          1.18623965e-03, 1.66073553e-02, 4.74495860e-03, 1.18623963e-02,
          3.55871907e-03, 7.11743813e-03, 5.93119813e-03, 1.18623965e-03,
          8.30367766e-03, 3.55871907e-03, 1.18623965e-03, 7.11743813e-03,
          1.18623965e-03, 5.93119813e-03, 2.37247930e-03, 0.,
          9.48991720e-03, 2.37247930e-03, 2.37247930e-03, 7.11743813e-03,
          2.37247930e-03, 2.37247930e-03, 5.93119813e-03, 5.93119813e-03,
          0., 1.42348763e-02, 4.74495860e-03, 1.66073553e-02,
          4.74495860e-03, 7.11743813e-03, 7.11743813e-03, 1.42348763e-02,
          2.37247930e-03, 5.93119813e-03, 1.30486358e-02, 1.06761567e-02,
          3.55871907e-03, 4.74495860e-03, 5.93119813e-03, 3.55871907e-03,
          3.55871907e-03, 2.37247930e-03, 5.93119813e-03, 0., 0.,
          8.30367766e-03, 2.37247930e-03, 3.55871907e-03, 5.93119813e-03,
          3.55871907e-03, 1.18623965e-03, 4.74495860e-03, 0.,
          2.37247930e-03, 4.74495860e-03, 9.48991720e-03, 2.37247930e-03,
          1.18623963e-02, 9.48991720e-03, 1.18623965e-03, 3.55871907e-03,
          2.37247930e-03, 7.11743813e-03, 5.93119813e-03, 2.37247930e-03,
          3.55871907e-03, 4.74495860e-03, 3.55871907e-03, 2.01660749e-02,
          2.37247930e-03, 9.48991720e-03, 4.74495860e-03, 5.93119813e-03,
          2.13523135e-02, 2.37247930e-03, 1.42348763e-02, 8.30367766e-03,
          5.93119813e-03, 9.48991720e-03, 4.74495860e-03, 8.30367766e-03,
          5.93119813e-03, 7.11743813e-03, 3.55871907e-03, 2.37247930e-03,
          5.93119813e-03, 0., 2.37247930e-03, 1.06761567e-02,
          3.55871907e-03, 5.93119813e-03, 2.37247930e-03, 2.37247930e-03,
          1.54211158e-02, 1.42348763e-02, 5.93119813e-03, 4.74495860e-03,
          2.37247930e-03, 2.37247930e-03, 2.37247930e-03, 1.06761567e-02,
          4.74495860e-03, 1.54211158e-02, 2.37247930e-03, 7.11743813e-03,
          1.18623965e-03, 3.55871907e-03, 1.30486358e-02, 3.55871907e-03,
          5.93119813e-03, 7.11743813e-03, 5.93119813e-03, 1.18623963e-02,
          2.37247930e-03, 4.74495860e-03, 7.11743813e-03, 1.66073553e-02,
          7.11743813e-03, 7.11743813e-03, 5.93119813e-03, 5.93119813e-03,
          1.06761567e-02, 1.18623965e-03, 5.93119813e-03, 1.06761567e-02,
          1.42348763e-02, 9.48991720e-03, 9.48991720e-03, 0.,
          9.48991720e-03 ]
      - [ 1.11111104e-02, 5.55555522e-03, 1.66666657e-02, 5.55555522e-03,
          1.85185182e-03, 1.85185182e-03, 2.40740739e-02, 7.40740728e-03,
          9.25925933e-03, 4.07407396e-02, 5.55555522e-03, 5.55555522e-03,
          1.85185182e-03, 3.70370364e-03, 5.55555522e-03, 5.55555522e-03,
          3.70370364e-03, 1.48148146e-02, 1.11111104e-02, 9.25925933e-03,
          0., 1.11111104e-02, 1.85185182e-03, 1.29629625e-02,
          9.25925933e-03, 5.55555522e-03, 3.70370364e-03, 0.,
          9.25925933e-03, 7.40740728e-03, 3.70370364e-03, 9.25925933e-03,
          3.70370364e-03, 3.70370364e-03, 7.40740728e-03, 0.,
          1.11111104e-02, 3.70370364e-03, 3.70370364e-03, 1.85185182e-03,
          9.25925933e-03, 3.70370364e-03, 7.40740728e-03, 1.11111104e-02,
          0., 1.66666657e-02, 1.11111104e-02, 9.25925933e-03,
          9.25925933e-03, 7.40740728e-03, 5.55555522e-03, 1.29629625e-02,
          1.85185182e-03, 7.40740728e-03, 7.40740728e-03, 1.29629625e-02,
          1.85185182e-03, 1.11111104e-02, 1.85185182e-03, 7.40740728e-03,
          5.55555522e-03, 5.55555522e-03, 9.25925933e-03, 3.70370364e-03,
          0., 3.70370364e-03, 5.55555522e-03, 1.85185182e-03,
          5.55555522e-03, 5.55555522e-03, 0., 7.40740728e-03, 0.,
          1.85185182e-03, 0., 7.40740728e-03, 1.85185182e-03,
          7.40740728e-03, 7.40740728e-03, 3.70370364e-03, 3.70370364e-03,
          1.85185182e-03, 7.40740728e-03, 5.55555522e-03, 1.85185182e-03,
          7.40740728e-03, 5.55555522e-03, 0., 1.85185187e-02,
          5.55555522e-03, 9.25925933e-03, 3.70370364e-03, 7.40740728e-03,
          1.11111104e-02, 1.85185182e-03, 1.48148146e-02, 1.48148146e-02,
          3.70370364e-03, 1.85185182e-03, 1.85185182e-03, 5.55555522e-03,
          9.25925933e-03, 1.11111104e-02, 3.70370364e-03, 5.55555522e-03,
          1.29629625e-02, 0., 5.55555522e-03, 2.03703698e-02,
          1.85185182e-03, 7.40740728e-03, 3.70370364e-03, 3.70370364e-03,
          1.11111104e-02, 1.11111104e-02, 1.85185182e-03, 1.29629625e-02,
          0., 3.70370364e-03, 9.25925933e-03, 9.25925933e-03,
          3.70370364e-03, 9.25925933e-03, 1.85185182e-03, 3.70370364e-03,
          0., 9.25925933e-03, 7.40740728e-03, 3.70370364e-03,
          3.70370364e-03, 9.25925933e-03, 5.55555522e-03, 5.55555522e-03,
          1.85185182e-03, 7.40740728e-03, 5.55555522e-03, 9.25925933e-03,
          5.55555522e-03, 1.29629625e-02, 1.11111104e-02, 1.85185182e-03,
          7.40740728e-03, 5.55555522e-03, 1.48148146e-02, 5.55555522e-03,
          9.25925933e-03, 7.40740728e-03, 9.25925933e-03, 0.,
          5.55555522e-03 ]
      - [ 7.75193796e-03, 5.16795879e-03, 2.84237731e-02, 7.75193796e-03,
          5.16795879e-03, 7.75193796e-03, 2.06718352e-02, 1.80878565e-02,
          2.58397940e-03, 4.13436703e-02, 5.16795879e-03, 7.75193796e-03,
          0., 2.58397940e-03, 1.29198972e-02, 5.16795879e-03,
          2.58397940e-03, 1.03359176e-02, 5.16795879e-03, 1.03359176e-02,
          0., 2.06718352e-02, 5.16795879e-03, 5.16795879e-03,
          5.16795879e-03, 1.03359176e-02, 5.16795879e-03, 0.,
          7.75193796e-03, 2.58397940e-03, 5.16795879e-03, 1.55038759e-02,
          2.58397940e-03, 5.16795879e-03, 0., 0., 7.75193796e-03,
          5.16795879e-03, 0., 5.16795879e-03, 1.03359176e-02,
          2.58397940e-03, 7.75193796e-03, 1.80878565e-02, 0.,
          1.80878565e-02, 5.16795879e-03, 7.75193796e-03, 5.16795879e-03,
          1.55038759e-02, 2.58397940e-03, 1.55038759e-02, 2.58397940e-03,
          7.75193796e-03, 1.29198972e-02, 1.03359176e-02, 0.,
          1.55038759e-02, 0., 1.29198972e-02, 5.16795879e-03,
          7.75193796e-03, 5.16795879e-03, 5.16795879e-03, 0.,
          2.58397940e-03, 2.58397940e-03, 2.58397940e-03, 2.58397940e-03,
          0., 0., 5.16795879e-03, 0., 2.58397940e-03, 0., 1.03359176e-02,
          2.58397940e-03, 7.75193796e-03, 1.55038759e-02, 5.16795879e-03,
          5.16795879e-03, 0., 5.16795879e-03, 7.75193796e-03, 0.,
          7.75193796e-03, 7.75193796e-03, 5.16795879e-03, 1.03359176e-02,
          1.55038759e-02, 1.03359176e-02, 5.16795879e-03, 7.75193796e-03,
          2.84237731e-02, 7.75193796e-03, 1.03359176e-02, 7.75193796e-03,
          2.58397940e-03, 5.16795879e-03, 2.58397940e-03, 7.75193796e-03,
          5.16795879e-03, 1.29198972e-02, 2.58397940e-03, 5.16795879e-03,
          1.29198972e-02, 0., 0., 1.29198972e-02, 2.58397940e-03,
          1.29198972e-02, 2.58397940e-03, 2.58397940e-03, 7.75193796e-03,
          1.29198972e-02, 7.75193796e-03, 2.58397940e-03, 2.58397940e-03,
          2.58397940e-03, 2.58397940e-03, 7.75193796e-03, 2.58397940e-03,
          7.75193796e-03, 2.58397940e-03, 2.58397940e-03, 2.58397940e-03,
          2.58397940e-03, 2.58397940e-03, 2.58397940e-03, 5.16795879e-03,
          5.16795879e-03, 0., 1.80878565e-02, 0., 2.58397940e-03,
          2.58397940e-03, 1.29198972e-02, 2.58397940e-03, 1.03359176e-02,
          5.16795879e-03, 0., 1.03359176e-02, 1.03359176e-02,
          7.75193796e-03, 7.75193796e-03, 7.75193796e-03, 2.58397940e-03,
          1.03359176e-02, 0., 5.16795879e-03 ]
      - [ 6.28930796e-03, 0., 1.57232694e-02, 3.14465398e-03,
          9.43396240e-03, 0., 2.83018854e-02, 1.25786159e-02,
          3.14465398e-03, 3.77358496e-02, 3.14465398e-03, 1.25786159e-02,
          0., 3.14465398e-03, 1.25786159e-02, 3.14465398e-03, 0.,
          3.14465398e-03, 9.43396240e-03, 1.57232694e-02, 0.,
          1.57232694e-02, 3.14465398e-03, 6.28930796e-03, 0.,
          6.28930796e-03, 3.14465398e-03, 0., 3.14465398e-03, 0.,
          9.43396240e-03, 1.88679248e-02, 6.28930796e-03, 0.,
          3.14465398e-03, 0., 6.28930796e-03, 3.14465398e-03, 0.,
          9.43396240e-03, 6.28930796e-03, 0., 1.25786159e-02,
          1.88679248e-02, 0., 1.25786159e-02, 9.43396240e-03,
          1.25786159e-02, 6.28930796e-03, 1.57232694e-02, 0.,
          1.57232694e-02, 3.14465398e-03, 1.25786159e-02, 1.88679248e-02,
          1.57232694e-02, 9.43396240e-03, 9.43396240e-03, 0.,
          6.28930796e-03, 3.14465398e-03, 6.28930796e-03, 3.14465398e-03,
          6.28930796e-03, 0., 3.14465398e-03, 3.14465398e-03,
          6.28930796e-03, 9.43396240e-03, 6.28930796e-03, 3.14465398e-03,
          3.14465398e-03, 0., 0., 6.28930796e-03, 3.14465398e-03,
          3.14465398e-03, 9.43396240e-03, 9.43396240e-03, 3.14465398e-03,
          1.25786159e-02, 0., 6.28930796e-03, 6.28930796e-03, 0.,
          9.43396240e-03, 9.43396240e-03, 0., 2.20125783e-02,
          6.28930796e-03, 3.14465398e-03, 6.28930796e-03, 1.25786159e-02,
          1.25786159e-02, 0., 1.88679248e-02, 9.43396240e-03,
          3.14465398e-03, 1.25786159e-02, 3.14465398e-03, 9.43396240e-03,
          3.14465398e-03, 1.25786159e-02, 6.28930796e-03, 6.28930796e-03,
          1.57232694e-02, 0., 3.14465398e-03, 9.43396240e-03,
          9.43396240e-03, 1.25786159e-02, 3.14465398e-03, 6.28930796e-03,
          9.43396240e-03, 1.25786159e-02, 6.28930796e-03, 6.28930796e-03,
          0., 6.28930796e-03, 3.14465398e-03, 6.28930796e-03,
          9.43396240e-03, 6.28930796e-03, 0., 6.28930796e-03,
          6.28930796e-03, 3.14465398e-03, 9.43396240e-03, 3.14465398e-03,
          3.14465398e-03, 3.14465398e-03, 6.28930796e-03, 1.25786159e-02,
          0., 3.14465398e-03, 3.14465398e-03, 9.43396240e-03,
          3.14465398e-03, 3.14465398e-03, 0., 0., 9.43396240e-03,
          6.28930796e-03, 9.43396240e-03, 9.43396240e-03, 9.43396240e-03,
          0., 9.43396240e-03, 0., 6.28930796e-03 ]
      - [ 1.08254394e-02, 4.05953964e-03, 1.48849795e-02, 8.11907928e-03,
          5.41271968e-03, 6.76589971e-03, 3.11231390e-02, 1.35317994e-02,
          8.11907928e-03, 4.73612957e-02, 4.05953964e-03, 6.76589971e-03,
          0., 4.05953964e-03, 9.47225932e-03, 4.05953964e-03,
          2.70635984e-03, 1.21786194e-02, 6.76589971e-03, 6.76589971e-03,
          0., 1.08254394e-02, 2.70635984e-03, 1.62381586e-02,
          8.11907928e-03, 5.41271968e-03, 5.41271968e-03, 0.,
          9.47225932e-03, 5.41271968e-03, 1.35317992e-03, 1.21786194e-02,
          8.11907928e-03, 1.35317992e-03, 5.41271968e-03, 0.,
          9.47225932e-03, 2.70635984e-03, 1.35317992e-03, 6.76589971e-03,
          4.05953964e-03, 6.76589971e-03, 1.48849795e-02, 5.41271968e-03,
          0., 1.62381586e-02, 4.05953964e-03, 9.47225932e-03,
          4.05953964e-03, 8.11907928e-03, 8.11907928e-03, 8.11907928e-03,
          0., 5.41271968e-03, 1.08254394e-02, 1.21786194e-02,
          5.41271968e-03, 2.70635984e-03, 5.41271968e-03, 6.76589971e-03,
          6.76589971e-03, 5.41271968e-03, 6.76589971e-03, 8.11907928e-03,
          1.35317992e-03, 8.11907928e-03, 2.70635984e-03, 2.70635984e-03,
          1.35317992e-03, 5.41271968e-03, 1.35317992e-03, 6.76589971e-03,
          1.35317992e-03, 1.35317992e-03, 5.41271968e-03, 9.47225932e-03,
          1.35317992e-03, 8.11907928e-03, 9.47225932e-03, 4.05953964e-03,
          4.05953964e-03, 1.35317992e-03, 8.11907928e-03, 6.76589971e-03,
          8.11907928e-03, 1.35317992e-03, 5.41271968e-03, 0.,
          1.48849795e-02, 4.05953964e-03, 1.21786194e-02, 1.08254394e-02,
          4.05953964e-03, 1.89445186e-02, 2.70635984e-03, 1.21786194e-02,
          1.21786194e-02, 9.47225932e-03, 8.11907928e-03, 5.41271968e-03,
          1.08254394e-02, 6.76589971e-03, 1.48849795e-02, 2.70635984e-03,
          2.70635984e-03, 9.47225932e-03, 0., 6.76589971e-03,
          1.35317994e-02, 4.05953964e-03, 6.76589971e-03, 8.11907928e-03,
          2.70635984e-03, 1.35317994e-02, 1.21786194e-02, 4.05953964e-03,
          4.05953964e-03, 1.35317992e-03, 5.41271968e-03, 9.47225932e-03,
          5.41271968e-03, 2.70635984e-03, 1.35317992e-03, 0.,
          2.70635984e-03, 2.70635984e-03, 4.05953964e-03, 4.05953964e-03,
          2.70635984e-03, 4.05953964e-03, 5.41271968e-03, 5.41271968e-03,
          9.47225932e-03, 2.70635984e-03, 4.05953964e-03, 4.05953964e-03,
          8.11907928e-03, 6.76589971e-03, 4.05953964e-03, 9.47225932e-03,
          4.05953964e-03, 6.76589971e-03, 4.05953964e-03, 5.41271968e-03,
          4.05953964e-03, 1.62381586e-02, 1.35317994e-02, 8.11907928e-03,
          0., 4.05953964e-03 ]
      - [ 7.17360119e-04, 1.14777619e-02, 8.60832166e-03, 9.32568125e-03,
          1.00430418e-02, 7.17360119e-04, 5.73888095e-03, 7.89096113e-03,
          8.60832166e-03, 5.02152089e-03, 6.45624101e-03, 5.02152089e-03,
          4.30416083e-03, 7.17360107e-03, 3.58680054e-03, 5.73888095e-03,
          1.07604014e-02, 5.02152089e-03, 8.60832166e-03, 5.73888095e-03,
          5.73888095e-03, 6.45624101e-03, 1.00430418e-02, 1.21951224e-02,
          9.32568125e-03, 7.17360107e-03, 5.73888095e-03, 1.43472021e-02,
          1.43472024e-03, 0., 7.89096113e-03, 4.30416083e-03,
          7.17360119e-04, 5.73888095e-03, 1.00430418e-02, 3.58680054e-03,
          6.45624101e-03, 7.17360119e-04, 6.45624101e-03, 2.15208041e-03,
          5.02152089e-03, 2.15208041e-03, 3.58680054e-03, 5.02152089e-03,
          7.89096113e-03, 1.43472024e-03, 6.45624101e-03, 5.73888095e-03,
          2.86944048e-03, 3.58680054e-03, 5.73888095e-03, 1.07604014e-02,
          6.45624101e-03, 8.60832166e-03, 1.00430418e-02, 3.58680054e-03,
          1.29124820e-02, 2.86944048e-03, 3.58680054e-03, 6.45624101e-03,
          6.45624101e-03, 6.45624101e-03, 7.17360107e-03, 1.43472024e-03,
          7.17360119e-04, 9.32568125e-03, 4.30416083e-03, 8.60832166e-03,
          1.14777619e-02, 1.00430418e-02, 5.02152089e-03, 9.32568125e-03,
          7.17360119e-04, 8.60832166e-03, 8.60832166e-03, 1.14777619e-02,
          5.02152089e-03, 1.21951224e-02, 1.00430418e-02, 3.58680054e-03,
          1.21951224e-02, 1.07604014e-02, 6.45624101e-03, 7.89096113e-03,
          7.89096113e-03, 7.17360119e-04, 3.58680054e-03, 3.58680054e-03,
          8.60832166e-03, 1.43472024e-03, 4.30416083e-03, 8.60832166e-03,
          8.60832166e-03, 0., 4.30416083e-03, 8.60832166e-03,
          7.17360119e-04, 1.79340038e-02, 1.14777619e-02, 7.17360107e-03,
          7.17360107e-03, 1.14777619e-02, 5.73888095e-03, 5.02152089e-03,
          4.30416083e-03, 0., 1.50645627e-02, 8.60832166e-03,
          9.32568125e-03, 2.15208041e-03, 7.89096113e-03, 1.21951224e-02,
          2.15208041e-03, 1.14777619e-02, 5.73888095e-03, 2.86944048e-03,
          3.58680054e-03, 1.29124820e-02, 1.43472024e-03, 7.89096113e-03,
          1.21951224e-02, 5.02152089e-03, 1.07604014e-02, 3.58680054e-03,
          4.30416083e-03, 1.93687230e-02, 7.89096113e-03, 1.00430418e-02,
          1.07604014e-02, 5.02152089e-03, 1.07604014e-02, 1.21951224e-02,
          1.00430418e-02, 8.60832166e-03, 5.73888095e-03, 2.15208041e-03,
          8.60832166e-03, 4.30416083e-03, 2.15208041e-03, 1.43472024e-03,
          2.15208041e-03, 4.30416083e-03, 7.17360119e-04, 7.17360107e-03,
          1.29124820e-02, 1.29124820e-02, 1.43472024e-03, 7.89096113e-03,
          8.60832166e-03, 8.60832166e-03 ]
      - [ 1.85013877e-03, 9.25069395e-03, 7.40055507e-03, 1.11008324e-02,
          9.25069395e-03, 0., 4.62534698e-03, 9.25069395e-03,
          2.77520809e-03, 1.01757636e-02, 2.77520809e-03, 1.85013877e-03,
          9.25069384e-04, 1.01757636e-02, 3.70027754e-03, 9.25069384e-04,
          3.70027754e-03, 4.62534698e-03, 7.40055507e-03, 7.40055507e-03,
          4.62534698e-03, 9.25069395e-03, 1.29509717e-02, 1.29509717e-02,
          5.55041619e-03, 4.62534698e-03, 4.62534698e-03, 1.57261789e-02,
          3.70027754e-03, 1.85013877e-03, 1.01757636e-02, 2.77520809e-03,
          0., 1.11008324e-02, 1.48011101e-02, 5.55041619e-03,
          5.55041619e-03, 1.85013877e-03, 6.47548586e-03, 2.77520809e-03,
          4.62534698e-03, 7.40055507e-03, 6.47548586e-03, 4.62534698e-03,
          6.47548586e-03, 9.25069384e-04, 8.32562428e-03, 4.62534698e-03,
          4.62534698e-03, 2.77520809e-03, 3.70027754e-03, 8.32562428e-03,
          1.11008324e-02, 9.25069395e-03, 7.40055507e-03, 1.85013877e-03,
          1.20259020e-02, 2.77520809e-03, 6.47548586e-03, 5.55041619e-03,
          1.85013877e-03, 3.70027754e-03, 4.62534698e-03, 1.85013877e-03,
          0., 1.11008324e-02, 5.55041619e-03, 9.25069395e-03,
          1.01757636e-02, 1.29509717e-02, 1.11008324e-02, 8.32562428e-03,
          9.25069384e-04, 1.38760405e-02, 1.20259020e-02, 8.32562428e-03,
          1.85013877e-03, 8.32562428e-03, 9.25069395e-03, 3.70027754e-03,
          1.01757636e-02, 1.38760405e-02, 5.55041619e-03, 8.32562428e-03,
          1.01757636e-02, 0., 2.77520809e-03, 3.70027754e-03,
          7.40055507e-03, 2.77520809e-03, 5.55041619e-03, 4.62534698e-03,
          1.01757636e-02, 0., 7.40055507e-03, 5.55041619e-03,
          2.77520809e-03, 1.85013879e-02, 8.32562428e-03, 3.70027754e-03,
          8.32562428e-03, 1.57261789e-02, 4.62534698e-03, 4.62534698e-03,
          2.77520809e-03, 0., 1.66512486e-02, 6.47548586e-03,
          1.29509717e-02, 2.77520809e-03, 8.32562428e-03, 1.48011101e-02,
          2.77520809e-03, 1.11008324e-02, 4.62534698e-03, 2.77520809e-03,
          9.25069384e-04, 1.57261789e-02, 0., 1.85013877e-03,
          1.11008324e-02, 4.62534698e-03, 9.25069395e-03, 1.85013877e-03,
          4.62534698e-03, 2.40518041e-02, 6.47548586e-03, 8.32562428e-03,
          9.25069395e-03, 6.47548586e-03, 5.55041619e-03, 1.20259020e-02,
          1.29509717e-02, 1.20259020e-02, 7.40055507e-03, 2.77520809e-03,
          1.38760405e-02, 3.70027754e-03, 9.25069384e-04, 2.77520809e-03,
          1.85013877e-03, 7.40055507e-03, 1.85013877e-03, 5.55041619e-03,
          8.32562428e-03, 9.25069395e-03, 2.77520809e-03, 7.40055507e-03,
          1.01757636e-02, 1.20259020e-02 ]
      - [ 8.05152988e-04, 1.20772952e-02, 8.05152953e-03, 8.85668304e-03,
          7.24637695e-03, 8.05152988e-04, 3.22061195e-03, 8.85668304e-03,
          4.83091781e-03, 7.24637695e-03, 8.85668304e-03, 4.02576476e-03,
          1.61030598e-03, 9.66183562e-03, 6.44122390e-03, 2.41545890e-03,
          6.44122390e-03, 8.05152953e-03, 8.05152953e-03, 8.85668304e-03,
          4.02576476e-03, 5.63607085e-03, 8.85668304e-03, 9.66183562e-03,
          8.85668304e-03, 8.05152953e-03, 5.63607085e-03, 1.44927539e-02,
          3.22061195e-03, 8.05152988e-04, 1.04669891e-02, 3.22061195e-03,
          0., 8.85668304e-03, 1.12721417e-02, 4.02576476e-03,
          7.24637695e-03, 2.41545890e-03, 5.63607085e-03, 2.41545890e-03,
          4.02576476e-03, 4.83091781e-03, 8.05152953e-03, 4.83091781e-03,
          8.05152953e-03, 2.41545890e-03, 4.83091781e-03, 5.63607085e-03,
          3.22061195e-03, 4.02576476e-03, 3.22061195e-03, 9.66183562e-03,
          1.12721417e-02, 5.63607085e-03, 1.61030591e-02, 4.83091781e-03,
          1.04669891e-02, 1.61030598e-03, 3.22061195e-03, 5.63607085e-03,
          4.83091781e-03, 4.83091781e-03, 5.63607085e-03, 3.22061195e-03,
          0., 1.04669891e-02, 4.02576476e-03, 4.83091781e-03,
          8.05152953e-03, 1.04669891e-02, 1.44927539e-02, 9.66183562e-03,
          2.41545890e-03, 8.05152953e-03, 1.12721417e-02, 5.63607085e-03,
          3.22061195e-03, 8.85668304e-03, 1.04669891e-02, 6.44122390e-03,
          9.66183562e-03, 1.36876004e-02, 8.85668304e-03, 7.24637695e-03,
          5.63607085e-03, 0., 4.02576476e-03, 3.22061195e-03,
          4.83091781e-03, 1.61030598e-03, 4.02576476e-03, 4.83091781e-03,
          1.04669891e-02, 8.05152988e-04, 5.63607085e-03, 5.63607085e-03,
          2.41545890e-03, 1.77133661e-02, 1.04669891e-02, 6.44122390e-03,
          4.02576476e-03, 1.28824478e-02, 8.05152953e-03, 5.63607085e-03,
          4.02576476e-03, 3.22061195e-03, 1.28824478e-02, 1.04669891e-02,
          9.66183562e-03, 2.41545890e-03, 6.44122390e-03, 1.36876004e-02,
          2.41545890e-03, 1.28824478e-02, 4.02576476e-03, 2.41545890e-03,
          1.61030598e-03, 1.28824478e-02, 2.41545890e-03, 6.44122390e-03,
          1.28824478e-02, 4.02576476e-03, 6.44122390e-03, 2.41545890e-03,
          8.05152953e-03, 2.09339783e-02, 1.12721417e-02, 8.05152953e-03,
          9.66183562e-03, 8.05152953e-03, 7.24637695e-03, 8.85668304e-03,
          1.36876004e-02, 8.05152953e-03, 6.44122390e-03, 3.22061195e-03,
          8.85668304e-03, 7.24637695e-03, 2.41545890e-03, 3.22061195e-03,
          2.41545890e-03, 6.44122390e-03, 0., 1.12721417e-02,
          9.66183562e-03, 9.66183562e-03, 0., 6.44122390e-03,
          9.66183562e-03, 8.05152953e-03 ]
      - [ 1.96656841e-03, 8.84955749e-03, 3.93313682e-03, 1.08161261e-02,
          7.86627363e-03, 0., 4.91642114e-03, 4.91642114e-03,
          8.84955749e-03, 9.83284228e-03, 6.88298931e-03, 3.93313682e-03,
          9.83284204e-04, 7.86627363e-03, 1.96656841e-03, 2.94985250e-03,
          2.94985250e-03, 7.86627363e-03, 5.89970499e-03, 5.89970499e-03,
          3.93313682e-03, 1.47492634e-02, 1.67158321e-02, 8.84955749e-03,
          1.27826948e-02, 8.84955749e-03, 3.93313682e-03, 1.76991150e-02,
          3.93313682e-03, 0., 9.83284228e-03, 4.91642114e-03, 0.,
          7.86627363e-03, 1.47492634e-02, 2.94985250e-03, 4.91642114e-03,
          0., 5.89970499e-03, 1.96656841e-03, 2.94985250e-03,
          3.93313682e-03, 6.88298931e-03, 4.91642114e-03, 8.84955749e-03,
          1.96656841e-03, 3.93313682e-03, 4.91642114e-03, 5.89970499e-03,
          3.93313682e-03, 3.93313682e-03, 5.89970499e-03, 9.83284228e-03,
          8.84955749e-03, 5.89970499e-03, 3.93313682e-03, 9.83284228e-03,
          1.96656841e-03, 7.86627363e-03, 6.88298931e-03, 2.94985250e-03,
          2.94985250e-03, 6.88298931e-03, 9.83284204e-04, 0.,
          1.27826948e-02, 6.88298931e-03, 1.08161261e-02, 6.88298931e-03,
          1.37659786e-02, 7.86627363e-03, 6.88298931e-03, 9.83284204e-04,
          1.67158321e-02, 9.83284228e-03, 1.17994100e-02, 3.93313682e-03,
          1.08161261e-02, 9.83284228e-03, 4.91642114e-03, 7.86627363e-03,
          1.57325473e-02, 4.91642114e-03, 8.84955749e-03, 3.93313682e-03,
          9.83284204e-04, 9.83284204e-04, 4.91642114e-03, 7.86627363e-03,
          2.94985250e-03, 5.89970499e-03, 4.91642114e-03, 1.17994100e-02,
          1.96656841e-03, 5.89970499e-03, 3.93313682e-03, 1.96656841e-03,
          2.16322523e-02, 8.84955749e-03, 9.83284228e-03, 5.89970499e-03,
          7.86627363e-03, 6.88298931e-03, 3.93313682e-03, 2.94985250e-03,
          0., 1.27826948e-02, 5.89970499e-03, 7.86627363e-03,
          4.91642114e-03, 8.84955749e-03, 1.67158321e-02, 0.,
          7.86627363e-03, 2.94985250e-03, 4.91642114e-03, 3.93313682e-03,
          2.06489675e-02, 3.93313682e-03, 3.93313682e-03, 1.27826948e-02,
          4.91642114e-03, 5.89970499e-03, 1.96656841e-03, 9.83284228e-03,
          2.26155370e-02, 8.84955749e-03, 1.08161261e-02, 9.83284228e-03,
          2.94985250e-03, 5.89970499e-03, 6.88298931e-03, 1.47492634e-02,
          1.27826948e-02, 5.89970499e-03, 9.83284204e-04, 1.08161261e-02,
          4.91642114e-03, 9.83284204e-04, 9.83284204e-04, 2.94985250e-03,
          7.86627363e-03, 1.96656841e-03, 7.86627363e-03, 7.86627363e-03,
          6.88298931e-03, 2.94985250e-03, 2.94985250e-03, 1.08161261e-02,
          8.84955749e-03 ]
      - [ 1.52777778e-02, 1.66666675e-02, 8.33333377e-03, 5.55555569e-03,
          2.77777785e-03, 4.16666688e-03, 4.16666688e-03, 2.77777785e-03,
          4.16666688e-03, 5.27777784e-02, 1.38888892e-03, 0.,
          1.38888892e-03, 6.94444450e-03, 4.16666688e-03, 2.08333340e-02,
          5.55555569e-03, 6.94444450e-03, 4.16666688e-03, 1.11111114e-02,
          0., 1.11111114e-02, 2.77777785e-03, 5.55555569e-03,
          1.38888892e-03, 2.77777785e-03, 4.16666688e-03, 1.38888892e-03,
          4.16666688e-03, 4.58333343e-02, 1.38888892e-03, 6.94444450e-03,
          5.55555569e-03, 4.16666688e-03, 1.38888892e-03, 8.33333377e-03,
          1.11111114e-02, 1.38888892e-03, 1.38888892e-03, 6.94444450e-03,
          1.38888892e-03, 2.08333340e-02, 2.77777785e-03, 1.11111114e-02,
          6.94444450e-03, 4.16666688e-03, 9.72222257e-03, 5.55555569e-03,
          2.77777785e-03, 1.66666675e-02, 1.38888892e-03, 1.11111114e-02,
          1.38888892e-03, 1.80555563e-02, 8.33333377e-03, 6.94444450e-03,
          1.38888892e-03, 4.16666688e-03, 6.94444450e-03, 2.77777785e-03,
          5.55555569e-03, 1.25000002e-02, 6.94444450e-03, 9.72222257e-03,
          0., 1.11111114e-02, 2.77777785e-03, 1.38888892e-03,
          8.33333377e-03, 5.55555569e-03, 5.55555569e-03, 2.77777785e-03,
          2.77777785e-03, 1.38888892e-03, 6.94444450e-03, 1.38888890e-02,
          1.94444451e-02, 9.72222257e-03, 6.94444450e-03, 1.38888892e-03,
          5.55555569e-03, 0., 4.16666688e-03, 1.52777778e-02,
          8.33333377e-03, 6.94444450e-03, 4.16666688e-03, 4.16666688e-03,
          9.72222257e-03, 6.94444450e-03, 3.19444463e-02, 2.77777785e-03,
          1.25000002e-02, 2.77777785e-03, 1.38888892e-03, 8.33333377e-03,
          5.55555569e-03, 2.77777785e-03, 2.77777785e-03, 5.55555569e-03,
          1.11111114e-02, 1.66666675e-02, 5.55555569e-03, 1.25000002e-02,
          1.38888892e-03, 4.16666688e-03, 1.38888892e-03, 4.16666688e-03,
          1.38888892e-03, 2.77777785e-03, 1.38888892e-03, 5.55555569e-03,
          6.94444450e-03, 9.72222257e-03, 8.33333377e-03, 1.25000002e-02,
          0., 0., 8.33333377e-03, 1.38888892e-03, 1.38888892e-03,
          5.55555569e-03, 6.94444450e-03, 4.16666688e-03, 6.94444450e-03,
          1.38888892e-03, 2.77777785e-03, 5.55555569e-03, 4.16666688e-03,
          1.38888892e-03, 8.33333377e-03, 1.38888892e-03, 1.38888892e-03,
          5.55555569e-03, 1.11111114e-02, 5.55555569e-03, 9.72222257e-03,
          5.55555569e-03, 1.38888892e-03, 1.11111114e-02, 8.33333377e-03,
          6.94444450e-03, 0., 2.77777785e-03, 1.25000002e-02,
          8.33333377e-03, 6.94444450e-03, 2.77777785e-03, 5.55555569e-03,
          1.38888892e-03 ]
      - [ 1.12016294e-02, 1.42566198e-02, 4.07331996e-03, 6.10997993e-03,
          3.05498997e-03, 2.03665998e-03, 8.14663991e-03, 3.05498997e-03,
          4.07331996e-03, 5.70264794e-02, 4.07331996e-03, 1.01832999e-03,
          3.05498997e-03, 2.03665998e-03, 9.16497037e-03, 2.95315702e-02,
          4.07331996e-03, 9.16497037e-03, 7.12830992e-03, 1.22199599e-02,
          2.03665998e-03, 6.10997993e-03, 3.05498997e-03, 6.10997993e-03,
          4.07331996e-03, 2.03665998e-03, 4.07331996e-03, 2.03665998e-03,
          4.07331996e-03, 2.85132397e-02, 1.01832999e-03, 8.14663991e-03,
          2.03665998e-03, 4.07331996e-03, 4.07331996e-03, 5.09164995e-03,
          7.12830992e-03, 0., 1.01832999e-03, 4.07331996e-03,
          2.03665998e-03, 1.73116103e-02, 6.10997993e-03, 1.12016294e-02,
          3.05498997e-03, 4.07331996e-03, 9.16497037e-03, 5.09164995e-03,
          1.01832999e-03, 1.42566198e-02, 4.07331996e-03, 1.32382903e-02,
          2.03665998e-03, 1.12016294e-02, 1.01832999e-02, 1.12016294e-02,
          3.05498997e-03, 7.12830992e-03, 7.12830992e-03, 5.09164995e-03,
          5.09164995e-03, 1.32382903e-02, 1.01832999e-02, 4.07331996e-03,
          0., 1.32382903e-02, 5.09164995e-03, 2.03665998e-03,
          5.09164995e-03, 4.07331996e-03, 5.09164995e-03, 7.12830992e-03,
          1.01832999e-03, 0., 6.10997993e-03, 1.93482693e-02,
          2.13849302e-02, 1.01832999e-02, 8.14663991e-03, 1.01832999e-03,
          7.12830992e-03, 0., 4.07331996e-03, 1.01832999e-02,
          8.14663991e-03, 6.10997993e-03, 1.12016294e-02, 0.,
          8.14663991e-03, 1.22199599e-02, 2.24032588e-02, 5.09164995e-03,
          1.83299407e-02, 2.03665998e-03, 3.05498997e-03, 1.12016294e-02,
          5.09164995e-03, 1.01832999e-03, 6.10997993e-03, 7.12830992e-03,
          1.73116103e-02, 1.62932798e-02, 1.01832999e-03, 1.32382903e-02,
          0., 3.05498997e-03, 1.01832999e-03, 3.05498997e-03,
          5.09164995e-03, 2.03665998e-03, 3.05498997e-03, 9.16497037e-03,
          4.07331996e-03, 9.16497037e-03, 5.09164995e-03, 1.73116103e-02,
          4.07331996e-03, 0., 7.12830992e-03, 5.09164995e-03,
          2.03665998e-03, 0., 6.10997993e-03, 4.07331996e-03,
          1.12016294e-02, 0., 3.05498997e-03, 7.12830992e-03,
          4.07331996e-03, 2.03665998e-03, 1.22199599e-02, 0., 0.,
          7.12830992e-03, 1.32382903e-02, 4.07331996e-03, 3.05498997e-03,
          4.07331996e-03, 0., 9.16497037e-03, 4.07331996e-03,
          4.07331996e-03, 1.01832999e-03, 2.03665998e-03, 6.10997993e-03,
          1.01832999e-02, 1.01832999e-02, 5.09164995e-03, 4.07331996e-03,
          3.05498997e-03 ]
      - [ 0., 3.40909064e-02, 4.54545440e-03, 2.27272720e-03,
          4.54545440e-03, 0., 6.81818184e-03, 4.54545440e-03,
          4.54545440e-03, 3.40909064e-02, 2.27272720e-03, 2.27272720e-03,
          0., 6.81818184e-03, 9.09090880e-03, 2.49999985e-02,
          4.54545440e-03, 1.81818176e-02, 9.09090880e-03, 2.27272720e-03,
          4.54545440e-03, 6.81818184e-03, 0., 9.09090880e-03,
          4.54545440e-03, 2.27272720e-03, 1.13636358e-02, 2.27272720e-03,
          2.27272720e-03, 9.09090880e-03, 0., 1.59090906e-02, 0.,
          6.81818184e-03, 2.27272720e-03, 0., 1.36363637e-02, 0., 0.,
          4.54545440e-03, 4.54545440e-03, 1.36363637e-02, 2.27272720e-03,
          6.81818184e-03, 6.81818184e-03, 4.54545440e-03, 2.04545446e-02,
          6.81818184e-03, 0., 6.81818184e-03, 4.54545440e-03,
          1.13636358e-02, 4.54545440e-03, 6.81818184e-03, 4.54545440e-03,
          1.81818176e-02, 6.81818184e-03, 1.36363637e-02, 1.59090906e-02,
          4.54545440e-03, 4.54545440e-03, 6.81818184e-03, 0.,
          1.13636358e-02, 2.27272720e-03, 0., 4.54545440e-03, 0., 0.,
          1.13636358e-02, 2.27272720e-03, 0., 4.54545440e-03,
          4.54545440e-03, 6.81818184e-03, 2.27272715e-02, 3.86363640e-02,
          6.81818184e-03, 9.09090880e-03, 0., 4.54545440e-03, 0.,
          4.54545440e-03, 1.36363637e-02, 6.81818184e-03, 4.54545440e-03,
          1.81818176e-02, 0., 1.13636358e-02, 2.04545446e-02,
          6.81818184e-03, 9.09090880e-03, 9.09090880e-03, 2.27272720e-03,
          2.27272720e-03, 6.81818184e-03, 1.36363637e-02, 6.81818184e-03,
          2.27272720e-03, 6.81818184e-03, 1.13636358e-02, 9.09090880e-03,
          6.81818184e-03, 9.09090880e-03, 0., 9.09090880e-03,
          2.27272720e-03, 2.27272720e-03, 4.54545440e-03, 4.54545440e-03,
          0., 2.27272720e-03, 2.27272720e-03, 2.27272720e-03,
          6.81818184e-03, 9.09090880e-03, 9.09090880e-03, 0.,
          9.09090880e-03, 2.27272720e-03, 4.54545440e-03, 4.54545440e-03,
          4.54545440e-03, 2.27272720e-03, 6.81818184e-03, 0.,
          6.81818184e-03, 1.36363637e-02, 4.54545440e-03, 2.27272720e-03,
          6.81818184e-03, 4.54545440e-03, 2.27272720e-03, 4.54545440e-03,
          2.04545446e-02, 9.09090880e-03, 9.09090880e-03, 6.81818184e-03,
          0., 2.27272720e-03, 4.54545440e-03, 6.81818184e-03, 0.,
          4.54545440e-03, 1.59090906e-02, 2.27272720e-03, 1.36363637e-02,
          6.81818184e-03, 2.27272720e-03, 4.54545440e-03 ]
      - [ 1.60771701e-02, 2.73311883e-02, 6.43086806e-03, 8.03858507e-03,
          0., 0., 4.82315104e-03, 8.03858507e-03, 1.60771701e-03,
          6.43086806e-02, 1.60771701e-03, 3.21543403e-03, 0.,
          3.21543403e-03, 8.03858507e-03, 3.37620564e-02, 6.43086806e-03,
          6.43086806e-03, 4.82315104e-03, 8.03858507e-03, 0.,
          9.64630209e-03, 1.60771701e-03, 1.28617361e-02, 1.60771701e-03,
          0., 4.82315104e-03, 1.60771701e-03, 1.60771701e-03,
          3.05466242e-02, 0., 1.76848881e-02, 8.03858507e-03,
          4.82315104e-03, 4.82315104e-03, 3.21543403e-03, 1.60771701e-03,
          1.60771701e-03, 3.21543403e-03, 1.12540191e-02, 0.,
          1.60771701e-02, 4.82315104e-03, 1.60771701e-03, 4.82315104e-03,
          1.60771701e-03, 9.64630209e-03, 3.21543403e-03, 3.21543403e-03,
          1.76848881e-02, 1.60771701e-03, 9.64630209e-03, 1.60771701e-03,
          4.82315104e-03, 6.43086806e-03, 1.12540191e-02, 8.03858507e-03,
          9.64630209e-03, 6.43086806e-03, 4.82315104e-03, 3.21543403e-03,
          6.43086806e-03, 4.82315104e-03, 3.21543403e-03, 0.,
          4.82315104e-03, 4.82315104e-03, 1.60771701e-03, 3.21543403e-03,
          1.44694531e-02, 3.21543403e-03, 3.21543403e-03, 0.,
          1.60771701e-03, 4.82315104e-03, 1.28617361e-02, 3.69774923e-02,
          1.28617361e-02, 9.64630209e-03, 1.60771701e-03, 4.82315104e-03,
          0., 1.60771701e-03, 9.64630209e-03, 0., 1.60771701e-03,
          9.64630209e-03, 0., 6.43086806e-03, 1.28617361e-02,
          2.89389063e-02, 4.82315104e-03, 1.12540191e-02, 3.21543403e-03,
          3.21543403e-03, 1.12540191e-02, 1.12540191e-02, 4.82315104e-03,
          4.82315104e-03, 8.03858507e-03, 6.43086806e-03, 6.43086806e-03,
          6.43086806e-03, 6.43086806e-03, 0., 1.12540191e-02, 0., 0.,
          3.21543403e-03, 4.82315104e-03, 0., 4.82315104e-03,
          4.82315104e-03, 6.43086806e-03, 3.21543403e-03, 1.44694531e-02,
          4.82315104e-03, 0., 1.28617361e-02, 1.60771701e-03,
          3.21543403e-03, 4.82315104e-03, 9.64630209e-03, 3.21543403e-03,
          1.28617361e-02, 0., 1.60771701e-03, 9.64630209e-03,
          3.21543403e-03, 0., 6.43086806e-03, 0., 1.60771701e-03,
          6.43086806e-03, 1.60771701e-02, 8.03858507e-03, 8.03858507e-03,
          8.03858507e-03, 1.60771701e-03, 1.12540191e-02, 6.43086806e-03,
          9.64630209e-03, 4.82315104e-03, 6.43086806e-03, 8.03858507e-03,
          4.82315104e-03, 4.82315104e-03, 6.43086806e-03, 1.60771701e-03,
          1.60771701e-03 ]
      - [ 7.45156489e-04, 1.11773470e-02, 7.45156500e-03, 4.47093882e-03,
          4.47093882e-03, 3.72578250e-03, 7.45156500e-03, 3.72578250e-03,
          1.49031298e-03, 2.23546941e-02, 8.19672178e-03, 1.49031300e-02,
          1.71385985e-02, 2.98062596e-03, 1.49031298e-03, 3.72578250e-03,
          2.98062596e-03, 7.45156500e-03, 7.45156500e-03, 2.23546941e-03,
          2.30998509e-02, 8.94187763e-03, 5.21609560e-03, 5.21609560e-03,
          3.72578250e-03, 5.21609560e-03, 1.04321912e-02, 7.45156489e-04,
          6.70640822e-03, 7.45156489e-04, 6.70640822e-03, 1.04321912e-02,
          2.98062596e-03, 1.04321912e-02, 1.49031298e-03, 4.47093882e-03,
          1.04321912e-02, 7.45156500e-03, 1.41579732e-02, 8.94187763e-03,
          1.11773470e-02, 5.96125191e-03, 5.21609560e-03, 6.70640822e-03,
          2.83159465e-02, 2.23546941e-02, 5.21609560e-03, 5.96125191e-03,
          1.49031298e-03, 1.49031298e-03, 8.19672178e-03, 4.47093882e-03,
          6.70640822e-03, 6.70640822e-03, 7.45156500e-03, 5.96125191e-03,
          5.21609560e-03, 5.21609560e-03, 3.72578250e-03, 6.70640822e-03,
          1.19225038e-02, 1.49031298e-03, 8.19672178e-03, 2.23546941e-03,
          1.49031300e-02, 2.23546941e-02, 2.98062596e-03, 6.70640822e-03,
          4.47093882e-03, 3.72578250e-03, 1.49031298e-03, 6.70640822e-03,
          1.49031300e-02, 7.45156500e-03, 1.34128164e-02, 5.96125191e-03,
          2.23546941e-03, 1.49031298e-03, 6.70640822e-03, 3.72578250e-03,
          4.47093882e-03, 1.49031298e-03, 9.68703441e-03, 2.23546941e-03,
          2.98062596e-03, 1.56482868e-02, 2.23546941e-03, 1.04321912e-02,
          9.68703441e-03, 2.98062596e-03, 0., 8.19672178e-03,
          5.96125191e-03, 2.60804780e-02, 8.19672178e-03, 4.47093882e-03,
          1.49031298e-03, 2.23546941e-03, 0., 5.96125191e-03,
          1.49031298e-03, 1.49031298e-03, 4.47093882e-03, 6.70640822e-03,
          3.72578250e-03, 8.19672178e-03, 0., 5.21609560e-03,
          1.49031298e-03, 8.94187763e-03, 1.19225038e-02, 4.47093882e-03,
          1.49031300e-02, 6.70640822e-03, 6.70640822e-03, 7.45156489e-04,
          2.98062596e-03, 7.45156489e-04, 5.21609560e-03, 3.72578250e-03,
          4.47093882e-03, 1.11773470e-02, 8.19672178e-03, 8.19672178e-03,
          2.23546941e-03, 7.45156489e-04, 5.96125191e-03, 9.68703441e-03,
          1.63934436e-02, 1.19225038e-02, 5.21609560e-03, 3.72578250e-03,
          2.23546941e-03, 1.49031298e-03, 1.49031298e-03, 9.68703441e-03,
          5.21609560e-03, 2.23546941e-03, 1.86289120e-02, 7.45156500e-03,
          5.21609560e-03, 5.21609560e-03, 8.94187763e-03, 5.21609560e-03,
          2.23546941e-03, 3.72578250e-03, 8.19672178e-03, 5.96125191e-03,
          5.21609560e-03, 8.94187763e-03 ]
      - [ 0., 1.23339659e-02, 7.59013277e-03, 4.74383309e-03,
          4.74383309e-03, 2.84629967e-03, 1.13851987e-02, 2.84629967e-03,
          0., 2.27703974e-02, 5.69259934e-03, 1.04364324e-02,
          1.23339659e-02, 1.89753319e-03, 1.89753319e-03, 4.74383309e-03,
          1.89753319e-03, 4.74383309e-03, 5.69259934e-03, 3.79506638e-03,
          2.18216311e-02, 1.32827321e-02, 3.79506638e-03, 1.89753319e-03,
          1.89753319e-03, 1.89753319e-03, 9.48766619e-03, 9.48766596e-04,
          5.69259934e-03, 9.48766596e-04, 3.79506638e-03, 7.59013277e-03,
          7.59013277e-03, 9.48766619e-03, 1.89753319e-03, 5.69259934e-03,
          1.42314993e-02, 1.23339659e-02, 1.51802655e-02, 1.04364324e-02,
          1.32827321e-02, 5.69259934e-03, 2.84629967e-03, 4.74383309e-03,
          3.22580636e-02, 2.18216311e-02, 1.89753319e-03, 8.53889901e-03,
          1.89753319e-03, 0., 7.59013277e-03, 3.79506638e-03,
          3.79506638e-03, 3.79506638e-03, 5.69259934e-03, 8.53889901e-03,
          6.64136605e-03, 5.69259934e-03, 6.64136605e-03, 2.84629967e-03,
          1.70777980e-02, 9.48766596e-04, 3.79506638e-03, 2.84629967e-03,
          1.32827321e-02, 2.65654642e-02, 1.89753319e-03, 1.89753319e-03,
          6.64136605e-03, 2.84629967e-03, 9.48766596e-04, 7.59013277e-03,
          1.13851987e-02, 7.59013277e-03, 1.32827321e-02, 6.64136605e-03,
          1.89753319e-03, 9.48766596e-04, 5.69259934e-03, 2.84629967e-03,
          9.48766596e-04, 0., 2.84629967e-03, 1.89753319e-03,
          3.79506638e-03, 1.61290318e-02, 0., 1.42314993e-02,
          9.48766619e-03, 4.74383309e-03, 0., 5.69259934e-03,
          3.79506638e-03, 2.27703974e-02, 5.69259934e-03, 2.84629967e-03,
          9.48766596e-04, 1.89753319e-03, 0., 2.84629967e-03,
          1.89753319e-03, 3.79506638e-03, 3.79506638e-03, 6.64136605e-03,
          2.84629967e-03, 8.53889901e-03, 0., 6.64136605e-03,
          3.79506638e-03, 1.04364324e-02, 1.51802655e-02, 4.74383309e-03,
          1.99240986e-02, 7.59013277e-03, 6.64136605e-03, 2.84629967e-03,
          5.69259934e-03, 0., 5.69259934e-03, 6.64136605e-03,
          4.74383309e-03, 9.48766619e-03, 4.74383309e-03, 1.32827321e-02,
          1.89753319e-03, 0., 4.74383309e-03, 1.13851987e-02,
          1.61290318e-02, 1.70777980e-02, 7.59013277e-03, 1.89753319e-03,
          1.89753319e-03, 4.74383309e-03, 1.89753319e-03, 1.04364324e-02,
          6.64136605e-03, 3.79506638e-03, 2.08728649e-02, 1.13851987e-02,
          8.53889901e-03, 5.69259934e-03, 9.48766619e-03, 7.59013277e-03,
          2.84629967e-03, 7.59013277e-03, 6.64136605e-03, 5.69259934e-03,
          5.69259934e-03, 4.74383309e-03 ]
      - [ 8.92060634e-04, 9.81266703e-03, 7.13648507e-03, 7.13648507e-03,
          1.78412127e-03, 1.78412127e-03, 8.92060623e-03, 4.46030311e-03,
          0., 1.69491526e-02, 8.92060623e-03, 9.81266703e-03,
          1.96253341e-02, 8.92060634e-04, 4.46030311e-03, 1.78412127e-03,
          0., 1.15967887e-02, 8.02854542e-03, 1.78412127e-03,
          2.49776971e-02, 8.02854542e-03, 4.46030311e-03, 1.78412127e-03,
          2.67618196e-03, 8.92060634e-04, 9.81266703e-03, 8.92060634e-04,
          9.81266703e-03, 8.92060634e-04, 7.13648507e-03, 8.02854542e-03,
          3.56824254e-03, 1.33809093e-02, 2.67618196e-03, 4.46030311e-03,
          1.33809093e-02, 1.42729701e-02, 2.05173939e-02, 7.13648507e-03,
          1.78412125e-02, 5.35236392e-03, 2.67618196e-03, 4.46030311e-03,
          2.05173939e-02, 2.49776971e-02, 2.67618196e-03, 6.24442426e-03,
          1.78412127e-03, 1.78412127e-03, 4.46030311e-03, 2.67618196e-03,
          6.24442426e-03, 4.46030311e-03, 5.35236392e-03, 6.24442426e-03,
          5.35236392e-03, 5.35236392e-03, 5.35236392e-03, 8.92060623e-03,
          1.87332742e-02, 2.67618196e-03, 4.46030311e-03, 2.67618196e-03,
          2.31935773e-02, 2.05173939e-02, 8.92060634e-04, 3.56824254e-03,
          4.46030311e-03, 2.67618196e-03, 0., 7.13648507e-03,
          1.87332742e-02, 5.35236392e-03, 7.13648507e-03, 8.92060623e-03,
          8.92060634e-04, 8.92060634e-04, 8.02854542e-03, 6.24442426e-03,
          2.67618196e-03, 3.56824254e-03, 7.13648507e-03, 8.92060634e-04,
          1.78412127e-03, 8.92060623e-03, 1.78412127e-03, 1.15967887e-02,
          6.24442426e-03, 4.46030311e-03, 0., 8.02854542e-03,
          2.67618196e-03, 2.94380002e-02, 7.13648507e-03, 8.92060634e-04,
          8.92060634e-04, 8.92060634e-04, 2.67618196e-03, 6.24442426e-03,
          1.78412127e-03, 1.78412127e-03, 6.24442426e-03, 4.46030311e-03,
          4.46030311e-03, 1.15967887e-02, 0., 3.56824254e-03,
          5.35236392e-03, 9.81266703e-03, 1.78412125e-02, 4.46030311e-03,
          1.51650310e-02, 7.13648507e-03, 4.46030311e-03, 1.78412127e-03,
          2.67618196e-03, 0., 1.07047278e-02, 4.46030311e-03,
          6.24442426e-03, 6.24442426e-03, 7.13648507e-03, 1.33809093e-02,
          1.78412127e-03, 8.92060634e-04, 2.67618196e-03, 8.92060623e-03,
          1.15967887e-02, 1.07047278e-02, 4.46030311e-03, 1.78412127e-03,
          2.67618196e-03, 3.56824254e-03, 3.56824254e-03, 1.15967887e-02,
          4.46030311e-03, 5.35236392e-03, 2.31935773e-02, 1.60570908e-02,
          8.02854542e-03, 2.67618196e-03, 6.24442426e-03, 8.92060623e-03,
          2.67618196e-03, 1.78412127e-03, 5.35236392e-03, 5.35236392e-03,
          5.35236392e-03, 7.13648507e-03 ]
      - [ 1.57109194e-03, 1.33542819e-02, 9.42655187e-03, 2.35663797e-03,
          4.71327594e-03, 0., 7.06991367e-03, 6.28436776e-03,
          1.57109194e-03, 1.88531037e-02, 9.42655187e-03, 1.33542819e-02,
          2.12097410e-02, 7.85545970e-04, 4.71327594e-03, 4.71327594e-03,
          3.14218388e-03, 3.92773002e-03, 5.49882185e-03, 7.85545970e-04,
          2.35663783e-02, 7.06991367e-03, 7.06991367e-03, 0.,
          1.57109194e-03, 4.71327594e-03, 7.06991367e-03, 7.85545970e-04,
          7.06991367e-03, 7.85545970e-04, 9.42655187e-03, 7.06991367e-03,
          2.35663797e-03, 1.09976437e-02, 3.92773002e-03, 5.49882185e-03,
          1.17831891e-02, 1.33542819e-02, 1.49253737e-02, 4.71327594e-03,
          1.57109201e-02, 6.28436776e-03, 3.14218388e-03, 6.28436776e-03,
          3.22073847e-02, 2.67085638e-02, 3.92773002e-03, 4.71327594e-03,
          2.35663797e-03, 2.35663797e-03, 9.42655187e-03, 3.14218388e-03,
          4.71327594e-03, 6.28436776e-03, 1.02120973e-02, 3.92773002e-03,
          4.71327594e-03, 6.28436776e-03, 1.57109194e-03, 6.28436776e-03,
          1.25687355e-02, 1.57109194e-03, 8.64100549e-03, 3.92773002e-03,
          1.57109201e-02, 2.04241946e-02, 1.57109194e-03, 5.49882185e-03,
          2.35663797e-03, 1.57109194e-03, 7.85545970e-04, 7.06991367e-03,
          1.41398273e-02, 7.06991367e-03, 1.64964646e-02, 7.85546005e-03,
          4.71327594e-03, 0., 2.35663797e-03, 1.57109194e-03,
          2.35663797e-03, 0., 7.06991367e-03, 7.85545970e-04,
          2.35663797e-03, 1.17831891e-02, 2.35663797e-03, 1.02120973e-02,
          1.41398273e-02, 8.64100549e-03, 7.85545970e-04, 4.71327594e-03,
          7.06991367e-03, 3.37784775e-02, 2.35663797e-03, 1.57109194e-03,
          0., 1.57109194e-03, 2.35663797e-03, 2.35663797e-03,
          3.14218388e-03, 7.85545970e-04, 3.14218388e-03, 4.71327594e-03,
          2.35663797e-03, 9.42655187e-03, 0., 5.49882185e-03,
          2.35663797e-03, 3.92773002e-03, 1.17831891e-02, 3.92773002e-03,
          2.04241946e-02, 5.49882185e-03, 4.71327594e-03, 7.85545970e-04,
          4.71327594e-03, 7.85545970e-04, 1.02120973e-02, 4.71327594e-03,
          4.71327594e-03, 1.09976437e-02, 3.92773002e-03, 1.33542819e-02,
          7.85545970e-04, 7.85545970e-04, 6.28436776e-03, 7.85546005e-03,
          1.02120973e-02, 1.02120973e-02, 4.71327594e-03, 1.57109194e-03,
          3.92773002e-03, 4.71327594e-03, 1.57109194e-03, 1.33542819e-02,
          5.49882185e-03, 2.35663797e-03, 2.35663783e-02, 1.02120973e-02,
          8.64100549e-03, 6.28436776e-03, 9.42655187e-03, 1.02120973e-02,
          2.35663797e-03, 5.49882185e-03, 7.85546005e-03, 4.71327594e-03,
          3.92773002e-03, 8.64100549e-03 ]
   decision_functions:
      -
         sv_count: 11
         rho: -9.7977229952812195e-01
         alpha: [ 1., 1., 1.3322608661324070e-01, 1., 1.,
             8.6677391338675935e-01, -1., -1., -1., -1., -1. ]
         index: [ 0, 1, 2, 3, 4, 5, 6, 7, 8, 9, 10 ]
      -
         sv_count: 9
         rho: -9.7494488954544067e-01
         alpha: [ 1., 6.6102983777520330e-02, 1., 9.3389701622247967e-01,
             1., -1., -1., -1., -1. ]
         index: [ 0, 1, 2, 3, 5, 11, 12, 13, 14 ]
      -
         sv_count: 9
         rho: -9.6850619390173232e-01
         alpha: [ 6.1566459928408190e-01, 8.6451709314355707e-01,
             7.7701501432931475e-01, 1., 7.4280329324304639e-01, -1.,
             -1., -1., -1. ]
         index: [ 0, 1, 2, 3, 4, 15, 16, 17, 18 ]
      -
         sv_count: 9
         rho: -9.6862524909751524e-01
         alpha: [ 8.4558096703566910e-01, 4.3609613016454146e-01,
             8.9114360110823865e-01, 8.2717930169155041e-01, 1., -1.,
             -1., -1., -1. ]
         index: [ 0, 2, 3, 4, 5, 19, 20, 21, 22 ]
      -
         sv_count: 8
         rho: -9.7513791918754578e-01
         alpha: [ 1., 1., 1., 1., -1., -1., -1., -1. ]
         index: [ 6, 7, 9, 10, 11, 12, 13, 14 ]
      -
         sv_count: 9
         rho: -9.7364574670791626e-01
         alpha: [ 1., 1., 5.1448445892401162e-01, 4.8551554107598838e-01,
             1., -1., -1., -1., -1. ]
         index: [ 6, 7, 8, 9, 10, 15, 16, 17, 18 ]
      -
         sv_count: 9
         rho: -9.7178059816360474e-01
         alpha: [ 1., 1., 1., 1.8550427099754371e-01,
             8.1449572900245626e-01, -1., -1., -1., -1. ]
         index: [ 6, 7, 8, 9, 10, 19, 20, 21, 22 ]
      -
         sv_count: 8
         rho: 2.4706125259399414e-04
         alpha: [ 1., 1., 1., 1., -1., -1., -1., -1. ]
         index: [ 11, 12, 13, 14, 15, 16, 17, 18 ]
      -
         sv_count: 8
         rho: -4.7206878662109375e-05
         alpha: [ 1., 1., 1., 1., -1., -1., -1., -1. ]
         index: [ 11, 12, 13, 14, 19, 20, 21, 22 ]
      -
         sv_count: 8
         rho: -1.2815296649932861e-03
         alpha: [ 1., 1., 1., 1., -1., -1., -1., -1. ]
         index: [ 15, 16, 17, 18, 19, 20, 21, 22 ]
