%YAML:1.0
my_svm: !!opencv-ml-svm
   svm_type: C_SVC
   kernel: { type:RBF, gamma:1. }
   C: 1.
   term_criteria: { epsilon:2.2204460492503131e-16, iterations:100 }
   var_all: 70
   var_count: 70
   class_count: 5
   class_labels: !!opencv-matrix
      rows: 1
      cols: 5
      dt: i
      data: [ 0, 1, 2, 3, 4 ]
   sv_total: 20
   support_vectors:
      - [ 1.43149281e-02, 2.04498973e-03, 2.24948861e-02, 2.65848674e-02,
          1.22699384e-02, 1.22699384e-02, 6.13496918e-03, 1.84049085e-02,
          1.02249486e-02, 3.27198356e-02, 1.02249486e-02, 6.13496918e-03,
          4.90797535e-02, 6.13496918e-03, 1.02249486e-02, 1.43149281e-02,
          1.22699384e-02, 6.13496918e-03, 1.02249486e-02, 4.49897721e-02,
          1.02249486e-02, 1.43149281e-02, 2.04498973e-02, 2.04498973e-02,
          0., 6.13496918e-03, 6.13496918e-03, 1.22699384e-02,
          2.04498973e-03, 6.54396713e-02, 1.02249486e-02, 1.22699384e-02,
          4.08997945e-03, 8.17995891e-03, 2.04498973e-02, 1.43149281e-02,
          2.04498973e-03, 2.04498973e-02, 4.08997945e-03, 1.43149281e-02,
          1.63599178e-02, 8.17995891e-03, 6.13496918e-03, 6.13496918e-03,
          8.17995891e-03, 1.02249486e-02, 3.47648263e-02, 1.02249486e-02,
          1.02249486e-02, 1.02249486e-02, 8.17995891e-03, 1.63599178e-02,
          3.68098170e-02, 2.86298562e-02, 0., 8.17995891e-03,
          4.08997945e-03, 2.65848674e-02, 1.84049085e-02, 1.22699384e-02,
          1.43149281e-02, 8.17995891e-03, 1.02249486e-02, 8.17995891e-03,
          2.04498973e-03, 8.17995891e-03, 1.43149281e-02, 2.65848674e-02,
          1.84049085e-02, 1.43149281e-02 ]
      - [ 2.07547173e-02, 1.88679248e-03, 1.69811323e-02, 2.45283023e-02,
          7.54716992e-03, 7.54716992e-03, 1.32075474e-02, 3.20754722e-02,
          9.43396240e-03, 3.39622647e-02, 7.54716992e-03, 1.88679248e-03,
          3.96226421e-02, 1.88679248e-03, 1.69811323e-02, 1.69811323e-02,
          1.32075474e-02, 5.66037744e-03, 1.13207549e-02, 3.39622647e-02,
          1.88679248e-03, 1.69811323e-02, 2.83018872e-02, 3.01886797e-02,
          3.77358496e-03, 1.88679248e-03, 1.32075474e-02, 7.54716992e-03,
          3.77358496e-03, 5.47169819e-02, 5.66037744e-03, 9.43396240e-03,
          1.88679248e-03, 1.32075474e-02, 1.69811323e-02, 1.88679248e-02,
          0., 2.83018872e-02, 3.77358496e-03, 7.54716992e-03,
          1.32075474e-02, 7.54716992e-03, 7.54716992e-03, 1.69811323e-02,
          1.32075474e-02, 1.13207549e-02, 1.13207549e-02, 7.54716992e-03,
          1.88679248e-02, 1.88679248e-02, 7.54716992e-03, 1.69811323e-02,
          2.83018872e-02, 3.20754722e-02, 9.43396240e-03, 9.43396240e-03,
          3.77358496e-03, 9.43396240e-03, 1.88679248e-02, 1.69811323e-02,
          1.69811323e-02, 9.43396240e-03, 1.50943398e-02, 7.54716992e-03,
          1.88679248e-03, 1.13207549e-02, 1.69811323e-02, 1.69811323e-02,
          2.07547173e-02, 1.88679248e-02 ]
      - [ 1.80645175e-02, 3.87096778e-03, 2.19354853e-02, 1.54838711e-02,
          1.54838711e-02, 3.09677422e-02, 5.16129052e-03, 2.32258067e-02,
          1.16129033e-02, 2.83870976e-02, 1.03225810e-02, 3.87096778e-03,
          5.03225811e-02, 2.58064526e-03, 9.03225876e-03, 1.67741943e-02,
          1.03225810e-02, 9.03225876e-03, 1.29032265e-02, 2.70967744e-02,
          7.74193555e-03, 1.29032265e-02, 1.54838711e-02, 2.70967744e-02,
          0., 3.87096778e-03, 1.16129033e-02, 7.74193555e-03,
          1.29032263e-03, 6.19354844e-02, 1.03225810e-02, 1.16129033e-02,
          2.58064526e-03, 1.29032265e-02, 1.41935488e-02, 9.03225876e-03,
          5.16129052e-03, 2.96774209e-02, 6.45161327e-03, 1.03225810e-02,
          2.32258067e-02, 1.03225810e-02, 5.16129052e-03, 1.03225810e-02,
          1.29032265e-02, 2.58064526e-03, 3.74193564e-02, 1.03225810e-02,
          9.03225876e-03, 2.32258067e-02, 7.74193555e-03, 1.67741943e-02,
          1.93548389e-02, 2.70967744e-02, 2.58064526e-03, 1.03225810e-02,
          2.58064526e-03, 3.48387100e-02, 1.41935488e-02, 9.03225876e-03,
          1.67741943e-02, 5.16129052e-03, 9.03225876e-03, 9.03225876e-03,
          7.74193555e-03, 1.41935488e-02, 1.03225810e-02, 1.80645175e-02,
          1.29032265e-02, 1.93548389e-02 ]
      - [ 1.28755365e-02, 7.15307612e-03, 1.57367680e-02, 1.57367680e-02,
          1.14449216e-02, 2.14592274e-02, 4.29184549e-03, 2.71816887e-02,
          1.85979977e-02, 4.29184549e-02, 7.15307612e-03, 4.29184549e-03,
          5.29327616e-02, 5.72246080e-03, 1.28755365e-02, 1.43061522e-02,
          1.14449216e-02, 1.00143068e-02, 1.57367680e-02, 3.43347639e-02,
          5.72246080e-03, 1.85979977e-02, 2.00286135e-02, 3.57653797e-02,
          0., 4.29184549e-03, 8.58369097e-03, 1.14449216e-02,
          2.86123040e-03, 5.15021458e-02, 5.72246080e-03, 1.14449216e-02,
          1.43061520e-03, 8.58369097e-03, 1.71673819e-02, 1.43061522e-02,
          4.29184549e-03, 2.14592274e-02, 2.86123040e-03, 5.72246080e-03,
          1.14449216e-02, 4.29184549e-03, 2.86123040e-03, 7.15307612e-03,
          7.15307612e-03, 7.15307612e-03, 4.43490706e-02, 8.58369097e-03,
          1.14449216e-02, 2.57510729e-02, 8.58369097e-03, 1.71673819e-02,
          2.14592274e-02, 2.00286135e-02, 1.43061520e-03, 1.57367680e-02,
          2.86123040e-03, 4.29184549e-02, 1.28755365e-02, 1.57367680e-02,
          1.43061522e-02, 5.72246080e-03, 7.15307612e-03, 8.58369097e-03,
          4.29184549e-03, 1.00143068e-02, 1.00143068e-02, 1.57367680e-02,
          1.43061522e-02, 2.28898432e-02 ]
      - [ 1.39949108e-02, 3.81679391e-03, 2.41730288e-02, 2.41730288e-02,
          1.01781171e-02, 1.90839693e-02, 1.90839693e-02, 1.65394396e-02,
          1.39949108e-02, 1.39949108e-02, 1.27226468e-02, 3.81679391e-03,
          2.16284990e-02, 3.81679391e-03, 1.27226468e-02, 1.01781171e-02,
          3.81679391e-03, 5.08905854e-03, 1.14503819e-02, 1.14503819e-02,
          2.54452927e-03, 5.08905854e-03, 3.81679391e-03, 2.16284990e-02,
          1.65394396e-02, 1.01781171e-02, 8.90585221e-03, 7.63358781e-03,
          2.54452927e-03, 9.28753167e-02, 1.65394396e-02, 1.01781171e-02,
          1.27226464e-03, 1.39949108e-02, 7.63358781e-03, 1.90839693e-02,
          8.90585221e-03, 9.03307870e-02, 1.27226468e-02, 1.27226468e-02,
          1.39949108e-02, 1.01781171e-02, 1.27226464e-03, 1.39949108e-02,
          3.81679391e-03, 5.08905854e-03, 2.03562342e-02, 7.63358781e-03,
          2.54452927e-03, 4.07124683e-02, 5.08905854e-03, 4.58015278e-02,
          1.52671756e-02, 8.90585221e-03, 1.52671756e-02, 3.68956737e-02,
          2.54452927e-03, 1.14503819e-02, 7.63358781e-03, 6.36132341e-03,
          0., 1.27226464e-03, 2.54452927e-03, 5.08905854e-03,
          1.27226468e-02, 3.81679391e-03, 3.30788791e-02, 2.16284990e-02,
          1.27226468e-02, 1.14503819e-02 ]
      - [ 1.50537640e-02, 4.30107536e-03, 2.15053763e-02, 1.93548389e-02,
          2.36559138e-02, 2.36559138e-02, 1.50537640e-02, 1.72043014e-02,
          1.07526882e-02, 6.45161327e-03, 1.50537640e-02, 6.45161327e-03,
          2.79569905e-02, 4.30107536e-03, 1.72043014e-02, 6.45161327e-03,
          4.30107536e-03, 1.93548389e-02, 8.60215072e-03, 1.72043014e-02,
          4.30107536e-03, 8.60215072e-03, 6.45161327e-03, 4.08602171e-02,
          3.87096778e-02, 1.72043014e-02, 0., 1.07526882e-02,
          4.30107536e-03, 5.37634417e-02, 4.30107536e-03, 6.45161327e-03,
          2.15053768e-03, 1.72043014e-02, 1.29032265e-02, 2.79569905e-02,
          8.60215072e-03, 6.02150559e-02, 2.58064531e-02, 1.29032265e-02,
          2.15053763e-02, 4.30107536e-03, 2.15053768e-03, 1.72043014e-02,
          4.30107536e-03, 2.15053768e-03, 3.44086029e-02, 1.29032265e-02,
          4.30107536e-03, 1.50537640e-02, 8.60215072e-03, 1.93548389e-02,
          6.45161327e-03, 4.30107536e-03, 2.36559138e-02, 1.93548389e-02,
          2.15053768e-03, 1.29032265e-02, 1.50537640e-02, 1.07526882e-02,
          8.60215072e-03, 0., 4.30107536e-03, 8.60215072e-03,
          8.60215072e-03, 2.15053768e-03, 4.73118275e-02, 1.72043014e-02,
          8.60215072e-03, 6.45161327e-03 ]
      - [ 1.46137793e-02, 2.08768272e-03, 2.29645092e-02, 2.71398760e-02,
          1.67014617e-02, 2.50521936e-02, 1.87891442e-02, 1.46137793e-02,
          6.26304839e-03, 6.26304839e-03, 1.67014617e-02, 8.35073087e-03,
          2.92275585e-02, 6.26304839e-03, 1.25260968e-02, 1.04384134e-02,
          4.17536544e-03, 2.08768267e-02, 6.26304839e-03, 1.25260968e-02,
          4.17536544e-03, 8.35073087e-03, 6.26304839e-03, 2.92275585e-02,
          3.13152410e-02, 1.46137793e-02, 0., 6.26304839e-03, 0.,
          6.47181645e-02, 8.35073087e-03, 1.25260968e-02, 2.08768272e-03,
          1.25260968e-02, 1.46137793e-02, 2.29645092e-02, 1.25260968e-02,
          7.09812120e-02, 2.08768267e-02, 1.04384134e-02, 8.35073087e-03,
          1.04384134e-02, 4.17536544e-03, 1.67014617e-02, 6.26304839e-03,
          2.08768272e-03, 3.54906060e-02, 1.25260968e-02, 2.08768272e-03,
          2.29645092e-02, 4.17536544e-03, 2.92275585e-02, 1.67014617e-02,
          1.04384134e-02, 2.92275585e-02, 1.25260968e-02, 0.,
          2.08768267e-02, 1.25260968e-02, 8.35073087e-03, 2.08768272e-03,
          2.08768272e-03, 4.17536544e-03, 1.04384134e-02, 1.46137793e-02,
          0., 3.75782885e-02, 1.67014617e-02, 8.35073087e-03,
          4.17536544e-03 ]
      - [ 1.25673255e-02, 3.59066436e-03, 1.97486542e-02, 1.97486542e-02,
          8.97666067e-03, 2.15439871e-02, 1.79533213e-02, 1.43626574e-02,
          3.59066436e-03, 1.97486542e-02, 1.25673255e-02, 8.97666067e-03,
          2.33393181e-02, 3.59066436e-03, 7.18132872e-03, 7.18132872e-03,
          7.18132872e-03, 1.61579903e-02, 1.25673255e-02, 1.25673255e-02,
          0., 3.59066436e-03, 5.38599677e-03, 2.87253149e-02,
          3.23159806e-02, 1.25673255e-02, 7.18132872e-03, 7.18132872e-03,
          0., 9.69479382e-02, 7.18132872e-03, 1.43626574e-02, 0.,
          1.43626574e-02, 1.61579903e-02, 2.87253149e-02, 8.97666067e-03,
          6.28366247e-02, 2.15439871e-02, 8.97666067e-03, 1.61579903e-02,
          1.61579903e-02, 3.59066436e-03, 1.07719935e-02, 5.38599677e-03,
          5.38599677e-03, 3.05206478e-02, 5.38599677e-03, 1.79533218e-03,
          2.15439871e-02, 1.79533218e-03, 3.41113098e-02, 8.97666067e-03,
          8.97666067e-03, 2.69299820e-02, 1.61579903e-02, 3.59066436e-03,
          1.79533213e-02, 1.61579903e-02, 1.79533213e-02, 0., 0.,
          7.18132872e-03, 8.97666067e-03, 7.18132872e-03, 3.59066436e-03,
          3.94973084e-02, 1.61579903e-02, 1.07719935e-02, 7.18132872e-03 ]
      - [ 2.08034441e-02, 1.07604014e-02, 3.58680054e-03, 2.15208041e-03,
          3.58680054e-03, 1.72166433e-02, 3.08464859e-02, 8.60832166e-03,
          3.15638445e-02, 1.93687230e-02, 1.07604014e-02, 1.29124820e-02,
          6.45624101e-03, 8.60832166e-03, 2.29555238e-02, 2.43902449e-02,
          2.58249640e-02, 2.29555238e-02, 3.15638445e-02, 3.58680054e-03,
          9.32568125e-03, 1.93687230e-02, 1.50645627e-02, 8.60832166e-03,
          2.58249640e-02, 2.36728843e-02, 1.79340038e-02, 1.57819223e-02,
          4.30416083e-03, 6.45624101e-03, 2.29555238e-02, 1.50645627e-02,
          1.07604014e-02, 1.72166433e-02, 2.43902449e-02, 1.43472021e-02,
          1.64992828e-02, 5.73888095e-03, 1.43472021e-02, 3.58680054e-03,
          1.14777619e-02, 1.07604014e-02, 3.58680054e-03, 1.36298425e-02,
          2.22381633e-02, 2.15208028e-02, 5.02152089e-03, 2.15208028e-02,
          9.32568125e-03, 1.43472021e-02, 5.02152089e-03, 5.73888095e-03,
          1.00430418e-02, 9.32568125e-03, 2.43902449e-02, 6.45624101e-03,
          2.00860836e-02, 2.15208041e-03, 2.22381633e-02, 1.79340038e-02,
          1.50645627e-02, 8.60832166e-03, 1.79340038e-02, 6.45624101e-03,
          2.22381633e-02, 5.02152089e-03, 1.64992828e-02, 4.30416083e-03,
          1.21951224e-02, 2.51076035e-02 ]
      - [ 1.75763182e-02, 5.55041619e-03, 1.85013877e-03, 6.47548586e-03,
          3.70027754e-03, 1.94264576e-02, 3.88529152e-02, 6.47548586e-03,
          3.23774293e-02, 2.77520809e-02, 1.29509717e-02, 9.25069395e-03,
          4.62534698e-03, 9.25069395e-03, 2.40518041e-02, 2.40518041e-02,
          1.75763182e-02, 2.68270113e-02, 2.40518041e-02, 2.77520809e-03,
          7.40055507e-03, 1.57261789e-02, 1.38760405e-02, 6.47548586e-03,
          2.59019434e-02, 2.96022203e-02, 2.40518041e-02, 1.57261789e-02,
          4.62534698e-03, 1.11008324e-02, 2.68270113e-02, 1.11008324e-02,
          1.38760405e-02, 2.03515273e-02, 2.31267344e-02, 1.57261789e-02,
          1.29509717e-02, 3.70027754e-03, 1.38760405e-02, 6.47548586e-03,
          5.55041619e-03, 1.38760405e-02, 5.55041619e-03, 1.38760405e-02,
          1.48011101e-02, 2.86771506e-02, 3.70027754e-03, 1.38760405e-02,
          6.47548586e-03, 1.66512486e-02, 7.40055507e-03, 4.62534698e-03,
          1.75763182e-02, 7.40055507e-03, 3.23774293e-02, 5.55041619e-03,
          2.22016647e-02, 3.70027754e-03, 2.59019434e-02, 9.25069395e-03,
          1.75763182e-02, 7.40055507e-03, 1.48011101e-02, 3.70027754e-03,
          2.22016647e-02, 1.85013877e-03, 1.85013879e-02, 2.77520809e-03,
          1.38760405e-02, 2.03515273e-02 ]
      - [ 1.77133661e-02, 9.66183562e-03, 2.41545890e-03, 2.41545890e-03,
          4.02576476e-03, 1.52979065e-02, 2.81803552e-02, 6.44122390e-03,
          2.81803552e-02, 2.25442834e-02, 1.52979065e-02, 1.28824478e-02,
          4.83091781e-03, 8.85668304e-03, 2.25442834e-02, 1.69082135e-02,
          1.93236712e-02, 2.25442834e-02, 3.22061181e-02, 4.83091781e-03,
          8.05152953e-03, 2.65700482e-02, 1.28824478e-02, 8.85668304e-03,
          3.05958129e-02, 2.41545904e-02, 2.49597430e-02, 1.61030591e-02,
          8.85668304e-03, 8.05152953e-03, 2.89855078e-02, 1.44927539e-02,
          1.52979065e-02, 1.61030591e-02, 1.69082135e-02, 1.12721417e-02,
          1.69082135e-02, 6.44122390e-03, 1.77133661e-02, 9.66183562e-03,
          9.66183562e-03, 1.52979065e-02, 3.22061195e-03, 9.66183562e-03,
          2.49597430e-02, 2.57648956e-02, 3.22061195e-03, 2.33494360e-02,
          1.04669891e-02, 1.52979065e-02, 8.05152953e-03, 3.22061195e-03,
          1.52979065e-02, 1.44927539e-02, 2.41545904e-02, 4.83091781e-03,
          2.33494360e-02, 1.61030598e-03, 1.44927539e-02, 8.85668304e-03,
          1.20772952e-02, 8.05152953e-03, 1.93236712e-02, 8.85668304e-03,
          1.77133661e-02, 4.02576476e-03, 1.61030591e-02, 3.22061195e-03,
          1.04669891e-02, 2.09339783e-02 ]
      - [ 1.86823998e-02, 8.84955749e-03, 2.94985250e-03, 4.91642114e-03,
          1.96656841e-03, 1.37659786e-02, 4.03146520e-02, 7.86627363e-03,
          2.16322523e-02, 2.45821048e-02, 1.67158321e-02, 1.47492634e-02,
          8.84955749e-03, 1.37659786e-02, 2.65486743e-02, 1.67158321e-02,
          2.06489675e-02, 1.86823998e-02, 3.63815166e-02, 1.96656841e-03,
          3.93313682e-03, 1.67158321e-02, 8.84955749e-03, 5.89970499e-03,
          3.44149470e-02, 3.44149470e-02, 2.26155370e-02, 9.83284228e-03,
          6.88298931e-03, 1.47492634e-02, 2.85152420e-02, 1.37659786e-02,
          1.37659786e-02, 1.37659786e-02, 1.76991150e-02, 2.06489675e-02,
          1.57325473e-02, 5.89970499e-03, 1.67158321e-02, 3.93313682e-03,
          1.08161261e-02, 1.96656846e-02, 4.91642114e-03, 1.76991150e-02,
          1.96656846e-02, 2.85152420e-02, 1.96656841e-03, 1.67158321e-02,
          6.88298931e-03, 1.96656846e-02, 4.91642114e-03, 1.96656841e-03,
          1.57325473e-02, 8.84955749e-03, 2.65486743e-02, 7.86627363e-03,
          1.86823998e-02, 9.83284204e-04, 1.96656846e-02, 1.17994100e-02,
          1.47492634e-02, 7.86627363e-03, 1.37659786e-02, 6.88298931e-03,
          1.57325473e-02, 9.83284204e-04, 1.96656846e-02, 3.93313682e-03,
          7.86627363e-03, 1.57325473e-02 ]
      - [ 1.52777778e-02, 5.55555569e-03, 1.11111114e-02, 1.38888890e-02,
          9.72222257e-03, 2.08333340e-02, 6.94444450e-03, 1.11111114e-02,
          1.52777778e-02, 2.36111116e-02, 9.72222257e-03, 1.66666675e-02,
          2.91666668e-02, 8.33333377e-03, 1.11111114e-02, 8.33333377e-03,
          6.94444450e-03, 1.94444451e-02, 5.55555569e-03, 2.08333340e-02,
          1.94444451e-02, 1.38888890e-02, 2.22222228e-02, 2.08333340e-02,
          4.16666688e-03, 5.55555569e-03, 1.25000002e-02, 6.94444450e-03,
          1.38888892e-03, 5.69444448e-02, 1.94444451e-02, 4.16666688e-03,
          4.16666688e-03, 1.25000002e-02, 2.50000004e-02, 5.55555569e-03,
          8.33333377e-03, 6.94444450e-03, 8.33333377e-03, 1.80555563e-02,
          5.55555569e-03, 1.11111114e-02, 1.38888890e-02, 1.25000002e-02,
          1.80555563e-02, 6.94444450e-03, 6.25000000e-02, 2.22222228e-02,
          1.11111114e-02, 9.72222257e-03, 8.33333377e-03, 8.33333377e-03,
          1.80555563e-02, 1.11111114e-02, 4.16666688e-03, 2.77777785e-03,
          1.38888892e-03, 3.75000015e-02, 2.36111116e-02, 3.05555556e-02,
          5.55555569e-03, 8.33333377e-03, 1.38888890e-02, 8.33333377e-03,
          2.63888892e-02, 2.77777785e-03, 1.66666675e-02, 4.16666688e-03,
          2.77777780e-02, 2.08333340e-02 ]
      - [ 1.32382903e-02, 6.10997993e-03, 1.22199599e-02, 1.73116103e-02,
          6.10997993e-03, 2.03665998e-02, 6.10997993e-03, 1.73116103e-02,
          1.42566198e-02, 1.32382903e-02, 1.22199599e-02, 1.62932798e-02,
          3.05498987e-02, 1.12016294e-02, 8.14663991e-03, 8.14663991e-03,
          8.14663991e-03, 1.12016294e-02, 1.01832999e-02, 1.93482693e-02,
          1.83299407e-02, 1.73116103e-02, 1.73116103e-02, 1.62932798e-02,
          3.05498997e-03, 2.03665998e-03, 7.12830992e-03, 9.16497037e-03,
          1.01832999e-03, 5.80448098e-02, 1.42566198e-02, 7.12830992e-03,
          7.12830992e-03, 1.22199599e-02, 1.52749494e-02, 1.32382903e-02,
          1.22199599e-02, 1.32382903e-02, 5.09164995e-03, 1.32382903e-02,
          1.12016294e-02, 1.12016294e-02, 1.52749494e-02, 1.73116103e-02,
          1.93482693e-02, 5.09164995e-03, 4.48065177e-02, 3.15682292e-02,
          8.14663991e-03, 1.12016294e-02, 9.16497037e-03, 1.83299407e-02,
          2.03665998e-02, 1.32382903e-02, 8.14663991e-03, 8.14663991e-03,
          2.03665998e-03, 2.54582502e-02, 2.64765806e-02, 2.85132397e-02,
          6.10997993e-03, 6.10997993e-03, 1.62932798e-02, 1.01832999e-02,
          2.44399197e-02, 3.05498997e-03, 1.73116103e-02, 1.01832999e-02,
          2.85132397e-02, 1.83299407e-02 ]
      - [ 1.81818176e-02, 2.27272720e-03, 9.09090880e-03, 2.72727273e-02,
          4.54545440e-03, 1.13636358e-02, 9.09090880e-03, 9.09090880e-03,
          9.09090880e-03, 3.18181813e-02, 1.13636358e-02, 1.36363637e-02,
          2.72727273e-02, 1.36363637e-02, 1.59090906e-02, 1.36363637e-02,
          1.36363637e-02, 6.81818184e-03, 1.59090906e-02, 2.49999985e-02,
          1.13636358e-02, 1.59090906e-02, 1.81818176e-02, 6.81818184e-03,
          6.81818184e-03, 4.54545440e-03, 1.13636358e-02, 1.13636358e-02,
          6.81818184e-03, 3.86363640e-02, 1.36363637e-02, 1.13636358e-02,
          4.54545440e-03, 9.09090880e-03, 1.36363637e-02, 1.59090906e-02,
          4.54545440e-03, 2.27272720e-03, 1.13636358e-02, 2.95454543e-02,
          9.09090880e-03, 1.13636358e-02, 1.36363637e-02, 1.13636358e-02,
          1.81818176e-02, 1.36363637e-02, 2.04545446e-02, 1.59090906e-02,
          1.81818176e-02, 4.54545440e-03, 1.13636358e-02, 1.13636358e-02,
          3.18181813e-02, 2.27272715e-02, 1.13636358e-02, 2.27272720e-03,
          2.27272720e-03, 1.36363637e-02, 1.81818176e-02, 5.22727259e-02,
          6.81818184e-03, 6.81818184e-03, 1.36363637e-02, 1.13636358e-02,
          1.81818176e-02, 2.27272720e-03, 1.36363637e-02, 1.36363637e-02,
          2.72727273e-02, 3.63636352e-02 ]
      - [ 1.60771701e-02, 3.21543403e-03, 9.64630209e-03, 1.92926042e-02,
          1.60771701e-03, 2.41157562e-02, 6.43086806e-03, 1.44694531e-02,
          1.44694531e-02, 2.41157562e-02, 3.21543403e-03, 1.60771701e-02,
          3.53697762e-02, 1.60771701e-02, 1.12540191e-02, 1.76848881e-02,
          1.12540191e-02, 8.03858507e-03, 9.64630209e-03, 2.57234722e-02,
          2.09003203e-02, 1.92926042e-02, 1.60771701e-02, 2.09003203e-02,
          4.82315104e-03, 3.21543403e-03, 6.43086806e-03, 6.43086806e-03,
          3.21543403e-03, 7.07395524e-02, 1.28617361e-02, 1.28617361e-02,
          6.43086806e-03, 9.64630209e-03, 8.03858507e-03, 8.03858507e-03,
          8.03858507e-03, 6.43086806e-03, 4.82315104e-03, 1.92926042e-02,
          1.12540191e-02, 9.64630209e-03, 1.28617361e-02, 6.43086806e-03,
          1.12540191e-02, 6.43086806e-03, 4.18006405e-02, 2.73311883e-02,
          1.44694531e-02, 9.64630209e-03, 9.64630209e-03, 9.64630209e-03,
          1.28617361e-02, 2.09003203e-02, 1.12540191e-02, 1.60771701e-03,
          0., 3.21543403e-02, 1.60771701e-02, 3.85852084e-02,
          8.03858507e-03, 4.82315104e-03, 2.25080382e-02, 1.92926042e-02,
          1.12540191e-02, 4.82315104e-03, 1.76848881e-02, 1.12540191e-02,
          1.60771701e-02, 2.41157562e-02 ]
      - [ 6.70640822e-03, 2.23546941e-02, 5.96125191e-03, 4.47093882e-03,
          1.71385985e-02, 8.19672178e-03, 2.23546941e-03, 2.98062600e-02,
          1.49031300e-02, 1.26676606e-02, 8.19672178e-03, 2.23546941e-02,
          2.98062596e-03, 1.78837553e-02, 1.71385985e-02, 7.45156500e-03,
          2.01192256e-02, 9.68703441e-03, 5.21609560e-03, 1.49031298e-03,
          1.56482868e-02, 1.11773470e-02, 1.49031300e-02, 2.98062596e-03,
          1.04321912e-02, 0., 1.19225038e-02, 2.16095373e-02,
          1.86289120e-02, 3.50223556e-02, 6.03576750e-02, 1.04321912e-02,
          2.60804780e-02, 9.68703441e-03, 1.41579732e-02, 1.19225038e-02,
          2.75707897e-02, 2.45901644e-02, 2.16095373e-02, 3.12965736e-02,
          9.68703441e-03, 2.01192256e-02, 1.71385985e-02, 2.45901644e-02,
          3.12965736e-02, 1.41579732e-02, 7.45156489e-04, 1.11773470e-02,
          1.63934436e-02, 4.47093882e-03, 1.86289120e-02, 1.49031298e-03,
          1.63934436e-02, 1.19225038e-02, 1.04321912e-02, 2.98062596e-03,
          0., 0., 1.19225038e-02, 8.94187763e-03, 2.90611032e-02,
          9.68703441e-03, 1.56482868e-02, 1.19225038e-02, 1.71385985e-02,
          2.38450076e-02, 1.34128164e-02, 5.21609560e-03, 4.47093882e-03,
          2.01192256e-02 ]
      - [ 4.74383309e-03, 2.56166980e-02, 8.53889901e-03, 4.74383309e-03,
          1.89753324e-02, 9.48766619e-03, 4.74383309e-03, 2.94117648e-02,
          1.13851987e-02, 1.42314993e-02, 3.79506638e-03, 1.80265661e-02,
          3.79506638e-03, 1.89753324e-02, 7.59013277e-03, 3.79506638e-03,
          2.18216311e-02, 1.32827321e-02, 6.64136605e-03, 1.89753319e-03,
          2.08728649e-02, 7.59013277e-03, 1.61290318e-02, 2.84629967e-03,
          1.13851987e-02, 0., 1.13851987e-02, 2.56166980e-02,
          2.18216311e-02, 3.79506648e-02, 7.21062645e-02, 1.61290318e-02,
          2.75142305e-02, 8.53889901e-03, 1.04364324e-02, 1.23339659e-02,
          2.65654642e-02, 2.37191655e-02, 1.51802655e-02, 3.51043642e-02,
          8.53889901e-03, 1.23339659e-02, 2.37191655e-02, 1.70777980e-02,
          3.22580636e-02, 1.61290318e-02, 9.48766596e-04, 6.64136605e-03,
          1.80265661e-02, 4.74383309e-03, 1.89753324e-02, 4.74383309e-03,
          1.04364324e-02, 1.04364324e-02, 7.59013277e-03, 2.84629967e-03,
          0., 0., 1.04364324e-02, 8.53889901e-03, 3.60531323e-02,
          7.59013277e-03, 1.13851987e-02, 9.48766619e-03, 2.18216311e-02,
          2.18216311e-02, 8.53889901e-03, 5.69259934e-03, 4.74383309e-03,
          2.37191655e-02 ]
      - [ 3.56824254e-03, 2.31935773e-02, 3.56824254e-03, 5.35236392e-03,
          1.24888485e-02, 1.15967887e-02, 5.35236392e-03, 3.21141817e-02,
          1.51650310e-02, 1.07047278e-02, 9.81266703e-03, 2.76538804e-02,
          3.56824254e-03, 1.96253341e-02, 4.46030311e-03, 6.24442426e-03,
          2.67618187e-02, 1.15967887e-02, 6.24442426e-03, 3.56824254e-03,
          2.05173939e-02, 1.24888485e-02, 1.15967887e-02, 5.35236392e-03,
          1.24888485e-02, 0., 1.51650310e-02, 1.78412125e-02,
          2.31935773e-02, 3.12221218e-02, 5.17395176e-02, 1.07047278e-02,
          2.76538804e-02, 7.13648507e-03, 1.07047278e-02, 1.07047278e-02,
          3.56824249e-02, 2.76538804e-02, 2.49776971e-02, 3.21141817e-02,
          8.02854542e-03, 9.81266703e-03, 2.58697588e-02, 1.87332742e-02,
          2.49776971e-02, 1.69491526e-02, 2.67618196e-03, 6.24442426e-03,
          1.78412125e-02, 4.46030311e-03, 2.14094557e-02, 2.67618196e-03,
          2.05173939e-02, 9.81266703e-03, 1.42729701e-02, 3.56824254e-03,
          0., 0., 1.07047278e-02, 8.92060623e-03, 2.40856372e-02,
          7.13648507e-03, 1.42729701e-02, 1.33809093e-02, 2.40856372e-02,
          2.49776971e-02, 1.15967887e-02, 4.46030311e-03, 2.67618196e-03,
          1.42729701e-02 ]
      - [ 3.92773002e-03, 2.67085638e-02, 4.71327594e-03, 1.09976437e-02,
          1.72820110e-02, 7.06991367e-03, 6.28436776e-03, 3.45640220e-02,
          1.41398273e-02, 1.17831891e-02, 1.02120973e-02, 2.90652011e-02,
          4.71327594e-03, 1.41398273e-02, 7.85546005e-03, 4.71327594e-03,
          1.96386501e-02, 1.17831891e-02, 8.64100549e-03, 3.14218388e-03,
          1.25687355e-02, 9.42655187e-03, 1.57109201e-02, 3.14218388e-03,
          9.42655187e-03, 0., 1.33542819e-02, 1.64964646e-02,
          2.51374710e-02, 2.43519247e-02, 7.14846849e-02, 1.33542819e-02,
          2.74941083e-02, 5.49882185e-03, 1.17831891e-02, 1.09976437e-02,
          2.90652011e-02, 3.37784775e-02, 1.88531037e-02, 3.61351147e-02,
          4.71327594e-03, 1.57109201e-02, 1.64964646e-02, 1.72820110e-02,
          2.51374710e-02, 1.33542819e-02, 1.57109194e-03, 7.06991367e-03,
          2.51374710e-02, 3.92773002e-03, 2.43519247e-02, 3.92773002e-03,
          1.17831891e-02, 1.17831891e-02, 7.06991367e-03, 3.14218388e-03,
          0., 7.85545970e-04, 1.09976437e-02, 4.71327594e-03,
          2.27808338e-02, 1.17831891e-02, 1.41398273e-02, 1.72820110e-02,
          2.04241946e-02, 2.51374710e-02, 9.42655187e-03, 6.28436776e-03,
          4.71327594e-03, 1.96386501e-02 ]
   decision_functions:
      -
         sv_count: 8
         rho: 1.3652741909027100e-03
         alpha: [ 1., 1., 1., 1., -1., -1., -1., -1. ]
         index: [ 0, 1, 2, 3, 4, 5, 6, 7 ]
      -
         sv_count: 8
         rho: -8.6456537246704102e-05
         alpha: [ 1., 1., 1., 1., -1., -1., -1., -1. ]
         index: [ 0, 1, 2, 3, 8, 9, 10, 11 ]
      -
         sv_count: 8
         rho: 4.7412514686584473e-04
         alpha: [ 1., 1., 1., 1., -1., -1., -1., -1. ]
         index: [ 0, 1, 2, 3, 12, 13, 14, 15 ]
      -
         sv_count: 8
         rho: -2.6822090148925781e-05
         alpha: [ 1., 1., 1., 1., -1., -1., -1., -1. ]
         index: [ 0, 1, 2, 3, 16, 17, 18, 19 ]
      -
         sv_count: 8
         rho: 3.2940208911895752e-03
         alpha: [ 1., 1., 1., 1., -1., -1., -1., -1. ]
         index: [ 4, 5, 6, 7, 8, 9, 10, 11 ]
      -
         sv_count: 8
         rho: 1.7430782318115234e-03
         alpha: [ 1., 1., 1., 1., -1., -1., -1., -1. ]
         index: [ 4, 5, 6, 7, 12, 13, 14, 15 ]
      -
         sv_count: 8
         rho: -3.1009316444396973e-03
         alpha: [ 1., 1., 1., 1., -1., -1., -1., -1. ]
         index: [ 4, 5, 6, 7, 16, 17, 18, 19 ]
      -
         sv_count: 8
         rho: 8.9862942695617676e-04
         alpha: [ 1., 1., 1., 1., -1., -1., -1., -1. ]
         index: [ 8, 9, 10, 11, 12, 13, 14, 15 ]
      -
         sv_count: 8
         rho: -6.0737133026123047e-05
         alpha: [ 1., 1., 1., 1., -1., -1., -1., -1. ]
         index: [ 8, 9, 10, 11, 16, 17, 18, 19 ]
      -
         sv_count: 8
         rho: -3.1343400478363037e-03
         alpha: [ 1., 1., 1., 1., -1., -1., -1., -1. ]
         index: [ 12, 13, 14, 15, 16, 17, 18, 19 ]
