%YAML:1.0
my_svm: !!opencv-ml-svm
   svm_type: C_SVC
   kernel: { type:LINEAR }
   C: 1.
   term_criteria: { epsilon:2.2204460492503131e-16, iterations:100 }
   var_all: 150
   var_count: 150
   class_count: 5
   class_labels: !!opencv-matrix
      rows: 1
      cols: 5
      dt: i
      data: [ 0, 1, 2, 3, 4 ]
   sv_total: 10
   support_vectors:
      - [ -1.75691973e-02, -1.60670653e-02, -8.84883851e-03,
          -1.21434312e-03, 2.24039555e-02, -2.05694139e-02,
          1.60062257e-02, -1.51805222e-01, 1.17641152e-03,
          -8.19774345e-03, 1.74457338e-02, -7.29548186e-03,
          1.63127519e-02, 4.36591450e-03, -3.89095582e-02,
          -2.31666560e-03, -1.62385572e-02, -1.26427971e-04,
          -2.65129209e-02, 1.44729204e-02, 4.68907915e-02,
          7.40877986e-02, -2.31136885e-02, 9.30334441e-04,
          -4.04682616e-03, -9.16423462e-03, -5.73870689e-02,
          -9.21706576e-03, 4.57025599e-03, 4.89763962e-03,
          -3.66509520e-02, -3.74850631e-03, -6.22299826e-03,
          -2.29373761e-03, -1.28327552e-02, -1.95497684e-02,
          -4.26845159e-03, 6.87986389e-02, 3.98336723e-03,
          4.49344143e-02, 3.79398428e-02, -2.39761118e-02,
          -8.23741779e-04, -1.86193231e-02, -1.42758770e-03,
          4.10536937e-02, -3.27891856e-02, -8.00235942e-03,
          -2.50429055e-03, 1.85138490e-02, 1.06705371e-02,
          1.94532964e-02, 1.50362728e-03, 8.93605221e-03,
          -1.48498630e-02, 3.68471676e-03, 1.89000517e-02,
          -5.60341775e-03, -7.94247445e-03, -2.33802088e-02,
          2.24243160e-02, 7.10666133e-03, 1.53677389e-02,
          -4.80900472e-03, 1.46716442e-02, 2.82285921e-03,
          1.16375135e-02, 1.87325187e-03, -2.89540961e-02,
          -4.53972071e-02, -5.32500306e-03, 2.05438100e-02,
          -5.75199304e-03, -1.22223645e-02, -4.61206958e-03,
          1.61585007e-02, 1.59375137e-04, 4.98701399e-03, 1.02695078e-02,
          1.46494163e-02, 2.33976319e-02, 5.68106212e-02, 2.54478492e-03,
          -2.92275241e-03, -6.10669330e-03, -1.07642347e-02,
          -1.50014320e-02, 1.67843197e-02, -5.96508943e-03,
          -2.21574139e-02, 2.48472057e-02, -3.85472775e-02,
          3.69777880e-03, -8.71314481e-03, 9.00739525e-03,
          -4.13391292e-02, -5.84964780e-03, 3.91019508e-04,
          8.00197665e-03, 1.04813399e-02, -2.18134411e-02,
          -1.67097338e-02, -1.93136465e-02, -2.60039745e-03,
          9.06530186e-04, -1.81075241e-02, 5.22566866e-03,
          1.61098279e-02, -2.36051045e-02, -3.78620671e-03,
          5.66725433e-02, 5.52663580e-02, 7.07040820e-03, 3.43782268e-03,
          1.31257460e-04, -4.89004422e-03, 5.11440681e-04,
          5.79666980e-02, -1.63144749e-02, -1.74555257e-02,
          4.42282818e-02, 1.32949846e-02, 4.07844707e-02,
          -5.11179969e-04, -2.10761391e-02, -9.29868966e-03,
          -3.98111623e-03, -1.95441023e-02, -1.26497056e-02,
          7.21110497e-03, -6.49507809e-03, 2.19891313e-04,
          -5.93482750e-03, 1.83867384e-02, -1.06370403e-03,
          -1.48239210e-02, -1.37884589e-02, 1.21075648e-03,
          -4.33379263e-02, -1.33984815e-02, 7.59903118e-02,
          -1.68593898e-02, 3.72246094e-02, 5.99228451e-03,
          1.61550893e-03, -1.83336753e-02, -1.65989958e-02,
          8.94003175e-03, -8.82145949e-03, 2.06716917e-02 ]
      - [ -4.85219341e-03, -6.93290378e-04, -1.90015025e-02,
          1.02843074e-02, 2.85680275e-02, -2.75753774e-02,
          9.98298731e-03, 3.10778562e-02, -2.55965907e-03,
          -5.28086629e-03, 1.29664149e-02, 1.26139785e-03,
          -7.38698198e-03, 3.76968691e-03, -6.64361566e-02,
          -2.62315255e-02, -3.46614863e-03, -1.96525510e-02,
          -6.66232314e-03, 1.43478671e-02, 2.55011600e-02,
          7.95741454e-02, -6.10943213e-02, 5.98379457e-03,
          1.53579898e-02, -1.42739303e-02, 2.33066995e-02,
          -1.86414346e-02, 1.11246444e-02, -8.35557748e-03,
          -1.70425791e-02, 6.00150833e-03, 8.04505253e-04,
          2.42001424e-03, -1.59773286e-02, -8.16996768e-02, 0.,
          9.87145230e-02, 9.50466655e-03, 4.94570658e-02, 4.70129587e-02,
          -1.51076287e-01, 7.70360138e-03, -1.81879569e-02,
          -1.18927900e-02, 4.48380299e-02, -1.36699844e-02,
          -3.07474621e-02, 8.45289137e-03, -5.35698514e-03,
          2.12459378e-02, -2.52230093e-02, -3.45422328e-02,
          -2.57399585e-02, -3.41610936e-03, 2.30088625e-02,
          1.58810169e-02, 4.28441074e-03, 3.68058402e-03,
          -3.42399627e-02, 2.62400452e-02, -6.26309775e-04,
          3.86809139e-03, -5.26237627e-03, 1.13064796e-03,
          1.14909392e-02, 1.28576811e-03, -2.93940213e-03,
          3.61774769e-03, -9.43283215e-02, -1.66076571e-02,
          8.23910814e-05, 0., 3.92685551e-03, -2.77026985e-02,
          2.66091861e-02, -2.54683103e-03, -2.07280964e-02,
          1.57487951e-02, -8.44066031e-04, 3.54220048e-02,
          6.62831441e-02, -8.71608313e-03, 3.53477942e-03,
          -3.14758113e-03, -1.31437313e-02, 2.20226329e-02,
          5.87904919e-03, 7.41281733e-03, -8.80237762e-03,
          -6.50634058e-04, -3.02978251e-02, 1.94685184e-03,
          -1.63553469e-03, -5.15878014e-03, -3.20085953e-03,
          1.43990768e-02, 3.93250212e-03, 5.91445202e-03, 1.18314028e-02,
          -6.94201700e-03, -4.85295057e-03, 4.88637574e-03,
          2.52979295e-03, -1.15041146e-02, -1.53697394e-02,
          3.64967017e-03, 1.32539459e-02, -5.76742087e-03,
          -9.92890820e-03, 4.43371236e-02, 3.21382061e-02,
          2.89714267e-03, 1.92788132e-02, -2.65941471e-02,
          -1.92896482e-02, -9.72726196e-03, 5.02481051e-02,
          -1.93793606e-02, 3.59522831e-03, 5.14843166e-02,
          1.71212330e-02, 4.62210327e-02, -5.12755848e-03,
          -6.74582571e-02, -5.28408214e-03, -2.62811733e-03,
          -1.50172086e-03, -1.84147269e-03, 4.11475711e-02,
          -2.98350956e-02, 1.91078372e-02, 4.99004638e-03,
          1.77229345e-02, 1.55672105e-03, 5.17642591e-04,
          -1.72601473e-02, -4.69978619e-03, 9.45409294e-03,
          -5.96439801e-02, 7.60069937e-02, 5.35642786e-04,
          4.38851584e-03, -5.77071961e-03, 1.61550893e-03,
          -3.83923855e-03, -1.70871448e-02, -2.93112360e-02,
          -8.21137801e-03, 3.87897529e-02 ]
      - [ -5.78331808e-03, -4.04241914e-03, 4.38459311e-03,
          1.67060252e-02, 1.44127784e-02, -1.69937313e-02,
          2.50822846e-02, 4.14418057e-02, -4.01694886e-02,
          -1.61913224e-04, -8.26646760e-03, -4.74005044e-02,
          -7.86027871e-03, -4.90959138e-02, 6.27560774e-04,
          -3.74995358e-02, -2.44144034e-02, -2.43753549e-02,
          4.74646036e-03, -4.90026213e-02, 3.94998975e-02,
          6.56675249e-02, -1.47927795e-02, -1.38484519e-02,
          1.41927190e-02, -2.03419514e-02, 2.87004933e-02,
          -6.85319528e-02, -2.40738993e-03, 7.08688982e-04,
          5.44942962e-03, -5.30714821e-03, -4.45114635e-03,
          -2.09627394e-03, 3.49708390e-03, 1.04865879e-02,
          -1.38366409e-03, 9.94912982e-02, 7.86169432e-03,
          -8.62364843e-03, 5.44618145e-02, 2.06270628e-02,
          4.72841226e-03, 3.93872801e-03, -4.50949706e-02,
          2.75702793e-02, -1.70626044e-02, -2.38774600e-03,
          1.78249329e-02, -1.60131492e-02, 3.71761285e-02,
          -2.07600230e-03, 8.95611290e-03, 2.30691023e-02,
          -7.87976012e-03, 9.72266868e-03, -1.55723959e-01,
          8.57496168e-04, 5.12616057e-03, 3.95432021e-03, 2.97554526e-02,
          1.12808049e-02, 1.13316048e-02, -2.90152412e-02,
          1.49535127e-02, -2.02004351e-02, 1.73595753e-02,
          -6.35225251e-02, 1.53901493e-02, 9.57295205e-03,
          -1.54727492e-02, -7.49447420e-02, -6.80164807e-03,
          -8.09754431e-03, 1.94719341e-02, 2.04548873e-02,
          -4.43985090e-02, -4.45541926e-02, 1.73285920e-02,
          1.70338638e-02, 3.69183384e-02, 7.43709654e-02, 3.38600799e-02,
          -2.67616138e-02, -2.67170481e-02, -4.51049171e-02,
          -8.73063877e-03, -3.30074108e-03, -1.00263553e-02,
          6.99013937e-03, 3.22096748e-03, 1.14371795e-02,
          -6.35566609e-03, -3.33225122e-03, 1.49609884e-02,
          -2.44913273e-03, 3.57582420e-03, 8.41868483e-03,
          -5.48244752e-02, 2.59115268e-02, -2.48460360e-02,
          -1.04442956e-02, 1.10312589e-02, 1.28621487e-02,
          5.56391256e-04, 1.20402342e-02, -4.75701280e-02,
          2.70485575e-03, 6.62335660e-04, 1.79281756e-02, 4.69356291e-02,
          6.08053580e-02, -7.72776678e-02, 3.88599299e-02,
          -3.58352736e-02, -4.72555868e-03, 8.36642459e-03,
          6.00043312e-02, -1.48266135e-02, 5.39687090e-03,
          3.61183435e-02, 3.03161573e-02, 2.51001865e-02,
          -4.60954905e-02, 7.53821991e-03, -4.14427277e-03,
          -9.26871784e-03, -1.53813940e-02, -1.87083296e-02,
          4.13891338e-02, -3.81862521e-02, -1.82256624e-02,
          1.99270342e-02, 2.76801595e-03, -2.24849153e-02,
          1.26371384e-02, -3.55490856e-03, -4.18821611e-02,
          -1.83498934e-02, 8.03449750e-03, 7.51210004e-02,
          4.81073465e-03, 4.54131737e-02, -3.14756371e-02,
          7.65891280e-04, 2.77374517e-02, 2.84063667e-02, 1.41115570e-02,
          2.96088983e-04, 1.77693404e-02 ]
      - [ -6.93515362e-03, -1.44943511e-02, 5.52827306e-03,
          -7.01150624e-03, 1.80773567e-02, -5.88801783e-03,
          1.04841087e-02, 2.68684607e-02, -8.21078196e-03,
          -9.07112285e-03, 4.53535840e-03, -2.32542492e-02,
          3.41458409e-03, 3.22418381e-03, -1.76385883e-02,
          -1.94496773e-02, -1.62151549e-02, -3.41115855e-02,
          9.93069028e-04, 5.10682259e-03, 2.25718766e-02, 8.09414834e-02,
          -6.82172179e-03, -3.38642392e-04, 1.03264162e-02,
          -3.66273522e-02, 2.29764655e-02, -1.15969097e-02,
          -1.04571716e-03, -9.38792247e-03, -3.37352455e-02,
          -7.73284491e-03, -6.00359738e-02, -2.16890108e-02,
          9.43534775e-04, 2.83569610e-03, -3.89113277e-02,
          9.58183706e-02, -5.58813661e-03, 3.25692967e-02,
          5.25605530e-02, 9.02049057e-03, 2.56782467e-03,
          -7.77892955e-03, -2.12528985e-02, 2.51991674e-02,
          -2.16919519e-02, -2.04088911e-02, -2.97984993e-03,
          1.37977777e-02, 2.68145930e-02, 4.87436308e-03,
          -7.77058257e-03, 1.36943180e-02, -2.17920151e-02,
          -5.34952059e-03, -5.57000563e-02, 6.44344185e-03,
          -2.86531672e-02, -2.20549144e-02, 9.61487647e-03,
          -3.12955678e-03, -1.03023853e-02, -9.31837130e-05,
          9.01939441e-03, 3.11724888e-03, 1.05786761e-02,
          -1.16381757e-02, -6.42496021e-03, -1.50365643e-02,
          -1.58274733e-02, 1.39522343e-03, -3.54789235e-02,
          -1.44051258e-02, -1.78455375e-04, 2.25312505e-02,
          -7.86027592e-03, -3.60320024e-02, 8.51497054e-03,
          1.65081844e-02, 1.68033633e-02, 3.94543968e-02, 3.27908248e-02,
          6.82027685e-03, -4.69576381e-03, -2.39498783e-02,
          -5.43230772e-03, 6.21637888e-03, -1.25112450e-02,
          5.46590099e-03, -7.02389795e-03, 1.38859944e-02,
          -5.68176678e-04, 2.62100773e-04, 1.02710351e-02,
          -1.16157485e-02, -1.61397364e-03, 8.87234323e-03,
          2.69277347e-03, 1.96321160e-02, -1.97420120e-02,
          -1.53583279e-02, -1.73094263e-03, 3.20055429e-03,
          -2.01558415e-02, -1.69604439e-02, -1.90701801e-02,
          -4.77768667e-03, -1.30818551e-03, -1.70922969e-02,
          4.70561013e-02, 5.11060134e-02, 7.96086737e-04, 1.04390234e-02,
          -1.31672956e-02, -9.04590171e-03, 1.87845789e-02,
          6.49944469e-02, -3.66860144e-02, 5.43287396e-03,
          2.32093278e-02, -8.37827567e-03, 3.42290178e-02,
          -9.36449273e-04, 1.31543223e-02, -1.17325950e-02,
          -5.26689366e-03, -5.27057191e-03, 1.05074584e-03,
          3.86142060e-02, -2.85994168e-02, 5.79340803e-03,
          8.54389742e-03, 1.90681256e-02, -1.99405029e-02,
          -1.22688152e-03, -1.58657469e-02, -1.62302554e-02,
          -5.07784309e-03, -1.38972839e-02, 7.84214213e-02,
          -3.17945108e-02, 4.78180982e-02, -3.00116241e-02,
          -3.14459763e-02, 3.97492107e-03, 2.31664330e-02,
          -1.07231922e-02, -2.48698313e-02, 2.59160679e-02 ]
      - [ 1.27170049e-02, 1.53737748e-02, -1.01526622e-02,
          1.14986505e-02, 6.16407115e-03, -7.00596347e-03,
          -6.02323888e-03, 1.82883084e-01, -3.73607059e-03,
          2.91687716e-03, -4.47931979e-03, 8.55688006e-03,
          -2.36997344e-02, -5.96227241e-04, -2.75265984e-02,
          -2.39148587e-02, 1.27724083e-02, -1.95261240e-02,
          1.98505968e-02, -1.25053513e-04, -2.13896316e-02,
          5.48634864e-03, -3.79806347e-02, 5.05346013e-03,
          1.94048155e-02, -5.10969479e-03, 8.06937665e-02,
          -9.42436792e-03, 6.55438891e-03, -1.32532176e-02,
          1.96083710e-02, 9.75001417e-03, 7.02750357e-03, 4.71375184e-03,
          -3.14457342e-03, -6.21499121e-02, 4.26845159e-03,
          2.99158804e-02, 5.52129932e-03, 4.52265143e-03, 9.07311309e-03,
          -1.27100170e-01, 8.52734316e-03, 4.31366730e-04,
          -1.04652029e-02, 3.78433359e-03, 1.91191994e-02,
          -2.27451026e-02, 1.09571815e-02, -2.38708332e-02,
          1.05753997e-02, -4.46763076e-02, -3.60458605e-02,
          -3.46760117e-02, 1.14337532e-02, 1.93241462e-02,
          -3.01903300e-03, 9.88782849e-03, 1.16230585e-02,
          -1.08597539e-02, 3.81572917e-03, -7.73297111e-03,
          -1.14996471e-02, -4.53371555e-04, -1.35409962e-02,
          8.66807997e-03, -1.03517454e-02, -4.81265411e-03,
          3.25718448e-02, -4.89311107e-02, -1.12826535e-02,
          -2.04614196e-02, 5.75199304e-03, 1.61492210e-02,
          -2.30906289e-02, 1.04506854e-02, -2.70620617e-03,
          -2.57151090e-02, 5.47928875e-03, -1.54934824e-02,
          1.20243728e-02, 9.47252102e-03, -1.12608681e-02,
          6.45753182e-03, 2.95911194e-03, -2.37949658e-03,
          3.70240659e-02, -1.09052705e-02, 1.33779068e-02,
          1.33550372e-02, -2.54978407e-02, 8.24945327e-03,
          -1.75092707e-03, 7.07761012e-03, -1.41661754e-02,
          3.81382704e-02, 2.02487241e-02, 3.54148261e-03,
          -2.08752486e-03, 1.35006290e-03, 1.48714241e-02,
          1.18567832e-02, 2.42000222e-02, 5.13019040e-03,
          -1.24106444e-02, 2.73778569e-03, -1.57599838e-03,
          -2.85588251e-03, 1.78376827e-02, -6.14270195e-03,
          -1.23354206e-02, -2.31281519e-02, -4.17326577e-03,
          1.58409905e-02, -2.67254058e-02, -1.43996049e-02,
          -1.02387024e-02, -7.71859195e-03, -3.06488667e-03,
          2.10507549e-02, 7.25603290e-03, 3.82624846e-03, 5.43656386e-03,
          -4.61637881e-03, -4.63821180e-02, 4.01460752e-03,
          1.35299901e-03, 1.80423800e-02, 1.08082332e-02, 3.39364670e-02,
          -2.33400185e-02, 1.88879445e-02, 1.09248739e-02,
          -6.63804996e-04, 2.62042508e-03, 1.53415632e-02,
          -3.47168744e-03, -5.91054279e-03, 5.27920201e-02,
          -4.62454967e-02, 1.66754471e-05, 1.73950326e-02,
          -3.28360945e-02, -1.17630046e-02, 0., 1.44944368e-02,
          -4.88149002e-04, -3.82512659e-02, 6.10081246e-04,
          1.81180630e-02 ]
      - [ 1.17858797e-02, 1.20246457e-02, 1.32334325e-02, 1.79203693e-02,
          -7.99117796e-03, 3.57568404e-03, 9.07605793e-03,
          1.93247035e-01, -4.13459018e-02, 8.03583022e-03,
          -2.57122032e-02, -4.01050225e-02, -2.41730306e-02,
          -5.34618273e-02, 3.95371169e-02, -3.51828709e-02,
          -8.17584619e-03, -2.42489260e-02, 3.12593803e-02,
          -6.34755418e-02, -7.39089400e-03, -8.42027552e-03,
          8.32090899e-03, -1.47787854e-02, 1.82395447e-02,
          -1.11777168e-02, 8.60875621e-02, -5.93148880e-02,
          -6.97764568e-03, -4.18895064e-03, 4.21003811e-02,
          -1.55864167e-03, 1.77185191e-03, 1.97463552e-04,
          1.63298380e-02, 3.00363563e-02, 2.88478751e-03, 3.06926519e-02,
          3.87832755e-03, -5.35580628e-02, 1.65219698e-02,
          4.46031727e-02, 5.55215403e-03, 2.25580521e-02,
          -4.36673835e-02, -1.34834154e-02, 1.57265794e-02,
          5.61461318e-03, 2.03292239e-02, -3.45269963e-02,
          2.65055895e-02, -2.15292983e-02, 7.45248515e-03,
          1.41330501e-02, 6.97010197e-03, 6.03795238e-03,
          -1.74624011e-01, 6.46091392e-03, 1.30686350e-02,
          2.73345280e-02, 7.33113708e-03, 4.17414401e-03,
          -4.03613364e-03, -2.42062360e-02, 2.81868502e-04,
          -2.30232924e-02, 5.72206220e-03, -6.53957725e-02,
          4.43442464e-02, 5.49701601e-02, -1.01477457e-02,
          -9.54885483e-02, -1.04965479e-03, 4.12482023e-03,
          2.40840036e-02, 4.29638755e-03, -4.45578843e-02,
          -4.95412052e-02, 7.05908518e-03, 2.38444703e-03,
          1.35207055e-02, 1.75603442e-02, 3.13152932e-02,
          -2.38388609e-02, -2.06103567e-02, -3.43406796e-02,
          6.27079327e-03, -2.00850610e-02, -4.06126538e-03,
          2.91475542e-02, -2.16262396e-02, 4.99844588e-02,
          -1.00534447e-02, 5.38089313e-03, 5.95359318e-03,
          3.88899967e-02, 9.42547247e-03, 8.02766532e-03,
          -6.28264546e-02, 1.54301859e-02, -3.03259585e-03,
          6.26543770e-03, 3.03449053e-02, 1.54625457e-02,
          -3.50138929e-04, 3.01477592e-02, -5.27957976e-02,
          -1.34049719e-02, 2.42674388e-02, 2.17143837e-02,
          -9.73691605e-03, 5.53900097e-03, -8.43480825e-02,
          3.54221091e-02, -3.59665304e-02, 1.64485537e-04,
          7.85498414e-03, 2.03763042e-03, 1.48786139e-03, 2.28523966e-02,
          -8.10994022e-03, 1.70211717e-02, -1.56842843e-02,
          -4.55843098e-02, 2.86143590e-02, 5.15441690e-03,
          -5.28760115e-03, 4.16270783e-03, -6.05862495e-03,
          3.41780297e-02, -3.16911750e-02, -1.84455533e-02,
          2.58618612e-02, -1.56187229e-02, -2.14212108e-02,
          2.74610594e-02, 1.02335503e-02, -4.30929177e-02,
          2.49880347e-02, 2.14329790e-02, -8.69312324e-04,
          2.16701254e-02, 8.18856340e-03, -3.74679230e-02,
          -8.49617645e-04, 4.60711271e-02, 4.50053625e-02,
          5.17152529e-03, 9.11754835e-03, -2.90235085e-03 ]
      - [ 1.06340442e-02, 1.57271372e-03, 1.43771116e-02,
          -5.79716312e-03, -4.32660058e-03, 1.46813970e-02,
          -5.52211748e-03, 1.78673685e-01, -9.38719418e-03,
          -8.73378944e-04, -1.29103763e-02, -1.59587674e-02,
          -1.28981676e-02, -1.14173046e-03, 2.12709680e-02,
          -1.71330106e-02, 2.34015752e-05, -3.39851566e-02,
          2.75059901e-02, -9.36609786e-03, -2.43189167e-02,
          6.85368571e-03, 1.62919667e-02, -1.26897683e-03,
          1.43732429e-02, -2.74631158e-02, 8.03635344e-02,
          -2.37984420e-03, -5.61597291e-03, -1.42855616e-02,
          2.91570649e-03, -3.98433860e-03, -5.38129769e-02,
          -1.93952732e-02, 1.37762893e-02, 2.23854631e-02,
          -3.46428789e-02, 2.70197261e-02, -9.57150385e-03,
          -1.23651177e-02, 1.46207102e-02, 3.29966024e-02,
          3.39156645e-03, 1.08403936e-02, -1.98253114e-02,
          -1.58545282e-02, 1.10972319e-02, -1.24065327e-02,
          -4.75559384e-04, -4.71607130e-03, 1.61440540e-02,
          -1.45789329e-02, -9.27420985e-03, 4.75826627e-03,
          -6.94215205e-03, -9.03423689e-03, -7.46001080e-02,
          1.20468596e-02, -2.07106918e-02, 1.32529438e-03,
          -1.28094396e-02, -1.02362186e-02, -2.56701242e-02,
          4.71582077e-03, -5.65224979e-03, 2.94389902e-04,
          -1.05883740e-03, -1.35114277e-02, 2.25291364e-02,
          3.03606428e-02, -1.05024707e-02, -1.91485863e-02,
          -2.97269318e-02, -2.18276121e-03, 4.43361420e-03,
          6.37275074e-03, -8.01965035e-03, -4.10190150e-02,
          -1.75453676e-03, 1.85876875e-03, -6.59426954e-03,
          -1.73562225e-02, 3.02460380e-02, 9.74302925e-03,
          1.41092937e-03, -1.31856436e-02, 9.56912432e-03,
          -1.05679408e-02, -6.54615555e-03, 2.76233144e-02,
          -3.18711028e-02, 5.24332747e-02, -4.26595565e-03,
          8.97524506e-03, 1.26363966e-03, 2.97233798e-02, 4.23567416e-03,
          8.48132372e-03, -5.30920364e-03, 9.15077701e-03,
          2.07142951e-03, 1.35140540e-03, 1.75827034e-02, 5.80095174e-03,
          -2.10623723e-02, 1.14708114e-03, -2.42958497e-02,
          -2.08875146e-02, 2.22969186e-02, -1.33060906e-02,
          -9.61644202e-03, -4.16034507e-03, -6.27432158e-03,
          7.00120069e-03, -1.32985534e-02, -4.15585749e-03,
          1.82731375e-02, 7.02774851e-03, -2.03715414e-02,
          2.28883997e-02, -2.10189559e-02, -2.16732603e-02,
          -6.55545387e-03, -4.25269303e-04, 3.42304632e-02,
          -2.43390491e-03, -1.28577696e-03, 1.42735299e-02,
          1.37004517e-02, 3.14030983e-02, -2.21043378e-02,
          5.57351671e-03, 1.44787244e-02, 6.81386038e-04,
          -1.88768003e-02, 1.35970395e-02, -2.07728846e-03,
          -1.74410120e-02, 3.82600836e-02, -4.98802401e-04,
          2.43110349e-03, -1.49351191e-02, 1.05934860e-02,
          -3.60039100e-02, -3.30614857e-02, 2.23085955e-02,
          3.97654288e-02, -1.96632240e-02, -1.60483718e-02,
          5.24437707e-03 ]
      - [ -9.31124785e-04, -3.34912864e-03, 2.33860947e-02,
          6.42171782e-03, -1.41552491e-02, 1.05816480e-02,
          1.50992973e-02, 1.03639513e-02, -3.76098305e-02,
          5.11895306e-03, -2.12328825e-02, -4.86618988e-02,
          -4.73297201e-04, -5.28655984e-02, 6.70637190e-02,
          -1.12680122e-02, -2.09482536e-02, -4.72280290e-03,
          1.14087835e-02, -6.33504912e-02, 1.39987376e-02,
          -1.39066242e-02, 4.63015437e-02, -1.98322460e-02,
          -1.16527104e-03, -6.06802199e-03, 5.39379288e-03,
          -4.98905219e-02, -1.35320351e-02, 9.06426646e-03,
          2.24920083e-02, -1.13086561e-02, -5.25565166e-03,
          -4.51628817e-03, 1.94744114e-02, 9.21862647e-02,
          -1.38366409e-03, 7.76773086e-04, -1.64297177e-03,
          -5.80807142e-02, 7.44885625e-03, 1.71703339e-01,
          -2.97518913e-03, 2.21266840e-02, -3.32021788e-02,
          -1.72677487e-02, -3.39261955e-03, 2.83597168e-02,
          9.37204156e-03, -1.06561640e-02, 1.59301907e-02,
          2.31470075e-02, 4.34983447e-02, 4.88090590e-02,
          -4.46365122e-03, -1.32861938e-02, -1.71604976e-01,
          -3.42691457e-03, 1.44557655e-03, 3.81942838e-02,
          3.51540814e-03, 1.19071156e-02, 7.46351387e-03,
          -2.37528645e-02, 1.38228647e-02, -3.16913724e-02,
          1.60738081e-02, -6.05831221e-02, 1.17724016e-02,
          1.03901275e-01, 1.13490736e-03, -7.50271305e-02,
          -6.80164807e-03, -1.20243998e-02, 4.71746325e-02,
          -6.15429739e-03, -4.18516770e-02, -2.38260962e-02,
          1.57979620e-03, 1.78779289e-02, 1.49633223e-03, 8.08782224e-03,
          4.25761603e-02, -3.02963927e-02, -2.35694684e-02,
          -3.19611840e-02, -3.07532717e-02, -9.17978957e-03,
          -1.74391717e-02, 1.57925170e-02, 3.87160154e-03,
          4.17350046e-02, -8.30251724e-03, -1.69671653e-03,
          2.01197676e-02, 7.51726795e-04, -1.08232526e-02,
          4.48618224e-03, -6.07389286e-02, 1.40801240e-02,
          -1.79040190e-02, -5.59134502e-03, 6.14488311e-03,
          1.03323553e-02, 1.20605053e-02, 2.74099726e-02,
          -5.12197986e-02, -1.05490899e-02, 6.42975699e-03,
          2.78570857e-02, 2.59850454e-03, 2.86671538e-02,
          -8.01748112e-02, 1.95811186e-02, -9.24112462e-03,
          1.45640904e-02, 1.80936866e-02, 9.75622237e-03, 4.55274805e-03,
          1.80164236e-03, -1.53659731e-02, 1.31949242e-02,
          -2.11208481e-02, -4.09679338e-02, 7.49964789e-02,
          1.13980938e-03, -6.64060004e-03, -1.38796726e-02,
          -1.68668572e-02, 2.41563655e-04, -8.35115556e-03,
          -3.73334996e-02, 1.49369873e-02, -1.49549181e-02,
          -2.40416359e-02, 1.21194962e-02, 1.37052378e-02,
          -3.71823758e-02, -2.78039873e-02, 6.76784739e-02,
          -8.85987771e-04, 4.27509192e-03, 4.10246588e-02,
          -2.57049166e-02, -8.49617645e-04, 3.15766893e-02,
          4.54935096e-02, 4.34227921e-02, 8.50746781e-03,
          -2.10204124e-02 ]
      - [ -2.08296045e-03, -1.38010606e-02, 2.45297737e-02,
          -1.72958132e-02, -1.04906717e-02, 2.16873605e-02,
          5.01121627e-04, -4.20939503e-03, -5.65112336e-03,
          -3.79025610e-03, -8.43105651e-03, -2.45156474e-02,
          1.08015658e-02, -5.45503281e-04, 4.87975702e-02,
          6.78184815e-03, -1.27490060e-02, -1.44590326e-02,
          7.65539240e-03, -9.24104452e-03, -2.92928424e-03,
          1.36733707e-03, 5.42725995e-02, -6.32243697e-03,
          -5.03157359e-03, -2.23534219e-02, -3.30234761e-04,
          7.04452395e-03, -1.21703614e-02, -1.03234476e-03,
          -1.66926645e-02, -1.37343528e-02, -6.08404800e-02,
          -2.41090246e-02, 1.69208627e-02, 8.45353752e-02,
          -3.89113277e-02, -2.89615290e-03, -1.50928032e-02,
          -1.68877691e-02, 5.54759707e-03, 1.60096765e-01,
          -5.13577694e-03, 1.04090273e-02, -9.36010852e-03,
          -1.96388625e-02, -8.02196749e-03, 1.03385709e-02,
          -1.14327408e-02, 1.91547628e-02, 5.56865474e-03,
          3.00973728e-02, 2.67716516e-02, 3.94342765e-02,
          -1.83759052e-02, -2.83583831e-02, -7.15810731e-02,
          2.15903111e-03, -3.23337503e-02, 1.21850483e-02,
          -1.66251678e-02, -2.50324700e-03, -1.41704772e-02,
          5.16919233e-03, 7.88874645e-03, -8.37369077e-03,
          9.29290801e-03, -8.69877357e-03, -1.00427084e-02,
          7.92917535e-02, 7.80182891e-04, 1.31283235e-03,
          -3.54789235e-02, -1.83319822e-02, 2.75242440e-02,
          -4.07793419e-03, -5.31344442e-03, -1.53039042e-02,
          -7.23382551e-03, 1.73522513e-02, -1.86186433e-02,
          -2.68287435e-02, 4.15069088e-02, 3.28549743e-03,
          -1.54818257e-03, -1.08061470e-02, -2.74549406e-02,
          3.37329693e-04, -1.99240632e-02, 1.42682791e-02,
          -6.37326390e-03, 4.41838205e-02, -2.51502846e-03,
          1.89763552e-03, 1.54298153e-02, -8.41488875e-03,
          -1.60130505e-02, 4.93984157e-03, -3.22167855e-03,
          7.80071411e-03, -1.27999941e-02, -1.05053773e-02,
          -6.61731884e-03, 6.70761336e-04, -8.65172781e-03,
          -1.59070455e-03, -2.27198508e-02, -1.80316325e-02,
          4.45923582e-03, -7.16338865e-03, 2.71897833e-03,
          1.89678073e-02, -2.10105581e-03, -8.83978978e-03,
          1.34268515e-02, 1.02437474e-02, 2.85118390e-02, 1.47463409e-02,
          -1.73066538e-02, 1.83764566e-03, -2.82749888e-02,
          -2.54995078e-02, -1.19920187e-02, 4.19110944e-03,
          8.06125775e-02, -6.44851243e-03, -2.63877586e-03,
          -3.76885105e-03, 2.89221853e-03, -2.53336644e-03,
          1.23567972e-03, -1.33144287e-02, 3.55385058e-03,
          1.34519103e-03, -2.14972254e-02, -1.74452411e-03,
          1.39439898e-03, -1.15304692e-02, -1.45319365e-02,
          4.57466953e-02, 2.41442793e-03, -3.23301516e-02,
          4.34295796e-02, -2.42409054e-02, -3.30614857e-02,
          7.81415962e-03, 4.02535759e-02, 1.85880437e-02,
          -1.66584533e-02, -1.28736850e-02 ]
      - [ -1.15183566e-03, -1.04519324e-02, 1.14367972e-03,
          -2.37175319e-02, 3.66457761e-03, 1.11057125e-02,
          -1.45981759e-02, -1.45733459e-02, 3.19587067e-02,
          -8.90920870e-03, 1.28018260e-02, 2.41462532e-02,
          1.12748630e-02, 5.23200966e-02, -1.82661489e-02,
          1.80498604e-02, 8.19924753e-03, -9.73623060e-03,
          -3.75339109e-03, 5.41094430e-02, -1.69280227e-02,
          1.52739612e-02, 7.97105767e-03, 1.35098090e-02,
          -3.86630232e-03, -1.62853990e-02, -5.72402775e-03,
          5.69350459e-02, 1.36167277e-03, -1.00966115e-02,
          -3.91846746e-02, -2.42569670e-03, -5.55848293e-02,
          -1.95927378e-02, -2.55354913e-03, -7.65089225e-03,
          -3.75276655e-02, -3.67292576e-03, -1.34498309e-02,
          4.11929451e-02, -1.90125895e-03, -1.16065713e-02,
          -2.16058781e-03, -1.17176576e-02, 2.38420703e-02,
          -2.37111235e-03, -4.62934747e-03, -1.80211458e-02,
          -2.08047833e-02, 2.98109259e-02, -1.03615355e-02,
          6.95036538e-03, -1.67266950e-02, -9.37478431e-03,
          -1.39122540e-02, -1.50721893e-02, 1.00023910e-01,
          5.58594568e-03, -3.37793268e-02, -2.60092337e-02,
          -2.01405771e-02, -1.44103616e-02, -2.16339901e-02,
          2.89220568e-02, -5.93411829e-03, 2.33176835e-02,
          -6.78089960e-03, 5.18843494e-02, -2.18151100e-02,
          -2.46095173e-02, -3.54724471e-04, 7.63399675e-02,
          -2.86772773e-02, -6.30758144e-03, -1.96503885e-02,
          2.07636342e-03, 3.65382358e-02, 8.52219108e-03,
          -8.81362148e-03, -5.25678275e-04, -2.01149751e-02,
          -3.49165648e-02, -1.06925471e-03, 3.35818902e-02,
          2.20212862e-02, 2.11550370e-02, 3.29833105e-03, 9.51712020e-03,
          -2.48489017e-03, -1.52423838e-03, -1.02448650e-02,
          2.44881562e-03, 5.78748900e-03, 3.59435193e-03,
          -4.68995329e-03, -9.16661602e-03, -5.18979784e-03,
          4.53659333e-04, 5.75172491e-02, -6.27940940e-03,
          5.10402536e-03, -4.91403230e-03, -1.27622019e-02,
          -9.66159441e-03, -2.07122341e-02, -2.90006772e-02,
          2.84999460e-02, -7.48254266e-03, -1.97052117e-03,
          -3.50204743e-02, 1.20473676e-04, -9.69934557e-03,
          7.80737549e-02, -2.84209084e-02, 2.26679761e-02,
          -4.32034303e-03, 1.04181534e-02, 4.99011809e-03,
          -2.18594018e-02, 3.60033009e-05, -1.29090156e-02,
          -3.86944339e-02, 9.12882946e-03, 4.51590419e-02,
          5.61610190e-03, -7.58832181e-03, 4.00182419e-03,
          1.01108216e-02, 1.97590757e-02, -2.77493009e-03,
          9.58683528e-03, 2.40190700e-02, -1.13831367e-02,
          1.63001083e-02, 2.54441146e-03, -1.38640199e-02,
          -1.23108393e-02, 2.56519057e-02, 1.32720508e-02,
          -2.19317824e-02, 3.30041582e-03, -3.66052426e-02,
          2.40492285e-03, 1.46401208e-03, -3.22118700e-02,
          -2.37625297e-02, -5.23993373e-03, -2.48347484e-02,
          -2.51659211e-02, 8.14672746e-03 ]
   decision_functions:
      -
         sv_count: 1
         rho: -1.8482245504856110e-03
         alpha: [ 1. ]
         index: [ 0 ]
      -
         sv_count: 1
         rho: -2.5738694239407778e-03
         alpha: [ 1. ]
         index: [ 1 ]
      -
         sv_count: 1
         rho: -2.0828905981034040e-03
         alpha: [ 1. ]
         index: [ 2 ]
      -
         sv_count: 1
         rho: 4.6854650136083364e-03
         alpha: [ 1. ]
         index: [ 3 ]
      -
         sv_count: 1
         rho: -9.2364521697163582e-04
         alpha: [ 1. ]
         index: [ 4 ]
      -
         sv_count: 1
         rho: 2.5535840541124344e-04
         alpha: [ 1. ]
         index: [ 5 ]
      -
         sv_count: 1
         rho: 6.4044580794870853e-03
         alpha: [ 1. ]
         index: [ 6 ]
      -
         sv_count: 1
         rho: 1.4580735005438328e-03
         alpha: [ 1. ]
         index: [ 7 ]
      -
         sv_count: 1
         rho: 7.6517171692103148e-03
         alpha: [ 1. ]
         index: [ 8 ]
      -
         sv_count: 1
         rho: 5.9856649022549391e-03
         alpha: [ 1. ]
         index: [ 9 ]
