%YAML:1.0
my_svm: !!opencv-ml-svm
   svm_type: C_SVC
   kernel: { type:RBF, gamma:1. }
   C: 1.
   term_criteria: { epsilon:2.2204460492503131e-16, iterations:100 }
   var_all: 150
   var_count: 150
   class_count: 6
   class_labels: !!opencv-matrix
      rows: 1
      cols: 6
      dt: i
      data: [ 0, 1, 2, 3, 4, 5 ]
   sv_total: 24
   support_vectors:
      - [ 0., 8.17995891e-03, 2.04498973e-03, 6.13496918e-03,
          2.04498973e-03, 6.13496918e-03, 2.04498973e-03, 0.,
          2.04498973e-03, 2.04498973e-02, 2.04498973e-03, 4.08997945e-03,
          4.08997945e-03, 2.04498973e-03, 0., 1.02249486e-02,
          6.13496918e-03, 4.08997945e-03, 0., 1.22699384e-02,
          6.13496918e-03, 8.17995891e-03, 2.04498973e-03, 1.43149281e-02,
          1.02249486e-02, 4.08997945e-03, 2.04498973e-03, 6.13496918e-03,
          6.13496918e-03, 1.02249486e-02, 1.43149281e-02, 4.08997945e-03,
          1.02249486e-02, 2.04498973e-03, 8.17995891e-03, 0.,
          2.04498973e-03, 8.17995891e-03, 1.84049085e-02, 2.04498973e-02,
          8.17995891e-03, 2.04498973e-03, 4.08997945e-03, 8.17995891e-03,
          4.08997945e-03, 0., 3.47648263e-02, 1.63599178e-02, 0.,
          1.22699384e-02, 0., 4.08997945e-03, 0., 2.04498973e-03,
          1.02249486e-02, 4.08997945e-03, 2.04498973e-02, 6.13496918e-03,
          6.13496918e-03, 2.04498973e-03, 1.02249486e-02, 8.17995891e-03,
          4.08997945e-03, 2.04498973e-03, 0., 4.08997945e-03,
          4.08997945e-03, 6.13496918e-03, 2.04498973e-03, 4.08997945e-03,
          4.08997945e-03, 6.13496918e-03, 1.63599178e-02, 4.08997945e-03,
          4.08997945e-03, 0., 1.84049085e-02, 1.02249486e-02,
          1.02249486e-02, 8.17995891e-03, 1.63599178e-02, 2.04498973e-03,
          6.13496918e-03, 3.27198356e-02, 1.43149281e-02, 0.,
          8.17995891e-03, 0., 1.43149281e-02, 0., 1.02249486e-02,
          8.17995891e-03, 2.04498973e-03, 1.43149281e-02, 0.,
          4.08997945e-03, 8.17995891e-03, 0., 6.13496918e-03,
          1.02249486e-02, 2.04498973e-03, 0., 2.24948861e-02,
          2.04498973e-03, 0., 2.04498973e-03, 6.13496918e-03,
          6.13496918e-03, 2.04498973e-03, 8.17995891e-03, 4.08997945e-03,
          1.84049085e-02, 2.04498973e-03, 1.63599178e-02, 6.13496918e-03,
          0., 2.04498973e-03, 4.08997945e-03, 6.13496918e-03,
          1.02249486e-02, 2.04498973e-03, 2.04498973e-03, 1.02249486e-02,
          2.04498973e-03, 4.08997945e-03, 0., 8.17995891e-03, 0.,
          8.17995891e-03, 1.63599178e-02, 8.17995891e-03, 0.,
          6.13496918e-03, 0., 1.02249486e-02, 1.43149281e-02,
          1.43149281e-02, 2.04498973e-03, 1.84049085e-02, 6.13496918e-03,
          2.24948861e-02, 2.04498973e-03, 6.13496918e-03, 0.,
          4.08997945e-03, 4.08997945e-03, 1.22699384e-02, 6.13496918e-03,
          2.04498973e-03, 6.13496918e-03 ]
      - [ 1.88679248e-03, 5.66037744e-03, 3.77358496e-03, 1.13207549e-02,
          1.88679248e-03, 7.54716992e-03, 0., 0., 5.66037744e-03,
          1.69811323e-02, 1.13207549e-02, 3.77358496e-03, 3.77358496e-03,
          3.77358496e-03, 1.88679248e-03, 5.66037744e-03, 7.54716992e-03,
          5.66037744e-03, 7.54716992e-03, 9.43396240e-03, 7.54716992e-03,
          7.54716992e-03, 9.43396240e-03, 2.45283023e-02, 1.13207549e-02,
          9.43396240e-03, 9.43396240e-03, 5.66037744e-03, 5.66037744e-03,
          9.43396240e-03, 9.43396240e-03, 9.43396240e-03, 1.13207549e-02,
          3.77358496e-03, 7.54716992e-03, 0., 0., 9.43396240e-03,
          2.26415098e-02, 2.64150947e-02, 5.66037744e-03, 3.77358496e-03,
          5.66037744e-03, 9.43396240e-03, 0., 1.88679248e-03,
          3.01886797e-02, 7.54716992e-03, 0., 3.77358496e-03, 0.,
          5.66037744e-03, 1.88679248e-03, 3.77358496e-03, 1.50943398e-02,
          3.77358496e-03, 2.26415098e-02, 5.66037744e-03, 3.77358496e-03,
          5.66037744e-03, 5.66037744e-03, 5.66037744e-03, 1.88679248e-03,
          1.88679248e-03, 1.88679248e-03, 1.13207549e-02, 0.,
          1.88679248e-03, 7.54716992e-03, 3.77358496e-03, 5.66037744e-03,
          7.54716992e-03, 2.07547173e-02, 5.66037744e-03, 7.54716992e-03,
          0., 1.88679248e-03, 1.13207549e-02, 5.66037744e-03,
          9.43396240e-03, 1.13207549e-02, 1.88679248e-03, 7.54716992e-03,
          2.26415098e-02, 9.43396240e-03, 0., 1.32075474e-02,
          1.88679248e-03, 1.50943398e-02, 5.66037744e-03, 3.77358496e-03,
          9.43396240e-03, 1.88679248e-03, 1.50943398e-02, 1.88679248e-03,
          7.54716992e-03, 1.88679248e-03, 0., 1.13207549e-02, 0.,
          3.77358496e-03, 1.88679248e-03, 1.69811323e-02, 1.88679248e-03,
          0., 0., 7.54716992e-03, 0., 1.88679248e-03, 9.43396240e-03,
          3.77358496e-03, 2.07547173e-02, 3.77358496e-03, 1.32075474e-02,
          3.77358496e-03, 0., 0., 3.77358496e-03, 9.43396240e-03,
          9.43396240e-03, 5.66037744e-03, 1.88679248e-03, 9.43396240e-03,
          9.43396240e-03, 1.88679248e-03, 1.88679248e-03, 5.66037744e-03,
          0., 9.43396240e-03, 9.43396240e-03, 5.66037744e-03,
          1.88679248e-03, 5.66037744e-03, 3.77358496e-03, 9.43396240e-03,
          1.13207549e-02, 1.13207549e-02, 3.77358496e-03, 9.43396240e-03,
          3.77358496e-03, 1.32075474e-02, 1.88679248e-03, 3.77358496e-03,
          3.77358496e-03, 3.77358496e-03, 1.13207549e-02, 7.54716992e-03,
          7.54716992e-03, 0., 5.66037744e-03 ]
      - [ 0., 6.45161327e-03, 6.45161327e-03, 1.29032265e-02,
          3.87096778e-03, 5.16129052e-03, 2.58064526e-03, 0.,
          2.58064526e-03, 1.54838711e-02, 1.03225810e-02, 6.45161327e-03,
          3.87096778e-03, 1.29032263e-03, 1.29032263e-03, 1.54838711e-02,
          7.74193555e-03, 3.87096778e-03, 1.29032263e-03, 1.03225810e-02,
          5.16129052e-03, 6.45161327e-03, 2.58064526e-03, 1.16129033e-02,
          6.45161327e-03, 1.29032263e-03, 1.29032265e-02, 6.45161327e-03,
          3.87096778e-03, 1.41935488e-02, 9.03225876e-03, 5.16129052e-03,
          9.03225876e-03, 2.58064526e-03, 1.03225810e-02, 1.29032263e-03,
          0., 7.74193555e-03, 1.16129033e-02, 2.32258067e-02,
          9.03225876e-03, 2.58064526e-03, 2.58064526e-03, 1.16129033e-02,
          2.58064526e-03, 1.29032263e-03, 4.00000028e-02, 3.09677422e-02,
          0., 9.03225876e-03, 0., 2.58064526e-03, 0., 3.87096778e-03,
          1.03225810e-02, 7.74193555e-03, 2.19354853e-02, 6.45161327e-03,
          5.16129052e-03, 3.87096778e-03, 7.74193555e-03, 7.74193555e-03,
          3.87096778e-03, 2.58064526e-03, 1.29032263e-03, 3.87096778e-03,
          1.29032263e-03, 5.16129052e-03, 1.29032263e-03, 7.74193555e-03,
          1.29032263e-03, 3.87096778e-03, 2.45161299e-02, 6.45161327e-03,
          7.74193555e-03, 5.16129052e-03, 1.93548389e-02, 5.16129052e-03,
          3.87096778e-03, 1.03225810e-02, 1.03225810e-02, 2.58064526e-03,
          6.45161327e-03, 2.70967744e-02, 7.74193555e-03, 5.16129052e-03,
          7.74193555e-03, 2.58064526e-03, 9.03225876e-03, 2.58064526e-03,
          2.58064526e-03, 1.03225810e-02, 7.74193555e-03, 1.54838711e-02,
          2.58064526e-03, 5.16129052e-03, 3.87096778e-03, 0.,
          6.45161327e-03, 7.74193555e-03, 2.58064526e-03, 1.29032263e-03,
          7.74193555e-03, 5.16129052e-03, 0., 0., 2.58064526e-03,
          3.87096778e-03, 3.87096778e-03, 1.41935488e-02, 3.87096778e-03,
          2.06451621e-02, 2.58064526e-03, 1.16129033e-02, 3.87096778e-03,
          0., 0., 7.74193555e-03, 7.74193555e-03, 1.16129033e-02,
          3.87096778e-03, 2.58064526e-03, 1.03225810e-02, 3.87096778e-03,
          2.58064526e-03, 1.29032263e-03, 1.93548389e-02, 1.29032263e-03,
          6.45161327e-03, 1.29032265e-02, 9.03225876e-03, 1.29032263e-03,
          3.87096778e-03, 5.16129052e-03, 9.03225876e-03, 1.29032265e-02,
          1.03225810e-02, 3.87096778e-03, 9.03225876e-03, 2.58064526e-03,
          1.80645175e-02, 0., 1.29032263e-03, 0., 5.16129052e-03,
          1.29032263e-03, 9.03225876e-03, 2.58064526e-03, 2.58064526e-03,
          3.87096778e-03 ]
      - [ 0., 8.58369097e-03, 7.15307612e-03, 5.72246080e-03,
          4.29184549e-03, 5.72246080e-03, 2.86123040e-03, 0., 0.,
          1.14449216e-02, 8.58369097e-03, 2.86123040e-03, 5.72246080e-03,
          0., 0., 1.28755365e-02, 1.14449216e-02, 2.86123040e-03,
          4.29184549e-03, 8.58369097e-03, 4.29184549e-03, 8.58369097e-03,
          4.29184549e-03, 1.28755365e-02, 1.28755365e-02, 2.86123040e-03,
          7.15307612e-03, 7.15307612e-03, 1.43061520e-03, 7.15307612e-03,
          1.14449216e-02, 1.00143068e-02, 1.28755365e-02, 4.29184549e-03,
          1.43061522e-02, 0., 1.43061520e-03, 8.58369097e-03,
          1.00143068e-02, 3.29041481e-02, 7.15307612e-03, 1.43061520e-03,
          1.43061520e-03, 1.57367680e-02, 2.86123040e-03, 1.43061520e-03,
          3.71959955e-02, 3.86266112e-02, 2.86123040e-03, 4.29184549e-03,
          0., 1.00143068e-02, 1.43061520e-03, 2.86123040e-03,
          1.00143068e-02, 7.15307612e-03, 3.00429184e-02, 0.,
          4.29184549e-03, 5.72246080e-03, 4.29184549e-03, 7.15307612e-03,
          2.86123040e-03, 1.43061520e-03, 1.43061520e-03, 2.86123040e-03,
          2.86123040e-03, 1.14449216e-02, 1.43061520e-03, 4.29184549e-03,
          2.86123040e-03, 4.29184549e-03, 1.71673819e-02, 4.29184549e-03,
          5.72246080e-03, 2.86123040e-03, 2.00286135e-02, 8.58369097e-03,
          7.15307612e-03, 8.58369097e-03, 1.28755365e-02, 0.,
          7.15307612e-03, 3.14735360e-02, 1.00143068e-02, 2.86123040e-03,
          1.00143068e-02, 0., 8.58369097e-03, 1.43061520e-03,
          4.29184549e-03, 8.58369097e-03, 5.72246080e-03, 1.57367680e-02,
          0., 1.43061520e-03, 4.29184549e-03, 0., 7.15307612e-03,
          5.72246080e-03, 4.29184549e-03, 0., 1.00143068e-02,
          5.72246080e-03, 0., 1.43061520e-03, 0., 5.72246080e-03,
          1.43061520e-03, 8.58369097e-03, 2.86123040e-03, 1.43061522e-02,
          1.43061520e-03, 1.14449216e-02, 4.29184549e-03, 0., 0.,
          1.57367680e-02, 8.58369097e-03, 7.15307612e-03, 2.86123040e-03,
          1.43061520e-03, 1.43061522e-02, 1.43061520e-03, 2.86123040e-03,
          5.72246080e-03, 1.28755365e-02, 0., 1.00143068e-02,
          1.00143068e-02, 7.15307612e-03, 0., 4.29184549e-03,
          4.29184549e-03, 8.58369097e-03, 1.28755365e-02, 2.86123040e-03,
          5.72246080e-03, 1.71673819e-02, 2.86123040e-03, 1.71673819e-02,
          2.86123040e-03, 2.86123040e-03, 0., 1.43061520e-03,
          1.43061520e-03, 8.58369097e-03, 4.29184549e-03, 7.15307612e-03,
          2.86123040e-03 ]
      - [ 1.01781171e-02, 5.08905854e-03, 1.27226464e-03, 7.63358781e-03,
          1.27226464e-03, 5.08905854e-03, 2.54452927e-03, 0.,
          1.01781171e-02, 2.92620864e-02, 3.43511440e-02, 8.90585221e-03,
          5.08905854e-03, 0., 5.08905854e-03, 1.52671756e-02,
          2.54452927e-03, 6.36132341e-03, 1.14503819e-02, 7.63358781e-03,
          8.90585221e-03, 7.63358781e-03, 7.63358781e-03, 0.,
          4.19847332e-02, 5.08905854e-03, 3.81679391e-03, 5.08905854e-03,
          2.54452927e-03, 6.36132341e-03, 6.36132341e-03, 3.81679391e-03,
          6.36132341e-03, 1.39949108e-02, 1.27226464e-03, 0.,
          1.14503819e-02, 2.54452927e-03, 1.65394396e-02, 1.27226468e-02,
          3.81679391e-03, 0., 7.63358781e-03, 2.54452927e-03,
          7.63358781e-03, 7.63358781e-03, 6.48854971e-02, 8.90585221e-03,
          3.81679391e-03, 8.90585221e-03, 0., 5.08905854e-03,
          1.27226468e-02, 6.36132341e-03, 1.27226464e-03, 3.81679391e-03,
          2.03562342e-02, 5.08905854e-03, 3.81679391e-03, 3.81679391e-03,
          3.81679391e-03, 1.27226464e-03, 1.27226464e-03, 2.54452927e-03,
          2.54452927e-03, 1.27226464e-03, 2.54452927e-03, 0., 0., 0.,
          5.08905854e-03, 1.27226464e-03, 8.39694664e-02, 2.54452927e-03,
          3.81679391e-03, 1.27226468e-02, 3.81679391e-03, 3.81679391e-03,
          3.81679391e-03, 5.08905854e-03, 3.81679391e-03, 2.54452927e-03,
          7.63358781e-03, 2.54452927e-03, 3.81679391e-03, 3.81679391e-03,
          6.36132341e-03, 5.08905854e-03, 2.54452927e-03, 3.81679391e-03,
          0., 5.08905854e-03, 0., 1.27226468e-02, 2.54452927e-03,
          6.36132341e-03, 1.27226464e-03, 7.63358781e-03, 2.54452927e-03,
          2.54452927e-03, 0., 0., 7.63358781e-03, 1.52671756e-02,
          1.39949108e-02, 1.27226464e-03, 5.08905854e-03, 2.54452927e-03,
          1.27226464e-03, 3.43511440e-02, 1.27226464e-03, 6.36132341e-03,
          7.63358781e-03, 1.90839693e-02, 1.27226464e-03, 2.54452927e-03,
          0., 1.27226464e-03, 6.36132341e-03, 1.52671756e-02,
          2.54452927e-03, 2.54452927e-03, 3.81679391e-03, 2.54452927e-03,
          7.63358781e-03, 3.81679391e-03, 7.63358781e-03, 0.,
          5.08905854e-03, 1.27226464e-03, 3.81679391e-03, 0.,
          2.54452927e-03, 1.27226464e-03, 3.81679391e-03, 7.63358781e-03,
          1.27226464e-03, 1.01781171e-02, 1.27226464e-03, 1.27226464e-03,
          8.90585221e-03, 2.54452927e-03, 1.27226464e-03, 0.,
          7.63358781e-03, 1.27226464e-03, 3.81679391e-03, 1.78117044e-02,
          6.36132341e-03, 2.54452927e-03 ]
      - [ 3.44086029e-02, 6.45161327e-03, 2.15053768e-03, 8.60215072e-03,
          2.15053768e-03, 6.45161327e-03, 2.15053768e-03, 0.,
          4.30107536e-03, 1.93548389e-02, 1.29032265e-02, 1.93548389e-02,
          0., 0., 4.30107536e-03, 3.22580636e-02, 6.45161327e-03,
          6.45161327e-03, 1.07526882e-02, 4.30107536e-03, 1.50537640e-02,
          8.60215072e-03, 2.15053768e-03, 2.15053768e-03, 2.36559138e-02,
          8.60215072e-03, 4.30107536e-03, 8.60215072e-03, 2.15053768e-03,
          8.60215072e-03, 6.45161327e-03, 6.45161327e-03, 4.30107536e-03,
          1.07526882e-02, 4.30107536e-03, 0., 2.15053763e-02,
          2.15053768e-03, 1.50537640e-02, 4.30107536e-03, 0., 0.,
          4.30107536e-03, 2.15053768e-03, 1.07526882e-02, 1.72043014e-02,
          3.44086029e-02, 1.29032265e-02, 0., 1.50537640e-02, 0.,
          2.15053768e-03, 1.93548389e-02, 1.50537640e-02, 4.30107536e-03,
          8.60215072e-03, 3.44086029e-02, 2.15053768e-03, 6.45161327e-03,
          6.45161327e-03, 4.30107536e-03, 0., 0., 2.15053768e-03,
          2.15053768e-03, 2.15053768e-03, 4.30107536e-03, 0., 0., 0.,
          2.15053768e-03, 1.07526882e-02, 5.16129062e-02, 4.30107536e-03,
          0., 1.50537640e-02, 6.45161327e-03, 4.30107536e-03,
          2.15053768e-03, 4.30107536e-03, 4.30107536e-03, 4.30107536e-03,
          0., 6.45161327e-03, 2.15053768e-03, 1.50537640e-02,
          1.72043014e-02, 0., 4.30107536e-03, 4.30107536e-03,
          4.30107536e-03, 6.45161327e-03, 0., 1.29032265e-02, 0.,
          8.60215072e-03, 2.15053768e-03, 4.30107536e-03, 8.60215072e-03,
          2.15053768e-03, 2.15053768e-03, 0., 6.45161327e-03,
          2.15053768e-03, 1.72043014e-02, 0., 0., 4.30107536e-03,
          2.15053768e-03, 1.50537640e-02, 0., 0., 1.29032265e-02,
          1.50537640e-02, 0., 2.15053768e-03, 0., 0., 1.07526882e-02,
          1.07526882e-02, 4.30107536e-03, 0., 0., 0., 6.45161327e-03,
          4.30107536e-03, 2.15053768e-03, 2.15053768e-03, 6.45161327e-03,
          2.15053768e-03, 4.30107536e-03, 2.15053768e-03, 2.15053768e-03,
          0., 1.07526882e-02, 8.60215072e-03, 0., 4.30107536e-03,
          6.45161327e-03, 2.15053768e-03, 1.29032265e-02, 6.45161327e-03,
          2.15053768e-03, 2.15053768e-03, 1.07526882e-02, 2.15053768e-03,
          2.15053768e-03, 2.36559138e-02, 4.30107536e-03, 2.15053768e-03 ]
      - [ 1.87891442e-02, 8.35073087e-03, 0., 6.26304839e-03,
          2.08768272e-03, 1.04384134e-02, 4.17536544e-03, 0.,
          4.17536544e-03, 1.46137793e-02, 1.87891442e-02, 1.25260968e-02,
          0., 0., 8.35073087e-03, 2.71398760e-02, 4.17536544e-03,
          1.04384134e-02, 4.17536544e-03, 1.04384134e-02, 1.46137793e-02,
          1.04384134e-02, 0., 4.17536544e-03, 1.87891442e-02,
          8.35073087e-03, 0., 8.35073087e-03, 0., 6.26304839e-03, 0.,
          8.35073087e-03, 6.26304839e-03, 1.04384134e-02, 4.17536544e-03,
          0., 1.46137793e-02, 2.08768272e-03, 2.08768267e-02,
          4.17536544e-03, 4.17536544e-03, 2.08768272e-03, 4.17536544e-03,
          2.08768272e-03, 8.35073087e-03, 1.67014617e-02, 4.80167009e-02,
          1.87891442e-02, 2.08768272e-03, 1.25260968e-02, 0.,
          6.26304839e-03, 1.46137793e-02, 1.04384134e-02, 0.,
          4.17536544e-03, 2.71398760e-02, 4.17536544e-03, 8.35073087e-03,
          4.17536544e-03, 8.35073087e-03, 0., 2.08768272e-03,
          2.08768272e-03, 2.08768272e-03, 4.17536544e-03, 2.08768272e-03,
          2.08768272e-03, 0., 2.08768272e-03, 2.08768272e-03,
          8.35073087e-03, 6.05427995e-02, 2.08768272e-03, 0.,
          1.46137793e-02, 6.26304839e-03, 4.17536544e-03, 0.,
          2.08768272e-03, 2.08768272e-03, 8.35073087e-03, 4.17536544e-03,
          8.35073087e-03, 4.17536544e-03, 1.87891442e-02, 1.46137793e-02,
          2.08768272e-03, 2.08768272e-03, 1.25260968e-02, 0.,
          4.17536544e-03, 6.26304839e-03, 1.04384134e-02, 0.,
          8.35073087e-03, 2.08768272e-03, 1.25260968e-02, 6.26304839e-03,
          2.08768272e-03, 0., 0., 1.04384134e-02, 6.26304839e-03,
          1.67014617e-02, 0., 2.08768272e-03, 4.17536544e-03, 0.,
          1.87891442e-02, 0., 4.17536544e-03, 1.25260968e-02,
          1.46137793e-02, 0., 2.08768272e-03, 0., 4.17536544e-03,
          1.04384134e-02, 1.25260968e-02, 2.08768272e-03, 0.,
          4.17536544e-03, 2.08768272e-03, 8.35073087e-03, 2.08768272e-03,
          1.04384134e-02, 0., 2.08768272e-03, 2.08768272e-03,
          6.26304839e-03, 0., 2.08768272e-03, 0., 8.35073087e-03,
          6.26304839e-03, 0., 2.08768272e-03, 0., 2.08768272e-03,
          8.35073087e-03, 4.17536544e-03, 6.26304839e-03, 2.08768272e-03,
          1.04384134e-02, 2.08768272e-03, 0., 1.87891442e-02,
          6.26304839e-03, 2.08768272e-03 ]
      - [ 2.15439871e-02, 7.18132872e-03, 0., 1.07719935e-02,
          1.79533218e-03, 7.18132872e-03, 3.59066436e-03, 0.,
          7.18132872e-03, 2.69299820e-02, 2.33393181e-02, 1.79533213e-02,
          3.59066436e-03, 3.59066436e-03, 7.18132872e-03, 2.33393181e-02,
          3.59066436e-03, 8.97666067e-03, 1.25673255e-02, 5.38599677e-03,
          1.43626574e-02, 7.18132872e-03, 1.79533218e-03, 1.79533218e-03,
          2.33393181e-02, 5.38599677e-03, 3.59066436e-03, 1.07719935e-02,
          3.59066436e-03, 8.97666067e-03, 1.79533218e-03, 7.18132872e-03,
          3.59066436e-03, 5.38599677e-03, 3.59066436e-03, 0.,
          1.07719935e-02, 7.18132872e-03, 1.61579903e-02, 1.43626574e-02,
          3.59066436e-03, 1.79533218e-03, 3.59066436e-03, 1.79533218e-03,
          3.59066436e-03, 1.25673255e-02, 6.28366247e-02, 1.07719935e-02,
          3.59066436e-03, 8.97666067e-03, 1.79533218e-03, 3.59066436e-03,
          5.38599677e-03, 1.07719935e-02, 3.59066436e-03, 5.38599677e-03,
          2.69299820e-02, 3.59066436e-03, 5.38599677e-03, 5.38599677e-03,
          5.38599677e-03, 0., 1.79533218e-03, 0., 3.59066436e-03,
          5.38599677e-03, 1.79533218e-03, 0., 0., 0., 3.59066436e-03,
          7.18132872e-03, 5.56552969e-02, 3.59066436e-03, 5.38599677e-03,
          1.25673255e-02, 7.18132872e-03, 3.59066436e-03, 8.97666067e-03,
          1.79533218e-03, 8.97666067e-03, 7.18132872e-03, 8.97666067e-03,
          3.59066436e-03, 1.79533218e-03, 5.38599677e-03, 7.18132872e-03,
          3.59066436e-03, 1.79533218e-03, 7.18132872e-03, 3.59066436e-03,
          0., 0., 1.61579903e-02, 0., 5.38599677e-03, 3.59066436e-03,
          1.25673255e-02, 1.07719935e-02, 1.79533218e-03, 3.59066436e-03,
          5.38599677e-03, 5.38599677e-03, 5.38599677e-03, 1.07719935e-02,
          0., 1.79533218e-03, 1.79533218e-03, 0., 1.79533213e-02,
          1.79533218e-03, 1.79533218e-03, 8.97666067e-03, 1.61579903e-02,
          3.59066436e-03, 1.79533218e-03, 0., 1.79533218e-03,
          7.18132872e-03, 1.25673255e-02, 3.59066436e-03, 1.79533218e-03,
          5.38599677e-03, 1.79533218e-03, 1.79533218e-03, 1.79533218e-03,
          1.07719935e-02, 1.79533218e-03, 5.38599677e-03, 0.,
          7.18132872e-03, 0., 5.38599677e-03, 0., 8.97666067e-03,
          8.97666067e-03, 0., 5.38599677e-03, 1.79533218e-03, 0.,
          3.59066436e-03, 1.79533218e-03, 5.38599677e-03, 0.,
          8.97666067e-03, 0., 7.18132872e-03, 2.15439871e-02,
          1.79533218e-03, 1.79533218e-03 ]
      - [ 1.14777619e-02, 1.93687230e-02, 1.93687230e-02, 1.29124820e-02,
          9.32568125e-03, 3.58680054e-03, 5.02152089e-03, 1.29124820e-02,
          1.64992828e-02, 4.30416083e-03, 0., 7.17360107e-03,
          6.45624101e-03, 1.50645627e-02, 7.89096113e-03, 2.15208041e-03,
          7.17360107e-03, 1.07604014e-02, 7.89096113e-03, 5.73888095e-03,
          5.73888095e-03, 5.02152089e-03, 6.45624101e-03, 7.89096113e-03,
          1.43472024e-03, 4.30416083e-03, 3.58680054e-03, 1.21951224e-02,
          7.17360119e-04, 2.86944048e-03, 1.14777619e-02, 5.02152089e-03,
          4.30416083e-03, 4.30416083e-03, 5.02152089e-03, 5.73888095e-03,
          1.14777619e-02, 9.32568125e-03, 1.43472024e-03, 5.73888095e-03,
          5.73888095e-03, 5.73888095e-03, 3.58680054e-03, 5.73888095e-03,
          1.21951224e-02, 5.02152089e-03, 1.43472024e-03, 2.15208041e-03,
          4.30416083e-03, 4.30416083e-03, 1.43472024e-03, 1.00430418e-02,
          4.30416083e-03, 4.30416083e-03, 9.32568125e-03, 5.73888095e-03,
          7.17360107e-03, 7.17360107e-03, 5.02152089e-03, 7.89096113e-03,
          1.07604014e-02, 5.73888095e-03, 1.07604014e-02, 5.02152089e-03,
          4.30416083e-03, 5.73888095e-03, 7.17360107e-03, 1.29124820e-02,
          2.08034441e-02, 8.60832166e-03, 5.73888095e-03, 1.00430418e-02,
          3.58680054e-03, 1.43472021e-02, 3.58680054e-03, 2.86944048e-03,
          0., 7.89096113e-03, 2.86944048e-03, 1.64992828e-02,
          7.89096113e-03, 8.60832166e-03, 4.30416083e-03, 7.17360119e-04,
          7.17360107e-03, 5.02152089e-03, 7.17360119e-04, 5.02152089e-03,
          2.15208041e-03, 1.14777619e-02, 8.60832166e-03, 1.43472021e-02,
          8.60832166e-03, 5.73888095e-03, 4.30416083e-03, 2.15208041e-03,
          6.45624101e-03, 5.02152089e-03, 4.30416083e-03, 1.43472024e-03,
          1.00430418e-02, 4.30416083e-03, 5.02152089e-03, 8.60832166e-03,
          3.58680054e-03, 1.43472024e-03, 7.89096113e-03, 2.15208041e-03,
          9.32568125e-03, 6.45624101e-03, 9.32568125e-03, 5.02152089e-03,
          7.17360107e-03, 2.15208041e-03, 8.60832166e-03, 2.15208041e-03,
          1.21951224e-02, 9.32568125e-03, 9.32568125e-03, 5.02152089e-03,
          9.32568125e-03, 7.17360107e-03, 2.15208041e-03, 9.32568125e-03,
          1.00430418e-02, 7.17360107e-03, 2.86944048e-03, 7.17360119e-04,
          1.43472024e-03, 7.89096113e-03, 9.32568125e-03, 1.14777619e-02,
          6.45624101e-03, 2.15208041e-03, 7.89096113e-03, 7.17360119e-04,
          8.60832166e-03, 7.89096113e-03, 9.32568125e-03, 2.15208041e-03,
          0., 5.73888095e-03, 1.00430418e-02, 1.07604014e-02,
          2.15208041e-03, 7.89096113e-03, 2.15208041e-03, 3.58680054e-03,
          1.21951224e-02, 7.17360107e-03 ]
      - [ 1.01757636e-02, 1.48011101e-02, 1.66512486e-02, 9.25069395e-03,
          8.32562428e-03, 5.55041619e-03, 3.70027754e-03, 1.57261789e-02,
          1.75763182e-02, 7.40055507e-03, 0., 9.25069395e-03,
          6.47548586e-03, 1.75763182e-02, 5.55041619e-03, 1.85013877e-03,
          9.25069395e-03, 1.01757636e-02, 1.01757636e-02, 4.62534698e-03,
          9.25069384e-04, 6.47548586e-03, 7.40055507e-03, 6.47548586e-03,
          9.25069384e-04, 1.85013877e-03, 9.25069384e-04, 1.48011101e-02,
          9.25069384e-04, 9.25069384e-04, 1.01757636e-02, 5.55041619e-03,
          0., 3.70027754e-03, 4.62534698e-03, 9.25069395e-03,
          8.32562428e-03, 7.40055507e-03, 2.77520809e-03, 8.32562428e-03,
          5.55041619e-03, 6.47548586e-03, 1.85013877e-03, 9.25069395e-03,
          1.01757636e-02, 0., 1.85013877e-03, 2.77520809e-03,
          9.25069395e-03, 1.85013877e-03, 0., 8.32562428e-03,
          6.47548586e-03, 7.40055507e-03, 5.55041619e-03, 4.62534698e-03,
          2.77520809e-03, 4.62534698e-03, 4.62534698e-03, 8.32562428e-03,
          1.29509717e-02, 6.47548586e-03, 1.57261789e-02, 2.77520809e-03,
          2.77520809e-03, 1.01757636e-02, 3.70027754e-03, 7.40055507e-03,
          2.22016647e-02, 1.11008324e-02, 5.55041619e-03, 5.55041619e-03,
          2.77520809e-03, 1.11008324e-02, 0., 7.40055507e-03,
          9.25069384e-04, 7.40055507e-03, 1.85013877e-03, 1.57261789e-02,
          9.25069395e-03, 9.25069395e-03, 1.85013877e-03, 1.85013877e-03,
          9.25069395e-03, 7.40055507e-03, 0., 3.70027754e-03,
          1.85013877e-03, 1.20259020e-02, 1.01757636e-02, 1.29509717e-02,
          4.62534698e-03, 2.77520809e-03, 5.55041619e-03, 3.70027754e-03,
          7.40055507e-03, 6.47548586e-03, 6.47548586e-03, 4.62534698e-03,
          8.32562428e-03, 5.55041619e-03, 8.32562428e-03, 1.20259020e-02,
          2.77520809e-03, 9.25069384e-04, 5.55041619e-03, 0.,
          8.32562428e-03, 5.55041619e-03, 2.03515273e-02, 1.85013877e-03,
          4.62534698e-03, 2.77520809e-03, 8.32562428e-03, 1.85013877e-03,
          1.66512486e-02, 1.11008324e-02, 8.32562428e-03, 8.32562428e-03,
          1.01757636e-02, 1.11008324e-02, 9.25069384e-04, 1.20259020e-02,
          7.40055507e-03, 8.32562428e-03, 2.77520809e-03, 9.25069384e-04,
          9.25069384e-04, 4.62534698e-03, 1.01757636e-02, 8.32562428e-03,
          9.25069395e-03, 9.25069384e-04, 4.62534698e-03, 2.77520809e-03,
          1.11008324e-02, 1.29509717e-02, 4.62534698e-03, 0., 0.,
          4.62534698e-03, 8.32562428e-03, 1.48011101e-02, 5.55041619e-03,
          7.40055507e-03, 2.77520809e-03, 4.62534698e-03, 1.66512486e-02,
          7.40055507e-03 ]
      - [ 1.20772952e-02, 1.52979065e-02, 1.04669891e-02, 9.66183562e-03,
          9.66183562e-03, 8.85668304e-03, 5.63607085e-03, 1.36876004e-02,
          1.28824478e-02, 4.02576476e-03, 0., 1.04669891e-02,
          7.24637695e-03, 1.36876004e-02, 8.85668304e-03, 3.22061195e-03,
          9.66183562e-03, 7.24637695e-03, 9.66183562e-03, 2.41545890e-03,
          3.22061195e-03, 4.83091781e-03, 5.63607085e-03, 8.05152953e-03,
          2.41545890e-03, 1.61030598e-03, 4.83091781e-03, 8.05152953e-03,
          1.61030598e-03, 8.05152988e-04, 7.24637695e-03, 6.44122390e-03,
          1.61030598e-03, 6.44122390e-03, 4.02576476e-03, 7.24637695e-03,
          9.66183562e-03, 9.66183562e-03, 1.61030598e-03, 8.05152953e-03,
          4.83091781e-03, 1.61030598e-03, 6.44122390e-03, 7.24637695e-03,
          1.20772952e-02, 6.44122390e-03, 1.61030598e-03, 1.61030598e-03,
          3.22061195e-03, 1.61030598e-03, 8.05152988e-04, 1.12721417e-02,
          1.61030598e-03, 4.02576476e-03, 8.85668304e-03, 7.24637695e-03,
          5.63607085e-03, 8.05152953e-03, 5.63607085e-03, 7.24637695e-03,
          4.83091781e-03, 4.83091781e-03, 1.28824478e-02, 2.41545890e-03,
          3.22061195e-03, 9.66183562e-03, 4.83091781e-03, 1.44927539e-02,
          1.93236712e-02, 9.66183562e-03, 1.12721417e-02, 1.04669891e-02,
          4.83091781e-03, 1.04669891e-02, 8.05152988e-04, 3.22061195e-03,
          0., 5.63607085e-03, 1.61030598e-03, 1.77133661e-02,
          6.44122390e-03, 7.24637695e-03, 4.02576476e-03, 8.05152988e-04,
          7.24637695e-03, 6.44122390e-03, 0., 4.83091781e-03, 0.,
          1.04669891e-02, 4.83091781e-03, 1.52979065e-02, 6.44122390e-03,
          3.22061195e-03, 4.83091781e-03, 4.83091781e-03, 7.24637695e-03,
          5.63607085e-03, 5.63607085e-03, 3.22061195e-03, 1.61030591e-02,
          6.44122390e-03, 9.66183562e-03, 9.66183562e-03, 4.02576476e-03,
          1.61030598e-03, 5.63607085e-03, 3.22061195e-03, 8.85668304e-03,
          7.24637695e-03, 2.01288238e-02, 4.83091781e-03, 4.83091781e-03,
          1.61030598e-03, 8.85668304e-03, 3.22061195e-03, 1.36876004e-02,
          1.36876004e-02, 8.85668304e-03, 8.85668304e-03, 7.24637695e-03,
          1.20772952e-02, 1.61030598e-03, 1.12721417e-02, 8.05152953e-03,
          1.12721417e-02, 2.41545890e-03, 8.05152988e-04, 1.61030598e-03,
          6.44122390e-03, 9.66183562e-03, 8.85668304e-03, 9.66183562e-03,
          2.41545890e-03, 9.66183562e-03, 2.41545890e-03, 6.44122390e-03,
          8.05152953e-03, 4.83091781e-03, 1.61030598e-03, 0.,
          7.24637695e-03, 8.05152953e-03, 1.36876004e-02, 4.02576476e-03,
          4.02576476e-03, 3.22061195e-03, 4.83091781e-03, 1.28824478e-02,
          8.85668304e-03 ]
      - [ 7.86627363e-03, 1.27826948e-02, 1.57325473e-02, 7.86627363e-03,
          5.89970499e-03, 1.96656841e-03, 4.91642114e-03, 1.57325473e-02,
          1.67158321e-02, 6.88298931e-03, 0., 8.84955749e-03,
          9.83284228e-03, 2.16322523e-02, 6.88298931e-03, 9.83284204e-04,
          7.86627363e-03, 8.84955749e-03, 1.08161261e-02, 4.91642114e-03,
          2.94985250e-03, 5.89970499e-03, 1.96656841e-03, 3.93313682e-03,
          2.94985250e-03, 1.96656841e-03, 9.83284204e-04, 9.83284204e-04,
          1.96656841e-03, 9.83284204e-04, 6.88298931e-03, 4.91642114e-03,
          9.83284204e-04, 2.94985250e-03, 4.91642114e-03, 5.89970499e-03,
          8.84955749e-03, 6.88298931e-03, 2.94985250e-03, 6.88298931e-03,
          2.94985250e-03, 6.88298931e-03, 2.94985250e-03, 1.08161261e-02,
          6.88298931e-03, 3.93313682e-03, 3.93313682e-03, 1.96656841e-03,
          4.91642114e-03, 2.94985250e-03, 9.83284204e-04, 6.88298931e-03,
          5.89970499e-03, 6.88298931e-03, 8.84955749e-03, 4.91642114e-03,
          5.89970499e-03, 6.88298931e-03, 2.94985250e-03, 1.08161261e-02,
          1.17994100e-02, 2.94985250e-03, 1.17994100e-02, 1.96656841e-03,
          5.89970499e-03, 8.84955749e-03, 7.86627363e-03, 1.08161261e-02,
          2.26155370e-02, 9.83284228e-03, 8.84955749e-03, 1.08161261e-02,
          2.94985250e-03, 1.27826948e-02, 9.83284204e-04, 4.91642114e-03,
          9.83284204e-04, 8.84955749e-03, 1.96656841e-03, 2.16322523e-02,
          9.83284228e-03, 6.88298931e-03, 4.91642114e-03, 9.83284204e-04,
          1.27826948e-02, 3.93313682e-03, 0., 4.91642114e-03,
          4.91642114e-03, 1.57325473e-02, 9.83284228e-03, 9.83284228e-03,
          6.88298931e-03, 4.91642114e-03, 5.89970499e-03, 0.,
          7.86627363e-03, 5.89970499e-03, 7.86627363e-03, 3.93313682e-03,
          1.47492634e-02, 7.86627363e-03, 6.88298931e-03, 1.37659786e-02,
          5.89970499e-03, 2.94985250e-03, 5.89970499e-03, 4.91642114e-03,
          7.86627363e-03, 7.86627363e-03, 1.76991150e-02, 1.96656841e-03,
          6.88298931e-03, 3.93313682e-03, 8.84955749e-03, 1.96656841e-03,
          1.17994100e-02, 4.91642114e-03, 9.83284228e-03, 6.88298931e-03,
          7.86627363e-03, 8.84955749e-03, 1.96656841e-03, 1.27826948e-02,
          9.83284228e-03, 6.88298931e-03, 2.94985250e-03, 3.93313682e-03,
          9.83284204e-04, 3.93313682e-03, 4.91642114e-03, 3.93313682e-03,
          5.89970499e-03, 5.89970499e-03, 1.27826948e-02, 2.94985250e-03,
          1.27826948e-02, 1.27826948e-02, 4.91642114e-03, 1.96656841e-03,
          0., 3.93313682e-03, 1.08161261e-02, 1.67158321e-02,
          9.83284204e-04, 4.91642114e-03, 2.94985250e-03, 1.96656841e-03,
          1.08161261e-02, 4.91642114e-03 ]
      - [ 4.16666688e-03, 2.77777785e-03, 5.55555569e-03, 8.33333377e-03,
          2.77777785e-03, 5.55555569e-03, 5.55555569e-03, 0.,
          2.77777785e-03, 3.75000015e-02, 1.38888892e-03, 2.77777785e-03,
          1.38888892e-03, 0., 1.38888892e-03, 1.11111114e-02,
          1.11111114e-02, 4.16666688e-03, 5.55555569e-03, 8.33333377e-03,
          9.72222257e-03, 6.94444450e-03, 1.38888890e-02, 1.80555563e-02,
          1.38888892e-03, 0., 2.77777785e-03, 9.72222257e-03,
          9.72222257e-03, 6.94444450e-03, 1.38888892e-03, 1.38888892e-03,
          8.33333377e-03, 8.33333377e-03, 4.16666688e-03, 0.,
          5.55555569e-03, 6.94444450e-03, 8.33333377e-03, 5.55555569e-03,
          6.94444450e-03, 1.38888892e-03, 2.77777785e-03, 5.55555569e-03,
          1.11111114e-02, 4.16666688e-03, 1.38888890e-02, 3.33333351e-02,
          0., 0., 1.38888892e-03, 5.55555569e-03, 6.94444450e-03, 0.,
          6.94444450e-03, 5.55555569e-03, 1.66666675e-02, 2.77777785e-03,
          4.16666688e-03, 4.16666688e-03, 1.38888890e-02, 1.38888892e-03,
          2.77777785e-03, 6.94444450e-03, 8.33333377e-03, 8.33333377e-03,
          6.94444450e-03, 2.77777785e-03, 1.38888892e-03, 4.16666688e-03,
          2.77777785e-03, 2.08333340e-02, 6.94444450e-03, 2.77777785e-03,
          8.33333377e-03, 6.94444450e-03, 4.30555567e-02, 6.94444450e-03,
          1.38888892e-03, 0., 2.77777785e-03, 1.38888892e-03,
          1.80555563e-02, 1.11111114e-02, 5.55555569e-03, 2.50000004e-02,
          6.94444450e-03, 1.38888892e-03, 8.33333377e-03, 5.55555569e-03,
          8.33333377e-03, 8.33333377e-03, 5.55555569e-03, 5.55555569e-03,
          1.38888892e-03, 9.72222257e-03, 4.16666688e-03, 1.38888892e-03,
          5.55555569e-03, 1.38888892e-03, 1.38888892e-03, 1.38888892e-03,
          9.72222257e-03, 1.66666675e-02, 4.16666688e-03, 0.,
          6.94444450e-03, 6.94444450e-03, 2.77777785e-03, 2.77777785e-03,
          5.55555569e-03, 5.55555569e-03, 6.94444450e-03, 2.77777785e-03,
          8.33333377e-03, 9.72222257e-03, 1.38888892e-03, 8.33333377e-03,
          1.52777778e-02, 8.33333377e-03, 1.38888892e-03, 1.38888892e-03,
          1.80555563e-02, 2.77777785e-03, 1.52777778e-02, 1.38888892e-03,
          1.66666675e-02, 0., 5.55555569e-03, 1.66666675e-02,
          1.25000002e-02, 2.77777785e-03, 6.94444450e-03, 6.94444450e-03,
          5.55555569e-03, 5.55555569e-03, 1.38888892e-03, 4.16666688e-03,
          1.52777778e-02, 5.55555569e-03, 5.55555569e-03, 9.72222257e-03,
          2.77777785e-03, 0., 1.38888890e-02, 2.77777785e-03,
          4.16666688e-03, 1.38888892e-03, 4.16666688e-03, 5.55555569e-03 ]
      - [ 1.01832999e-03, 6.10997993e-03, 2.03665998e-03, 5.09164995e-03,
          6.10997993e-03, 1.32382903e-02, 7.12830992e-03, 0.,
          6.10997993e-03, 3.46232206e-02, 7.12830992e-03, 5.09164995e-03,
          4.07331996e-03, 0., 3.05498997e-03, 1.22199599e-02,
          7.12830992e-03, 5.09164995e-03, 8.14663991e-03, 7.12830992e-03,
          9.16497037e-03, 6.10997993e-03, 9.16497037e-03, 1.22199599e-02,
          6.10997993e-03, 0., 3.05498997e-03, 8.14663991e-03,
          8.14663991e-03, 7.12830992e-03, 5.09164995e-03, 5.09164995e-03,
          1.12016294e-02, 1.52749494e-02, 2.03665998e-03, 0.,
          3.05498997e-03, 7.12830992e-03, 1.22199599e-02, 6.10997993e-03,
          7.12830992e-03, 1.01832999e-03, 1.01832999e-03, 1.01832999e-03,
          1.32382903e-02, 1.01832999e-03, 2.34215893e-02, 2.24032588e-02,
          2.03665998e-03, 2.03665998e-03, 2.03665998e-03, 8.14663991e-03,
          8.14663991e-03, 2.03665998e-03, 1.01832999e-02, 6.10997993e-03,
          1.32382903e-02, 3.05498997e-03, 6.10997993e-03, 3.05498997e-03,
          1.42566198e-02, 2.03665998e-03, 1.01832999e-03, 1.01832999e-03,
          5.09164995e-03, 6.10997993e-03, 1.12016294e-02, 2.03665998e-03,
          1.01832999e-03, 3.05498997e-03, 2.03665998e-03, 1.83299407e-02,
          1.01832999e-02, 6.10997993e-03, 5.09164995e-03, 4.07331996e-03,
          2.74949092e-02, 3.05498997e-03, 1.01832999e-03, 3.05498997e-03,
          5.09164995e-03, 4.07331996e-03, 1.62932798e-02, 9.16497037e-03,
          9.16497037e-03, 1.73116103e-02, 4.07331996e-03, 4.07331996e-03,
          1.52749494e-02, 6.10997993e-03, 5.09164995e-03, 7.12830992e-03,
          1.01832999e-03, 5.09164995e-03, 2.03665998e-03, 9.16497037e-03,
          7.12830992e-03, 1.01832999e-03, 9.16497037e-03, 3.05498997e-03,
          3.05498997e-03, 1.01832999e-03, 8.14663991e-03, 1.01832999e-02,
          2.03665998e-03, 0., 8.14663991e-03, 3.05498997e-03,
          3.05498997e-03, 9.16497037e-03, 7.12830992e-03, 1.12016294e-02,
          6.10997993e-03, 5.09164995e-03, 2.03665998e-03, 7.12830992e-03,
          1.01832999e-03, 8.14663991e-03, 1.42566198e-02, 1.22199599e-02,
          2.03665998e-03, 1.01832999e-03, 1.93482693e-02, 3.05498997e-03,
          1.32382903e-02, 6.10997993e-03, 1.12016294e-02, 0.,
          6.10997993e-03, 1.22199599e-02, 9.16497037e-03, 4.07331996e-03,
          9.16497037e-03, 8.14663991e-03, 6.10997993e-03, 6.10997993e-03,
          1.01832999e-03, 7.12830992e-03, 8.14663991e-03, 4.07331996e-03,
          6.10997993e-03, 1.01832999e-02, 3.05498997e-03, 0.,
          1.93482693e-02, 2.03665998e-03, 6.10997993e-03, 5.09164995e-03,
          3.05498997e-03, 4.07331996e-03 ]
      - [ 6.81818184e-03, 6.81818184e-03, 9.09090880e-03, 6.81818184e-03,
          1.36363637e-02, 3.18181813e-02, 9.09090880e-03, 0.,
          6.81818184e-03, 1.81818176e-02, 2.27272720e-03, 9.09090880e-03,
          6.81818184e-03, 0., 2.27272720e-03, 9.09090880e-03,
          1.13636358e-02, 4.54545440e-03, 1.13636358e-02, 2.27272720e-03,
          2.27272720e-03, 4.54545440e-03, 1.59090906e-02, 1.59090906e-02,
          6.81818184e-03, 0., 2.27272720e-03, 0., 9.09090880e-03,
          4.54545440e-03, 4.54545440e-03, 6.81818184e-03, 9.09090880e-03,
          2.27272720e-03, 4.54545440e-03, 2.27272720e-03, 4.54545440e-03,
          4.54545440e-03, 2.04545446e-02, 2.27272720e-03, 1.36363637e-02,
          4.54545440e-03, 0., 2.27272720e-03, 6.81818184e-03,
          2.27272720e-03, 2.27272715e-02, 6.81818184e-03, 4.54545440e-03,
          2.27272720e-03, 2.27272720e-03, 6.81818184e-03, 0., 0.,
          6.81818184e-03, 4.54545440e-03, 1.13636358e-02, 0.,
          6.81818184e-03, 2.27272720e-03, 1.13636358e-02, 0.,
          4.54545440e-03, 2.27272720e-03, 6.81818184e-03, 1.59090906e-02,
          1.13636358e-02, 4.54545440e-03, 0., 2.27272720e-03,
          4.54545440e-03, 1.59090906e-02, 2.27272720e-03, 1.36363637e-02,
          9.09090880e-03, 4.54545440e-03, 9.09090880e-03, 6.81818184e-03,
          0., 6.81818184e-03, 4.54545440e-03, 2.27272720e-03,
          3.63636352e-02, 6.81818184e-03, 4.54545440e-03, 1.13636358e-02,
          2.27272720e-03, 4.54545440e-03, 9.09090880e-03, 1.13636358e-02,
          9.09090880e-03, 6.81818184e-03, 2.27272720e-03, 4.54545440e-03,
          4.54545440e-03, 1.59090906e-02, 4.54545440e-03, 2.27272720e-03,
          0., 0., 2.27272720e-03, 4.54545440e-03, 2.49999985e-02,
          9.09090880e-03, 9.09090880e-03, 0., 1.36363637e-02,
          9.09090880e-03, 2.27272720e-03, 2.27272720e-03, 9.09090880e-03,
          9.09090880e-03, 6.81818184e-03, 1.36363637e-02, 4.54545440e-03,
          2.27272720e-03, 2.27272720e-03, 1.13636358e-02, 9.09090880e-03,
          2.27272720e-03, 4.54545440e-03, 2.27272720e-03, 1.59090906e-02,
          2.27272720e-03, 1.59090906e-02, 9.09090880e-03, 0., 0.,
          2.27272720e-03, 4.54545440e-03, 4.54545440e-03, 2.27272720e-03,
          2.27272720e-03, 1.36363637e-02, 4.54545440e-03, 0.,
          6.81818184e-03, 4.54545440e-03, 2.04545446e-02, 9.09090880e-03,
          9.09090880e-03, 2.27272720e-03, 6.81818184e-03, 0.,
          4.54545440e-03, 0., 1.13636358e-02, 6.81818184e-03,
          9.09090880e-03, 4.54545440e-03 ]
      - [ 1.60771701e-03, 8.03858507e-03, 4.82315104e-03, 8.03858507e-03,
          9.64630209e-03, 1.60771701e-02, 8.03858507e-03, 0.,
          6.43086806e-03, 3.53697762e-02, 1.60771701e-03, 8.03858507e-03,
          4.82315104e-03, 0., 4.82315104e-03, 8.03858507e-03,
          1.92926042e-02, 3.21543403e-03, 1.12540191e-02, 1.28617361e-02,
          0., 3.21543403e-03, 1.28617361e-02, 9.64630209e-03,
          3.21543403e-03, 1.60771701e-03, 4.82315104e-03, 8.03858507e-03,
          1.12540191e-02, 4.82315104e-03, 4.82315104e-03, 3.21543403e-03,
          6.43086806e-03, 1.60771701e-03, 1.60771701e-03, 0.,
          6.43086806e-03, 6.43086806e-03, 1.60771701e-02, 1.12540191e-02,
          8.03858507e-03, 0., 0., 3.21543403e-03, 1.44694531e-02, 0.,
          3.21543403e-02, 3.21543403e-02, 1.60771701e-03, 1.60771701e-03,
          0., 4.82315104e-03, 4.82315104e-03, 3.21543403e-03,
          8.03858507e-03, 4.82315104e-03, 1.92926042e-02, 0.,
          3.21543403e-03, 0., 1.12540191e-02, 3.21543403e-03,
          3.21543403e-03, 3.21543403e-03, 9.64630209e-03, 1.60771701e-02,
          9.64630209e-03, 4.82315104e-03, 0., 6.43086806e-03,
          1.60771701e-03, 1.60771701e-02, 3.21543403e-03, 4.82315104e-03,
          8.03858507e-03, 6.43086806e-03, 2.57234722e-02, 3.21543403e-03,
          4.82315104e-03, 3.21543403e-03, 3.21543403e-03, 0.,
          3.05466242e-02, 1.12540191e-02, 4.82315104e-03, 1.28617361e-02,
          1.60771701e-03, 1.60771701e-03, 4.82315104e-03, 3.21543403e-03,
          1.12540191e-02, 8.03858507e-03, 3.21543403e-03, 1.28617361e-02,
          0., 1.60771701e-02, 3.21543403e-03, 1.60771701e-03,
          8.03858507e-03, 0., 1.60771701e-03, 1.60771701e-03,
          8.03858507e-03, 1.12540191e-02, 1.60771701e-03, 0.,
          4.82315104e-03, 8.03858507e-03, 4.82315104e-03, 4.82315104e-03,
          4.82315104e-03, 8.03858507e-03, 9.64630209e-03, 9.64630209e-03,
          1.60771701e-03, 1.28617361e-02, 0., 4.82315104e-03,
          1.12540191e-02, 6.43086806e-03, 3.21543403e-03, 0.,
          2.41157562e-02, 4.82315104e-03, 1.12540191e-02, 3.21543403e-03,
          1.12540191e-02, 0., 4.82315104e-03, 9.64630209e-03,
          8.03858507e-03, 1.60771701e-03, 8.03858507e-03, 1.60771701e-02,
          1.60771701e-03, 4.82315104e-03, 1.60771701e-03, 0.,
          8.03858507e-03, 9.64630209e-03, 4.82315104e-03, 3.21543403e-03,
          6.43086806e-03, 0., 6.43086806e-03, 0., 6.43086806e-03,
          3.21543403e-03, 4.82315104e-03, 3.21543403e-03 ]
      - [ 5.96125191e-03, 1.19225038e-02, 4.47093882e-03, 5.21609560e-03,
          1.04321912e-02, 4.47093882e-03, 1.04321912e-02, 7.45156489e-04,
          2.98062596e-03, 1.19225038e-02, 7.45156489e-04, 1.49031298e-03,
          8.19672178e-03, 0., 1.11773470e-02, 7.45156489e-04,
          5.21609560e-03, 3.72578250e-03, 1.04321912e-02, 0.,
          9.68703441e-03, 1.49031298e-03, 9.68703441e-03, 6.70640822e-03,
          5.96125191e-03, 1.49031298e-03, 2.23546941e-02, 6.70640822e-03,
          8.94187763e-03, 7.45156489e-04, 4.47093882e-03, 4.47093882e-03,
          1.49031298e-03, 2.98062596e-03, 2.23546941e-03, 1.04321912e-02,
          7.45156500e-03, 5.96125191e-03, 2.98062596e-03, 1.49031298e-03,
          3.72578250e-03, 8.94187763e-03, 2.98062596e-03, 2.23546941e-03,
          2.98062596e-03, 1.49031298e-03, 1.78837553e-02, 0.,
          8.19672178e-03, 2.23546941e-03, 1.63934436e-02, 4.47093882e-03,
          8.94187763e-03, 6.70640822e-03, 2.98062596e-03, 5.21609560e-03,
          2.98062596e-03, 2.98062596e-03, 7.45156500e-03, 1.04321912e-02,
          4.47093882e-03, 1.78837553e-02, 5.96125191e-03, 1.49031300e-02,
          1.49031298e-03, 3.72578250e-03, 1.19225038e-02, 8.94187763e-03,
          0., 1.78837553e-02, 7.45156500e-03, 5.21609560e-03,
          2.08643824e-02, 1.19225038e-02, 3.72578250e-03, 0., 0.,
          2.23546941e-03, 2.23546941e-03, 2.23546941e-03, 2.23546941e-03,
          1.04321912e-02, 1.49031298e-03, 0., 7.45156500e-03,
          7.45156489e-04, 1.56482868e-02, 8.19672178e-03, 1.11773470e-02,
          4.47093882e-03, 4.47093882e-03, 3.72578250e-03, 7.45156500e-03,
          4.47093882e-03, 1.63934436e-02, 2.23546941e-02, 1.26676606e-02,
          0., 5.21609560e-03, 1.04321912e-02, 9.68703441e-03,
          1.49031298e-03, 2.98062596e-03, 3.42771970e-02, 5.96125191e-03,
          1.56482868e-02, 4.47093882e-03, 5.96125191e-03, 5.96125191e-03,
          2.23546941e-03, 2.23546941e-03, 6.70640822e-03, 2.98062596e-03,
          4.47093882e-03, 2.98062596e-03, 8.19672178e-03, 0.,
          6.70640822e-03, 2.98062596e-03, 7.45156489e-04, 5.21609560e-03,
          0., 7.45156489e-04, 1.34128164e-02, 8.19672178e-03,
          5.21609560e-03, 0., 2.16095373e-02, 2.01192256e-02,
          4.47093882e-03, 4.47093882e-03, 8.94187763e-03, 5.96125191e-03,
          1.11773470e-02, 4.47093882e-03, 1.63934436e-02, 2.38450076e-02,
          2.98062596e-03, 1.41579732e-02, 8.94187763e-03, 7.45156489e-04,
          1.56482868e-02, 1.49031298e-03, 2.98062596e-03, 4.47093882e-03,
          7.45156500e-03, 0., 3.72578250e-03, 8.19672178e-03,
          8.94187763e-03 ]
      - [ 7.59013277e-03, 1.32827321e-02, 3.79506638e-03, 9.48766596e-04,
          1.13851987e-02, 2.84629967e-03, 1.51802655e-02, 9.48766596e-04,
          4.74383309e-03, 1.80265661e-02, 1.89753319e-03, 9.48766596e-04,
          2.84629967e-03, 0., 6.64136605e-03, 9.48766596e-04,
          7.59013277e-03, 6.64136605e-03, 1.04364324e-02, 0.,
          4.74383309e-03, 2.84629967e-03, 8.53889901e-03, 7.59013277e-03,
          8.53889901e-03, 0., 2.18216311e-02, 3.79506638e-03,
          1.23339659e-02, 0., 9.48766596e-04, 4.74383309e-03,
          9.48766596e-04, 2.84629967e-03, 9.48766596e-04, 9.48766619e-03,
          7.59013277e-03, 3.79506638e-03, 4.74383309e-03, 1.89753319e-03,
          2.84629967e-03, 4.74383309e-03, 2.84629967e-03, 9.48766596e-04,
          3.79506638e-03, 1.89753319e-03, 1.32827321e-02, 9.48766596e-04,
          1.32827321e-02, 2.84629967e-03, 1.61290318e-02, 1.89753319e-03,
          6.64136605e-03, 7.59013277e-03, 9.48766596e-04, 5.69259934e-03,
          2.84629967e-03, 2.84629967e-03, 5.69259934e-03, 6.64136605e-03,
          2.84629967e-03, 1.80265661e-02, 6.64136605e-03, 2.27703974e-02,
          2.84629967e-03, 5.69259934e-03, 1.32827321e-02, 9.48766619e-03,
          0., 2.18216311e-02, 7.59013277e-03, 5.69259934e-03,
          2.08728649e-02, 1.42314993e-02, 3.79506638e-03, 1.89753319e-03,
          0., 1.89753319e-03, 9.48766596e-04, 2.84629967e-03,
          9.48766596e-04, 8.53889901e-03, 2.84629967e-03, 0.,
          3.79506638e-03, 2.84629967e-03, 1.70777980e-02, 6.64136605e-03,
          9.48766619e-03, 2.84629967e-03, 9.48766619e-03, 3.79506638e-03,
          9.48766619e-03, 5.69259934e-03, 1.70777980e-02, 2.65654642e-02,
          1.23339659e-02, 0., 4.74383309e-03, 1.42314993e-02,
          6.64136605e-03, 2.84629967e-03, 5.69259934e-03, 5.02846278e-02,
          2.84629967e-03, 1.51802655e-02, 3.79506638e-03, 5.69259934e-03,
          7.59013277e-03, 2.84629967e-03, 9.48766596e-04, 7.59013277e-03,
          3.79506638e-03, 5.69259934e-03, 1.89753319e-03, 1.23339659e-02,
          0., 3.79506638e-03, 2.84629967e-03, 3.79506638e-03,
          5.69259934e-03, 0., 0., 1.51802655e-02, 5.69259934e-03,
          2.84629967e-03, 9.48766596e-04, 1.51802655e-02, 2.46679317e-02,
          2.84629967e-03, 6.64136605e-03, 8.53889901e-03, 3.79506638e-03,
          8.53889901e-03, 3.79506638e-03, 1.32827321e-02, 2.27703974e-02,
          3.79506638e-03, 1.42314993e-02, 8.53889901e-03, 0.,
          1.80265661e-02, 2.84629967e-03, 9.48766596e-04, 5.69259934e-03,
          3.79506638e-03, 0., 1.89753319e-03, 1.89753319e-03,
          9.48766596e-04 ]
      - [ 8.02854542e-03, 1.15967887e-02, 5.35236392e-03, 3.56824254e-03,
          1.24888485e-02, 5.35236392e-03, 1.07047278e-02, 0.,
          5.35236392e-03, 1.24888485e-02, 2.67618196e-03, 8.92060634e-04,
          2.67618196e-03, 0., 6.24442426e-03, 1.78412127e-03,
          5.35236392e-03, 5.35236392e-03, 4.46030311e-03, 0.,
          4.46030311e-03, 1.78412127e-03, 4.46030311e-03, 8.92060623e-03,
          3.56824254e-03, 8.92060634e-04, 2.23015156e-02, 5.35236392e-03,
          9.81266703e-03, 1.78412127e-03, 1.78412127e-03, 6.24442426e-03,
          1.78412127e-03, 2.67618196e-03, 0., 1.15967887e-02,
          6.24442426e-03, 6.24442426e-03, 5.35236392e-03, 1.78412127e-03,
          1.78412127e-03, 1.24888485e-02, 2.67618196e-03, 2.67618196e-03,
          1.78412127e-03, 1.78412127e-03, 1.24888485e-02, 0.,
          1.15967887e-02, 3.56824254e-03, 2.31935773e-02, 1.78412127e-03,
          8.92060623e-03, 4.46030311e-03, 6.24442426e-03, 3.56824254e-03,
          4.46030311e-03, 5.35236392e-03, 5.35236392e-03, 8.92060623e-03,
          4.46030311e-03, 1.96253341e-02, 6.24442426e-03, 1.87332742e-02,
          8.02854542e-03, 7.13648507e-03, 1.24888485e-02, 8.92060623e-03,
          8.92060634e-04, 1.60570908e-02, 8.92060623e-03, 5.35236392e-03,
          2.05173939e-02, 1.24888485e-02, 1.78412127e-03, 1.78412127e-03,
          0., 1.78412127e-03, 1.78412127e-03, 2.67618196e-03,
          8.92060634e-04, 5.35236392e-03, 8.92060634e-04, 8.92060634e-04,
          4.46030311e-03, 2.67618196e-03, 1.07047278e-02, 8.92060623e-03,
          4.46030311e-03, 5.35236392e-03, 3.56824254e-03, 1.78412127e-03,
          1.15967887e-02, 3.56824254e-03, 1.87332742e-02, 2.31935773e-02,
          1.51650310e-02, 8.92060634e-04, 1.78412127e-03, 1.07047278e-02,
          6.24442426e-03, 1.78412127e-03, 8.92060623e-03, 4.01427299e-02,
          1.78412127e-03, 1.60570908e-02, 6.24442426e-03, 8.92060623e-03,
          6.24442426e-03, 2.67618196e-03, 0., 8.92060623e-03,
          5.35236392e-03, 4.46030311e-03, 8.92060634e-04, 1.33809093e-02,
          0., 5.35236392e-03, 0., 8.92060634e-04, 2.67618196e-03,
          8.92060634e-04, 0., 1.15967887e-02, 8.92060623e-03,
          4.46030311e-03, 2.67618196e-03, 2.23015156e-02, 2.40856372e-02,
          6.24442426e-03, 5.35236392e-03, 7.13648507e-03, 5.35236392e-03,
          8.92060623e-03, 5.35236392e-03, 1.60570908e-02, 2.05173939e-02,
          3.56824254e-03, 1.07047278e-02, 9.81266703e-03, 1.78412127e-03,
          1.51650310e-02, 1.78412127e-03, 2.67618196e-03, 6.24442426e-03,
          7.13648507e-03, 0., 3.56824254e-03, 1.07047278e-02,
          6.24442426e-03 ]
      - [ 5.49882185e-03, 1.41398273e-02, 6.28436776e-03, 3.92773002e-03,
          9.42655187e-03, 5.49882185e-03, 1.02120973e-02, 7.85545970e-04,
          3.92773002e-03, 1.80675574e-02, 2.35663797e-03, 1.57109194e-03,
          7.85546005e-03, 0., 4.71327594e-03, 7.85545970e-04,
          9.42655187e-03, 4.71327594e-03, 6.28436776e-03, 7.85545970e-04,
          3.92773002e-03, 2.35663797e-03, 8.64100549e-03, 1.33542819e-02,
          7.85546005e-03, 7.85545970e-04, 2.43519247e-02, 3.92773002e-03,
          9.42655187e-03, 7.85545970e-04, 2.35663797e-03, 3.14218388e-03,
          7.85545970e-04, 3.14218388e-03, 1.57109194e-03, 1.33542819e-02,
          3.92773002e-03, 1.17831891e-02, 9.42655187e-03, 7.85545970e-04,
          1.57109194e-03, 7.06991367e-03, 5.49882185e-03, 2.35663797e-03,
          3.92773002e-03, 7.85545970e-04, 8.64100549e-03, 0.,
          1.72820110e-02, 1.57109194e-03, 1.72820110e-02, 3.14218388e-03,
          3.92773002e-03, 4.71327594e-03, 2.35663797e-03, 3.92773002e-03,
          2.35663797e-03, 3.92773002e-03, 7.06991367e-03, 7.85546005e-03,
          3.92773002e-03, 2.27808338e-02, 4.71327594e-03, 1.64964646e-02,
          1.57109194e-03, 4.71327594e-03, 1.33542819e-02, 7.85546005e-03,
          7.85545970e-04, 1.88531037e-02, 9.42655187e-03, 2.35663797e-03,
          2.74941083e-02, 1.49253737e-02, 3.14218388e-03, 1.57109194e-03,
          7.85545970e-04, 0., 7.85545970e-04, 2.35663797e-03,
          1.57109194e-03, 4.71327594e-03, 2.35663797e-03, 7.85545970e-04,
          7.85546005e-03, 7.85545970e-04, 1.33542819e-02, 7.85546005e-03,
          5.49882185e-03, 5.49882185e-03, 6.28436776e-03, 1.57109194e-03,
          1.09976437e-02, 4.71327594e-03, 1.57109201e-02, 2.74941083e-02,
          1.17831891e-02, 0., 1.57109194e-03, 8.64100549e-03,
          8.64100549e-03, 7.85545970e-04, 4.71327594e-03, 4.39905748e-02,
          4.71327594e-03, 1.64964646e-02, 5.49882185e-03, 1.02120973e-02,
          4.71327594e-03, 1.57109194e-03, 2.35663797e-03, 3.92773002e-03,
          1.57109194e-03, 6.28436776e-03, 3.14218388e-03, 1.33542819e-02,
          0., 1.57109194e-03, 1.57109194e-03, 7.85545970e-04,
          4.71327594e-03, 0., 2.35663797e-03, 1.57109201e-02,
          7.06991367e-03, 2.35663797e-03, 7.85545970e-04, 1.57109201e-02,
          2.59230174e-02, 4.71327594e-03, 3.92773002e-03, 7.06991367e-03,
          5.49882185e-03, 7.06991367e-03, 6.28436776e-03, 1.02120973e-02,
          2.35663783e-02, 3.92773002e-03, 1.17831891e-02, 1.41398273e-02,
          0., 1.02120973e-02, 3.14218388e-03, 0., 6.28436776e-03,
          7.85546005e-03, 7.85545970e-04, 6.28436776e-03, 5.49882185e-03,
          7.06991367e-03 ]
      - [ 0., 2.89855078e-02, 0., 0., 2.89855078e-02, 0., 0., 0., 0., 0.,
          0., 0., 1.44927539e-02, 0., 0., 0., 5.79710156e-02, 0., 0., 0.,
          0., 0., 2.89855078e-02, 2.89855078e-02, 0., 0., 1.44927539e-02,
          0., 0., 0., 0., 1.44927539e-02, 1.44927539e-02, 0.,
          1.44927539e-02, 0., 0., 1.44927539e-02, 0., 2.89855078e-02, 0.,
          0., 0., 0., 2.89855078e-02, 0., 0., 0., 0., 0., 0., 0., 0., 0.,
          4.34782617e-02, 0., 0., 0., 0., 0., 1.44927539e-02, 0., 0., 0.,
          2.89855078e-02, 0., 0., 2.89855078e-02, 0., 2.89855078e-02,
          1.44927539e-02, 2.89855078e-02, 0., 0., 0., 0., 0., 0., 0., 0.,
          0., 0., 2.17391312e-01, 0., 2.89855078e-02, 0., 1.44927539e-02,
          0., 1.44927539e-02, 0., 0., 1.44927539e-02, 0., 1.44927539e-02,
          0., 0., 0., 0., 0., 0., 0., 0., 0., 2.89855078e-02, 0., 0., 0.,
          0., 0., 0., 0., 0., 0., 0., 1.44927539e-02, 0., 0., 0.,
          2.89855078e-02, 0., 1.44927539e-02, 0., 0., 1.44927539e-02,
          1.44927539e-02, 0., 0., 0., 0., 2.89855078e-02, 0., 0., 0., 0.,
          1.44927539e-02, 0., 1.44927539e-02, 0., 0., 0., 0., 0., 0.,
          1.44927539e-02, 0., 0., 0., 0., 0., 0. ]
      - [ 0., 0., 0., 0., 0., 0., 0., 0., 0., 0., 0., 0., 3.38983051e-02,
          0., 0., 0., 6.77966103e-02, 0., 0., 0., 0., 0., 1.69491526e-02,
          1.69491526e-02, 0., 0., 0., 0., 0., 0., 0., 0., 1.69491526e-02,
          0., 1.69491526e-02, 0., 0., 1.69491526e-02, 0., 3.38983051e-02,
          1.69491526e-02, 3.38983051e-02, 0., 0., 3.38983051e-02, 0.,
          3.38983051e-02, 0., 0., 0., 0., 0., 0., 0., 3.38983051e-02,
          1.69491526e-02, 0., 0., 0., 0., 0., 1.69491526e-02,
          1.69491526e-02, 1.69491526e-02, 1.69491526e-02, 0., 0.,
          1.69491526e-02, 0., 0., 0., 0., 1.69491526e-02, 0., 0., 0., 0.,
          0., 1.69491526e-02, 0., 0., 0., 6.77966103e-02, 0.,
          3.38983051e-02, 0., 0., 0., 1.69491526e-02, 0., 0.,
          5.08474559e-02, 0., 1.69491526e-02, 0., 0., 0., 0., 0., 0.,
          1.69491526e-02, 0., 0., 1.35593221e-01, 0., 0., 1.69491526e-02,
          0., 0., 1.69491526e-02, 0., 1.69491526e-02, 0., 0., 0., 0., 0.,
          1.69491526e-02, 3.38983051e-02, 0., 0., 0., 0., 0., 0., 0., 0.,
          0., 0., 0., 0., 0., 0., 0., 0., 0., 3.38983051e-02, 0., 0., 0.,
          0., 1.69491526e-02, 0., 0., 0., 0., 0., 0., 0., 0. ]
      - [ 0., 1.02040814e-02, 0., 0., 3.06122452e-02, 0., 0., 0., 0.,
          3.06122452e-02, 2.04081628e-02, 0., 1.02040814e-02, 0., 0.,
          2.04081628e-02, 3.06122452e-02, 0., 2.04081628e-02,
          1.02040814e-02, 2.04081628e-02, 0., 8.16326514e-02,
          3.06122452e-02, 2.04081628e-02, 0., 2.04081628e-02, 0., 0., 0.,
          0., 0., 3.06122452e-02, 0., 0., 0., 0., 1.02040814e-02, 0., 0.,
          0., 0., 1.02040814e-02, 1.02040814e-02, 1.02040814e-02, 0.,
          3.06122452e-02, 0., 0., 0., 0., 1.02040814e-02, 1.02040814e-02,
          0., 4.08163257e-02, 0., 1.02040814e-02, 0., 0., 2.04081628e-02,
          0., 0., 0., 0., 2.04081628e-02, 1.02040814e-02, 0.,
          1.02040814e-02, 0., 0., 1.02040814e-02, 1.02040814e-02,
          1.02040814e-02, 1.02040814e-02, 0., 0., 0., 1.02040814e-02, 0.,
          0., 0., 1.02040814e-02, 6.12244904e-02, 0., 2.04081628e-02, 0.,
          1.02040814e-02, 2.04081628e-02, 1.02040814e-02, 1.02040814e-02,
          0., 1.02040814e-02, 0., 0., 0., 1.02040814e-02, 0., 0., 0.,
          1.02040814e-02, 0., 1.02040814e-02, 1.02040814e-02,
          4.08163257e-02, 0., 0., 0., 1.02040814e-02, 1.02040814e-02,
          1.02040814e-02, 0., 0., 0., 0., 0., 0., 0., 0., 0.,
          1.02040814e-02, 0., 0., 0., 1.02040814e-02, 0., 0., 0., 0., 0.,
          0., 0., 0., 1.02040814e-02, 0., 1.02040814e-02, 1.02040814e-02,
          2.04081628e-02, 0., 1.02040814e-02, 0., 0., 0., 0., 0.,
          1.02040814e-02, 0., 0., 0., 0., 0. ]
      - [ 0., 3.41880359e-02, 0., 8.54700897e-03, 1.70940179e-02, 0., 0.,
          0., 0., 8.54700897e-03, 8.54700897e-03, 0., 1.70940179e-02, 0.,
          1.70940179e-02, 0., 5.12820557e-02, 0., 8.54700897e-03,
          8.54700897e-03, 8.54700897e-03, 0., 1.45299152e-01,
          8.54700897e-03, 1.70940179e-02, 8.54700897e-03, 8.54700897e-03,
          8.54700897e-03, 0., 0., 0., 0., 0., 0., 1.70940179e-02, 0., 0.,
          8.54700897e-03, 0., 8.54700897e-03, 8.54700897e-03, 0., 0., 0.,
          8.54700897e-03, 0., 0., 0., 8.54700897e-03, 0., 0., 0., 0., 0.,
          3.41880359e-02, 0., 8.54700897e-03, 0., 8.54700897e-03, 0., 0.,
          0., 8.54700897e-03, 8.54700897e-03, 1.70940179e-02, 0.,
          2.56410278e-02, 2.56410278e-02, 0., 0., 8.54700897e-03,
          1.70940179e-02, 0., 1.70940179e-02, 0., 0., 0., 8.54700897e-03,
          0., 0., 8.54700897e-03, 0., 5.12820557e-02, 0., 2.56410278e-02,
          0., 0., 8.54700897e-03, 8.54700897e-03, 0., 0., 0.,
          8.54700897e-03, 2.56410278e-02, 0., 0., 0., 0., 0.,
          8.54700897e-03, 8.54700897e-03, 0., 0., 9.40170959e-02, 0., 0.,
          0., 0., 0., 1.70940179e-02, 0., 2.56410278e-02, 0.,
          1.70940179e-02, 8.54700897e-03, 0., 0., 0., 0., 0., 0., 0., 0.,
          0., 0., 8.54700897e-03, 0., 8.54700897e-03, 0., 0., 0.,
          8.54700897e-03, 0., 0., 0., 0., 8.54700897e-03, 0.,
          8.54700897e-03, 0., 0., 0., 8.54700897e-03, 0., 0., 0., 0., 0.,
          0., 0. ]
   decision_functions:
      -
         sv_count: 8
         rho: -2.8118491172790527e-04
         alpha: [ 1., 1., 1., 1., -1., -1., -1., -1. ]
         index: [ 0, 1, 2, 3, 4, 5, 6, 7 ]
      -
         sv_count: 8
         rho: -1.0992586612701416e-03
         alpha: [ 1., 1., 1., 1., -1., -1., -1., -1. ]
         index: [ 0, 1, 2, 3, 8, 9, 10, 11 ]
      -
         sv_count: 8
         rho: 1.3058781623840332e-03
         alpha: [ 1., 1., 1., 1., -1., -1., -1., -1. ]
         index: [ 0, 1, 2, 3, 12, 13, 14, 15 ]
      -
         sv_count: 8
         rho: -8.8191032409667969e-04
         alpha: [ 1., 1., 1., 1., -1., -1., -1., -1. ]
         index: [ 0, 1, 2, 3, 16, 17, 18, 19 ]
      -
         sv_count: 8
         rho: 3.0260533094406128e-02
         alpha: [ 1., 1., 1., 1., -1., -1., -1., -1. ]
         index: [ 0, 1, 2, 3, 20, 21, 22, 23 ]
      -
         sv_count: 8
         rho: 2.5027394294738770e-03
         alpha: [ 1., 1., 1., 1., -1., -1., -1., -1. ]
         index: [ 4, 5, 6, 7, 8, 9, 10, 11 ]
      -
         sv_count: 8
         rho: 4.3923556804656982e-03
         alpha: [ 1., 1., 1., 1., -1., -1., -1., -1. ]
         index: [ 4, 5, 6, 7, 12, 13, 14, 15 ]
      -
         sv_count: 8
         rho: -1.5406608581542969e-03
         alpha: [ 1., 1., 1., 1., -1., -1., -1., -1. ]
         index: [ 4, 5, 6, 7, 16, 17, 18, 19 ]
      -
         sv_count: 8
         rho: 2.0328968763351440e-02
         alpha: [ 1., 1., 1., 1., -1., -1., -1., -1. ]
         index: [ 4, 5, 6, 7, 20, 21, 22, 23 ]
      -
         sv_count: 8
         rho: 1.9641518592834473e-03
         alpha: [ 1., 1., 1., 1., -1., -1., -1., -1. ]
         index: [ 8, 9, 10, 11, 12, 13, 14, 15 ]
      -
         sv_count: 8
         rho: -9.5510482788085938e-04
         alpha: [ 1., 1., 1., 1., -1., -1., -1., -1. ]
         index: [ 8, 9, 10, 11, 16, 17, 18, 19 ]
      -
         sv_count: 8
         rho: 3.3710122108459473e-02
         alpha: [ 1., 1., 1., 1., -1., -1., -1., -1. ]
         index: [ 8, 9, 10, 11, 20, 21, 22, 23 ]
      -
         sv_count: 8
         rho: -2.6893019676208496e-03
         alpha: [ 1., 1., 1., 1., -1., -1., -1., -1. ]
         index: [ 12, 13, 14, 15, 16, 17, 18, 19 ]
      -
         sv_count: 8
         rho: 3.6995232105255127e-02
         alpha: [ 1., 1., 1., 1., -1., -1., -1., -1. ]
         index: [ 12, 13, 14, 15, 20, 21, 22, 23 ]
      -
         sv_count: 8
         rho: 2.3219525814056396e-02
         alpha: [ 1., 1., 1., 1., -1., -1., -1., -1. ]
         index: [ 16, 17, 18, 19, 20, 21, 22, 23 ]
