%YAML:1.0
my_svm: !!opencv-ml-svm
   svm_type: C_SVC
   kernel: { type:RBF, gamma:3. }
   C: 1.
   term_criteria: { epsilon:2.2204460492503131e-16, iterations:100 }
   var_all: 150
   var_count: 150
   class_count: 5
   class_labels: !!opencv-matrix
      rows: 1
      cols: 5
      dt: i
      data: [ 0, 1, 2, 3, 4 ]
   sv_total: 35
   support_vectors:
      - [ 4.11099708e-03, 4.11099708e-03, 7.19424477e-03, 8.22199415e-03,
          8.22199415e-03, 0., 1.33607406e-02, 6.16649538e-03,
          7.19424477e-03, 3.08324769e-03, 8.22199415e-03, 1.02774927e-03,
          4.11099708e-03, 1.02774927e-03, 7.19424477e-03, 1.13052418e-02,
          1.02774927e-03, 1.54162394e-02, 2.05549854e-03, 1.02774927e-03,
          1.33607406e-02, 8.22199415e-03, 4.11099708e-03, 2.36382335e-02,
          9.24974307e-03, 2.05549854e-03, 6.16649538e-03, 3.08324769e-03,
          3.08324769e-03, 9.24974307e-03, 5.13874646e-03, 3.08324769e-03,
          6.16649538e-03, 3.08324769e-03, 7.19424477e-03, 3.08324769e-03,
          7.19424477e-03, 2.05549859e-02, 3.08324769e-03, 6.16649538e-03,
          4.11099708e-03, 7.19424477e-03, 2.05549854e-03, 0.,
          1.33607406e-02, 1.23329908e-02, 1.23329908e-02, 1.02774927e-03,
          8.22199415e-03, 1.33607406e-02, 7.19424477e-03, 6.16649538e-03,
          7.19424477e-03, 6.16649538e-03, 8.22199415e-03, 6.16649538e-03,
          7.19424477e-03, 6.16649538e-03, 9.24974307e-03, 6.16649538e-03,
          3.08324769e-03, 1.33607406e-02, 5.13874646e-03, 7.19424477e-03,
          1.54162394e-02, 2.05549854e-03, 1.13052418e-02, 2.05549854e-03,
          9.24974307e-03, 1.02774927e-03, 7.19424477e-03, 7.19424477e-03,
          5.13874646e-03, 4.11099708e-03, 4.11099708e-03, 2.05549854e-03,
          1.02774927e-03, 8.22199415e-03, 3.08324769e-03, 1.02774929e-02,
          1.02774927e-03, 6.16649538e-03, 4.11099708e-03, 3.08324769e-03,
          9.24974307e-03, 8.22199415e-03, 7.19424477e-03, 2.05549854e-03,
          1.74717382e-02, 3.08324769e-03, 9.24974307e-03, 6.16649538e-03,
          1.84994861e-02, 1.54162394e-02, 1.13052418e-02, 4.11099708e-03,
          3.08324769e-03, 4.11099708e-03, 2.05549859e-02, 4.11099708e-03,
          5.13874646e-03, 1.13052418e-02, 7.19424477e-03, 4.11099708e-03,
          8.22199415e-03, 1.02774927e-03, 1.43884895e-02, 3.08324769e-03,
          6.16649538e-03, 6.16649538e-03, 1.43884895e-02, 5.13874646e-03,
          7.19424477e-03, 7.19424477e-03, 9.24974307e-03, 0.,
          2.05549854e-03, 2.05549854e-03, 8.22199415e-03, 9.24974307e-03,
          0., 1.23329908e-02, 1.02774927e-03, 8.22199415e-03,
          1.02774927e-03, 9.24974307e-03, 4.11099708e-03, 0.,
          4.11099708e-03, 2.05549854e-03, 9.24974307e-03, 2.05549859e-02,
          1.02774927e-03, 7.19424477e-03, 6.16649538e-03, 5.13874646e-03,
          8.22199415e-03, 7.19424477e-03, 7.19424477e-03, 3.08324769e-03,
          3.08324769e-03, 7.19424477e-03, 1.13052418e-02, 2.05549854e-03,
          3.08324769e-03, 8.22199415e-03, 8.22199415e-03, 1.43884895e-02,
          3.08324769e-03, 5.13874646e-03 ]
      - [ 1.94174761e-03, 3.88349523e-03, 6.79611648e-03, 6.79611648e-03,
          7.76699046e-03, 9.70873807e-04, 1.45631069e-02, 1.94174761e-03,
          6.79611648e-03, 3.88349523e-03, 1.26213599e-02, 9.70873807e-04,
          1.94174761e-03, 0., 6.79611648e-03, 9.70873795e-03,
          9.70873807e-04, 1.55339809e-02, 9.70873807e-04, 9.70873807e-04,
          6.79611648e-03, 4.85436898e-03, 4.85436898e-03, 1.84466019e-02,
          8.73786397e-03, 0., 6.79611648e-03, 5.82524296e-03,
          6.79611648e-03, 6.79611648e-03, 4.85436898e-03, 9.70873807e-04,
          3.88349523e-03, 2.91262148e-03, 5.82524296e-03, 9.70873807e-04,
          4.85436898e-03, 1.74757279e-02, 5.82524296e-03, 5.82524296e-03,
          4.85436898e-03, 5.82524296e-03, 1.94174761e-03, 0.,
          1.06796119e-02, 6.79611648e-03, 1.55339809e-02, 9.70873807e-04,
          9.70873795e-03, 1.45631069e-02, 1.06796119e-02, 1.16504859e-02,
          6.79611648e-03, 6.79611648e-03, 7.76699046e-03, 8.73786397e-03,
          4.85436898e-03, 6.79611648e-03, 7.76699046e-03, 7.76699046e-03,
          1.94174761e-03, 1.35922330e-02, 6.79611648e-03, 6.79611648e-03,
          1.65048540e-02, 3.88349523e-03, 8.73786397e-03, 3.88349523e-03,
          1.45631069e-02, 5.82524296e-03, 6.79611648e-03, 3.88349523e-03,
          6.79611648e-03, 3.88349523e-03, 4.85436898e-03, 2.91262148e-03,
          0., 7.76699046e-03, 6.79611648e-03, 7.76699046e-03,
          1.94174761e-03, 8.73786397e-03, 7.76699046e-03, 9.70873807e-04,
          8.73786397e-03, 7.76699046e-03, 6.79611648e-03, 1.94174761e-03,
          8.73786397e-03, 9.70873807e-04, 7.76699046e-03, 7.76699046e-03,
          1.35922330e-02, 9.70873795e-03, 7.76699046e-03, 2.91262148e-03,
          5.82524296e-03, 4.85436898e-03, 1.55339809e-02, 3.88349523e-03,
          7.76699046e-03, 1.35922330e-02, 1.06796119e-02, 5.82524296e-03,
          3.88349523e-03, 4.85436898e-03, 1.35922330e-02, 6.79611648e-03,
          3.88349523e-03, 5.82524296e-03, 1.26213599e-02, 1.16504859e-02,
          1.16504859e-02, 7.76699046e-03, 8.73786397e-03, 0., 0.,
          1.94174761e-03, 1.06796119e-02, 1.84466019e-02, 9.70873807e-04,
          9.70873795e-03, 0., 7.76699046e-03, 1.94174761e-03,
          7.76699046e-03, 1.94174761e-03, 1.94174761e-03, 3.88349523e-03,
          9.70873807e-04, 1.16504859e-02, 2.03883499e-02, 4.85436898e-03,
          5.82524296e-03, 7.76699046e-03, 7.76699046e-03, 5.82524296e-03,
          5.82524296e-03, 2.91262148e-03, 6.79611648e-03, 3.88349523e-03,
          1.06796119e-02, 1.16504859e-02, 2.91262148e-03, 1.94174761e-03,
          6.79611648e-03, 7.76699046e-03, 1.45631069e-02, 4.85436898e-03,
          1.06796119e-02 ]
      - [ 4.62534698e-03, 3.70027754e-03, 4.62534698e-03, 5.55041619e-03,
          7.40055507e-03, 9.25069384e-04, 1.48011101e-02, 9.25069395e-03,
          4.62534698e-03, 5.55041619e-03, 1.29509717e-02, 2.77520809e-03,
          2.77520809e-03, 9.25069384e-04, 7.40055507e-03, 7.40055507e-03,
          9.25069384e-04, 1.48011101e-02, 1.85013877e-03, 3.70027754e-03,
          5.55041619e-03, 4.62534698e-03, 5.55041619e-03, 1.29509717e-02,
          7.40055507e-03, 9.25069384e-04, 6.47548586e-03, 3.70027754e-03,
          9.25069395e-03, 7.40055507e-03, 5.55041619e-03, 9.25069384e-04,
          3.70027754e-03, 1.85013877e-03, 7.40055507e-03, 1.38760405e-02,
          3.70027754e-03, 1.75763182e-02, 5.55041619e-03, 5.55041619e-03,
          3.70027754e-03, 5.55041619e-03, 2.77520809e-03, 0.,
          8.32562428e-03, 3.70027754e-03, 1.38760405e-02, 2.77520809e-03,
          1.01757636e-02, 1.20259020e-02, 9.25069395e-03, 1.01757636e-02,
          4.62534698e-03, 1.01757636e-02, 8.32562428e-03, 7.40055507e-03,
          6.47548586e-03, 7.40055507e-03, 6.47548586e-03, 1.01757636e-02,
          1.85013877e-03, 1.94264576e-02, 6.47548586e-03, 1.11008324e-02,
          1.94264576e-02, 2.77520809e-03, 7.40055507e-03, 4.62534698e-03,
          1.38760405e-02, 6.47548586e-03, 4.62534698e-03, 2.77520809e-03,
          5.55041619e-03, 4.62534698e-03, 5.55041619e-03, 2.77520809e-03,
          9.25069384e-04, 7.40055507e-03, 6.47548586e-03, 8.32562428e-03,
          1.85013877e-03, 9.25069395e-03, 8.32562428e-03, 9.25069384e-04,
          7.40055507e-03, 8.32562428e-03, 4.62534698e-03, 3.70027754e-03,
          8.32562428e-03, 1.85013877e-03, 9.25069395e-03, 1.11008324e-02,
          1.20259020e-02, 1.11008324e-02, 8.32562428e-03, 9.25069395e-03,
          6.47548586e-03, 4.62534698e-03, 1.57261789e-02, 3.70027754e-03,
          8.32562428e-03, 1.11008324e-02, 9.25069395e-03, 5.55041619e-03,
          6.47548586e-03, 6.47548586e-03, 1.01757636e-02, 4.62534698e-03,
          2.77520809e-03, 6.47548586e-03, 1.01757636e-02, 9.25069395e-03,
          1.11008324e-02, 9.25069395e-03, 5.55041619e-03, 1.85013877e-03,
          9.25069384e-04, 1.85013877e-03, 4.62534698e-03, 1.29509717e-02,
          9.25069384e-04, 1.01757636e-02, 9.25069384e-04, 5.55041619e-03,
          9.25069384e-04, 9.25069395e-03, 3.70027754e-03, 3.70027754e-03,
          3.70027754e-03, 9.25069384e-04, 1.20259020e-02, 1.85013879e-02,
          2.77520809e-03, 4.62534698e-03, 9.25069395e-03, 7.40055507e-03,
          4.62534698e-03, 8.32562428e-03, 3.70027754e-03, 3.70027754e-03,
          3.70027754e-03, 7.40055507e-03, 1.11008324e-02, 4.62534698e-03,
          1.85013877e-03, 4.62534698e-03, 7.40055507e-03, 1.29509717e-02,
          4.62534698e-03, 1.01757636e-02 ]
      - [ 4.91642114e-03, 3.93313682e-03, 5.89970499e-03, 8.84955749e-03,
          5.89970499e-03, 5.89970499e-03, 8.84955749e-03, 7.86627363e-03,
          7.86627363e-03, 2.94985250e-03, 1.17994100e-02, 5.89970499e-03,
          2.94985250e-03, 0., 7.86627363e-03, 7.86627363e-03, 0.,
          1.37659786e-02, 1.96656841e-03, 3.93313682e-03, 1.27826948e-02,
          6.88298931e-03, 4.91642114e-03, 1.67158321e-02, 6.88298931e-03,
          2.94985250e-03, 6.88298931e-03, 3.93313682e-03, 5.89970499e-03,
          6.88298931e-03, 4.91642114e-03, 3.93313682e-03, 6.88298931e-03,
          1.96656841e-03, 3.93313682e-03, 1.67158321e-02, 6.88298931e-03,
          1.57325473e-02, 2.94985250e-03, 8.84955749e-03, 2.94985250e-03,
          5.89970499e-03, 3.93313682e-03, 0., 1.08161261e-02,
          9.83284228e-03, 1.17994100e-02, 2.94985250e-03, 6.88298931e-03,
          1.37659786e-02, 6.88298931e-03, 1.08161261e-02, 5.89970499e-03,
          6.88298931e-03, 1.08161261e-02, 5.89970499e-03, 4.91642114e-03,
          8.84955749e-03, 6.88298931e-03, 6.88298931e-03, 3.93313682e-03,
          1.47492634e-02, 5.89970499e-03, 1.08161261e-02, 1.67158321e-02,
          1.96656841e-03, 8.84955749e-03, 1.96656841e-03, 7.86627363e-03,
          1.96656841e-03, 6.88298931e-03, 2.94985250e-03, 7.86627363e-03,
          1.96656841e-03, 3.93313682e-03, 3.93313682e-03, 0.,
          1.08161261e-02, 3.93313682e-03, 7.86627363e-03, 2.94985250e-03,
          3.93313682e-03, 1.96656841e-03, 2.94985250e-03, 5.89970499e-03,
          5.89970499e-03, 6.88298931e-03, 1.96656841e-03, 1.37659786e-02,
          2.94985250e-03, 7.86627363e-03, 7.86627363e-03, 1.67158321e-02,
          1.57325473e-02, 1.08161261e-02, 6.88298931e-03, 5.89970499e-03,
          3.93313682e-03, 1.76991150e-02, 3.93313682e-03, 3.93313682e-03,
          7.86627363e-03, 6.88298931e-03, 5.89970499e-03, 6.88298931e-03,
          0., 5.89970499e-03, 4.91642114e-03, 3.93313682e-03,
          6.88298931e-03, 1.57325473e-02, 9.83284228e-03, 1.08161261e-02,
          6.88298931e-03, 8.84955749e-03, 9.83284204e-04, 9.83284204e-04,
          2.94985250e-03, 6.88298931e-03, 1.47492634e-02, 9.83284204e-04,
          8.84955749e-03, 2.94985250e-03, 4.91642114e-03, 1.96656841e-03,
          9.83284228e-03, 9.83284228e-03, 9.83284204e-04, 2.94985250e-03,
          9.83284204e-04, 9.83284228e-03, 1.76991150e-02, 9.83284204e-04,
          5.89970499e-03, 1.17994100e-02, 1.96656841e-03, 4.91642114e-03,
          8.84955749e-03, 7.86627363e-03, 6.88298931e-03, 1.96656841e-03,
          6.88298931e-03, 1.17994100e-02, 1.96656841e-03, 1.96656841e-03,
          6.88298931e-03, 9.83284228e-03, 1.47492634e-02, 3.93313682e-03,
          5.89970499e-03 ]
      - [ 3.62694310e-03, 8.29015579e-03, 2.59067374e-03, 3.62694310e-03,
          7.77202100e-03, 4.30051833e-02, 7.77202100e-03, 3.62694310e-03,
          5.18134749e-03, 6.73575141e-03, 1.50259072e-02, 4.14507790e-03,
          6.73575141e-03, 6.21761661e-03, 3.10880831e-03, 5.18134749e-03,
          1.55440415e-03, 8.29015579e-03, 1.55440415e-03, 3.62694310e-03,
          6.73575141e-03, 5.69948228e-03, 5.18134737e-04, 1.76165812e-02,
          7.25388620e-03, 1.03626947e-03, 4.14507790e-03, 2.59067374e-03,
          4.14507790e-03, 1.03626950e-02, 3.62694310e-03, 3.10880831e-03,
          2.59067374e-03, 1.03626947e-03, 5.69948228e-03, 1.86528508e-02,
          3.62694310e-03, 7.77202100e-03, 7.77202100e-03, 6.73575141e-03,
          8.29015579e-03, 3.10880831e-03, 1.55440415e-03, 1.60621777e-02,
          1.70984454e-02, 5.18134749e-03, 8.29015579e-03, 5.18134749e-03,
          8.29015579e-03, 6.73575141e-03, 9.84456018e-03, 5.69948228e-03,
          4.14507790e-03, 6.21761661e-03, 3.62694310e-03, 5.69948228e-03,
          6.73575141e-03, 1.08808298e-02, 9.32642538e-03, 5.18134749e-03,
          9.84456018e-03, 1.08808298e-02, 2.07253895e-03, 7.25388620e-03,
          1.39896376e-02, 4.14507790e-03, 1.08808298e-02, 8.29015579e-03,
          4.66321269e-03, 2.07253895e-03, 3.62694310e-03, 2.07253895e-03,
          3.10880831e-03, 6.21761661e-03, 5.69948228e-03, 2.59067374e-03,
          7.77202100e-03, 5.18134749e-03, 5.18134749e-03, 4.66321269e-03,
          1.55440415e-03, 4.66321269e-03, 4.66321269e-03, 1.55440415e-03,
          3.10880831e-03, 6.21761661e-03, 7.25388620e-03, 5.18134749e-03,
          9.32642538e-03, 1.03626947e-03, 1.08808298e-02, 1.03626950e-02,
          6.73575141e-03, 5.69948228e-03, 5.18134749e-03, 1.65803116e-02,
          2.07253895e-03, 4.66321269e-03, 9.32642538e-03, 7.25388620e-03,
          7.77202100e-03, 1.50259072e-02, 3.10880831e-03, 4.66321269e-03,
          4.66321269e-03, 3.62694310e-03, 8.80829059e-03, 1.55440415e-03,
          1.45077724e-02, 9.84456018e-03, 1.45077724e-02, 1.29533680e-02,
          6.73575141e-03, 5.18134749e-03, 2.07253895e-03, 3.16062197e-02,
          0., 3.10880831e-03, 1.19170994e-02, 6.21761661e-03,
          6.21761661e-03, 1.19170994e-02, 1.55440415e-03, 5.69948228e-03,
          4.66321269e-03, 5.18134749e-03, 4.14507790e-03, 3.62694310e-03,
          5.18134749e-03, 1.03626947e-03, 8.29015579e-03, 9.84456018e-03,
          1.55440415e-03, 7.77202100e-03, 7.77202100e-03, 4.14507790e-03,
          4.66321269e-03, 3.10880831e-03, 5.18134749e-03, 3.10880831e-03,
          8.29015579e-03, 8.80829059e-03, 5.18134749e-03, 2.07253895e-03,
          1.55440415e-03, 9.84456018e-03, 1.08808298e-02, 1.19170994e-02,
          4.14507790e-03, 5.69948228e-03 ]
      - [ 4.83091781e-03, 3.22061195e-03, 4.02576476e-03, 2.41545890e-03,
          6.44122390e-03, 1.61030598e-03, 1.04669891e-02, 6.44122390e-03,
          4.83091781e-03, 4.02576476e-03, 4.02576476e-03, 3.22061195e-03,
          7.24637695e-03, 8.05152988e-04, 5.63607085e-03, 7.24637695e-03,
          0., 1.12721417e-02, 2.41545890e-03, 1.61030598e-03,
          4.83091781e-03, 8.05152953e-03, 4.02576476e-03, 1.20772952e-02,
          7.24637695e-03, 3.22061195e-03, 4.83091781e-03, 7.24637695e-03,
          8.05152953e-03, 8.05152953e-03, 5.63607085e-03, 1.61030598e-03,
          4.02576476e-03, 3.22061195e-03, 7.24637695e-03, 1.28824478e-02,
          5.63607085e-03, 1.61030591e-02, 3.22061195e-03, 6.44122390e-03,
          5.63607085e-03, 8.05152953e-03, 2.41545890e-03, 8.05152988e-04,
          1.04669891e-02, 9.66183562e-03, 1.04669891e-02, 1.61030598e-03,
          1.12721417e-02, 1.12721417e-02, 8.85668304e-03, 5.63607085e-03,
          4.83091781e-03, 7.24637695e-03, 4.83091781e-03, 7.24637695e-03,
          7.24637695e-03, 5.63607085e-03, 8.05152953e-03, 8.05152953e-03,
          2.41545890e-03, 1.44927539e-02, 9.66183562e-03, 8.05152953e-03,
          1.93236712e-02, 3.22061195e-03, 1.28824478e-02, 4.02576476e-03,
          8.05152953e-03, 8.05152953e-03, 7.24637695e-03, 3.22061195e-03,
          4.83091781e-03, 4.02576476e-03, 6.44122390e-03, 7.24637695e-03,
          5.63607085e-03, 8.85668304e-03, 5.63607085e-03, 9.66183562e-03,
          2.41545890e-03, 8.85668304e-03, 7.24637695e-03, 1.61030598e-03,
          8.05152953e-03, 8.85668304e-03, 8.85668304e-03, 8.05152988e-04,
          9.66183562e-03, 0., 1.20772952e-02, 9.66183562e-03,
          1.12721417e-02, 1.20772952e-02, 7.24637695e-03, 8.05152953e-03,
          5.63607085e-03, 4.02576476e-03, 1.44927539e-02, 5.63607085e-03,
          9.66183562e-03, 4.02576476e-03, 7.24637695e-03, 3.22061195e-03,
          6.44122390e-03, 4.83091781e-03, 9.66183562e-03, 7.24637695e-03,
          1.61030598e-03, 9.66183562e-03, 1.04669891e-02, 5.63607085e-03,
          8.85668304e-03, 7.24637695e-03, 1.04669891e-02, 4.02576476e-03,
          1.61030598e-03, 2.41545890e-03, 1.04669891e-02, 1.04669891e-02,
          2.41545890e-03, 9.66183562e-03, 4.02576476e-03, 6.44122390e-03,
          2.41545890e-03, 1.12721417e-02, 3.22061195e-03, 3.22061195e-03,
          7.24637695e-03, 2.41545890e-03, 7.24637695e-03, 1.69082135e-02,
          6.44122390e-03, 5.63607085e-03, 6.44122390e-03, 8.05152953e-03,
          3.22061195e-03, 4.83091781e-03, 7.24637695e-03, 4.83091781e-03,
          3.22061195e-03, 9.66183562e-03, 1.52979065e-02, 7.24637695e-03,
          1.61030598e-03, 7.24637695e-03, 9.66183562e-03, 1.20772952e-02,
          3.22061195e-03, 8.05152953e-03 ]
      - [ 2.84629967e-03, 2.84629967e-03, 5.69259934e-03, 9.48766619e-03,
          1.13851987e-02, 8.53889901e-03, 5.69259934e-03, 8.53889901e-03,
          4.74383309e-03, 7.59013277e-03, 5.69259934e-03, 4.74383309e-03,
          2.84629967e-03, 0., 8.53889901e-03, 7.59013277e-03,
          9.48766596e-04, 1.42314993e-02, 9.48766596e-04, 2.84629967e-03,
          3.79506638e-03, 3.79506638e-03, 9.48766596e-04, 1.04364324e-02,
          8.53889901e-03, 3.79506638e-03, 9.48766619e-03, 2.84629967e-03,
          6.64136605e-03, 9.48766619e-03, 2.84629967e-03, 1.89753319e-03,
          1.89753319e-03, 1.89753319e-03, 8.53889901e-03, 1.42314993e-02,
          3.79506638e-03, 1.80265661e-02, 4.74383309e-03, 8.53889901e-03,
          5.69259934e-03, 9.48766619e-03, 2.84629967e-03, 2.37191655e-02,
          9.48766619e-03, 7.59013277e-03, 1.23339659e-02, 1.89753319e-03,
          1.04364324e-02, 1.13851987e-02, 6.64136605e-03, 1.13851987e-02,
          7.59013277e-03, 4.74383309e-03, 9.48766619e-03, 3.79506638e-03,
          3.79506638e-03, 5.69259934e-03, 6.64136605e-03, 8.53889901e-03,
          1.89753319e-03, 1.61290318e-02, 3.79506638e-03, 6.64136605e-03,
          1.51802655e-02, 4.74383309e-03, 1.04364324e-02, 4.74383309e-03,
          9.48766619e-03, 5.69259934e-03, 6.64136605e-03, 2.84629967e-03,
          2.84629967e-03, 9.48766596e-04, 8.53889901e-03, 6.64136605e-03,
          3.79506638e-03, 9.48766619e-03, 1.89753319e-03, 4.74383309e-03,
          9.48766596e-04, 6.64136605e-03, 6.64136605e-03, 2.84629967e-03,
          6.64136605e-03, 5.69259934e-03, 8.53889901e-03, 0.,
          1.13851987e-02, 1.89753319e-03, 7.59013277e-03, 1.04364324e-02,
          1.61290318e-02, 1.70777980e-02, 7.59013277e-03, 4.74383309e-03,
          5.69259934e-03, 5.69259934e-03, 1.80265661e-02, 3.79506638e-03,
          4.74383309e-03, 7.59013277e-03, 6.64136605e-03, 5.69259934e-03,
          9.48766619e-03, 2.84629967e-03, 7.59013277e-03, 1.89753319e-03,
          5.69259934e-03, 8.53889901e-03, 1.23339659e-02, 8.53889901e-03,
          7.59013277e-03, 8.53889901e-03, 6.64136605e-03, 7.59013277e-03,
          9.48766596e-04, 1.89753319e-03, 3.79506638e-03, 1.13851987e-02,
          2.84629967e-03, 1.04364324e-02, 9.48766596e-04, 3.79506638e-03,
          1.89753319e-03, 6.64136605e-03, 2.84629967e-03, 4.74383309e-03,
          4.74383309e-03, 9.48766596e-04, 8.53889901e-03, 1.80265661e-02,
          2.84629967e-03, 4.74383309e-03, 7.59013277e-03, 6.64136605e-03,
          3.79506638e-03, 2.84629967e-03, 3.79506638e-03, 5.69259934e-03,
          2.84629967e-03, 7.59013277e-03, 9.48766619e-03, 5.69259934e-03,
          4.74383309e-03, 1.23339659e-02, 8.53889901e-03, 1.61290318e-02,
          3.79506638e-03, 1.42314993e-02 ]
      - [ 5.33333328e-03, 4.44444455e-03, 6.22222247e-03, 5.33333328e-03,
          1.42222224e-02, 4.44444455e-03, 6.22222247e-03, 3.55555560e-03,
          7.11111119e-03, 5.33333328e-03, 8.88888910e-03, 5.33333328e-03,
          5.33333328e-03, 0., 8.00000038e-03, 9.77777783e-03, 0.,
          1.24444449e-02, 1.77777780e-03, 1.77777780e-03, 6.22222247e-03,
          4.44444455e-03, 5.33333328e-03, 1.33333337e-02, 8.00000038e-03,
          3.55555560e-03, 7.11111119e-03, 5.33333328e-03, 6.22222247e-03,
          5.33333328e-03, 2.66666664e-03, 1.77777780e-03, 4.44444455e-03,
          2.66666664e-03, 8.00000038e-03, 1.68888886e-02, 8.88888899e-04,
          1.60000008e-02, 3.55555560e-03, 6.22222247e-03, 6.22222247e-03,
          9.77777783e-03, 2.66666664e-03, 1.77777780e-03, 1.06666666e-02,
          8.88888910e-03, 1.15555553e-02, 0., 1.33333337e-02,
          9.77777783e-03, 8.00000038e-03, 9.77777783e-03, 4.44444455e-03,
          7.11111119e-03, 1.06666666e-02, 8.00000038e-03, 8.00000038e-03,
          8.88888910e-03, 4.44444455e-03, 7.11111119e-03, 1.77777780e-03,
          1.51111111e-02, 8.00000038e-03, 7.11111119e-03, 9.77777783e-03,
          3.55555560e-03, 6.22222247e-03, 4.44444455e-03, 8.88888910e-03,
          2.66666664e-03, 7.11111119e-03, 4.44444455e-03, 4.44444455e-03,
          2.66666664e-03, 5.33333328e-03, 4.44444455e-03, 1.77777780e-03,
          6.22222247e-03, 4.44444455e-03, 8.88888910e-03, 1.77777780e-03,
          7.11111119e-03, 8.88888910e-03, 8.88888899e-04, 7.11111119e-03,
          9.77777783e-03, 8.00000038e-03, 4.44444455e-03, 1.06666666e-02,
          2.66666664e-03, 9.77777783e-03, 9.77777783e-03, 1.24444449e-02,
          1.24444449e-02, 7.11111119e-03, 6.22222247e-03, 4.44444455e-03,
          2.66666664e-03, 1.60000008e-02, 5.33333328e-03, 6.22222247e-03,
          9.77777783e-03, 9.77777783e-03, 5.33333328e-03, 6.22222247e-03,
          1.77777780e-03, 8.88888910e-03, 4.44444455e-03, 3.55555560e-03,
          6.22222247e-03, 8.88888910e-03, 8.00000038e-03, 8.00000038e-03,
          8.88888910e-03, 8.00000038e-03, 3.55555560e-03, 8.88888899e-04,
          2.66666664e-03, 1.24444449e-02, 1.24444449e-02, 1.77777780e-03,
          8.88888910e-03, 1.77777780e-03, 8.88888910e-03, 2.66666664e-03,
          8.88888910e-03, 5.33333328e-03, 3.55555560e-03, 8.00000038e-03,
          1.77777780e-03, 1.60000008e-02, 1.06666666e-02, 2.66666664e-03,
          9.77777783e-03, 6.22222247e-03, 1.06666666e-02, 7.11111119e-03,
          6.22222247e-03, 4.44444455e-03, 4.44444455e-03, 1.77777780e-03,
          7.11111119e-03, 1.33333337e-02, 5.33333328e-03, 3.55555560e-03,
          7.11111119e-03, 1.15555553e-02, 1.42222224e-02, 4.44444455e-03,
          6.22222247e-03 ]
      - [ 1.00840339e-02, 1.00840339e-02, 3.36134457e-03, 8.40336177e-03,
          3.36134457e-03, 1.00840339e-02, 5.04201697e-03, 8.40336177e-03,
          1.68067229e-03, 5.04201697e-03, 6.72268914e-03, 6.72268914e-03,
          8.40336177e-03, 8.40336177e-03, 8.40336177e-03, 8.40336177e-03,
          3.02521009e-02, 0., 1.34453783e-02, 1.00840339e-02,
          1.68067229e-03, 8.40336177e-03, 8.40336177e-03, 1.00840339e-02,
          8.40336177e-03, 5.04201697e-03, 3.36134457e-03, 6.72268914e-03,
          5.04201697e-03, 1.34453783e-02, 3.36134457e-03, 0.,
          5.04201697e-03, 3.36134457e-03, 5.04201697e-03, 8.40336177e-03,
          1.68067229e-03, 1.68067229e-03, 1.68067229e-03, 1.00840339e-02,
          6.72268914e-03, 5.04201697e-03, 1.00840339e-02, 0.,
          6.72268914e-03, 6.72268914e-03, 3.36134457e-03, 8.40336177e-03,
          8.40336177e-03, 1.68067229e-03, 5.04201697e-03, 1.68067229e-03,
          1.68067229e-03, 1.00840339e-02, 5.04201697e-03, 6.72268914e-03,
          3.36134457e-03, 3.36134457e-03, 3.36134457e-03, 8.40336177e-03,
          2.68907566e-02, 1.68067229e-03, 8.40336177e-03, 3.36134457e-03,
          5.04201697e-03, 8.40336177e-03, 1.68067235e-02, 3.36134457e-03,
          8.40336177e-03, 6.72268914e-03, 1.00840339e-02, 2.68907566e-02,
          6.72268914e-03, 1.51260504e-02, 1.00840339e-02, 1.68067229e-03,
          5.04201697e-03, 8.40336177e-03, 5.04201697e-03, 0.,
          1.51260504e-02, 1.17647061e-02, 1.68067229e-03, 0.,
          6.72268914e-03, 3.36134457e-03, 1.00840339e-02, 5.04201697e-03,
          5.04201697e-03, 3.36134457e-03, 8.40336177e-03, 8.40336177e-03,
          1.68067229e-03, 1.68067229e-03, 1.00840339e-02, 3.36134457e-03,
          1.68067229e-03, 1.68067229e-03, 0., 1.68067229e-03,
          6.72268914e-03, 3.36134457e-03, 5.04201697e-03, 1.34453783e-02,
          6.72268914e-03, 0., 8.40336177e-03, 0., 1.17647061e-02,
          1.00840339e-02, 3.36134457e-03, 5.04201697e-03, 5.04201697e-03,
          5.04201697e-03, 8.40336177e-03, 0., 5.04201697e-03,
          1.51260504e-02, 1.34453783e-02, 6.72268914e-03, 0.,
          1.51260504e-02, 1.68067229e-03, 5.04201697e-03, 1.68067235e-02,
          0., 1.00840339e-02, 8.40336177e-03, 3.36134457e-03,
          2.52100844e-02, 0., 0., 3.36134457e-03, 1.34453783e-02,
          1.68067229e-03, 3.36134457e-03, 1.34453783e-02, 5.04201697e-03,
          6.72268914e-03, 6.72268914e-03, 2.01680679e-02, 1.68067229e-03,
          0., 0., 3.36134457e-03, 1.51260504e-02, 3.36134457e-03,
          1.68067229e-03, 1.68067229e-03, 1.84873957e-02 ]
      - [ 4.66200477e-03, 1.16550121e-02, 2.33100238e-03, 6.99300691e-03,
          9.32400953e-03, 4.66200477e-03, 6.99300691e-03, 1.86480191e-02,
          2.33100238e-03, 2.33100238e-03, 4.66200477e-03, 1.16550121e-02,
          1.16550121e-02, 1.39860138e-02, 4.66200477e-03, 1.16550121e-02,
          6.99300691e-03, 0., 1.39860138e-02, 1.16550121e-02,
          4.66200477e-03, 4.66200477e-03, 9.32400953e-03, 6.99300691e-03,
          9.32400953e-03, 6.99300691e-03, 4.66200477e-03, 6.99300691e-03,
          4.66200477e-03, 1.16550121e-02, 4.66200477e-03, 0.,
          4.66200477e-03, 4.66200477e-03, 4.66200477e-03, 2.33100238e-03,
          2.33100238e-03, 2.33100238e-03, 0., 4.66200477e-03,
          4.66200477e-03, 2.33100238e-03, 1.63170174e-02, 6.99300691e-03,
          2.33100238e-03, 4.66200477e-03, 1.16550121e-02, 0.,
          4.66200477e-03, 0., 4.66200477e-03, 0., 2.33100238e-03,
          1.16550121e-02, 4.66200477e-03, 6.99300691e-03, 9.32400953e-03,
          4.66200477e-03, 1.16550121e-02, 4.66200477e-03, 4.19580415e-02,
          4.66200477e-03, 4.66200477e-03, 2.33100238e-03, 6.99300691e-03,
          1.16550121e-02, 1.39860138e-02, 4.66200477e-03, 6.99300691e-03,
          4.66200477e-03, 1.16550121e-02, 6.99300691e-03, 2.33100238e-03,
          1.39860138e-02, 1.39860138e-02, 2.33100238e-03, 4.66200477e-03,
          1.16550121e-02, 6.99300691e-03, 0., 1.63170174e-02,
          4.66200477e-03, 6.99300691e-03, 0., 0., 2.33100238e-03,
          9.32400953e-03, 9.32400953e-03, 9.32400953e-03, 9.32400953e-03,
          4.66200477e-03, 6.99300691e-03, 0., 0., 4.66200477e-03,
          2.33100238e-03, 0., 2.33100238e-03, 4.66200477e-03,
          4.66200477e-03, 1.16550121e-02, 2.33100238e-03, 0.,
          9.32400953e-03, 4.66200477e-03, 0., 4.66200477e-03,
          2.33100238e-03, 1.39860138e-02, 1.16550121e-02, 9.32400953e-03,
          4.66200477e-03, 2.33100238e-03, 4.66200477e-03, 1.39860138e-02,
          2.33100238e-03, 6.99300691e-03, 1.63170174e-02, 9.32400953e-03,
          6.99300691e-03, 0., 1.63170174e-02, 6.99300691e-03,
          9.32400953e-03, 1.16550121e-02, 2.33100238e-03, 1.16550121e-02,
          1.39860138e-02, 2.33100238e-03, 1.63170174e-02, 2.33100238e-03,
          0., 2.33100238e-03, 2.33100238e-03, 4.66200477e-03,
          2.33100238e-03, 4.66200477e-03, 2.33100238e-03, 4.66200477e-03,
          6.99300691e-03, 1.63170174e-02, 2.33100238e-03, 0.,
          2.33100238e-03, 0., 1.86480191e-02, 0., 1.16550121e-02, 0.,
          3.72960381e-02 ]
      - [ 1.18662342e-02, 1.07874861e-02, 1.07874861e-03, 1.29449833e-02,
          1.18662342e-02, 1.61812287e-02, 7.55124027e-03, 1.18662342e-02,
          1.83387268e-02, 2.15749722e-03, 3.23624583e-03, 1.51024805e-02,
          8.62998888e-03, 6.47249166e-03, 5.39374305e-03, 4.31499444e-03,
          2.69687157e-02, 0., 1.07874861e-02, 1.07874861e-02,
          4.31499444e-03, 7.55124027e-03, 5.39374305e-03, 8.62998888e-03,
          8.62998888e-03, 4.31499444e-03, 5.39374305e-03, 4.31499444e-03,
          4.31499444e-03, 9.70873795e-03, 5.39374305e-03, 0.,
          3.23624583e-03, 2.15749722e-03, 5.39374305e-03, 4.31499444e-03,
          2.15749722e-03, 1.07874861e-03, 3.23624583e-03, 5.39374305e-03,
          5.39374305e-03, 3.23624583e-03, 9.70873795e-03, 4.31499444e-03,
          7.55124027e-03, 3.23624583e-03, 1.07874861e-03, 4.31499444e-03,
          1.29449833e-02, 1.07874861e-03, 9.70873795e-03, 2.15749722e-03,
          2.15749722e-03, 9.70873795e-03, 7.55124027e-03, 9.70873795e-03,
          8.62998888e-03, 2.15749722e-03, 7.55124027e-03, 4.31499444e-03,
          1.72599778e-02, 3.23624583e-03, 2.15749722e-03, 2.15749722e-03,
          6.47249166e-03, 8.62998888e-03, 9.70873795e-03, 5.39374305e-03,
          3.23624583e-03, 6.47249166e-03, 5.39374305e-03, 1.94174759e-02,
          1.07874861e-03, 1.94174759e-02, 1.94174759e-02, 1.07874861e-03,
          2.15749722e-03, 9.70873795e-03, 6.47249166e-03, 3.23624583e-03,
          1.94174759e-02, 1.18662342e-02, 2.15749722e-03, 1.07874861e-03,
          7.55124027e-03, 3.23624583e-03, 5.39374305e-03, 5.39374305e-03,
          7.55124027e-03, 2.48112176e-02, 5.39374305e-03, 1.29449833e-02,
          0., 4.31499444e-03, 1.07874861e-03, 4.31499444e-03,
          3.23624583e-03, 3.23624583e-03, 2.15749722e-03, 2.15749722e-03,
          6.47249166e-03, 3.23624583e-03, 7.55124027e-03, 5.39374305e-03,
          1.07874861e-03, 1.07874861e-03, 2.15749722e-03, 3.23624583e-03,
          1.40237324e-02, 7.55124027e-03, 2.15749722e-03, 4.31499444e-03,
          5.39374305e-03, 4.31499444e-03, 4.31499444e-03, 6.47249166e-03,
          6.47249166e-03, 1.61812287e-02, 1.40237324e-02, 6.47249166e-03,
          1.07874861e-03, 7.55124027e-03, 3.23624583e-03, 4.31499444e-03,
          1.40237324e-02, 3.23624583e-03, 6.47249166e-03, 8.62998888e-03,
          7.55124027e-03, 2.48112176e-02, 6.47249166e-03, 0.,
          1.07874861e-03, 1.18662342e-02, 1.07874861e-03, 4.31499444e-03,
          1.18662342e-02, 3.23624583e-03, 8.62998888e-03, 4.31499444e-03,
          7.55124027e-03, 3.23624583e-03, 1.07874861e-03, 1.07874861e-03,
          0., 1.18662342e-02, 3.23624583e-03, 1.07874861e-02,
          4.31499444e-03, 1.40237324e-02 ]
      - [ 8.63309391e-03, 4.31654695e-03, 2.87769781e-03, 8.63309391e-03,
          5.75539563e-03, 4.02877703e-02, 5.75539563e-03, 1.43884886e-02,
          1.43884886e-02, 2.87769781e-03, 5.75539563e-03, 7.19424430e-03,
          8.63309391e-03, 1.29496399e-02, 5.75539563e-03, 5.75539563e-03,
          3.16546746e-02, 0., 1.29496399e-02, 1.15107913e-02,
          5.75539563e-03, 5.75539563e-03, 2.87769781e-03, 7.19424430e-03,
          4.31654695e-03, 7.19424430e-03, 4.31654695e-03, 2.87769781e-03,
          5.75539563e-03, 7.19424430e-03, 5.75539563e-03, 0.,
          2.87769781e-03, 5.75539563e-03, 1.15107913e-02, 1.00719426e-02,
          4.31654695e-03, 1.43884891e-03, 2.87769781e-03, 8.63309391e-03,
          7.19424430e-03, 2.87769781e-03, 8.63309391e-03, 2.87769781e-03,
          5.75539563e-03, 1.43884891e-03, 5.75539563e-03, 7.19424430e-03,
          1.43884886e-02, 0., 4.31654695e-03, 0., 0., 1.00719426e-02,
          4.31654695e-03, 1.15107913e-02, 8.63309391e-03, 5.75539563e-03,
          5.75539563e-03, 4.31654695e-03, 1.29496399e-02, 1.43884891e-03,
          2.87769781e-03, 4.31654695e-03, 1.43884891e-03, 7.19424430e-03,
          1.29496399e-02, 1.43884891e-03, 7.19424430e-03, 8.63309391e-03,
          7.19424430e-03, 3.02158277e-02, 2.87769781e-03, 1.00719426e-02,
          1.87050365e-02, 0., 2.87769781e-03, 8.63309391e-03,
          4.31654695e-03, 1.43884891e-03, 1.58273373e-02, 1.72661878e-02,
          2.87769781e-03, 0., 1.00719426e-02, 2.87769781e-03,
          7.19424430e-03, 4.31654695e-03, 5.75539563e-03, 1.72661878e-02,
          8.63309391e-03, 2.87769781e-03, 0., 1.43884891e-03, 0.,
          2.87769781e-03, 0., 4.31654695e-03, 2.87769781e-03,
          1.43884891e-03, 7.19424430e-03, 5.75539563e-03, 2.87769781e-03,
          4.31654695e-03, 5.75539563e-03, 1.43884891e-03, 1.43884891e-03,
          1.43884891e-03, 1.43884886e-02, 1.29496399e-02, 2.87769781e-03,
          7.19424430e-03, 7.19424430e-03, 2.87769781e-03, 5.75539563e-03,
          2.87769781e-03, 8.63309391e-03, 1.58273373e-02, 1.29496399e-02,
          1.43884891e-03, 0., 1.15107913e-02, 2.87769781e-03,
          5.75539563e-03, 1.72661878e-02, 1.43884891e-03, 7.19424430e-03,
          1.15107913e-02, 4.31654695e-03, 1.58273373e-02, 5.75539563e-03,
          0., 4.31654695e-03, 1.00719426e-02, 4.31654695e-03,
          4.31654695e-03, 1.58273373e-02, 4.31654695e-03, 7.19424430e-03,
          2.87769781e-03, 1.29496399e-02, 5.75539563e-03, 1.43884891e-03,
          0., 0., 1.00719426e-02, 4.31654695e-03, 4.31654695e-03,
          4.31654695e-03, 1.29496399e-02 ]
      - [ 6.43086806e-03, 1.60771701e-03, 1.60771701e-03, 6.43086806e-03,
          1.60771701e-03, 5.78778125e-02, 4.82315104e-03, 9.64630209e-03,
          6.43086806e-03, 3.21543403e-03, 1.60771701e-03, 6.43086806e-03,
          4.82315104e-03, 1.76848881e-02, 3.21543403e-03, 6.43086806e-03,
          2.73311883e-02, 0., 1.44694531e-02, 1.76848881e-02,
          3.21543403e-03, 3.21543403e-03, 4.82315104e-03, 8.03858507e-03,
          3.21543403e-03, 1.28617361e-02, 0., 4.82315104e-03, 0.,
          8.03858507e-03, 3.21543403e-03, 1.60771701e-03, 6.43086806e-03,
          4.82315104e-03, 3.21543403e-03, 4.82315104e-03, 3.21543403e-03,
          1.60771701e-03, 0., 8.03858507e-03, 8.03858507e-03,
          3.21543403e-03, 1.12540191e-02, 0., 6.43086806e-03,
          3.21543403e-03, 3.21543403e-03, 9.64630209e-03, 1.12540191e-02,
          1.60771701e-03, 4.82315104e-03, 1.60771701e-03, 3.21543403e-03,
          9.64630209e-03, 6.43086806e-03, 9.64630209e-03, 6.43086806e-03,
          4.82315104e-03, 4.82315104e-03, 8.03858507e-03, 2.73311883e-02,
          4.82315104e-03, 8.03858507e-03, 1.60771701e-03, 4.82315104e-03,
          1.12540191e-02, 1.12540191e-02, 6.43086806e-03, 3.21543403e-03,
          4.82315104e-03, 1.44694531e-02, 2.57234722e-02, 3.21543403e-03,
          9.64630209e-03, 8.03858507e-03, 3.21543403e-03, 9.64630209e-03,
          1.12540191e-02, 1.60771701e-03, 0., 1.76848881e-02,
          8.03858507e-03, 1.60771701e-03, 0., 6.43086806e-03,
          1.60771701e-03, 8.03858507e-03, 4.82315104e-03, 3.21543403e-03,
          4.82315104e-03, 4.82315104e-03, 1.12540191e-02, 1.60771701e-03,
          1.60771701e-03, 1.60771701e-03, 9.64630209e-03, 0.,
          1.60771701e-03, 0., 0., 4.82315104e-03, 1.60771701e-03,
          3.21543403e-03, 9.64630209e-03, 3.21543403e-03, 0.,
          8.03858507e-03, 0., 6.43086806e-03, 1.12540191e-02,
          6.43086806e-03, 3.21543403e-03, 1.60771701e-03, 4.82315104e-03,
          6.43086806e-03, 6.43086806e-03, 1.60771701e-02, 1.28617361e-02,
          1.44694531e-02, 9.64630209e-03, 3.21543403e-03, 1.28617361e-02,
          0., 4.82315104e-03, 1.44694531e-02, 0., 9.64630209e-03,
          9.64630209e-03, 8.03858507e-03, 2.73311883e-02, 1.60771701e-03,
          1.60771701e-03, 1.60771701e-03, 9.64630209e-03, 1.60771701e-03,
          4.82315104e-03, 1.28617361e-02, 8.03858507e-03, 6.43086806e-03,
          6.43086806e-03, 1.92926042e-02, 3.21543403e-03, 1.60771701e-03,
          0., 3.21543403e-03, 6.43086806e-03, 0., 6.43086806e-03,
          4.82315104e-03, 1.92926042e-02 ]
      - [ 7.02247210e-03, 7.02247210e-03, 0., 9.83146112e-03,
          4.21348307e-03, 1.40449442e-02, 5.61797759e-03, 4.21348307e-03,
          9.83146112e-03, 4.21348307e-03, 5.61797759e-03, 9.83146112e-03,
          1.12359552e-02, 1.12359552e-02, 5.61797759e-03, 5.61797759e-03,
          4.07303385e-02, 0., 1.96629222e-02, 5.61797759e-03,
          7.02247210e-03, 4.21348307e-03, 4.21348307e-03, 8.42696615e-03,
          7.02247210e-03, 4.21348307e-03, 4.21348307e-03, 2.80898879e-03,
          1.40449440e-03, 1.68539323e-02, 4.21348307e-03, 0.,
          2.80898879e-03, 1.40449440e-03, 1.26404492e-02, 4.21348307e-03,
          2.80898879e-03, 1.40449440e-03, 0., 4.21348307e-03,
          4.21348307e-03, 4.21348307e-03, 7.02247210e-03, 4.21348307e-03,
          5.61797759e-03, 1.40449440e-03, 7.02247210e-03, 5.61797759e-03,
          1.26404492e-02, 1.40449440e-03, 1.40449440e-03, 2.80898879e-03,
          1.40449440e-03, 9.83146112e-03, 1.26404492e-02, 1.26404492e-02,
          9.83146112e-03, 1.40449440e-03, 7.02247210e-03, 4.21348307e-03,
          2.52808984e-02, 2.80898879e-03, 4.21348307e-03, 1.40449440e-03,
          7.02247210e-03, 8.42696615e-03, 1.54494382e-02, 4.21348307e-03,
          5.61797759e-03, 1.12359552e-02, 8.42696615e-03, 2.94943824e-02,
          2.80898879e-03, 9.83146112e-03, 2.10674163e-02, 0.,
          1.40449440e-03, 8.42696615e-03, 5.61797759e-03, 1.40449440e-03,
          9.83146112e-03, 1.82584263e-02, 4.21348307e-03, 0.,
          4.21348307e-03, 4.21348307e-03, 4.21348307e-03, 5.61797759e-03,
          5.61797759e-03, 1.54494382e-02, 1.12359552e-02, 8.42696615e-03,
          1.40449440e-03, 2.80898879e-03, 2.80898879e-03, 1.40449440e-03,
          2.80898879e-03, 1.40449440e-03, 1.40449440e-03, 0.,
          8.42696615e-03, 2.80898879e-03, 2.80898879e-03, 7.02247210e-03,
          8.42696615e-03, 0., 5.61797759e-03, 4.21348307e-03,
          1.40449442e-02, 8.42696615e-03, 4.21348307e-03, 5.61797759e-03,
          4.21348307e-03, 1.40449440e-03, 2.80898879e-03, 2.80898879e-03,
          7.02247210e-03, 1.68539323e-02, 9.83146112e-03, 8.42696615e-03,
          0., 7.02247210e-03, 1.40449440e-03, 1.12359552e-02,
          1.82584263e-02, 1.40449440e-03, 4.21348307e-03, 4.21348307e-03,
          4.21348307e-03, 1.68539323e-02, 9.83146112e-03, 0.,
          2.80898879e-03, 9.83146112e-03, 4.21348307e-03, 7.02247210e-03,
          1.82584263e-02, 7.02247210e-03, 9.83146112e-03, 4.21348307e-03,
          1.54494382e-02, 5.61797759e-03, 1.40449440e-03, 1.40449440e-03,
          0., 1.68539323e-02, 0., 5.61797759e-03, 1.40449440e-03,
          1.40449442e-02 ]
      - [ 9.30996798e-03, 9.85761266e-03, 2.73822574e-03, 1.09529030e-02,
          3.28587089e-03, 6.13362566e-02, 1.64293544e-03, 2.19058059e-03,
          1.47864185e-02, 3.28587089e-03, 4.38116118e-03, 8.76232237e-03,
          4.92880633e-03, 9.85761266e-03, 2.73822574e-03, 3.83351604e-03,
          1.53340641e-02, 0., 8.21467675e-03, 8.21467675e-03,
          6.57174177e-03, 7.11938692e-03, 5.47645148e-03, 2.40963865e-02,
          8.21467675e-03, 1.64293544e-03, 4.92880633e-03, 3.28587089e-03,
          2.19058059e-03, 5.47645148e-03, 4.38116118e-03, 1.09529030e-03,
          2.73822574e-03, 1.64293544e-03, 9.85761266e-03, 2.08105147e-02,
          1.09529030e-03, 5.47645148e-04, 4.92880633e-03, 8.76232237e-03,
          4.38116118e-03, 2.19058059e-03, 6.02409663e-03, 2.51916759e-02,
          1.09529030e-02, 2.73822574e-03, 3.28587089e-03, 6.02409663e-03,
          6.02409663e-03, 5.47645148e-04, 6.02409663e-03, 5.47645148e-04,
          4.38116118e-03, 5.47645148e-03, 1.42387738e-02, 4.92880633e-03,
          7.66703207e-03, 5.47645148e-03, 3.28587089e-03, 2.73822574e-03,
          9.30996798e-03, 1.64293544e-03, 4.38116118e-03, 6.57174177e-03,
          5.47645148e-03, 4.92880633e-03, 7.11938692e-03, 3.28587089e-03,
          2.19058059e-03, 1.09529030e-03, 3.28587089e-03, 1.15005486e-02,
          1.64293544e-03, 2.13581603e-02, 7.66703207e-03, 5.47645148e-04,
          1.58817098e-02, 7.11938692e-03, 9.30996798e-03, 5.47645148e-04,
          7.66703207e-03, 4.38116118e-03, 1.09529030e-03, 0.,
          7.11938692e-03, 1.64293544e-03, 2.19058059e-03, 5.47645148e-03,
          2.73822574e-03, 2.62869671e-02, 6.57174177e-03, 8.76232237e-03,
          0., 3.83351604e-03, 5.47645148e-04, 1.15005486e-02, 0.,
          7.66703207e-03, 0., 4.92880633e-03, 6.57174177e-03,
          5.47645148e-03, 2.19058059e-03, 1.04052573e-02, 8.21467675e-03,
          1.09529030e-03, 3.83351604e-03, 1.09529030e-03, 1.53340641e-02,
          7.11938692e-03, 5.47645148e-04, 7.11938692e-03, 0.,
          1.09529030e-03, 2.19058059e-03, 4.76451293e-02, 1.09529030e-03,
          9.85761266e-03, 1.15005486e-02, 7.11938692e-03, 7.66703207e-03,
          1.15005486e-02, 0., 2.19058059e-03, 1.09529030e-02,
          3.28587089e-03, 3.28587089e-03, 2.19058059e-03, 1.31434835e-02,
          1.75246447e-02, 4.38116118e-03, 5.47645148e-04, 5.47645148e-04,
          6.57174177e-03, 1.64293544e-03, 2.19058059e-03, 3.83351604e-03,
          7.11938692e-03, 1.09529030e-03, 1.04052573e-02, 3.55969332e-02,
          6.57174177e-03, 0., 1.09529030e-03, 1.64293544e-03,
          7.11938692e-03, 2.73822574e-03, 4.38116118e-03, 3.28587089e-03,
          1.80722903e-02 ]
      - [ 8.90207663e-03, 0., 2.96735903e-03, 8.90207663e-03,
          5.93471806e-03, 3.56083065e-02, 0., 2.07715128e-02, 0.,
          2.96735903e-03, 2.96735903e-03, 2.96735903e-03, 2.96735903e-03,
          2.96735903e-03, 8.90207663e-03, 5.93471806e-03, 2.96735903e-03,
          0., 1.48367956e-02, 1.78041533e-02, 2.96735903e-03,
          2.96735903e-03, 8.90207663e-03, 5.93471806e-03, 1.18694361e-02,
          1.78041533e-02, 8.90207663e-03, 2.96735903e-03, 0.,
          1.78041533e-02, 2.96735903e-03, 0., 1.18694361e-02, 0.,
          2.96735903e-03, 2.96735903e-03, 2.96735903e-03, 5.93471806e-03,
          0., 1.18694361e-02, 1.48367956e-02, 2.96735903e-03,
          1.78041533e-02, 2.96735903e-03, 2.96735903e-03, 8.90207663e-03,
          8.90207663e-03, 1.18694361e-02, 0., 0., 2.96735903e-03,
          5.93471806e-03, 0., 2.96735903e-03, 2.96735903e-03,
          8.90207663e-03, 8.90207663e-03, 2.96735903e-03, 1.18694361e-02,
          1.18694361e-02, 2.07715128e-02, 2.96735903e-03, 5.93471806e-03,
          0., 5.93471806e-03, 1.18694361e-02, 8.90207663e-03,
          5.93471806e-03, 8.90207663e-03, 2.96735903e-03, 2.07715128e-02,
          0., 2.96735903e-03, 8.90207663e-03, 8.90207663e-03,
          5.93471806e-03, 0., 8.90207663e-03, 8.90207663e-03,
          2.96735903e-03, 2.07715128e-02, 2.96735903e-03, 5.93471806e-03,
          0., 2.96735903e-03, 5.93471806e-03, 8.90207663e-03,
          5.93471806e-03, 1.18694361e-02, 5.93471806e-03, 2.96735903e-03,
          5.93471806e-03, 2.96735903e-03, 0., 2.96735903e-03,
          8.90207663e-03, 2.96735903e-03, 0., 0., 2.96735903e-03,
          8.90207663e-03, 5.93471806e-03, 5.93471806e-03, 5.93471806e-03,
          0., 0., 2.96735903e-03, 2.96735903e-03, 1.18694361e-02,
          2.37388723e-02, 5.93471806e-03, 8.90207663e-03, 5.93471806e-03,
          2.96735903e-03, 1.18694361e-02, 0., 1.48367956e-02,
          5.93471806e-03, 1.18694361e-02, 8.90207663e-03, 2.96735903e-03,
          2.07715128e-02, 0., 5.93471806e-03, 8.90207663e-03,
          2.96735903e-03, 1.48367956e-02, 1.48367956e-02, 5.93471806e-03,
          1.78041533e-02, 5.93471806e-03, 0., 5.93471806e-03,
          5.93471806e-03, 8.90207663e-03, 5.93471806e-03, 5.93471806e-03,
          5.93471806e-03, 5.93471806e-03, 8.90207663e-03, 8.90207663e-03,
          8.90207663e-03, 0., 0., 2.96735903e-03, 8.90207663e-03,
          2.96735903e-03, 2.96735903e-03, 2.96735903e-03, 1.78041533e-02 ]
      - [ 1.12016294e-02, 9.16497037e-03, 1.01832999e-03, 1.42566198e-02,
          7.12830992e-03, 5.29531613e-02, 8.14663991e-03, 9.16497037e-03,
          2.03665998e-02, 2.03665998e-03, 6.10997993e-03, 1.42566198e-02,
          8.14663991e-03, 8.14663991e-03, 3.05498997e-03, 6.10997993e-03,
          2.74949092e-02, 0., 1.32382903e-02, 1.52749494e-02,
          4.07331996e-03, 4.07331996e-03, 5.09164995e-03, 8.14663991e-03,
          6.10997993e-03, 6.10997993e-03, 7.12830992e-03, 4.07331996e-03,
          5.09164995e-03, 8.14663991e-03, 6.10997993e-03, 0.,
          3.05498997e-03, 3.05498997e-03, 8.14663991e-03, 4.07331996e-03,
          2.03665998e-03, 1.01832999e-03, 3.05498997e-03, 7.12830992e-03,
          5.09164995e-03, 3.05498997e-03, 1.22199599e-02, 4.07331996e-03,
          5.09164995e-03, 2.03665998e-03, 1.01832999e-03, 5.09164995e-03,
          1.42566198e-02, 1.01832999e-03, 7.12830992e-03, 0.,
          3.05498997e-03, 9.16497037e-03, 9.16497037e-03, 1.01832999e-02,
          7.12830992e-03, 2.03665998e-03, 6.10997993e-03, 7.12830992e-03,
          1.83299407e-02, 3.05498997e-03, 2.03665998e-03, 2.03665998e-03,
          4.07331996e-03, 8.14663991e-03, 1.22199599e-02, 4.07331996e-03,
          5.09164995e-03, 6.10997993e-03, 9.16497037e-03, 1.83299407e-02,
          1.01832999e-03, 1.93482693e-02, 1.73116103e-02, 2.03665998e-03,
          1.01832999e-03, 6.10997993e-03, 3.05498997e-03, 4.07331996e-03,
          1.42566198e-02, 1.01832999e-02, 2.03665998e-03, 0.,
          7.12830992e-03, 4.07331996e-03, 6.10997993e-03, 5.09164995e-03,
          6.10997993e-03, 2.24032588e-02, 8.14663991e-03, 7.12830992e-03,
          0., 2.03665998e-03, 0., 8.14663991e-03, 1.01832999e-03,
          3.05498997e-03, 1.01832999e-03, 2.03665998e-03, 6.10997993e-03,
          4.07331996e-03, 4.07331996e-03, 6.10997993e-03, 5.09164995e-03,
          0., 3.05498997e-03, 2.03665998e-03, 1.22199599e-02,
          1.22199599e-02, 2.03665998e-03, 4.07331996e-03, 4.07331996e-03,
          3.05498997e-03, 4.07331996e-03, 9.16497037e-03, 8.14663991e-03,
          1.73116103e-02, 1.12016294e-02, 3.05498997e-03, 0.,
          7.12830992e-03, 2.03665998e-03, 5.09164995e-03, 1.52749494e-02,
          4.07331996e-03, 4.07331996e-03, 8.14663991e-03, 8.14663991e-03,
          2.13849302e-02, 6.10997993e-03, 2.03665998e-03, 1.01832999e-03,
          9.16497037e-03, 2.03665998e-03, 4.07331996e-03, 1.12016294e-02,
          2.03665998e-03, 7.12830992e-03, 2.03665998e-03, 1.01832999e-02,
          4.07331996e-03, 0., 2.03665998e-03, 0., 1.32382903e-02,
          3.05498997e-03, 6.10997993e-03, 2.03665998e-03, 1.22199599e-02 ]
      - [ 3.80952377e-03, 1.14285713e-02, 1.90476188e-03, 5.71428565e-03,
          3.80952377e-03, 0., 1.90476188e-03, 1.14285713e-02,
          1.90476188e-03, 5.71428565e-03, 1.33333337e-02, 0.,
          7.61904754e-03, 7.61904754e-03, 1.90476188e-03, 5.71428565e-03,
          0., 0., 9.52380896e-03, 9.52380896e-03, 7.61904754e-03,
          7.61904754e-03, 1.90476188e-03, 1.90476188e-03, 5.71428565e-03,
          1.90476188e-03, 9.52380896e-03, 1.90476188e-03, 0.,
          1.14285713e-02, 1.90476188e-03, 0., 0., 5.71428565e-03,
          3.80952377e-03, 3.80952358e-02, 7.61904754e-03, 0.,
          5.71428565e-03, 3.80952377e-03, 1.52380951e-02, 5.71428565e-03,
          1.90476188e-03, 1.90476188e-03, 3.80952377e-03, 9.52380896e-03,
          1.14285713e-02, 5.71428565e-03, 5.71428565e-03, 0.,
          1.90476188e-03, 7.61904754e-03, 7.61904754e-03, 2.85714287e-02,
          5.71428565e-03, 5.71428565e-03, 7.61904754e-03, 7.61904754e-03,
          7.61904754e-03, 1.14285713e-02, 1.90476188e-03, 1.71428565e-02,
          1.90476188e-03, 1.52380951e-02, 1.71428565e-02, 5.71428565e-03,
          7.61904754e-03, 1.90476188e-03, 1.33333337e-02, 1.14285713e-02,
          1.90476188e-03, 0., 1.90476188e-03, 1.71428565e-02,
          1.90476188e-03, 9.52380896e-03, 0., 7.61904754e-03, 0.,
          1.90476188e-03, 5.71428565e-03, 1.90476188e-03, 1.90476188e-03,
          0., 9.52380896e-03, 5.71428565e-03, 1.90476179e-02,
          1.90476188e-03, 1.52380951e-02, 3.80952377e-03, 1.71428565e-02,
          1.14285713e-02, 1.90476188e-03, 1.90476188e-03, 1.90476188e-03,
          1.90476188e-03, 0., 1.14285713e-02, 0., 5.71428565e-03,
          5.71428565e-03, 9.52380896e-03, 5.71428565e-03, 1.52380951e-02,
          9.52380896e-03, 1.90476188e-03, 5.71428565e-03, 5.71428565e-03,
          0., 7.61904754e-03, 9.52380896e-03, 1.33333337e-02,
          1.14285713e-02, 3.80952377e-03, 7.61904754e-03, 1.90476188e-03,
          3.80952377e-03, 9.52380896e-03, 9.52380896e-03, 7.61904754e-03,
          1.90476188e-03, 9.52380896e-03, 5.71428565e-03, 1.90476188e-03,
          1.90476179e-02, 7.61904754e-03, 3.80952377e-03, 7.61904754e-03,
          7.61904754e-03, 1.90476188e-03, 3.80952377e-03, 0.,
          3.80952377e-03, 1.90476179e-02, 1.14285713e-02, 3.80952377e-03,
          7.61904754e-03, 5.71428565e-03, 5.71428565e-03, 1.71428565e-02,
          4.19047624e-02, 9.52380896e-03, 0., 0., 0., 7.61904754e-03,
          7.61904754e-03, 1.33333337e-02, 1.90476188e-03, 3.80952377e-03 ]
      - [ 6.17283955e-03, 8.23045243e-03, 4.11522621e-03, 6.17283955e-03,
          0., 4.11522621e-03, 2.05761311e-03, 1.23456791e-02,
          2.05761311e-03, 8.23045243e-03, 6.17283955e-03, 2.05761311e-03,
          8.23045243e-03, 1.23456791e-02, 2.05761311e-03, 8.23045243e-03,
          0., 0., 1.23456791e-02, 8.23045243e-03, 6.17283955e-03,
          1.02880653e-02, 6.17283955e-03, 4.11522621e-03, 6.17283955e-03,
          0., 1.23456791e-02, 0., 4.11522621e-03, 6.17283955e-03,
          2.05761311e-03, 4.11522621e-03, 2.05761311e-03, 4.11522621e-03,
          4.11522621e-03, 3.49794216e-02, 8.23045243e-03, 0.,
          4.11522621e-03, 6.17283955e-03, 1.02880653e-02, 1.02880653e-02,
          0., 0., 6.17283955e-03, 8.23045243e-03, 6.17283955e-03,
          4.11522621e-03, 4.11522621e-03, 0., 0., 8.23045243e-03,
          6.17283955e-03, 3.08641959e-02, 6.17283955e-03, 1.64609049e-02,
          2.05761311e-03, 6.17283955e-03, 6.17283955e-03, 8.23045243e-03,
          2.05761311e-03, 1.23456791e-02, 8.23045243e-03, 1.02880653e-02,
          1.02880653e-02, 6.17283955e-03, 1.23456791e-02, 4.11522621e-03,
          1.64609049e-02, 1.44032920e-02, 0., 2.05761311e-03,
          1.23456791e-02, 1.64609049e-02, 4.11522621e-03, 4.11522621e-03,
          0., 6.17283955e-03, 4.11522621e-03, 4.11522621e-03,
          4.11522621e-03, 4.11522621e-03, 0., 0., 8.23045243e-03,
          8.23045243e-03, 6.17283955e-03, 2.05761311e-03, 6.17283955e-03,
          2.05761311e-03, 8.23045243e-03, 1.44032920e-02, 0.,
          2.05761311e-03, 0., 0., 2.05761311e-03, 6.17283955e-03,
          2.05761311e-03, 2.05761311e-03, 1.02880653e-02, 8.23045243e-03,
          6.17283955e-03, 1.02880653e-02, 6.17283955e-03, 6.17283955e-03,
          8.23045243e-03, 6.17283955e-03, 0., 6.17283955e-03, 0.,
          1.02880653e-02, 1.02880653e-02, 2.05761311e-03, 1.44032920e-02,
          2.05761311e-03, 0., 2.05761306e-02, 1.23456791e-02,
          1.23456791e-02, 2.05761311e-03, 1.02880653e-02, 4.11522621e-03,
          4.11522621e-03, 2.26337444e-02, 2.05761311e-03, 4.11522621e-03,
          6.17283955e-03, 4.11522621e-03, 0., 1.02880653e-02, 0.,
          4.11522621e-03, 1.44032920e-02, 1.23456791e-02, 8.23045243e-03,
          6.17283955e-03, 2.05761311e-03, 1.23456791e-02, 1.23456791e-02,
          4.52674888e-02, 8.23045243e-03, 0., 2.05761311e-03, 0.,
          4.11522621e-03, 8.23045243e-03, 2.05761306e-02, 4.11522621e-03,
          6.17283955e-03 ]
      - [ 5.42005431e-03, 1.62601620e-02, 0., 2.71002715e-03,
          2.71002715e-03, 5.96205965e-02, 0., 3.52303535e-02,
          5.42005431e-03, 1.35501362e-02, 2.71002715e-03, 1.35501362e-02,
          5.42005431e-03, 1.62601620e-02, 1.08401086e-02, 5.42005431e-03,
          0., 0., 5.42005431e-03, 8.13008100e-03, 2.71002715e-03,
          8.13008100e-03, 8.13008100e-03, 2.71002715e-03, 2.71002715e-03,
          5.42005431e-03, 8.13008100e-03, 2.71002715e-03, 5.42005431e-03,
          8.13008100e-03, 2.71002715e-03, 0., 2.71002715e-03,
          8.13008100e-03, 0., 2.71002725e-02, 5.42005431e-03,
          2.71002715e-03, 2.71002715e-03, 5.42005431e-03, 1.89701896e-02,
          2.71002715e-03, 5.42005431e-03, 5.42005431e-03, 8.13008100e-03,
          5.42005431e-03, 2.71002715e-03, 1.62601620e-02, 1.08401086e-02,
          0., 5.42005431e-03, 2.71002715e-03, 8.13008100e-03,
          2.16802172e-02, 5.42005431e-03, 1.08401086e-02, 5.42005431e-03,
          5.42005431e-03, 5.42005431e-03, 1.89701896e-02, 2.71002715e-03,
          2.71002715e-03, 2.71002715e-03, 8.13008100e-03, 5.42005431e-03,
          2.71002715e-03, 5.42005431e-03, 2.71002715e-03, 1.62601620e-02,
          1.08401086e-02, 2.71002715e-03, 0., 2.71002715e-03,
          1.35501362e-02, 2.71002715e-03, 2.71002715e-03, 5.42005431e-03,
          5.42005431e-03, 5.42005431e-03, 8.13008100e-03, 2.71002715e-03,
          2.71002715e-03, 0., 2.71002715e-03, 5.42005431e-03,
          1.08401086e-02, 8.13008100e-03, 5.42005431e-03, 5.42005431e-03,
          2.71002715e-03, 1.35501362e-02, 8.13008100e-03, 0.,
          2.71002715e-03, 5.42005431e-03, 0., 2.71002715e-03,
          2.71002715e-03, 0., 0., 0., 8.13008100e-03, 1.08401086e-02,
          8.13008100e-03, 2.71002715e-03, 0., 0., 2.71002715e-03, 0.,
          2.71002725e-02, 8.13008100e-03, 8.13008100e-03, 0.,
          2.71002715e-03, 8.13008100e-03, 2.43902449e-02, 2.71002715e-03,
          2.71002715e-03, 1.62601620e-02, 5.42005431e-03, 2.71002715e-03,
          1.35501362e-02, 5.42005431e-03, 0., 1.08401086e-02,
          8.13008100e-03, 1.35501362e-02, 0., 1.35501362e-02, 0.,
          8.13008100e-03, 2.71002715e-03, 0., 2.16802172e-02,
          2.71002715e-03, 2.71002715e-03, 5.42005431e-03, 8.13008100e-03,
          2.71002715e-03, 8.13008100e-03, 3.52303535e-02, 2.71002715e-03,
          0., 2.71002715e-03, 2.71002715e-03, 0., 2.71002715e-03,
          5.42005431e-03, 0., 5.42005431e-03 ]
      - [ 3.27868853e-03, 1.63934417e-02, 0., 6.55737706e-03,
          3.27868853e-03, 3.60655747e-02, 0., 1.96721312e-02,
          6.55737706e-03, 9.83606558e-03, 3.27868853e-03, 2.62295082e-02,
          9.83606558e-03, 9.83606558e-03, 3.27868853e-03, 0., 0., 0.,
          3.27868853e-03, 1.31147541e-02, 3.27868853e-03, 6.55737706e-03,
          6.55737706e-03, 6.55737706e-03, 3.27868853e-03, 6.55737706e-03,
          3.27868853e-03, 3.27868853e-03, 0., 6.55737706e-03,
          6.55737706e-03, 0., 3.27868853e-03, 6.55737706e-03,
          3.27868853e-03, 1.31147541e-02, 9.83606558e-03, 0., 0.,
          3.27868853e-03, 2.62295082e-02, 3.27868853e-03, 6.55737706e-03,
          3.27868853e-03, 6.55737706e-03, 6.55737706e-03, 6.55737706e-03,
          1.96721312e-02, 1.63934417e-02, 0., 3.27868853e-03,
          3.27868853e-03, 1.63934417e-02, 2.29508206e-02, 6.55737706e-03,
          6.55737706e-03, 6.55737706e-03, 3.27868853e-03, 3.27868853e-03,
          9.83606558e-03, 3.27868853e-03, 6.55737706e-03, 1.31147541e-02,
          6.55737706e-03, 3.27868853e-03, 6.55737706e-03, 9.83606558e-03,
          1.31147541e-02, 1.31147541e-02, 1.31147541e-02, 3.27868853e-03,
          3.27868853e-03, 3.27868853e-03, 1.96721312e-02, 6.55737706e-03,
          0., 3.27868834e-02, 3.27868853e-03, 9.83606558e-03,
          6.55737706e-03, 3.27868853e-03, 0., 0., 0., 6.55737706e-03,
          9.83606558e-03, 9.83606558e-03, 0., 1.31147541e-02, 0.,
          2.29508206e-02, 0., 0., 0., 3.27868853e-03, 3.27868853e-03, 0.,
          3.27868853e-03, 3.27868853e-03, 0., 0., 9.83606558e-03,
          9.83606558e-03, 3.27868853e-03, 3.27868853e-03, 0.,
          6.55737706e-03, 6.55737706e-03, 0., 1.96721312e-02, 0.,
          6.55737706e-03, 6.55737706e-03, 0., 6.55737706e-03,
          4.59016412e-02, 0., 3.27868853e-03, 9.83606558e-03, 0., 0.,
          9.83606558e-03, 0., 3.27868853e-03, 9.83606558e-03,
          9.83606558e-03, 3.27868853e-03, 3.27868853e-03, 3.27868853e-03,
          0., 3.27868853e-03, 3.27868853e-03, 0., 9.83606558e-03,
          1.31147541e-02, 0., 3.27868853e-03, 9.83606558e-03,
          3.27868853e-03, 1.31147541e-02, 2.62295082e-02, 9.83606558e-03,
          0., 0., 0., 0., 6.55737706e-03, 1.31147541e-02, 3.27868853e-03,
          6.55737706e-03 ]
      - [ 9.25925933e-03, 1.15740746e-02, 4.62962966e-03, 2.31481483e-03,
          6.94444450e-03, 6.94444450e-03, 4.62962966e-03, 1.38888890e-02,
          2.31481483e-03, 1.62037034e-02, 4.62962966e-03, 3.47222239e-02,
          9.25925933e-03, 4.62962966e-03, 2.31481483e-03, 4.62962966e-03,
          0., 0., 9.25925933e-03, 1.15740746e-02, 0., 1.15740746e-02,
          6.94444450e-03, 4.62962966e-03, 4.62962966e-03, 6.94444450e-03,
          1.38888890e-02, 2.31481483e-03, 2.31481483e-03, 2.31481483e-03,
          4.62962966e-03, 2.31481483e-03, 0., 6.94444450e-03,
          2.31481483e-03, 2.08333340e-02, 1.38888890e-02, 0.,
          4.62962966e-03, 2.31481483e-03, 1.85185187e-02, 6.94444450e-03,
          0., 1.62037034e-02, 2.31481483e-03, 9.25925933e-03,
          4.62962966e-03, 9.25925933e-03, 9.25925933e-03, 0.,
          2.31481483e-03, 6.94444450e-03, 1.15740746e-02, 3.00925933e-02,
          2.31481483e-03, 4.62962966e-03, 6.94444450e-03, 4.62962966e-03,
          4.62962966e-03, 4.62962966e-03, 2.31481483e-03, 9.25925933e-03,
          0., 1.38888890e-02, 4.62962966e-03, 4.62962966e-03,
          6.94444450e-03, 6.94444450e-03, 9.25925933e-03, 1.38888890e-02,
          2.31481483e-03, 0., 4.62962966e-03, 6.94444450e-03,
          6.94444450e-03, 6.94444450e-03, 1.62037034e-02, 2.31481483e-03,
          9.25925933e-03, 1.85185187e-02, 2.31481483e-03, 2.31481483e-03,
          0., 0., 6.94444450e-03, 1.15740746e-02, 1.15740746e-02,
          1.15740746e-02, 6.94444450e-03, 4.62962966e-03, 6.94444450e-03,
          4.62962966e-03, 0., 2.31481483e-03, 0., 2.31481483e-03, 0.,
          4.62962966e-03, 0., 4.62962966e-03, 4.62962966e-03,
          1.38888890e-02, 4.62962966e-03, 1.15740746e-02, 9.25925933e-03,
          2.31481483e-03, 4.62962966e-03, 4.62962966e-03, 4.62962966e-03,
          1.15740746e-02, 2.31481483e-03, 9.25925933e-03, 9.25925933e-03,
          2.31481483e-03, 2.31481483e-03, 3.00925933e-02, 4.62962966e-03,
          9.25925933e-03, 1.15740746e-02, 6.94444450e-03, 2.31481483e-03,
          1.62037034e-02, 0., 0., 1.15740746e-02, 6.94444450e-03, 0.,
          9.25925933e-03, 9.25925933e-03, 0., 4.62962966e-03,
          2.31481483e-03, 2.31481483e-03, 1.38888890e-02, 9.25925933e-03,
          4.62962966e-03, 4.62962966e-03, 6.94444450e-03, 4.62962966e-03,
          1.62037034e-02, 3.24074067e-02, 4.62962966e-03, 0.,
          2.31481483e-03, 0., 6.94444450e-03, 6.94444450e-03,
          2.31481483e-03, 0., 2.31481483e-03 ]
      - [ 8.62068962e-04, 8.62068962e-03, 1.72413792e-02, 4.31034481e-03,
          5.17241377e-03, 1.72413792e-03, 2.58620679e-02, 6.89655170e-03,
          2.58620689e-03, 1.20689655e-02, 3.44827585e-03, 0.,
          2.58620689e-03, 2.58620689e-03, 6.89655170e-03, 1.72413792e-03,
          8.62068962e-04, 8.62068962e-04, 1.72413792e-03, 6.03448274e-03,
          5.17241377e-03, 6.89655170e-03, 9.48275812e-03, 3.87931019e-02,
          1.12068970e-02, 8.62068962e-04, 6.03448274e-03, 5.17241377e-03,
          6.89655170e-03, 5.17241377e-03, 8.62068962e-03, 1.46551728e-02,
          6.89655170e-03, 1.55172413e-02, 1.20689655e-02, 4.31034481e-03,
          6.03448274e-03, 8.62068962e-04, 4.31034481e-03, 2.58620689e-03,
          1.72413792e-03, 5.17241377e-03, 1.72413792e-03, 5.17241377e-03,
          3.44827585e-03, 4.31034481e-03, 4.31034481e-03, 1.72413792e-03,
          1.03448275e-02, 0., 1.29310340e-02, 7.75862066e-03,
          9.48275812e-03, 6.89655170e-03, 5.17241377e-03, 8.62068962e-03,
          3.44827585e-03, 6.89655170e-03, 2.58620689e-03, 5.17241377e-03,
          8.62068962e-04, 9.48275812e-03, 6.03448274e-03, 1.46551728e-02,
          5.17241377e-03, 5.17241377e-03, 5.17241377e-03, 5.17241377e-03,
          6.89655170e-03, 6.03448274e-03, 8.62068962e-04, 8.62068962e-04,
          1.63793098e-02, 1.72413792e-03, 6.03448274e-03, 7.75862066e-03,
          2.58620689e-03, 1.46551728e-02, 7.75862066e-03, 6.89655170e-03,
          0., 1.29310340e-02, 1.03448275e-02, 6.03448274e-03,
          2.58620689e-03, 9.48275812e-03, 4.31034481e-03, 5.17241377e-03,
          4.31034481e-03, 1.46551728e-02, 1.72413792e-03, 1.03448275e-02,
          0., 6.03448274e-03, 1.20689655e-02, 0., 7.75862066e-03,
          1.29310340e-02, 0., 2.24137940e-02, 6.89655170e-03,
          4.31034481e-03, 7.75862066e-03, 5.17241377e-03, 5.17241377e-03,
          1.55172413e-02, 1.55172413e-02, 3.44827585e-03, 0.,
          8.62068962e-03, 0., 7.75862066e-03, 2.58620689e-03,
          1.20689655e-02, 8.62068962e-03, 0., 0., 0., 4.31034481e-03,
          4.31034481e-03, 6.89655170e-03, 5.17241377e-03, 1.72413792e-02,
          2.32758615e-02, 0., 1.12068970e-02, 1.72413792e-03,
          2.58620689e-03, 1.72413792e-03, 2.58620689e-03, 3.44827585e-03,
          0., 6.89655170e-03, 1.20689655e-02, 6.03448274e-03,
          5.17241377e-03, 3.44827585e-03, 2.58620689e-03, 5.17241377e-03,
          2.58620689e-03, 2.58620689e-03, 6.89655170e-03, 0.,
          3.27586196e-02, 1.03448275e-02, 1.29310340e-02, 9.48275812e-03,
          4.31034481e-03, 1.63793098e-02, 8.62068962e-03 ]
      - [ 1.09529030e-03, 6.57174177e-03, 1.42387738e-02, 6.57174177e-03,
          7.66703207e-03, 2.19058059e-03, 2.73822583e-02, 4.38116118e-03,
          1.09529030e-03, 1.64293535e-02, 4.38116118e-03, 0.,
          2.19058059e-03, 1.09529030e-03, 2.19058059e-03, 6.57174177e-03,
          1.09529030e-03, 0., 1.09529030e-03, 8.76232237e-03,
          4.38116118e-03, 7.66703207e-03, 9.85761266e-03, 4.05257419e-02,
          9.85761266e-03, 0., 5.47645148e-03, 3.28587089e-03,
          3.28587089e-03, 1.09529030e-03, 4.38116118e-03, 2.30010971e-02,
          1.09529030e-02, 1.53340641e-02, 6.57174177e-03, 7.66703207e-03,
          6.57174177e-03, 1.09529030e-03, 1.09529030e-02, 4.38116118e-03,
          1.09529030e-03, 4.38116118e-03, 1.09529030e-03, 3.28587089e-03,
          1.09529030e-03, 5.47645148e-03, 2.19058059e-03, 3.28587089e-03,
          7.66703207e-03, 0., 1.64293535e-02, 9.85761266e-03,
          7.66703207e-03, 3.28587089e-03, 5.47645148e-03, 2.19058059e-03,
          3.28587089e-03, 6.57174177e-03, 2.19058059e-03, 5.47645148e-03,
          1.09529030e-03, 5.47645148e-03, 6.57174177e-03, 1.09529030e-02,
          0., 5.47645148e-03, 6.57174177e-03, 8.76232237e-03,
          8.76232237e-03, 2.19058059e-03, 1.09529030e-03, 2.19058059e-03,
          1.53340641e-02, 2.19058059e-03, 3.28587089e-03, 1.20481933e-02,
          0., 1.42387738e-02, 6.57174177e-03, 2.19058059e-03, 0.,
          1.20481933e-02, 5.47645148e-03, 1.09529030e-03, 4.38116118e-03,
          5.47645148e-03, 2.19058059e-03, 6.57174177e-03, 3.28587089e-03,
          1.09529030e-02, 3.28587089e-03, 1.75246447e-02, 0.,
          4.38116118e-03, 5.47645148e-03, 1.09529030e-03, 5.47645148e-03,
          1.31434835e-02, 2.19058059e-03, 2.84775477e-02, 9.85761266e-03,
          7.66703207e-03, 8.76232237e-03, 5.47645148e-03, 3.28587089e-03,
          2.08105147e-02, 1.64293535e-02, 4.38116118e-03, 0.,
          4.38116118e-03, 0., 7.66703207e-03, 2.19058059e-03,
          5.47645148e-03, 6.57174177e-03, 0., 1.09529030e-03,
          1.09529030e-03, 4.38116118e-03, 6.57174177e-03, 5.47645148e-03,
          7.66703207e-03, 1.20481933e-02, 3.06681283e-02, 2.19058059e-03,
          9.85761266e-03, 3.28587089e-03, 3.28587089e-03, 5.47645148e-03,
          2.19058059e-03, 2.19058059e-03, 0., 6.57174177e-03,
          8.76232237e-03, 4.38116118e-03, 3.28587089e-03, 2.19058059e-03,
          2.19058059e-03, 5.47645148e-03, 6.57174177e-03, 3.28587089e-03,
          6.57174177e-03, 0., 5.91456741e-02, 1.53340641e-02,
          8.76232237e-03, 4.38116118e-03, 2.19058059e-03, 1.86199360e-02,
          1.09529030e-02 ]
      - [ 0., 1.09976437e-02, 1.49253737e-02, 5.49882185e-03,
          3.92773002e-03, 1.09976437e-02, 1.02120973e-02, 3.14218388e-03,
          7.85545970e-04, 8.64100549e-03, 3.14218388e-03, 3.29929292e-02,
          3.14218388e-03, 2.35663797e-03, 3.14218388e-03, 3.92773002e-03,
          7.85545970e-04, 0., 2.35663797e-03, 1.02120973e-02,
          2.35663797e-03, 7.85546005e-03, 3.14218388e-03, 2.43519247e-02,
          7.06991367e-03, 1.57109201e-02, 4.71327594e-03, 3.14218388e-03,
          3.92773002e-03, 6.28436776e-03, 5.49882185e-03, 1.72820110e-02,
          7.06991367e-03, 1.17831891e-02, 4.71327594e-03, 3.92773002e-03,
          5.49882185e-03, 0., 6.28436776e-03, 2.35663797e-03,
          3.92773002e-03, 3.14218388e-03, 1.25687355e-02, 9.42655187e-03,
          7.85545970e-04, 5.49882185e-03, 1.57109194e-03, 6.28436776e-03,
          5.49882185e-03, 0., 1.57109201e-02, 3.92773002e-03,
          5.49882185e-03, 2.35663797e-03, 3.92773002e-03, 1.57109194e-03,
          3.92773002e-03, 3.92773002e-03, 3.92773002e-03, 5.49882185e-03,
          2.35663797e-03, 3.92773002e-03, 7.06991367e-03, 1.17831891e-02,
          3.14218388e-03, 4.71327594e-03, 3.14218388e-03, 8.64100549e-03,
          7.06991367e-03, 1.57109194e-03, 1.72820110e-02, 7.85545970e-04,
          1.09976437e-02, 3.92773002e-03, 3.14218388e-03, 7.85546005e-03,
          6.28436776e-03, 1.33542819e-02, 7.85546005e-03, 6.28436776e-03,
          1.57109194e-03, 2.35663797e-03, 7.06991367e-03, 6.28436776e-03,
          2.35663797e-03, 7.85546005e-03, 3.92773002e-03, 4.71327594e-03,
          2.35663797e-03, 7.85546005e-03, 1.57109194e-03, 1.57109201e-02,
          0., 4.71327594e-03, 3.92773002e-03, 0., 7.85546005e-03,
          8.64100549e-03, 1.57109194e-03, 1.72820110e-02, 3.92773002e-03,
          4.71327594e-03, 4.71327594e-03, 5.49882185e-03, 6.28436776e-03,
          1.17831891e-02, 1.25687355e-02, 1.80675574e-02, 7.85545970e-04,
          7.85546005e-03, 1.57109194e-03, 4.71327594e-03, 2.35663797e-03,
          6.28436776e-03, 7.06991367e-03, 2.90652011e-02, 1.80675574e-02,
          0., 2.35663797e-03, 2.35663797e-03, 2.43519247e-02,
          3.92773002e-03, 1.49253737e-02, 2.35663783e-02, 7.85545970e-04,
          1.25687355e-02, 3.14218388e-03, 2.51374710e-02, 4.71327594e-03,
          2.35663797e-03, 3.92773002e-03, 0., 1.09976437e-02,
          2.35663797e-03, 6.28436776e-03, 3.14218388e-03, 2.35663797e-03,
          4.71327594e-03, 3.92773002e-03, 5.49882185e-03, 3.14218388e-03,
          7.06991367e-03, 0., 1.88531037e-02, 1.09976437e-02,
          1.57109194e-03, 5.49882185e-03, 4.71327594e-03, 2.04241946e-02,
          7.06991367e-03 ]
      - [ 8.68809759e-04, 9.55690723e-03, 1.47697655e-02, 4.34404891e-03,
          2.60642916e-03, 1.39009561e-02, 1.30321467e-02, 5.21285832e-03,
          1.73761952e-03, 1.47697655e-02, 2.60642916e-03, 3.12771499e-02,
          6.08166819e-03, 2.60642916e-03, 3.47523903e-03, 8.68809759e-04,
          8.68809759e-04, 0., 8.68809759e-04, 4.34404891e-03,
          6.08166819e-03, 6.95047807e-03, 3.47523903e-03, 2.86707226e-02,
          5.21285832e-03, 1.47697655e-02, 6.95047807e-03, 4.34404891e-03,
          3.47523903e-03, 5.21285832e-03, 3.47523903e-03, 1.21633364e-02,
          3.47523903e-03, 1.56385750e-02, 6.08166819e-03, 3.47523903e-03,
          5.21285832e-03, 0., 3.47523903e-03, 2.60642916e-03,
          5.21285832e-03, 4.34404891e-03, 1.12945270e-02, 7.81928748e-03,
          8.68809759e-04, 4.34404891e-03, 8.68809759e-04, 6.95047807e-03,
          3.47523903e-03, 0., 1.12945270e-02, 8.68809782e-03,
          3.47523903e-03, 2.60642916e-03, 6.08166819e-03, 2.60642916e-03,
          0., 6.08166819e-03, 1.73761952e-03, 3.47523903e-03,
          2.60642916e-03, 2.60642916e-03, 3.47523903e-03, 7.81928748e-03,
          8.68809759e-04, 3.47523903e-03, 4.34404891e-03, 7.81928748e-03,
          7.81928748e-03, 4.34404891e-03, 1.73761956e-02, 0.,
          1.12945270e-02, 3.47523903e-03, 7.81928748e-03, 1.21633364e-02,
          9.55690723e-03, 1.30321467e-02, 6.95047807e-03, 6.95047807e-03,
          1.73761952e-03, 3.47523903e-03, 8.68809759e-04, 1.04257166e-02,
          0., 9.55690723e-03, 1.73761952e-03, 4.34404891e-03,
          6.08166819e-03, 6.95047807e-03, 8.68809759e-04, 1.12945270e-02,
          0., 6.95047807e-03, 6.95047807e-03, 1.73761952e-03,
          7.81928748e-03, 7.81928748e-03, 0., 1.73761956e-02,
          8.68809782e-03, 6.08166819e-03, 5.21285832e-03, 7.81928748e-03,
          2.60642916e-03, 1.73761956e-02, 1.12945270e-02, 1.99826248e-02,
          0., 6.95047807e-03, 0., 6.08166819e-03, 8.68809759e-04,
          1.39009561e-02, 6.08166819e-03, 2.34578643e-02, 1.21633364e-02,
          0., 2.60642916e-03, 1.73761952e-03, 1.91138145e-02,
          1.73761952e-03, 1.12945270e-02, 3.30147706e-02, 1.73761952e-03,
          7.81928748e-03, 4.34404891e-03, 2.08514333e-02, 3.47523903e-03,
          8.68809759e-04, 5.21285832e-03, 0., 6.95047807e-03,
          2.60642916e-03, 6.95047807e-03, 3.47523903e-03, 0.,
          5.21285832e-03, 6.08166819e-03, 3.47523903e-03, 6.08166819e-03,
          5.21285832e-03, 0., 2.60642935e-02, 1.65073853e-02,
          8.68809782e-03, 5.21285832e-03, 2.60642916e-03, 1.82450041e-02,
          8.68809782e-03 ]
      - [ 0., 3.85728059e-03, 1.92864034e-02, 5.78592066e-03,
          1.92864030e-03, 1.73577629e-02, 1.15718413e-02, 1.92864030e-03,
          3.85728059e-03, 1.15718413e-02, 1.92864030e-03, 2.89296042e-02,
          6.75024092e-03, 3.85728059e-03, 4.82160086e-03, 2.89296033e-03,
          0., 0., 2.89296033e-03, 8.67888145e-03, 1.92864030e-03,
          7.71456119e-03, 3.85728059e-03, 3.47155258e-02, 7.71456119e-03,
          2.02507228e-02, 6.75024092e-03, 6.75024092e-03, 3.85728059e-03,
          3.85728059e-03, 2.89296033e-03, 1.83220822e-02, 5.78592066e-03,
          1.44648021e-02, 6.75024092e-03, 3.85728059e-03, 6.75024092e-03,
          9.64320148e-04, 6.75024092e-03, 2.89296033e-03, 1.92864030e-03,
          2.89296033e-03, 1.25361616e-02, 1.44648021e-02, 0.,
          6.75024092e-03, 9.64320148e-04, 4.82160086e-03, 5.78592066e-03,
          0., 1.44648021e-02, 5.78592066e-03, 5.78592066e-03,
          9.64320148e-04, 1.92864030e-03, 2.89296033e-03, 5.78592066e-03,
          2.89296033e-03, 1.92864030e-03, 3.85728059e-03, 2.89296033e-03,
          1.06075220e-02, 3.85728059e-03, 5.78592066e-03, 2.89296033e-03,
          3.85728059e-03, 5.78592066e-03, 3.85728059e-03, 3.85728059e-03,
          2.89296033e-03, 2.02507228e-02, 0., 9.64320172e-03,
          3.85728059e-03, 3.85728059e-03, 7.71456119e-03, 1.15718413e-02,
          6.75024092e-03, 6.75024092e-03, 5.78592066e-03, 0.,
          8.67888145e-03, 2.89296033e-03, 7.71456119e-03, 1.92864030e-03,
          4.82160086e-03, 1.92864030e-03, 6.75024092e-03, 6.75024092e-03,
          6.75024092e-03, 1.92864030e-03, 1.35004818e-02, 0.,
          3.85728059e-03, 6.75024092e-03, 1.92864030e-03, 7.71456119e-03,
          8.67888145e-03, 0., 1.73577629e-02, 2.89296033e-03,
          2.89296033e-03, 6.75024092e-03, 4.82160086e-03, 5.78592066e-03,
          1.73577629e-02, 1.35004818e-02, 2.12150440e-02, 1.92864030e-03,
          9.64320148e-04, 0., 1.92864030e-03, 3.85728059e-03,
          7.71456119e-03, 3.85728059e-03, 3.66441645e-02, 2.12150440e-02,
          9.64320148e-04, 2.89296033e-03, 2.89296033e-03, 2.21793633e-02,
          2.89296033e-03, 1.25361616e-02, 2.41080038e-02, 9.64320148e-04,
          1.35004818e-02, 1.06075220e-02, 2.02507228e-02, 2.89296033e-03,
          0., 1.92864030e-03, 0., 2.89296033e-03, 1.92864030e-03,
          1.92864030e-03, 4.82160086e-03, 0., 7.71456119e-03,
          2.89296033e-03, 3.85728059e-03, 1.92864030e-03, 7.71456119e-03,
          0., 1.35004818e-02, 1.35004818e-02, 4.82160086e-03,
          2.89296033e-03, 2.89296033e-03, 1.35004818e-02, 7.71456119e-03 ]
      - [ 0., 8.98587983e-03, 1.79717597e-02, 5.13478834e-03,
          1.28369709e-03, 2.56739417e-03, 1.28369704e-02, 5.13478834e-03,
          1.28369709e-03, 1.66880619e-02, 1.28369709e-03, 0.,
          7.70218251e-03, 1.28369709e-03, 6.41848519e-03, 0.,
          1.28369709e-03, 0., 1.28369709e-03, 5.13478834e-03,
          1.02695767e-02, 7.70218251e-03, 5.13478834e-03, 4.36457023e-02,
          8.98587983e-03, 1.28369709e-03, 5.13478834e-03, 8.98587983e-03,
          3.85109126e-03, 3.85109126e-03, 6.41848519e-03, 1.02695767e-02,
          5.13478834e-03, 8.98587983e-03, 1.28369704e-02, 5.13478834e-03,
          5.13478834e-03, 0., 7.70218251e-03, 3.85109126e-03,
          3.85109126e-03, 5.13478834e-03, 3.85109126e-03, 5.13478834e-03,
          1.28369709e-03, 7.70218251e-03, 0., 3.85109126e-03,
          3.85109126e-03, 0., 1.54043650e-02, 1.02695767e-02,
          7.70218251e-03, 6.41848519e-03, 1.28369704e-02, 6.41848519e-03,
          0., 7.70218251e-03, 2.56739417e-03, 3.85109126e-03,
          3.85109126e-03, 5.13478834e-03, 6.41848519e-03, 1.28369704e-02,
          1.28369709e-03, 7.70218251e-03, 5.13478834e-03, 1.15532735e-02,
          8.98587983e-03, 2.56739417e-03, 2.56739417e-03, 0.,
          1.41206682e-02, 1.28369709e-03, 8.98587983e-03, 1.15532735e-02,
          0., 1.41206682e-02, 3.85109126e-03, 8.98587983e-03,
          1.28369709e-03, 2.56739417e-03, 3.85109126e-03, 3.85109126e-03,
          1.28369709e-03, 1.02695767e-02, 1.28369709e-03, 5.13478834e-03,
          7.70218251e-03, 6.41848519e-03, 1.28369709e-03, 2.05391534e-02,
          0., 8.98587983e-03, 8.98587983e-03, 1.28369709e-03,
          1.15532735e-02, 8.98587983e-03, 0., 2.05391534e-02,
          8.98587983e-03, 5.13478834e-03, 3.85109126e-03, 8.98587983e-03,
          5.13478834e-03, 2.56739408e-02, 1.54043650e-02, 3.85109126e-03,
          1.28369709e-03, 7.70218251e-03, 0., 6.41848519e-03, 0.,
          1.66880619e-02, 8.98587983e-03, 0., 0., 1.28369709e-03,
          5.13478834e-03, 1.28369709e-03, 5.13478834e-03, 6.41848519e-03,
          3.85109126e-03, 3.85109112e-02, 2.56739417e-03, 1.54043650e-02,
          3.85109126e-03, 1.28369709e-03, 6.41848519e-03, 0.,
          6.41848519e-03, 0., 7.70218251e-03, 6.41848519e-03,
          6.41848519e-03, 5.13478834e-03, 2.56739417e-03, 1.28369709e-03,
          7.70218251e-03, 8.98587983e-03, 7.70218251e-03, 8.98587983e-03,
          0., 3.59435193e-02, 7.70218251e-03, 1.28369704e-02,
          5.13478834e-03, 5.13478834e-03, 1.54043650e-02, 1.41206682e-02 ]
      - [ 0., 6.70640822e-03, 1.41579732e-02, 2.98062596e-03,
          3.72578250e-03, 2.45901644e-02, 1.26676606e-02, 5.21609560e-03,
          4.47093882e-03, 9.68703441e-03, 3.72578250e-03, 2.83159465e-02,
          4.47093882e-03, 4.47093882e-03, 5.96125191e-03, 1.49031298e-03,
          7.45156489e-04, 7.45156489e-04, 1.49031298e-03, 4.47093882e-03,
          5.21609560e-03, 5.96125191e-03, 9.68703441e-03, 2.68256329e-02,
          6.70640822e-03, 1.11773470e-02, 5.21609560e-03, 3.72578250e-03,
          8.94187763e-03, 4.47093882e-03, 8.19672178e-03, 1.56482868e-02,
          5.21609560e-03, 1.56482868e-02, 8.94187763e-03, 3.72578250e-03,
          4.47093882e-03, 1.49031298e-03, 2.98062596e-03, 2.98062596e-03,
          2.98062596e-03, 5.96125191e-03, 8.94187763e-03, 1.41579732e-02,
          2.23546941e-03, 4.47093882e-03, 2.98062596e-03, 4.47093882e-03,
          4.47093882e-03, 0., 1.11773470e-02, 6.70640822e-03,
          8.94187763e-03, 2.23546941e-03, 4.47093882e-03, 4.47093882e-03,
          2.23546941e-03, 6.70640822e-03, 2.23546941e-03, 4.47093882e-03,
          1.49031298e-03, 7.45156500e-03, 5.21609560e-03, 8.94187763e-03,
          4.47093882e-03, 2.23546941e-03, 3.72578250e-03, 5.21609560e-03,
          1.04321912e-02, 5.96125191e-03, 1.63934436e-02, 0.,
          1.49031300e-02, 2.98062596e-03, 5.21609560e-03, 6.70640822e-03,
          1.04321912e-02, 1.04321912e-02, 5.96125191e-03, 4.47093882e-03,
          7.45156489e-04, 5.21609560e-03, 7.45156500e-03, 4.47093882e-03,
          2.98062596e-03, 8.94187763e-03, 2.23546941e-03, 5.96125191e-03,
          5.21609560e-03, 1.34128164e-02, 7.45156489e-04, 1.04321912e-02,
          0., 2.98062596e-03, 9.68703441e-03, 7.45156489e-04,
          5.21609560e-03, 7.45156500e-03, 0., 1.34128164e-02,
          4.47093882e-03, 2.98062596e-03, 5.21609560e-03, 5.96125191e-03,
          5.21609560e-03, 1.11773470e-02, 1.41579732e-02, 1.56482868e-02,
          0., 6.70640822e-03, 0., 8.94187763e-03, 1.49031298e-03,
          1.11773470e-02, 7.45156500e-03, 1.93740688e-02, 1.34128164e-02,
          0., 5.21609560e-03, 5.21609560e-03, 1.93740688e-02,
          4.47093882e-03, 1.71385985e-02, 1.86289120e-02, 0.,
          8.19672178e-03, 5.96125191e-03, 2.01192256e-02, 3.72578250e-03,
          1.49031298e-03, 4.47093882e-03, 0., 5.96125191e-03,
          5.21609560e-03, 6.70640822e-03, 3.72578250e-03, 7.45156489e-04,
          8.19672178e-03, 3.72578250e-03, 3.72578250e-03, 2.98062596e-03,
          6.70640822e-03, 0., 1.56482868e-02, 1.26676606e-02,
          5.21609560e-03, 5.21609560e-03, 3.72578250e-03, 1.34128164e-02,
          7.45156500e-03 ]
      - [ 9.99000971e-04, 5.99400606e-03, 1.49850147e-02, 3.99600388e-03,
          2.99700303e-03, 1.29870130e-02, 1.29870130e-02, 3.99600388e-03,
          9.99000971e-04, 7.99200777e-03, 3.99600388e-03, 3.09690293e-02,
          6.99300691e-03, 2.99700303e-03, 4.99500474e-03, 2.99700303e-03,
          0., 0., 2.99700303e-03, 5.99400606e-03, 3.99600388e-03,
          6.99300691e-03, 3.99600388e-03, 3.09690293e-02, 6.99300691e-03,
          2.09790207e-02, 2.99700303e-03, 5.99400606e-03, 2.99700303e-03,
          2.99700303e-03, 9.99000971e-04, 1.29870130e-02, 5.99400606e-03,
          2.09790207e-02, 3.99600388e-03, 4.99500474e-03, 2.99700303e-03,
          9.99000971e-04, 8.99100862e-03, 0., 0., 4.99500474e-03,
          1.19880121e-02, 1.39860138e-02, 9.99000971e-04, 4.99500474e-03,
          2.99700303e-03, 4.99500474e-03, 7.99200777e-03, 0.,
          1.79820172e-02, 9.99000948e-03, 6.99300691e-03, 1.99800194e-03,
          4.99500474e-03, 2.99700303e-03, 2.99700303e-03, 2.99700303e-03,
          9.99000971e-04, 2.99700303e-03, 1.99800194e-03, 4.99500474e-03,
          6.99300691e-03, 8.99100862e-03, 1.99800194e-03, 1.99800194e-03,
          2.99700303e-03, 6.99300691e-03, 8.99100862e-03, 4.99500474e-03,
          1.59840155e-02, 0., 6.99300691e-03, 3.99600388e-03,
          7.99200777e-03, 9.99000948e-03, 1.39860138e-02, 8.99100862e-03,
          7.99200777e-03, 2.99700303e-03, 0., 7.99200777e-03,
          4.99500474e-03, 7.99200777e-03, 1.99800194e-03, 6.99300691e-03,
          3.99600388e-03, 6.99300691e-03, 3.99600388e-03, 7.99200777e-03,
          9.99000971e-04, 1.19880121e-02, 0., 3.99600388e-03,
          9.99000948e-03, 0., 4.99500474e-03, 7.99200777e-03, 0.,
          1.59840155e-02, 5.99400606e-03, 4.99500474e-03, 2.99700303e-03,
          5.99400606e-03, 2.99700303e-03, 1.49850147e-02, 9.99000948e-03,
          1.89810190e-02, 0., 1.99800194e-03, 0., 1.99800194e-03,
          3.99600388e-03, 5.99400606e-03, 5.99400606e-03, 4.39560413e-02,
          2.39760242e-02, 0., 1.99800194e-03, 2.99700303e-03,
          1.59840155e-02, 5.99400606e-03, 1.49850147e-02, 2.19780207e-02,
          9.99000971e-04, 9.99000948e-03, 8.99100862e-03, 1.69830173e-02,
          3.99600388e-03, 0., 2.99700303e-03, 0., 6.99300691e-03,
          4.99500474e-03, 3.99600388e-03, 1.99800194e-03, 0.,
          7.99200777e-03, 2.99700303e-03, 4.99500474e-03, 1.99800194e-03,
          9.99000948e-03, 0., 1.59840155e-02, 1.29870130e-02,
          4.99500474e-03, 3.99600388e-03, 3.99600388e-03, 1.49850147e-02,
          5.99400606e-03 ]
      - [ 0., 6.64136605e-03, 1.32827321e-02, 5.69259934e-03,
          5.69259934e-03, 2.27703974e-02, 1.13851987e-02, 3.79506638e-03,
          2.84629967e-03, 1.42314993e-02, 3.79506638e-03, 2.75142305e-02,
          9.48766596e-04, 3.79506638e-03, 2.84629967e-03, 2.84629967e-03,
          9.48766596e-04, 0., 9.48766596e-04, 5.69259934e-03,
          3.79506638e-03, 7.59013277e-03, 8.53889901e-03, 2.56166980e-02,
          9.48766596e-04, 1.04364324e-02, 3.79506638e-03, 2.84629967e-03,
          3.79506638e-03, 2.84629967e-03, 6.64136605e-03, 1.89753324e-02,
          2.84629967e-03, 1.42314993e-02, 3.79506638e-03, 3.79506638e-03,
          6.64136605e-03, 0., 6.64136605e-03, 4.74383309e-03,
          2.84629967e-03, 4.74383309e-03, 1.04364324e-02, 1.32827321e-02,
          9.48766596e-04, 6.64136605e-03, 1.89753319e-03, 5.69259934e-03,
          5.69259934e-03, 0., 1.23339659e-02, 7.59013277e-03,
          5.69259934e-03, 1.89753319e-03, 3.79506638e-03, 5.69259934e-03,
          9.48766596e-04, 4.74383309e-03, 0., 3.79506638e-03,
          9.48766596e-04, 5.69259934e-03, 5.69259934e-03, 1.23339659e-02,
          9.48766596e-04, 2.84629967e-03, 4.74383309e-03, 4.74383309e-03,
          1.04364324e-02, 0., 2.18216311e-02, 9.48766596e-04,
          1.23339659e-02, 6.64136605e-03, 4.74383309e-03, 1.13851987e-02,
          1.13851987e-02, 9.48766619e-03, 7.59013277e-03, 4.74383309e-03,
          0., 7.59013277e-03, 3.79506638e-03, 2.84629967e-03,
          2.84629967e-03, 4.74383309e-03, 1.89753319e-03, 6.64136605e-03,
          2.84629967e-03, 9.48766619e-03, 1.89753319e-03, 1.70777980e-02,
          0., 4.74383309e-03, 8.53889901e-03, 0., 4.74383309e-03,
          1.04364324e-02, 9.48766596e-04, 1.61290318e-02, 5.69259934e-03,
          5.69259934e-03, 7.59013277e-03, 5.69259934e-03, 9.48766596e-04,
          1.89753324e-02, 1.42314993e-02, 1.89753324e-02, 2.84629967e-03,
          4.74383309e-03, 9.48766596e-04, 2.84629967e-03, 1.89753319e-03,
          1.04364324e-02, 5.69259934e-03, 2.08728649e-02, 1.80265661e-02,
          0., 9.48766596e-04, 3.79506638e-03, 2.08728649e-02,
          5.69259934e-03, 1.32827321e-02, 3.13092992e-02, 0.,
          9.48766619e-03, 6.64136605e-03, 2.18216311e-02, 1.89753319e-03,
          1.89753319e-03, 2.84629967e-03, 0., 8.53889901e-03,
          3.79506638e-03, 4.74383309e-03, 2.84629967e-03, 9.48766596e-04,
          4.74383309e-03, 4.74383309e-03, 9.48766619e-03, 2.84629967e-03,
          4.74383309e-03, 0., 1.42314993e-02, 1.42314993e-02,
          7.59013277e-03, 5.69259934e-03, 2.84629967e-03, 1.32827321e-02,
          8.53889901e-03 ]
      - [ 1.25786159e-02, 1.25786159e-02, 1.57232699e-03, 4.71698120e-03,
          3.14465398e-03, 1.41509427e-02, 3.14465398e-03, 6.28930796e-03,
          3.14465398e-03, 3.14465398e-03, 0., 3.14465398e-03,
          1.88679248e-02, 1.10062892e-02, 0., 6.28930796e-03,
          1.25786159e-02, 0., 3.45911942e-02, 9.43396240e-03,
          6.28930796e-03, 1.10062892e-02, 9.43396240e-03, 7.86163472e-03,
          3.14465398e-03, 3.14465398e-03, 4.71698120e-03, 3.14465398e-03,
          6.28930796e-03, 4.71698120e-03, 6.28930796e-03, 3.14465398e-03,
          0., 0., 4.71698120e-03, 1.72955971e-02, 1.57232699e-03, 0.,
          6.28930796e-03, 1.57232699e-03, 3.14465398e-03, 3.14465398e-03,
          3.14465398e-03, 6.28930796e-03, 9.43396240e-03, 3.14465398e-03,
          6.28930796e-03, 9.43396240e-03, 0., 0., 1.57232699e-03,
          3.14465398e-03, 6.28930796e-03, 9.43396240e-03, 1.57232699e-03,
          1.25786159e-02, 7.86163472e-03, 1.57232699e-03, 0.,
          7.86163472e-03, 6.28930796e-03, 6.28930796e-03, 9.43396240e-03,
          1.25786159e-02, 3.14465398e-03, 3.14465398e-03, 4.71698120e-03,
          1.10062892e-02, 3.14465398e-03, 9.43396240e-03, 4.71698120e-03,
          2.35849041e-02, 1.57232699e-03, 1.57232694e-02, 3.14465398e-03,
          1.57232699e-03, 9.43396240e-03, 3.14465398e-03, 7.86163472e-03,
          6.28930796e-03, 3.45911942e-02, 1.57232699e-03, 0.,
          1.57232699e-03, 7.86163472e-03, 9.43396240e-03, 7.86163472e-03,
          3.14465398e-03, 1.57232699e-03, 4.71698120e-03, 9.43396240e-03,
          1.57232699e-03, 0., 3.14465398e-03, 0., 6.28930796e-03, 0.,
          1.57232699e-03, 0., 4.71698120e-03, 0., 9.43396240e-03,
          4.71698120e-03, 1.25786159e-02, 6.28930796e-03, 1.57232699e-03,
          6.28930796e-03, 0., 4.71698120e-03, 1.72955971e-02, 0., 0.,
          6.28930796e-03, 4.71698120e-03, 4.71698120e-03, 1.25786159e-02,
          0., 2.67295595e-02, 9.43396240e-03, 1.57232699e-03,
          4.71698120e-03, 6.28930796e-03, 0., 4.71698120e-03,
          4.40251566e-02, 4.71698120e-03, 1.57232699e-03, 3.14465398e-03,
          7.86163472e-03, 2.35849041e-02, 6.28930796e-03, 0.,
          1.57232699e-03, 1.72955971e-02, 7.86163472e-03, 6.28930796e-03,
          1.88679248e-02, 7.86163472e-03, 6.28930796e-03, 7.86163472e-03,
          2.98742130e-02, 4.71698120e-03, 1.57232699e-03, 1.57232699e-03,
          0., 9.43396240e-03, 9.43396240e-03, 1.72955971e-02,
          4.71698120e-03, 9.43396240e-03 ]
      - [ 1.00143068e-02, 1.28755365e-02, 0., 0., 4.29184549e-03,
          5.00715338e-02, 4.29184549e-03, 7.15307612e-03, 4.29184549e-03,
          1.43061520e-03, 1.43061520e-03, 1.14449216e-02, 1.00143068e-02,
          1.57367680e-02, 1.43061520e-03, 4.29184549e-03, 1.14449216e-02,
          1.43061520e-03, 2.43204590e-02, 1.14449216e-02, 7.15307612e-03,
          5.72246080e-03, 1.00143068e-02, 5.72246080e-03, 4.29184549e-03,
          5.72246080e-03, 4.29184549e-03, 2.86123040e-03, 4.29184549e-03,
          7.15307612e-03, 7.15307612e-03, 1.43061520e-03, 0.,
          1.43061520e-03, 4.29184549e-03, 1.85979977e-02, 2.86123040e-03,
          0., 5.72246080e-03, 5.72246080e-03, 7.15307612e-03,
          2.86123040e-03, 1.43061520e-03, 7.15307612e-03, 1.00143068e-02,
          5.72246080e-03, 2.86123040e-03, 1.14449216e-02, 4.29184549e-03,
          1.43061520e-03, 1.43061520e-03, 1.43061520e-03, 4.29184549e-03,
          1.14449216e-02, 1.43061520e-03, 5.72246080e-03, 7.15307612e-03,
          1.43061520e-03, 0., 7.15307612e-03, 7.15307612e-03,
          7.15307612e-03, 7.15307612e-03, 8.58369097e-03, 4.29184549e-03,
          1.43061520e-03, 1.14449216e-02, 8.58369097e-03, 2.86123040e-03,
          7.15307612e-03, 2.86123040e-03, 2.14592274e-02, 4.29184549e-03,
          1.71673819e-02, 2.86123040e-03, 0., 5.72246080e-03,
          4.29184549e-03, 4.29184549e-03, 5.72246080e-03, 3.00429184e-02,
          2.86123040e-03, 1.43061520e-03, 0., 1.00143068e-02,
          4.29184549e-03, 5.72246080e-03, 1.14449216e-02, 0.,
          7.15307612e-03, 7.15307612e-03, 0., 0., 2.86123040e-03, 0.,
          4.29184549e-03, 1.43061520e-03, 5.72246080e-03, 0.,
          4.29184549e-03, 1.43061520e-03, 7.15307612e-03, 2.86123040e-03,
          7.15307612e-03, 7.15307612e-03, 5.72246080e-03, 5.72246080e-03,
          0., 7.15307612e-03, 1.71673819e-02, 1.43061520e-03, 0.,
          4.29184549e-03, 2.86123040e-03, 1.43061520e-03, 1.57367680e-02,
          2.86123040e-03, 2.71816887e-02, 4.29184549e-03, 0.,
          7.15307612e-03, 5.72246080e-03, 0., 2.86123040e-03,
          4.72103022e-02, 2.86123040e-03, 1.43061520e-03, 1.43061520e-03,
          5.72246080e-03, 2.43204590e-02, 5.72246080e-03, 0.,
          1.43061520e-03, 1.71673819e-02, 8.58369097e-03, 5.72246080e-03,
          1.71673819e-02, 8.58369097e-03, 5.72246080e-03, 1.00143068e-02,
          3.14735360e-02, 5.72246080e-03, 1.43061520e-03, 1.43061520e-03,
          0., 5.72246080e-03, 4.29184549e-03, 1.43061522e-02,
          5.72246080e-03, 8.58369097e-03 ]
      - [ 7.33496342e-03, 1.22249397e-02, 0., 0., 2.44498788e-03,
          1.46699268e-02, 0., 7.33496342e-03, 0., 0., 2.44498788e-03,
          7.33496342e-03, 1.71149150e-02, 1.95599031e-02, 2.44498788e-03,
          2.44498788e-03, 2.44498788e-03, 2.44498788e-03, 2.20048912e-02,
          1.46699268e-02, 4.88997577e-03, 9.77995154e-03, 9.77995154e-03,
          0., 7.33496342e-03, 0., 2.44498788e-03, 0., 1.22249397e-02,
          4.88997577e-03, 7.33496342e-03, 2.44498788e-03, 0., 0.,
          9.77995154e-03, 9.77995154e-03, 7.33496342e-03, 2.44498788e-03,
          1.22249397e-02, 7.33496342e-03, 7.33496342e-03, 2.44498788e-03,
          0., 2.44498788e-03, 0., 7.33496342e-03, 7.33496342e-03,
          2.44498788e-03, 0., 0., 2.44498788e-03, 4.88997577e-03,
          7.33496342e-03, 4.88997577e-03, 2.44498788e-03, 2.44498788e-03,
          1.46699268e-02, 4.88997577e-03, 2.44498788e-03, 1.22249397e-02,
          4.88997577e-03, 7.33496342e-03, 9.77995154e-03, 1.46699268e-02,
          7.33496342e-03, 7.33496342e-03, 1.71149150e-02, 2.20048912e-02,
          2.44498788e-03, 4.88997577e-03, 7.33496342e-03, 7.33496342e-03,
          2.44498788e-03, 2.20048912e-02, 7.33496342e-03, 0.,
          2.44498788e-03, 0., 4.88997577e-03, 1.22249397e-02,
          5.37897348e-02, 0., 2.44498788e-03, 2.44498788e-03,
          2.44498788e-03, 7.33496342e-03, 1.22249397e-02, 9.77995154e-03,
          0., 7.33496342e-03, 1.46699268e-02, 2.44498788e-03, 0.,
          1.22249397e-02, 0., 7.33496342e-03, 0., 4.88997577e-03,
          2.44498788e-03, 9.77995154e-03, 2.44498788e-03, 1.46699268e-02,
          2.44498788e-03, 7.33496342e-03, 7.33496342e-03, 2.44498788e-03,
          7.33496342e-03, 2.44498788e-03, 7.33496342e-03, 2.93398537e-02,
          0., 4.88997577e-03, 4.88997577e-03, 4.88997577e-03,
          4.88997577e-03, 9.77995154e-03, 0., 9.77995154e-03,
          1.22249397e-02, 7.33496342e-03, 7.33496342e-03, 4.88997577e-03,
          2.44498788e-03, 7.33496342e-03, 1.71149150e-02, 4.88997577e-03,
          0., 2.44498788e-03, 9.77995154e-03, 1.71149150e-02,
          4.88997577e-03, 0., 4.88997577e-03, 4.88997577e-03,
          1.22249397e-02, 2.44498788e-03, 2.44498788e-03, 9.77995154e-03,
          4.88997577e-03, 9.77995154e-03, 2.93398537e-02, 7.33496342e-03,
          2.44498788e-03, 0., 2.44498788e-03, 1.22249397e-02,
          9.77995154e-03, 4.88997577e-03, 2.44498788e-03, 7.33496342e-03 ]
      - [ 1.13207549e-02, 1.50943398e-02, 0., 3.77358496e-03,
          1.88679248e-03, 4.90566045e-02, 0., 7.54716992e-03,
          1.88679248e-03, 7.54716992e-03, 3.77358496e-03, 2.07547173e-02,
          9.43396240e-03, 1.50943398e-02, 1.88679248e-03, 1.88679248e-03,
          1.88679248e-03, 1.88679248e-03, 2.26415098e-02, 1.69811323e-02,
          3.77358496e-03, 1.88679248e-03, 3.77358496e-03, 0.,
          3.77358496e-03, 9.43396240e-03, 3.77358496e-03, 3.77358496e-03,
          1.13207549e-02, 7.54716992e-03, 9.43396240e-03, 1.88679248e-03,
          0., 0., 7.54716992e-03, 9.43396240e-03, 5.66037744e-03,
          1.88679248e-03, 5.66037744e-03, 5.66037744e-03, 5.66037744e-03,
          7.54716992e-03, 5.66037744e-03, 1.32075474e-02, 5.66037744e-03,
          1.69811323e-02, 7.54716992e-03, 1.32075474e-02, 3.77358496e-03,
          1.88679248e-03, 3.77358496e-03, 5.66037744e-03, 3.77358496e-03,
          7.54716992e-03, 3.77358496e-03, 1.88679248e-03, 1.69811323e-02,
          5.66037744e-03, 1.88679248e-03, 7.54716992e-03, 7.54716992e-03,
          9.43396240e-03, 5.66037744e-03, 1.13207549e-02, 1.88679248e-03,
          3.77358496e-03, 1.88679248e-02, 2.07547173e-02, 1.88679248e-03,
          9.43396240e-03, 1.88679248e-03, 3.77358496e-03, 1.88679248e-03,
          1.69811323e-02, 1.88679248e-03, 1.88679248e-03, 7.54716992e-03,
          0., 3.77358496e-03, 5.66037744e-03, 3.01886797e-02,
          1.88679248e-03, 1.88679248e-03, 0., 3.77358496e-03,
          7.54716992e-03, 3.77358496e-03, 1.32075474e-02, 0.,
          7.54716992e-03, 1.13207549e-02, 5.66037744e-03, 1.88679248e-03,
          9.43396240e-03, 0., 3.77358496e-03, 0., 0., 1.88679248e-03,
          7.54716992e-03, 0., 9.43396240e-03, 1.88679248e-03,
          3.77358496e-03, 7.54716992e-03, 1.88679248e-03, 1.88679248e-03,
          0., 9.43396240e-03, 2.64150947e-02, 0., 5.66037744e-03,
          1.13207549e-02, 3.77358496e-03, 1.88679248e-03, 2.45283023e-02,
          1.88679248e-03, 7.54716992e-03, 1.88679248e-03, 9.43396240e-03,
          7.54716992e-03, 9.43396240e-03, 0., 0., 2.45283023e-02,
          1.88679248e-03, 0., 5.66037744e-03, 7.54716992e-03,
          1.32075474e-02, 5.66037744e-03, 1.88679248e-03, 1.88679248e-03,
          3.77358496e-03, 1.69811323e-02, 3.77358496e-03, 5.66037744e-03,
          5.66037744e-03, 5.66037744e-03, 1.50943398e-02, 2.26415098e-02,
          3.77358496e-03, 0., 0., 0., 1.13207549e-02, 7.54716992e-03,
          1.88679248e-03, 1.88679248e-03, 7.54716992e-03 ]
   decision_functions:
      -
         sv_count: 16
         rho: 8.3538094162940979e-01
         alpha: [ 1., 1., 1., 1., 1., 1., 1., 1., -1., -1., -1., -1.,
             -1., -1., -1., -1. ]
         index: [ 0, 1, 2, 3, 4, 5, 6, 7, 8, 9, 10, 11, 13, 14, 15, 16 ]
      -
         sv_count: 11
         rho: -8.8072415777458524e-01
         alpha: [ 9.5737336268734019e-01, 2.5401008998904423e-01, 1., 1.,
             7.8861654732361552e-01, 1., -1., -1., -1., -1., -1. ]
         index: [ 2, 3, 4, 5, 6, 7, 17, 18, 19, 20, 21 ]
      -
         sv_count: 16
         rho: 8.2718092203140259e-01
         alpha: [ 1., 1., 1., 1., 1., 1., 1., 1., -1., -1., -1., -1.,
             -1., -1., -1., -1. ]
         index: [ 0, 1, 2, 3, 4, 5, 6, 7, 22, 23, 24, 26, 27, 28, 29, 30 ]
      -
         sv_count: 9
         rho: -8.7785655260086060e-01
         alpha: [ 2.7572659282400835e-01, 1., 1., 7.2427340717599165e-01,
             1., -1., -1., -1., -1. ]
         index: [ 3, 4, 5, 6, 7, 31, 32, 33, 34 ]
      -
         sv_count: 11
         rho: -9.1447535157203674e-01
         alpha: [ 1., 8.4127293326347563e-01, 1.5872706673652440e-01, 1.,
             1., 1., -1., -1., -1., -1., -1. ]
         index: [ 8, 9, 10, 11, 14, 15, 17, 18, 19, 20, 21 ]
      -
         sv_count: 18
         rho: -1.1582911014556885e-02
         alpha: [ 1., 1., 1., 1., 1., 1., 1., 1., 1., -1., -1., -1., -1.,
             -1., -1., -1., -1., -1. ]
         index: [ 8, 9, 10, 11, 12, 13, 14, 15, 16, 22, 23, 24, 25, 26,
             27, 28, 29, 30 ]
      -
         sv_count: 10
         rho: -9.6253121343760129e-01
         alpha: [ 1., 3.1365693907115105e-01, 8.2229479325430577e-01,
             2.9645280711799470e-02, 1., 8.3440298696274340e-01, -1.,
             -1., -1., -1. ]
         index: [ 8, 10, 11, 12, 14, 15, 31, 32, 33, 34 ]
      -
         sv_count: 11
         rho: 8.4706788988559678e-01
         alpha: [ 1., 1., 1., 1., 1., -1., -1., -6.8414319494632048e-01,
             -1., -9.2463310660084985e-01, -3.9122369845283006e-01 ]
         index: [ 17, 18, 19, 20, 21, 22, 24, 27, 28, 29, 30 ]
      -
         sv_count: 9
         rho: -9.4988419180884176e-01
         alpha: [ 5.5252832828746490e-01, 1., 8.6678886445371417e-01,
             9.3984423531133776e-01, 6.4083857194748306e-01, -1., -1.,
             -1., -1. ]
         index: [ 17, 18, 19, 20, 21, 31, 32, 33, 34 ]
      -
         sv_count: 9
         rho: -8.5379213176563873e-01
         alpha: [ 7.3676343335304095e-01, 1., 5.7184931838718278e-01, 1.,
             6.9138724825977627e-01, -1., -1., -1., -1. ]
         index: [ 22, 24, 27, 28, 30, 31, 32, 33, 34 ]
