%YAML:1.0
my_svm: !!opencv-ml-svm
   svm_type: C_SVC
   kernel: { type:RBF, gamma:3. }
   C: 1.
   term_criteria: { epsilon:2.2204460492503131e-16, iterations:100 }
   var_all: 100
   var_count: 100
   class_count: 5
   class_labels: !!opencv-matrix
      rows: 1
      cols: 5
      dt: i
      data: [ 0, 1, 2, 3, 4 ]
   sv_total: 63
   support_vectors:
      - [ 2.38379017e-02, 8.34326539e-03, 0., 2.26460062e-02,
          1.19189511e-03, 2.26460062e-02, 0., 1.54946363e-02,
          5.95947541e-03, 8.34326539e-03, 1.54946363e-02, 1.90703217e-02,
          1.90703217e-02, 7.15137087e-03, 1.78784262e-02, 3.57568543e-03,
          3.57568543e-03, 1.19189511e-03, 4.76758042e-03, 3.57568543e-03,
          0., 7.15137087e-03, 4.76758042e-03, 1.19189511e-03,
          1.43027417e-02, 1.66865308e-02, 3.21811661e-02, 7.15137087e-03,
          3.09892725e-02, 1.66865308e-02, 4.76758042e-03, 8.34326539e-03,
          3.09892725e-02, 8.34326539e-03, 3.57568543e-03, 2.62216926e-02,
          1.19189511e-03, 5.95947541e-03, 5.95947541e-03, 1.19189508e-02,
          5.95947541e-03, 1.19189508e-02, 1.19189511e-03, 1.31108463e-02,
          0., 0., 2.26460062e-02, 0., 4.76758042e-03, 4.52920124e-02,
          2.74135880e-02, 1.19189511e-03, 9.53516085e-03, 1.19189511e-03,
          1.19189511e-03, 1.07270563e-02, 0., 3.57568543e-03,
          2.38379021e-03, 2.38379021e-03, 8.34326539e-03, 2.38379017e-02,
          2.02622171e-02, 2.50297971e-02, 1.54946363e-02, 5.95947541e-03,
          5.95947541e-03, 1.07270563e-02, 2.38379021e-03, 0., 0.,
          7.15137087e-03, 1.19189508e-02, 2.38379021e-03, 7.15137087e-03,
          1.19189508e-02, 2.02622171e-02, 1.78784262e-02, 9.53516085e-03,
          1.66865308e-02, 3.09892725e-02, 1.07270563e-02, 1.66865308e-02,
          3.09892725e-02, 2.38379021e-03, 9.53516085e-03, 0.,
          3.57568543e-03, 8.34326539e-03, 5.95947541e-03, 0.,
          3.57568543e-03, 0., 9.53516085e-03, 5.95947541e-03,
          1.19189511e-03, 8.34326539e-03, 0., 9.53516085e-03,
          1.31108463e-02 ]
      - [ 1.60116442e-02, 4.36681230e-03, 0., 1.31004369e-02,
          2.91120820e-03, 2.03784574e-02, 1.45560410e-03, 1.45560410e-02,
          5.82241639e-03, 8.73362459e-03, 1.31004369e-02, 1.60116442e-02,
          1.60116442e-02, 1.45560410e-03, 1.45560410e-02, 0.,
          4.36681230e-03, 1.45560410e-03, 8.73362459e-03, 2.91120820e-03,
          0., 1.31004369e-02, 1.31004369e-02, 0., 2.62008738e-02,
          1.31004369e-02, 2.03784574e-02, 2.91120820e-03, 2.91120820e-02,
          1.74672492e-02, 8.73362459e-03, 7.27802049e-03, 2.32896656e-02,
          1.31004369e-02, 5.82241639e-03, 2.03784574e-02, 2.91120820e-03,
          8.73362459e-03, 5.82241639e-03, 1.31004369e-02, 1.01892287e-02,
          1.16448328e-02, 0., 8.73362459e-03, 0., 0., 2.76564769e-02, 0.,
          7.27802049e-03, 3.78457084e-02, 4.22125198e-02, 5.82241639e-03,
          1.16448328e-02, 1.45560410e-03, 1.45560410e-03, 1.31004369e-02,
          0., 2.91120820e-03, 0., 4.36681230e-03, 1.74672492e-02,
          2.76564769e-02, 1.89228542e-02, 2.47452706e-02, 8.73362459e-03,
          1.45560410e-03, 8.73362459e-03, 1.01892287e-02, 2.91120820e-03,
          0., 0., 1.16448328e-02, 1.16448328e-02, 2.91120820e-03,
          4.36681230e-03, 2.91120820e-03, 1.31004369e-02, 1.60116442e-02,
          1.60116442e-02, 2.03784574e-02, 3.49344984e-02, 8.73362459e-03,
          5.82241639e-03, 3.34788933e-02, 2.91120820e-03, 1.01892287e-02,
          0., 1.45560410e-03, 7.27802049e-03, 8.73362459e-03, 0.,
          7.27802049e-03, 0., 1.45560410e-02, 1.01892287e-02,
          1.45560410e-03, 1.16448328e-02, 2.91120820e-03, 1.16448328e-02,
          1.01892287e-02 ]
      - [ 1.23873875e-02, 4.50450461e-03, 0., 4.16666679e-02,
          2.25225240e-02, 2.81531531e-02, 0., 2.25225240e-02,
          1.01351356e-02, 7.88288284e-03, 1.35135138e-02, 2.13963967e-02,
          1.68918930e-02, 4.50450461e-03, 1.01351356e-02, 1.12612615e-03,
          4.50450461e-03, 0., 7.88288284e-03, 2.25225231e-03,
          1.12612615e-03, 1.01351356e-02, 6.75675692e-03, 1.12612615e-03,
          1.80180185e-02, 1.12612620e-02, 1.80180185e-02, 9.00900923e-03,
          3.49099115e-02, 1.80180185e-02, 1.01351356e-02, 7.88288284e-03,
          2.70270277e-02, 6.75675692e-03, 4.50450461e-03, 1.80180185e-02,
          2.25225231e-03, 6.75675692e-03, 4.50450461e-03, 1.35135138e-02,
          7.88288284e-03, 6.75675692e-03, 1.12612615e-03, 5.63063100e-03,
          0., 0., 2.59009022e-02, 0., 4.50450461e-03, 3.60360369e-02,
          3.94144170e-02, 1.68918930e-02, 7.88288284e-03, 3.37837846e-03,
          2.25225231e-03, 1.01351356e-02, 0., 4.50450461e-03,
          1.12612615e-03, 3.37837846e-03, 1.01351356e-02, 2.36486495e-02,
          1.80180185e-02, 2.13963967e-02, 1.35135138e-02, 6.75675692e-03,
          5.63063100e-03, 4.50450461e-03, 1.12612615e-03, 1.12612615e-03,
          0., 1.35135138e-02, 1.35135138e-02, 1.12612615e-03,
          1.35135138e-02, 5.63063100e-03, 1.35135138e-02, 1.80180185e-02,
          1.01351356e-02, 1.46396402e-02, 3.15315314e-02, 5.63063100e-03,
          9.00900923e-03, 2.02702712e-02, 2.25225231e-03, 1.23873875e-02,
          1.12612615e-03, 1.12612615e-03, 7.88288284e-03, 5.63063100e-03,
          0., 5.63063100e-03, 1.12612615e-03, 1.01351356e-02,
          1.01351356e-02, 0., 5.63063100e-03, 1.12612615e-03,
          9.00900923e-03, 1.23873875e-02 ]
      - [ 1.39593910e-02, 6.34517753e-03, 1.26903551e-03, 4.06091362e-02,
          2.66497452e-02, 1.90355331e-02, 0., 1.90355331e-02,
          7.61421304e-03, 1.01522841e-02, 1.14213191e-02, 2.79187821e-02,
          1.52284261e-02, 1.26903551e-03, 8.88324901e-03, 3.80710652e-03,
          1.26903551e-03, 1.26903551e-03, 7.61421304e-03, 1.26903551e-03,
          1.26903551e-03, 8.88324901e-03, 1.26903551e-02, 1.26903551e-03,
          1.90355331e-02, 1.01522841e-02, 2.03045681e-02, 1.39593910e-02,
          2.91878171e-02, 1.77664980e-02, 8.88324901e-03, 5.07614203e-03,
          2.41116751e-02, 7.61421304e-03, 3.80710652e-03, 2.41116751e-02,
          0., 7.61421304e-03, 5.07614203e-03, 1.26903551e-02,
          7.61421304e-03, 6.34517753e-03, 0., 6.34517753e-03, 0., 0.,
          1.64974611e-02, 0., 1.26903551e-03, 3.68020311e-02,
          2.53807101e-02, 1.39593910e-02, 1.01522841e-02, 1.26903551e-03,
          2.53807101e-03, 1.01522841e-02, 0., 8.88324901e-03,
          2.53807101e-03, 3.80710652e-03, 1.01522841e-02, 2.28426382e-02,
          2.15736032e-02, 2.28426382e-02, 1.26903551e-02, 6.34517753e-03,
          1.14213191e-02, 7.61421304e-03, 5.07614203e-03, 2.53807101e-03,
          1.26903551e-03, 6.34517753e-03, 1.52284261e-02, 3.80710652e-03,
          1.52284261e-02, 3.80710652e-03, 8.88324901e-03, 1.26903551e-02,
          1.01522841e-02, 1.64974611e-02, 2.66497452e-02, 5.07614203e-03,
          1.39593910e-02, 2.41116751e-02, 2.53807101e-03, 1.26903551e-02,
          1.26903551e-03, 1.26903551e-03, 1.26903551e-02, 8.88324901e-03,
          1.26903551e-03, 8.88324901e-03, 0., 1.01522841e-02,
          1.26903551e-02, 2.53807101e-03, 6.34517753e-03, 1.26903551e-03,
          1.01522841e-02, 8.88324901e-03 ]
      - [ 1.35135138e-02, 7.50750769e-03, 0., 3.60360369e-02,
          1.65165178e-02, 2.40240246e-02, 0., 1.35135138e-02,
          3.00300308e-03, 7.50750769e-03, 1.20120123e-02, 1.50150154e-02,
          1.65165178e-02, 1.50150154e-03, 1.05105108e-02, 1.50150154e-03,
          3.00300308e-03, 1.50150154e-03, 9.00900923e-03, 1.50150154e-03,
          1.50150154e-03, 1.20120123e-02, 1.35135138e-02, 1.50150154e-03,
          2.25225240e-02, 1.20120123e-02, 2.10210215e-02, 1.35135138e-02,
          2.55255252e-02, 1.65165178e-02, 1.95195191e-02, 6.00600615e-03,
          2.85285302e-02, 1.80180185e-02, 4.50450461e-03, 2.10210215e-02,
          1.50150154e-03, 6.00600615e-03, 6.00600615e-03, 1.20120123e-02,
          1.50150154e-03, 9.00900923e-03, 0., 1.05105108e-02,
          1.50150154e-03, 0., 2.25225240e-02, 1.50150154e-03,
          6.00600615e-03, 3.60360369e-02, 3.60360369e-02, 1.50150154e-02,
          7.50750769e-03, 3.00300308e-03, 0., 1.65165178e-02, 0.,
          6.00600615e-03, 0., 3.00300308e-03, 7.50750769e-03,
          1.80180185e-02, 1.95195191e-02, 2.85285302e-02, 7.50750769e-03,
          0., 7.50750769e-03, 9.00900923e-03, 3.00300308e-03, 0.,
          1.50150154e-03, 6.00600615e-03, 1.20120123e-02, 1.50150154e-03,
          1.35135138e-02, 6.00600615e-03, 1.35135138e-02, 1.50150154e-02,
          1.35135138e-02, 1.35135138e-02, 3.45345363e-02, 4.50450461e-03,
          1.05105108e-02, 2.70270277e-02, 3.00300308e-03, 9.00900923e-03,
          0., 1.50150154e-03, 7.50750769e-03, 1.20120123e-02, 0.,
          6.00600615e-03, 1.50150154e-03, 1.05105108e-02, 1.20120123e-02,
          1.50150154e-03, 7.50750769e-03, 0., 7.50750769e-03,
          1.50150154e-02 ]
      - [ 2.24215239e-02, 5.97907323e-03, 0., 1.94319878e-02,
          5.08221239e-02, 1.49476826e-02, 1.49476831e-03, 1.49476826e-02,
          5.97907323e-03, 1.49476826e-02, 1.04633784e-02, 1.34529145e-02,
          1.94319878e-02, 1.49476831e-03, 1.94319878e-02, 4.48430516e-03,
          4.48430516e-03, 4.48430516e-03, 1.64424516e-02, 2.98953662e-03,
          1.49476831e-03, 4.48430516e-03, 1.04633784e-02, 1.49476831e-03,
          2.09267568e-02, 1.34529145e-02, 1.79372206e-02, 2.24215239e-02,
          2.84005981e-02, 1.64424516e-02, 1.79372206e-02, 8.96861032e-03,
          2.24215239e-02, 1.19581465e-02, 2.98953662e-03, 8.96861032e-03,
          0., 5.97907323e-03, 4.48430516e-03, 1.04633784e-02,
          1.49476826e-02, 5.97907323e-03, 1.49476831e-03, 8.96861032e-03,
          0., 0., 1.49476826e-02, 1.49476831e-03, 4.48430516e-03,
          2.24215239e-02, 4.03587446e-02, 1.49476826e-02, 1.04633784e-02,
          1.49476831e-03, 2.98953662e-03, 1.64424516e-02, 0.,
          2.98953662e-03, 0., 1.49476831e-03, 2.98953662e-03,
          2.09267568e-02, 2.39162929e-02, 2.39162929e-02, 1.19581465e-02,
          0., 8.96861032e-03, 7.47384131e-03, 1.49476831e-03, 0.,
          1.19581465e-02, 1.49476831e-03, 1.04633784e-02, 1.49476831e-03,
          1.49476826e-02, 5.97907323e-03, 8.96861032e-03, 1.04633784e-02,
          7.47384131e-03, 1.64424516e-02, 1.94319878e-02, 8.96861032e-03,
          8.96861032e-03, 2.54110619e-02, 2.98953662e-03, 1.94319878e-02,
          1.49476831e-03, 1.34529145e-02, 4.48430516e-03, 5.97907323e-03,
          0., 7.47384131e-03, 0., 1.49476831e-03, 5.97907323e-03,
          1.49476831e-03, 8.96861032e-03, 1.49476831e-03, 1.79372206e-02,
          7.47384131e-03 ]
      - [ 1.15273772e-02, 4.32276633e-03, 0., 3.60230543e-02,
          2.44956762e-02, 2.01729108e-02, 0., 1.29682990e-02,
          4.32276633e-03, 5.76368859e-03, 1.29682990e-02, 7.20461085e-03,
          1.58501435e-02, 2.88184430e-03, 1.44092217e-02, 4.32276633e-03,
          7.20461085e-03, 1.44092215e-03, 8.64553265e-03, 2.88184430e-03,
          1.44092215e-03, 2.88184430e-03, 1.29682990e-02, 0.,
          2.44956762e-02, 1.15273772e-02, 1.87319871e-02, 8.64553265e-03,
          2.44956762e-02, 1.72910653e-02, 1.44092217e-02, 4.32276633e-03,
          2.30547544e-02, 7.20461085e-03, 7.20461085e-03, 1.15273772e-02,
          0., 4.32276633e-03, 0., 5.76368859e-03, 2.88184430e-03,
          7.20461085e-03, 1.44092215e-03, 5.76368859e-03, 0., 0.,
          2.44956762e-02, 1.44092217e-02, 0., 2.88184434e-02,
          3.02593652e-02, 3.31412107e-02, 1.29682990e-02, 2.88184430e-03,
          1.72910653e-02, 1.29682990e-02, 0., 1.87319871e-02,
          1.44092215e-03, 5.76368859e-03, 4.32276633e-03, 2.30547544e-02,
          2.01729108e-02, 3.45821306e-02, 5.76368859e-03, 4.32276633e-03,
          5.76368859e-03, 1.15273772e-02, 0., 0., 7.20461085e-03,
          4.32276633e-03, 8.64553265e-03, 1.44092215e-03, 1.00864554e-02,
          5.76368859e-03, 1.29682990e-02, 1.44092217e-02, 7.20461085e-03,
          2.30547544e-02, 2.16138326e-02, 4.32276633e-03, 1.15273772e-02,
          2.16138326e-02, 1.44092215e-03, 1.58501435e-02, 1.44092215e-03,
          5.76368859e-03, 8.64553265e-03, 1.15273772e-02, 1.44092215e-03,
          1.44092217e-02, 1.44092215e-03, 1.44092217e-02, 7.20461085e-03,
          1.44092215e-03, 1.15273772e-02, 1.44092215e-03, 1.00864554e-02,
          1.00864554e-02 ]
      - [ 2.34375000e-02, 9.11458395e-03, 0., 3.90625000e-03,
          1.30208337e-03, 2.34375000e-02, 0., 2.08333340e-02,
          2.60416674e-03, 9.11458395e-03, 1.56250000e-02, 2.47395840e-02,
          1.95312500e-02, 6.51041698e-03, 1.82291679e-02, 3.90625000e-03,
          2.60416674e-03, 1.30208337e-03, 7.81250000e-03, 3.90625000e-03,
          0., 7.81250000e-03, 1.30208337e-03, 0., 1.43229170e-02,
          1.04166670e-02, 3.38541679e-02, 6.51041698e-03, 2.86458340e-02,
          1.43229170e-02, 6.51041698e-03, 7.81250000e-03, 3.90625000e-02,
          7.81250000e-03, 1.30208337e-03, 2.60416679e-02, 2.60416674e-03,
          7.81250000e-03, 3.90625000e-03, 1.17187500e-02, 3.90625000e-03,
          1.30208340e-02, 0., 1.17187500e-02, 0., 0., 3.12500000e-02, 0.,
          2.60416674e-03, 4.42708358e-02, 2.73437500e-02, 0.,
          1.17187500e-02, 1.30208337e-03, 1.30208337e-03, 1.04166670e-02,
          0., 2.60416674e-03, 2.60416674e-03, 2.60416674e-03,
          1.04166670e-02, 2.47395840e-02, 2.08333340e-02, 2.60416679e-02,
          1.43229170e-02, 7.81250000e-03, 7.81250000e-03, 7.81250000e-03,
          5.20833349e-03, 0., 0., 6.51041698e-03, 1.69270840e-02, 0.,
          1.30208337e-03, 1.43229170e-02, 2.08333340e-02, 1.69270840e-02,
          0., 2.21354179e-02, 3.77604179e-02, 9.11458395e-03,
          1.56250000e-02, 3.12500000e-02, 3.90625000e-03, 7.81250000e-03,
          0., 5.20833349e-03, 7.81250000e-03, 9.11458395e-03, 0.,
          5.20833349e-03, 0., 1.04166670e-02, 7.81250000e-03,
          1.30208337e-03, 6.51041698e-03, 0., 5.20833349e-03,
          1.56250000e-02 ]
      - [ 1.61290318e-02, 4.83870972e-03, 0., 8.06451589e-03,
          3.22580640e-03, 2.09677424e-02, 1.61290320e-03, 9.67741944e-03,
          4.83870972e-03, 6.45161280e-03, 1.45161292e-02, 1.77419353e-02,
          1.77419353e-02, 1.61290320e-03, 1.29032256e-02, 0.,
          4.83870972e-03, 1.61290320e-03, 1.29032256e-02, 4.83870972e-03,
          0., 1.12903221e-02, 9.67741944e-03, 1.61290320e-03,
          2.25806441e-02, 1.77419353e-02, 1.93548389e-02, 1.61290320e-03,
          2.90322583e-02, 1.77419353e-02, 1.61290320e-03, 6.45161280e-03,
          2.74193548e-02, 1.29032256e-02, 6.45161280e-03, 1.93548389e-02,
          3.22580640e-03, 1.45161292e-02, 8.06451589e-03, 1.61290318e-02,
          1.29032256e-02, 8.06451589e-03, 0., 8.06451589e-03, 0., 0.,
          2.41935477e-02, 0., 8.06451589e-03, 3.70967723e-02,
          5.00000007e-02, 0., 1.12903221e-02, 1.61290320e-03,
          3.22580640e-03, 1.61290318e-02, 0., 3.22580640e-03, 0.,
          4.83870972e-03, 1.45161292e-02, 3.06451600e-02, 2.25806441e-02,
          2.74193548e-02, 1.29032256e-02, 9.67741944e-03, 9.67741944e-03,
          9.67741944e-03, 3.22580640e-03, 0., 0., 1.29032256e-02,
          1.12903221e-02, 1.61290320e-03, 1.61290320e-03, 3.22580640e-03,
          8.06451589e-03, 1.93548389e-02, 0., 2.25806441e-02,
          3.38709690e-02, 9.67741944e-03, 8.06451589e-03, 3.38709690e-02,
          3.22580640e-03, 9.67741944e-03, 0., 1.61290320e-03,
          1.12903221e-02, 9.67741944e-03, 0., 4.83870972e-03,
          1.61290320e-03, 1.77419353e-02, 8.06451589e-03, 0.,
          9.67741944e-03, 3.22580640e-03, 4.83870972e-03, 8.06451589e-03 ]
      - [ 1.86246429e-02, 4.29799454e-03, 0., 0., 0., 3.72492857e-02, 0.,
          1.86246429e-02, 5.73065924e-03, 8.59598909e-03, 1.57593135e-02,
          2.29226369e-02, 1.71919782e-02, 7.16332393e-03, 1.57593135e-02,
          0., 4.29799454e-03, 0., 5.73065924e-03, 2.86532962e-03, 0.,
          1.43266479e-02, 4.29799454e-03, 0., 1.57593135e-02,
          2.86532962e-03, 2.29226369e-02, 1.28939832e-02, 2.00573076e-02,
          2.14899722e-02, 8.59598909e-03, 5.73065924e-03, 3.29512917e-02,
          1.00286538e-02, 2.86532962e-03, 2.14899722e-02, 4.29799454e-03,
          1.14613185e-02, 5.73065924e-03, 1.71919782e-02, 1.43266479e-02,
          8.59598909e-03, 1.43266481e-03, 5.73065924e-03, 0., 0.,
          2.57879663e-02, 0., 5.73065924e-03, 5.01432680e-02,
          4.44126092e-02, 0., 1.00286538e-02, 1.43266481e-03,
          1.43266481e-03, 7.16332393e-03, 0., 4.29799454e-03, 0.,
          2.86532962e-03, 1.57593135e-02, 3.00859604e-02, 2.43553016e-02,
          2.72206310e-02, 1.43266479e-02, 0., 7.16332393e-03,
          7.16332393e-03, 1.43266481e-03, 1.43266481e-03, 0.,
          1.43266479e-02, 1.57593135e-02, 1.43266481e-03, 1.43266481e-03,
          7.16332393e-03, 1.71919782e-02, 1.71919782e-02, 0.,
          1.57593135e-02, 3.86819504e-02, 8.59598909e-03, 1.14613185e-02,
          2.72206310e-02, 2.86532962e-03, 1.43266479e-02, 4.29799454e-03,
          0., 1.00286538e-02, 5.73065924e-03, 0., 8.59598909e-03, 0.,
          1.57593135e-02, 8.59598909e-03, 0., 5.73065924e-03,
          2.86532962e-03, 7.16332393e-03, 5.73065924e-03 ]
      - [ 1.72744710e-02, 5.75815700e-03, 0., 1.91938574e-03,
          1.91938574e-03, 3.07101719e-02, 0., 1.15163140e-02,
          1.91938574e-03, 7.67754298e-03, 1.34357000e-02, 2.11132430e-02,
          2.49520149e-02, 0., 1.53550860e-02, 3.83877149e-03,
          7.67754298e-03, 1.91938574e-03, 7.67754298e-03, 3.83877149e-03,
          0., 9.59692895e-03, 9.59692895e-03, 0., 3.07101719e-02,
          1.53550860e-02, 2.68714000e-02, 5.75815700e-03, 1.15163140e-02,
          1.91938579e-02, 5.75815700e-03, 5.75815700e-03, 3.45489420e-02,
          2.30326280e-02, 3.83877149e-03, 2.30326280e-02, 1.91938574e-03,
          3.83877149e-03, 5.75815700e-03, 1.53550860e-02, 3.83877149e-03,
          9.59692895e-03, 0., 1.15163140e-02, 0., 0., 2.30326280e-02, 0.,
          3.83877149e-03, 4.03071009e-02, 4.99040298e-02, 0.,
          9.59692895e-03, 1.91938574e-03, 0., 1.34357000e-02, 0.,
          1.91938574e-03, 0., 3.83877149e-03, 1.15163140e-02,
          2.49520149e-02, 3.83877158e-02, 3.07101719e-02, 7.67754298e-03,
          0., 9.59692895e-03, 9.59692895e-03, 1.91938574e-03, 0., 0.,
          5.75815700e-03, 1.15163140e-02, 1.91938574e-03, 1.91938574e-03,
          9.59692895e-03, 1.53550860e-02, 2.11132430e-02, 0.,
          2.11132430e-02, 4.03071009e-02, 3.83877149e-03, 1.34357000e-02,
          3.45489420e-02, 1.91938574e-03, 5.75815700e-03, 0., 0.,
          3.83877149e-03, 1.53550860e-02, 1.91938574e-03, 5.75815700e-03,
          0., 1.15163140e-02, 1.15163140e-02, 0., 9.59692895e-03, 0.,
          1.91938574e-03, 1.34357000e-02 ]
      - [ 2.32558139e-02, 4.30663209e-03, 4.73729568e-03, 9.51765776e-02,
          5.16795889e-02, 9.04392824e-03, 2.88544372e-02, 6.89061172e-03,
          2.58397940e-03, 7.32127484e-03, 7.75193796e-03, 5.59862191e-03,
          6.45994861e-03, 6.89061172e-03, 3.44530586e-03, 4.73729568e-03,
          3.01464275e-03, 8.61326419e-03, 5.16795879e-03, 3.01464275e-03,
          0., 6.45994861e-03, 1.03359176e-02, 1.76571924e-02,
          9.47459135e-03, 2.23944876e-02, 9.90525447e-03, 7.75193796e-03,
          2.15331614e-02, 5.59862191e-03, 2.19638254e-02, 1.46425497e-02,
          1.16279069e-02, 6.89061172e-03, 6.45994861e-03, 1.33505603e-02,
          2.15331605e-03, 3.44530586e-03, 1.63652021e-02, 4.73729568e-03,
          4.73729568e-03, 1.24892341e-02, 1.24892341e-02, 9.04392824e-03,
          3.01464275e-03, 3.01464275e-03, 8.61326419e-03, 1.63652021e-02,
          4.30663209e-03, 2.45478041e-02, 1.72265284e-02, 2.62704566e-02,
          5.59862191e-03, 1.29198972e-02, 1.63652021e-02, 4.73729568e-03,
          8.61326465e-04, 6.45994861e-03, 8.18260107e-03, 9.04392824e-03,
          4.73729568e-03, 1.50732128e-02, 1.11972438e-02, 1.29198972e-02,
          8.61326419e-03, 7.75193796e-03, 5.16795879e-03, 8.61326419e-03,
          2.58397940e-03, 6.02928549e-03, 6.45994861e-03, 3.44530586e-03,
          7.75193796e-03, 8.18260107e-03, 5.59862191e-03, 3.44530586e-03,
          6.89061172e-03, 1.85185187e-02, 3.01464275e-03, 1.24892341e-02,
          1.50732128e-02, 4.73729568e-03, 1.11972438e-02, 1.16279069e-02,
          2.19638254e-02, 5.59862191e-03, 1.29198970e-03, 3.01464275e-03,
          8.18260107e-03, 1.33505603e-02, 8.61326465e-04, 2.15331605e-03,
          1.29198970e-03, 4.73729568e-03, 5.16795879e-03, 1.72265293e-03,
          6.89061172e-03, 3.87596898e-03, 7.75193796e-03, 3.44530586e-03 ]
      - [ 3.09653915e-02, 7.28597445e-03, 7.28597445e-03, 2.55009104e-02,
          0., 1.09289614e-02, 3.09653915e-02, 1.63934417e-02,
          1.82149354e-02, 3.64298723e-03, 1.27504552e-02, 1.82149354e-02,
          1.82149354e-02, 9.10746772e-03, 7.28597445e-03, 1.82149361e-03,
          9.10746772e-03, 7.28597445e-03, 1.09289614e-02, 1.82149361e-03,
          1.82149361e-03, 5.46448072e-03, 9.10746772e-03, 7.28597445e-03,
          5.46448072e-03, 9.10746772e-03, 3.64298723e-03, 2.36794166e-02,
          1.82149361e-03, 3.64298723e-03, 9.10746772e-03, 1.63934417e-02,
          1.09289614e-02, 0., 7.28597445e-03, 0., 9.10746772e-03,
          1.27504552e-02, 2.00364292e-02, 9.10746772e-03, 5.46448072e-03,
          1.27504552e-02, 0., 2.91438978e-02, 1.82149361e-03,
          1.27504552e-02, 0., 1.82149361e-03, 5.46448072e-03,
          1.09289614e-02, 3.64298723e-03, 5.46448072e-03, 5.46448072e-03,
          7.28597445e-03, 0., 9.10746772e-03, 9.10746772e-03,
          2.55009104e-02, 7.28597445e-03, 5.46448072e-03, 1.63934417e-02,
          1.82149354e-02, 2.73224041e-02, 1.82149361e-03, 1.63934417e-02,
          5.46448072e-03, 5.46448072e-03, 1.82149361e-03, 5.46448072e-03,
          3.64298723e-03, 3.64298723e-03, 7.28597445e-03, 1.45719489e-02,
          3.64298723e-03, 3.64298723e-03, 0., 2.00364292e-02,
          1.82149354e-02, 9.10746772e-03, 1.09289614e-02, 9.10746772e-03,
          5.46448072e-03, 1.82149354e-02, 3.64298723e-03, 2.36794166e-02,
          1.09289614e-02, 7.28597445e-03, 1.82149354e-02, 9.10746772e-03,
          2.91438978e-02, 2.00364292e-02, 1.63934417e-02, 1.27504552e-02,
          1.63934417e-02, 9.10746772e-03, 1.82149361e-03, 5.46448072e-03,
          9.10746772e-03, 0., 9.10746772e-03 ]
      - [ 2.45478041e-02, 1.29198972e-02, 6.45994861e-03, 2.32558139e-02,
          0., 9.04392824e-03, 3.35917324e-02, 1.55038759e-02,
          1.67958662e-02, 6.45994861e-03, 7.75193796e-03, 1.67958662e-02,
          1.16279069e-02, 7.75193796e-03, 1.03359176e-02, 1.29198970e-03,
          0., 9.04392824e-03, 1.29198972e-02, 2.58397940e-03,
          5.16795879e-03, 3.87596898e-03, 1.03359176e-02, 1.55038759e-02,
          3.87596898e-03, 1.67958662e-02, 1.29198970e-03, 2.71317828e-02,
          1.29198970e-03, 2.58397940e-03, 7.75193796e-03, 1.29198972e-02,
          6.45994861e-03, 2.58397940e-03, 1.03359176e-02, 5.16795879e-03,
          7.75193796e-03, 1.16279069e-02, 2.06718352e-02, 1.29198972e-02,
          6.45994861e-03, 1.67958662e-02, 6.45994861e-03, 2.32558139e-02,
          5.16795879e-03, 1.67958662e-02, 9.04392824e-03, 5.16795879e-03,
          1.29198972e-02, 1.16279069e-02, 5.16795879e-03, 1.29198970e-03,
          6.45994861e-03, 5.16795879e-03, 0., 5.16795879e-03,
          2.19638254e-02, 1.55038759e-02, 1.29198972e-02, 9.04392824e-03,
          5.16795879e-03, 1.16279069e-02, 1.29198972e-02, 2.58397940e-03,
          2.45478041e-02, 6.45994861e-03, 1.29198970e-03, 5.16795879e-03,
          9.04392824e-03, 3.87596898e-03, 6.45994861e-03, 3.87596898e-03,
          9.04392824e-03, 3.87596898e-03, 1.29198970e-03, 0.,
          1.29198972e-02, 2.45478041e-02, 9.04392824e-03, 9.04392824e-03,
          1.16279069e-02, 7.75193796e-03, 1.55038759e-02, 3.87596898e-03,
          1.29198972e-02, 1.42118866e-02, 7.75193796e-03, 2.19638254e-02,
          1.03359176e-02, 2.45478041e-02, 1.03359176e-02, 9.04392824e-03,
          9.04392824e-03, 1.80878565e-02, 1.03359176e-02, 1.16279069e-02,
          7.75193796e-03, 1.03359176e-02, 0., 9.04392824e-03 ]
      - [ 2.70270258e-02, 7.72200758e-03, 1.93050189e-03, 3.47490348e-02,
          7.72200758e-03, 7.72200758e-03, 3.08880303e-02, 1.73745174e-02,
          1.73745174e-02, 5.79150580e-03, 1.93050189e-03, 1.35135129e-02,
          5.79150580e-03, 3.86100379e-03, 3.86100379e-03, 0.,
          3.86100379e-03, 1.15830116e-02, 7.72200758e-03, 0., 0.,
          7.72200758e-03, 1.35135129e-02, 9.65250935e-03, 5.79150580e-03,
          7.72200758e-03, 0., 3.86100374e-02, 1.93050189e-03,
          3.86100379e-03, 1.15830116e-02, 2.12355200e-02, 5.79150580e-03,
          0., 7.72200758e-03, 3.86100379e-03, 1.35135129e-02,
          7.72200758e-03, 2.12355200e-02, 9.65250935e-03, 7.72200758e-03,
          1.93050187e-02, 5.79150580e-03, 3.08880303e-02, 5.79150580e-03,
          1.35135129e-02, 1.93050189e-03, 9.65250935e-03, 3.86100379e-03,
          1.54440152e-02, 0., 0., 7.72200758e-03, 1.15830116e-02, 0.,
          1.93050189e-03, 1.15830116e-02, 3.47490348e-02, 7.72200758e-03,
          7.72200758e-03, 1.15830116e-02, 1.15830116e-02, 2.12355200e-02,
          3.86100379e-03, 2.31660232e-02, 3.86100379e-03, 1.93050189e-03,
          1.93050189e-03, 9.65250935e-03, 5.79150580e-03, 1.93050189e-03,
          3.86100379e-03, 7.72200758e-03, 1.93050189e-03, 3.86100379e-03,
          0., 1.93050187e-02, 2.31660232e-02, 3.86100379e-03,
          1.35135129e-02, 1.15830116e-02, 9.65250935e-03, 1.15830116e-02,
          1.93050189e-03, 1.54440152e-02, 1.73745174e-02, 5.79150580e-03,
          7.72200758e-03, 1.15830116e-02, 2.50965245e-02, 1.35135129e-02,
          2.31660232e-02, 7.72200758e-03, 1.93050187e-02, 9.65250935e-03,
          5.79150580e-03, 1.15830116e-02, 7.72200758e-03, 0.,
          1.15830116e-02 ]
      - [ 2.93040294e-02, 1.28205130e-02, 5.49450563e-03, 6.95970729e-02,
          1.83150191e-02, 3.66300368e-03, 1.46520147e-02, 3.66300368e-03,
          2.19780225e-02, 1.83150184e-03, 5.49450563e-03, 5.49450563e-03,
          7.32600736e-03, 1.83150184e-03, 5.49450563e-03, 1.83150184e-03,
          7.32600736e-03, 1.83150184e-03, 7.32600736e-03, 0., 0.,
          3.66300368e-03, 1.09890113e-02, 1.83150184e-03, 9.15750954e-03,
          7.32600736e-03, 7.32600736e-03, 2.01465208e-02, 1.83150184e-03,
          1.83150184e-03, 1.83150191e-02, 2.38095243e-02, 3.66300368e-03,
          1.83150184e-03, 7.32600736e-03, 7.32600736e-03, 1.09890113e-02,
          5.49450563e-03, 1.46520147e-02, 1.83150191e-02, 1.83150184e-03,
          1.46520147e-02, 1.83150184e-03, 1.28205130e-02, 3.66300368e-03,
          1.64835174e-02, 3.66300368e-03, 2.74725277e-02, 5.49450563e-03,
          9.15750954e-03, 1.83150184e-03, 1.09890113e-02, 9.15750954e-03,
          7.32600736e-03, 5.49450563e-03, 9.15750954e-03, 1.64835174e-02,
          2.56410260e-02, 5.49450563e-03, 3.66300368e-03, 1.64835174e-02,
          5.49450563e-03, 1.46520147e-02, 1.83150184e-03, 2.19780225e-02,
          3.66300368e-03, 7.32600736e-03, 5.49450563e-03, 7.32600736e-03,
          9.15750954e-03, 5.49450563e-03, 1.09890113e-02, 3.66300368e-03,
          0., 1.83150184e-03, 0., 1.28205130e-02, 1.83150191e-02,
          1.09890113e-02, 1.09890113e-02, 5.49450563e-03, 5.49450563e-03,
          1.46520147e-02, 3.66300368e-03, 2.56410260e-02, 1.83150191e-02,
          3.66300368e-03, 2.38095243e-02, 1.83150191e-02, 2.01465208e-02,
          1.09890113e-02, 1.64835174e-02, 5.49450563e-03, 9.15750954e-03,
          9.15750954e-03, 5.49450563e-03, 5.49450563e-03, 1.28205130e-02,
          5.49450563e-03, 1.83150191e-02 ]
      - [ 1.35440184e-02, 6.77200919e-03, 4.51467279e-03, 5.86907454e-02,
          5.41760735e-02, 9.02934559e-03, 1.35440184e-02, 4.51467279e-03,
          1.58013552e-02, 6.77200919e-03, 0., 9.02934559e-03,
          4.51467279e-03, 2.25733640e-03, 0., 0., 4.51467279e-03,
          4.51467279e-03, 2.70880368e-02, 2.25733640e-03, 0.,
          2.25733640e-03, 4.51467279e-03, 2.25733630e-02, 4.51467279e-03,
          6.77200919e-03, 2.25733640e-03, 5.19187376e-02, 4.51467279e-03,
          4.51467279e-03, 2.25733640e-03, 2.48307008e-02, 9.02934559e-03,
          0., 9.02934559e-03, 9.02934559e-03, 4.51467279e-03,
          6.77200919e-03, 2.48307008e-02, 1.35440184e-02, 2.25733640e-03,
          1.35440184e-02, 0., 2.25733630e-02, 0., 6.77200919e-03, 0.,
          6.77200919e-03, 9.02934559e-03, 1.12866815e-02, 2.25733640e-03,
          2.93453727e-02, 2.25733640e-03, 9.02934559e-03, 0.,
          6.77200919e-03, 4.51467279e-03, 3.38600464e-02, 1.35440184e-02,
          2.25733640e-03, 9.02934559e-03, 1.35440184e-02, 1.58013552e-02,
          4.51467279e-03, 3.16027105e-02, 2.25733640e-03, 4.51467279e-03,
          0., 0., 4.51467279e-03, 0., 6.77200919e-03, 2.25733640e-03,
          6.77200919e-03, 0., 0., 1.12866815e-02, 1.58013552e-02,
          4.51467279e-03, 1.12866815e-02, 2.25733630e-02, 9.02934559e-03,
          2.03160271e-02, 6.77200919e-03, 1.80586912e-02, 2.25733630e-02,
          0., 1.58013552e-02, 9.02934559e-03, 2.03160271e-02,
          4.51467279e-03, 1.58013552e-02, 4.51467279e-03, 1.80586912e-02,
          9.02934559e-03, 6.77200919e-03, 4.51467279e-03, 9.02934559e-03,
          0., 1.35440184e-02 ]
      - [ 2.22222228e-02, 1.94444451e-02, 8.33333377e-03, 4.72222231e-02,
          1.66666675e-02, 5.55555569e-03, 2.22222228e-02, 8.33333377e-03,
          1.66666675e-02, 2.77777785e-03, 8.33333377e-03, 0.,
          1.11111114e-02, 2.77777785e-03, 8.33333377e-03, 0.,
          5.55555569e-03, 5.55555569e-03, 1.11111114e-02, 0., 0.,
          5.55555569e-03, 2.77777785e-03, 8.33333377e-03, 8.33333377e-03,
          5.55555569e-03, 2.77777785e-03, 3.33333351e-02, 5.55555569e-03,
          8.33333377e-03, 5.55555569e-03, 2.22222228e-02, 8.33333377e-03,
          5.55555569e-03, 5.55555569e-03, 0., 5.55555569e-03,
          5.55555569e-03, 3.33333351e-02, 1.38888890e-02, 0.,
          1.66666675e-02, 5.55555569e-03, 1.66666675e-02, 0.,
          1.38888890e-02, 0., 1.66666675e-02, 8.33333377e-03,
          1.11111114e-02, 0., 1.38888890e-02, 0., 8.33333377e-03, 0.,
          1.11111114e-02, 2.77777785e-03, 2.77777780e-02, 8.33333377e-03,
          5.55555569e-03, 1.11111114e-02, 1.66666675e-02, 1.38888890e-02,
          2.77777785e-03, 1.66666675e-02, 0., 2.77777785e-03,
          2.77777785e-03, 5.55555569e-03, 5.55555569e-03, 0.,
          5.55555569e-03, 8.33333377e-03, 1.38888890e-02, 2.77777785e-03,
          0., 1.38888890e-02, 1.94444451e-02, 5.55555569e-03,
          5.55555569e-03, 8.33333377e-03, 1.38888890e-02, 1.66666675e-02,
          2.77777785e-03, 1.66666675e-02, 1.94444451e-02, 2.77777785e-03,
          1.94444451e-02, 1.38888890e-02, 4.16666679e-02, 5.55555569e-03,
          2.22222228e-02, 2.77777785e-03, 1.94444451e-02, 1.11111114e-02,
          1.11111114e-02, 8.33333377e-03, 1.66666675e-02, 0.,
          1.94444451e-02 ]
      - [ 3.40681374e-02, 8.01603217e-03, 4.00801608e-03, 5.61122261e-02,
          2.00400800e-02, 6.01202436e-03, 2.40480974e-02, 4.00801608e-03,
          3.20641287e-02, 2.00400804e-03, 4.00801608e-03, 1.00200400e-02,
          1.60320643e-02, 8.01603217e-03, 2.00400804e-03, 0.,
          1.00200400e-02, 6.01202436e-03, 8.01603217e-03, 2.00400804e-03,
          0., 4.00801608e-03, 6.01202436e-03, 1.00200400e-02,
          4.00801608e-03, 1.00200400e-02, 2.00400804e-03, 4.00801599e-02,
          2.00400804e-03, 6.01202436e-03, 6.01202436e-03, 1.80360731e-02,
          1.00200400e-02, 4.00801608e-03, 4.00801608e-03, 4.00801608e-03,
          1.00200400e-02, 8.01603217e-03, 2.40480974e-02, 1.20240487e-02,
          2.00400804e-03, 8.01603217e-03, 4.00801608e-03, 2.20440887e-02,
          4.00801608e-03, 1.20240487e-02, 0., 2.80561130e-02,
          1.00200400e-02, 1.60320643e-02, 2.00400804e-03, 8.01603217e-03,
          1.00200400e-02, 6.01202436e-03, 0., 1.00200400e-02,
          1.00200400e-02, 2.20440887e-02, 1.40280565e-02, 4.00801608e-03,
          1.60320643e-02, 6.01202436e-03, 2.00400800e-02, 4.00801608e-03,
          1.60320643e-02, 4.00801608e-03, 4.00801608e-03, 2.00400804e-03,
          1.20240487e-02, 1.20240487e-02, 2.00400804e-03, 4.00801608e-03,
          8.01603217e-03, 4.00801608e-03, 4.00801608e-03, 0.,
          1.20240487e-02, 1.60320643e-02, 2.00400804e-03, 1.20240487e-02,
          6.01202436e-03, 1.00200400e-02, 1.60320643e-02, 4.00801608e-03,
          2.60521043e-02, 1.80360731e-02, 4.00801608e-03, 1.20240487e-02,
          1.40280565e-02, 1.60320643e-02, 4.00801608e-03, 1.80360731e-02,
          8.01603217e-03, 1.80360731e-02, 4.00801608e-03, 0.,
          8.01603217e-03, 8.01603217e-03, 0., 1.20240487e-02 ]
      - [ 1.20481923e-02, 1.20481923e-02, 9.03614424e-03, 8.13253000e-02,
          1.50602404e-02, 6.02409616e-03, 0., 1.50602404e-02,
          1.20481923e-02, 9.03614424e-03, 6.02409616e-03, 0.,
          1.20481923e-02, 0., 6.02409616e-03, 0., 3.01204808e-03,
          6.02409616e-03, 9.03614424e-03, 0., 0., 3.01204808e-03,
          9.03614424e-03, 3.01204808e-03, 0., 1.20481923e-02,
          2.40963846e-02, 5.42168655e-02, 0., 6.02409616e-03,
          1.20481923e-02, 1.20481923e-02, 0., 0., 6.02409616e-03,
          6.02409616e-03, 3.01204808e-03, 1.20481923e-02, 2.71084327e-02,
          2.71084327e-02, 3.01204808e-03, 2.10843366e-02, 1.50602404e-02,
          2.71084327e-02, 3.01204808e-03, 6.02409616e-03, 0.,
          2.10843366e-02, 6.02409616e-03, 1.80722885e-02, 0.,
          3.91566232e-02, 0., 6.02409616e-03, 3.01204808e-03,
          3.01204808e-03, 3.01204808e-03, 5.42168655e-02, 6.02409616e-03,
          0., 1.80722885e-02, 9.03614424e-03, 6.02409616e-03, 0.,
          1.80722885e-02, 0., 0., 0., 1.20481923e-02, 1.20481923e-02,
          3.01204808e-03, 3.01204808e-03, 3.01204808e-03, 3.01204808e-03,
          0., 0., 9.03614424e-03, 2.10843366e-02, 6.02409616e-03, 0.,
          6.02409616e-03, 1.20481923e-02, 6.02409616e-03, 3.01204808e-03,
          6.02409616e-03, 1.50602404e-02, 6.02409616e-03, 2.40963846e-02,
          1.80722885e-02, 2.10843366e-02, 3.01204808e-03, 1.80722885e-02,
          1.20481923e-02, 1.50602404e-02, 1.20481923e-02, 6.02409616e-03,
          3.01204808e-03, 1.80722885e-02, 3.01204808e-03, 3.01204808e-03 ]
      - [ 3.35968398e-02, 5.92885399e-03, 5.92885399e-03, 7.90513866e-03,
          0., 9.88142379e-03, 3.16205546e-02, 1.97628476e-02,
          1.18577080e-02, 0., 9.88142379e-03, 1.77865624e-02,
          1.38339922e-02, 5.92885399e-03, 7.90513866e-03, 1.97628466e-03,
          9.88142379e-03, 1.18577080e-02, 1.18577080e-02, 1.97628466e-03,
          0., 5.92885399e-03, 1.18577080e-02, 1.38339922e-02,
          5.92885399e-03, 7.90513866e-03, 3.95256933e-03, 3.55731249e-02,
          1.97628466e-03, 1.97628466e-03, 3.95256933e-03, 1.97628476e-02,
          1.38339922e-02, 0., 1.97628466e-03, 7.90513866e-03,
          9.88142379e-03, 9.88142379e-03, 1.77865624e-02, 1.18577080e-02,
          3.95256933e-03, 1.18577080e-02, 0., 2.96442695e-02, 0.,
          7.90513866e-03, 1.97628466e-03, 1.97628466e-03, 5.92885399e-03,
          1.38339922e-02, 3.95256933e-03, 0., 5.92885399e-03,
          7.90513866e-03, 0., 1.18577080e-02, 9.88142379e-03,
          2.56917011e-02, 3.95256933e-03, 5.92885399e-03, 1.18577080e-02,
          1.18577080e-02, 2.56917011e-02, 1.97628466e-03, 1.97628476e-02,
          9.88142379e-03, 3.95256933e-03, 1.97628466e-03, 5.92885399e-03,
          5.92885399e-03, 1.97628466e-03, 9.88142379e-03, 9.88142379e-03,
          1.97628466e-03, 1.97628466e-03, 0., 2.17391308e-02,
          1.97628476e-02, 3.95256933e-03, 9.88142379e-03, 1.18577080e-02,
          3.95256933e-03, 1.97628476e-02, 3.95256933e-03, 2.56917011e-02,
          1.38339922e-02, 1.18577080e-02, 2.76679844e-02, 1.18577080e-02,
          3.35968398e-02, 2.17391308e-02, 9.88142379e-03, 5.92885399e-03,
          1.77865624e-02, 9.88142379e-03, 3.95256933e-03, 5.92885399e-03,
          1.18577080e-02, 0., 1.18577080e-02 ]
      - [ 2.24719103e-02, 1.82584263e-02, 8.42696615e-03, 1.12359552e-02,
          0., 9.83146112e-03, 3.23033705e-02, 1.40449442e-02,
          1.12359552e-02, 1.40449440e-03, 9.83146112e-03, 1.68539323e-02,
          1.68539323e-02, 5.61797759e-03, 9.83146112e-03, 1.40449440e-03,
          0., 1.12359552e-02, 1.12359552e-02, 1.40449440e-03, 0.,
          4.21348307e-03, 1.40449442e-02, 2.24719103e-02, 7.02247210e-03,
          1.82584263e-02, 2.80898879e-03, 3.08988765e-02, 1.40449440e-03,
          0., 5.61797759e-03, 1.26404492e-02, 9.83146112e-03,
          1.40449440e-03, 5.61797759e-03, 2.80898879e-03, 8.42696615e-03,
          1.54494382e-02, 2.38764044e-02, 1.12359552e-02, 2.80898879e-03,
          1.54494382e-02, 4.21348307e-03, 2.38764044e-02, 4.21348307e-03,
          1.68539323e-02, 9.83146112e-03, 5.61797759e-03, 1.26404492e-02,
          9.83146112e-03, 5.61797759e-03, 0., 5.61797759e-03,
          8.42696615e-03, 0., 5.61797759e-03, 2.10674163e-02,
          1.40449442e-02, 1.26404492e-02, 7.02247210e-03, 4.21348307e-03,
          1.12359552e-02, 1.12359552e-02, 2.80898879e-03, 2.24719103e-02,
          5.61797759e-03, 1.40449440e-03, 5.61797759e-03, 8.42696615e-03,
          5.61797759e-03, 5.61797759e-03, 5.61797759e-03, 1.12359552e-02,
          0., 1.40449440e-03, 0., 1.54494382e-02, 2.24719103e-02,
          2.80898879e-03, 1.12359552e-02, 1.12359552e-02, 8.42696615e-03,
          1.54494382e-02, 5.61797759e-03, 1.68539323e-02, 1.68539323e-02,
          7.02247210e-03, 2.10674163e-02, 1.54494382e-02, 2.38764044e-02,
          1.26404492e-02, 1.12359552e-02, 1.12359552e-02, 1.96629222e-02,
          1.54494382e-02, 7.02247210e-03, 5.61797759e-03, 1.12359552e-02,
          0., 1.26404492e-02 ]
      - [ 3.48432064e-02, 1.39372824e-02, 1.04529615e-02, 0., 0.,
          3.48432059e-03, 2.43902449e-02, 1.39372824e-02, 1.04529615e-02,
          3.48432059e-03, 1.39372824e-02, 3.48432059e-03, 1.74216032e-02,
          3.48432059e-03, 1.39372824e-02, 0., 1.04529615e-02,
          3.48432059e-03, 3.48432059e-03, 0., 0., 6.96864119e-03,
          3.48432059e-03, 1.74216032e-02, 6.96864119e-03, 1.04529615e-02,
          0., 2.78745648e-02, 3.48432059e-03, 1.04529615e-02,
          3.48432059e-03, 1.39372824e-02, 1.04529615e-02, 3.48432059e-03,
          6.96864119e-03, 0., 3.48432059e-03, 6.96864119e-03,
          4.18118462e-02, 1.39372824e-02, 3.48432059e-03, 1.74216032e-02,
          3.48432059e-03, 1.39372824e-02, 0., 2.09059231e-02,
          3.48432059e-03, 2.09059231e-02, 1.04529615e-02, 1.39372824e-02,
          0., 0., 0., 1.04529615e-02, 0., 1.39372824e-02, 0.,
          3.83275263e-02, 1.04529615e-02, 6.96864119e-03, 1.04529615e-02,
          2.09059231e-02, 1.74216032e-02, 3.48432059e-03, 2.43902449e-02,
          0., 6.96864119e-03, 0., 3.48432059e-03, 6.96864119e-03, 0., 0.,
          6.96864119e-03, 1.39372824e-02, 3.48432059e-03, 0.,
          1.39372824e-02, 2.43902449e-02, 0., 1.04529615e-02,
          3.48432059e-03, 1.39372824e-02, 2.09059231e-02, 3.48432059e-03,
          2.43902449e-02, 1.04529615e-02, 6.96864119e-03, 2.43902449e-02,
          1.74216032e-02, 3.83275263e-02, 6.96864119e-03, 1.74216032e-02,
          6.96864119e-03, 2.09059231e-02, 1.04529615e-02, 6.96864119e-03,
          1.04529615e-02, 1.04529615e-02, 0., 1.39372824e-02 ]
      - [ 3.10880821e-02, 7.77202053e-03, 1.03626940e-02, 0., 0.,
          1.29533671e-02, 3.10880821e-02, 5.18134702e-03, 2.07253881e-02,
          2.59067351e-03, 2.59067351e-03, 1.03626940e-02, 1.55440411e-02,
          7.77202053e-03, 5.18134702e-03, 2.59067351e-03, 1.03626940e-02,
          2.59067351e-03, 1.03626940e-02, 0., 0., 5.18134702e-03,
          7.77202053e-03, 1.29533671e-02, 5.18134702e-03, 1.29533671e-02,
          0., 3.62694301e-02, 2.59067351e-03, 1.29533671e-02,
          2.59067351e-03, 1.81347150e-02, 7.77202053e-03, 5.18134702e-03,
          0., 5.18134702e-03, 1.29533671e-02, 7.77202053e-03,
          2.59067342e-02, 1.29533671e-02, 7.77202053e-03, 1.29533671e-02,
          2.59067351e-03, 3.10880821e-02, 5.18134702e-03, 1.29533671e-02,
          2.59067351e-03, 1.55440411e-02, 7.77202053e-03, 1.81347150e-02,
          2.59067351e-03, 2.59067351e-03, 1.29533671e-02, 5.18134702e-03,
          0., 1.03626940e-02, 1.29533671e-02, 2.07253881e-02,
          1.29533671e-02, 5.18134702e-03, 1.55440411e-02, 1.03626940e-02,
          2.07253881e-02, 5.18134702e-03, 2.07253881e-02, 0.,
          7.77202053e-03, 2.59067351e-03, 1.03626940e-02, 5.18134702e-03,
          0., 2.59067351e-03, 1.29533671e-02, 2.59067351e-03,
          2.59067351e-03, 0., 2.84974091e-02, 2.84974091e-02, 0.,
          1.29533671e-02, 5.18134702e-03, 1.29533671e-02, 1.29533671e-02,
          7.77202053e-03, 2.84974091e-02, 1.55440411e-02, 0.,
          2.07253881e-02, 1.81347150e-02, 1.55440411e-02, 1.03626940e-02,
          1.03626940e-02, 1.03626940e-02, 2.33160611e-02, 7.77202053e-03,
          0., 1.03626940e-02, 7.77202053e-03, 0., 7.77202053e-03 ]
      - [ 1.97863076e-02, 5.14444010e-03, 4.74871369e-03, 9.89315361e-02,
          8.62682983e-02, 3.95726133e-03, 3.28452699e-02, 3.95726133e-03,
          5.93589246e-03, 5.54016605e-03, 3.56153538e-03, 5.93589246e-03,
          1.97863067e-03, 6.72734436e-03, 3.95726133e-03, 1.18717842e-03,
          2.77008303e-03, 1.34546887e-02, 2.77008303e-03, 1.18717842e-03,
          0., 1.18717842e-03, 1.02888802e-02, 1.78076774e-02,
          4.74871369e-03, 1.02888802e-02, 3.95726133e-03, 1.26632368e-02,
          5.14444010e-03, 1.97863067e-03, 2.57222001e-02, 2.05777604e-02,
          2.37435685e-03, 7.51879672e-03, 1.10803321e-02, 3.95726133e-03,
          4.74871369e-03, 4.35298774e-03, 1.46418680e-02, 5.93589246e-03,
          4.35298774e-03, 1.66204982e-02, 1.34546887e-02, 8.70597549e-03,
          1.58290453e-02, 1.02888802e-02, 3.95726133e-03, 2.65136529e-02,
          7.12307077e-03, 5.14444010e-03, 3.95726151e-04, 1.54333198e-02,
          4.35298774e-03, 2.01820340e-02, 3.60110812e-02, 1.97863067e-03,
          1.54333198e-02, 1.54333198e-02, 1.54333198e-02, 8.70597549e-03,
          7.12307077e-03, 4.74871369e-03, 7.12307077e-03, 1.18717842e-03,
          1.18717849e-02, 3.56153538e-03, 1.18717842e-03, 6.33161841e-03,
          4.74871369e-03, 1.06846057e-02, 1.50375934e-02, 3.56153538e-03,
          3.16580920e-03, 1.22675104e-02, 9.89315379e-03, 0.,
          8.31024908e-03, 1.97863076e-02, 4.35298774e-03, 7.91452266e-03,
          6.72734436e-03, 3.95726133e-03, 5.54016605e-03, 1.97863067e-03,
          2.96794605e-02, 1.30589632e-02, 3.16580920e-03, 5.93589246e-03,
          7.12307077e-03, 1.50375934e-02, 7.51879672e-03, 2.37435685e-03,
          7.91452301e-04, 6.72734436e-03, 4.74871369e-03, 1.97863067e-03,
          1.58290460e-03, 7.91452266e-03, 3.16580920e-03, 3.16580920e-03 ]
      - [ 3.17460299e-02, 0., 7.93650746e-03, 0., 5.29100513e-03,
          1.32275131e-02, 2.64550257e-03, 1.32275131e-02, 2.64550257e-03,
          3.43915336e-02, 5.29100513e-03, 5.29100513e-03, 2.64550257e-03,
          1.05820103e-02, 2.64550257e-03, 5.29100513e-03, 5.29100513e-03,
          0., 1.85185187e-02, 5.29100513e-03, 2.64550257e-03,
          7.93650746e-03, 2.11640205e-02, 0., 7.93650746e-03,
          1.85185187e-02, 2.11640205e-02, 7.93650746e-03, 7.93650746e-03,
          5.29100513e-03, 1.05820103e-02, 2.38095224e-02, 0.,
          7.93650746e-03, 5.29100513e-03, 1.05820103e-02, 2.11640205e-02,
          2.64550257e-03, 2.11640205e-02, 0., 2.64550257e-03,
          1.05820103e-02, 2.64550257e-03, 5.29100513e-03, 2.91005280e-02,
          1.05820103e-02, 1.58730149e-02, 0., 1.85185187e-02,
          2.38095224e-02, 0., 1.58730149e-02, 7.93650746e-03,
          1.05820103e-02, 2.64550257e-03, 2.64550257e-03, 1.05820103e-02,
          7.93650746e-03, 2.11640205e-02, 5.29100513e-03, 1.32275131e-02,
          2.11640205e-02, 7.93650746e-03, 0., 5.29100513e-03,
          2.64550257e-03, 2.64550257e-03, 2.64550261e-02, 1.85185187e-02,
          1.32275131e-02, 1.05820103e-02, 2.64550257e-03, 5.29100513e-03,
          0., 0., 0., 1.05820103e-02, 2.64550261e-02, 2.64550257e-03,
          2.64550257e-03, 3.17460299e-02, 2.64550257e-03, 2.64550261e-02,
          1.32275131e-02, 2.64550257e-03, 1.32275131e-02, 5.29100513e-03,
          1.05820103e-02, 1.32275131e-02, 1.85185187e-02, 1.58730149e-02,
          5.29100513e-03, 5.29100513e-03, 2.64550257e-03, 3.43915336e-02,
          0., 1.58730149e-02, 2.38095224e-02, 7.93650746e-03, 0. ]
      - [ 3.16622704e-02, 0., 5.27704507e-03, 5.27704507e-03,
          5.27704507e-03, 1.31926127e-02, 5.27704507e-03, 1.31926127e-02,
          5.27704507e-03, 1.84696577e-02, 5.27704507e-03, 7.91556761e-03,
          1.31926127e-02, 7.91556761e-03, 5.27704507e-03, 2.63852254e-03,
          2.63852254e-03, 2.63852254e-03, 1.58311352e-02, 2.63852254e-03,
          0., 5.27704507e-03, 1.58311352e-02, 0., 7.91556761e-03,
          1.58311352e-02, 2.90237479e-02, 1.31926127e-02, 7.91556761e-03,
          1.31926127e-02, 7.91556761e-03, 2.90237479e-02, 5.27704507e-03,
          5.27704507e-03, 5.27704507e-03, 1.05540901e-02, 1.31926127e-02,
          2.63852254e-03, 1.84696577e-02, 5.27704507e-03, 5.27704507e-03,
          1.05540901e-02, 2.63852254e-03, 2.63852254e-03, 1.05540901e-02,
          1.05540901e-02, 1.58311352e-02, 0., 1.58311352e-02,
          1.05540901e-02, 5.27704507e-03, 1.05540901e-02, 2.63852254e-03,
          7.91556761e-03, 2.63852254e-03, 5.27704507e-03, 1.05540901e-02,
          7.91556761e-03, 2.11081803e-02, 2.63852254e-03, 1.31926127e-02,
          2.37467028e-02, 5.27704507e-03, 0., 7.91556761e-03,
          2.63852254e-03, 7.91556761e-03, 2.63852254e-02, 1.31926127e-02,
          1.05540901e-02, 7.91556761e-03, 0., 7.91556761e-03, 0.,
          2.63852254e-03, 5.27704507e-03, 1.05540901e-02, 2.11081803e-02,
          2.63852254e-03, 7.91556761e-03, 4.48548831e-02, 2.63852254e-03,
          4.22163606e-02, 1.05540901e-02, 5.27704507e-03, 1.84696577e-02,
          1.05540901e-02, 7.91556761e-03, 1.58311352e-02, 2.11081803e-02,
          5.27704507e-03, 2.63852254e-03, 5.27704507e-03, 5.27704507e-03,
          3.16622704e-02, 5.27704507e-03, 1.58311352e-02, 2.37467028e-02,
          5.27704507e-03, 2.63852254e-03 ]
      - [ 3.24324332e-02, 8.10810830e-03, 5.40540554e-03, 8.10810830e-03,
          2.70270277e-03, 1.62162166e-02, 5.40540554e-03, 1.08108111e-02,
          1.08108111e-02, 2.43243240e-02, 8.10810830e-03, 2.70270277e-03,
          1.35135138e-02, 8.10810830e-03, 1.08108111e-02, 2.70270277e-03,
          0., 2.70270277e-03, 1.62162166e-02, 2.70270277e-03, 0.,
          8.10810830e-03, 1.35135138e-02, 0., 8.10810830e-03,
          1.62162166e-02, 2.16216221e-02, 1.08108111e-02, 5.40540554e-03,
          5.40540554e-03, 8.10810830e-03, 2.43243240e-02, 8.10810830e-03,
          5.40540554e-03, 5.40540554e-03, 8.10810830e-03, 1.35135138e-02,
          0., 1.62162166e-02, 5.40540554e-03, 2.70270277e-03,
          1.62162166e-02, 0., 8.10810830e-03, 8.10810830e-03,
          1.35135138e-02, 1.35135138e-02, 0., 1.62162166e-02,
          2.43243240e-02, 5.40540554e-03, 1.08108111e-02, 1.08108111e-02,
          1.08108111e-02, 2.70270277e-03, 5.40540554e-03, 8.10810830e-03,
          8.10810830e-03, 2.16216221e-02, 5.40540554e-03, 1.08108111e-02,
          1.35135138e-02, 5.40540554e-03, 0., 1.08108111e-02,
          2.70270277e-03, 5.40540554e-03, 2.70270277e-02, 1.62162166e-02,
          8.10810830e-03, 5.40540554e-03, 2.70270277e-03, 0., 0., 0., 0.,
          1.62162166e-02, 1.89189203e-02, 2.70270277e-03, 8.10810830e-03,
          3.51351351e-02, 2.70270277e-03, 3.24324332e-02, 5.40540554e-03,
          5.40540554e-03, 1.89189203e-02, 1.08108111e-02, 1.62162166e-02,
          1.62162166e-02, 2.43243240e-02, 1.62162166e-02, 0.,
          1.08108111e-02, 2.70270277e-03, 2.97297314e-02, 5.40540554e-03,
          1.89189203e-02, 2.16216221e-02, 2.70270277e-03, 2.70270277e-03 ]
      - [ 3.13901380e-02, 0., 0., 2.69058309e-02, 8.96861032e-03,
          2.24215258e-02, 0., 4.48430516e-03, 1.34529155e-02,
          1.79372206e-02, 4.48430516e-03, 4.48430516e-03, 4.48430516e-03,
          0., 0., 0., 0., 0., 0., 4.48430516e-03, 0., 0., 8.96861032e-03,
          2.24215258e-02, 4.48430516e-03, 4.48430516e-03, 2.24215258e-02,
          3.13901380e-02, 0., 8.96861032e-03, 0., 2.24215258e-02,
          8.96861032e-03, 8.96861032e-03, 0., 8.96861032e-03,
          1.34529155e-02, 8.96861032e-03, 0., 4.48430516e-03, 0.,
          8.96861032e-03, 2.24215258e-02, 8.96861032e-03, 0., 0.,
          4.48430516e-03, 8.07174891e-02, 1.79372206e-02, 1.79372206e-02,
          0., 4.48430516e-03, 8.96861032e-03, 4.48430516e-03,
          4.48430516e-02, 0., 4.48430516e-02, 4.93273586e-02,
          8.96861032e-03, 4.48430516e-03, 0., 8.96861032e-03,
          4.48430516e-03, 0., 1.34529155e-02, 8.96861032e-03, 0.,
          8.96861032e-03, 4.48430516e-03, 4.48430516e-03, 4.48430516e-03,
          4.48430516e-03, 0., 4.48430516e-03, 0., 0., 4.48430516e-03,
          2.24215258e-02, 4.48430516e-03, 4.48430516e-03, 2.24215258e-02,
          8.96861032e-03, 3.58744413e-02, 0., 0., 0., 0., 8.96861032e-03,
          2.69058309e-02, 2.69058309e-02, 1.34529155e-02, 4.48430516e-03,
          8.96861032e-03, 1.34529155e-02, 1.34529155e-02, 1.34529155e-02,
          1.79372206e-02, 2.24215258e-02, 4.48430516e-03, 0. ]
      - [ 3.60360369e-02, 4.50450461e-03, 4.50450461e-03, 1.80180185e-02,
          1.35135138e-02, 2.25225240e-02, 0., 4.50450461e-03,
          2.25225240e-02, 2.70270277e-02, 4.50450461e-03, 4.50450461e-03,
          4.50450461e-03, 0., 0., 0., 4.50450461e-03, 0., 9.00900923e-03,
          0., 0., 0., 9.00900923e-03, 1.80180185e-02, 0., 4.50450461e-03,
          2.25225240e-02, 4.05405425e-02, 0., 1.80180185e-02, 0.,
          1.80180185e-02, 4.50450461e-03, 4.50450461e-03, 9.00900923e-03,
          0., 4.50450461e-03, 4.50450461e-03, 4.50450461e-03,
          4.50450461e-03, 0., 1.80180185e-02, 1.80180185e-02,
          2.25225240e-02, 0., 0., 4.50450461e-03, 8.10810849e-02,
          1.35135138e-02, 3.15315314e-02, 0., 4.50450461e-03,
          1.80180185e-02, 9.00900923e-03, 3.15315314e-02, 4.50450461e-03,
          2.25225240e-02, 4.95495498e-02, 4.50450461e-03, 9.00900923e-03,
          4.50450461e-03, 1.35135138e-02, 9.00900923e-03, 0.,
          4.50450461e-03, 0., 0., 1.80180185e-02, 4.50450461e-03,
          4.50450461e-03, 9.00900923e-03, 0., 0., 0., 4.50450461e-03, 0.,
          4.50450461e-03, 1.80180185e-02, 0., 4.50450461e-03,
          3.15315314e-02, 9.00900923e-03, 3.15315314e-02, 1.35135138e-02,
          0., 4.50450461e-03, 4.50450461e-03, 1.80180185e-02,
          9.00900923e-03, 1.80180185e-02, 4.50450461e-03, 0.,
          4.50450461e-03, 0., 4.50450461e-03, 1.80180185e-02,
          9.00900923e-03, 2.25225240e-02, 9.00900923e-03, 0. ]
      - [ 3.30882370e-02, 3.67647060e-03, 1.10294120e-02, 1.47058824e-02,
          3.67647060e-03, 1.47058824e-02, 3.67647060e-03, 3.67647060e-03,
          0., 2.57352944e-02, 1.10294120e-02, 3.67647060e-03,
          3.67647060e-03, 0., 0., 0., 7.35294120e-03, 0., 7.35294120e-03,
          0., 0., 0., 1.83823537e-02, 0., 0., 7.35294120e-03,
          7.35294120e-03, 3.67647060e-03, 3.67647060e-03, 7.35294120e-03,
          3.67647060e-03, 3.30882370e-02, 7.35294120e-03, 7.35294120e-03,
          0., 1.10294120e-02, 2.20588241e-02, 7.35294120e-03,
          2.57352944e-02, 7.35294120e-03, 3.67647060e-03, 1.10294120e-02,
          0., 7.35294120e-03, 1.10294120e-02, 1.47058824e-02,
          1.10294120e-02, 0., 1.47058824e-02, 1.83823537e-02, 0.,
          7.35294120e-03, 1.83823537e-02, 1.47058824e-02, 3.67647060e-03,
          3.67647060e-03, 1.10294120e-02, 7.35294120e-03, 1.83823537e-02,
          3.67647060e-03, 0., 3.30882370e-02, 3.67647060e-03,
          3.67647060e-03, 1.47058824e-02, 0., 3.67647060e-03,
          3.67647074e-02, 2.20588241e-02, 1.10294120e-02, 3.67647060e-03,
          3.67647060e-03, 3.67647060e-03, 0., 0., 0., 7.35294120e-03,
          2.57352944e-02, 3.67647060e-03, 3.67647060e-03, 4.41176482e-02,
          0., 3.67647074e-02, 7.35294120e-03, 7.35294120e-03, 0.,
          1.10294120e-02, 2.94117648e-02, 1.10294120e-02, 2.94117648e-02,
          1.47058824e-02, 1.47058824e-02, 1.47058824e-02, 3.67647060e-03,
          3.30882370e-02, 0., 3.30882370e-02, 1.83823537e-02,
          3.67647060e-03, 7.35294120e-03 ]
      - [ 4.06976752e-02, 0., 5.81395347e-03, 2.90697673e-03,
          5.81395347e-03, 1.74418613e-02, 2.90697673e-03, 1.16279069e-02,
          0., 3.77906971e-02, 1.45348832e-02, 5.81395347e-03, 0.,
          5.81395347e-03, 0., 2.90697673e-03, 2.90697673e-03, 0.,
          1.74418613e-02, 5.81395347e-03, 0., 5.81395347e-03,
          2.32558139e-02, 0., 2.90697673e-03, 2.03488376e-02,
          2.61627901e-02, 8.72093067e-03, 8.72093067e-03, 1.45348832e-02,
          5.81395347e-03, 2.61627901e-02, 2.90697673e-03, 5.81395347e-03,
          8.72093067e-03, 8.72093067e-03, 1.74418613e-02, 0.,
          2.90697664e-02, 0., 0., 8.72093067e-03, 0., 5.81395347e-03,
          3.48837227e-02, 1.16279069e-02, 1.74418613e-02, 0.,
          1.45348832e-02, 2.32558139e-02, 0., 1.45348832e-02,
          8.72093067e-03, 1.45348832e-02, 2.90697673e-03, 0.,
          1.16279069e-02, 5.81395347e-03, 2.03488376e-02, 5.81395347e-03,
          1.16279069e-02, 2.32558139e-02, 5.81395347e-03, 0.,
          5.81395347e-03, 2.90697673e-03, 2.90697673e-03, 2.61627901e-02,
          2.32558139e-02, 1.45348832e-02, 8.72093067e-03, 5.81395347e-03,
          5.81395347e-03, 0., 2.90697673e-03, 0., 8.72093067e-03,
          2.61627901e-02, 2.90697673e-03, 2.90697673e-03, 2.61627901e-02,
          2.90697673e-03, 3.19767445e-02, 8.72093067e-03, 2.90697673e-03,
          5.81395347e-03, 1.45348832e-02, 0., 1.16279069e-02,
          1.74418613e-02, 8.72093067e-03, 5.81395347e-03, 5.81395347e-03,
          1.16279069e-02, 2.03488376e-02, 2.90697673e-03, 1.74418613e-02,
          1.74418613e-02, 1.16279069e-02, 0. ]
      - [ 4.42477874e-02, 2.94985250e-03, 8.84955749e-03, 2.94985250e-03,
          2.94985250e-03, 1.76991150e-02, 5.89970499e-03, 8.84955749e-03,
          0., 2.65486725e-02, 8.84955749e-03, 5.89970499e-03,
          1.47492625e-02, 5.89970499e-03, 0., 2.94985250e-03,
          2.94985250e-03, 2.94985250e-03, 1.76991150e-02, 2.94985250e-03,
          0., 5.89970499e-03, 1.76991150e-02, 0., 5.89970499e-03,
          1.76991150e-02, 2.35988200e-02, 8.84955749e-03, 8.84955749e-03,
          1.47492625e-02, 8.84955749e-03, 2.94985250e-02, 5.89970499e-03,
          5.89970499e-03, 5.89970499e-03, 5.89970499e-03, 1.76991150e-02,
          2.94985250e-03, 2.35988200e-02, 2.94985250e-03, 5.89970499e-03,
          1.47492625e-02, 2.94985250e-03, 2.94985250e-03, 1.17994100e-02,
          1.17994100e-02, 1.47492625e-02, 0., 1.76991150e-02,
          1.17994100e-02, 5.89970499e-03, 8.84955749e-03, 5.89970499e-03,
          8.84955749e-03, 5.89970499e-03, 0., 5.89970499e-03,
          8.84955749e-03, 2.06489675e-02, 5.89970499e-03, 1.17994100e-02,
          2.35988200e-02, 2.94985250e-03, 0., 8.84955749e-03,
          2.94985250e-03, 2.94985250e-03, 3.24483775e-02, 1.47492625e-02,
          8.84955749e-03, 8.84955749e-03, 0., 5.89970499e-03, 0.,
          2.94985250e-03, 5.89970499e-03, 8.84955749e-03, 2.06489675e-02,
          2.94985250e-03, 5.89970499e-03, 3.83480825e-02, 2.94985250e-03,
          4.12979349e-02, 8.84955749e-03, 8.84955749e-03, 5.89970499e-03,
          8.84955749e-03, 0., 1.76991150e-02, 2.35988200e-02,
          5.89970499e-03, 2.94985250e-03, 5.89970499e-03, 5.89970499e-03,
          2.94985250e-02, 2.94985250e-03, 2.06489675e-02, 2.06489675e-02,
          8.84955749e-03, 0. ]
      - [ 3.62537764e-02, 6.04229607e-03, 3.02114803e-03, 6.04229607e-03,
          3.02114803e-03, 2.41691843e-02, 9.06344410e-03, 9.06344410e-03,
          3.02114803e-03, 3.02114803e-02, 1.20845921e-02, 3.02114803e-03,
          1.20845921e-02, 9.06344410e-03, 9.06344410e-03, 0.,
          3.02114803e-03, 0., 1.20845921e-02, 6.04229607e-03, 0.,
          9.06344410e-03, 1.51057402e-02, 0., 3.02114803e-03,
          1.51057402e-02, 2.41691843e-02, 9.06344410e-03, 6.04229607e-03,
          1.20845921e-02, 9.06344410e-03, 2.71903314e-02, 1.20845921e-02,
          6.04229607e-03, 3.02114803e-03, 3.02114803e-03, 1.51057402e-02,
          0., 2.11480372e-02, 6.04229607e-03, 3.02114803e-03,
          1.81268882e-02, 0., 6.04229607e-03, 1.51057402e-02,
          9.06344410e-03, 1.51057402e-02, 0., 1.81268882e-02,
          2.41691843e-02, 6.04229607e-03, 1.20845921e-02, 9.06344410e-03,
          1.20845921e-02, 3.02114803e-03, 0., 6.04229607e-03,
          9.06344410e-03, 1.81268882e-02, 6.04229607e-03, 1.51057402e-02,
          1.81268882e-02, 6.04229607e-03, 0., 1.20845921e-02,
          3.02114803e-03, 3.02114803e-03, 3.02114803e-02, 1.81268882e-02,
          6.04229607e-03, 9.06344410e-03, 3.02114803e-03, 0., 0., 0., 0.,
          1.81268882e-02, 1.81268882e-02, 3.02114803e-03, 9.06344410e-03,
          3.62537764e-02, 3.02114803e-03, 2.71903314e-02, 1.20845921e-02,
          6.04229607e-03, 6.04229607e-03, 1.20845921e-02, 0.,
          1.81268882e-02, 2.11480372e-02, 6.04229607e-03, 0.,
          6.04229607e-03, 3.02114803e-03, 2.71903314e-02, 6.04229607e-03,
          2.11480372e-02, 2.11480372e-02, 6.04229607e-03, 6.04229607e-03 ]
      - [ 3.61445770e-02, 0., 2.40963846e-02, 4.01606411e-03,
          4.01606411e-03, 2.00803205e-02, 4.01606411e-03, 4.01606411e-03,
          0., 3.21285129e-02, 8.03212821e-03, 4.01606411e-03, 0., 0., 0.,
          0., 4.01606411e-03, 0., 4.01606411e-03, 0., 0., 0.,
          2.00803205e-02, 4.01606411e-03, 4.01606411e-03, 1.60642564e-02,
          1.60642564e-02, 4.01606411e-03, 4.01606411e-03, 1.60642564e-02,
          0., 3.21285129e-02, 1.20481923e-02, 4.01606411e-03, 0.,
          8.03212821e-03, 2.81124488e-02, 8.03212821e-03, 3.21285129e-02,
          8.03212821e-03, 4.01606411e-03, 1.20481923e-02, 0.,
          1.20481923e-02, 1.60642564e-02, 1.60642564e-02, 1.60642564e-02,
          0., 1.20481923e-02, 1.60642564e-02, 0., 8.03212821e-03,
          2.40963846e-02, 1.20481923e-02, 0., 4.01606411e-03,
          8.03212821e-03, 4.01606411e-03, 1.60642564e-02, 4.01606411e-03,
          0., 3.61445770e-02, 4.01606411e-03, 4.01606411e-03,
          8.03212821e-03, 0., 4.01606411e-03, 3.61445770e-02,
          2.40963846e-02, 1.20481923e-02, 4.01606411e-03, 0.,
          4.01606411e-03, 0., 4.01606411e-03, 0., 4.01606411e-03,
          3.21285129e-02, 0., 8.03212821e-03, 4.41767052e-02, 0.,
          3.61445770e-02, 2.40963846e-02, 8.03212821e-03, 0.,
          4.01606411e-03, 4.01606411e-03, 1.20481923e-02, 1.60642564e-02,
          0., 1.20481923e-02, 1.60642564e-02, 4.01606411e-03,
          2.00803205e-02, 0., 3.21285129e-02, 1.60642564e-02,
          8.03212821e-03, 8.03212821e-03 ]
      - [ 2.12290511e-02, 1.11731840e-03, 4.84171323e-03, 1.05772808e-01,
          8.90130326e-02, 7.07635004e-03, 2.56983247e-02, 3.72439483e-03,
          2.23463681e-03, 8.93854722e-03, 1.04283057e-02, 1.48975791e-03,
          0., 6.70391042e-03, 7.44878955e-04, 1.86219742e-03,
          1.48975791e-03, 1.00558661e-02, 2.97951582e-03, 1.86219742e-03,
          0., 2.23463681e-03, 1.19180633e-02, 1.63873378e-02,
          1.48975791e-03, 1.34078208e-02, 4.84171323e-03, 7.44878966e-03,
          7.44878966e-03, 3.35195521e-03, 3.35195512e-02, 1.48975793e-02,
          4.09683445e-03, 8.93854722e-03, 1.41527001e-02, 5.58659201e-03,
          7.07635004e-03, 3.72439477e-04, 1.26629425e-02, 4.46927361e-03,
          2.23463681e-03, 1.97392926e-02, 7.07635004e-03, 1.08007444e-02,
          2.08566114e-02, 1.89944133e-02, 3.72439483e-03, 2.38361266e-02,
          8.19366891e-03, 7.44878966e-03, 3.72439477e-04, 2.27188077e-02,
          5.58659201e-03, 1.97392926e-02, 2.97951587e-02, 2.97951582e-03,
          2.97951582e-03, 9.31098685e-03, 1.22905029e-02, 8.56610760e-03,
          7.07635004e-03, 7.44878966e-03, 5.58659201e-03, 0.,
          2.23463681e-03, 6.70391042e-03, 2.23463681e-03, 5.58659201e-03,
          4.84171323e-03, 1.22905029e-02, 1.75046548e-02, 7.07635004e-03,
          2.97951582e-03, 7.07635004e-03, 1.41527001e-02, 3.72439477e-04,
          5.95903164e-03, 2.19739284e-02, 2.97951582e-03, 6.70391042e-03,
          8.93854722e-03, 3.72439483e-03, 1.04283057e-02, 2.97951582e-03,
          2.83054002e-02, 1.04283057e-02, 2.97951582e-03, 4.84171323e-03,
          8.56610760e-03, 1.41527001e-02, 6.70391042e-03, 1.86219742e-03,
          1.86219742e-03, 2.97951582e-03, 4.46927361e-03, 2.60707643e-03,
          3.35195521e-03, 1.11731840e-02, 6.70391042e-03, 3.35195521e-03 ]
      - [ 9.17431153e-03, 6.88073365e-03, 1.14678894e-03, 2.29357779e-02,
          6.88073365e-03, 2.06422005e-02, 0., 1.03211002e-02,
          3.44036683e-03, 1.14678890e-02, 1.60550456e-02, 8.02752282e-03,
          6.88073365e-03, 1.49082560e-02, 1.03211002e-02, 2.17889901e-02,
          5.73394448e-03, 0., 9.17431153e-03, 5.04587144e-02,
          1.26146786e-02, 2.29357788e-03, 9.17431153e-03, 2.29357788e-03,
          3.44036683e-03, 7.56880715e-02, 8.02752282e-03, 2.29357779e-02,
          1.37614673e-02, 5.73394448e-03, 8.02752282e-03, 4.58715577e-03,
          1.37614673e-02, 1.14678894e-03, 0., 1.94954127e-02,
          2.29357788e-03, 1.26146786e-02, 6.88073365e-03, 1.03211002e-02,
          1.03211002e-02, 2.29357788e-03, 1.83486231e-02, 3.44036683e-03,
          0., 0., 1.83486231e-02, 5.73394448e-03, 1.14678894e-03,
          1.94954127e-02, 1.14678894e-03, 2.29357779e-02, 2.29357788e-03,
          1.14678894e-03, 2.29357788e-03, 1.26146786e-02, 0.,
          3.55504565e-02, 1.14678894e-03, 2.29357788e-03, 1.14678894e-03,
          1.14678890e-02, 1.03211002e-02, 9.17431153e-03, 4.58715577e-03,
          5.73394485e-02, 1.26146786e-02, 1.14678894e-03, 1.14678894e-03,
          3.44036683e-03, 1.03211002e-02, 1.60550456e-02, 1.37614673e-02,
          1.72018334e-02, 2.29357788e-03, 1.49082560e-02, 9.17431153e-03,
          5.73394448e-03, 1.49082560e-02, 4.58715577e-03, 1.14678890e-02,
          5.73394448e-03, 9.17431153e-03, 1.03211002e-02, 1.94954127e-02,
          1.72018334e-02, 1.14678894e-03, 8.02752282e-03, 8.02752282e-03,
          6.88073365e-03, 0., 8.02752282e-03, 1.03211002e-02,
          5.73394448e-03, 4.58715577e-03, 1.14678894e-03, 3.44036683e-03,
          2.29357788e-03, 3.44036683e-03, 1.03211002e-02 ]
      - [ 1.39275761e-02, 4.17827303e-03, 0., 2.50696372e-02,
          4.17827303e-03, 1.81058496e-02, 0., 8.35654605e-03,
          1.39275764e-03, 8.35654605e-03, 5.57103055e-03, 1.53203337e-02,
          1.11420611e-02, 2.36768797e-02, 5.57103055e-03, 2.92479098e-02,
          5.57103055e-03, 0., 1.39275761e-02, 4.59610038e-02,
          1.39275761e-02, 2.78551527e-03, 1.39275761e-02, 0.,
          5.57103055e-03, 6.54596090e-02, 1.53203337e-02, 1.94986071e-02,
          2.50696372e-02, 1.94986071e-02, 4.17827303e-03, 2.78551527e-03,
          1.11420611e-02, 2.78551527e-03, 0., 8.35654605e-03, 0.,
          1.11420611e-02, 9.74930357e-03, 2.08913647e-02, 9.74930357e-03,
          2.78551527e-03, 2.08913647e-02, 2.78551527e-03, 0., 0.,
          1.25348186e-02, 5.57103055e-03, 1.39275764e-03, 1.25348186e-02,
          2.78551527e-03, 1.39275761e-02, 5.57103055e-03, 0.,
          6.96378807e-03, 5.57103055e-03, 0., 3.06406673e-02,
          2.78551527e-03, 2.78551527e-03, 1.39275764e-03, 1.11420611e-02,
          9.74930357e-03, 8.35654605e-03, 1.39275764e-03, 6.54596090e-02,
          6.96378807e-03, 5.57103055e-03, 0., 2.78551527e-03,
          2.78551527e-03, 2.36768797e-02, 8.35654605e-03, 1.67130921e-02,
          4.17827303e-03, 1.53203337e-02, 8.35654605e-03, 6.96378807e-03,
          8.35654605e-03, 1.11420611e-02, 1.81058496e-02, 6.96378807e-03,
          5.57103055e-03, 4.17827303e-03, 3.06406673e-02, 2.08913647e-02,
          1.39275764e-03, 5.57103055e-03, 6.96378807e-03, 4.17827303e-03,
          0., 6.96378807e-03, 8.35654605e-03, 5.57103055e-03,
          1.39275764e-03, 0., 5.57103055e-03, 2.78551527e-03,
          6.96378807e-03, 8.35654605e-03 ]
      - [ 1.13924053e-02, 2.53164559e-03, 0., 2.78481022e-02,
          1.13924053e-02, 1.64556969e-02, 1.26582279e-03, 7.59493653e-03,
          2.53164559e-03, 6.32911408e-03, 7.59493653e-03, 1.01265823e-02,
          6.32911408e-03, 1.77215189e-02, 1.01265823e-02, 3.03797461e-02,
          7.59493653e-03, 0., 8.86075944e-03, 3.79746854e-02,
          8.86075944e-03, 7.59493653e-03, 1.13924053e-02, 2.53164559e-03,
          7.59493653e-03, 8.35443065e-02, 6.32911408e-03, 2.53164563e-02,
          1.01265823e-02, 1.13924053e-02, 7.59493653e-03, 5.06329117e-03,
          2.53164563e-02, 0., 0., 1.51898731e-02, 2.53164559e-03,
          7.59493653e-03, 1.01265823e-02, 1.77215189e-02, 1.39240511e-02,
          6.32911408e-03, 1.51898731e-02, 5.06329117e-03, 0., 0.,
          1.77215189e-02, 7.59493653e-03, 2.53164559e-03, 6.32911408e-03,
          0., 1.77215189e-02, 3.79746826e-03, 1.26582279e-03,
          1.13924053e-02, 8.86075944e-03, 0., 2.27848105e-02,
          5.06329117e-03, 1.26582279e-03, 6.32911408e-03, 1.26582282e-02,
          7.59493653e-03, 1.01265823e-02, 8.86075944e-03, 5.56962043e-02,
          7.59493653e-03, 6.32911408e-03, 0., 5.06329117e-03,
          1.01265823e-02, 1.77215189e-02, 1.39240511e-02, 1.51898731e-02,
          2.53164559e-03, 1.39240511e-02, 2.53164559e-03, 5.06329117e-03,
          7.59493653e-03, 5.06329117e-03, 1.51898731e-02, 8.86075944e-03,
          7.59493653e-03, 1.26582282e-02, 2.65822783e-02, 2.02531647e-02,
          1.26582279e-03, 2.53164559e-03, 2.53164559e-03, 5.06329117e-03,
          0., 1.26582279e-03, 6.32911408e-03, 6.32911408e-03,
          7.59493653e-03, 0., 5.06329117e-03, 1.26582279e-03,
          1.13924053e-02, 7.59493653e-03 ]
      - [ 9.18484479e-03, 3.44431680e-03, 0., 1.95177943e-02,
          1.37772672e-02, 1.26291616e-02, 0., 1.03329504e-02,
          1.14810560e-03, 9.18484479e-03, 1.83696896e-02, 2.06659008e-02,
          4.59242240e-03, 2.52583232e-02, 8.03673919e-03, 2.41102166e-02,
          4.59242240e-03, 0., 6.88863359e-03, 3.32950614e-02,
          3.44431680e-03, 2.29621120e-03, 8.03673919e-03, 1.14810560e-03,
          9.18484479e-03, 7.11825490e-02, 1.26291616e-02, 2.06659008e-02,
          1.26291616e-02, 9.18484479e-03, 1.03329504e-02, 2.29621120e-03,
          1.83696896e-02, 2.29621120e-03, 0., 9.18484479e-03,
          4.59242240e-03, 6.88863359e-03, 6.88863359e-03, 1.37772672e-02,
          1.37772672e-02, 4.59242240e-03, 2.52583232e-02, 2.29621120e-03,
          0., 0., 1.72215849e-02, 8.03673919e-03, 1.14810560e-03,
          9.18484479e-03, 0., 1.95177943e-02, 2.29621120e-03,
          1.14810560e-03, 9.18484479e-03, 9.18484479e-03, 0.,
          1.95177943e-02, 6.88863359e-03, 4.59242240e-03, 4.59242240e-03,
          1.14810560e-02, 1.14810560e-02, 1.03329504e-02, 4.59242240e-03,
          6.42939135e-02, 9.18484479e-03, 5.74052799e-03, 1.14810560e-03,
          2.29621120e-03, 3.44431698e-02, 1.37772672e-02, 8.03673919e-03,
          2.18140073e-02, 2.29621120e-03, 1.03329504e-02, 5.74052799e-03,
          6.88863359e-03, 6.88863359e-03, 5.74052799e-03, 9.18484479e-03,
          3.44431680e-03, 8.03673919e-03, 1.03329504e-02, 2.29621120e-02,
          2.41102166e-02, 1.14810560e-03, 5.74052799e-03, 6.88863359e-03,
          4.59242240e-03, 1.14810560e-03, 8.03673919e-03, 4.59242240e-03,
          9.18484479e-03, 8.03673919e-03, 1.14810560e-03, 5.74052799e-03,
          8.03673919e-03, 6.88863359e-03, 5.74052799e-03 ]
      - [ 8.96286778e-03, 1.28040975e-03, 1.28040975e-03, 2.43277848e-02,
          1.02432780e-02, 1.28040975e-02, 0., 1.02432780e-02,
          2.56081950e-03, 7.68245850e-03, 1.40845068e-02, 1.66453272e-02,
          1.15236882e-02, 1.79257356e-02, 7.68245850e-03, 1.66453272e-02,
          5.12163900e-03, 0., 1.15236882e-02, 3.58514711e-02,
          1.28040975e-02, 2.56081950e-03, 1.02432780e-02, 1.28040975e-03,
          3.84122925e-03, 6.78617135e-02, 1.02432780e-02, 2.81690136e-02,
          1.53649170e-02, 6.40204875e-03, 1.79257356e-02, 2.56081950e-03,
          5.12163900e-03, 2.56081950e-03, 0., 7.68245850e-03, 0.,
          6.40204875e-03, 2.56081950e-03, 2.17669662e-02, 5.12163900e-03,
          3.84122925e-03, 2.94494238e-02, 2.56081950e-03, 0., 0.,
          1.79257356e-02, 1.92061458e-02, 1.28040975e-03, 1.28040975e-02,
          2.56081950e-03, 1.66453272e-02, 1.15236882e-02, 1.28040975e-03,
          8.96286778e-03, 1.02432780e-02, 0., 2.17669662e-02,
          3.84122925e-03, 6.40204875e-03, 1.28040975e-03, 1.15236882e-02,
          7.68245850e-03, 1.02432780e-02, 6.40204875e-03, 5.76184392e-02,
          3.84122925e-03, 3.84122925e-03, 0., 3.84122925e-03,
          2.68886052e-02, 1.15236882e-02, 1.66453272e-02, 1.79257356e-02,
          3.84122925e-03, 1.28040975e-02, 5.12163900e-03, 2.56081950e-03,
          1.40845068e-02, 6.40204875e-03, 2.04865560e-02, 6.40204875e-03,
          8.96286778e-03, 8.96286778e-03, 1.92061458e-02, 2.43277848e-02,
          3.84122925e-03, 6.40204875e-03, 3.84122925e-03, 3.84122925e-03,
          0., 8.96286778e-03, 5.12163900e-03, 7.68245850e-03,
          3.84122925e-03, 0., 3.84122925e-03, 1.28040975e-03,
          1.53649170e-02, 6.40204875e-03 ]
      - [ 1.04166670e-02, 4.46428591e-03, 0., 1.48809524e-02,
          2.82738097e-02, 1.78571437e-02, 0., 1.19047621e-02, 0.,
          7.44047621e-03, 1.04166670e-02, 1.04166670e-02, 5.95238106e-03,
          1.19047621e-02, 4.46428591e-03, 3.12500000e-02, 1.48809527e-03,
          0., 5.95238106e-03, 2.67857146e-02, 1.48809524e-02,
          4.46428591e-03, 1.04166670e-02, 0., 7.44047621e-03,
          5.95238097e-02, 7.44047621e-03, 2.08333340e-02, 1.48809524e-02,
          7.44047621e-03, 7.44047621e-03, 1.48809527e-03, 8.92857183e-03,
          1.48809527e-03, 0., 1.19047621e-02, 2.97619053e-03,
          4.46428591e-03, 4.46428591e-03, 2.52976194e-02, 4.46428591e-03,
          7.44047621e-03, 4.91071455e-02, 7.44047621e-03, 0., 0.,
          1.19047621e-02, 4.76190485e-02, 2.97619053e-03, 8.92857183e-03,
          0., 1.93452388e-02, 5.95238106e-03, 1.48809527e-03,
          1.19047621e-02, 1.48809527e-03, 1.48809527e-03, 2.82738097e-02,
          5.95238106e-03, 4.46428591e-03, 1.48809527e-03, 7.44047621e-03,
          5.95238106e-03, 1.04166670e-02, 4.46428591e-03, 5.05952388e-02,
          7.44047621e-03, 7.44047621e-03, 0., 5.95238106e-03,
          3.27380970e-02, 4.46428591e-03, 1.33928573e-02, 1.33928573e-02,
          5.95238106e-03, 8.92857183e-03, 8.92857183e-03, 5.95238106e-03,
          1.63690485e-02, 5.95238106e-03, 8.92857183e-03, 7.44047621e-03,
          4.46428591e-03, 2.97619053e-03, 1.93452388e-02, 3.12500000e-02,
          0., 7.44047621e-03, 5.95238106e-03, 5.95238106e-03, 0.,
          1.48809527e-03, 2.97619053e-03, 8.92857183e-03, 1.48809527e-03,
          0., 7.44047621e-03, 0., 1.93452388e-02, 7.44047621e-03 ]
      - [ 8.31024908e-03, 4.15512454e-03, 0., 1.38504151e-02,
          2.63157897e-02, 1.52354566e-02, 0., 5.54016605e-03,
          1.38504151e-03, 5.54016605e-03, 9.69529059e-03, 1.10803321e-02,
          6.92520756e-03, 1.66204982e-02, 6.92520756e-03, 2.90858708e-02,
          2.77008303e-03, 0., 9.69529059e-03, 2.77008303e-02,
          1.93905812e-02, 2.77008303e-03, 6.92520756e-03, 1.38504151e-03,
          6.92520756e-03, 4.98614945e-02, 9.69529059e-03, 2.07756236e-02,
          1.66204982e-02, 9.69529059e-03, 8.31024908e-03, 2.77008303e-03,
          4.15512454e-03, 1.38504151e-03, 0., 8.31024908e-03,
          1.38504151e-03, 4.15512454e-03, 5.54016605e-03, 2.21606642e-02,
          6.92520756e-03, 1.10803321e-02, 4.57063690e-02, 5.54016605e-03,
          0., 0., 1.38504151e-02, 5.54016605e-02, 2.77008303e-03,
          9.69529059e-03, 0., 2.63157897e-02, 9.69529059e-03,
          1.38504151e-03, 1.24653736e-02, 1.38504151e-03, 0.,
          2.49307472e-02, 5.54016605e-03, 1.38504151e-03, 0.,
          1.10803321e-02, 1.10803321e-02, 5.54016605e-03, 4.15512454e-03,
          4.01662029e-02, 5.54016605e-03, 9.69529059e-03, 0.,
          2.77008303e-03, 4.01662029e-02, 2.77008303e-03, 1.38504151e-02,
          9.69529059e-03, 4.15512454e-03, 9.69529059e-03, 1.10803321e-02,
          9.69529059e-03, 1.80055387e-02, 4.15512454e-03, 6.92520756e-03,
          8.31024908e-03, 8.31024908e-03, 5.54016605e-03, 1.80055387e-02,
          3.04709133e-02, 1.38504151e-03, 1.38504151e-02, 2.77008303e-03,
          4.15512454e-03, 0., 0., 5.54016605e-03, 5.54016605e-03,
          6.92520756e-03, 0., 6.92520756e-03, 0., 1.38504151e-02,
          1.10803321e-02 ]
      - [ 9.98573471e-03, 2.85306713e-03, 0., 2.56776046e-02, 0.,
          2.56776046e-02, 0., 1.28388023e-02, 1.42653356e-03,
          1.99714694e-02, 2.13980041e-02, 1.14122685e-02, 5.70613425e-03,
          1.56918690e-02, 1.14122685e-02, 3.28102708e-02, 4.27960046e-03,
          0., 7.13266805e-03, 5.13552092e-02, 0., 2.85306713e-03,
          8.55920091e-03, 4.27960046e-03, 5.70613425e-03, 8.70185494e-02,
          9.98573471e-03, 1.42653356e-03, 1.14122685e-02, 8.55920091e-03,
          7.13266805e-03, 4.27960046e-03, 1.42653361e-02, 1.42653356e-03,
          0., 2.71041375e-02, 1.42653356e-03, 1.14122685e-02,
          8.55920091e-03, 1.28388023e-02, 1.28388023e-02, 2.85306713e-03,
          1.42653356e-03, 2.85306713e-03, 0., 0., 1.14122685e-02,
          2.85306713e-03, 1.42653356e-03, 1.42653361e-02, 4.27960046e-03,
          1.28388023e-02, 2.85306713e-03, 0., 1.42653356e-03,
          1.42653361e-02, 0., 8.55920091e-03, 1.42653356e-03,
          4.27960046e-03, 1.42653356e-03, 1.14122685e-02, 1.71184018e-02,
          8.55920091e-03, 5.70613425e-03, 6.99001476e-02, 1.56918690e-02,
          1.42653356e-03, 0., 1.42653356e-03, 0., 2.13980041e-02,
          1.85449366e-02, 1.28388023e-02, 1.42653356e-03, 1.85449366e-02,
          1.42653361e-02, 7.13266805e-03, 1.99714694e-02, 5.70613425e-03,
          1.42653361e-02, 8.55920091e-03, 8.55920091e-03, 1.42653361e-02,
          2.56776046e-02, 1.14122685e-02, 1.42653356e-03, 1.14122685e-02,
          7.13266805e-03, 7.13266805e-03, 0., 4.27960046e-03,
          1.28388023e-02, 8.55920091e-03, 4.27960046e-03, 0.,
          1.42653356e-03, 1.42653356e-03, 5.70613425e-03, 1.14122685e-02 ]
      - [ 1.47540979e-02, 4.91803279e-03, 0., 2.29508206e-02, 0.,
          2.29508206e-02, 0., 8.19672085e-03, 1.63934426e-03,
          9.83606558e-03, 8.19672085e-03, 1.47540979e-02, 6.55737706e-03,
          2.13114750e-02, 6.55737706e-03, 3.60655747e-02, 4.91803279e-03,
          0., 1.31147541e-02, 3.93442623e-02, 0., 3.27868853e-03,
          1.63934417e-02, 0., 8.19672085e-03, 7.21311495e-02,
          1.31147541e-02, 1.63934426e-03, 1.96721312e-02, 2.13114750e-02,
          1.14754103e-02, 3.27868853e-03, 9.83606558e-03, 3.27868853e-03,
          0., 1.47540979e-02, 0., 1.14754103e-02, 8.19672085e-03,
          2.78688520e-02, 1.31147541e-02, 4.91803279e-03, 1.63934426e-03,
          3.27868853e-03, 0., 0., 1.14754103e-02, 1.63934426e-03,
          1.63934426e-03, 1.96721312e-02, 6.55737706e-03, 1.47540979e-02,
          4.91803279e-03, 0., 0., 6.55737706e-03, 0., 4.91803279e-03,
          1.63934426e-03, 3.27868853e-03, 1.63934426e-03, 1.80327874e-02,
          9.83606558e-03, 1.14754103e-02, 1.63934426e-03, 7.86885247e-02,
          9.83606558e-03, 6.55737706e-03, 1.63934426e-03, 1.63934426e-03,
          0., 2.78688520e-02, 1.47540979e-02, 1.31147541e-02, 0.,
          1.63934417e-02, 6.55737706e-03, 6.55737706e-03, 1.14754103e-02,
          4.91803279e-03, 1.96721312e-02, 4.91803279e-03, 6.55737706e-03,
          4.91803279e-03, 3.44262309e-02, 2.29508206e-02, 1.63934426e-03,
          6.55737706e-03, 6.55737706e-03, 6.55737706e-03, 0.,
          4.91803279e-03, 1.31147541e-02, 9.83606558e-03, 1.63934426e-03,
          0., 4.91803279e-03, 1.63934426e-03, 1.14754103e-02,
          1.31147541e-02 ]
      - [ 9.31677036e-03, 1.55279506e-03, 0., 3.57142873e-02,
          1.55279506e-03, 2.17391308e-02, 1.55279506e-03, 1.24223605e-02,
          0., 6.21118024e-03, 1.39751555e-02, 1.39751555e-02,
          7.76397530e-03, 1.55279506e-02, 1.55279506e-02, 4.34782617e-02,
          1.08695654e-02, 0., 6.21118024e-03, 3.57142873e-02, 0.,
          7.76397530e-03, 1.55279506e-02, 3.10559012e-03, 6.21118024e-03,
          8.69565234e-02, 9.31677036e-03, 1.55279506e-03, 1.08695654e-02,
          1.39751555e-02, 6.21118024e-03, 3.10559012e-03, 2.95031071e-02,
          0., 0., 1.39751555e-02, 1.55279506e-03, 9.31677036e-03,
          1.39751555e-02, 2.01863348e-02, 1.70807466e-02, 1.24223605e-02,
          1.55279506e-03, 4.65838518e-03, 1.55279506e-03, 0.,
          2.01863348e-02, 3.10559012e-03, 4.65838518e-03, 4.65838518e-03,
          0., 1.39751555e-02, 4.65838518e-03, 1.55279506e-03,
          4.65838518e-03, 6.21118024e-03, 1.55279506e-03, 1.55279506e-03,
          3.10559012e-03, 3.10559012e-03, 3.10559012e-03, 1.39751555e-02,
          9.31677036e-03, 1.08695654e-02, 1.08695654e-02, 6.67701885e-02,
          1.08695654e-02, 9.31677036e-03, 0., 3.10559012e-03, 0.,
          2.01863348e-02, 2.01863348e-02, 6.21118024e-03, 0.,
          1.55279506e-02, 3.10559012e-03, 9.31677036e-03, 1.55279506e-03,
          4.65838518e-03, 1.70807466e-02, 7.76397530e-03, 9.31677036e-03,
          1.39751555e-02, 2.95031071e-02, 2.17391308e-02, 1.55279506e-03,
          3.10559012e-03, 1.55279506e-03, 4.65838518e-03, 0.,
          1.55279506e-03, 7.76397530e-03, 1.08695654e-02, 6.21118024e-03,
          0., 4.65838518e-03, 1.55279506e-03, 1.08695654e-02,
          1.08695654e-02 ]
      - [ 1.30597008e-02, 0., 1.86567160e-03, 3.17164175e-02, 0.,
          1.49253728e-02, 0., 1.49253728e-02, 0., 1.30597008e-02,
          2.23880596e-02, 2.23880596e-02, 1.86567158e-02, 1.67910438e-02,
          7.46268639e-03, 1.49253728e-02, 5.59701491e-03, 0.,
          1.30597008e-02, 9.32835788e-03, 0., 3.73134320e-03,
          1.49253728e-02, 1.86567160e-03, 1.86567160e-03, 7.83582106e-02,
          2.23880596e-02, 5.59701491e-03, 1.30597008e-02, 1.30597008e-02,
          1.67910438e-02, 3.73134320e-03, 9.32835788e-03, 5.59701491e-03,
          0., 1.11940298e-02, 0., 1.11940298e-02, 3.73134320e-03,
          3.17164175e-02, 3.73134320e-03, 7.46268639e-03, 0.,
          5.59701491e-03, 0., 0., 2.61194017e-02, 0., 3.73134320e-03,
          1.67910438e-02, 1.86567160e-03, 1.86567160e-03, 1.49253728e-02,
          1.86567160e-03, 3.73134320e-03, 1.49253728e-02, 0.,
          7.46268639e-03, 0., 9.32835788e-03, 3.73134320e-03,
          1.67910438e-02, 1.49253728e-02, 1.11940298e-02, 7.46268639e-03,
          5.22388034e-02, 7.46268639e-03, 5.59701491e-03, 0., 0., 0.,
          1.86567158e-02, 1.67910438e-02, 9.32835788e-03, 0.,
          1.67910438e-02, 7.46268639e-03, 3.73134320e-03, 1.86567158e-02,
          5.59701491e-03, 2.61194017e-02, 7.46268639e-03, 1.11940298e-02,
          1.30597008e-02, 2.61194017e-02, 3.35820876e-02, 1.86567160e-03,
          5.59701491e-03, 7.46268639e-03, 5.59701491e-03, 0.,
          1.86567160e-03, 3.73134320e-03, 1.30597008e-02, 7.46268639e-03,
          0., 3.73134320e-03, 0., 2.42537316e-02, 3.73134320e-03 ]
      - [ 1.03519661e-02, 2.76052440e-03, 4.14078683e-03, 9.00621116e-02,
          6.03864715e-02, 1.31124910e-02, 3.55417505e-02, 4.83091781e-03,
          1.72532769e-03, 7.24637648e-03, 8.97170417e-03, 6.55624550e-03,
          4.83091781e-03, 1.03519661e-02, 4.83091781e-03, 1.00069009e-02,
          2.07039341e-03, 7.93650746e-03, 4.83091781e-03, 1.79434083e-02,
          0., 3.79572110e-03, 9.31676943e-03, 1.75983422e-02,
          3.79572110e-03, 3.96825373e-02, 1.20772943e-02, 6.21117977e-03,
          7.93650746e-03, 5.86611452e-03, 2.72601787e-02, 6.90131076e-03,
          7.93650746e-03, 5.17598307e-03, 1.20772943e-02, 7.59144221e-03,
          2.07039341e-03, 4.48585209e-03, 1.69082116e-02, 8.97170417e-03,
          6.21117977e-03, 8.28157365e-03, 1.13871628e-02, 6.55624550e-03,
          7.93650746e-03, 1.72532769e-03, 6.21117977e-03, 1.86335389e-02,
          6.21117977e-03, 1.20772943e-02, 3.79572110e-03, 1.82884745e-02,
          5.17598307e-03, 1.24223595e-02, 2.44996548e-02, 4.48585209e-03,
          1.03519671e-03, 1.00069009e-02, 1.27674257e-02, 5.17598307e-03,
          3.45065538e-03, 1.20772943e-02, 5.86611452e-03, 2.41545890e-03,
          4.83091781e-03, 3.55417505e-02, 4.83091781e-03, 3.79572110e-03,
          1.03519671e-03, 1.00069009e-02, 5.86611452e-03, 5.17598307e-03,
          7.24637648e-03, 8.62663891e-03, 4.83091781e-03, 7.59144221e-03,
          7.59144221e-03, 8.28157365e-03, 8.28157365e-03, 5.17598307e-03,
          1.20772943e-02, 4.48585209e-03, 6.90131076e-03, 6.55624550e-03,
          3.69220152e-02, 1.58730149e-02, 3.45065549e-04, 5.17598307e-03,
          6.55624550e-03, 1.72532778e-02, 3.45065549e-04, 2.07039341e-03,
          2.41545890e-03, 4.48585209e-03, 7.24637648e-03, 1.72532769e-03,
          5.17598307e-03, 3.10558989e-03, 7.59144221e-03, 4.14078683e-03 ]
      - [ 1.97530873e-02, 7.40740774e-03, 1.23456791e-02, 4.93827183e-03,
          9.87654366e-03, 1.97530873e-02, 0., 2.46913591e-03,
          1.48148155e-02, 4.93827183e-03, 2.22222228e-02, 2.46913591e-03,
          4.93827183e-03, 2.46913591e-03, 0., 7.40740774e-03,
          9.87654366e-03, 0., 7.40740774e-03, 4.93827183e-03, 0.,
          4.93827183e-03, 2.22222228e-02, 0., 1.97530873e-02,
          9.87654366e-03, 1.72839519e-02, 9.87654366e-03, 2.46913591e-03,
          9.87654366e-03, 2.46913591e-03, 2.71604955e-02, 4.93827183e-03,
          4.93827183e-03, 1.23456791e-02, 9.87654366e-03, 1.23456791e-02,
          2.46913591e-03, 1.97530873e-02, 1.72839519e-02, 1.72839519e-02,
          1.97530873e-02, 1.23456791e-02, 1.97530873e-02, 7.40740774e-03,
          9.87654366e-03, 2.46913591e-03, 2.46913591e-03, 9.87654366e-03,
          9.87654366e-03, 0., 2.46913591e-03, 1.48148155e-02,
          9.87654366e-03, 9.87654366e-03, 7.40740774e-03, 2.22222228e-02,
          1.23456791e-02, 4.93827183e-03, 4.93827183e-03, 9.87654366e-03,
          1.72839519e-02, 4.93827183e-03, 0., 2.71604955e-02,
          2.46913591e-03, 2.46913591e-03, 1.97530873e-02, 1.72839519e-02,
          9.87654366e-03, 7.40740774e-03, 4.93827183e-03, 7.40740774e-03,
          2.46913591e-03, 2.46913591e-03, 0., 2.71604955e-02,
          2.96296310e-02, 0., 9.87654366e-03, 1.72839519e-02,
          9.87654366e-03, 4.93827183e-03, 4.93827183e-03, 4.93827183e-03,
          7.40740774e-03, 4.93827183e-03, 7.40740774e-03, 4.93827183e-03,
          1.72839519e-02, 1.48148155e-02, 0., 2.22222228e-02,
          9.87654366e-03, 2.46913582e-02, 7.40740774e-03, 2.46913582e-02,
          3.20987664e-02, 9.87654366e-03, 0. ]
      - [ 2.51572318e-02, 9.43396240e-03, 6.28930796e-03, 9.43396240e-03,
          1.72955971e-02, 1.10062892e-02, 4.71698120e-03, 1.10062892e-02,
          9.43396240e-03, 6.28930796e-03, 1.88679248e-02, 1.10062892e-02,
          6.28930796e-03, 7.86163472e-03, 1.57232699e-03, 3.14465398e-03,
          7.86163472e-03, 0., 4.71698120e-03, 1.57232694e-02, 0.,
          4.71698120e-03, 1.57232694e-02, 0., 2.20125783e-02,
          7.86163472e-03, 1.10062892e-02, 1.10062892e-02, 1.57232699e-03,
          4.71698120e-03, 9.43396240e-03, 3.14465389e-02, 4.71698120e-03,
          6.28930796e-03, 3.14465398e-03, 1.41509427e-02, 1.10062892e-02,
          4.71698120e-03, 1.10062892e-02, 6.28930796e-03, 4.71698120e-03,
          1.25786159e-02, 1.57232694e-02, 1.25786159e-02, 7.86163472e-03,
          2.35849041e-02, 4.71698120e-03, 1.10062892e-02, 6.28930796e-03,
          4.71698120e-03, 0., 4.71698120e-03, 1.25786159e-02,
          1.72955971e-02, 1.10062892e-02, 6.28930796e-03, 2.83018854e-02,
          2.35849041e-02, 6.28930796e-03, 3.14465398e-03, 1.10062892e-02,
          7.86163472e-03, 4.71698120e-03, 0., 2.04402506e-02,
          1.57232699e-03, 0., 2.35849041e-02, 1.88679248e-02,
          1.57232694e-02, 1.72955971e-02, 1.57232699e-03, 9.43396240e-03,
          1.57232699e-03, 4.71698120e-03, 3.14465398e-03, 1.88679248e-02,
          1.88679248e-02, 0., 1.25786159e-02, 1.72955971e-02,
          7.86163472e-03, 6.28930796e-03, 6.28930796e-03, 0.,
          1.25786159e-02, 1.10062892e-02, 6.28930796e-03, 1.41509427e-02,
          1.41509427e-02, 2.67295595e-02, 6.28930796e-03, 2.04402506e-02,
          3.14465398e-03, 1.57232694e-02, 6.28930796e-03, 1.72955971e-02,
          1.57232694e-02, 1.57232694e-02, 0. ]
      - [ 1.75999999e-02, 1.11999996e-02, 9.59999952e-03, 1.27999997e-02,
          1.75999999e-02, 1.27999997e-02, 7.99999945e-03, 1.11999996e-02,
          1.59999989e-02, 7.99999945e-03, 1.75999999e-02, 6.39999984e-03,
          3.19999992e-03, 6.39999984e-03, 0., 1.59999996e-03,
          9.59999952e-03, 0., 4.79999976e-03, 6.39999984e-03, 0.,
          4.79999976e-03, 1.91999990e-02, 0., 1.43999998e-02,
          7.99999945e-03, 2.23999992e-02, 9.59999952e-03, 0.,
          7.99999945e-03, 1.11999996e-02, 2.55999994e-02, 6.39999984e-03,
          4.79999976e-03, 4.79999976e-03, 4.79999976e-03, 1.27999997e-02,
          3.19999992e-03, 1.91999990e-02, 1.43999998e-02, 4.79999976e-03,
          1.43999998e-02, 1.59999989e-02, 1.27999997e-02, 1.27999997e-02,
          1.91999990e-02, 7.99999945e-03, 1.59999989e-02, 9.59999952e-03,
          7.99999945e-03, 0., 4.79999976e-03, 9.59999952e-03,
          1.11999996e-02, 6.39999984e-03, 1.59999996e-03, 1.43999998e-02,
          1.91999990e-02, 9.59999952e-03, 9.59999952e-03, 4.79999976e-03,
          1.43999998e-02, 4.79999976e-03, 0., 2.40000002e-02,
          3.19999992e-03, 0., 2.40000002e-02, 9.59999952e-03,
          1.43999998e-02, 1.75999999e-02, 4.79999976e-03, 6.39999984e-03,
          1.59999996e-03, 6.39999984e-03, 0., 1.43999998e-02,
          2.40000002e-02, 0., 1.43999998e-02, 1.91999990e-02,
          9.59999952e-03, 1.11999996e-02, 9.59999952e-03, 0.,
          9.59999952e-03, 4.79999976e-03, 9.59999952e-03, 9.59999952e-03,
          1.43999998e-02, 1.27999997e-02, 1.59999996e-03, 2.55999994e-02,
          7.99999945e-03, 1.91999990e-02, 1.59999996e-03, 1.43999998e-02,
          3.19999978e-02, 1.27999997e-02, 3.19999992e-03 ]
      - [ 1.29870130e-02, 5.56586264e-03, 5.56586264e-03, 5.00927642e-02,
          5.93692027e-02, 1.29870130e-02, 1.85528758e-03, 3.71057517e-03,
          1.66975874e-02, 7.42115034e-03, 1.29870130e-02, 5.56586264e-03,
          1.85528758e-03, 3.71057517e-03, 1.85528758e-03, 1.85528758e-03,
          7.42115034e-03, 0., 9.27643757e-03, 3.71057517e-03, 0.,
          3.71057517e-03, 1.11317253e-02, 0., 9.27643757e-03,
          1.11317253e-02, 9.27643757e-03, 2.04081628e-02, 1.85528758e-03,
          7.42115034e-03, 9.27643757e-03, 1.29870130e-02, 0.,
          7.42115034e-03, 5.56586264e-03, 1.66975874e-02, 1.29870130e-02,
          3.71057517e-03, 1.66975874e-02, 9.27643757e-03, 1.29870130e-02,
          2.04081628e-02, 1.66975874e-02, 1.29870130e-02, 5.56586264e-03,
          0., 9.27643757e-03, 1.29870130e-02, 1.11317253e-02,
          3.71057517e-03, 1.85528758e-03, 5.56586264e-03, 1.29870130e-02,
          1.29870130e-02, 9.27643757e-03, 5.56586264e-03, 1.48423007e-02,
          3.15398872e-02, 9.27643757e-03, 7.42115034e-03, 9.27643757e-03,
          1.48423007e-02, 5.56586264e-03, 7.42115034e-03, 2.59740259e-02,
          1.85528758e-03, 0., 7.42115034e-03, 1.85528751e-02,
          1.48423007e-02, 1.66975874e-02, 1.85528758e-03, 3.71057517e-03,
          0., 3.71057517e-03, 0., 1.85528751e-02, 1.66975874e-02, 0.,
          1.48423007e-02, 2.04081628e-02, 1.85528758e-03, 7.42115034e-03,
          7.42115034e-03, 9.27643757e-03, 7.42115034e-03, 7.42115034e-03,
          9.27643757e-03, 1.85528758e-03, 1.11317253e-02, 5.56586264e-03,
          5.56586264e-03, 1.66975874e-02, 7.42115034e-03, 2.22634505e-02,
          5.56586264e-03, 2.78293137e-02, 1.85528751e-02, 1.11317253e-02,
          3.71057517e-03 ]
      - [ 2.21238937e-02, 1.10619469e-02, 1.10619469e-02, 2.43362822e-02,
          2.87610628e-02, 1.32743362e-02, 0., 4.42477874e-03,
          1.32743362e-02, 1.10619469e-02, 1.54867256e-02, 6.63716812e-03,
          4.42477874e-03, 0., 0., 0., 2.21238937e-03, 0., 4.42477874e-03,
          4.42477874e-03, 0., 4.42477874e-03, 2.65486725e-02, 0.,
          1.32743362e-02, 1.32743362e-02, 1.54867256e-02, 1.76991150e-02,
          4.42477874e-03, 2.21238937e-03, 4.42477874e-03, 2.21238937e-02,
          4.42477874e-03, 4.42477874e-03, 4.42477874e-03, 1.99115053e-02,
          1.10619469e-02, 4.42477874e-03, 1.54867256e-02, 2.43362822e-02,
          6.63716812e-03, 1.10619469e-02, 1.54867256e-02, 1.54867256e-02,
          4.42477874e-03, 2.21238937e-03, 4.42477874e-03, 2.21238937e-02,
          8.84955749e-03, 1.10619469e-02, 2.21238937e-03, 6.63716812e-03,
          6.63716812e-03, 1.32743362e-02, 6.63716812e-03, 2.21238937e-03,
          1.54867256e-02, 3.53982300e-02, 1.10619469e-02, 6.63716812e-03,
          1.54867256e-02, 6.63716812e-03, 6.63716812e-03, 2.21238937e-03,
          1.54867256e-02, 2.21238937e-03, 0., 8.84955749e-03,
          8.84955749e-03, 8.84955749e-03, 6.63716812e-03, 2.21238937e-03,
          1.10619469e-02, 0., 2.21238937e-03, 0., 3.09734512e-02,
          2.87610628e-02, 0., 2.21238937e-02, 1.54867256e-02,
          6.63716812e-03, 8.84955749e-03, 6.63716812e-03, 2.21238937e-03,
          1.10619469e-02, 4.42477874e-03, 2.21238937e-03, 2.43362822e-02,
          1.54867256e-02, 1.32743362e-02, 4.42477874e-03, 1.76991150e-02,
          2.21238937e-03, 1.99115053e-02, 1.10619469e-02, 2.43362822e-02,
          1.76991150e-02, 1.32743362e-02, 2.21238937e-03 ]
      - [ 2.20125783e-02, 0., 1.25786159e-02, 1.57232694e-02,
          1.88679248e-02, 9.43396240e-03, 0., 9.43396240e-03,
          2.83018854e-02, 0., 3.14465398e-03, 0., 0., 0., 9.43396240e-03,
          0., 0., 0., 9.43396240e-03, 9.43396240e-03, 0., 6.28930796e-03,
          1.57232694e-02, 0., 1.57232694e-02, 9.43396240e-03,
          1.25786159e-02, 3.14465398e-03, 0., 6.28930796e-03,
          9.43396240e-03, 1.25786159e-02, 3.14465398e-03, 3.14465398e-03,
          1.57232694e-02, 2.51572318e-02, 6.28930796e-03, 6.28930796e-03,
          1.57232694e-02, 2.51572318e-02, 1.57232694e-02, 2.83018854e-02,
          4.08805013e-02, 1.25786159e-02, 0., 3.14465398e-03,
          3.14465398e-03, 1.25786159e-02, 9.43396240e-03, 1.25786159e-02,
          0., 9.43396240e-03, 9.43396240e-03, 1.88679248e-02,
          6.28930796e-03, 6.28930796e-03, 0., 1.57232694e-02,
          9.43396240e-03, 1.88679248e-02, 9.43396240e-03, 2.51572318e-02,
          3.14465398e-03, 3.14465398e-03, 3.45911942e-02, 0., 0.,
          3.45911942e-02, 6.28930796e-03, 1.57232694e-02, 9.43396240e-03,
          6.28930796e-03, 6.28930796e-03, 0., 0., 0., 2.20125783e-02,
          3.14465389e-02, 3.14465398e-03, 6.28930796e-03, 2.20125783e-02,
          1.57232694e-02, 1.57232694e-02, 1.25786159e-02, 3.14465398e-03,
          3.14465398e-03, 0., 3.14465398e-03, 6.28930796e-03,
          1.25786159e-02, 9.43396240e-03, 6.28930796e-03, 6.28930796e-03,
          3.14465398e-03, 2.83018854e-02, 1.25786159e-02, 1.25786159e-02,
          2.20125783e-02, 1.25786159e-02, 3.14465398e-03 ]
      - [ 1.88235287e-02, 4.70588217e-03, 2.35294108e-03, 1.64705869e-02,
          1.17647052e-02, 2.11764704e-02, 2.35294108e-03, 0.,
          1.64705869e-02, 1.17647052e-02, 1.17647052e-02, 9.41176433e-03,
          2.35294108e-03, 2.35294108e-03, 2.35294108e-03, 2.35294108e-03,
          4.70588217e-03, 0., 9.41176433e-03, 0., 2.35294108e-03,
          4.70588217e-03, 2.35294104e-02, 0., 1.17647052e-02,
          9.41176433e-03, 1.88235287e-02, 9.41176433e-03, 4.70588217e-03,
          1.17647052e-02, 4.70588217e-03, 1.41176470e-02, 7.05882348e-03,
          7.05882348e-03, 7.05882348e-03, 4.70588217e-03, 7.05882348e-03,
          1.64705869e-02, 7.05882348e-03, 2.35294104e-02, 1.41176470e-02,
          1.64705869e-02, 1.41176470e-02, 1.88235287e-02, 9.41176433e-03,
          4.70588217e-03, 4.70588217e-03, 7.05882348e-03, 1.64705869e-02,
          9.41176433e-03, 2.35294108e-03, 2.35294108e-03, 9.41176433e-03,
          9.41176433e-03, 9.41176433e-03, 0., 9.41176433e-03,
          1.17647052e-02, 4.70588217e-03, 7.05882348e-03, 1.88235287e-02,
          9.41176433e-03, 7.05882348e-03, 4.70588217e-03, 2.35294104e-02,
          4.70588217e-03, 2.35294108e-03, 2.58823521e-02, 1.41176470e-02,
          7.05882348e-03, 9.41176433e-03, 2.35294108e-03, 9.41176433e-03,
          2.35294108e-03, 2.11764704e-02, 0., 2.11764704e-02,
          1.41176470e-02, 0., 1.41176470e-02, 2.35294104e-02,
          7.05882348e-03, 1.41176470e-02, 7.05882348e-03, 2.35294108e-03,
          1.17647052e-02, 1.17647052e-02, 7.05882348e-03, 7.05882348e-03,
          1.88235287e-02, 1.88235287e-02, 4.70588217e-03, 2.35294104e-02,
          1.64705869e-02, 2.35294104e-02, 9.41176433e-03, 9.41176433e-03,
          2.82352939e-02, 1.64705869e-02, 0. ]
      - [ 1.47783253e-02, 7.38916267e-03, 2.46305414e-03, 2.46305414e-03,
          1.23152705e-02, 2.95566507e-02, 4.92610829e-03, 4.92610829e-03,
          9.85221658e-03, 2.46305414e-03, 2.21674871e-02, 4.92610829e-03,
          2.46305414e-03, 7.38916267e-03, 2.46305414e-03, 2.46305414e-03,
          9.85221658e-03, 0., 7.38916267e-03, 4.92610829e-03, 0.,
          7.38916267e-03, 1.72413792e-02, 0., 1.97044332e-02,
          1.72413792e-02, 2.46305410e-02, 1.47783253e-02, 0.,
          9.85221658e-03, 7.38916267e-03, 2.46305410e-02, 9.85221658e-03,
          7.38916267e-03, 1.23152705e-02, 9.85221658e-03, 9.85221658e-03,
          4.92610829e-03, 1.23152705e-02, 1.72413792e-02, 1.47783253e-02,
          1.47783253e-02, 2.46305414e-03, 1.97044332e-02, 2.46305414e-03,
          0., 7.38916267e-03, 7.38916267e-03, 7.38916267e-03,
          7.38916267e-03, 0., 4.92610829e-03, 2.21674871e-02,
          9.85221658e-03, 4.92610829e-03, 9.85221658e-03, 1.23152705e-02,
          1.47783253e-02, 9.85221658e-03, 9.85221658e-03, 1.23152705e-02,
          9.85221658e-03, 0., 2.46305414e-03, 2.70935949e-02,
          4.92610829e-03, 0., 2.21674871e-02, 1.97044332e-02,
          4.92610829e-03, 7.38916267e-03, 2.46305414e-03, 2.46305414e-03,
          4.92610829e-03, 0., 0., 2.70935949e-02, 2.46305410e-02, 0.,
          1.47783253e-02, 2.21674871e-02, 9.85221658e-03, 4.92610829e-03,
          9.85221658e-03, 2.46305414e-03, 1.47783253e-02, 7.38916267e-03,
          7.38916267e-03, 0., 2.70935949e-02, 1.72413792e-02,
          2.46305414e-03, 1.72413792e-02, 9.85221658e-03, 2.46305410e-02,
          7.38916267e-03, 1.72413792e-02, 2.95566507e-02, 1.47783253e-02,
          2.46305414e-03 ]
      - [ 1.23456791e-02, 0., 3.08641978e-03, 3.70370373e-02,
          2.16049384e-02, 1.54320989e-02, 0., 3.08641978e-03,
          1.85185187e-02, 6.17283955e-03, 2.77777780e-02, 6.17283955e-03,
          6.17283955e-03, 6.17283955e-03, 0., 0., 3.08641978e-03, 0.,
          3.08641978e-03, 3.08641978e-03, 3.08641978e-03, 6.17283955e-03,
          1.85185187e-02, 0., 2.46913582e-02, 9.25925933e-03,
          9.25925933e-03, 1.23456791e-02, 0., 6.17283955e-03, 0.,
          2.16049384e-02, 6.17283955e-03, 9.25925933e-03, 9.25925933e-03,
          1.54320989e-02, 9.25925933e-03, 3.08641978e-03, 1.85185187e-02,
          2.16049384e-02, 9.25925933e-03, 9.25925933e-03, 1.54320989e-02,
          1.54320989e-02, 6.17283955e-03, 0., 9.25925933e-03,
          9.25925933e-03, 9.25925933e-03, 9.25925933e-03, 3.08641978e-03,
          2.16049384e-02, 3.08641978e-02, 1.23456791e-02, 9.25925933e-03,
          0., 0., 4.32098769e-02, 1.23456791e-02, 6.17283955e-03,
          6.17283955e-03, 1.85185187e-02, 6.17283955e-03, 0.,
          2.77777780e-02, 0., 3.08641978e-03, 6.17283955e-03,
          6.17283955e-03, 9.25925933e-03, 2.46913582e-02, 0.,
          1.85185187e-02, 3.08641978e-03, 9.25925933e-03, 0.,
          1.54320989e-02, 2.16049384e-02, 0., 2.16049384e-02,
          1.23456791e-02, 9.25925933e-03, 6.17283955e-03, 6.17283955e-03,
          0., 1.54320989e-02, 6.17283955e-03, 1.54320989e-02,
          3.08641978e-03, 9.25925933e-03, 9.25925933e-03, 3.08641978e-03,
          1.54320989e-02, 0., 2.77777780e-02, 9.25925933e-03,
          6.17283955e-03, 9.25925933e-03, 3.08641978e-02, 0. ]
      - [ 2.41286866e-02, 5.36193047e-03, 1.60857923e-02, 2.68096523e-03,
          1.07238609e-02, 2.41286866e-02, 0., 2.68096523e-03,
          8.04289617e-03, 5.36193047e-03, 2.14477219e-02, 5.36193047e-03,
          5.36193047e-03, 2.68096523e-03, 0., 8.04289617e-03,
          8.04289617e-03, 0., 8.04289617e-03, 5.36193047e-03, 0.,
          5.36193047e-03, 1.87667571e-02, 0., 1.87667571e-02,
          1.07238609e-02, 1.87667571e-02, 1.07238609e-02, 0.,
          1.07238609e-02, 2.68096523e-03, 3.21715847e-02, 5.36193047e-03,
          2.68096523e-03, 1.34048257e-02, 1.34048257e-02, 8.04289617e-03,
          2.68096523e-03, 1.60857923e-02, 1.60857923e-02, 1.07238609e-02,
          2.41286866e-02, 5.36193047e-03, 1.87667571e-02, 0.,
          8.04289617e-03, 0., 2.68096523e-03, 1.60857923e-02,
          1.07238609e-02, 0., 2.68096523e-03, 1.34048257e-02,
          8.04289617e-03, 8.04289617e-03, 2.68096523e-03, 2.68096514e-02,
          1.07238609e-02, 5.36193047e-03, 5.36193047e-03, 1.60857923e-02,
          1.60857923e-02, 2.68096523e-03, 0., 3.48525494e-02,
          2.68096523e-03, 0., 2.41286866e-02, 1.87667571e-02,
          8.04289617e-03, 8.04289617e-03, 5.36193047e-03, 1.07238609e-02,
          2.68096523e-03, 2.68096523e-03, 0., 2.68096514e-02,
          2.94906180e-02, 0., 1.07238609e-02, 1.60857923e-02,
          8.04289617e-03, 1.07238609e-02, 5.36193047e-03, 5.36193047e-03,
          8.04289617e-03, 5.36193047e-03, 8.04289617e-03, 8.04289617e-03,
          1.60857923e-02, 1.34048257e-02, 0., 2.68096514e-02,
          8.04289617e-03, 2.41286866e-02, 2.68096523e-03, 2.14477219e-02,
          3.21715847e-02, 1.07238609e-02, 0. ]
      - [ 2.53378376e-02, 1.01351356e-02, 1.18243247e-02, 5.06756781e-03,
          1.18243247e-02, 1.52027030e-02, 5.06756781e-03, 8.44594650e-03,
          8.44594650e-03, 8.44594650e-03, 1.68918930e-02, 6.75675692e-03,
          5.06756781e-03, 6.75675692e-03, 1.68918923e-03, 3.37837846e-03,
          6.75675692e-03, 0., 3.37837846e-03, 1.35135138e-02, 0.,
          5.06756781e-03, 1.52027030e-02, 0., 1.85810812e-02,
          5.06756781e-03, 1.18243247e-02, 1.18243247e-02, 1.68918923e-03,
          5.06756781e-03, 1.18243247e-02, 3.20945941e-02, 8.44594650e-03,
          8.44594650e-03, 1.68918923e-03, 1.18243247e-02, 1.01351356e-02,
          5.06756781e-03, 1.18243247e-02, 1.18243247e-02, 3.37837846e-03,
          1.68918930e-02, 1.01351356e-02, 1.35135138e-02, 5.06756781e-03,
          2.36486495e-02, 6.75675692e-03, 6.75675692e-03, 5.06756781e-03,
          5.06756781e-03, 0., 5.06756781e-03, 1.18243247e-02,
          1.01351356e-02, 6.75675692e-03, 5.06756781e-03, 3.20945941e-02,
          2.02702712e-02, 8.44594650e-03, 3.37837846e-03, 1.18243247e-02,
          6.75675692e-03, 5.06756781e-03, 0., 2.19594594e-02,
          1.68918923e-03, 0., 2.53378376e-02, 2.36486495e-02,
          1.01351356e-02, 1.52027030e-02, 0., 8.44594650e-03,
          1.68918923e-03, 8.44594650e-03, 3.37837846e-03, 2.53378376e-02,
          1.85810812e-02, 0., 1.35135138e-02, 2.02702712e-02,
          6.75675692e-03, 8.44594650e-03, 8.44594650e-03, 0.,
          1.52027030e-02, 1.35135138e-02, 1.01351356e-02, 1.18243247e-02,
          1.18243247e-02, 2.87162177e-02, 3.37837846e-03, 2.70270277e-02,
          6.75675692e-03, 1.52027030e-02, 3.37837846e-03, 2.02702712e-02,
