%YAML:1.0
my_svm: !!opencv-ml-svm
   svm_type: C_SVC
   kernel: { type:RBF, gamma:3. }
   C: 1.
   term_criteria: { epsilon:2.2204460492503131e-16, iterations:100 }
   var_all: 200
   var_count: 200
   class_count: 5
   class_labels: !!opencv-matrix
      rows: 1
      cols: 5
      dt: i
      data: [ 0, 1, 2, 3, 4 ]
   sv_total: 25
   support_vectors:
      - [ 6.77200919e-03, 1.12866820e-03, 3.38600460e-03, 6.20767521e-03,
          9.02934559e-03, 5.64334076e-03, 3.38600460e-03, 5.64334076e-03,
          3.38600460e-03, 1.12866820e-03, 7.90067762e-03, 5.07900678e-03,
          7.90067762e-03, 4.51467279e-03, 8.46501160e-03, 5.64334076e-03,
          3.95033881e-03, 6.77200919e-03, 7.33634317e-03, 1.46726863e-02,
          1.69300230e-03, 6.77200919e-03, 5.64334099e-04, 5.64334099e-04,
          1.24153504e-02, 3.95033881e-03, 3.95033881e-03, 3.38600460e-03,
          1.01580136e-02, 2.82167038e-03, 8.46501160e-03, 5.07900678e-03,
          2.82167038e-03, 2.82167038e-03, 1.01580136e-02, 1.07223475e-02,
          3.95033881e-03, 3.38600460e-03, 1.12866820e-03, 3.38600460e-03,
          7.33634317e-03, 1.69300230e-03, 2.25733640e-03, 5.07900678e-03,
          9.02934559e-03, 6.77200919e-03, 5.64334076e-03, 5.64334076e-03,
          2.25733640e-03, 9.02934559e-03, 3.38600460e-03, 4.51467279e-03,
          3.38600460e-03, 1.69300230e-03, 3.95033881e-03, 7.90067762e-03,
          3.38600460e-03, 1.69300230e-03, 8.46501160e-03, 5.07900678e-03,
          3.95033881e-03, 9.02934559e-03, 5.64334076e-03, 3.95033881e-03,
          4.51467279e-03, 7.90067762e-03, 5.07900678e-03, 1.12866820e-03,
          1.69300230e-03, 5.64334076e-03, 7.33634317e-03, 7.33634317e-03,
          1.24153504e-02, 9.02934559e-03, 6.77200919e-03, 5.07900678e-03,
          5.64334099e-04, 5.07900678e-03, 1.01580136e-02, 1.12866815e-02,
          4.51467279e-03, 8.46501160e-03, 8.46501160e-03, 1.69300230e-03,
          3.38600460e-03, 0., 7.33634317e-03, 7.33634317e-03,
          6.20767521e-03, 2.82167038e-03, 9.02934559e-03, 8.46501160e-03,
          3.38600460e-03, 5.64334076e-03, 1.12866820e-03, 2.82167038e-03,
          3.38600460e-03, 5.64334076e-03, 4.51467279e-03, 6.20767521e-03,
          5.64334076e-03, 6.77200919e-03, 3.38600460e-03, 1.69300230e-03,
          6.77200919e-03, 9.59367957e-03, 4.51467279e-03, 6.77200919e-03,
          4.51467279e-03, 7.33634317e-03, 7.33634317e-03, 5.64334099e-04,
          5.07900678e-03, 3.38600460e-03, 8.46501160e-03, 1.69300230e-03,
          3.95033881e-03, 2.82167038e-03, 6.77200919e-03, 1.18510164e-02,
          2.82167038e-03, 5.64334076e-03, 6.20767521e-03, 1.69300230e-03,
          6.20767521e-03, 3.38600460e-03, 2.25733640e-03, 5.07900678e-03,
          8.46501160e-03, 5.64334076e-03, 2.82167038e-03, 3.95033881e-03,
          3.95033881e-03, 2.82167038e-03, 4.51467279e-03, 3.38600460e-03,
          1.69300230e-03, 5.64334076e-03, 6.77200919e-03, 2.82167038e-03,
          1.12866820e-03, 1.07223475e-02, 4.51467279e-03, 8.46501160e-03,
          9.59367957e-03, 2.25733640e-03, 6.20767521e-03, 7.33634317e-03,
          2.82167038e-03, 0., 4.51467279e-03, 1.69300230e-03,
          3.38600460e-03, 3.38600460e-03, 5.64334099e-04, 5.07900678e-03,
          5.64334099e-04, 0., 2.25733640e-03, 2.25733640e-03,
          4.51467279e-03, 6.77200919e-03, 3.95033881e-03, 7.33634317e-03,
          6.77200919e-03, 6.20767521e-03, 7.90067762e-03, 6.20767521e-03,
          9.02934559e-03, 4.51467279e-03, 3.95033881e-03, 7.90067762e-03,
          3.95033881e-03, 0., 3.95033881e-03, 9.02934559e-03,
          3.95033881e-03, 2.82167038e-03, 2.25733640e-03, 4.51467279e-03,
          6.20767521e-03, 6.77200919e-03, 1.69300230e-03, 3.95033881e-03,
          4.51467279e-03, 4.51467279e-03, 5.64334099e-04, 5.07900678e-03,
          6.20767521e-03, 5.64334099e-04, 5.07900678e-03, 2.25733640e-03,
          3.95033881e-03, 5.64334099e-04, 8.46501160e-03, 6.77200919e-03,
          2.82167038e-03, 4.51467279e-03, 6.20767521e-03, 3.95033881e-03 ]
      - [ 8.13890435e-03, 3.25556146e-03, 3.25556146e-03, 7.59631023e-03,
          8.68149754e-03, 7.59631023e-03, 3.25556146e-03, 2.71296804e-03,
          3.79815511e-03, 2.17037438e-03, 8.13890435e-03, 1.62778073e-03,
          7.59631023e-03, 4.88334242e-03, 8.68149754e-03, 1.03092780e-02,
          5.42593608e-03, 6.51112292e-03, 3.25556146e-03, 9.22409073e-03,
          1.62778073e-03, 5.42593608e-03, 1.62778073e-03, 1.08518719e-03,
          1.03092780e-02, 2.71296804e-03, 7.59631023e-03, 2.17037438e-03,
          7.05371657e-03, 3.79815511e-03, 8.13890435e-03, 4.88334242e-03,
          5.96852973e-03, 3.79815511e-03, 6.51112292e-03, 1.08518722e-02,
          3.79815511e-03, 6.51112292e-03, 1.08518719e-03, 5.42593608e-03,
          8.68149754e-03, 2.17037438e-03, 5.96852973e-03, 5.96852973e-03,
          7.05371657e-03, 7.05371657e-03, 4.34074877e-03, 3.79815511e-03,
          1.19370595e-02, 8.68149754e-03, 2.17037438e-03, 3.25556146e-03,
          3.25556146e-03, 0., 5.42593608e-03, 6.51112292e-03,
          2.71296804e-03, 3.79815511e-03, 5.96852973e-03, 6.51112292e-03,
          4.34074877e-03, 8.13890435e-03, 5.42593608e-03, 7.59631023e-03,
          3.79815511e-03, 6.51112292e-03, 4.34074877e-03, 1.08518719e-03,
          3.25556146e-03, 3.79815511e-03, 4.88334242e-03, 5.96852973e-03,
          1.19370595e-02, 7.05371657e-03, 4.34074877e-03, 6.51112292e-03,
          5.42593596e-04, 1.62778073e-03, 1.13944653e-02, 9.22409073e-03,
          3.25556146e-03, 1.03092780e-02, 5.96852973e-03, 4.88334242e-03,
          2.17037438e-03, 5.42593596e-04, 3.79815511e-03, 4.34074877e-03,
          4.34074877e-03, 2.71296804e-03, 7.05371657e-03, 9.22409073e-03,
          5.96852973e-03, 4.88334242e-03, 1.62778073e-03, 5.42593608e-03,
          1.08518719e-03, 7.05371657e-03, 5.96852973e-03, 3.25556146e-03,
          5.42593608e-03, 7.59631023e-03, 3.25556146e-03, 5.42593596e-04,
          5.96852973e-03, 9.22409073e-03, 4.88334242e-03, 5.42593608e-03,
          4.34074877e-03, 5.42593608e-03, 8.68149754e-03, 5.42593596e-04,
          6.51112292e-03, 3.79815511e-03, 5.96852973e-03, 2.17037438e-03,
          4.34074877e-03, 3.25556146e-03, 4.34074877e-03, 9.22409073e-03,
          3.25556146e-03, 4.88334242e-03, 5.96852973e-03, 3.25556146e-03,
          5.96852973e-03, 4.88334242e-03, 4.34074877e-03, 3.25556146e-03,
          8.68149754e-03, 2.71296804e-03, 3.25556146e-03, 3.25556146e-03,
          4.34074877e-03, 2.71296804e-03, 3.79815511e-03, 3.25556146e-03,
          1.08518719e-03, 5.42593608e-03, 5.96852973e-03, 2.71296804e-03,
          0., 1.08518722e-02, 4.34074877e-03, 7.05371657e-03,
          8.13890435e-03, 3.79815511e-03, 4.34074877e-03, 9.22409073e-03,
          4.88334242e-03, 5.42593596e-04, 4.34074877e-03, 1.62778073e-03,
          5.42593608e-03, 3.25556146e-03, 1.62778073e-03, 2.17037438e-03,
          1.62778073e-03, 1.08518719e-03, 2.71296804e-03, 2.71296804e-03,
          5.96852973e-03, 5.96852973e-03, 4.88334242e-03, 8.13890435e-03,
          7.05371657e-03, 9.22409073e-03, 7.59631023e-03, 1.03092780e-02,
          1.30222458e-02, 3.79815511e-03, 2.71296804e-03, 8.68149754e-03,
          3.79815511e-03, 3.79815511e-03, 3.25556146e-03, 4.34074877e-03,
          5.96852973e-03, 2.71296804e-03, 5.42593608e-03, 7.05371657e-03,
          5.42593608e-03, 2.71296804e-03, 3.25556146e-03, 4.88334242e-03,
          3.25556146e-03, 3.79815511e-03, 5.42593596e-04, 7.59631023e-03,
          4.34074877e-03, 0., 3.79815511e-03, 2.17037438e-03,
          5.42593608e-03, 5.42593596e-04, 8.68149754e-03, 8.68149754e-03,
          5.42593608e-03, 3.25556146e-03, 5.96852973e-03, 5.42593608e-03 ]
      - [ 7.92507175e-03, 5.04322769e-03, 1.44092215e-03, 7.20461085e-03,
          8.64553265e-03, 1.72910653e-02, 3.60230543e-03, 4.32276633e-03,
          2.88184430e-03, 2.16138316e-03, 8.64553265e-03, 3.60230543e-03,
          6.48414949e-03, 1.08069163e-02, 1.08069163e-02, 7.92507175e-03,
          1.44092215e-03, 4.32276633e-03, 5.76368859e-03, 1.22478381e-02,
          1.44092215e-03, 4.32276633e-03, 7.20461074e-04, 0.,
          1.15273772e-02, 3.60230543e-03, 2.88184430e-03, 1.44092215e-03,
          1.15273772e-02, 5.76368859e-03, 5.76368859e-03, 5.76368859e-03,
          3.60230543e-03, 4.32276633e-03, 4.32276633e-03, 9.36599355e-03,
          2.16138316e-03, 6.48414949e-03, 1.44092215e-03, 5.04322769e-03,
          8.64553265e-03, 3.60230543e-03, 7.20461085e-03, 5.04322769e-03,
          1.15273772e-02, 6.48414949e-03, 7.20461085e-03, 5.04322769e-03,
          1.22478381e-02, 1.08069163e-02, 2.16138316e-03, 6.48414949e-03,
          2.88184430e-03, 2.16138316e-03, 6.48414949e-03, 6.48414949e-03,
          3.60230543e-03, 2.88184430e-03, 5.76368859e-03, 8.64553265e-03,
          4.32276633e-03, 8.64553265e-03, 5.76368859e-03, 4.32276633e-03,
          2.88184430e-03, 7.92507175e-03, 7.92507175e-03, 2.16138316e-03,
          2.88184430e-03, 4.32276633e-03, 7.20461085e-03, 5.76368859e-03,
          1.36887608e-02, 6.48414949e-03, 6.48414949e-03, 3.60230543e-03,
          7.20461074e-04, 3.60230543e-03, 1.08069163e-02, 7.92507175e-03,
          3.60230543e-03, 5.04322769e-03, 2.88184430e-03, 6.48414949e-03,
          2.88184430e-03, 0., 5.04322769e-03, 3.60230543e-03,
          4.32276633e-03, 7.20461074e-04, 1.00864554e-02, 7.20461085e-03,
          4.32276633e-03, 7.20461085e-03, 2.16138316e-03, 5.76368859e-03,
          3.60230543e-03, 9.36599355e-03, 4.32276633e-03, 2.88184430e-03,
          2.88184430e-03, 7.20461085e-03, 1.44092215e-03, 0.,
          3.60230543e-03, 7.92507175e-03, 4.32276633e-03, 5.76368859e-03,
          3.60230543e-03, 5.04322769e-03, 8.64553265e-03, 2.16138316e-03,
          2.16138316e-03, 5.76368859e-03, 5.76368859e-03, 2.16138316e-03,
          3.60230543e-03, 2.88184430e-03, 3.60230543e-03, 1.00864554e-02,
          5.76368859e-03, 2.16138316e-03, 7.20461085e-03, 6.48414949e-03,
          3.60230543e-03, 2.16138316e-03, 1.44092215e-03, 2.16138316e-03,
          5.76368859e-03, 3.60230543e-03, 3.60230543e-03, 2.88184430e-03,
          3.60230543e-03, 2.88184430e-03, 3.60230543e-03, 2.88184430e-03,
          2.16138316e-03, 6.48414949e-03, 2.88184430e-03, 2.88184430e-03,
          7.20461074e-04, 1.22478381e-02, 4.32276633e-03, 6.48414949e-03,
          5.04322769e-03, 3.60230543e-03, 2.16138316e-03, 7.20461085e-03,
          2.88184430e-03, 7.20461074e-04, 4.32276633e-03, 2.88184430e-03,
          4.32276633e-03, 2.16138316e-03, 7.20461074e-04, 5.76368859e-03,
          1.44092215e-03, 7.20461074e-04, 1.44092215e-03, 7.20461074e-04,
          5.76368859e-03, 6.48414949e-03, 4.32276633e-03, 1.15273772e-02,
          7.20461085e-03, 8.64553265e-03, 4.32276633e-03, 7.20461085e-03,
          1.29682990e-02, 2.88184430e-03, 3.60230543e-03, 1.15273772e-02,
          2.16138316e-03, 0., 2.88184430e-03, 7.92507175e-03,
          5.76368859e-03, 3.60230543e-03, 2.88184430e-03, 5.04322769e-03,
          7.20461085e-03, 7.20461085e-03, 5.04322769e-03, 5.04322769e-03,
          2.88184430e-03, 4.32276633e-03, 7.20461074e-04, 8.64553265e-03,
          7.92507175e-03, 0., 6.48414949e-03, 1.44092215e-03,
          2.16138316e-03, 0., 7.92507175e-03, 8.64553265e-03,
          2.88184430e-03, 2.16138316e-03, 6.48414949e-03, 5.04322769e-03 ]
      - [ 8.32799543e-03, 1.92184502e-03, 4.48430516e-03, 8.96861032e-03,
          1.28122997e-02, 7.68738007e-03, 5.12492005e-03, 3.84369004e-03,
          1.28123001e-03, 1.92184502e-03, 5.12492005e-03, 1.92184502e-03,
          8.32799543e-03, 8.32799543e-03, 8.96861032e-03, 8.32799543e-03,
          3.84369004e-03, 4.48430516e-03, 4.48430516e-03, 1.02498401e-02,
          2.56246002e-03, 6.40614983e-03, 6.40615006e-04, 6.40615006e-04,
          1.02498401e-02, 3.20307491e-03, 5.12492005e-03, 2.56246002e-03,
          9.60922521e-03, 8.32799543e-03, 6.40614983e-03, 3.84369004e-03,
          4.48430516e-03, 2.56246002e-03, 7.68738007e-03, 7.68738007e-03,
          3.20307491e-03, 7.04676518e-03, 1.28123001e-03, 4.48430516e-03,
          5.76553494e-03, 1.28123001e-03, 6.40614983e-03, 5.12492005e-03,
          6.40614983e-03, 7.04676518e-03, 6.40614983e-03, 4.48430516e-03,
          1.53747601e-02, 1.02498401e-02, 3.20307491e-03, 4.48430516e-03,
          4.48430516e-03, 6.40615006e-04, 5.76553494e-03, 7.04676518e-03,
          3.84369004e-03, 3.20307491e-03, 6.40614983e-03, 8.32799543e-03,
          3.84369004e-03, 9.60922521e-03, 5.76553494e-03, 6.40614983e-03,
          1.28123001e-03, 9.60922521e-03, 7.68738007e-03, 2.56246002e-03,
          5.76553494e-03, 4.48430516e-03, 5.12492005e-03, 7.04676518e-03,
          1.28122997e-02, 8.32799543e-03, 5.12492005e-03, 3.84369004e-03,
          6.40615006e-04, 3.84369004e-03, 7.68738007e-03, 1.21716848e-02,
          4.48430516e-03, 1.02498401e-02, 7.04676518e-03, 5.12492005e-03,
          3.20307491e-03, 0., 3.84369004e-03, 4.48430516e-03,
          7.68738007e-03, 3.20307491e-03, 8.32799543e-03, 8.96861032e-03,
          3.84369004e-03, 5.12492005e-03, 1.92184502e-03, 6.40614983e-03,
          0., 5.12492005e-03, 6.40614983e-03, 7.04676518e-03,
          4.48430516e-03, 9.60922521e-03, 5.76553494e-03, 6.40615006e-04,
          4.48430516e-03, 1.21716848e-02, 3.20307491e-03, 3.84369004e-03,
          5.12492005e-03, 3.84369004e-03, 9.60922521e-03, 6.40615006e-04,
          3.20307491e-03, 3.84369004e-03, 3.84369004e-03, 1.92184502e-03,
          3.20307491e-03, 1.28123001e-03, 7.04676518e-03, 7.68738007e-03,
          3.84369004e-03, 4.48430516e-03, 5.12492005e-03, 2.56246002e-03,
          7.04676518e-03, 5.76553494e-03, 2.56246002e-03, 1.92184502e-03,
          6.40614983e-03, 4.48430516e-03, 3.84369004e-03, 3.84369004e-03,
          3.84369004e-03, 3.84369004e-03, 3.84369004e-03, 2.56246002e-03,
          1.92184502e-03, 8.32799543e-03, 4.48430516e-03, 2.56246002e-03,
          6.40615006e-04, 7.68738007e-03, 3.20307491e-03, 8.96861032e-03,
          7.04676518e-03, 3.20307491e-03, 4.48430516e-03, 5.76553494e-03,
          1.92184502e-03, 0., 5.76553494e-03, 1.92184502e-03,
          4.48430516e-03, 2.56246002e-03, 6.40615006e-04, 4.48430516e-03,
          1.28123001e-03, 0., 1.92184502e-03, 2.56246002e-03,
          5.76553494e-03, 6.40614983e-03, 3.84369004e-03, 1.08904550e-02,
          5.76553494e-03, 3.84369004e-03, 5.12492005e-03, 4.48430516e-03,
          1.21716848e-02, 4.48430516e-03, 3.84369004e-03, 5.76553494e-03,
          3.84369004e-03, 2.56246002e-03, 5.12492005e-03, 6.40614983e-03,
          7.04676518e-03, 6.40614983e-03, 1.92184502e-03, 5.12492005e-03,
          5.12492005e-03, 3.84369004e-03, 1.92184502e-03, 3.20307491e-03,
          3.20307491e-03, 3.84369004e-03, 6.40615006e-04, 8.96861032e-03,
          5.76553494e-03, 0., 5.12492005e-03, 2.56246002e-03,
          3.20307491e-03, 6.40615006e-04, 5.76553494e-03, 8.96861032e-03,
          4.48430516e-03, 2.56246002e-03, 6.40614983e-03, 5.12492005e-03 ]
      - [ 2.95683020e-03, 1.18273206e-03, 2.95683020e-03, 4.73092822e-03,
          1.12359542e-02, 1.77409817e-02, 7.09639210e-03, 4.13956214e-03,
          1.77409803e-03, 5.91366028e-04, 9.46185645e-03, 4.13956214e-03,
          7.68775819e-03, 6.50502648e-03, 8.27912427e-03, 4.13956214e-03,
          5.91366040e-03, 4.13956214e-03, 7.68775819e-03, 1.30100530e-02,
          5.32229431e-03, 3.54819605e-03, 3.54819605e-03, 4.13956214e-03,
          8.87049083e-03, 1.77409803e-03, 3.54819605e-03, 3.54819605e-03,
          6.50502648e-03, 3.54819605e-03, 3.54819605e-03, 4.13956214e-03,
          1.18273206e-03, 1.77409803e-03, 1.12359542e-02, 2.36546411e-03,
          2.36546411e-03, 5.32229431e-03, 5.91366028e-04, 4.73092822e-03,
          7.68775819e-03, 1.77409803e-03, 7.09639210e-03, 2.36546411e-03,
          7.09639210e-03, 2.36546411e-03, 2.95683020e-03, 1.77409803e-03,
          1.30100530e-02, 8.87049083e-03, 4.13956214e-03, 4.73092822e-03,
          7.09639210e-03, 0., 2.95683020e-03, 2.95683020e-03,
          1.77409803e-03, 3.54819605e-03, 5.91366040e-03, 8.27912427e-03,
          5.32229431e-03, 6.50502648e-03, 5.91366040e-03, 3.54819605e-03,
          2.95683020e-03, 1.00532221e-02, 7.09639210e-03, 1.18273206e-03,
          1.06445886e-02, 2.95683020e-03, 4.73092822e-03, 5.91366040e-03,
          1.06445886e-02, 7.68775819e-03, 1.77409803e-03, 6.50502648e-03,
          1.77409803e-03, 5.32229431e-03, 1.12359542e-02, 8.27912427e-03,
          2.36546411e-03, 8.87049083e-03, 5.91366040e-03, 1.18273206e-03,
          4.13956214e-03, 5.91366028e-04, 5.91366040e-03, 4.13956214e-03,
          3.54819605e-03, 1.18273206e-03, 8.27912427e-03, 4.73092822e-03,
          2.36546411e-03, 4.73092822e-03, 5.91366028e-04, 5.91366040e-03,
          2.95683020e-03, 1.18273208e-02, 4.73092822e-03, 3.54819605e-03,
          3.54819605e-03, 8.27912427e-03, 3.54819605e-03, 1.18273206e-03,
          5.91366040e-03, 1.00532221e-02, 5.91366028e-04, 4.73092822e-03,
          1.77409803e-03, 4.13956214e-03, 6.50502648e-03, 1.18273206e-03,
          5.91366040e-03, 7.68775819e-03, 3.54819605e-03, 4.13956214e-03,
          2.30632760e-02, 1.77409803e-03, 8.87049083e-03, 7.68775819e-03,
          5.91366040e-03, 6.50502648e-03, 4.73092822e-03, 2.36546411e-03,
          3.54819605e-03, 2.36546411e-03, 4.73092822e-03, 2.36546411e-03,
          5.91366040e-03, 4.13956214e-03, 1.18273206e-03, 3.54819605e-03,
          4.73092822e-03, 2.36546411e-03, 2.95683020e-03, 2.36546411e-03,
          3.54819605e-03, 1.12359542e-02, 4.13956214e-03, 5.32229431e-03,
          2.95683020e-03, 6.50502648e-03, 2.95683020e-03, 5.91366040e-03,
          7.09639210e-03, 3.54819605e-03, 4.13956214e-03, 1.77409803e-03,
          6.50502648e-03, 5.91366028e-04, 4.73092822e-03, 5.32229431e-03,
          3.54819605e-03, 5.91366028e-04, 1.77409803e-03, 7.68775819e-03,
          0., 5.91366028e-04, 2.95683020e-03, 6.50502648e-03,
          5.91366040e-03, 9.46185645e-03, 4.73092822e-03, 7.09639210e-03,
          7.68775819e-03, 5.91366040e-03, 6.50502648e-03, 4.73092822e-03,
          1.18273208e-02, 1.12359542e-02, 5.91366040e-03, 7.68775819e-03,
          2.95683020e-03, 4.73092822e-03, 5.32229431e-03, 5.91366040e-03,
          2.36546411e-03, 3.54819605e-03, 3.54819605e-03, 4.13956214e-03,
          1.24186864e-02, 4.13956214e-03, 2.95683020e-03, 5.91366040e-03,
          4.13956214e-03, 7.09639210e-03, 1.77409803e-03, 5.91366040e-03,
          5.32229431e-03, 5.91366028e-04, 4.73092822e-03, 2.36546411e-03,
          4.13956214e-03, 5.91366028e-04, 7.09639210e-03, 4.73092822e-03,
          2.95683020e-03, 3.54819605e-03, 4.13956214e-03, 9.46185645e-03 ]
      - [ 4.02252609e-03, 2.41351570e-03, 4.02252609e-03, 3.21802101e-03,
          8.04505253e-04, 8.84955749e-03, 1.60901051e-03, 8.04505253e-04,
          2.41351570e-03, 4.42477874e-02, 8.04505253e-04, 4.02252609e-03,
          4.82703140e-03, 2.41351570e-03, 2.41351570e-03, 3.21802101e-03,
          1.60901051e-03, 8.04505253e-04, 1.28720840e-02, 1.60901051e-03,
          7.24054733e-03, 8.84955749e-03, 4.82703140e-03, 8.04505253e-04,
          2.41351570e-03, 0., 3.21802101e-03, 8.04505253e-04,
          3.21802101e-03, 8.04505218e-03, 6.43604202e-03, 4.82703140e-03,
          4.82703140e-03, 8.84955749e-03, 3.21802101e-03, 5.63153671e-03,
          6.43604202e-03, 1.60901051e-03, 1.04585681e-02, 2.41351570e-03,
          2.41351570e-03, 0., 4.82703140e-03, 1.76991150e-02,
          4.02252609e-03, 5.63153671e-03, 8.04505253e-04, 3.21802101e-03,
          4.82703140e-03, 0., 2.41351570e-03, 1.12630734e-02,
          6.43604202e-03, 6.43604202e-03, 1.60901051e-03, 2.41351570e-03,
          5.63153671e-03, 1.60901051e-03, 4.02252609e-03, 6.43604202e-03,
          1.04585681e-02, 2.41351570e-03, 4.82703140e-03, 5.63153671e-03,
          8.04505253e-04, 2.41351570e-03, 5.63153671e-03, 6.43604202e-03,
          8.04505253e-04, 3.21802101e-03, 1.85036212e-02, 7.24054733e-03,
          1.60901051e-03, 1.60901051e-03, 8.04505253e-04, 4.02252609e-03,
          1.85036212e-02, 1.12630734e-02, 1.60901051e-03, 1.60901051e-03,
          4.82703140e-03, 5.63153671e-03, 3.21802101e-03, 5.63153671e-03,
          4.82703140e-03, 2.41351570e-03, 4.02252609e-03, 8.04505253e-04,
          8.04505218e-03, 0., 6.43604202e-03, 3.21802101e-03,
          2.41351570e-03, 8.84955749e-03, 1.93081256e-02, 0.,
          9.65406280e-03, 3.21802101e-03, 3.21802101e-03, 2.41351570e-03,
          2.41351570e-03, 1.60901051e-03, 1.52856000e-02, 8.04505253e-04,
          7.24054733e-03, 2.41351570e-03, 8.84955749e-03, 4.02252609e-03,
          7.24054733e-03, 5.63153671e-03, 2.41351570e-03, 8.04505253e-04,
          2.41351570e-03, 4.02252609e-03, 8.04505218e-03, 4.02252609e-03,
          4.82703140e-03, 1.60901051e-03, 6.43604202e-03, 3.21802101e-03,
          5.63153671e-03, 6.43604202e-03, 4.02252609e-03, 3.21802101e-03,
          4.82703140e-03, 7.24054733e-03, 5.63153671e-03, 9.65406280e-03,
          7.24054733e-03, 2.41351570e-03, 1.44810947e-02, 8.04505253e-04,
          4.82703140e-03, 8.84955749e-03, 1.04585681e-02, 5.63153671e-03,
          5.63153671e-03, 4.02252609e-03, 2.41351570e-03, 8.04505253e-04,
          5.63153671e-03, 6.43604202e-03, 6.43604202e-03, 0.,
          1.60901051e-03, 7.24054733e-03, 1.60901051e-03, 8.04505253e-04,
          2.41351570e-03, 1.44810947e-02, 7.24054733e-03, 4.02252609e-03,
          3.21802101e-03, 2.41351570e-03, 2.41351570e-03, 1.60901051e-03,
          1.60901051e-03, 1.68946106e-02, 2.41351570e-03, 8.84955749e-03,
          8.04505253e-04, 5.63153671e-03, 1.60901051e-03, 1.60901051e-03,
          4.02252609e-03, 8.04505253e-04, 5.63153671e-03, 3.21802101e-03,
          8.04505218e-03, 1.12630734e-02, 2.41351570e-03, 1.60901051e-03,
          6.43604202e-03, 2.41351570e-03, 3.21802101e-03, 2.41351570e-03,
          8.84955749e-03, 5.63153671e-03, 4.02252609e-03, 2.41351570e-03,
          1.12630734e-02, 5.63153671e-03, 1.60901051e-03, 1.60901051e-03,
          5.63153671e-03, 4.82703140e-03, 8.04505218e-03, 3.21802101e-03,
          4.82703140e-03, 1.76991150e-02, 5.63153671e-03, 2.41351570e-03,
          8.84955749e-03, 1.20675787e-02, 8.84955749e-03, 8.04505253e-04,
          6.43604202e-03, 8.04505253e-04, 1.60901051e-03, 8.04505253e-04 ]
      - [ 1.31406041e-03, 2.62812083e-03, 1.31406039e-02, 3.94218136e-03,
          1.31406041e-03, 2.49671470e-02, 2.62812083e-03, 1.31406041e-03,
          3.94218136e-03, 1.57687254e-02, 0., 2.62812083e-03,
          2.62812083e-03, 5.25624165e-03, 5.25624165e-03, 7.88436271e-03,
          1.31406041e-03, 3.94218136e-03, 1.18265441e-02, 2.62812083e-03,
          6.57030195e-03, 1.18265441e-02, 1.31406041e-03, 9.19842254e-03,
          2.62812083e-03, 2.62812083e-03, 6.57030195e-03, 1.31406041e-03,
          5.25624165e-03, 9.19842254e-03, 5.25624165e-03, 6.57030195e-03,
          2.62812083e-03, 5.25624165e-03, 1.31406041e-03, 5.25624165e-03,
          2.62812083e-03, 2.62812083e-03, 3.94218136e-03, 0.,
          3.94218136e-03, 1.31406041e-03, 7.88436271e-03, 1.44546647e-02,
          1.31406041e-03, 6.57030195e-03, 1.31406041e-03, 5.25624165e-03,
          7.88436271e-03, 0., 0., 6.57030195e-03, 7.88436271e-03,
          1.31406041e-03, 5.25624165e-03, 0., 3.94218136e-03, 0.,
          9.19842254e-03, 7.88436271e-03, 1.18265441e-02, 3.94218136e-03,
          1.31406039e-02, 5.25624165e-03, 1.31406041e-03, 1.31406041e-03,
          5.25624165e-03, 9.19842254e-03, 2.62812083e-03, 1.31406041e-03,
          7.88436271e-03, 6.57030195e-03, 1.31406041e-03, 0.,
          1.31406041e-03, 9.19842254e-03, 1.31406039e-02, 1.05124833e-02,
          1.31406041e-03, 2.62812083e-03, 1.31406041e-03, 2.62812083e-03,
          2.62812083e-03, 7.88436271e-03, 7.88436271e-03, 9.19842254e-03,
          1.31406041e-03, 3.94218136e-03, 1.05124833e-02, 0.,
          7.88436271e-03, 9.19842254e-03, 5.25624165e-03, 1.31406039e-02,
          5.25624165e-03, 2.62812083e-03, 1.18265441e-02, 3.94218136e-03,
          5.25624165e-03, 3.94218136e-03, 2.62812083e-03, 0.,
          2.62812083e-03, 1.31406041e-03, 6.57030195e-03, 1.31406041e-03,
          6.57030195e-03, 5.25624165e-03, 1.05124833e-02, 1.31406041e-03,
          2.62812083e-03, 0., 1.31406041e-03, 7.88436271e-03,
          1.44546647e-02, 3.94218136e-03, 7.88436271e-03, 1.31406041e-03,
          7.88436271e-03, 3.94218136e-03, 1.44546647e-02, 7.88436271e-03,
          5.25624165e-03, 5.25624165e-03, 3.94218136e-03, 3.94218136e-03,
          1.05124833e-02, 6.57030195e-03, 5.25624165e-03, 5.25624165e-03,
          1.31406039e-02, 2.62812083e-03, 6.57030195e-03, 6.57030195e-03,
          5.25624165e-03, 6.57030195e-03, 7.88436271e-03, 0.,
          2.62812083e-03, 2.62812083e-03, 7.88436271e-03, 2.62812083e-03,
          7.88436271e-03, 0., 3.94218136e-03, 9.19842254e-03,
          2.62812083e-03, 1.31406041e-03, 7.88436271e-03, 7.88436271e-03,
          2.62812083e-03, 1.31406041e-03, 2.62812083e-03, 1.05124833e-02,
          5.25624165e-03, 0., 2.62812083e-03, 1.97109058e-02,
          6.57030195e-03, 6.57030195e-03, 0., 3.94218136e-03,
          1.31406041e-03, 5.25624165e-03, 5.25624165e-03, 2.62812083e-03,
          6.57030195e-03, 3.94218136e-03, 7.88436271e-03, 3.94218136e-03,
          1.31406041e-03, 3.94218136e-03, 1.31406041e-03, 1.31406041e-03,
          0., 0., 9.19842254e-03, 6.57030195e-03, 3.94218136e-03, 0.,
          9.19842254e-03, 6.57030195e-03, 2.62812083e-03, 1.31406041e-03,
          3.94218136e-03, 2.62812083e-03, 7.88436271e-03, 0.,
          5.25624165e-03, 7.88436271e-03, 5.25624165e-03, 2.62812083e-03,
          6.57030195e-03, 7.88436271e-03, 9.19842254e-03, 5.25624165e-03,
          1.31406041e-03, 1.31406041e-03, 0., 1.31406041e-03 ]
      - [ 3.28947371e-03, 2.19298247e-03, 5.48245618e-03, 4.38596494e-03,
          1.09649124e-03, 2.19298247e-02, 1.09649124e-03, 1.09649124e-03,
          4.38596494e-03, 2.52192989e-02, 2.19298247e-03, 4.38596494e-03,
          4.38596494e-03, 3.28947371e-03, 5.48245618e-03, 4.38596494e-03,
          1.09649124e-03, 3.28947371e-03, 8.77192989e-03, 2.19298247e-03,
          5.48245618e-03, 1.42543856e-02, 4.38596494e-03, 5.48245618e-03,
          3.28947371e-03, 0., 3.28947371e-03, 2.19298247e-03,
          3.28947371e-03, 7.67543865e-03, 4.38596494e-03, 5.48245618e-03,
          3.28947371e-03, 4.38596494e-03, 1.09649124e-03, 8.77192989e-03,
          4.38596494e-03, 0., 1.31578948e-02, 1.09649124e-03,
          4.38596494e-03, 1.09649124e-03, 6.57894742e-03, 1.53508773e-02,
          2.19298247e-03, 7.67543865e-03, 0., 4.38596494e-03,
          5.48245618e-03, 0., 4.38596494e-03, 5.48245618e-03,
          8.77192989e-03, 6.57894742e-03, 3.28947371e-03, 0.,
          4.38596494e-03, 0., 6.57894742e-03, 7.67543865e-03,
          1.64473690e-02, 0., 1.20614041e-02, 0., 2.19298247e-03,
          2.19298247e-03, 1.09649124e-02, 6.57894742e-03, 1.09649124e-03,
          2.19298247e-03, 5.48245618e-03, 6.57894742e-03, 1.09649124e-03,
          5.48245618e-03, 1.09649124e-03, 9.86842066e-03, 2.52192989e-02,
          1.31578948e-02, 0., 2.19298247e-03, 4.38596494e-03,
          2.19298247e-03, 4.38596494e-03, 6.57894742e-03, 5.48245618e-03,
          4.38596494e-03, 5.48245618e-03, 5.48245618e-03, 1.31578948e-02,
          0., 4.38596494e-03, 2.19298247e-03, 1.09649124e-03,
          7.67543865e-03, 8.77192989e-03, 3.28947371e-03, 8.77192989e-03,
          4.38596494e-03, 5.48245618e-03, 3.28947371e-03, 1.09649124e-03,
          1.09649124e-03, 3.28947371e-03, 2.19298247e-03, 7.67543865e-03,
          1.09649124e-03, 5.48245618e-03, 2.19298247e-03, 1.42543856e-02,
          0., 2.19298247e-03, 1.09649124e-03, 4.38596494e-03,
          8.77192989e-03, 8.77192989e-03, 3.28947371e-03, 5.48245618e-03,
          1.09649124e-03, 6.57894742e-03, 3.28947371e-03, 1.31578948e-02,
          6.57894742e-03, 6.57894742e-03, 2.19298247e-03, 2.19298247e-03,
          4.38596494e-03, 9.86842066e-03, 9.86842066e-03, 4.38596494e-03,
          2.19298247e-03, 1.42543856e-02, 5.48245618e-03, 7.67543865e-03,
          6.57894742e-03, 4.38596494e-03, 8.77192989e-03, 4.38596494e-03,
          5.48245618e-03, 2.19298247e-03, 0., 7.67543865e-03,
          1.09649124e-03, 6.57894742e-03, 0., 3.28947371e-03,
          6.57894742e-03, 1.09649124e-03, 1.09649124e-03, 3.28947371e-03,
          1.20614041e-02, 3.28947371e-03, 3.28947371e-03, 1.09649124e-03,
          7.67543865e-03, 6.57894742e-03, 0., 2.19298247e-03,
          1.31578948e-02, 3.28947371e-03, 4.38596494e-03, 0.,
          3.28947371e-03, 2.19298247e-03, 3.28947371e-03, 8.77192989e-03,
          1.09649124e-03, 6.57894742e-03, 3.28947371e-03, 6.57894742e-03,
          7.67543865e-03, 3.28947371e-03, 0., 2.19298247e-03,
          3.28947371e-03, 2.19298247e-03, 1.09649124e-03, 5.48245618e-03,
          9.86842066e-03, 4.38596494e-03, 0., 6.57894742e-03,
          5.48245618e-03, 2.19298247e-03, 3.28947371e-03, 3.28947371e-03,
          0., 1.31578948e-02, 1.09649124e-03, 6.57894742e-03,
          2.08333340e-02, 3.28947371e-03, 2.19298247e-03, 9.86842066e-03,
          1.09649124e-02, 9.86842066e-03, 2.19298247e-03, 5.48245618e-03,
          2.19298247e-03, 0., 1.09649124e-03 ]
      - [ 6.02813112e-03, 6.69792353e-04, 3.34896171e-03, 4.01875423e-03,
          6.69792353e-04, 2.67916936e-02, 4.01875423e-03, 6.69792353e-04,
          1.33958471e-03, 1.67448092e-02, 2.67916941e-03, 6.69792341e-03,
          4.01875423e-03, 3.34896171e-03, 4.01875423e-03, 3.34896171e-03,
          3.34896171e-03, 4.01875423e-03, 7.36771571e-03, 4.68854653e-03,
          4.01875423e-03, 5.35833882e-03, 1.00468853e-02, 4.01875423e-03,
          6.69792353e-04, 6.69792353e-04, 4.01875423e-03, 0.,
          4.01875423e-03, 5.35833882e-03, 4.68854653e-03, 7.36771571e-03,
          6.02813112e-03, 2.67916941e-03, 4.68854653e-03, 8.03750847e-03,
          3.34896171e-03, 7.36771571e-03, 8.70730076e-03, 1.33958471e-03,
          6.02813112e-03, 6.69792353e-04, 6.02813112e-03, 1.07166776e-02,
          3.34896171e-03, 7.36771571e-03, 0., 6.69792353e-04,
          1.94239784e-02, 0., 2.00937712e-03, 8.03750847e-03,
          4.68854653e-03, 8.03750847e-03, 6.69792353e-04, 2.67916941e-03,
          6.02813112e-03, 1.33958471e-03, 1.33958471e-03, 6.69792341e-03,
          1.20562622e-02, 2.00937712e-03, 8.70730076e-03, 4.68854653e-03,
          1.33958471e-03, 6.69792353e-04, 2.67916941e-03, 4.68854653e-03,
          1.40656391e-02, 4.68854653e-03, 8.70730076e-03, 2.00937712e-03,
          6.69792353e-04, 1.33958471e-03, 6.69792353e-04, 6.69792341e-03,
          1.60750169e-02, 6.69792341e-03, 4.68854653e-03, 6.69792353e-04,
          4.01875423e-03, 2.67916941e-03, 4.01875423e-03, 3.34896171e-03,
          2.67916941e-03, 3.34896171e-03, 5.35833882e-03, 2.00937712e-03,
          5.35833882e-03, 2.00937712e-03, 2.67916941e-03, 3.34896171e-03,
          1.33958471e-03, 6.02813112e-03, 8.70730076e-03, 2.00937712e-03,
          5.35833882e-03, 4.01875423e-03, 6.02813112e-03, 6.02813112e-03,
          2.00937712e-03, 4.68854653e-03, 1.47354314e-02, 6.69792353e-04,
          1.00468853e-02, 6.69792353e-04, 3.34896171e-03, 4.01875423e-03,
          6.69792341e-03, 1.33958468e-02, 4.01875423e-03, 0.,
          4.68854653e-03, 4.68854653e-03, 3.34896171e-03, 2.67916941e-03,
          3.41594107e-02, 1.33958471e-03, 5.35833882e-03, 2.00937712e-03,
          3.34896171e-03, 6.69792341e-03, 2.67916941e-03, 2.00937712e-03,
          6.02813112e-03, 4.01875423e-03, 1.13864699e-02, 1.33958468e-02,
          4.68854653e-03, 3.34896171e-03, 9.37709305e-03, 2.00937712e-03,
          4.68854653e-03, 1.00468853e-02, 4.68854653e-03, 2.00937712e-03,
          3.34896171e-03, 4.01875423e-03, 1.33958471e-03, 8.70730076e-03,
          1.47354314e-02, 2.00937712e-03, 4.68854653e-03, 0.,
          6.69792353e-04, 7.36771571e-03, 0., 1.33958471e-03,
          1.47354314e-02, 1.40656391e-02, 0., 5.35833882e-03,
          2.00937712e-03, 6.69792353e-04, 5.35833882e-03, 2.67916941e-03,
          6.69792353e-04, 1.47354314e-02, 2.00937712e-03, 1.07166776e-02,
          6.69792353e-04, 4.68854653e-03, 4.68854653e-03, 3.34896171e-03,
          2.67916941e-03, 0., 6.69792341e-03, 4.01875423e-03,
          5.35833882e-03, 9.37709305e-03, 3.34896171e-03, 1.33958471e-03,
          1.07166776e-02, 1.20562622e-02, 2.67916941e-03, 1.33958471e-03,
          4.01875423e-03, 4.68854653e-03, 4.68854653e-03, 4.68854653e-03,
          1.00468853e-02, 3.34896171e-03, 6.69792353e-04, 1.33958471e-03,
          2.67916941e-03, 0., 8.03750847e-03, 1.33958471e-03,
          2.00937712e-03, 1.80843938e-02, 2.00937712e-03, 0.,
          5.35833882e-03, 4.01875423e-03, 1.54052237e-02, 2.67916941e-03,
          2.67916941e-03, 3.34896171e-03, 1.33958471e-03, 1.00468853e-02 ]
      - [ 2.41545890e-03, 1.61030598e-03, 4.02576476e-03, 3.22061195e-03,
          0., 2.65700482e-02, 8.05152988e-04, 8.05152988e-04,
          2.41545890e-03, 3.78421918e-02, 1.61030598e-03, 3.22061195e-03,
          4.83091781e-03, 2.41545890e-03, 6.44122390e-03, 4.02576476e-03,
          0., 2.41545890e-03, 1.36876004e-02, 8.05152988e-04,
          5.63607085e-03, 8.05152953e-03, 5.63607085e-03, 4.02576476e-03,
          3.22061195e-03, 8.05152988e-04, 3.22061195e-03, 0.,
          4.02576476e-03, 6.44122390e-03, 4.83091781e-03, 5.63607085e-03,
          2.41545890e-03, 8.85668304e-03, 1.61030598e-03, 6.44122390e-03,
          8.85668304e-03, 8.05152988e-04, 1.04669891e-02, 4.02576476e-03,
          1.61030598e-03, 8.05152988e-04, 5.63607085e-03, 1.52979065e-02,
          2.41545890e-03, 5.63607085e-03, 0., 4.83091781e-03,
          7.24637695e-03, 0., 3.22061195e-03, 1.36876004e-02,
          6.44122390e-03, 8.85668304e-03, 2.41545890e-03, 4.02576476e-03,
          8.05152953e-03, 8.05152988e-04, 4.02576476e-03, 6.44122390e-03,
          8.85668304e-03, 4.02576476e-03, 5.63607085e-03, 4.83091781e-03,
          8.05152988e-04, 2.41545890e-03, 5.63607085e-03, 4.83091781e-03,
          8.05152988e-04, 2.41545890e-03, 1.52979065e-02, 4.02576476e-03,
          1.61030598e-03, 3.22061195e-03, 0., 4.83091781e-03,
          1.93236712e-02, 8.85668304e-03, 2.41545890e-03, 4.02576476e-03,
          4.02576476e-03, 4.83091781e-03, 3.22061195e-03, 8.05152953e-03,
          5.63607085e-03, 5.63607085e-03, 3.22061195e-03, 1.61030598e-03,
          9.66183562e-03, 0., 4.02576476e-03, 3.22061195e-03,
          1.61030598e-03, 5.63607085e-03, 1.85185187e-02, 1.61030598e-03,
          8.85668304e-03, 3.22061195e-03, 2.41545890e-03, 3.22061195e-03,
          8.05152988e-04, 8.05152988e-04, 1.61030591e-02, 8.05152988e-04,
          8.85668304e-03, 3.22061195e-03, 7.24637695e-03, 2.41545890e-03,
          8.05152953e-03, 5.63607085e-03, 2.41545890e-03, 8.05152988e-04,
          1.61030598e-03, 3.22061195e-03, 7.24637695e-03, 4.02576476e-03,
          5.63607085e-03, 3.22061195e-03, 6.44122390e-03, 3.22061195e-03,
          7.24637695e-03, 8.05152953e-03, 4.83091781e-03, 5.63607085e-03,
          3.22061195e-03, 5.63607085e-03, 5.63607085e-03, 5.63607085e-03,
          7.24637695e-03, 2.41545890e-03, 1.36876004e-02, 4.02576476e-03,
          5.63607085e-03, 8.05152953e-03, 8.05152953e-03, 7.24637695e-03,
          4.83091781e-03, 4.83091781e-03, 2.41545890e-03, 8.05152988e-04,
          8.85668304e-03, 5.63607085e-03, 7.24637695e-03, 0.,
          2.41545890e-03, 8.05152953e-03, 1.61030598e-03, 0.,
          1.61030598e-03, 1.44927539e-02, 6.44122390e-03, 3.22061195e-03,
          4.02576476e-03, 4.83091781e-03, 1.61030598e-03, 2.41545890e-03,
          2.41545890e-03, 1.77133661e-02, 4.02576476e-03, 8.05152953e-03,
          8.05152988e-04, 4.83091781e-03, 1.61030598e-03, 8.05152988e-04,
          4.83091781e-03, 8.05152988e-04, 6.44122390e-03, 2.41545890e-03,
          5.63607085e-03, 8.05152953e-03, 3.22061195e-03, 8.05152988e-04,
          6.44122390e-03, 1.61030598e-03, 2.41545890e-03, 8.05152988e-04,
          6.44122390e-03, 6.44122390e-03, 3.22061195e-03, 2.41545890e-03,
          9.66183562e-03, 5.63607085e-03, 3.22061195e-03, 2.41545890e-03,
          4.83091781e-03, 3.22061195e-03, 7.24637695e-03, 8.05152988e-04,
          4.02576476e-03, 1.69082135e-02, 3.22061195e-03, 1.61030598e-03,
          8.85668304e-03, 1.28824478e-02, 7.24637695e-03, 8.05152988e-04,
          4.02576476e-03, 1.61030598e-03, 1.61030598e-03, 8.05152988e-04 ]
      - [ 1.73913047e-03, 1.73913047e-03, 1.73913047e-03, 1.21739134e-02,
          1.73913047e-03, 0., 1.73913047e-03, 3.47826094e-03,
          8.69565271e-03, 1.73913047e-03, 1.73913047e-03, 1.04347831e-02,
          5.21739153e-03, 8.69565271e-03, 8.69565271e-03, 5.21739153e-03,
          5.21739153e-03, 5.21739153e-03, 1.73913047e-03, 5.21739153e-03,
          3.47826094e-03, 1.73913047e-03, 5.21739153e-03, 3.47826094e-03,
          0., 0., 8.69565271e-03, 3.47826094e-03, 1.73913047e-03,
          1.21739134e-02, 3.47826094e-03, 8.69565271e-03, 1.73913047e-03,
          1.04347831e-02, 8.69565271e-03, 3.47826094e-03, 1.73913047e-03,
          3.99999991e-02, 1.73913047e-03, 5.21739153e-03, 1.73913054e-02,
          1.73913047e-03, 1.73913047e-03, 1.73913047e-03, 5.21739153e-03,
          5.21739153e-03, 1.73913047e-03, 5.21739153e-03, 6.95652189e-03,
          0., 1.73913047e-03, 1.73913047e-03, 5.21739153e-03,
          3.47826094e-03, 5.21739153e-03, 3.47826094e-03, 3.47826094e-03,
          0., 6.95652189e-03, 5.21739153e-03, 1.73913054e-02,
          3.47826094e-03, 3.47826094e-03, 1.21739134e-02, 3.47826094e-03,
          0., 1.21739134e-02, 8.69565271e-03, 0., 0., 1.73913047e-03,
          1.39130438e-02, 1.73913047e-03, 8.69565271e-03, 3.47826094e-03,
          8.69565271e-03, 0., 1.73913047e-03, 0., 3.47826094e-03,
          5.21739153e-03, 5.21739153e-03, 6.95652189e-03, 0.,
          1.04347831e-02, 5.21739153e-03, 5.21739153e-03, 3.47826094e-03,
          1.21739134e-02, 1.04347831e-02, 3.47826094e-03, 0.,
          3.47826094e-03, 6.95652189e-03, 3.47826094e-03, 5.21739153e-03,
          5.21739153e-03, 6.95652189e-03, 8.69565271e-03, 5.21739153e-03,
          5.21739153e-03, 1.73913047e-03, 0., 3.47826094e-03,
          1.56521741e-02, 0., 0., 5.21739153e-03, 0., 0., 8.69565271e-03,
          1.73913047e-03, 3.47826094e-03, 3.47826094e-03, 0.,
          5.21739153e-03, 1.73913047e-03, 1.73913047e-03, 1.73913047e-03,
          3.47826094e-03, 3.47826094e-03, 1.21739134e-02, 6.95652189e-03,
          0., 3.47826094e-03, 1.04347831e-02, 5.21739153e-03,
          5.21739153e-03, 3.47826094e-03, 3.47826094e-03, 1.73913047e-03,
          3.47826094e-03, 6.95652189e-03, 5.21739153e-03, 6.95652189e-03,
          3.47826094e-03, 5.21739153e-03, 0., 3.47826094e-03,
          1.73913047e-03, 1.21739134e-02, 1.73913047e-03, 3.47826094e-03,
          0., 1.56521741e-02, 1.39130438e-02, 0., 1.73913047e-03,
          2.43478268e-02, 1.73913047e-03, 8.69565271e-03, 5.21739153e-03,
          1.73913047e-03, 0., 1.21739134e-02, 6.95652189e-03, 0., 0.,
          5.21739153e-03, 2.08695661e-02, 1.73913047e-03, 5.21739153e-03,
          3.47826094e-03, 8.69565271e-03, 1.73913047e-03, 3.47826094e-03,
          3.47826094e-03, 1.73913047e-03, 5.21739153e-03, 3.47826094e-03,
          0., 5.21739153e-03, 6.95652189e-03, 2.60869563e-02,
          5.21739153e-03, 5.21739153e-03, 3.47826094e-03, 8.69565271e-03,
          1.73913047e-03, 5.21739153e-03, 8.69565271e-03, 1.73913047e-03,
          1.73913047e-03, 3.47826094e-03, 1.73913047e-03, 3.47826094e-03,
          3.47826094e-03, 0., 8.69565271e-03, 1.73913047e-03,
          3.47826094e-03, 6.95652189e-03, 5.21739153e-03, 3.47826094e-03,
          1.21739134e-02, 6.95652189e-03, 3.47826094e-03, 3.47826094e-03,
          0., 5.21739153e-03 ]
      - [ 5.71428565e-03, 0., 0., 1.90476188e-03, 1.90476188e-03,
          4.95238081e-02, 1.90476188e-03, 1.90476188e-03, 9.52380896e-03,
          1.90476188e-03, 3.80952377e-03, 1.90476188e-03, 5.71428565e-03,
          7.61904754e-03, 1.14285713e-02, 1.90476188e-03, 5.71428565e-03,
          5.71428565e-03, 1.90476188e-03, 1.90476188e-03, 7.61904754e-03,
          0., 5.71428565e-03, 1.33333337e-02, 0., 1.90476188e-03,
          5.71428565e-03, 0., 1.90476188e-03, 9.52380896e-03, 0.,
          7.61904754e-03, 1.90476188e-03, 9.52380896e-03, 7.61904754e-03,
          1.90476188e-03, 3.80952377e-03, 1.71428565e-02, 1.90476188e-03,
          0., 1.14285713e-02, 5.71428565e-03, 7.61904754e-03,
          3.80952377e-03, 5.71428565e-03, 3.80952377e-03, 1.90476188e-03,
          5.71428565e-03, 9.52380896e-03, 0., 1.90476188e-03,
          3.80952377e-03, 0., 3.80952377e-03, 1.14285713e-02, 0.,
          3.80952377e-03, 0., 3.80952377e-03, 5.71428565e-03,
          1.14285713e-02, 5.71428565e-03, 7.61904754e-03, 3.80952377e-03,
          1.90476188e-03, 1.90476188e-03, 7.61904754e-03, 3.80952377e-03,
          2.28571426e-02, 3.80952377e-03, 1.90476188e-03, 1.14285713e-02,
          3.80952377e-03, 5.71428565e-03, 0., 7.61904754e-03, 0.,
          1.90476188e-03, 0., 7.61904754e-03, 1.90476188e-03, 0., 0., 0.,
          5.71428565e-03, 1.33333337e-02, 7.61904754e-03, 0.,
          7.61904754e-03, 3.80952377e-03, 9.52380896e-03, 1.90476188e-03,
          3.80952377e-03, 5.71428565e-03, 3.80952377e-03, 7.61904754e-03,
          1.90476188e-03, 0., 3.80952377e-03, 1.90476188e-03,
          3.80952377e-03, 0., 3.80952377e-03, 3.80952377e-03,
          3.80952377e-03, 1.90476188e-03, 0., 1.90476188e-03, 0., 0.,
          3.80952377e-03, 0., 7.61904754e-03, 9.52380896e-03,
          1.90476188e-03, 0., 2.28571426e-02, 3.80952377e-03,
          1.90476188e-03, 0., 3.80952377e-03, 1.33333337e-02,
          5.71428565e-03, 0., 5.71428565e-03, 3.80952377e-03,
          1.90476179e-02, 5.71428565e-03, 3.80952377e-03, 0.,
          1.90476188e-03, 1.90476188e-03, 3.80952377e-03, 1.90476188e-03,
          9.52380896e-03, 0., 3.80952377e-03, 5.71428565e-03,
          3.80952377e-03, 3.80952377e-03, 9.52380896e-03, 1.90476188e-03,
          0., 0., 1.33333337e-02, 1.90476188e-03, 0., 3.80952377e-03,
          3.61904763e-02, 5.71428565e-03, 1.33333337e-02, 7.61904754e-03,
          1.90476188e-03, 0., 1.14285713e-02, 1.90476188e-03, 0., 0.,
          7.61904754e-03, 2.85714287e-02, 0., 3.80952377e-03,
          5.71428565e-03, 5.71428565e-03, 0., 1.90476188e-03,
          5.71428565e-03, 0., 1.14285713e-02, 0., 0., 1.90476188e-03,
          7.61904754e-03, 3.61904763e-02, 1.90476188e-03, 3.80952377e-03,
          0., 5.71428565e-03, 5.71428565e-03, 5.71428565e-03,
          1.90476188e-03, 3.80952377e-03, 0., 3.80952377e-03, 0.,
          1.90476188e-03, 3.80952377e-03, 1.90476188e-03, 5.71428565e-03,
          0., 7.61904754e-03, 5.71428565e-03, 3.80952377e-03,
          1.90476188e-03, 5.71428565e-03, 3.80952377e-03, 1.90476188e-03,
          3.80952377e-03, 1.90476188e-03, 2.66666673e-02 ]
      - [ 2.51889159e-03, 2.51889159e-03, 1.25944579e-03, 6.29722886e-03,
          3.77833750e-03, 3.65239270e-02, 5.03778318e-03, 2.51889159e-03,
          6.29722886e-03, 1.25944579e-03, 3.77833750e-03, 5.03778318e-03,
          5.03778318e-03, 5.03778318e-03, 3.77833750e-03, 2.51889159e-03,
          3.77833750e-03, 6.29722886e-03, 1.25944579e-03, 1.25944579e-03,
          5.03778318e-03, 2.51889159e-03, 7.55667500e-03, 3.77833750e-03,
          0., 1.25944579e-03, 6.29722886e-03, 2.51889159e-03,
          3.77833750e-03, 6.29722886e-03, 3.77833750e-03, 6.29722886e-03,
          6.29722886e-03, 7.55667500e-03, 7.55667500e-03, 1.25944579e-03,
          3.77833750e-03, 3.90428193e-02, 1.25944579e-03, 5.03778318e-03,
          1.13350125e-02, 1.25944579e-03, 8.81612021e-03, 1.25944579e-03,
          1.38539039e-02, 2.51889159e-03, 2.51889159e-03, 5.03778318e-03,
          1.88916866e-02, 0., 2.51889159e-03, 1.25944579e-03,
          2.51889159e-03, 3.77833750e-03, 7.55667500e-03, 0.,
          3.77833750e-03, 0., 3.77833750e-03, 7.55667500e-03,
          1.51133500e-02, 5.03778318e-03, 1.25944579e-03, 1.13350125e-02,
          1.25944579e-03, 1.25944579e-03, 7.55667500e-03, 5.03778318e-03,
          2.14105789e-02, 1.25944579e-03, 1.25944579e-03, 1.13350125e-02,
          3.77833750e-03, 3.77833750e-03, 5.03778318e-03, 1.13350125e-02,
          0., 2.51889159e-03, 1.25944579e-03, 3.77833750e-03,
          6.29722886e-03, 6.29722886e-03, 5.03778318e-03, 3.77833750e-03,
          8.81612021e-03, 7.55667500e-03, 2.51889159e-03, 3.77833750e-03,
          3.77833750e-03, 6.29722886e-03, 5.03778318e-03, 0.,
          2.51889159e-03, 5.03778318e-03, 3.77833750e-03, 2.51889159e-03,
          6.29722886e-03, 5.03778318e-03, 5.03778318e-03, 3.77833750e-03,
          6.29722886e-03, 2.51889159e-03, 3.77833750e-03, 1.25944579e-03,
          1.00755664e-02, 1.25944579e-03, 0., 2.51889159e-03,
          1.25944579e-03, 0., 6.29722886e-03, 1.25944579e-03,
          2.51889159e-03, 8.81612021e-03, 3.77833750e-03, 7.55667500e-03,
          1.00755664e-02, 3.77833750e-03, 2.51889159e-03, 2.51889159e-03,
          6.29722886e-03, 1.00755664e-02, 5.03778318e-03, 1.25944579e-03,
          5.03778318e-03, 5.03778318e-03, 5.03778318e-03, 7.55667500e-03,
          2.51889159e-03, 2.51889159e-03, 2.51889159e-03, 5.03778318e-03,
          6.29722886e-03, 1.25944579e-03, 6.29722886e-03, 1.25944579e-03,
          2.51889159e-03, 5.03778318e-03, 3.77833750e-03, 3.77833750e-03,
          1.13350125e-02, 5.03778318e-03, 1.25944579e-03, 1.25944579e-03,
          5.03778318e-03, 7.55667500e-03, 1.25944579e-03, 2.51889159e-03,
          3.65239270e-02, 3.77833750e-03, 1.00755664e-02, 3.77833750e-03,
          2.51889159e-03, 1.25944579e-03, 1.00755664e-02, 5.03778318e-03,
          1.25944579e-03, 0., 6.29722886e-03, 1.13350125e-02,
          2.51889159e-03, 5.03778318e-03, 5.03778318e-03, 6.29722886e-03,
          2.51889159e-03, 0., 1.25944579e-03, 3.77833750e-03,
          6.29722886e-03, 0., 1.25944579e-03, 3.77833750e-03,
          7.55667500e-03, 2.01511327e-02, 3.77833750e-03, 7.55667500e-03,
          1.25944579e-03, 8.81612021e-03, 0., 3.77833750e-03,
          5.03778318e-03, 5.03778318e-03, 1.25944579e-03, 5.03778318e-03,
          3.77833750e-03, 2.51889159e-03, 1.25944579e-03, 0.,
          1.00755664e-02, 0., 7.55667500e-03, 3.77833750e-03,
          1.25944579e-03, 2.51889159e-03, 5.03778318e-03, 6.29722886e-03,
          2.51889159e-03, 3.77833750e-03, 2.51889159e-03, 1.38539039e-02 ]
      - [ 4.22535185e-03, 2.81690131e-03, 1.40845065e-03, 7.04225339e-03,
          2.81690131e-03, 0., 4.22535185e-03, 2.81690131e-03,
          8.45070370e-03, 1.40845065e-03, 2.81690131e-03, 7.04225339e-03,
          5.63380262e-03, 5.63380262e-03, 2.81690131e-03, 5.63380262e-03,
          2.81690131e-03, 4.22535185e-03, 2.81690131e-03, 1.40845065e-03,
          1.40845065e-03, 2.81690131e-03, 8.45070370e-03, 4.22535185e-03,
          0., 1.40845065e-03, 8.45070370e-03, 2.81690131e-03,
          1.40845065e-03, 5.63380262e-03, 2.81690131e-03, 9.85915493e-03,
          5.63380262e-03, 9.85915493e-03, 9.85915493e-03, 5.63380262e-03,
          2.81690131e-03, 4.22535203e-02, 1.40845065e-03, 5.63380262e-03,
          1.26760555e-02, 2.81690131e-03, 2.81690131e-03, 1.40845065e-03,
          1.97183099e-02, 2.81690131e-03, 2.81690131e-03, 2.81690131e-03,
          1.54929571e-02, 0., 2.81690131e-03, 1.40845065e-03,
          5.63380262e-03, 4.22535185e-03, 8.45070370e-03, 0.,
          4.22535185e-03, 0., 5.63380262e-03, 7.04225339e-03,
          1.83098577e-02, 4.22535185e-03, 1.40845065e-03, 1.12676052e-02,
          2.81690131e-03, 1.40845065e-03, 1.69014074e-02, 4.22535185e-03,
          0., 2.81690131e-03, 2.81690131e-03, 1.54929571e-02,
          2.81690131e-03, 5.63380262e-03, 4.22535185e-03, 1.12676052e-02,
          2.81690131e-03, 4.22535185e-03, 1.40845065e-03, 2.81690131e-03,
          5.63380262e-03, 7.04225339e-03, 5.63380262e-03, 2.81690131e-03,
          8.45070370e-03, 2.81690131e-03, 5.63380262e-03, 1.40845065e-03,
          5.63380262e-03, 7.04225339e-03, 7.04225339e-03, 0.,
          2.81690131e-03, 5.63380262e-03, 1.40845065e-03, 1.40845065e-03,
          4.22535185e-03, 5.63380262e-03, 5.63380262e-03, 4.22535185e-03,
          5.63380262e-03, 4.22535185e-03, 4.22535185e-03, 1.40845065e-03,
          1.26760555e-02, 0., 0., 2.81690131e-03, 4.22535185e-03,
          2.81690131e-03, 9.85915493e-03, 1.40845065e-03, 2.81690131e-03,
          5.63380262e-03, 4.22535185e-03, 4.22535185e-03, 1.40845065e-03,
          2.81690131e-03, 4.22535185e-03, 2.81690131e-03, 5.63380262e-03,
          9.85915493e-03, 7.04225339e-03, 1.40845065e-03, 4.22535185e-03,
          7.04225339e-03, 2.81690131e-03, 1.26760555e-02, 2.81690131e-03,
          2.81690131e-03, 2.81690131e-03, 1.40845065e-03, 7.04225339e-03,
          1.40845065e-03, 8.45070370e-03, 0., 4.22535185e-03,
          5.63380262e-03, 2.81690131e-03, 2.81690131e-03, 1.83098577e-02,
          7.04225339e-03, 4.22535185e-03, 0., 4.22535185e-03,
          1.12676052e-02, 1.40845065e-03, 5.63380262e-03, 3.38028148e-02,
          5.63380262e-03, 5.63380262e-03, 4.22535185e-03, 1.40845065e-03,
          1.40845065e-03, 8.45070370e-03, 4.22535185e-03, 1.40845065e-03,
          0., 5.63380262e-03, 1.12676052e-02, 2.81690131e-03,
          5.63380262e-03, 2.81690131e-03, 2.81690131e-03, 2.81690131e-03,
          0., 4.22535185e-03, 5.63380262e-03, 4.22535185e-03,
          1.40845065e-03, 0., 7.04225339e-03, 7.04225339e-03,
          2.39436608e-02, 2.81690131e-03, 9.85915493e-03, 1.40845065e-03,
          1.40845068e-02, 0., 4.22535185e-03, 2.81690131e-03,
          2.81690131e-03, 2.81690131e-03, 7.04225339e-03, 4.22535185e-03,
          4.22535185e-03, 1.40845065e-03, 1.40845065e-03, 8.45070370e-03,
          0., 2.81690131e-03, 5.63380262e-03, 2.81690131e-03,
          2.81690131e-03, 7.04225339e-03, 7.04225339e-03, 5.63380262e-03,
          4.22535185e-03, 0., 0. ]
      - [ 1.24378107e-03, 3.73134320e-03, 0., 7.46268639e-03,
          2.48756213e-03, 3.60696502e-02, 3.73134320e-03, 2.48756213e-03,
          4.97512426e-03, 1.24378107e-03, 2.48756213e-03, 4.97512426e-03,
          4.97512426e-03, 1.24378111e-02, 4.97512426e-03, 1.24378107e-03,
          4.97512426e-03, 4.97512426e-03, 1.24378107e-03, 3.73134320e-03,
          3.73134320e-03, 2.48756213e-03, 6.21890556e-03, 7.46268639e-03,
          0., 1.24378107e-03, 2.48756213e-03, 2.48756213e-03,
          2.48756213e-03, 8.70646723e-03, 1.24378107e-03, 8.70646723e-03,
          4.97512426e-03, 7.46268639e-03, 9.95024852e-03, 4.97512426e-03,
          6.21890556e-03, 3.85572128e-02, 1.24378107e-03, 3.73134320e-03,
          7.46268639e-03, 2.48756213e-03, 7.46268639e-03, 2.48756213e-03,
          9.95024852e-03, 2.48756213e-03, 1.24378107e-03, 6.21890556e-03,
          1.99004970e-02, 0., 1.24378107e-03, 1.24378107e-03,
          4.97512426e-03, 3.73134320e-03, 6.21890556e-03, 1.24378107e-03,
          2.48756213e-03, 1.24378107e-03, 3.73134320e-03, 6.21890556e-03,
          1.36815915e-02, 2.48756213e-03, 3.73134320e-03, 7.46268639e-03,
          2.48756213e-03, 0., 4.97512426e-03, 3.73134320e-03,
          1.86567158e-02, 1.24378107e-03, 1.24378107e-03, 9.95024852e-03,
          2.48756213e-03, 2.48756213e-03, 2.48756213e-03, 6.21890556e-03,
          1.24378107e-03, 3.73134320e-03, 2.48756213e-03, 2.48756213e-03,
          4.97512426e-03, 4.97512426e-03, 6.21890556e-03, 2.48756213e-03,
          3.73134320e-03, 1.11940298e-02, 6.21890556e-03, 4.97512426e-03,
          7.46268639e-03, 7.46268639e-03, 4.97512426e-03, 0.,
          3.73134320e-03, 3.73134320e-03, 2.48756213e-03, 1.24378107e-03,
          7.46268639e-03, 4.97512426e-03, 4.97512426e-03, 6.21890556e-03,
          3.73134320e-03, 1.24378107e-03, 3.73134320e-03, 2.48756213e-03,
          1.24378111e-02, 0., 0., 2.48756213e-03, 3.73134320e-03, 0.,
          7.46268639e-03, 1.24378107e-03, 1.24378107e-03, 1.11940298e-02,
          1.24378107e-03, 4.97512426e-03, 6.21890556e-03, 1.24378107e-03,
          2.48756213e-03, 2.48756213e-03, 6.21890556e-03, 1.11940298e-02,
          6.21890556e-03, 3.73134320e-03, 2.48756213e-03, 6.21890556e-03,
          9.95024852e-03, 4.97512426e-03, 2.48756213e-03, 2.48756213e-03,
          1.24378107e-03, 4.97512426e-03, 4.97512426e-03, 1.24378107e-03,
          3.73134320e-03, 1.24378107e-03, 3.73134320e-03, 3.73134320e-03,
          3.73134320e-03, 3.73134320e-03, 1.36815915e-02, 6.21890556e-03,
          3.73134320e-03, 0., 3.73134320e-03, 1.49253728e-02,
          1.24378107e-03, 4.97512426e-03, 3.98009941e-02, 3.73134320e-03,
          6.21890556e-03, 2.48756213e-03, 0., 0., 7.46268639e-03,
          7.46268639e-03, 2.48756213e-03, 0., 1.24378107e-03,
          1.61691532e-02, 2.48756213e-03, 4.97512426e-03, 3.73134320e-03,
          6.21890556e-03, 2.48756213e-03, 0., 1.24378107e-03,
          7.46268639e-03, 4.97512426e-03, 1.24378107e-03, 2.48756213e-03,
          1.24378107e-03, 4.97512426e-03, 2.61194017e-02, 6.21890556e-03,
          1.11940298e-02, 1.24378107e-03, 9.95024852e-03, 1.24378107e-03,
          4.97512426e-03, 2.48756213e-03, 3.73134320e-03, 1.24378107e-03,
          3.73134320e-03, 2.48756213e-03, 1.24378107e-03, 3.73134320e-03,
          0., 7.46268639e-03, 0., 7.46268639e-03, 4.97512426e-03,
          3.73134320e-03, 2.48756213e-03, 6.21890556e-03, 1.11940298e-02,
          3.73134320e-03, 2.48756213e-03, 0., 1.49253728e-02 ]
      - [ 1.00058857e-02, 9.41730384e-03, 1.05944667e-02, 2.35432596e-03,
          2.94290739e-03, 2.76633296e-02, 4.12007049e-03, 7.65155954e-03,
          2.35432596e-03, 1.76574453e-03, 2.35432596e-03, 2.35432596e-03,
          5.29723335e-03, 1.17716298e-03, 1.00058857e-02, 4.12007049e-03,
          5.88581478e-03, 5.88581490e-04, 1.17716298e-03, 8.24014097e-03,
          4.12007049e-03, 2.94290739e-03, 2.94290739e-03, 3.53148906e-03,
          5.88581490e-04, 2.94290739e-03, 7.06297811e-03, 7.65155954e-03,
          5.88581478e-03, 4.12007049e-03, 4.70865192e-03, 4.70865192e-03,
          5.88581478e-03, 2.35432596e-03, 5.29723335e-03, 4.12007049e-03,
          4.70865192e-03, 5.88581490e-04, 5.88581490e-04, 3.53148906e-03,
          2.94290739e-03, 1.82460267e-02, 2.17775144e-02, 4.12007049e-03,
          5.88581490e-04, 3.53148906e-03, 8.82872194e-03, 1.29487924e-02,
          5.88581478e-03, 0., 7.06297811e-03, 4.12007049e-03,
          1.76574453e-03, 0., 2.35432596e-03, 5.29723335e-03,
          4.12007049e-03, 7.65155954e-03, 2.94290739e-03, 2.35432596e-03,
          1.17716298e-03, 9.41730384e-03, 4.70865192e-03, 2.35432596e-03,
          1.05944667e-02, 1.17716298e-03, 2.35432596e-03, 0.,
          9.41730384e-03, 5.88581478e-03, 2.94290739e-03, 1.17716298e-03,
          4.12007049e-03, 6.47439621e-03, 5.88581478e-03, 2.35432596e-03,
          0., 0., 1.35373743e-02, 5.88581478e-03, 4.12007049e-03,
          5.88581478e-03, 7.65155954e-03, 8.82872194e-03, 3.53148906e-03,
          3.53148906e-03, 8.24014097e-03, 6.47439621e-03, 1.76574453e-03,
          4.12007049e-03, 5.29723335e-03, 5.88581490e-04, 1.05944667e-02,
          4.70865192e-03, 2.35432596e-03, 2.35432596e-03, 1.17716298e-03,
          2.35432596e-03, 4.12007049e-03, 5.88581490e-04, 4.70865192e-03,
          1.41259562e-02, 5.88581490e-04, 7.65155954e-03, 4.12007049e-03,
          0., 5.88581478e-03, 8.82872194e-03, 7.06297811e-03,
          5.88581478e-03, 5.88581490e-04, 7.06297811e-03, 4.12007049e-03,
          2.29546782e-02, 4.70865192e-03, 1.00058857e-02, 1.82460267e-02,
          4.12007049e-03, 3.53148906e-03, 2.35432596e-03, 2.35432596e-03,
          5.29723335e-03, 5.29723335e-03, 1.23602115e-02, 4.12007049e-03,
          2.35432596e-03, 2.94290739e-03, 2.94290739e-03, 6.47439621e-03,
          5.29723335e-03, 2.35432596e-03, 1.23602115e-02, 1.76574453e-03,
          1.17716298e-03, 2.94290739e-03, 0., 7.06297811e-03,
          4.12007049e-03, 1.11830486e-02, 2.17775144e-02, 0.,
          2.94290739e-03, 1.76574453e-03, 1.17716298e-03, 5.29723335e-03,
          0., 3.53148906e-03, 5.29723335e-03, 1.17716298e-03, 0.,
          1.76574453e-03, 2.94290739e-03, 7.06297811e-03, 1.76574453e-03,
          5.88581490e-04, 4.70865192e-03, 2.23660972e-02, 1.17716298e-03,
          2.35432596e-03, 1.76574453e-03, 8.82872194e-03, 2.35432596e-03,
          5.88581478e-03, 5.29723335e-03, 2.06003524e-02, 6.47439621e-03,
          2.94290739e-03, 2.94290739e-03, 1.76574453e-03, 2.94290739e-03,
          1.76574453e-03, 1.76574453e-03, 5.29723335e-03, 2.35432596e-03,
          7.06297811e-03, 2.35432596e-03, 1.76574453e-03, 2.35432596e-03,
          1.23602115e-02, 2.35432596e-03, 1.76574453e-03, 2.35432596e-03,
          2.76633296e-02, 2.35432596e-03, 1.76574453e-03, 1.05944667e-02,
          5.88581490e-04, 7.06297811e-03, 2.94290739e-03, 5.88581490e-04,
          3.53148906e-03, 1.17716298e-03, 1.17716298e-03, 1.76574453e-03,
          2.94290739e-03, 1.76574453e-03, 3.53148906e-03, 7.65155954e-03,
          6.47439621e-03, 1.76574453e-03 ]
      - [ 1.13717131e-02, 1.13717131e-02, 9.23951715e-03, 1.42146414e-03,
          2.84292828e-03, 2.27434263e-02, 7.10732071e-03, 7.10732071e-03,
          2.84292828e-03, 1.42146414e-03, 2.13219621e-03, 4.97512426e-03,
          4.26439242e-03, 1.42146414e-03, 6.39658887e-03, 4.97512426e-03,
          3.55366035e-03, 1.42146414e-03, 1.42146414e-03, 1.06609808e-02,
          3.55366035e-03, 2.13219621e-03, 3.55366035e-03, 4.26439242e-03,
          1.42146414e-03, 7.10732071e-03, 6.39658887e-03, 7.81805255e-03,
          2.13219621e-03, 2.84292828e-03, 4.26439242e-03, 3.55366035e-03,
          7.81805255e-03, 5.68585657e-03, 7.10732071e-03, 2.84292828e-03,
          6.39658887e-03, 7.10732071e-04, 7.10732071e-04, 2.84292828e-03,
          7.10732071e-04, 1.56361051e-02, 2.41648909e-02, 2.13219621e-03,
          2.84292828e-03, 7.10732071e-03, 6.39658887e-03, 1.49253737e-02,
          6.39658887e-03, 0., 9.95024852e-03, 5.68585657e-03,
          7.10732071e-04, 7.10732071e-04, 7.10732071e-04, 2.84292828e-03,
          4.26439242e-03, 7.81805255e-03, 2.13219621e-03, 1.42146414e-03,
          2.13219621e-03, 7.10732071e-03, 2.84292828e-03, 2.84292828e-03,
          1.27931777e-02, 1.42146414e-03, 7.10732071e-04, 7.10732071e-04,
          2.20326949e-02, 2.84292828e-03, 3.55366035e-03, 1.42146414e-03,
          7.10732071e-04, 7.10732071e-03, 4.26439242e-03, 2.84292828e-03,
          7.10732071e-04, 0., 1.42146414e-02, 4.97512426e-03,
          3.55366035e-03, 7.10732071e-03, 7.10732071e-03, 8.52878485e-03,
          4.26439242e-03, 3.55366035e-03, 9.95024852e-03, 5.68585657e-03,
          2.84292828e-03, 2.13219621e-03, 3.55366035e-03, 7.10732071e-04,
          7.10732071e-03, 6.39658887e-03, 2.13219621e-03, 1.42146414e-03,
          2.84292828e-03, 2.84292828e-03, 4.26439242e-03, 2.84292828e-03,
          3.55366035e-03, 1.77683011e-02, 2.13219621e-03, 5.68585657e-03,
          2.84292828e-03, 7.10732071e-04, 3.55366035e-03, 2.84292828e-03,
          9.23951715e-03, 4.26439242e-03, 2.13219621e-03, 4.26439242e-03,
          2.84292828e-03, 2.13219617e-02, 5.68585657e-03, 6.39658887e-03,
          1.91897657e-02, 5.68585657e-03, 4.26439242e-03, 4.26439242e-03,
          7.10732071e-04, 2.13219621e-03, 4.26439242e-03, 1.91897657e-02,
          3.55366035e-03, 4.26439242e-03, 5.68585657e-03, 7.10732071e-04,
          5.68585657e-03, 5.68585657e-03, 1.42146414e-03, 8.52878485e-03,
          1.42146414e-03, 1.42146414e-03, 4.97512426e-03, 7.10732071e-04,
          2.84292828e-03, 3.55366035e-03, 9.23951715e-03, 2.84292828e-02,
          0., 3.55366035e-03, 4.97512426e-03, 7.10732071e-04,
          6.39658887e-03, 7.10732071e-04, 0., 3.55366035e-03,
          7.10732071e-04, 0., 2.13219621e-03, 5.68585657e-03,
          6.39658887e-03, 7.10732071e-04, 1.42146414e-03, 6.39658887e-03,
          1.42146414e-02, 7.10732071e-04, 1.42146414e-03, 1.42146414e-03,
          7.81805255e-03, 1.42146414e-03, 1.20824454e-02, 2.13219621e-03,
          2.34541576e-02, 8.52878485e-03, 1.42146414e-03, 6.39658887e-03,
          2.13219621e-03, 4.97512426e-03, 1.42146414e-03, 3.55366035e-03,
          5.68585657e-03, 2.13219621e-03, 4.97512426e-03, 5.68585657e-03,
          2.84292828e-03, 7.10732071e-04, 2.06112303e-02, 2.13219621e-03,
          7.10732071e-04, 2.13219621e-03, 1.42146414e-02, 2.13219621e-03,
          7.10732071e-04, 1.27931777e-02, 0., 5.68585657e-03,
          2.84292828e-03, 0., 3.55366035e-03, 7.10732071e-04,
          1.42146414e-03, 7.10732071e-04, 5.68585657e-03, 3.55366035e-03,
          1.42146414e-03, 8.52878485e-03, 6.39658887e-03, 0. ]
      - [ 1.58075597e-02, 6.87285210e-04, 4.12371103e-03, 4.12371103e-03,
          4.81099635e-03, 3.43642617e-03, 4.12371103e-03, 1.09965634e-02,
          3.43642617e-03, 2.06185551e-03, 2.06185551e-03, 5.49828168e-03,
          5.49828168e-03, 1.37457042e-03, 9.62199271e-03, 3.43642617e-03,
          1.03092780e-02, 3.43642617e-03, 1.37457042e-03, 1.16838487e-02,
          3.43642617e-03, 3.43642617e-03, 4.12371103e-03, 1.37457042e-03,
          6.87285210e-04, 4.81099635e-03, 6.18556701e-03, 8.24742205e-03,
          3.43642617e-03, 2.74914084e-03, 6.87285233e-03, 6.87285233e-03,
          1.16838487e-02, 2.74914084e-03, 4.81099635e-03, 5.49828168e-03,
          6.87285210e-04, 0., 6.87285210e-04, 4.12371103e-03,
          4.12371103e-03, 3.43642607e-02, 0., 5.49828168e-03,
          1.37457042e-03, 5.49828168e-03, 7.56013719e-03, 1.37457042e-03,
          7.56013719e-03, 0., 9.62199271e-03, 7.56013719e-03,
          1.37457042e-03, 0., 6.87285210e-04, 6.18556701e-03,
          2.06185551e-03, 9.62199271e-03, 8.93470738e-03, 2.74914084e-03,
          3.43642617e-03, 6.87285233e-03, 4.81099635e-03, 3.43642617e-03,
          8.93470738e-03, 1.37457042e-03, 4.81099635e-03, 0.,
          2.74914084e-03, 5.49828168e-03, 4.81099635e-03, 6.87285210e-04,
          5.49828168e-03, 8.24742205e-03, 8.24742205e-03, 2.06185551e-03,
          0., 6.87285210e-04, 1.78694148e-02, 6.87285233e-03,
          4.81099635e-03, 6.87285233e-03, 8.24742205e-03, 2.06185551e-03,
          4.12371103e-03, 2.74914084e-03, 8.93470738e-03, 6.87285233e-03,
          6.87285210e-04, 4.12371103e-03, 6.18556701e-03, 6.87285210e-04,
          1.78694148e-02, 4.12371103e-03, 1.37457042e-03, 4.12371103e-03,
          1.37457042e-03, 3.43642617e-03, 4.12371103e-03, 3.43642617e-03,
          6.87285233e-03, 1.64948441e-02, 6.87285210e-04, 8.24742205e-03,
          2.74914084e-03, 0., 4.81099635e-03, 9.62199271e-03,
          2.74914084e-03, 4.12371103e-03, 6.87285210e-04, 7.56013719e-03,
          4.81099635e-03, 3.43642617e-03, 1.37457042e-03, 8.93470738e-03,
          1.51202744e-02, 3.43642617e-03, 4.81099635e-03, 4.12371103e-03,
          2.06185551e-03, 6.18556701e-03, 4.81099635e-03, 1.37457042e-03,
          4.12371103e-03, 3.43642617e-03, 2.74914084e-03, 4.81099635e-03,
          6.18556701e-03, 4.81099635e-03, 2.06185551e-03, 1.37457042e-03,
          1.37457042e-03, 2.74914084e-03, 4.12371103e-03, 0.,
          9.62199271e-03, 2.74914084e-03, 1.30584193e-02, 3.43642617e-03,
          0., 2.06185551e-03, 4.81099635e-03, 1.37457042e-03,
          6.87285233e-03, 0., 2.74914084e-03, 6.87285233e-03,
          1.37457042e-03, 6.87285210e-04, 4.81099635e-03, 4.12371103e-03,
          0., 2.06185551e-03, 6.87285210e-04, 8.24742205e-03,
          1.99312717e-02, 6.87285210e-04, 2.74914084e-03, 3.43642617e-03,
          1.30584193e-02, 4.12371103e-03, 8.93470738e-03, 1.03092780e-02,
          3.43642607e-02, 9.62199271e-03, 3.43642617e-03, 4.12371103e-03,
          2.06185551e-03, 3.43642617e-03, 6.18556701e-03, 2.06185551e-03,
          7.56013719e-03, 3.43642617e-03, 7.56013719e-03, 2.06185551e-03,
          4.12371103e-03, 6.18556701e-03, 2.74914084e-03, 2.74914084e-03,
          2.06185551e-03, 1.37457042e-03, 1.85567010e-02, 2.06185551e-03,
          1.37457042e-03, 1.09965634e-02, 6.87285210e-04, 1.16838487e-02,
          4.81099635e-03, 6.87285210e-04, 1.37457042e-03, 4.12371103e-03,
          1.37457042e-03, 0., 5.49828168e-03, 1.37457042e-03,
          1.03092780e-02, 9.62199271e-03, 6.87285233e-03, 2.06185551e-03 ]
      - [ 1.05078807e-02, 2.33508460e-03, 5.83771151e-04, 2.91885575e-03,
          4.67016920e-03, 4.67016920e-03, 5.25394036e-03, 1.45942792e-02,
          2.33508460e-03, 4.08639805e-03, 2.33508460e-03, 1.75131345e-03,
          8.75656679e-03, 5.83771151e-04, 1.05078807e-02, 5.25394036e-03,
          7.58902496e-03, 1.75131345e-03, 1.75131345e-03, 1.10916514e-02,
          3.50262690e-03, 3.50262690e-03, 5.25394036e-03, 5.83771151e-04,
          1.16754230e-03, 5.25394036e-03, 9.34033841e-03, 7.58902496e-03,
          1.75131345e-03, 3.50262690e-03, 7.58902496e-03, 5.25394036e-03,
          1.40105076e-02, 4.08639805e-03, 4.67016920e-03, 7.58902496e-03,
          0., 0., 1.16754230e-03, 5.25394036e-03, 3.50262690e-03,
          2.33508460e-02, 0., 7.00525381e-03, 1.16754230e-03,
          6.42148266e-03, 7.00525381e-03, 5.83771151e-04, 7.00525381e-03,
          0., 6.42148266e-03, 6.42148266e-03, 1.75131345e-03, 0., 0.,
          6.42148266e-03, 1.16754230e-03, 8.17279611e-03, 6.42148266e-03,
          1.75131345e-03, 1.16754230e-03, 9.34033841e-03, 5.83771151e-03,
          1.75131345e-03, 8.17279611e-03, 1.16754230e-03, 3.50262690e-03,
          1.16754230e-03, 1.75131345e-03, 5.83771151e-03, 3.50262690e-03,
          5.83771151e-04, 4.08639805e-03, 8.75656679e-03, 8.75656679e-03,
          2.91885575e-03, 1.16754230e-03, 0., 1.57618206e-02,
          4.08639805e-03, 4.08639805e-03, 4.67016920e-03, 9.92411003e-03,
          1.75131345e-03, 4.08639805e-03, 2.33508460e-03, 1.05078807e-02,
          8.17279611e-03, 0., 3.50262690e-03, 5.25394036e-03,
          5.83771151e-04, 1.34267360e-02, 4.08639805e-03, 2.91885575e-03,
          2.91885575e-03, 1.16754230e-03, 8.75656679e-03, 3.50262690e-03,
          2.33508460e-03, 1.28429653e-02, 1.80969052e-02, 2.91885575e-03,
          1.16754230e-02, 3.50262690e-03, 0., 5.25394036e-03,
          8.17279611e-03, 3.50262690e-03, 4.08639805e-03, 5.83771151e-04,
          7.00525381e-03, 4.67016920e-03, 2.33508460e-03, 2.33508460e-03,
          1.45942792e-02, 1.34267360e-02, 5.25394036e-03, 2.91885575e-03,
          2.91885575e-03, 4.67016920e-03, 7.00525381e-03, 9.34033841e-03,
          2.91885575e-03, 6.42148266e-03, 5.25394036e-03, 4.67016920e-03,
          3.50262690e-03, 6.42148266e-03, 5.25394036e-03, 2.33508460e-03,
          1.16754230e-03, 1.16754230e-03, 4.08639805e-03, 3.50262690e-03,
          1.16754230e-03, 5.25394036e-03, 2.91885575e-03, 9.34033841e-03,
          7.58902496e-03, 5.83771151e-04, 1.75131345e-03, 5.25394036e-03,
          1.75131345e-03, 8.17279611e-03, 5.83771151e-04, 2.33508460e-03,
          4.08639805e-03, 1.75131345e-03, 0., 2.33508460e-03,
          4.08639805e-03, 2.33508460e-03, 3.50262690e-03, 2.91885575e-03,
          5.83771151e-03, 1.57618206e-02, 1.75131345e-03, 2.91885575e-03,
          2.33508460e-03, 1.22591946e-02, 3.50262690e-03, 7.00525381e-03,
          6.42148266e-03, 3.21074128e-02, 7.58902496e-03, 5.25394036e-03,
          3.50262690e-03, 2.91885575e-03, 5.83771151e-03, 4.08639805e-03,
          2.91885575e-03, 7.58902496e-03, 4.08639805e-03, 8.17279611e-03,
          2.33508460e-03, 4.67016920e-03, 7.58902496e-03, 2.33508460e-03,
          2.33508460e-03, 2.91885575e-03, 2.91885575e-03, 1.92644484e-02,
          2.91885575e-03, 2.33508460e-03, 9.92411003e-03, 1.16754230e-03,
          1.57618206e-02, 4.08639805e-03, 5.83771151e-04, 4.08639805e-03,
          2.33508460e-03, 1.75131345e-03, 5.83771151e-04, 5.25394036e-03,
          5.25394036e-03, 9.92411003e-03, 5.83771151e-03, 7.00525381e-03,
          1.16754230e-03 ]
      - [ 1.28283445e-02, 9.77397710e-03, 9.16310400e-03, 3.05436784e-03,
          4.27611498e-03, 2.99328044e-02, 4.88698855e-03, 1.09957242e-02,
          2.44349428e-03, 3.66524141e-03, 3.05436784e-03, 2.44349428e-03,
          3.05436784e-03, 1.22174714e-03, 9.16310400e-03, 4.88698855e-03,
          6.10873569e-03, 6.10873569e-04, 1.22174714e-03, 7.33048283e-03,
          4.88698855e-03, 3.66524141e-03, 4.27611498e-03, 3.66524141e-03,
          6.10873569e-04, 3.66524141e-03, 6.71960926e-03, 6.10873569e-03,
          3.05436784e-03, 3.05436784e-03, 8.55222996e-03, 7.94135593e-03,
          6.71960926e-03, 3.05436784e-03, 4.88698855e-03, 3.66524141e-03,
          6.10873569e-03, 1.22174714e-03, 1.22174714e-03, 4.27611498e-03,
          1.83262071e-03, 1.46609657e-02, 2.19914485e-02, 4.27611498e-03,
          1.22174714e-03, 1.83262071e-03, 6.71960926e-03, 1.03848502e-02,
          6.10873569e-03, 0., 9.77397710e-03, 6.10873569e-03,
          6.10873569e-04, 0., 1.83262071e-03, 3.66524141e-03,
          4.27611498e-03, 9.16310400e-03, 3.05436784e-03, 2.44349428e-03,
          1.83262071e-03, 6.71960926e-03, 4.88698855e-03, 1.83262071e-03,
          1.22174714e-02, 1.22174714e-03, 1.22174714e-03, 0.,
          1.46609657e-02, 5.49786212e-03, 3.05436784e-03, 2.44349428e-03,
          3.05436784e-03, 7.33048283e-03, 8.55222996e-03, 2.44349428e-03,
          6.10873569e-04, 1.22174714e-03, 1.09957242e-02, 5.49786212e-03,
          4.27611498e-03, 5.49786212e-03, 4.88698855e-03, 5.49786212e-03,
          4.27611498e-03, 3.66524141e-03, 6.71960926e-03, 5.49786212e-03,
          1.22174714e-03, 4.27611498e-03, 3.05436784e-03, 6.10873569e-04,
          1.03848502e-02, 4.27611498e-03, 1.83262071e-03, 3.66524141e-03,
          2.44349428e-03, 5.49786212e-03, 3.66524141e-03, 2.44349428e-03,
          7.94135593e-03, 1.46609657e-02, 1.83262071e-03, 9.77397710e-03,
          3.66524141e-03, 0., 1.83262071e-03, 7.94135593e-03,
          3.66524141e-03, 4.27611498e-03, 6.10873569e-04, 4.88698855e-03,
          4.27611498e-03, 2.44349428e-02, 7.33048283e-03, 9.77397710e-03,
          1.77153330e-02, 3.66524141e-03, 6.10873569e-04, 3.66524141e-03,
          1.83262071e-03, 6.10873569e-03, 4.88698855e-03, 1.58827119e-02,
          4.27611498e-03, 5.49786212e-03, 2.44349428e-03, 5.49786212e-03,
          7.33048283e-03, 3.66524141e-03, 2.44349428e-03, 1.40500925e-02,
          6.10873569e-04, 2.44349428e-03, 3.05436784e-03, 1.22174714e-03,
          6.71960926e-03, 3.05436784e-03, 6.10873569e-03, 2.26023216e-02,
          0., 6.10873569e-04, 2.44349428e-03, 6.10873569e-04,
          6.71960926e-03, 0., 1.83262071e-03, 4.27611498e-03,
          3.05436784e-03, 6.10873569e-04, 1.22174714e-03, 3.66524141e-03,
          5.49786212e-03, 1.22174714e-03, 1.22174714e-03, 6.10873569e-03,
          1.77153330e-02, 6.10873569e-04, 3.05436784e-03, 1.22174714e-03,
          9.77397710e-03, 3.05436784e-03, 8.55222996e-03, 3.66524141e-03,
          2.44349428e-02, 5.49786212e-03, 2.44349428e-03, 4.27611498e-03,
          3.05436784e-03, 3.66524141e-03, 1.83262071e-03, 1.22174714e-03,
          4.27611498e-03, 3.05436784e-03, 3.05436784e-03, 1.83262071e-03,
          1.22174714e-03, 3.05436784e-03, 1.09957242e-02, 1.83262071e-03,
          1.22174714e-03, 3.05436784e-03, 2.07697004e-02, 2.44349428e-03,
          1.83262071e-03, 1.03848502e-02, 1.22174714e-03, 6.71960926e-03,
          3.05436784e-03, 6.10873569e-04, 3.05436784e-03, 1.22174714e-03,
          2.44349428e-03, 0., 3.05436784e-03, 4.27611498e-03,
          3.05436784e-03, 5.49786212e-03, 3.66524141e-03, 1.22174714e-03 ]
      - [ 4.00534086e-03, 0., 4.00534086e-03, 9.34579503e-03, 0.,
          3.20427269e-02, 4.00534086e-03, 1.33511354e-03, 6.67556748e-03,
          1.33511354e-03, 4.00534086e-03, 5.34045417e-03, 1.33511354e-03,
          8.01068172e-03, 9.34579503e-03, 1.33511354e-03, 4.00534086e-03,
          6.67556748e-03, 2.67022708e-03, 4.00534086e-03, 4.00534086e-03,
          6.67556748e-03, 6.67556748e-03, 1.20160216e-02, 5.34045417e-03,
          0., 4.00534086e-03, 0., 2.67022708e-03, 4.00534086e-03,
          2.67022708e-03, 2.67022708e-03, 4.00534086e-03, 1.33511354e-03,
          0., 2.67022708e-03, 1.33511354e-03, 5.34045417e-03,
          8.01068172e-03, 1.33511354e-03, 6.67556748e-03, 1.33511354e-03,
          1.33511350e-02, 0., 6.67556748e-03, 1.33511354e-03, 0.,
          5.34045417e-03, 1.33511350e-02, 0., 2.67022708e-03, 0.,
          5.34045417e-03, 2.67022699e-02, 2.67022708e-03, 5.34045417e-03,
          2.67022708e-03, 0., 4.00534086e-03, 8.01068172e-03,
          1.60213634e-02, 6.67556748e-03, 2.67022708e-03, 6.67556748e-03,
          4.00534086e-03, 1.33511354e-03, 6.67556748e-03, 2.80373842e-02,
          5.34045417e-03, 0., 0., 9.34579503e-03, 1.33511354e-03,
          4.00534086e-03, 0., 4.00534086e-03, 2.40320433e-02,
          5.34045417e-03, 5.34045417e-03, 0., 1.33511354e-03,
          2.67022708e-03, 1.33511350e-02, 4.00534086e-03, 4.00534086e-03,
          8.01068172e-03, 1.33511354e-03, 5.34045417e-03, 5.34045417e-03,
          1.33511354e-03, 1.33511354e-03, 0., 1.33511354e-03, 0., 0.,
          1.33511354e-03, 8.01068172e-03, 8.01068172e-03, 2.67022708e-03,
          5.34045417e-03, 0., 2.67022708e-03, 1.33511354e-03,
          2.67022708e-03, 5.34045417e-03, 1.33511354e-03, 1.33511354e-03,
          5.34045417e-03, 2.67022708e-03, 2.67022708e-03, 5.34045417e-03,
          0., 5.34045417e-03, 2.67022708e-03, 2.67022708e-03,
          6.67556748e-03, 6.67556748e-03, 4.00534086e-03, 5.34045417e-03,
          2.67022708e-03, 4.00534086e-03, 1.46862492e-02, 1.33511354e-03,
          2.67022708e-03, 8.01068172e-03, 6.67556748e-03, 8.01068172e-03,
          9.34579503e-03, 4.00534086e-03, 0., 0., 1.33511354e-03,
          1.33511354e-03, 1.33511350e-02, 1.33511354e-03, 9.34579503e-03,
          2.67022708e-03, 6.67556748e-03, 5.34045417e-03, 1.33511354e-03,
          1.46862492e-02, 5.34045417e-03, 9.34579503e-03, 1.33511354e-03,
          1.33511354e-03, 1.33511350e-02, 1.33511354e-03, 1.33511354e-03,
          1.33511350e-02, 1.20160216e-02, 8.01068172e-03, 0.,
          4.00534086e-03, 6.67556748e-03, 2.13618167e-02, 1.33511354e-03,
          1.33511354e-03, 2.67022708e-03, 4.00534086e-03, 1.06809083e-02,
          0., 2.67022708e-03, 1.33511354e-03, 4.00534086e-03, 0.,
          1.33511354e-03, 2.67022708e-03, 1.33511354e-03, 8.01068172e-03,
          0., 9.34579503e-03, 1.33511354e-03, 1.33511354e-03,
          1.46862492e-02, 4.00534086e-03, 2.67022708e-03, 4.00534086e-03,
          1.33511354e-03, 2.67022708e-03, 6.67556748e-03, 5.34045417e-03,
          5.34045417e-03, 0., 1.33511354e-03, 1.06809083e-02,
          5.34045417e-03, 2.67022699e-02, 2.67022708e-03, 5.34045417e-03,
          4.00534086e-03, 4.00534086e-03, 1.20160216e-02, 5.34045417e-03,
          2.53671575e-02, 1.33511354e-03, 4.00534086e-03, 6.67556748e-03,
          4.00534086e-03, 2.67022708e-03, 1.33511354e-03 ]
      - [ 6.19834661e-03, 0., 2.06611562e-03, 4.13223123e-03,
          2.06611562e-03, 5.16528897e-02, 0., 0., 8.26446246e-03,
          2.06611562e-03, 4.13223123e-03, 6.19834661e-03, 2.06611562e-03,
          1.03305783e-02, 1.44628091e-02, 8.26446246e-03, 1.03305783e-02,
          6.19834661e-03, 8.26446246e-03, 2.06611562e-03, 6.19834661e-03,
          2.06611562e-03, 1.23966932e-02, 1.03305783e-02, 6.19834661e-03,
          2.06611562e-03, 6.19834661e-03, 0., 4.13223123e-03,
          4.13223123e-03, 0., 2.06611562e-03, 6.19834661e-03,
          2.06611562e-03, 0., 2.06611562e-03, 2.06611562e-03,
          1.44628091e-02, 4.13223123e-03, 6.19834661e-03, 6.19834661e-03,
          0., 1.03305783e-02, 0., 6.19834661e-03, 0., 0., 6.19834661e-03,
          2.06611562e-03, 0., 2.06611562e-03, 2.06611562e-03,
          8.26446246e-03, 1.65289249e-02, 0., 6.19834661e-03,
          2.06611562e-03, 0., 6.19834661e-03, 1.03305783e-02,
          4.13223123e-03, 8.26446246e-03, 6.19834661e-03, 4.13223123e-03,
          2.06611562e-03, 2.06611562e-03, 2.06611562e-03, 1.23966932e-02,
          8.26446246e-03, 0., 6.19834661e-03, 6.19834661e-03,
          2.06611562e-03, 0., 0., 4.13223123e-03, 2.27272715e-02,
          6.19834661e-03, 2.06611562e-03, 0., 4.13223123e-03,
          4.13223123e-03, 1.44628091e-02, 0., 4.13223123e-03,
          1.44628091e-02, 0., 4.13223123e-03, 4.13223123e-03,
          2.06611562e-03, 1.03305783e-02, 6.19834661e-03, 2.06611562e-03,
          0., 0., 2.06611562e-03, 6.19834661e-03, 4.13223123e-03,
          4.13223123e-03, 8.26446246e-03, 2.06611562e-03, 2.06611562e-03,
          6.19834661e-03, 0., 0., 2.06611562e-03, 2.06611562e-03,
          4.13223123e-03, 2.06611562e-03, 6.19834661e-03, 6.19834661e-03,
          0., 4.13223123e-03, 8.26446246e-03, 2.06611562e-03,
          4.13223123e-03, 1.03305783e-02, 0., 6.19834661e-03, 0.,
          6.19834661e-03, 1.03305783e-02, 2.06611562e-03, 6.19834661e-03,
          8.26446246e-03, 4.13223123e-03, 1.85950398e-02, 1.44628091e-02,
          2.06611562e-03, 2.06611562e-03, 0., 2.06611562e-03,
          8.26446246e-03, 2.27272715e-02, 2.06611562e-03, 2.06611562e-03,
          0., 1.03305783e-02, 6.19834661e-03, 6.19834661e-03,
          6.19834661e-03, 8.26446246e-03, 4.13223123e-03, 0.,
          2.06611562e-03, 1.44628091e-02, 2.06611562e-03, 2.06611562e-03,
          1.23966932e-02, 4.13223123e-03, 0., 2.06611562e-03,
          8.26446246e-03, 0., 2.27272715e-02, 2.06611562e-03,
          2.06611562e-03, 2.06611562e-03, 6.19834661e-03, 8.26446246e-03,
          0., 0., 0., 4.13223123e-03, 4.13223123e-03, 4.13223123e-03,
          6.19834661e-03, 4.13223123e-03, 6.19834661e-03, 0.,
          4.13223123e-03, 0., 0., 1.85950398e-02, 2.06611562e-03,
          4.13223123e-03, 6.19834661e-03, 2.06611562e-03, 0.,
          4.13223123e-03, 0., 8.26446246e-03, 2.06611562e-03, 0.,
          6.19834661e-03, 2.06611562e-03, 2.27272715e-02, 2.06611562e-03,
          1.03305783e-02, 2.06611562e-03, 0., 8.26446246e-03, 0.,
          2.06611566e-02, 2.06611562e-03, 6.19834661e-03, 0., 0., 0.,
          4.13223123e-03 ]
      - [ 7.27272732e-03, 0., 0., 1.63636357e-02, 1.81818183e-03,
          1.45454546e-02, 0., 0., 5.45454537e-03, 1.81818183e-03,
          7.27272732e-03, 3.63636366e-03, 3.63636366e-03, 9.09090880e-03,
          1.09090907e-02, 5.45454537e-03, 1.09090907e-02, 1.09090907e-02,
          7.27272732e-03, 0., 3.63636366e-03, 3.63636366e-03,
          5.45454537e-03, 0., 7.27272732e-03, 0., 3.63636366e-03, 0.,
          3.63636366e-03, 7.27272732e-03, 1.81818183e-03, 1.81818183e-03,
          1.81818183e-03, 3.63636366e-03, 1.81818183e-03, 3.63636366e-03,
          0., 3.63636366e-03, 5.45454537e-03, 3.63636366e-03,
          1.09090907e-02, 0., 9.09090880e-03, 0., 9.09090880e-03,
          3.63636366e-03, 0., 1.81818183e-03, 1.63636357e-02, 0.,
          3.63636366e-03, 1.81818183e-03, 7.27272732e-03, 1.99999996e-02,
          3.63636366e-03, 5.45454537e-03, 1.81818183e-03, 0.,
          1.81818183e-03, 1.09090907e-02, 1.27272727e-02, 1.09090907e-02,
          3.63636366e-03, 7.27272732e-03, 0., 1.81818183e-03,
          3.63636366e-03, 2.90909093e-02, 1.81818183e-03, 0., 0.,
          7.27272732e-03, 1.81818183e-03, 0., 0., 0., 3.99999991e-02,
          3.63636366e-03, 5.45454537e-03, 0., 1.81818183e-03,
          3.63636366e-03, 9.09090880e-03, 3.63636366e-03, 3.63636366e-03,
          1.81818183e-03, 0., 1.81818183e-03, 0., 0., 1.81818183e-03, 0.,
          3.63636366e-03, 1.81818183e-03, 0., 0., 7.27272732e-03,
          5.45454537e-03, 1.81818183e-03, 7.27272732e-03, 1.81818183e-03,
          5.45454537e-03, 3.63636366e-03, 3.63636366e-03, 3.63636366e-03,
          0., 0., 5.45454537e-03, 1.81818183e-03, 3.63636366e-03,
          3.63636366e-03, 0., 5.45454537e-03, 1.81818183e-03,
          1.81818183e-03, 5.45454537e-03, 5.45454537e-03, 1.81818183e-03,
          7.27272732e-03, 1.81818183e-03, 3.63636366e-03, 1.99999996e-02,
          1.81818183e-03, 1.81818183e-03, 1.81818176e-02, 3.63636366e-03,
          1.09090907e-02, 9.09090880e-03, 1.09090907e-02, 1.81818183e-03,
          0., 1.81818183e-03, 1.81818183e-03, 1.63636357e-02, 0.,
          1.09090907e-02, 1.81818183e-03, 7.27272732e-03, 3.63636366e-03,
          3.63636366e-03, 5.45454537e-03, 7.27272732e-03, 5.45454537e-03,
          1.81818183e-03, 0., 1.27272727e-02, 1.81818183e-03,
          1.81818183e-03, 1.45454546e-02, 1.45454546e-02, 3.63636366e-03,
          0., 7.27272732e-03, 3.63636366e-03, 2.90909093e-02, 0.,
          1.81818183e-03, 0., 9.09090880e-03, 5.45454537e-03, 0.,
          1.81818183e-03, 1.81818183e-03, 0., 1.81818183e-03,
          3.63636366e-03, 1.81818183e-03, 1.81818183e-03, 7.27272732e-03,
          1.81818183e-03, 7.27272732e-03, 0., 0., 1.81818176e-02,
          3.63636366e-03, 3.63636366e-03, 3.63636366e-03, 1.81818183e-03,
          5.45454537e-03, 0., 3.63636366e-03, 5.45454537e-03,
          1.81818183e-03, 3.63636366e-03, 1.27272727e-02, 3.63636366e-03,
          3.63636352e-02, 1.81818183e-03, 3.63636366e-03, 5.45454537e-03,
          0., 1.09090907e-02, 5.45454537e-03, 3.45454551e-02,
          5.45454537e-03, 5.45454537e-03, 3.63636366e-03, 1.81818183e-03,
          0., 1.81818183e-03 ]
      - [ 7.49625219e-03, 0., 4.49775113e-03, 8.99550226e-03,
          2.99850083e-03, 3.59820090e-02, 1.49925041e-03, 1.49925041e-03,
          5.99700166e-03, 0., 2.99850083e-03, 4.49775113e-03,
          1.49925041e-03, 1.04947528e-02, 1.19940033e-02, 4.49775113e-03,
          8.99550226e-03, 4.49775113e-03, 8.99550226e-03, 1.49925041e-03,
          5.99700166e-03, 2.99850083e-03, 4.49775113e-03, 1.04947528e-02,
          4.49775113e-03, 1.49925041e-03, 4.49775113e-03, 0.,
          2.99850083e-03, 5.99700166e-03, 2.99850083e-03, 2.99850083e-03,
          4.49775113e-03, 0., 1.49925041e-03, 1.49925041e-03,
          1.49925041e-03, 7.49625219e-03, 4.49775113e-03, 0.,
          8.99550226e-03, 0., 8.99550226e-03, 0., 1.04947528e-02,
          1.49925041e-03, 0., 1.49925041e-03, 1.34932538e-02, 0., 0.,
          1.49925041e-03, 1.04947528e-02, 1.04947528e-02, 1.49925041e-03,
          8.99550226e-03, 1.49925041e-03, 0., 4.49775113e-03,
          1.49925044e-02, 1.04947528e-02, 7.49625219e-03, 1.04947528e-02,
          7.49625219e-03, 0., 2.99850083e-03, 5.99700166e-03,
          1.79910045e-02, 4.49775113e-03, 0., 0., 2.99850083e-03,
          4.49775113e-03, 2.99850083e-03, 0., 7.49625219e-03,
          1.94902550e-02, 5.99700166e-03, 5.99700166e-03, 0.,
          2.99850083e-03, 4.49775113e-03, 1.19940033e-02, 0.,
          2.99850083e-03, 8.99550226e-03, 0., 2.99850083e-03,
          4.49775113e-03, 1.49925041e-03, 2.99850083e-03, 0.,
          2.99850083e-03, 1.49925041e-03, 1.49925041e-03, 0.,
          5.99700166e-03, 4.49775113e-03, 1.49925041e-03, 5.99700166e-03,
          2.99850083e-03, 4.49775113e-03, 2.99850083e-03, 7.49625219e-03,
          4.49775113e-03, 1.49925041e-03, 0., 5.99700166e-03,
          2.99850083e-03, 2.99850083e-03, 5.99700166e-03, 1.49925041e-03,
          4.49775113e-03, 5.99700166e-03, 4.49775113e-03, 4.49775113e-03,
          1.64917540e-02, 2.99850083e-03, 7.49625219e-03, 1.49925041e-03,
          4.49775113e-03, 1.19940033e-02, 2.99850083e-03, 1.49925041e-03,
          1.64917540e-02, 4.49775113e-03, 1.94902550e-02, 1.04947528e-02,
          1.19940033e-02, 1.49925041e-03, 1.49925041e-03, 0., 0.,
          1.49925044e-02, 2.99850083e-03, 7.49625219e-03, 1.49925041e-03,
          8.99550226e-03, 2.99850083e-03, 0., 7.49625219e-03,
          5.99700166e-03, 2.99850083e-03, 1.49925041e-03, 1.49925041e-03,
          8.99550226e-03, 1.49925041e-03, 1.49925041e-03, 8.99550226e-03,
          1.04947528e-02, 0., 2.99850083e-03, 4.49775113e-03,
          4.49775113e-03, 1.94902550e-02, 4.49775113e-03, 1.49925041e-03,
          0., 4.49775113e-03, 4.49775113e-03, 1.49925041e-03, 0.,
          2.99850083e-03, 2.99850083e-03, 4.49775113e-03, 2.99850083e-03,
          4.49775113e-03, 2.99850083e-03, 5.99700166e-03, 1.49925041e-03,
          0., 1.49925041e-03, 0., 7.49625219e-03, 2.99850083e-03,
          1.04947528e-02, 2.99850083e-03, 4.49775113e-03, 2.99850083e-03,
          4.49775113e-03, 1.19940033e-02, 2.99850083e-03, 1.49925041e-03,
          1.49925041e-03, 1.04947528e-02, 4.49775113e-03, 2.69865077e-02,
          4.49775113e-03, 7.49625219e-03, 5.99700166e-03, 5.99700166e-03,
          1.04947528e-02, 2.99850083e-03, 1.49925044e-02, 2.99850083e-03,
          2.99850083e-03, 7.49625219e-03, 1.49925041e-03, 0.,
          7.49625219e-03 ]
      - [ 4.99999989e-03, 0., 3.74999992e-03, 7.49999983e-03, 0.,
          3.12500000e-02, 3.74999992e-03, 1.24999997e-03, 3.74999992e-03,
          1.24999997e-03, 3.74999992e-03, 4.99999989e-03, 1.24999997e-03,
          8.75000004e-03, 1.24999993e-02, 7.49999983e-03, 2.49999994e-03,
          4.99999989e-03, 3.74999992e-03, 1.24999997e-03, 2.49999994e-03,
          1.24999997e-03, 6.24999963e-03, 1.12499995e-02, 7.49999983e-03,
          1.24999997e-03, 3.74999992e-03, 0., 3.74999992e-03,
          3.74999992e-03, 3.74999992e-03, 1.24999997e-03, 4.99999989e-03,
          1.24999997e-03, 4.99999989e-03, 1.24999997e-03, 1.24999997e-03,
          7.49999983e-03, 2.49999994e-03, 4.99999989e-03, 9.99999978e-03,
          1.24999997e-03, 9.99999978e-03, 0., 1.12499995e-02,
          1.24999997e-03, 0., 4.99999989e-03, 1.99999996e-02, 0.,
          1.24999997e-03, 0., 4.99999989e-03, 2.24999990e-02,
          4.99999989e-03, 3.74999992e-03, 0., 1.24999997e-03,
          2.49999994e-03, 1.24999993e-02, 1.49999997e-02, 1.24999997e-03,
          3.74999992e-03, 6.24999963e-03, 2.49999994e-03, 1.24999997e-03,
          1.12499995e-02, 1.87499989e-02, 6.24999963e-03, 0.,
          1.24999997e-03, 8.75000004e-03, 1.24999997e-03, 3.74999992e-03,
          0., 3.74999992e-03, 2.62499992e-02, 1.24999993e-02,
          6.24999963e-03, 0., 1.24999997e-03, 7.49999983e-03,
          1.12499995e-02, 0., 2.49999994e-03, 1.24999993e-02, 0.,
          3.74999992e-03, 4.99999989e-03, 3.74999992e-03, 2.49999994e-03,
          0., 0., 3.74999992e-03, 1.24999997e-03, 0., 3.74999992e-03,
          6.24999963e-03, 2.49999994e-03, 4.99999989e-03, 1.24999997e-03,
          1.24999997e-03, 2.49999994e-03, 7.49999983e-03, 7.49999983e-03,
          0., 1.24999997e-03, 4.99999989e-03, 4.99999989e-03,
          3.74999992e-03, 7.49999983e-03, 0., 7.49999983e-03,
          1.24999997e-03, 4.99999989e-03, 2.49999994e-03, 1.12499995e-02,
          3.74999992e-03, 3.74999992e-03, 2.49999994e-03, 1.24999997e-03,
          4.99999989e-03, 1.24999997e-03, 4.99999989e-03, 1.24999993e-02,
          3.74999992e-03, 7.49999983e-03, 6.24999963e-03, 3.74999992e-03,
          0., 0., 1.24999997e-03, 1.24999997e-03, 1.99999996e-02,
          1.24999997e-03, 1.24999993e-02, 3.74999992e-03, 4.99999989e-03,
          3.74999992e-03, 3.74999992e-03, 1.12499995e-02, 4.99999989e-03,
          8.75000004e-03, 0., 1.24999997e-03, 2.12500002e-02,
          1.24999997e-03, 1.24999997e-03, 1.62499994e-02, 1.24999993e-02,
          6.24999963e-03, 0., 1.24999997e-03, 9.99999978e-03,
          1.87499989e-02, 2.49999994e-03, 0., 1.24999997e-03,
          2.49999994e-03, 7.49999983e-03, 0., 3.74999992e-03, 0.,
          1.24999997e-03, 1.24999997e-03, 1.24999997e-03, 1.24999997e-03,
          1.24999997e-03, 9.99999978e-03, 2.49999994e-03, 1.37499999e-02,
          0., 3.74999992e-03, 8.75000004e-03, 3.74999992e-03,
          1.24999997e-03, 1.24999997e-03, 3.74999992e-03, 0.,
          4.99999989e-03, 2.49999994e-03, 1.24999997e-03, 1.24999997e-03,
          3.74999992e-03, 1.24999993e-02, 1.24999997e-03, 3.87500003e-02,
          4.99999989e-03, 2.49999994e-03, 6.24999963e-03, 4.99999989e-03,
          1.37499999e-02, 3.74999992e-03, 9.99999978e-03, 2.49999994e-03,
          6.24999963e-03, 6.24999963e-03, 2.49999994e-03, 2.49999994e-03,
          2.49999994e-03 ]
   decision_functions:
      -
         sv_count: 10
         rho: 3.9991140365600586e-03
         alpha: [ 1., 1., 1., 1., 1., -1., -1., -1., -1., -1. ]
         index: [ 0, 1, 2, 3, 4, 5, 6, 7, 8, 9 ]
      -
         sv_count: 10
         rho: 1.5857279300689697e-02
         alpha: [ 1., 1., 1., 1., 1., -1., -1., -1., -1., -1. ]
         index: [ 0, 1, 2, 3, 4, 10, 11, 12, 13, 14 ]
      -
         sv_count: 10
         rho: 8.6289048194885254e-03
         alpha: [ 1., 1., 1., 1., 1., -1., -1., -1., -1., -1. ]
         index: [ 0, 1, 2, 3, 4, 15, 16, 17, 18, 19 ]
      -
         sv_count: 10
         rho: 4.8299133777618408e-03
         alpha: [ 1., 1., 1., 1., 1., -1., -1., -1., -1., -1. ]
         index: [ 0, 1, 2, 3, 4, 20, 21, 22, 23, 24 ]
      -
         sv_count: 10
         rho: 1.6872942447662354e-02
         alpha: [ 1., 1., 1., 1., 1., -1., -1., -1., -1., -1. ]
         index: [ 5, 6, 7, 8, 9, 10, 11, 12, 13, 14 ]
      -
         sv_count: 10
         rho: 7.8510642051696777e-03
         alpha: [ 1., 1., 1., 1., 1., -1., -1., -1., -1., -1. ]
         index: [ 5, 6, 7, 8, 9, 15, 16, 17, 18, 19 ]
      -
         sv_count: 10
         rho: 7.3025822639465332e-03
         alpha: [ 1., 1., 1., 1., 1., -1., -1., -1., -1., -1. ]
         index: [ 5, 6, 7, 8, 9, 20, 21, 22, 23, 24 ]
      -
         sv_count: 10
         rho: -4.8718154430389404e-03
         alpha: [ 1., 1., 1., 1., 1., -1., -1., -1., -1., -1. ]
         index: [ 10, 11, 12, 13, 14, 15, 16, 17, 18, 19 ]
      -
         sv_count: 10
         rho: -1.6349107027053833e-02
         alpha: [ 1., 1., 1., 1., 1., -1., -1., -1., -1., -1. ]
         index: [ 10, 11, 12, 13, 14, 20, 21, 22, 23, 24 ]
      -
         sv_count: 10
         rho: -9.2717707157135010e-03
         alpha: [ 1., 1., 1., 1., 1., -1., -1., -1., -1., -1. ]
         index: [ 15, 16, 17, 18, 19, 20, 21, 22, 23, 24 ]
