%YAML:1.0
my_svm: !!opencv-ml-svm
   svm_type: C_SVC
   kernel: { type:RBF, gamma:1. }
   C: 1.
   term_criteria: { epsilon:2.2204460492503131e-16, iterations:100 }
   var_all: 200
   var_count: 200
   class_count: 5
   class_labels: !!opencv-matrix
      rows: 1
      cols: 5
      dt: i
      data: [ 0, 1, 2, 3, 4 ]
   sv_total: 20
   support_vectors:
      - [ 4.55580885e-03, 2.27790442e-03, 4.55580885e-03, 2.27790442e-03,
          9.11161769e-03, 9.11161769e-03, 0., 4.55580885e-03,
          4.55580885e-03, 1.13895219e-02, 1.36674270e-02, 9.11161769e-03,
          1.36674270e-02, 6.83371350e-03, 2.27790442e-03, 9.11161769e-03,
          4.55580885e-03, 6.83371350e-03, 2.27790442e-03, 4.55580885e-03,
          9.11161769e-03, 2.27790442e-03, 2.27790442e-03, 2.27790442e-03,
          2.05011405e-02, 0., 6.83371350e-03, 2.27790442e-03, 0.,
          2.27790442e-03, 1.82232354e-02, 9.11161769e-03, 0.,
          9.11161769e-03, 4.55580885e-03, 2.27790442e-03, 0.,
          6.83371350e-03, 4.55580885e-03, 2.27790442e-03, 2.27790442e-03,
          2.27790442e-03, 4.55580885e-03, 6.83371350e-03, 2.27790442e-03,
          6.83371350e-03, 2.27790442e-03, 2.27790442e-03, 0., 0.,
          4.55580885e-03, 4.55580885e-03, 1.36674270e-02, 9.11161769e-03,
          2.05011405e-02, 4.55580885e-03, 0., 4.55580885e-03,
          6.83371350e-03, 2.27790442e-03, 2.27790442e-03, 1.59453303e-02,
          0., 4.55580885e-03, 2.27790442e-03, 6.83371350e-03,
          2.27790442e-03, 2.27790442e-03, 4.55580885e-03, 4.55580885e-03,
          1.59453303e-02, 4.55580885e-03, 2.27790442e-03, 4.55580885e-03,
          4.55580885e-03, 6.83371350e-03, 0., 4.55580885e-03,
          2.27790442e-03, 2.27790442e-03, 6.83371350e-03, 0.,
          2.27790442e-03, 2.27790442e-03, 0., 6.83371350e-03,
          9.11161769e-03, 2.27790442e-03, 1.59453303e-02, 6.83371350e-03,
          2.27790442e-03, 0., 2.27790442e-03, 9.11161769e-03, 0.,
          4.55580885e-03, 4.55580885e-03, 0., 9.11161769e-03,
          9.11161769e-03, 2.27790442e-03, 2.27790442e-03, 4.55580885e-03,
          2.27790442e-03, 6.83371350e-03, 0., 2.27790442e-03,
          2.27790442e-03, 2.27790442e-03, 2.27790442e-03, 0.,
          2.27790442e-03, 2.27790442e-03, 4.55580885e-03, 1.36674270e-02,
          2.27790442e-03, 6.83371350e-03, 4.55580885e-03, 9.11161769e-03,
          6.83371350e-03, 0., 9.11161769e-03, 1.36674270e-02,
          9.11161769e-03, 0., 9.11161769e-03, 0., 1.36674270e-02, 0.,
          4.55580885e-03, 0., 6.83371350e-03, 2.27790442e-03,
          2.27790442e-03, 0., 2.27790438e-02, 2.27790442e-03,
          6.83371350e-03, 9.11161769e-03, 1.13895219e-02, 2.27790442e-03,
          4.55580885e-03, 6.83371350e-03, 4.55580885e-03, 0.,
          2.27790442e-03, 2.27790442e-03, 6.83371350e-03, 6.83371350e-03,
          2.27790442e-03, 0., 4.55580885e-03, 4.55580885e-03, 0.,
          4.55580885e-03, 6.83371350e-03, 9.11161769e-03, 0.,
          1.13895219e-02, 4.55580885e-03, 0., 4.55580885e-03, 0., 0., 0.,
          6.83371350e-03, 1.59453303e-02, 0., 2.27790442e-03, 0.,
          2.27790442e-03, 4.55580885e-03, 2.27790442e-03, 2.27790442e-03,
          6.83371350e-03, 2.27790438e-02, 2.27790442e-03, 6.83371350e-03,
          9.11161769e-03, 4.55580885e-03, 6.83371350e-03, 1.59453303e-02,
          6.83371350e-03, 2.27790438e-02, 2.27790442e-03, 0.,
          4.55580885e-03, 2.27790442e-03, 2.27790442e-03, 2.27790442e-03,
          6.83371350e-03, 6.83371350e-03, 0., 2.27790442e-03,
          4.55580885e-03, 2.27790442e-03, 6.83371350e-03, 2.27790442e-03,
          2.27790442e-03, 2.27790442e-03 ]
      - [ 1.57232699e-03, 1.57232699e-03, 6.28930796e-03, 1.57232699e-03,
          9.43396240e-03, 1.10062892e-02, 1.57232699e-03, 6.28930796e-03,
          7.86163472e-03, 1.25786159e-02, 1.25786159e-02, 3.14465398e-03,
          1.10062892e-02, 9.43396240e-03, 1.57232699e-03, 7.86163472e-03,
          4.71698120e-03, 4.71698120e-03, 4.71698120e-03, 6.28930796e-03,
          6.28930796e-03, 3.14465398e-03, 4.71698120e-03, 4.71698120e-03,
          9.43396240e-03, 3.14465398e-03, 9.43396240e-03, 4.71698120e-03,
          0., 4.71698120e-03, 1.10062892e-02, 6.28930796e-03,
          3.14465398e-03, 4.71698120e-03, 3.14465398e-03, 4.71698120e-03,
          0., 9.43396240e-03, 7.86163472e-03, 9.43396240e-03,
          1.41509427e-02, 0., 7.86163472e-03, 3.14465398e-03,
          3.14465398e-03, 4.71698120e-03, 3.14465398e-03, 3.14465398e-03,
          1.57232699e-03, 0., 4.71698120e-03, 3.14465398e-03,
          7.86163472e-03, 7.86163472e-03, 1.25786159e-02, 6.28930796e-03,
          0., 3.14465398e-03, 1.57232699e-03, 1.57232699e-03,
          4.71698120e-03, 1.88679248e-02, 0., 4.71698120e-03,
          1.57232699e-03, 7.86163472e-03, 0., 1.57232699e-03,
          7.86163472e-03, 6.28930796e-03, 1.88679248e-02, 7.86163472e-03,
          1.57232699e-03, 4.71698120e-03, 1.57232699e-03, 3.14465398e-03,
          4.71698120e-03, 0., 0., 0., 6.28930796e-03, 1.57232699e-03,
          4.71698120e-03, 1.57232699e-03, 3.14465398e-03, 4.71698120e-03,
          4.71698120e-03, 4.71698120e-03, 7.86163472e-03, 3.14465398e-03,
          4.71698120e-03, 0., 3.14465398e-03, 6.28930796e-03, 0.,
          1.57232699e-03, 3.14465398e-03, 1.57232699e-03, 7.86163472e-03,
          1.10062892e-02, 1.57232699e-03, 1.57232699e-03, 1.57232699e-03,
          3.14465398e-03, 1.72955971e-02, 1.57232699e-03, 1.57232699e-03,
          6.28930796e-03, 4.71698120e-03, 0., 0., 3.14465398e-03,
          7.86163472e-03, 3.14465398e-03, 1.72955971e-02, 0.,
          3.14465398e-03, 7.86163472e-03, 9.43396240e-03, 6.28930796e-03,
          1.57232699e-03, 4.71698120e-03, 1.10062892e-02, 4.71698120e-03,
          3.14465398e-03, 6.28930796e-03, 7.86163472e-03, 2.51572318e-02,
          3.14465398e-03, 4.71698120e-03, 1.10062892e-02, 4.71698120e-03,
          1.57232699e-03, 0., 3.14465398e-03, 1.57232694e-02,
          3.14465398e-03, 6.28930796e-03, 4.71698120e-03, 1.10062892e-02,
          1.57232699e-03, 1.57232699e-03, 9.43396240e-03, 3.14465398e-03,
          3.14465398e-03, 1.57232699e-03, 1.57232699e-03, 3.14465398e-03,
          6.28930796e-03, 6.28930796e-03, 0., 4.71698120e-03,
          1.57232699e-03, 0., 1.57232699e-03, 0., 1.41509427e-02,
          3.14465398e-03, 7.86163472e-03, 3.14465398e-03, 1.57232699e-03,
          1.41509427e-02, 3.14465398e-03, 1.57232699e-03, 0.,
          6.28930796e-03, 2.20125783e-02, 0., 3.14465398e-03,
          1.57232699e-03, 3.14465398e-03, 3.14465398e-03, 1.57232699e-03,
          0., 9.43396240e-03, 7.86163472e-03, 0., 6.28930796e-03,
          4.71698120e-03, 4.71698120e-03, 7.86163472e-03, 1.72955971e-02,
          3.14465398e-03, 1.57232694e-02, 1.57232699e-03, 6.28930796e-03,
          1.57232699e-03, 1.57232699e-03, 4.71698120e-03, 6.28930796e-03,
          9.43396240e-03, 0., 1.57232699e-03, 4.71698120e-03,
          6.28930796e-03, 3.14465398e-03, 3.14465398e-03, 1.57232699e-03,
          0., 1.57232699e-03 ]
      - [ 4.20757383e-03, 1.40252453e-03, 4.20757383e-03, 1.40252453e-03,
          7.01262243e-03, 7.01262243e-03, 0., 5.61009813e-03,
          1.12201963e-02, 9.81767196e-03, 1.12201963e-02, 2.80504907e-03,
          8.41514766e-03, 9.81767196e-03, 1.40252453e-03, 9.81767196e-03,
          9.81767196e-03, 4.20757383e-03, 5.61009813e-03, 2.80504907e-03,
          5.61009813e-03, 1.40252453e-03, 4.20757383e-03, 2.80504907e-03,
          1.26227206e-02, 5.61009813e-03, 1.40252449e-02, 1.40252449e-02,
          0., 1.40252453e-03, 1.54277701e-02, 8.41514766e-03,
          2.80504907e-03, 8.41514766e-03, 5.61009813e-03, 5.61009813e-03,
          2.80504907e-03, 1.40252449e-02, 2.80504907e-03, 8.41514766e-03,
          1.12201963e-02, 0., 4.20757383e-03, 1.40252453e-03,
          2.80504907e-03, 2.80504907e-03, 1.40252453e-03, 2.80504907e-03,
          0., 0., 8.41514766e-03, 1.40252453e-03, 1.26227206e-02,
          4.20757383e-03, 1.12201963e-02, 5.61009813e-03, 1.40252453e-03,
          4.20757383e-03, 5.61009813e-03, 0., 4.20757383e-03,
          1.12201963e-02, 2.80504907e-03, 2.80504907e-03, 0.,
          5.61009813e-03, 1.40252453e-03, 2.80504907e-03, 9.81767196e-03,
          4.20757383e-03, 1.26227206e-02, 4.20757383e-03, 4.20757383e-03,
          8.41514766e-03, 2.80504907e-03, 4.20757383e-03, 0.,
          7.01262243e-03, 2.80504907e-03, 2.80504907e-03, 5.61009813e-03,
          1.40252453e-03, 2.80504907e-03, 1.40252453e-03, 1.40252453e-03,
          7.01262243e-03, 4.20757383e-03, 1.40252453e-03, 8.41514766e-03,
          4.20757383e-03, 8.41514766e-03, 1.40252453e-03, 2.80504907e-03,
          9.81767196e-03, 0., 5.61009813e-03, 4.20757383e-03,
          5.61009813e-03, 5.61009813e-03, 5.61009813e-03, 4.20757383e-03,
          4.20757383e-03, 2.80504907e-03, 4.20757383e-03, 1.26227206e-02,
          2.80504907e-03, 4.20757383e-03, 5.61009813e-03, 4.20757383e-03,
          1.40252453e-03, 1.40252453e-03, 4.20757383e-03, 2.80504907e-03,
          5.61009813e-03, 1.68302953e-02, 1.40252453e-03, 5.61009813e-03,
          5.61009813e-03, 9.81767196e-03, 5.61009813e-03, 0.,
          4.20757383e-03, 5.61009813e-03, 5.61009813e-03, 1.40252453e-03,
          4.20757383e-03, 0., 1.40252449e-02, 4.20757383e-03,
          1.40252453e-03, 7.01262243e-03, 8.41514766e-03, 1.40252453e-03,
          0., 7.01262243e-03, 1.68302953e-02, 4.20757383e-03,
          9.81767196e-03, 5.61009813e-03, 5.61009813e-03, 7.01262243e-03,
          2.80504907e-03, 5.61009813e-03, 4.20757383e-03, 1.40252453e-03,
          1.40252453e-03, 2.80504907e-03, 9.81767196e-03, 8.41514766e-03,
          4.20757383e-03, 0., 5.61009813e-03, 4.20757383e-03, 0.,
          1.40252453e-03, 5.61009813e-03, 1.54277701e-02, 1.40252453e-03,
          9.81767196e-03, 2.80504907e-03, 0., 9.81767196e-03,
          1.40252453e-03, 2.80504907e-03, 0., 5.61009813e-03,
          1.54277701e-02, 0., 1.40252453e-03, 1.40252453e-03,
          4.20757383e-03, 1.40252453e-03, 7.01262243e-03, 0.,
          8.41514766e-03, 8.41514766e-03, 2.80504907e-03, 1.26227206e-02,
          7.01262243e-03, 2.80504907e-03, 2.80504907e-03, 1.40252449e-02,
          9.81767196e-03, 1.40252449e-02, 4.20757383e-03, 2.80504907e-03,
          1.40252453e-03, 1.40252453e-03, 2.80504907e-03, 1.40252453e-03,
          8.41514766e-03, 2.80504907e-03, 1.40252453e-03, 4.20757383e-03,
          4.20757383e-03, 1.40252453e-03, 5.61009813e-03, 1.40252453e-03,
          0., 1.40252453e-03 ]
      - [ 0., 2.44498788e-03, 2.44498788e-03, 0., 7.33496342e-03,
          4.88997577e-03, 4.88997577e-03, 4.88997577e-03, 2.44498788e-03,
          1.71149150e-02, 1.46699268e-02, 7.33496342e-03, 1.22249397e-02,
          9.77995154e-03, 0., 4.88997577e-03, 7.33496342e-03,
          4.88997577e-03, 2.44498788e-03, 7.33496342e-03, 4.88997577e-03,
          2.44498788e-03, 2.44498788e-03, 0., 1.46699268e-02, 0., 0.,
          4.88997577e-03, 2.44498788e-03, 0., 2.68948674e-02,
          1.46699268e-02, 2.44498788e-03, 4.88997577e-03, 2.44498788e-03,
          0., 0., 7.33496342e-03, 4.88997577e-03, 0., 4.88997577e-03,
          2.44498788e-03, 2.44498788e-03, 7.33496342e-03, 7.33496342e-03,
          4.88997577e-03, 4.88997577e-03, 2.44498788e-03, 2.44498788e-03,
          0., 2.44498788e-03, 2.44498788e-03, 2.44498788e-03,
          1.71149150e-02, 1.71149150e-02, 7.33496342e-03, 0.,
          4.88997577e-03, 7.33496342e-03, 4.88997577e-03, 2.44498788e-03,
          1.95599031e-02, 0., 2.44498788e-03, 4.88997577e-03,
          7.33496342e-03, 2.44498788e-03, 0., 0., 4.88997577e-03,
          4.88997577e-03, 7.33496342e-03, 0., 7.33496342e-03,
          2.44498788e-03, 9.77995154e-03, 2.44498788e-03, 2.44498788e-03,
          4.88997577e-03, 2.44498788e-03, 2.44498788e-03, 4.88997577e-03,
          7.33496342e-03, 0., 0., 9.77995154e-03, 0., 2.44498788e-03,
          9.77995154e-03, 7.33496342e-03, 9.77995154e-03, 2.44498788e-03,
          0., 2.44498788e-03, 0., 9.77995154e-03, 1.22249397e-02, 0.,
          1.22249397e-02, 0., 0., 7.33496342e-03, 7.33496342e-03,
          4.88997577e-03, 2.44498788e-03, 0., 4.88997577e-03,
          2.44498788e-03, 9.77995154e-03, 2.44498788e-03, 0.,
          4.88997577e-03, 2.44498788e-03, 4.88997577e-03, 1.71149150e-02,
          4.88997577e-03, 1.22249397e-02, 7.33496342e-03, 7.33496342e-03,
          4.88997577e-03, 0., 9.77995154e-03, 9.77995154e-03,
          2.44498788e-03, 2.44498788e-03, 9.77995154e-03, 0.,
          1.46699268e-02, 2.44498788e-03, 2.44498788e-03, 2.44498788e-03,
          4.88997577e-03, 4.88997577e-03, 4.88997577e-03, 2.44498788e-03,
          9.77995154e-03, 4.88997577e-03, 4.88997577e-03, 1.46699268e-02,
          1.22249397e-02, 9.77995154e-03, 2.44498788e-03, 2.44498788e-03,
          2.44498788e-03, 2.44498788e-03, 2.44498788e-03, 0.,
          2.44498788e-03, 1.22249397e-02, 0., 0., 4.88997577e-03,
          4.88997577e-03, 0., 4.88997577e-03, 2.44498788e-03,
          9.77995154e-03, 2.44498788e-03, 9.77995154e-03, 7.33496342e-03,
          2.44498788e-03, 4.88997577e-03, 4.88997577e-03, 4.88997577e-03,
          0., 1.22249397e-02, 1.22249397e-02, 2.44498788e-03,
          4.88997577e-03, 9.77995154e-03, 0., 0., 7.33496342e-03,
          9.77995154e-03, 4.88997577e-03, 1.71149150e-02, 4.88997577e-03,
          4.88997577e-03, 4.88997577e-03, 7.33496342e-03, 0.,
          1.95599031e-02, 0., 1.46699268e-02, 0., 0., 2.44498788e-03, 0.,
          9.77995154e-03, 0., 7.33496342e-03, 2.44498788e-03, 0.,
          4.88997577e-03, 2.44498788e-03, 0., 2.44498788e-03,
          2.44498788e-03, 2.44498788e-03, 0. ]
      - [ 1.29032256e-02, 0., 1.45161292e-02, 3.22580640e-03, 0.,
          4.83870972e-03, 8.06451589e-03, 1.61290320e-03, 6.45161280e-03,
          0., 4.83870972e-03, 1.29032256e-02, 3.22580640e-03,
          3.22580640e-03, 1.61290320e-03, 0., 4.83870972e-03,
          9.67741944e-03, 2.58064512e-02, 3.22580640e-03, 0., 0., 0., 0.,
          4.83870972e-03, 1.61290320e-03, 6.45161280e-03, 1.61290320e-03,
          0., 3.22580640e-03, 6.45161280e-03, 3.22580640e-03,
          3.22580640e-03, 1.61290320e-03, 1.61290320e-03, 1.12903221e-02,
          8.06451589e-03, 0., 1.93548389e-02, 4.83870972e-03,
          4.83870972e-03, 1.61290320e-03, 1.61290320e-03, 1.61290320e-03,
          4.83870972e-03, 1.12903221e-02, 1.29032256e-02, 2.09677424e-02,
          0., 3.22580640e-03, 4.83870972e-03, 4.83870972e-03,
          1.61290320e-03, 6.45161280e-03, 8.06451589e-03, 1.61290320e-03,
          1.12903221e-02, 8.06451589e-03, 0., 1.61290320e-03,
          3.22580640e-03, 1.61290320e-03, 8.06451589e-03, 4.83870972e-03,
          1.61290320e-03, 1.61290320e-03, 1.12903221e-02, 8.06451589e-03,
          0., 1.61290320e-03, 8.06451589e-03, 3.22580640e-03,
          1.61290320e-03, 0., 6.45161280e-03, 1.61290320e-03,
          8.06451589e-03, 0., 6.45161280e-03, 4.83870972e-03,
          1.61290320e-03, 3.22580640e-03, 1.61290320e-03, 1.29032256e-02,
          3.22580640e-03, 1.61290320e-03, 1.45161292e-02, 3.22580640e-03,
          4.83870972e-03, 0., 1.45161292e-02, 3.22580640e-03,
          4.83870972e-03, 0., 3.22580640e-03, 1.61290320e-03,
          3.22580640e-03, 1.61290318e-02, 8.06451589e-03, 1.61290320e-03,
          8.06451589e-03, 9.67741944e-03, 8.06451589e-03, 3.22580640e-03,
          1.12903221e-02, 9.67741944e-03, 1.61290320e-03, 8.06451589e-03,
          3.22580640e-03, 6.45161280e-03, 1.61290320e-03, 3.22580640e-03,
          1.29032256e-02, 0., 6.45161280e-03, 4.83870972e-03, 0.,
          1.61290320e-03, 4.83870972e-03, 4.83870972e-03, 0.,
          6.45161280e-03, 1.61290320e-03, 4.83870972e-03, 3.22580640e-03,
          0., 1.61290320e-03, 3.22580640e-03, 1.61290320e-03, 0.,
          3.22580640e-03, 0., 1.61290320e-03, 1.61290320e-03,
          1.45161292e-02, 3.70967723e-02, 3.22580636e-02, 1.61290320e-03,
          4.83870972e-03, 0., 6.45161280e-03, 4.83870972e-03,
          1.29032256e-02, 3.22580640e-03, 6.45161280e-03, 3.22580640e-03,
          0., 1.29032256e-02, 1.61290320e-03, 1.61290320e-03,
          1.61290318e-02, 1.61290320e-03, 3.22580640e-03, 0.,
          3.22580640e-03, 0., 1.61290320e-03, 0., 1.61290320e-03,
          1.29032256e-02, 1.29032256e-02, 0., 1.61290320e-03,
          4.83870972e-03, 6.45161280e-03, 6.45161280e-03, 4.83870972e-03,
          0., 3.22580640e-03, 4.83870972e-03, 1.61290318e-02,
          3.22580640e-03, 1.61290320e-03, 1.61290320e-03, 0.,
          4.83870972e-03, 9.67741944e-03, 1.29032256e-02, 1.61290320e-03,
          3.22580640e-03, 1.61290320e-03, 9.67741944e-03, 0.,
          1.61290318e-02, 3.22580640e-03, 3.22580640e-03, 0.,
          4.83870972e-03, 6.45161280e-03, 4.83870972e-03, 0.,
          3.22580640e-03, 1.61290320e-03, 9.67741944e-03, 4.83870972e-03,
          3.22580640e-03, 4.83870972e-03, 1.61290320e-03, 0.,
          3.22580640e-03 ]
      - [ 1.20240487e-02, 2.00400804e-03, 6.01202436e-03, 4.00801608e-03,
          2.00400804e-03, 8.01603217e-03, 1.00200400e-02, 2.00400804e-03,
          1.00200400e-02, 0., 8.01603217e-03, 1.40280565e-02,
          4.00801608e-03, 2.00400804e-03, 2.00400804e-03, 0.,
          4.00801608e-03, 1.40280565e-02, 1.80360731e-02, 4.00801608e-03,
          0., 0., 2.00400804e-03, 2.00400804e-03, 4.00801608e-03,
          4.00801608e-03, 1.40280565e-02, 0., 0., 4.00801608e-03,
          4.00801608e-03, 4.00801608e-03, 8.01603217e-03, 2.00400804e-03,
          2.00400804e-03, 1.00200400e-02, 1.00200400e-02, 0.,
          4.00801608e-03, 6.01202436e-03, 2.00400804e-03, 0.,
          2.00400804e-03, 2.00400804e-03, 0., 6.01202436e-03,
          8.01603217e-03, 2.80561130e-02, 6.01202436e-03, 4.00801608e-03,
          8.01603217e-03, 4.00801608e-03, 2.00400804e-03, 8.01603217e-03,
          8.01603217e-03, 4.00801608e-03, 1.00200400e-02, 4.00801608e-03,
          2.00400804e-03, 2.00400804e-03, 6.01202436e-03, 2.00400804e-03,
          0., 1.00200400e-02, 0., 4.00801608e-03, 6.01202436e-03,
          1.00200400e-02, 0., 0., 6.01202436e-03, 2.00400804e-03,
          2.00400804e-03, 2.00400804e-03, 8.01603217e-03, 6.01202436e-03,
          2.00400804e-03, 2.00400804e-03, 8.01603217e-03, 2.00400804e-03,
          4.00801608e-03, 6.01202436e-03, 0., 1.80360731e-02,
          2.00400804e-03, 0., 1.00200400e-02, 4.00801608e-03,
          6.01202436e-03, 2.00400804e-03, 1.00200400e-02, 6.01202436e-03,
          6.01202436e-03, 0., 2.00400804e-03, 0., 0., 1.20240487e-02,
          6.01202436e-03, 2.00400804e-03, 4.00801608e-03, 6.01202436e-03,
          1.00200400e-02, 2.00400804e-03, 1.80360731e-02, 1.40280565e-02,
          2.00400804e-03, 1.20240487e-02, 6.01202436e-03, 6.01202436e-03,
          2.00400804e-03, 6.01202436e-03, 1.20240487e-02, 0.,
          6.01202436e-03, 2.00400804e-03, 6.01202436e-03, 2.00400804e-03,
          2.00400804e-03, 8.01603217e-03, 0., 4.00801608e-03,
          2.00400804e-03, 6.01202436e-03, 2.00400804e-03, 2.00400804e-03,
          6.01202436e-03, 4.00801608e-03, 2.00400804e-03, 0.,
          2.00400804e-03, 0., 2.00400804e-03, 2.00400804e-03,
          1.00200400e-02, 3.00601199e-02, 3.00601199e-02, 8.01603217e-03,
          4.00801608e-03, 2.00400804e-03, 6.01202436e-03, 0.,
          1.60320643e-02, 4.00801608e-03, 6.01202436e-03, 2.00400804e-03,
          0., 2.00400804e-03, 2.00400804e-03, 2.00400804e-03,
          1.20240487e-02, 2.00400804e-03, 4.00801608e-03, 0.,
          6.01202436e-03, 2.00400804e-03, 4.00801608e-03, 0.,
          6.01202436e-03, 2.20440887e-02, 1.20240487e-02, 0.,
          2.00400804e-03, 4.00801608e-03, 1.00200400e-02, 6.01202436e-03,
          4.00801608e-03, 0., 4.00801608e-03, 4.00801608e-03,
          1.40280565e-02, 2.00400804e-03, 4.00801608e-03, 2.00400804e-03,
          0., 6.01202436e-03, 1.20240487e-02, 1.00200400e-02,
          2.00400804e-03, 0., 2.00400804e-03, 4.00801608e-03, 0.,
          1.00200400e-02, 2.00400804e-03, 2.00400804e-03, 0.,
          6.01202436e-03, 4.00801608e-03, 4.00801608e-03, 2.00400804e-03,
          2.00400804e-03, 2.00400804e-03, 1.20240487e-02, 4.00801608e-03,
          2.00400804e-03, 6.01202436e-03, 0., 0., 4.00801608e-03 ]
      - [ 4.35729837e-03, 2.17864919e-03, 4.35729837e-03, 2.17864919e-03,
          0., 6.53594732e-03, 1.08932462e-02, 2.17864919e-03,
          1.30718946e-02, 0., 2.17864919e-03, 2.17864923e-02, 0.,
          2.17864919e-03, 2.17864919e-03, 0., 6.53594732e-03,
          2.17864923e-02, 1.96078420e-02, 0., 2.17864919e-03, 0., 0., 0.,
          6.53594732e-03, 6.53594732e-03, 1.30718946e-02, 4.35729837e-03,
          0., 0., 1.08932462e-02, 2.17864919e-03, 6.53594732e-03,
          2.17864919e-03, 4.35729837e-03, 1.52505441e-02, 1.08932462e-02,
          0., 6.53594732e-03, 1.08932462e-02, 2.17864919e-03, 0.,
          4.35729837e-03, 0., 0., 8.71459674e-03, 6.53594732e-03,
          2.61437893e-02, 6.53594732e-03, 6.53594732e-03, 4.35729837e-03,
          4.35729837e-03, 4.35729837e-03, 4.35729837e-03, 8.71459674e-03,
          0., 1.08932462e-02, 8.71459674e-03, 0., 2.17864919e-03, 0.,
          4.35729837e-03, 0., 1.08932462e-02, 0., 4.35729837e-03,
          1.08932462e-02, 1.08932462e-02, 0., 0., 8.71459674e-03,
          6.53594732e-03, 2.17864919e-03, 4.35729837e-03, 4.35729837e-03,
          2.17864919e-03, 6.53594732e-03, 0., 1.08932462e-02,
          2.17864919e-03, 0., 4.35729837e-03, 0., 6.53594732e-03,
          2.17864919e-03, 0., 1.30718946e-02, 2.17864919e-03,
          4.35729837e-03, 2.17864919e-03, 8.71459674e-03, 4.35729837e-03,
          4.35729837e-03, 0., 2.17864919e-03, 0., 0., 1.30718946e-02,
          1.30718946e-02, 2.17864919e-03, 1.08932462e-02, 1.30718946e-02,
          4.35729837e-03, 2.17864919e-03, 1.96078420e-02, 1.30718946e-02,
          2.17864919e-03, 1.74291935e-02, 4.35729837e-03, 2.17864919e-03,
          2.17864919e-03, 2.17864919e-03, 6.53594732e-03, 0., 0.,
          4.35729837e-03, 4.35729837e-03, 2.17864919e-03, 0.,
          8.71459674e-03, 0., 6.53594732e-03, 2.17864919e-03,
          8.71459674e-03, 4.35729837e-03, 2.17864919e-03, 2.17864919e-03,
          2.17864919e-03, 2.17864919e-03, 0., 0., 0., 2.17864919e-03,
          4.35729837e-03, 1.08932462e-02, 1.08932462e-02, 1.30718946e-02,
          4.35729837e-03, 6.53594732e-03, 0., 8.71459674e-03,
          4.35729837e-03, 1.96078420e-02, 4.35729837e-03, 8.71459674e-03,
          2.17864919e-03, 0., 6.53594732e-03, 0., 4.35729837e-03,
          1.74291935e-02, 2.17864919e-03, 6.53594732e-03, 0.,
          4.35729837e-03, 2.17864919e-03, 0., 0., 2.17864919e-03,
          1.96078420e-02, 6.53594732e-03, 0., 2.17864919e-03,
          8.71459674e-03, 8.71459674e-03, 6.53594732e-03, 4.35729837e-03,
          0., 2.17864919e-03, 2.17864919e-03, 1.30718946e-02,
          4.35729837e-03, 0., 2.17864919e-03, 0., 6.53594732e-03,
          1.52505441e-02, 6.53594732e-03, 4.35729837e-03, 0., 0.,
          6.53594732e-03, 4.35729837e-03, 1.74291935e-02, 4.35729837e-03,
          4.35729837e-03, 0., 2.17864919e-03, 6.53594732e-03,
          6.53594732e-03, 4.35729837e-03, 0., 2.17864919e-03,
          1.08932462e-02, 4.35729837e-03, 2.17864919e-03, 4.35729837e-03,
          0., 0., 4.35729837e-03 ]
      - [ 5.02512557e-03, 0., 7.53768813e-03, 2.51256279e-03,
          2.51256279e-03, 0., 7.53768813e-03, 0., 1.25628142e-02, 0.,
          5.02512557e-03, 1.50753763e-02, 2.51256279e-03, 2.51256279e-03,
          5.02512557e-03, 0., 2.51256279e-03, 1.50753763e-02,
          1.00502511e-02, 2.51256279e-03, 5.02512557e-03, 0., 0.,
          2.51256279e-03, 2.51256279e-03, 5.02512557e-03, 1.50753763e-02,
          5.02512557e-03, 0., 5.02512557e-03, 2.51256279e-03,
          2.51256279e-03, 1.00502511e-02, 5.02512557e-03, 2.51256279e-03,
          1.50753763e-02, 1.50753763e-02, 0., 0., 5.02512557e-03,
          7.53768813e-03, 2.51256279e-03, 2.51256279e-03, 0., 0.,
          1.50753763e-02, 7.53768813e-03, 4.02010046e-02, 1.00502511e-02,
          2.51256279e-03, 5.02512557e-03, 7.53768813e-03, 0.,
          1.25628142e-02, 1.00502511e-02, 5.02512557e-03, 1.50753763e-02,
          1.00502511e-02, 0., 0., 5.02512557e-03, 2.51256279e-03,
          2.51256279e-03, 1.50753763e-02, 5.02512557e-03, 7.53768813e-03,
          7.53768813e-03, 1.00502511e-02, 0., 0., 1.75879393e-02,
          7.53768813e-03, 2.51256279e-03, 2.51256279e-03, 2.51256279e-03,
          2.51256279e-03, 2.51256279e-03, 0., 7.53768813e-03,
          1.00502511e-02, 2.51256279e-03, 1.00502511e-02, 2.51256279e-03,
          5.02512557e-03, 5.02512557e-03, 0., 1.00502511e-02,
          2.51256279e-03, 5.02512557e-03, 2.51256279e-03, 2.51256279e-03,
          2.51256279e-03, 1.25628142e-02, 0., 2.51256279e-03, 0., 0.,
          1.25628142e-02, 5.02512557e-03, 2.51256279e-03, 1.00502511e-02,
          1.25628142e-02, 2.51256279e-03, 2.51256279e-03, 2.51256283e-02,
          2.01005023e-02, 0., 2.51256279e-03, 7.53768813e-03,
          5.02512557e-03, 2.51256279e-03, 2.51256279e-03, 5.02512557e-03,
          0., 0., 7.53768813e-03, 5.02512557e-03, 0., 5.02512557e-03,
          5.02512557e-03, 0., 1.25628142e-02, 5.02512557e-03,
          2.51256279e-03, 5.02512557e-03, 0., 5.02512557e-03,
          5.02512557e-03, 0., 0., 0., 0., 2.51256279e-03, 0.,
          1.50753763e-02, 0., 1.75879393e-02, 5.02512557e-03,
          2.51256279e-03, 0., 1.50753763e-02, 2.51256279e-03,
          1.75879393e-02, 5.02512557e-03, 7.53768813e-03, 2.51256279e-03,
          0., 7.53768813e-03, 2.51256279e-03, 0., 1.25628142e-02,
          2.51256279e-03, 0., 0., 7.53768813e-03, 2.51256279e-03,
          2.51256279e-03, 0., 2.51256279e-03, 1.75879393e-02,
          5.02512557e-03, 0., 2.51256279e-03, 5.02512557e-03,
          1.25628142e-02, 5.02512557e-03, 5.02512557e-03, 0.,
          2.51256279e-03, 2.51256279e-03, 5.02512557e-03, 2.51256279e-03,
          0., 2.51256279e-03, 0., 2.51256279e-03, 5.02512557e-03,
          2.51256279e-03, 2.51256279e-03, 2.51256279e-03, 0.,
          5.02512557e-03, 5.02512557e-03, 7.53768813e-03, 2.51256279e-03,
          7.53768813e-03, 0., 7.53768813e-03, 5.02512557e-03,
          5.02512557e-03, 5.02512557e-03, 5.02512557e-03, 7.53768813e-03,
          5.02512557e-03, 2.51256279e-03, 1.00502511e-02, 0.,
          2.51256279e-03, 0., 0. ]
      - [ 1.40449440e-03, 2.80898879e-03, 2.80898879e-03, 7.02247210e-03,
          4.21348307e-03, 7.02247210e-03, 2.80898879e-03, 1.40449440e-03,
          1.26404492e-02, 0., 8.42696615e-03, 0., 1.40449440e-03,
          7.02247210e-03, 5.61797759e-03, 9.83146112e-03, 2.80898879e-03,
          4.21348307e-03, 0., 2.80898879e-03, 2.80898879e-03,
          2.80898879e-03, 5.61797759e-03, 2.80898879e-03, 7.02247210e-03,
          7.02247210e-03, 1.26404492e-02, 1.82584263e-02, 2.80898879e-03,
          5.61797759e-03, 0., 1.40449440e-03, 1.40449440e-03,
          2.80898879e-03, 1.96629222e-02, 0., 4.21348307e-03,
          1.40449440e-03, 1.54494382e-02, 4.21348307e-03, 4.21348307e-03,
          0., 5.61797759e-03, 0., 4.21348307e-03, 4.21348307e-03,
          4.21348307e-03, 0., 0., 9.83146112e-03, 1.40449440e-03,
          1.40449440e-03, 1.40449440e-03, 0., 9.83146112e-03,
          7.02247210e-03, 1.40449440e-03, 7.02247210e-03, 4.21348307e-03,
          7.02247210e-03, 1.12359552e-02, 1.40449440e-03, 1.54494382e-02,
          2.80898879e-03, 4.21348307e-03, 1.12359552e-02, 2.80898879e-03,
          4.21348307e-03, 1.40449440e-03, 7.02247210e-03, 7.02247210e-03,
          1.40449440e-03, 1.40449440e-03, 4.21348307e-03, 0.,
          1.12359552e-02, 7.02247210e-03, 2.80898879e-03, 4.21348307e-03,
          2.80898879e-03, 4.21348307e-03, 0., 1.40449440e-03,
          4.21348307e-03, 7.02247210e-03, 9.83146112e-03, 4.21348307e-03,
          5.61797759e-03, 2.80898879e-03, 1.40449440e-03, 4.21348307e-03,
          2.80898879e-03, 8.42696615e-03, 2.80898879e-03, 2.80898879e-03,
          5.61797759e-03, 0., 0., 4.21348307e-03, 1.40449442e-02,
          7.02247210e-03, 2.80898879e-03, 4.21348307e-03, 1.26404492e-02,
          1.40449442e-02, 7.02247210e-03, 4.21348307e-03, 2.94943824e-02,
          2.80898879e-03, 1.40449440e-03, 0., 2.80898879e-03,
          1.40449440e-03, 0., 4.21348307e-03, 2.80898879e-03,
          2.80898879e-03, 9.83146112e-03, 4.21348307e-03, 2.80898879e-03,
          5.61797759e-03, 8.42696615e-03, 9.83146112e-03, 7.02247210e-03,
          5.61797759e-03, 2.80898879e-03, 7.02247210e-03, 1.54494382e-02,
          7.02247210e-03, 8.42696615e-03, 1.40449442e-02, 4.21348307e-03,
          1.40449440e-03, 5.61797759e-03, 4.21348307e-03, 2.80898879e-03,
          2.80898879e-03, 8.42696615e-03, 1.40449440e-03, 4.21348307e-03,
          1.40449440e-03, 4.21348307e-03, 4.21348307e-03, 4.21348307e-03,
          8.42696615e-03, 4.21348307e-03, 4.21348307e-03, 4.21348307e-03,
          8.42696615e-03, 2.80898879e-03, 2.80898879e-03, 5.61797759e-03,
          1.40449440e-03, 5.61797759e-03, 0., 1.40449440e-03,
          5.61797759e-03, 1.40449440e-03, 4.21348307e-03, 1.40449440e-03,
          8.42696615e-03, 1.40449440e-03, 4.21348307e-03, 4.21348307e-03,
          1.40449440e-03, 5.61797759e-03, 4.21348307e-03, 7.02247210e-03,
          4.21348307e-03, 1.40449440e-03, 2.80898879e-03, 2.80898879e-03,
          2.80898879e-03, 5.61797759e-03, 9.83146112e-03, 0.,
          8.42696615e-03, 1.40449440e-03, 4.21348307e-03, 7.02247210e-03,
          2.80898879e-03, 5.61797759e-03, 5.61797759e-03, 1.68539323e-02,
          1.12359552e-02, 5.61797759e-03, 2.80898879e-03, 1.12359552e-02,
          5.61797759e-03, 4.21348307e-03, 7.02247210e-03, 9.83146112e-03,
          1.12359552e-02, 4.21348307e-03, 1.40449440e-03, 4.21348307e-03,
          1.40449440e-03, 4.21348307e-03, 4.21348307e-03, 9.83146112e-03 ]
      - [ 0., 2.15749722e-03, 4.31499444e-03, 6.47249166e-03,
          3.23624583e-03, 6.47249166e-03, 2.15749722e-03, 0.,
          8.62998888e-03, 1.07874861e-03, 4.31499444e-03, 3.23624583e-03,
          2.15749722e-03, 8.62998888e-03, 4.31499444e-03, 6.47249166e-03,
          2.15749722e-03, 3.23624583e-03, 3.23624583e-03, 2.15749722e-03,
          5.39374305e-03, 5.39374305e-03, 7.55124027e-03, 4.31499444e-03,
          9.70873795e-03, 7.55124027e-03, 6.47249166e-03, 1.40237324e-02,
          5.39374305e-03, 3.23624583e-03, 2.15749722e-03, 2.15749722e-03,
          2.15749722e-03, 3.23624583e-03, 1.18662342e-02, 5.39374305e-03,
          2.15749722e-03, 5.39374305e-03, 9.70873795e-03, 1.07874861e-03,
          9.70873795e-03, 3.23624583e-03, 5.39374305e-03, 2.15749722e-03,
          4.31499444e-03, 1.07874861e-03, 5.39374305e-03, 2.15749722e-03,
          3.23624583e-03, 4.31499444e-03, 2.15749722e-03, 1.07874861e-03,
          4.31499444e-03, 2.15749722e-03, 4.31499444e-03, 6.47249166e-03,
          6.47249166e-03, 4.31499444e-03, 5.39374305e-03, 4.31499444e-03,
          8.62998888e-03, 2.15749722e-03, 1.51024805e-02, 3.23624583e-03,
          2.15749722e-03, 1.18662342e-02, 2.15749722e-03, 5.39374305e-03,
          1.07874861e-03, 5.39374305e-03, 4.31499444e-03, 2.15749722e-03,
          2.15749722e-03, 3.23624583e-03, 1.07874861e-03, 6.47249166e-03,
          6.47249166e-03, 1.07874861e-03, 3.23624583e-03, 4.31499444e-03,
          4.31499444e-03, 0., 1.07874861e-03, 3.23624583e-03,
          7.55124027e-03, 1.29449833e-02, 1.07874861e-03, 7.55124027e-03,
          1.07874861e-03, 1.07874861e-02, 7.55124027e-03, 2.15749722e-03,
          8.62998888e-03, 3.23624583e-03, 6.47249166e-03, 4.31499444e-03,
          1.07874861e-03, 1.07874861e-03, 3.23624583e-03, 9.70873795e-03,
          8.62998888e-03, 0., 1.07874861e-03, 6.47249166e-03,
          1.40237324e-02, 4.31499444e-03, 5.39374305e-03, 1.72599778e-02,
          0., 1.07874861e-03, 2.15749722e-03, 4.31499444e-03,
          2.15749722e-03, 0., 4.31499444e-03, 2.15749722e-03,
          3.23624583e-03, 4.31499444e-03, 2.15749722e-03, 2.15749722e-03,
          5.39374305e-03, 8.62998888e-03, 3.23624583e-03, 9.70873795e-03,
          1.18662342e-02, 3.23624583e-03, 5.39374305e-03, 1.07874861e-02,
          1.07874861e-03, 4.31499444e-03, 1.51024805e-02, 7.55124027e-03,
          2.15749722e-03, 3.23624583e-03, 1.07874861e-03, 7.55124027e-03,
          1.07874861e-03, 8.62998888e-03, 2.15749722e-03, 1.07874861e-02,
          1.07874861e-03, 6.47249166e-03, 2.15749722e-03, 3.23624583e-03,
          7.55124027e-03, 3.23624583e-03, 5.39374305e-03, 8.62998888e-03,
          5.39374305e-03, 1.07874861e-03, 0., 7.55124027e-03,
          1.07874861e-03, 7.55124027e-03, 3.23624583e-03, 3.23624583e-03,
          3.23624583e-03, 1.07874861e-03, 5.39374305e-03, 5.39374305e-03,
          3.23624583e-03, 1.07874861e-03, 6.47249166e-03, 6.47249166e-03,
          6.47249166e-03, 9.70873795e-03, 1.51024805e-02, 3.23624583e-03,
          7.55124027e-03, 3.23624583e-03, 5.39374305e-03, 1.07874861e-03,
          2.15749722e-03, 3.23624583e-03, 7.55124027e-03, 1.07874861e-03,
          3.23624583e-03, 5.39374305e-03, 3.23624583e-03, 7.55124027e-03,
          3.23624583e-03, 5.39374305e-03, 2.15749722e-03, 2.91262120e-02,
          6.47249166e-03, 5.39374305e-03, 3.23624583e-03, 1.18662342e-02,
          2.15749722e-03, 1.07874861e-03, 6.47249166e-03, 8.62998888e-03,
          1.40237324e-02, 1.07874861e-02, 4.31499444e-03, 2.15749722e-03,
          2.15749722e-03, 4.31499444e-03, 5.39374305e-03, 1.94174759e-02 ]
      - [ 0., 2.33100238e-03, 0., 4.66200477e-03, 4.66200477e-03,
          2.33100238e-03, 4.66200477e-03, 0., 6.99300691e-03, 0.,
          6.99300691e-03, 4.66200477e-03, 2.33100238e-03, 1.16550121e-02,
          6.99300691e-03, 4.66200477e-03, 2.33100238e-03, 2.33100238e-03,
          0., 2.33100238e-03, 6.99300691e-03, 6.99300691e-03,
          6.99300691e-03, 0., 9.32400953e-03, 9.32400953e-03,
          1.16550121e-02, 6.99300691e-03, 0., 2.33100238e-03, 0., 0.,
          2.33100238e-03, 4.66200477e-03, 0., 0., 2.33100238e-03,
          2.33100238e-03, 1.39860138e-02, 2.33100238e-03, 1.63170174e-02,
          6.99300691e-03, 0., 2.33100238e-03, 6.99300691e-03,
          4.66200477e-03, 4.66200477e-03, 2.33100238e-03, 0.,
          4.66200477e-03, 4.66200477e-03, 2.33100238e-03, 9.32400953e-03,
          0., 4.66200477e-03, 1.39860138e-02, 2.33100238e-03,
          6.99300691e-03, 6.99300691e-03, 1.39860138e-02, 1.39860138e-02,
          0., 2.33100238e-03, 2.33100238e-03, 4.66200477e-03,
          2.09790207e-02, 4.66200477e-03, 6.99300691e-03, 0., 0., 0., 0.,
          4.66200477e-03, 4.66200477e-03, 0., 4.66200477e-03,
          1.16550121e-02, 0., 2.33100238e-03, 1.16550121e-02,
          4.66200477e-03, 2.33100238e-03, 0., 2.33100238e-03,
          6.99300691e-03, 6.99300691e-03, 0., 2.33100238e-03,
          2.33100238e-03, 1.63170174e-02, 9.32400953e-03, 6.99300691e-03,
          1.16550121e-02, 0., 4.66200477e-03, 6.99300691e-03,
          6.99300691e-03, 4.66200477e-03, 0., 4.66200477e-03,
          2.33100238e-03, 2.33100238e-03, 4.66200477e-03, 6.99300691e-03,
          1.16550121e-02, 6.99300691e-03, 2.33100238e-03, 3.72960381e-02,
          4.66200477e-03, 4.66200477e-03, 0., 4.66200477e-03,
          2.33100238e-03, 0., 4.66200477e-03, 0., 2.33100238e-03,
          1.16550121e-02, 2.33100238e-03, 0., 6.99300691e-03,
          2.33100238e-03, 1.39860138e-02, 4.66200477e-03, 0.,
          4.66200477e-03, 2.33100238e-03, 6.99300691e-03, 4.66200477e-03,
          0., 2.79720277e-02, 2.33100238e-03, 0., 4.66200477e-03, 0.,
          4.66200477e-03, 2.33100238e-03, 1.16550121e-02, 2.33100238e-03,
          4.66200477e-03, 0., 9.32400953e-03, 0., 0., 6.99300691e-03,
          4.66200477e-03, 6.99300691e-03, 0., 9.32400953e-03, 0.,
          6.99300691e-03, 1.16550121e-02, 2.33100238e-03, 6.99300691e-03,
          2.33100238e-03, 0., 2.33100238e-03, 2.33100238e-03,
          4.66200477e-03, 4.66200477e-03, 4.66200477e-03, 0.,
          6.99300691e-03, 6.99300691e-03, 2.33100238e-03, 9.32400953e-03,
          4.66200477e-03, 4.66200477e-03, 9.32400953e-03, 9.32400953e-03,
          2.33100238e-03, 2.33100238e-03, 2.33100238e-03, 4.66200477e-03,
          1.16550121e-02, 2.33100238e-03, 9.32400953e-03, 2.33100238e-03,
          6.99300691e-03, 6.99300691e-03, 4.66200477e-03, 6.99300691e-03,
          4.66200477e-03, 1.63170174e-02, 2.33100238e-03, 0.,
          6.99300691e-03, 9.32400953e-03, 1.16550121e-02, 2.33100238e-03,
          2.33100238e-03, 6.99300691e-03, 1.39860138e-02, 6.99300691e-03,
          2.33100238e-03, 4.66200477e-03, 2.33100238e-03, 4.66200477e-03,
          9.32400953e-03, 2.33100238e-03 ]
      - [ 3.36134457e-03, 3.36134457e-03, 8.40336177e-03, 3.36134457e-03,
          0., 5.04201697e-03, 3.36134457e-03, 1.68067229e-03,
          1.51260504e-02, 1.68067229e-03, 6.72268914e-03, 3.36134457e-03,
          1.68067229e-03, 8.40336177e-03, 3.36134457e-03, 5.04201697e-03,
          1.68067229e-03, 3.36134457e-03, 0., 1.68067229e-03,
          5.04201697e-03, 0., 6.72268914e-03, 0., 8.40336177e-03,
          6.72268914e-03, 6.72268914e-03, 1.84873957e-02, 1.68067229e-03,
          1.68067229e-03, 3.36134457e-03, 3.36134457e-03, 0.,
          6.72268914e-03, 1.34453783e-02, 3.36134457e-03, 5.04201697e-03,
          6.72268914e-03, 1.51260504e-02, 3.36134457e-03, 1.00840339e-02,
          5.04201697e-03, 6.72268914e-03, 1.68067229e-03, 6.72268914e-03,
          1.68067229e-03, 3.36134457e-03, 0., 3.36134457e-03,
          1.68067229e-03, 1.68067229e-03, 0., 1.68067229e-03,
          3.36134457e-03, 5.04201697e-03, 1.34453783e-02, 3.36134457e-03,
          1.00840339e-02, 6.72268914e-03, 1.00840339e-02, 8.40336177e-03,
          1.17647061e-02, 3.36134457e-03, 3.36134457e-03, 5.04201697e-03,
          1.84873957e-02, 3.36134457e-03, 5.04201697e-03, 0.,
          3.36134457e-03, 3.36134457e-03, 0., 1.68067229e-03,
          8.40336177e-03, 1.68067229e-03, 1.17647061e-02, 5.04201697e-03,
          1.68067229e-03, 1.68067229e-03, 3.36134457e-03, 5.04201697e-03,
          5.04201697e-03, 1.68067229e-03, 3.36134457e-03, 1.17647061e-02,
          3.36134457e-03, 0., 5.04201697e-03, 1.68067229e-03,
          5.04201697e-03, 6.72268914e-03, 1.68067229e-03, 1.00840339e-02,
          1.68067229e-03, 3.36134457e-03, 3.36134457e-03, 6.72268914e-03,
          1.68067229e-03, 5.04201697e-03, 1.17647061e-02, 3.36134457e-03,
          0., 3.36134457e-03, 1.34453783e-02, 1.00840339e-02,
          8.40336177e-03, 3.36134457e-03, 2.52100844e-02, 3.36134457e-03,
          1.68067229e-03, 0., 0., 0., 1.68067229e-03, 6.72268914e-03,
          3.36134457e-03, 3.36134457e-03, 6.72268914e-03, 3.36134457e-03,
          0., 8.40336177e-03, 1.00840339e-02, 6.72268914e-03,
          3.36134457e-03, 3.36134457e-03, 1.68067229e-03, 3.36134457e-03,
          2.01680679e-02, 8.40336177e-03, 8.40336177e-03, 1.68067235e-02,
          6.72268914e-03, 1.68067229e-03, 3.36134457e-03, 1.68067229e-03,
          0., 0., 5.04201697e-03, 1.68067229e-03, 1.00840339e-02,
          1.68067229e-03, 3.36134457e-03, 1.68067229e-03, 0.,
          6.72268914e-03, 3.36134457e-03, 5.04201697e-03, 5.04201697e-03,
          6.72268914e-03, 5.04201697e-03, 3.36134457e-03, 1.00840339e-02,
          1.68067229e-03, 3.36134457e-03, 5.04201697e-03, 8.40336177e-03,
          3.36134457e-03, 1.68067229e-03, 6.72268914e-03, 5.04201697e-03,
          3.36134457e-03, 0., 6.72268914e-03, 1.68067229e-03,
          1.68067229e-03, 5.04201697e-03, 1.17647061e-02, 5.04201697e-03,
          1.17647061e-02, 5.04201697e-03, 1.68067229e-03, 1.68067229e-03,
          3.36134457e-03, 1.68067229e-03, 6.72268914e-03, 0.,
          6.72268914e-03, 1.17647061e-02, 3.36134457e-03, 8.40336177e-03,
          5.04201697e-03, 6.72268914e-03, 3.36134457e-03, 1.68067235e-02,
          5.04201697e-03, 5.04201697e-03, 6.72268914e-03, 8.40336177e-03,
          5.04201697e-03, 1.68067229e-03, 5.04201697e-03, 6.72268914e-03,
          5.04201697e-03, 8.40336177e-03, 0., 1.68067229e-03, 0., 0.,
          1.00840339e-02, 8.40336177e-03 ]
      - [ 0., 7.77202053e-03, 1.29533675e-03, 2.59067351e-03,
          3.88601026e-03, 3.88601026e-03, 3.88601026e-03, 1.03626940e-02,
          1.29533675e-03, 0., 2.59067351e-03, 1.29533675e-03,
          1.29533671e-02, 1.29533675e-03, 1.29533671e-02, 7.77202053e-03,
          3.88601026e-03, 3.88601026e-03, 0., 1.29533671e-02,
          7.77202053e-03, 3.88601026e-03, 1.29533675e-03, 1.03626940e-02,
          0., 9.06735752e-03, 2.59067351e-03, 0., 7.77202053e-03,
          1.03626940e-02, 1.16580306e-02, 5.18134702e-03, 1.29533675e-03,
          6.47668354e-03, 1.29533675e-03, 1.29533675e-03, 5.18134702e-03,
          1.03626940e-02, 3.88601026e-03, 2.59067351e-03, 9.06735752e-03,
          3.88601026e-03, 5.18134702e-03, 2.59067351e-03, 1.29533671e-02,
          3.88601026e-03, 6.47668354e-03, 0., 1.29533671e-02,
          6.47668354e-03, 5.18134702e-03, 2.59067351e-03, 1.29533675e-03,
          1.29533675e-03, 2.59067351e-03, 3.88601026e-03, 0.,
          2.59067351e-03, 2.59067351e-03, 2.59067351e-03, 5.18134702e-03,
          1.29533675e-03, 1.16580306e-02, 3.88601026e-03, 1.03626940e-02,
          1.29533675e-03, 5.18134702e-03, 3.88601026e-03, 1.16580306e-02,
          6.47668354e-03, 5.18134702e-03, 2.59067351e-03, 9.06735752e-03,
          5.18134702e-03, 0., 7.77202053e-03, 2.59067351e-03,
          9.06735752e-03, 1.29533675e-03, 6.47668354e-03, 3.88601026e-03,
          9.06735752e-03, 0., 0., 7.77202053e-03, 2.59067351e-03,
          2.59067351e-03, 6.47668354e-03, 7.77202053e-03, 3.88601026e-03,
          3.88601026e-03, 6.47668354e-03, 1.29533675e-03, 1.16580306e-02,
          6.47668354e-03, 3.88601026e-03, 1.16580306e-02, 5.18134702e-03,
          5.18134702e-03, 2.59067351e-03, 3.88601026e-03, 5.18134702e-03,
          1.29533675e-03, 5.18134702e-03, 3.88601026e-03, 1.29533675e-03,
          6.47668354e-03, 2.59067351e-03, 5.18134702e-03, 6.47668354e-03,
          0., 6.47668354e-03, 1.29533675e-03, 2.59067351e-03,
          3.88601026e-03, 3.88601026e-03, 2.59067351e-03, 9.06735752e-03,
          1.03626940e-02, 1.29533675e-03, 1.29533675e-03, 1.16580306e-02,
          3.88601026e-03, 1.29533675e-03, 2.59067351e-03, 2.59067351e-03,
          7.77202053e-03, 9.06735752e-03, 2.59067351e-03, 1.29533675e-03,
          1.29533671e-02, 0., 0., 6.47668354e-03, 3.88601026e-03,
          1.55440411e-02, 1.29533675e-03, 9.06735752e-03, 1.29533675e-03,
          1.68393776e-02, 2.59067351e-03, 1.29533675e-03, 1.29533675e-03,
          1.29533675e-03, 2.59067351e-03, 5.18134702e-03, 1.42487045e-02,
          2.59067351e-03, 5.18134702e-03, 3.88601026e-03, 1.29533675e-03,
          2.59067351e-03, 1.29533675e-03, 0., 5.18134702e-03,
          7.77202053e-03, 1.16580306e-02, 2.59067351e-03, 2.33160611e-02,
          6.47668354e-03, 1.29533671e-02, 2.59067351e-03, 9.06735752e-03,
          2.59067351e-03, 0., 3.88601026e-03, 3.88601026e-03,
          1.42487045e-02, 3.88601026e-03, 3.88601026e-03, 1.29533675e-03,
          1.03626940e-02, 6.47668354e-03, 3.88601026e-03, 1.29533675e-03,
          0., 2.59067351e-03, 2.59067351e-03, 3.88601026e-03,
          1.29533675e-03, 6.47668354e-03, 1.29533675e-03, 1.03626940e-02,
          5.18134702e-03, 3.88601026e-03, 6.47668354e-03, 7.77202053e-03,
          2.59067351e-03, 3.88601026e-03, 2.59067351e-03, 3.88601026e-03,
          7.77202053e-03, 3.88601026e-03, 1.03626940e-02, 3.88601026e-03,
          9.06735752e-03, 7.77202053e-03, 7.77202053e-03, 5.18134702e-03,
          5.18134702e-03 ]
      - [ 3.86847206e-03, 3.86847206e-03, 1.93423603e-03, 7.73694413e-03,
          3.86847206e-03, 5.80270821e-03, 1.93423603e-03, 3.86847206e-03,
          0., 1.93423603e-03, 3.86847206e-03, 0., 1.54738883e-02,
          1.93423603e-03, 1.54738883e-02, 1.16054164e-02, 3.86847206e-03,
          1.93423603e-03, 0., 5.80270821e-03, 1.16054164e-02,
          7.73694413e-03, 5.80270821e-03, 5.80270821e-03, 1.93423603e-03,
          9.67118051e-03, 1.93423603e-03, 0., 7.73694413e-03,
          1.35396523e-02, 1.35396523e-02, 1.93423603e-03, 0.,
          3.86847206e-03, 3.86847206e-03, 1.93423603e-03, 7.73694413e-03,
          3.86847206e-03, 1.93423603e-03, 1.93423603e-03, 3.86847206e-03,
          3.86847206e-03, 1.74081251e-02, 3.86847206e-03, 1.74081251e-02,
          1.93423603e-03, 1.16054164e-02, 0., 5.80270821e-03,
          3.86847206e-03, 1.93423603e-03, 5.80270821e-03, 0.,
          3.86847206e-03, 5.80270821e-03, 5.80270821e-03, 1.93423603e-03,
          3.86847206e-03, 1.93423603e-03, 3.86847206e-03, 3.86847206e-03,
          5.80270821e-03, 1.35396523e-02, 5.80270821e-03, 7.73694413e-03,
          1.93423603e-03, 9.67118051e-03, 3.86847206e-03, 9.67118051e-03,
          5.80270821e-03, 0., 1.93423603e-03, 9.67118051e-03,
          3.86847206e-03, 1.93423603e-03, 7.73694413e-03, 1.93423603e-03,
          5.80270821e-03, 0., 3.86847206e-03, 0., 7.73694413e-03, 0.,
          1.93423603e-03, 1.54738883e-02, 7.73694413e-03, 7.73694413e-03,
          0., 7.73694413e-03, 1.93423603e-03, 3.86847206e-03,
          7.73694413e-03, 5.80270821e-03, 9.67118051e-03, 0.,
          7.73694413e-03, 1.16054164e-02, 7.73694413e-03, 1.54738883e-02,
          9.67118051e-03, 3.86847206e-03, 7.73694413e-03, 0.,
          1.93423603e-03, 5.80270821e-03, 1.93423603e-03, 3.86847206e-03,
          0., 0., 3.86847206e-03, 1.93423603e-03, 7.73694413e-03, 0.,
          1.93423603e-03, 3.86847206e-03, 5.80270821e-03, 3.86847206e-03,
          3.86847206e-03, 3.86847206e-03, 0., 3.86847206e-03,
          5.80270821e-03, 7.73694413e-03, 5.80270821e-03, 7.73694413e-03,
          1.93423603e-03, 5.80270821e-03, 1.16054164e-02, 3.86847206e-03,
          1.93423603e-03, 1.93423603e-03, 3.86847206e-03, 0.,
          5.80270821e-03, 1.93423603e-03, 2.32108328e-02, 1.93423603e-03,
          1.93423603e-03, 0., 1.35396523e-02, 5.80270821e-03,
          1.93423603e-03, 3.86847206e-03, 1.93423603e-03, 1.93423603e-03,
          1.93423603e-03, 9.67118051e-03, 1.93423603e-03, 1.93423603e-03,
          5.80270821e-03, 1.93423603e-03, 3.86847206e-03, 1.93423603e-03,
          0., 3.86847206e-03, 7.73694413e-03, 1.93423603e-03,
          3.86847206e-03, 2.70793047e-02, 5.80270821e-03, 1.54738883e-02,
          3.86847206e-03, 1.54738883e-02, 0., 0., 1.93423603e-03,
          5.80270821e-03, 9.67118051e-03, 1.93423603e-03, 3.86847206e-03,
          3.86847206e-03, 5.80270821e-03, 3.86847206e-03, 3.86847206e-03,
          1.93423603e-03, 0., 3.86847206e-03, 0., 3.86847206e-03, 0.,
          5.80270821e-03, 1.93423603e-03, 9.67118051e-03, 1.93423603e-03,
          3.86847206e-03, 5.80270821e-03, 9.67118051e-03, 7.73694413e-03,
          1.93423603e-03, 0., 3.86847206e-03, 7.73694413e-03,
          1.16054164e-02, 3.86847206e-03, 7.73694413e-03, 3.86847206e-03,
          9.67118051e-03, 5.80270821e-03, 1.93423603e-03, 3.86847206e-03 ]
      - [ 1.47710484e-03, 8.86262953e-03, 1.47710484e-03, 2.95420969e-03,
          5.90841938e-03, 1.47710484e-03, 2.95420969e-03, 5.90841938e-03,
          2.95420969e-03, 0., 2.95420969e-03, 1.47710484e-03,
          1.32939434e-02, 0., 1.32939434e-02, 7.38552399e-03,
          7.38552399e-03, 1.47710484e-03, 1.47710484e-03, 8.86262953e-03,
          7.38552399e-03, 7.38552399e-03, 2.95420969e-03, 7.38552399e-03,
          1.47710484e-03, 1.18168388e-02, 0., 2.95420969e-03,
          1.47710480e-02, 8.86262953e-03, 2.95420969e-03, 5.90841938e-03,
          2.95420969e-03, 4.43131477e-03, 1.47710484e-03, 4.43131477e-03,
          5.90841938e-03, 7.38552399e-03, 5.90841938e-03, 1.47710484e-03,
          7.38552399e-03, 2.95420969e-03, 1.47710480e-02, 1.47710484e-03,
          1.47710480e-02, 5.90841938e-03, 2.95420969e-03, 0.,
          1.03397341e-02, 7.38552399e-03, 2.95420969e-03, 8.86262953e-03,
          0., 0., 1.47710484e-03, 4.43131477e-03, 0., 2.95420969e-03,
          4.43131477e-03, 1.47710484e-03, 4.43131477e-03, 8.86262953e-03,
          7.38552399e-03, 4.43131477e-03, 2.95420969e-03, 1.47710484e-03,
          1.47710484e-03, 5.90841938e-03, 7.38552399e-03, 2.95420969e-03,
          2.95420969e-03, 0., 1.18168388e-02, 7.38552399e-03,
          2.95420969e-03, 4.43131477e-03, 5.90841938e-03, 8.86262953e-03,
          0., 2.95420969e-03, 0., 7.38552399e-03, 1.47710484e-03,
          1.47710484e-03, 8.86262953e-03, 2.95420969e-03, 4.43131477e-03,
          4.43131477e-03, 8.86262953e-03, 1.47710484e-03, 4.43131477e-03,
          5.90841938e-03, 2.95420969e-03, 4.43131477e-03, 2.95420969e-03,
          2.95420969e-03, 1.18168388e-02, 4.43131477e-03, 1.62481535e-02,
          1.32939434e-02, 1.47710484e-03, 8.86262953e-03, 1.47710484e-03,
          5.90841938e-03, 5.90841938e-03, 1.47710484e-03, 5.90841938e-03,
          0., 4.43131477e-03, 4.43131477e-03, 1.47710484e-03,
          1.47710480e-02, 2.95420969e-03, 2.95420969e-03, 5.90841938e-03,
          5.90841938e-03, 4.43131477e-03, 8.86262953e-03, 7.38552399e-03,
          1.47710484e-03, 0., 1.77252591e-02, 1.47710484e-03,
          1.47710484e-03, 7.38552399e-03, 1.47710484e-03, 8.86262953e-03,
          1.03397341e-02, 2.95420969e-03, 1.47710484e-03, 5.90841938e-03,
          1.47710484e-03, 1.47710484e-03, 5.90841938e-03, 1.47710484e-03,
          1.92023627e-02, 2.95420969e-03, 8.86262953e-03, 1.47710484e-03,
          5.90841938e-03, 5.90841938e-03, 1.47710484e-03, 1.47710484e-03,
          2.95420969e-03, 4.43131477e-03, 0., 7.38552399e-03, 0.,
          2.95420969e-03, 2.95420969e-03, 1.47710484e-03, 4.43131477e-03,
          0., 0., 8.86262953e-03, 4.43131477e-03, 5.90841938e-03,
          1.47710484e-03, 2.80649923e-02, 5.90841938e-03, 7.38552399e-03,
          5.90841938e-03, 8.86262953e-03, 4.43131477e-03, 1.47710484e-03,
          7.38552399e-03, 1.47710484e-03, 5.90841938e-03, 1.47710484e-03,
          2.95420969e-03, 2.95420969e-03, 1.77252591e-02, 2.95420969e-03,
          5.90841938e-03, 4.43131477e-03, 5.90841938e-03, 5.90841938e-03,
          4.43131477e-03, 1.47710484e-03, 2.95420969e-03, 5.90841938e-03,
          1.47710484e-03, 7.38552399e-03, 2.95420969e-03, 7.38552399e-03,
          7.38552399e-03, 5.90841938e-03, 5.90841938e-03, 2.95420969e-03,
          4.43131477e-03, 2.95420969e-03, 8.86262953e-03, 8.86262953e-03,
          7.38552399e-03, 5.90841938e-03, 1.47710484e-03, 2.95420969e-03,
          5.90841938e-03, 4.43131477e-03, 4.43131477e-03 ]
      - [ 0., 8.60832166e-03, 2.86944048e-03, 1.43472024e-03,
          8.60832166e-03, 1.43472024e-03, 0., 5.73888095e-03,
          2.86944048e-03, 0., 8.60832166e-03, 1.43472024e-03,
          1.00430418e-02, 1.43472024e-03, 4.30416083e-03, 8.60832166e-03,
          1.00430418e-02, 1.43472024e-03, 1.43472024e-03, 5.73888095e-03,
          1.14777619e-02, 1.00430418e-02, 5.73888095e-03, 4.30416083e-03,
          0., 1.29124820e-02, 1.43472024e-03, 2.86944048e-03,
          1.43472021e-02, 8.60832166e-03, 1.14777619e-02, 2.86944048e-03,
          1.43472024e-03, 7.17360107e-03, 1.43472024e-03, 1.43472024e-03,
          8.60832166e-03, 5.73888095e-03, 5.73888095e-03, 1.43472024e-03,
          1.00430418e-02, 1.43472024e-03, 1.14777619e-02, 2.86944048e-03,
          1.43472021e-02, 5.73888095e-03, 5.73888095e-03, 0.,
          1.00430418e-02, 1.00430418e-02, 2.86944048e-03, 1.14777619e-02,
          0., 1.43472024e-03, 1.43472024e-03, 2.86944048e-03, 0.,
          2.86944048e-03, 4.30416083e-03, 2.86944048e-03, 2.86944048e-03,
          7.17360107e-03, 8.60832166e-03, 5.73888095e-03, 5.73888095e-03,
          1.43472024e-03, 2.86944048e-03, 7.17360107e-03, 8.60832166e-03,
          7.17360107e-03, 2.86944048e-03, 2.86944048e-03, 1.29124820e-02,
          7.17360107e-03, 2.86944048e-03, 5.73888095e-03, 2.86944048e-03,
          1.00430418e-02, 1.43472024e-03, 4.30416083e-03, 4.30416083e-03,
          7.17360107e-03, 0., 0., 1.29124820e-02, 7.17360107e-03,
          4.30416083e-03, 5.73888095e-03, 5.73888095e-03, 1.43472024e-03,
          2.86944048e-03, 2.86944048e-03, 2.86944048e-03, 7.17360107e-03,
          7.17360107e-03, 5.73888095e-03, 1.00430418e-02, 5.73888095e-03,
          8.60832166e-03, 1.14777619e-02, 2.86944048e-03, 5.73888095e-03,
          1.43472024e-03, 4.30416083e-03, 8.60832166e-03, 2.86944048e-03,
          5.73888095e-03, 0., 1.43472024e-03, 2.86944048e-03,
          1.43472024e-03, 1.14777619e-02, 2.86944048e-03, 1.43472024e-03,
          4.30416083e-03, 2.86944048e-03, 4.30416083e-03, 8.60832166e-03,
          1.14777619e-02, 2.86944048e-03, 0., 1.43472021e-02,
          1.43472024e-03, 1.43472024e-03, 5.73888095e-03, 4.30416083e-03,
          7.17360107e-03, 1.00430418e-02, 2.86944048e-03, 1.43472024e-03,
          4.30416083e-03, 0., 0., 5.73888095e-03, 2.86944048e-03,
          1.43472021e-02, 2.86944048e-03, 1.57819223e-02, 1.43472024e-03,
          8.60832166e-03, 5.73888095e-03, 4.30416083e-03, 1.43472024e-03,
          1.43472024e-03, 0., 1.43472024e-03, 8.60832166e-03, 0.,
          1.43472024e-03, 1.43472024e-03, 1.43472024e-03, 2.86944048e-03,
          1.43472024e-03, 0., 4.30416083e-03, 2.86944048e-03,
          5.73888095e-03, 1.43472024e-03, 2.29555238e-02, 8.60832166e-03,
          2.86944048e-03, 2.86944048e-03, 1.14777619e-02, 1.43472024e-03,
          1.43472024e-03, 5.73888095e-03, 2.86944048e-03, 1.43472021e-02,
          1.43472024e-03, 4.30416083e-03, 4.30416083e-03, 1.14777619e-02,
          5.73888095e-03, 4.30416083e-03, 2.86944048e-03, 4.30416083e-03,
          5.73888095e-03, 7.17360107e-03, 1.43472024e-03, 4.30416083e-03,
          5.73888095e-03, 2.86944048e-03, 8.60832166e-03, 4.30416083e-03,
          5.73888095e-03, 7.17360107e-03, 5.73888095e-03, 7.17360107e-03,
          0., 4.30416083e-03, 2.86944048e-03, 5.73888095e-03,
          4.30416083e-03, 5.73888095e-03, 2.86944048e-03, 2.86944048e-03,
          1.00430418e-02, 8.60832166e-03, 4.30416083e-03, 1.43472024e-03 ]
      - [ 2.10970454e-03, 4.21940908e-03, 6.32911362e-03, 0.,
          1.05485227e-02, 1.05485227e-02, 6.32911362e-03, 6.32911362e-03,
          2.10970454e-03, 0., 0., 1.05485227e-02, 1.26582272e-02,
          8.43881816e-03, 2.10970454e-03, 6.32911362e-03, 2.74261590e-02,
          2.10970454e-03, 2.10970454e-03, 6.32911362e-03, 4.21940908e-03,
          2.10970454e-03, 6.32911362e-03, 2.10970454e-03, 2.10970454e-03,
          4.21940908e-03, 1.05485227e-02, 4.21940908e-03, 2.10970454e-03,
          4.21940908e-03, 0., 4.21940908e-03, 6.32911362e-03,
          2.10970454e-03, 0., 6.32911362e-03, 6.32911362e-03, 0.,
          6.32911362e-03, 0., 6.32911362e-03, 4.21940908e-03,
          2.10970454e-03, 4.21940908e-03, 2.10970454e-03, 4.21940908e-03,
          4.21940908e-03, 0., 6.32911362e-03, 2.10970454e-03,
          4.21940908e-03, 1.05485227e-02, 0., 2.10970454e-03,
          8.43881816e-03, 6.32911362e-03, 0., 2.10970454e-03,
          2.10970454e-03, 2.10970454e-03, 6.32911362e-03, 2.32067499e-02,
          2.10970454e-03, 1.26582272e-02, 4.21940908e-03, 2.10970454e-03,
          4.21940908e-03, 4.21940908e-03, 8.43881816e-03, 8.43881816e-03,
          1.05485227e-02, 6.32911362e-03, 6.32911362e-03, 2.10970454e-03,
          2.10970454e-03, 4.21940908e-03, 8.43881816e-03, 6.32911362e-03,
          2.10970454e-03, 1.47679318e-02, 8.43881816e-03, 1.05485227e-02,
          2.10970454e-03, 0., 6.32911362e-03, 0., 6.32911362e-03,
          8.43881816e-03, 6.32911362e-03, 1.26582272e-02, 8.43881816e-03,
          2.10970454e-03, 2.10970454e-03, 4.21940908e-03, 6.32911362e-03,
          6.32911362e-03, 6.32911362e-03, 2.10970454e-03, 8.43881816e-03,
          0., 0., 4.21940908e-03, 4.21940908e-03, 0., 8.43881816e-03,
          4.21940908e-03, 4.21940908e-03, 4.21940908e-03, 1.05485227e-02,
          1.26582272e-02, 2.10970454e-03, 4.21940908e-03, 2.95358635e-02,
          1.05485227e-02, 4.21940908e-03, 4.21940908e-03, 2.10970454e-03,
          0., 2.10970454e-03, 6.32911362e-03, 8.43881816e-03,
          8.43881816e-03, 1.47679318e-02, 0., 2.10970454e-03,
          8.43881816e-03, 6.32911362e-03, 4.21940908e-03, 4.21940908e-03,
          0., 0., 1.05485227e-02, 8.43881816e-03, 8.43881816e-03, 0., 0.,
          8.43881816e-03, 2.10970454e-03, 4.21940908e-03, 6.32911362e-03,
          1.05485227e-02, 0., 0., 0., 6.32911362e-03, 4.21940908e-03,
          2.10970454e-03, 6.32911362e-03, 6.32911362e-03, 1.05485227e-02,
          4.21940908e-03, 4.21940908e-03, 6.32911362e-03, 0.,
          4.21940908e-03, 4.21940908e-03, 1.47679318e-02, 2.10970454e-03,
          0., 2.10970454e-03, 8.43881816e-03, 1.05485227e-02,
          4.21940908e-03, 4.21940908e-03, 2.10970454e-03, 6.32911362e-03,
          0., 2.10970454e-03, 6.32911362e-03, 2.10970454e-03,
          6.32911362e-03, 4.21940908e-03, 6.32911362e-03, 2.10970454e-03,
          2.10970454e-03, 2.10970454e-03, 2.10970454e-03, 4.21940908e-03,
          2.10970454e-03, 6.32911362e-03, 2.10970454e-03, 0.,
          2.10970454e-03, 1.05485227e-02, 4.21940908e-03, 4.21940908e-03,
          8.43881816e-03, 1.68776363e-02, 0., 0., 4.21940908e-03,
          2.10970454e-03, 2.10970454e-03, 2.10970454e-03, 6.32911362e-03,
          0., 8.43881816e-03, 6.32911362e-03, 0., 2.10970454e-03 ]
      - [ 3.80952377e-03, 1.90476188e-03, 3.80952377e-03, 3.80952377e-03,
          1.14285713e-02, 9.52380896e-03, 3.80952377e-03, 1.90476188e-03,
          3.80952377e-03, 0., 7.61904754e-03, 5.71428565e-03,
          3.80952377e-03, 3.80952377e-03, 5.71428565e-03, 5.71428565e-03,
          1.90476179e-02, 7.61904754e-03, 5.71428565e-03, 1.90476188e-03,
          5.71428565e-03, 0., 1.33333337e-02, 7.61904754e-03,
          1.90476188e-03, 7.61904754e-03, 9.52380896e-03, 3.80952377e-03,
          0., 3.80952377e-03, 0., 5.71428565e-03, 3.80952377e-03,
          7.61904754e-03, 0., 0., 3.80952377e-03, 0., 5.71428565e-03,
          1.90476188e-03, 5.71428565e-03, 7.61904754e-03, 1.90476188e-03,
          1.90476188e-03, 5.71428565e-03, 1.90476188e-03, 1.90476188e-03,
          1.90476188e-03, 5.71428565e-03, 1.90476188e-03, 5.71428565e-03,
          7.61904754e-03, 0., 0., 5.71428565e-03, 5.71428565e-03, 0.,
          3.80952377e-03, 3.80952377e-03, 3.80952377e-03, 1.90476188e-03,
          2.66666673e-02, 0., 7.61904754e-03, 1.90476188e-03,
          5.71428565e-03, 0., 7.61904754e-03, 7.61904754e-03,
          3.80952377e-03, 1.14285713e-02, 3.80952377e-03, 3.80952377e-03,
          9.52380896e-03, 3.80952377e-03, 3.80952377e-03, 1.14285713e-02,
          5.71428565e-03, 3.80952377e-03, 1.52380951e-02, 1.90476188e-03,
          9.52380896e-03, 5.71428565e-03, 0., 5.71428565e-03,
          1.90476188e-03, 1.90476188e-03, 7.61904754e-03, 7.61904754e-03,
          1.14285713e-02, 3.80952377e-03, 3.80952377e-03, 1.90476188e-03,
          0., 5.71428565e-03, 1.90476188e-03, 5.71428565e-03,
          1.33333337e-02, 5.71428565e-03, 0., 0., 7.61904754e-03,
          5.71428565e-03, 0., 7.61904754e-03, 5.71428565e-03,
          9.52380896e-03, 3.80952377e-03, 9.52380896e-03, 1.90476179e-02,
          1.90476188e-03, 5.71428565e-03, 3.04761901e-02, 7.61904754e-03,
          1.90476188e-03, 7.61904754e-03, 7.61904754e-03, 1.90476188e-03,
          5.71428565e-03, 7.61904754e-03, 1.90476188e-03, 9.52380896e-03,
          1.33333337e-02, 0., 0., 9.52380896e-03, 3.80952377e-03, 0.,
          3.80952377e-03, 0., 5.71428565e-03, 1.14285713e-02,
          1.33333337e-02, 1.33333337e-02, 0., 0., 3.80952377e-03,
          1.90476188e-03, 7.61904754e-03, 1.14285713e-02, 3.80952377e-03,
          5.71428565e-03, 3.80952377e-03, 0., 3.80952377e-03,
          1.90476188e-03, 3.80952377e-03, 3.80952377e-03, 5.71428565e-03,
          9.52380896e-03, 9.52380896e-03, 3.80952377e-03, 9.52380896e-03,
          0., 7.61904754e-03, 5.71428565e-03, 5.71428565e-03,
          1.90476188e-03, 0., 1.90476188e-03, 7.61904754e-03,
          5.71428565e-03, 3.80952377e-03, 3.80952377e-03, 1.90476188e-03,
          0., 0., 1.90476188e-03, 7.61904754e-03, 1.90476188e-03,
          1.90476188e-03, 1.90476188e-03, 7.61904754e-03, 1.90476188e-03,
          1.90476188e-03, 3.80952377e-03, 5.71428565e-03, 5.71428565e-03,
          3.80952377e-03, 9.52380896e-03, 3.80952377e-03, 0.,
          3.80952377e-03, 5.71428565e-03, 1.90476188e-03, 1.90476188e-03,
          9.52380896e-03, 7.61904754e-03, 0., 0., 1.90476188e-03,
          1.90476188e-03, 1.90476188e-03, 1.14285713e-02, 9.52380896e-03,
          0., 7.61904754e-03, 7.61904754e-03, 3.80952377e-03,
          1.90476188e-03 ]
      - [ 4.11522621e-03, 2.05761311e-03, 6.17283955e-03, 2.05761311e-03,
          2.05761311e-03, 1.02880653e-02, 4.11522621e-03, 2.05761311e-03,
          4.11522621e-03, 0., 8.23045243e-03, 1.02880653e-02,
          1.02880653e-02, 6.17283955e-03, 4.11522621e-03, 8.23045243e-03,
          2.05761306e-02, 8.23045243e-03, 4.11522621e-03, 2.05761311e-03,
          8.23045243e-03, 0., 1.23456791e-02, 4.11522621e-03,
          4.11522621e-03, 1.23456791e-02, 1.02880653e-02, 6.17283955e-03,
          2.05761311e-03, 2.05761311e-03, 4.11522621e-03, 6.17283955e-03,
          4.11522621e-03, 4.11522621e-03, 0., 0., 4.11522621e-03, 0.,
          2.05761311e-03, 0., 4.11522621e-03, 8.23045243e-03, 0.,
          4.11522621e-03, 2.05761311e-03, 2.05761311e-03, 4.11522621e-03,
          0., 6.17283955e-03, 6.17283955e-03, 4.11522621e-03,
          1.02880653e-02, 6.17283955e-03, 2.05761311e-03, 6.17283955e-03,
          4.11522621e-03, 0., 4.11522621e-03, 4.11522621e-03,
          4.11522621e-03, 2.05761311e-03, 2.67489702e-02, 0.,
          6.17283955e-03, 0., 0., 0., 6.17283955e-03, 1.02880653e-02,
          4.11522621e-03, 1.02880653e-02, 6.17283955e-03, 6.17283955e-03,
          1.02880653e-02, 2.05761311e-03, 8.23045243e-03, 6.17283955e-03,
          6.17283955e-03, 2.05761311e-03, 1.44032920e-02, 4.11522621e-03,
          8.23045243e-03, 2.05761311e-03, 2.05761311e-03, 6.17283955e-03,
          0., 4.11522621e-03, 1.02880653e-02, 6.17283955e-03,
          2.05761311e-03, 6.17283955e-03, 2.05761311e-03, 1.02880653e-02,
          0., 6.17283955e-03, 2.05761311e-03, 1.02880653e-02,
          1.02880653e-02, 1.02880653e-02, 2.05761311e-03, 2.05761311e-03,
          6.17283955e-03, 2.05761311e-03, 4.11522621e-03, 1.64609049e-02,
          4.11522621e-03, 4.11522621e-03, 2.05761311e-03, 1.02880653e-02,
          1.02880653e-02, 2.05761311e-03, 2.05761311e-03, 2.46913582e-02,
          8.23045243e-03, 2.05761311e-03, 8.23045243e-03, 4.11522621e-03,
          4.11522621e-03, 8.23045243e-03, 4.11522621e-03, 2.05761311e-03,
          6.17283955e-03, 1.44032920e-02, 0., 0., 4.11522621e-03,
          2.05761311e-03, 4.11522621e-03, 0., 2.05761311e-03,
          4.11522621e-03, 1.02880653e-02, 1.23456791e-02, 1.02880653e-02,
          0., 2.05761311e-03, 6.17283955e-03, 2.05761311e-03,
          8.23045243e-03, 8.23045243e-03, 4.11522621e-03, 0., 0.,
          2.05761311e-03, 8.23045243e-03, 4.11522621e-03, 8.23045243e-03,
          6.17283955e-03, 4.11522621e-03, 8.23045243e-03, 2.05761311e-03,
          6.17283955e-03, 6.17283955e-03, 0., 6.17283955e-03,
          4.11522621e-03, 8.23045243e-03, 2.05761311e-03, 2.05761311e-03,
          4.11522621e-03, 1.23456791e-02, 1.02880653e-02, 0.,
          2.05761311e-03, 0., 4.11522621e-03, 0., 2.05761311e-03,
          2.05761311e-03, 2.05761311e-03, 0., 0., 4.11522621e-03,
          2.05761311e-03, 4.11522621e-03, 2.05761311e-03, 4.11522621e-03,
          4.11522621e-03, 6.17283955e-03, 8.23045243e-03, 4.11522621e-03,
          0., 8.23045243e-03, 1.02880653e-02, 6.17283955e-03,
          2.05761311e-03, 8.23045243e-03, 1.64609049e-02, 0.,
          2.05761311e-03, 2.05761311e-03, 4.11522621e-03, 0.,
          8.23045243e-03, 4.11522621e-03, 0., 6.17283955e-03,
          6.17283955e-03, 4.11522621e-03, 2.05761311e-03 ]
      - [ 5.30503970e-03, 0., 1.06100794e-02, 2.65251985e-03,
          5.30503970e-03, 5.30503970e-03, 2.65251985e-03, 5.30503970e-03,
          5.30503970e-03, 0., 5.30503970e-03, 7.95755908e-03,
          1.59151182e-02, 7.95755908e-03, 2.65251985e-03, 2.65251985e-03,
          1.32625997e-02, 2.65251985e-03, 2.65251985e-03, 5.30503970e-03,
          1.06100794e-02, 0., 1.32625997e-02, 1.06100794e-02, 0.,
          5.30503970e-03, 1.06100794e-02, 2.65251985e-03, 2.65251985e-03,
          5.30503970e-03, 7.95755908e-03, 2.65251985e-03, 5.30503970e-03,
          2.65251985e-03, 0., 0., 0., 2.65251985e-03, 5.30503970e-03, 0.,
          5.30503970e-03, 2.65251985e-03, 0., 1.06100794e-02,
          5.30503970e-03, 0., 2.65251985e-03, 0., 1.06100794e-02, 0.,
          7.95755908e-03, 5.30503970e-03, 7.95755908e-03, 5.30503970e-03,
          7.95755908e-03, 7.95755908e-03, 0., 0., 2.65251985e-03,
          5.30503970e-03, 2.65251985e-03, 1.06100794e-02, 2.65251985e-03,
          5.30503970e-03, 0., 7.95755908e-03, 2.65251985e-03,
          2.65251985e-03, 2.65251985e-03, 7.95755908e-03, 1.06100794e-02,
          0., 7.95755908e-03, 5.30503970e-03, 0., 5.30503970e-03,
          1.59151182e-02, 7.95755908e-03, 2.65251985e-03, 1.59151182e-02,
          2.65251985e-03, 1.06100794e-02, 7.95755908e-03, 0.,
          7.95755908e-03, 0., 5.30503970e-03, 7.95755908e-03, 0.,
          2.65251985e-03, 7.95755908e-03, 0., 5.30503970e-03,
          2.65251985e-03, 1.06100794e-02, 2.65251985e-03, 7.95755908e-03,
          7.95755908e-03, 0., 0., 5.30503970e-03, 7.95755908e-03,
          2.65251985e-03, 0., 1.06100794e-02, 2.65251985e-03,
          2.65251985e-03, 2.65251985e-03, 7.95755908e-03, 2.65251994e-02,
          2.65251985e-03, 0., 1.59151182e-02, 1.32625997e-02,
          1.32625997e-02, 5.30503970e-03, 1.32625997e-02, 5.30503970e-03,
          5.30503970e-03, 7.95755908e-03, 2.65251985e-03, 1.32625997e-02,
          3.44827585e-02, 2.65251985e-03, 0., 5.30503970e-03,
          1.06100794e-02, 2.65251985e-03, 2.65251985e-03, 0.,
          2.65251985e-03, 5.30503970e-03, 7.95755908e-03, 2.65251985e-03,
          2.65251985e-03, 0., 7.95755908e-03, 2.65251985e-03,
          1.06100794e-02, 1.59151182e-02, 5.30503970e-03, 0., 0., 0.,
          5.30503970e-03, 2.65251985e-03, 2.65251985e-03, 2.65251985e-03,
          7.95755908e-03, 1.06100794e-02, 2.65251985e-03, 5.30503970e-03,
          7.95755908e-03, 0., 7.95755908e-03, 5.30503970e-03,
          5.30503970e-03, 0., 2.65251985e-03, 2.65251985e-03,
          7.95755908e-03, 5.30503970e-03, 0., 5.30503970e-03, 0.,
          2.65251985e-03, 0., 0., 5.30503970e-03, 5.30503970e-03, 0., 0.,
          2.65251985e-03, 2.65251985e-03, 2.65251985e-03, 2.65251985e-03,
          2.65251985e-03, 5.30503970e-03, 7.95755908e-03, 1.06100794e-02,
          2.65251985e-03, 0., 7.95755908e-03, 5.30503970e-03,
          5.30503970e-03, 0., 5.30503970e-03, 1.59151182e-02, 0., 0., 0.,
          2.65251985e-03, 5.30503970e-03, 0., 7.95755908e-03, 0.,
          5.30503970e-03, 5.30503970e-03, 5.30503970e-03, 5.30503970e-03 ]
   decision_functions:
      -
         sv_count: 8
         rho: 1.4244616031646729e-03
         alpha: [ 1., 1., 1., 1., -1., -1., -1., -1. ]
         index: [ 0, 1, 2, 3, 4, 5, 6, 7 ]
      -
         sv_count: 8
         rho: -3.6984682083129883e-05
         alpha: [ 1., 1., 1., 1., -1., -1., -1., -1. ]
         index: [ 0, 1, 2, 3, 8, 9, 10, 11 ]
      -
         sv_count: 8
         rho: -7.3257088661193848e-04
         alpha: [ 1., 1., 1., 1., -1., -1., -1., -1. ]
         index: [ 0, 1, 2, 3, 12, 13, 14, 15 ]
      -
         sv_count: 8
         rho: 1.1467933654785156e-04
         alpha: [ 1., 1., 1., 1., -1., -1., -1., -1. ]
         index: [ 0, 1, 2, 3, 16, 17, 18, 19 ]
      -
         sv_count: 8
         rho: -1.2036263942718506e-03
         alpha: [ 1., 1., 1., 1., -1., -1., -1., -1. ]
         index: [ 4, 5, 6, 7, 8, 9, 10, 11 ]
      -
         sv_count: 8
         rho: -1.2110173702239990e-03
         alpha: [ 1., 1., 1., 1., -1., -1., -1., -1. ]
         index: [ 4, 5, 6, 7, 12, 13, 14, 15 ]
      -
         sv_count: 8
         rho: -1.1163949966430664e-03
         alpha: [ 1., 1., 1., 1., -1., -1., -1., -1. ]
         index: [ 4, 5, 6, 7, 16, 17, 18, 19 ]
      -
         sv_count: 8
         rho: -2.1839141845703125e-04
         alpha: [ 1., 1., 1., 1., -1., -1., -1., -1. ]
         index: [ 8, 9, 10, 11, 12, 13, 14, 15 ]
      -
         sv_count: 8
         rho: -1.9237399101257324e-04
         alpha: [ 1., 1., 1., 1., -1., -1., -1., -1. ]
         index: [ 8, 9, 10, 11, 16, 17, 18, 19 ]
      -
         sv_count: 8
         rho: 1.4377832412719727e-03
         alpha: [ 1., 1., 1., 1., -1., -1., -1., -1. ]
         index: [ 12, 13, 14, 15, 16, 17, 18, 19 ]
