%YAML:1.0
my_svm: !!opencv-ml-svm
   svm_type: C_SVC
   kernel: { type:RBF, gamma:3. }
   C: 1.
   term_criteria: { epsilon:2.2204460492503131e-16, iterations:100 }
   var_all: 200
   var_count: 200
   class_count: 5
   class_labels: !!opencv-matrix
      rows: 1
      cols: 5
      dt: i
      data: [ 0, 1, 2, 3, 4 ]
   sv_total: 56
   support_vectors:
      - [ 2.89645186e-03, 9.41346865e-03, 5.79290371e-03, 5.79290371e-03,
          0., 7.96524249e-03, 3.62056494e-03, 3.62056494e-03,
          1.44822593e-03, 2.89645186e-03, 5.06879063e-03, 8.68935511e-03,
          5.06879063e-03, 4.34467755e-03, 3.62056494e-03, 6.51701679e-03,
          1.23099200e-02, 2.89645186e-03, 5.06879063e-03, 2.89645186e-03,
          4.34467755e-03, 6.51701679e-03, 5.79290371e-03, 4.34467755e-03,
          2.17233878e-03, 9.41346865e-03, 2.17233878e-03, 4.34467755e-03,
          5.06879063e-03, 8.68935511e-03, 4.34467755e-03, 2.89645186e-03,
          7.96524249e-03, 7.24112988e-03, 7.96524249e-03, 3.62056494e-03,
          1.44822593e-03, 1.37581462e-02, 5.06879063e-03, 2.17233878e-03,
          3.62056494e-03, 5.06879063e-03, 2.17233878e-03, 3.62056494e-03,
          2.17233878e-03, 1.44822593e-03, 1.15858074e-02, 5.79290371e-03,
          2.17233878e-03, 5.06879063e-03, 1.08616948e-02, 8.68935511e-03,
          7.24112988e-03, 7.24112964e-04, 5.06879063e-03, 7.96524249e-03,
          0., 7.24112988e-03, 5.06879063e-03, 0., 2.89645186e-03,
          5.79290371e-03, 3.62056494e-03, 5.79290371e-03, 8.68935511e-03,
          3.62056494e-03, 6.51701679e-03, 5.79290371e-03, 1.44822593e-03,
          1.44822593e-03, 1.15858074e-02, 2.17233878e-03, 3.62056494e-03,
          8.68935511e-03, 2.17233878e-03, 5.79290371e-03, 2.89645186e-03,
          5.06879063e-03, 5.06879063e-03, 1.44822593e-03, 3.62056494e-03,
          7.24112964e-04, 3.62056494e-03, 2.17233878e-03, 1.01375813e-02,
          1.44822593e-03, 3.62056494e-03, 2.89645186e-03, 5.06879063e-03,
          5.06879063e-03, 3.62056494e-03, 1.37581462e-02, 5.79290371e-03,
          5.79290371e-03, 5.79290371e-03, 1.15858074e-02, 8.68935511e-03,
          9.41346865e-03, 6.51701679e-03, 3.62056494e-03, 5.06879063e-03,
          3.62056494e-03, 7.96524249e-03, 7.24112988e-03, 3.62056494e-03,
          5.06879063e-03, 7.24112988e-03, 2.89645186e-03, 4.34467755e-03,
          7.96524249e-03, 7.24112988e-03, 7.24112988e-03, 2.17233878e-03,
          7.24112988e-03, 4.34467755e-03, 1.15858074e-02, 3.62056494e-03,
          2.89645186e-03, 5.79290371e-03, 8.68935511e-03, 5.06879063e-03,
          5.06879063e-03, 6.51701679e-03, 1.01375813e-02, 2.17233878e-03,
          7.24112988e-03, 4.34467755e-03, 2.89645186e-03, 9.41346865e-03,
          7.96524249e-03, 3.62056494e-03, 7.96524249e-03, 7.24112988e-03,
          7.24112988e-03, 1.44822593e-03, 2.89645186e-03, 4.34467755e-03,
          4.34467755e-03, 5.06879063e-03, 7.24112964e-04, 4.34467755e-03,
          7.24112964e-04, 1.23099200e-02, 5.79290371e-03, 1.01375813e-02,
          2.89645186e-03, 2.89645186e-03, 2.17233878e-03, 2.89645186e-03,
          4.34467755e-03, 5.06879063e-03, 5.06879063e-03, 5.79290371e-03,
          7.24112964e-04, 7.24112988e-03, 5.79290371e-03, 5.06879063e-03,
          7.24112964e-04, 7.96524249e-03, 6.51701679e-03, 5.06879063e-03,
          4.34467755e-03, 2.17233878e-03, 5.79290371e-03, 3.62056494e-03,
          5.79290371e-03, 2.89645186e-03, 3.62056494e-03, 5.06879063e-03,
          1.44822593e-03, 5.06879063e-03, 7.24112988e-03, 2.17233878e-03,
          1.30340336e-02, 1.30340336e-02, 3.62056494e-03, 7.24112964e-04,
          2.89645186e-03, 5.06879063e-03, 5.06879063e-03, 2.17233878e-03,
          2.89645186e-03, 1.44822593e-03, 1.44822593e-03, 5.79290371e-03,
          8.68935511e-03, 5.06879063e-03, 2.17233878e-03, 7.24112964e-04,
          2.17233878e-03, 6.51701679e-03, 7.96524249e-03, 0.,
          7.24112964e-04, 7.24112964e-04, 2.89645186e-03, 1.44822593e-03,
          4.34467755e-03, 7.24112988e-03, 5.79290371e-03 ]
      - [ 4.58715623e-03, 9.17431246e-03, 6.88073412e-03, 6.11620815e-03,
          0., 9.17431246e-03, 5.35168219e-03, 3.05810408e-03,
          1.52905204e-03, 3.05810408e-03, 6.11620815e-03, 8.40978604e-03,
          6.88073412e-03, 3.05810408e-03, 3.82263004e-03, 7.64526008e-03,
          1.68195721e-02, 2.29357812e-03, 4.58715623e-03, 3.05810408e-03,
          8.40978604e-03, 7.64526008e-03, 6.11620815e-03, 5.35168219e-03,
          3.05810408e-03, 6.11620815e-03, 3.05810408e-03, 6.11620815e-03,
          3.05810408e-03, 7.64526008e-03, 3.05810408e-03, 2.29357812e-03,
          5.35168219e-03, 7.64526008e-03, 7.64526008e-03, 4.58715623e-03,
          7.64526019e-04, 3.05810408e-03, 8.40978604e-03, 4.58715623e-03,
          3.82263004e-03, 8.40978604e-03, 3.05810408e-03, 4.58715623e-03,
          2.29357812e-03, 1.52905204e-03, 1.14678899e-02, 5.35168219e-03,
          7.64526019e-04, 5.35168219e-03, 8.40978604e-03, 7.64526008e-03,
          6.88073412e-03, 0., 3.82263004e-03, 6.11620815e-03,
          7.64526019e-04, 6.88073412e-03, 5.35168219e-03, 0.,
          3.05810408e-03, 6.11620815e-03, 2.29357812e-03, 5.35168219e-03,
          8.40978604e-03, 3.05810408e-03, 5.35168219e-03, 9.17431246e-03,
          2.29357812e-03, 2.29357812e-03, 7.64526008e-03, 1.52905204e-03,
          3.82263004e-03, 1.37614682e-02, 2.29357812e-03, 3.05810408e-03,
          3.05810408e-03, 3.82263004e-03, 5.35168219e-03, 7.64526019e-04,
          6.11620815e-03, 7.64526019e-04, 3.05810408e-03, 2.29357812e-03,
          4.58715623e-03, 1.52905204e-03, 3.05810408e-03, 6.88073412e-03,
          4.58715623e-03, 5.35168219e-03, 5.35168219e-03, 1.45259947e-02,
          3.05810408e-03, 6.88073412e-03, 8.40978604e-03, 1.07033644e-02,
          8.40978604e-03, 6.11620815e-03, 6.11620815e-03, 3.82263004e-03,
          4.58715623e-03, 3.82263004e-03, 8.40978604e-03, 6.11620815e-03,
          7.64526019e-04, 5.35168219e-03, 9.17431246e-03, 3.05810408e-03,
          6.11620815e-03, 6.88073412e-03, 6.88073412e-03, 5.35168219e-03,
          4.58715623e-03, 9.17431246e-03, 4.58715623e-03, 1.22324163e-02,
          2.29357812e-03, 3.05810408e-03, 6.88073412e-03, 9.93883796e-03,
          6.88073412e-03, 3.82263004e-03, 9.17431246e-03, 9.17431246e-03,
          2.29357812e-03, 6.11620815e-03, 4.58715623e-03, 3.05810408e-03,
          6.11620815e-03, 6.88073412e-03, 7.64526019e-04, 8.40978604e-03,
          7.64526008e-03, 6.11620815e-03, 0., 3.05810408e-03,
          5.35168219e-03, 5.35168219e-03, 5.35168219e-03, 7.64526019e-04,
          3.82263004e-03, 7.64526019e-04, 1.22324163e-02, 5.35168219e-03,
          9.93883796e-03, 3.05810408e-03, 3.82263004e-03, 3.82263004e-03,
          3.05810408e-03, 3.05810408e-03, 6.11620815e-03, 5.35168219e-03,
          6.11620815e-03, 1.52905204e-03, 7.64526008e-03, 4.58715623e-03,
          5.35168219e-03, 0., 7.64526008e-03, 6.11620815e-03,
          5.35168219e-03, 3.05810408e-03, 7.64526019e-04, 6.11620815e-03,
          4.58715623e-03, 5.35168219e-03, 2.29357812e-03, 3.82263004e-03,
          5.35168219e-03, 7.64526019e-04, 5.35168219e-03, 8.40978604e-03,
          2.29357812e-03, 1.29969427e-02, 1.45259947e-02, 2.29357812e-03,
          0., 3.82263004e-03, 3.82263004e-03, 7.64526008e-03,
          2.29357812e-03, 3.82263004e-03, 2.29357812e-03, 7.64526019e-04,
          4.58715623e-03, 9.93883796e-03, 3.82263004e-03, 1.52905204e-03,
          7.64526019e-04, 4.58715623e-03, 6.11620815e-03, 4.58715623e-03,
          0., 0., 0., 2.29357812e-03, 7.64526019e-04, 7.64526008e-03,
          6.88073412e-03, 6.88073412e-03 ]
      - [ 2.95683020e-03, 7.68775819e-03, 8.27912427e-03, 4.13956214e-03,
          5.91366028e-04, 7.68775819e-03, 2.95683020e-03, 1.77409803e-03,
          2.36546411e-03, 2.36546411e-03, 9.46185645e-03, 4.13956214e-03,
          2.36546411e-03, 2.36546411e-03, 1.18273206e-03, 3.54819605e-03,
          1.12359542e-02, 4.13956214e-03, 5.91366040e-03, 4.73092822e-03,
          4.73092822e-03, 1.00532221e-02, 4.73092822e-03, 7.68775819e-03,
          1.77409803e-03, 6.50502648e-03, 0., 1.00532221e-02,
          2.95683020e-03, 7.68775819e-03, 2.36546411e-03, 5.91366028e-04,
          7.68775819e-03, 7.09639210e-03, 7.68775819e-03, 2.36546411e-03,
          3.54819605e-03, 1.36014186e-02, 1.06445886e-02, 4.13956214e-03,
          5.32229431e-03, 9.46185645e-03, 2.36546411e-03, 2.36546411e-03,
          1.77409803e-03, 2.36546411e-03, 9.46185645e-03, 5.91366040e-03,
          5.91366040e-03, 2.95683020e-03, 8.87049083e-03, 4.13956214e-03,
          6.50502648e-03, 2.95683020e-03, 2.36546411e-03, 5.91366040e-03,
          1.77409803e-03, 9.46185645e-03, 4.13956214e-03, 0.,
          4.13956214e-03, 7.09639210e-03, 3.54819605e-03, 7.09639210e-03,
          1.18273208e-02, 6.50502648e-03, 7.09639210e-03, 9.46185645e-03,
          1.18273206e-03, 4.73092822e-03, 7.09639210e-03, 2.36546411e-03,
          4.13956214e-03, 9.46185645e-03, 6.50502648e-03, 4.73092822e-03,
          5.91366028e-04, 5.91366040e-03, 1.06445886e-02, 4.13956214e-03,
          3.54819605e-03, 1.77409803e-03, 4.13956214e-03, 1.18273206e-03,
          1.47841508e-02, 1.18273206e-03, 2.95683020e-03, 2.95683020e-03,
          2.95683020e-03, 4.73092822e-03, 4.13956214e-03, 9.46185645e-03,
          1.77409803e-03, 8.87049083e-03, 3.54819605e-03, 1.30100530e-02,
          5.32229431e-03, 7.68775819e-03, 5.91366040e-03, 2.36546411e-03,
          4.73092822e-03, 2.95683020e-03, 8.87049083e-03, 6.50502648e-03,
          5.32229431e-03, 3.54819605e-03, 4.13956214e-03, 2.95683020e-03,
          4.73092822e-03, 6.50502648e-03, 2.95683020e-03, 1.77409803e-03,
          3.54819605e-03, 4.13956214e-03, 5.91366040e-03, 1.00532221e-02,
          4.13956214e-03, 1.24186864e-02, 8.27912427e-03, 4.73092822e-03,
          7.09639210e-03, 2.95683020e-03, 7.09639210e-03, 7.09639210e-03,
          5.91366028e-04, 8.87049083e-03, 3.54819605e-03, 2.36546411e-03,
          6.50502648e-03, 5.32229431e-03, 2.95683020e-03, 5.91366040e-03,
          4.73092822e-03, 4.73092822e-03, 4.13956214e-03, 5.91366040e-03,
          1.18273206e-03, 4.73092822e-03, 8.27912427e-03, 0.,
          4.13956214e-03, 5.91366028e-04, 1.12359542e-02, 3.54819605e-03,
          6.50502648e-03, 3.54819605e-03, 1.77409803e-03, 2.95683020e-03,
          1.77409803e-03, 1.06445886e-02, 2.30632760e-02, 2.95683020e-03,
          7.09639210e-03, 3.54819605e-03, 4.73092822e-03, 2.95683020e-03,
          3.54819605e-03, 0., 3.54819605e-03, 2.36546411e-03,
          6.50502648e-03, 1.77409803e-03, 1.18273206e-03, 4.13956214e-03,
          4.73092822e-03, 4.73092822e-03, 1.18273206e-03, 2.95683020e-03,
          2.95683020e-03, 3.54819605e-03, 5.91366040e-03, 8.27912427e-03,
          2.95683020e-03, 1.00532221e-02, 1.00532221e-02, 1.77409803e-03,
          1.12359542e-02, 2.95683020e-03, 4.13956214e-03, 5.91366040e-03,
          5.91366040e-03, 2.36546411e-03, 1.77409803e-03, 5.91366028e-04,
          7.68775819e-03, 1.00532221e-02, 2.36546411e-03, 2.36546411e-03,
          5.32229431e-03, 3.54819605e-03, 5.32229431e-03, 6.50502648e-03,
          5.91366028e-04, 3.54819605e-03, 5.91366028e-04, 4.73092822e-03,
          2.36546411e-03, 2.36546411e-03, 8.87049083e-03, 2.95683020e-03 ]
      - [ 5.43478271e-03, 1.22282607e-02, 1.08695654e-02, 5.43478271e-03,
          0., 6.79347850e-03, 3.39673925e-03, 2.03804346e-03,
          1.35869568e-03, 4.07608692e-03, 6.79347850e-03, 6.11413037e-03,
          5.43478271e-03, 3.39673925e-03, 6.79347850e-03, 8.83152150e-03,
          1.56250000e-02, 2.03804346e-03, 4.07608692e-03, 2.71739135e-03,
          5.43478271e-03, 1.08695654e-02, 6.79347850e-03, 6.11413037e-03,
          3.39673925e-03, 6.11413037e-03, 3.39673925e-03, 7.47282617e-03,
          4.75543505e-03, 4.75543505e-03, 6.79347839e-04, 3.39673925e-03,
          7.47282617e-03, 8.83152150e-03, 6.11413037e-03, 4.07608692e-03,
          5.43478271e-03, 4.75543505e-03, 7.47282617e-03, 3.39673925e-03,
          7.47282617e-03, 4.75543505e-03, 5.43478271e-03, 4.75543505e-03,
          0., 2.03804346e-03, 9.51087009e-03, 5.43478271e-03,
          3.39673925e-03, 4.75543505e-03, 1.49456523e-02, 6.79347850e-03,
          4.75543505e-03, 0., 5.43478271e-03, 6.11413037e-03,
          3.39673925e-03, 7.47282617e-03, 5.43478271e-03, 0.,
          2.71739135e-03, 6.79347850e-03, 2.71739135e-03, 4.07608692e-03,
          9.51087009e-03, 6.79347839e-04, 4.07608692e-03, 7.47282617e-03,
          6.79347839e-04, 3.39673925e-03, 8.15217383e-03, 1.35869568e-03,
          5.43478271e-03, 9.51087009e-03, 4.07608692e-03, 3.39673925e-03,
          4.75543505e-03, 4.07608692e-03, 9.51087009e-03, 1.35869568e-03,
          4.07608692e-03, 2.03804346e-03, 4.75543505e-03, 4.07608692e-03,
          4.75543505e-03, 1.35869568e-03, 3.39673925e-03, 4.07608692e-03,
          8.15217383e-03, 6.11413037e-03, 5.43478271e-03, 1.22282607e-02,
          4.07608692e-03, 8.83152150e-03, 6.11413037e-03, 1.08695654e-02,
          9.51087009e-03, 7.47282617e-03, 8.15217383e-03, 3.39673925e-03,
          5.43478271e-03, 4.07608692e-03, 6.79347850e-03, 8.15217383e-03,
          2.03804346e-03, 3.39673925e-03, 8.15217383e-03, 4.07608692e-03,
          2.71739135e-03, 1.01902178e-02, 4.75543505e-03, 3.39673925e-03,
          4.07608692e-03, 5.43478271e-03, 4.75543505e-03, 1.08695654e-02,
          2.03804346e-03, 4.75543505e-03, 8.15217383e-03, 4.07608692e-03,
          6.11413037e-03, 7.47282617e-03, 7.47282617e-03, 7.47282617e-03,
          2.71739135e-03, 6.79347850e-03, 8.83152150e-03, 4.07608692e-03,
          6.79347850e-03, 8.15217383e-03, 4.75543505e-03, 6.79347850e-03,
          6.79347850e-03, 5.43478271e-03, 1.35869568e-03, 3.39673925e-03,
          2.71739135e-03, 4.75543505e-03, 4.75543505e-03, 1.35869568e-03,
          2.03804346e-03, 0., 1.01902178e-02, 3.39673925e-03,
          1.22282607e-02, 2.71739135e-03, 1.35869568e-03, 4.07608692e-03,
          3.39673925e-03, 5.43478271e-03, 8.15217383e-03, 4.07608692e-03,
          7.47282617e-03, 1.35869568e-03, 6.11413037e-03, 4.07608692e-03,
          3.39673925e-03, 0., 6.11413037e-03, 5.43478271e-03,
          3.39673925e-03, 4.07608692e-03, 2.71739135e-03, 4.07608692e-03,
          3.39673925e-03, 6.79347850e-03, 1.35869568e-03, 2.03804346e-03,
          6.11413037e-03, 6.79347839e-04, 7.47282617e-03, 6.79347850e-03,
          6.79347839e-04, 1.29076093e-02, 1.15489131e-02, 4.07608692e-03,
          6.79347839e-04, 6.11413037e-03, 6.11413037e-03, 2.03804346e-03,
          6.79347839e-04, 2.71739135e-03, 0., 0., 5.43478271e-03,
          7.47282617e-03, 2.71739135e-03, 1.35869568e-03, 2.03804346e-03,
          3.39673925e-03, 6.79347850e-03, 2.03804346e-03, 2.03804346e-03,
          2.03804346e-03, 0., 4.07608692e-03, 6.79347839e-04,
          4.07608692e-03, 1.01902178e-02, 4.07608692e-03 ]
      - [ 4.42967890e-03, 7.75193796e-03, 6.09080866e-03, 7.75193796e-03,
          1.66112953e-03, 5.53709874e-03, 4.42967890e-03, 3.32225906e-03,
          2.21483945e-03, 2.76854937e-03, 7.19822804e-03, 3.32225906e-03,
          9.41306725e-03, 5.53709874e-03, 4.98338882e-03, 4.42967890e-03,
          7.19822804e-03, 2.76854937e-03, 5.53709874e-03, 2.76854937e-03,
          6.64451811e-03, 7.75193796e-03, 2.76854937e-03, 9.96677764e-03,
          2.21483945e-03, 3.87596898e-03, 1.10741972e-03, 6.09080866e-03,
          4.98338882e-03, 9.41306725e-03, 2.21483945e-03, 2.76854937e-03,
          6.09080866e-03, 7.75193796e-03, 7.19822804e-03, 4.42967890e-03,
          4.42967890e-03, 1.21816173e-02, 7.75193796e-03, 2.21483945e-03,
          4.42967890e-03, 2.76854937e-03, 1.66112953e-03, 3.87596898e-03,
          5.53709862e-04, 1.10741972e-03, 7.75193796e-03, 7.75193796e-03,
          4.42967890e-03, 4.42967890e-03, 9.96677764e-03, 6.09080866e-03,
          6.09080866e-03, 5.53709862e-04, 3.87596898e-03, 7.75193796e-03,
          3.87596898e-03, 6.09080866e-03, 7.19822804e-03, 5.53709862e-04,
          5.53709874e-03, 4.42967890e-03, 2.21483945e-03, 1.66112953e-03,
          1.16279069e-02, 1.66112953e-03, 4.98338882e-03, 8.30564834e-03,
          1.10741972e-03, 2.21483945e-03, 9.41306725e-03, 1.66112953e-03,
          4.42967890e-03, 7.19822804e-03, 5.53709874e-03, 5.53709874e-03,
          2.76854937e-03, 4.42967890e-03, 8.30564834e-03, 4.98338882e-03,
          3.87596898e-03, 2.21483945e-03, 6.64451811e-03, 3.87596898e-03,
          5.53709874e-03, 1.66112953e-03, 2.76854937e-03, 4.98338882e-03,
          4.42967890e-03, 7.19822804e-03, 3.32225906e-03, 9.41306725e-03,
          6.09080866e-03, 7.75193796e-03, 4.42967890e-03, 1.21816173e-02,
          7.19822804e-03, 9.41306725e-03, 6.64451811e-03, 4.98338882e-03,
          4.42967890e-03, 3.87596898e-03, 5.53709874e-03, 6.09080866e-03,
          2.21483945e-03, 6.09080866e-03, 4.42967890e-03, 5.53709874e-03,
          4.42967890e-03, 7.19822804e-03, 6.64451811e-03, 2.76854937e-03,
          3.32225906e-03, 3.32225906e-03, 4.42967890e-03, 6.09080866e-03,
          4.42967890e-03, 6.09080866e-03, 6.64451811e-03, 8.30564834e-03,
          8.30564834e-03, 8.30564834e-03, 7.75193796e-03, 1.21816173e-02,
          2.21483945e-03, 3.87596898e-03, 5.53709874e-03, 6.09080866e-03,
          8.85935780e-03, 9.96677764e-03, 6.09080866e-03, 4.42967890e-03,
          4.98338882e-03, 5.53709874e-03, 1.66112953e-03, 7.19822804e-03,
          4.98338882e-03, 4.98338882e-03, 7.19822804e-03, 1.10741972e-03,
          2.76854937e-03, 1.10741972e-03, 8.30564834e-03, 5.53709874e-03,
          9.41306725e-03, 3.87596898e-03, 2.21483945e-03, 2.21483945e-03,
          3.87596898e-03, 7.75193796e-03, 4.98338882e-03, 3.87596898e-03,
          7.75193796e-03, 3.32225906e-03, 7.75193796e-03, 6.09080866e-03,
          4.98338882e-03, 0., 5.53709874e-03, 4.98338882e-03,
          4.98338882e-03, 6.64451811e-03, 2.21483945e-03, 4.42967890e-03,
          3.87596898e-03, 7.75193796e-03, 2.21483945e-03, 1.66112953e-03,
          5.53709874e-03, 2.21483945e-03, 5.53709874e-03, 9.96677764e-03,
          2.21483945e-03, 8.85935780e-03, 8.85935780e-03, 2.21483945e-03,
          2.76854937e-03, 3.87596898e-03, 5.53709874e-03, 4.98338882e-03,
          2.76854937e-03, 2.76854937e-03, 1.66112953e-03, 1.10741972e-03,
          7.19822804e-03, 8.30564834e-03, 4.42967890e-03, 5.53709862e-04,
          2.21483945e-03, 1.66112953e-03, 4.42967890e-03, 7.19822804e-03,
          2.21483945e-03, 4.42967890e-03, 1.10741972e-03, 3.87596898e-03,
          5.53709862e-04, 2.21483945e-03, 4.98338882e-03, 6.09080866e-03 ]
      - [ 5.04322769e-03, 1.36887608e-02, 5.04322769e-03, 5.76368859e-03,
          7.20461074e-04, 9.36599355e-03, 2.88184430e-03, 2.88184430e-03,
          1.44092215e-03, 2.16138316e-03, 7.92507175e-03, 5.76368859e-03,
          9.36599355e-03, 4.32276633e-03, 4.32276633e-03, 6.48414949e-03,
          7.92507175e-03, 4.32276633e-03, 7.92507175e-03, 1.44092215e-03,
          4.32276633e-03, 7.20461085e-03, 5.04322769e-03, 4.32276633e-03,
          1.44092215e-03, 6.48414949e-03, 3.60230543e-03, 5.76368859e-03,
          5.76368859e-03, 2.88184430e-03, 0., 2.16138316e-03,
          8.64553265e-03, 7.20461085e-03, 5.04322769e-03, 5.76368859e-03,
          3.60230543e-03, 1.36887608e-02, 1.15273772e-02, 2.88184430e-03,
          4.32276633e-03, 3.60230543e-03, 2.88184430e-03, 4.32276633e-03,
          7.20461074e-04, 7.20461074e-04, 1.08069163e-02, 4.32276633e-03,
          9.36599355e-03, 3.60230543e-03, 1.29682990e-02, 7.92507175e-03,
          6.48414949e-03, 0., 3.60230543e-03, 5.04322769e-03,
          1.44092215e-03, 7.20461085e-03, 2.88184430e-03, 7.20461074e-04,
          4.32276633e-03, 5.04322769e-03, 2.88184430e-03, 2.88184430e-03,
          6.48414949e-03, 1.44092215e-03, 5.76368859e-03, 5.76368859e-03,
          0., 1.44092215e-03, 7.92507175e-03, 2.16138316e-03,
          5.04322769e-03, 1.00864554e-02, 4.32276633e-03, 5.76368859e-03,
          2.88184430e-03, 7.92507175e-03, 6.48414949e-03, 7.20461074e-04,
          6.48414949e-03, 7.20461074e-04, 7.20461085e-03, 2.88184430e-03,
          1.87319871e-02, 1.44092215e-03, 2.16138316e-03, 2.16138316e-03,
          6.48414949e-03, 5.76368859e-03, 4.32276633e-03, 9.36599355e-03,
          3.60230543e-03, 7.20461085e-03, 5.04322769e-03, 1.08069163e-02,
          9.36599355e-03, 9.36599355e-03, 7.92507175e-03, 3.60230543e-03,
          3.60230543e-03, 5.04322769e-03, 7.92507175e-03, 5.04322769e-03,
          4.32276633e-03, 5.76368859e-03, 6.48414949e-03, 3.60230543e-03,
          2.88184430e-03, 8.64553265e-03, 7.20461085e-03, 7.92507175e-03,
          4.32276633e-03, 4.32276633e-03, 5.04322769e-03, 8.64553265e-03,
          2.88184430e-03, 3.60230543e-03, 5.76368859e-03, 7.20461085e-03,
          2.16138316e-03, 5.04322769e-03, 3.60230543e-03, 1.08069163e-02,
          2.16138316e-03, 8.64553265e-03, 5.04322769e-03, 2.88184430e-03,
          8.64553265e-03, 6.48414949e-03, 3.60230543e-03, 5.76368859e-03,
          7.20461085e-03, 4.32276633e-03, 2.88184430e-03, 3.60230543e-03,
          2.88184430e-03, 5.76368859e-03, 4.32276633e-03, 7.20461074e-04,
          4.32276633e-03, 7.20461074e-04, 1.15273772e-02, 6.48414949e-03,
          1.29682990e-02, 2.88184430e-03, 3.60230543e-03, 2.16138316e-03,
          2.88184430e-03, 5.76368859e-03, 6.48414949e-03, 3.60230543e-03,
          1.08069163e-02, 1.44092215e-03, 6.48414949e-03, 6.48414949e-03,
          4.32276633e-03, 7.20461074e-04, 5.04322769e-03, 4.32276633e-03,
          2.88184430e-03, 4.32276633e-03, 2.88184430e-03, 5.76368859e-03,
          2.88184430e-03, 6.48414949e-03, 1.44092215e-03, 3.60230543e-03,
          6.48414949e-03, 1.44092215e-03, 5.76368859e-03, 7.92507175e-03,
          7.20461074e-04, 1.00864554e-02, 8.64553265e-03, 5.76368859e-03,
          2.16138316e-03, 5.04322769e-03, 4.32276633e-03, 6.48414949e-03,
          4.32276633e-03, 2.16138316e-03, 1.44092215e-03, 2.88184430e-03,
          3.60230543e-03, 9.36599355e-03, 6.48414949e-03, 1.44092215e-03,
          7.20461074e-04, 2.88184430e-03, 3.60230543e-03, 7.92507175e-03,
          2.16138316e-03, 2.16138316e-03, 0., 7.20461085e-03,
          7.20461074e-04, 5.04322769e-03, 4.32276633e-03, 3.60230543e-03 ]
      - [ 5.42593608e-03, 1.08518722e-02, 4.34074877e-03, 5.42593608e-03,
          5.42593596e-04, 8.68149754e-03, 4.88334242e-03, 2.71296804e-03,
          3.25556146e-03, 4.34074877e-03, 7.05371657e-03, 4.34074877e-03,
          7.05371657e-03, 3.79815511e-03, 4.34074877e-03, 4.34074877e-03,
          9.76668485e-03, 2.17037438e-03, 4.88334242e-03, 2.17037438e-03,
          2.71296804e-03, 6.51112292e-03, 5.42593608e-03, 8.13890435e-03,
          4.34074877e-03, 4.88334242e-03, 3.79815511e-03, 6.51112292e-03,
          2.71296804e-03, 5.96852973e-03, 5.42593596e-04, 2.17037438e-03,
          6.51112292e-03, 6.51112292e-03, 5.42593608e-03, 4.34074877e-03,
          1.62778073e-03, 1.13944653e-02, 7.59631023e-03, 2.17037438e-03,
          2.17037438e-03, 5.42593608e-03, 2.71296804e-03, 4.88334242e-03,
          0., 1.08518719e-03, 8.13890435e-03, 4.88334242e-03,
          4.88334242e-03, 2.17037438e-03, 1.30222458e-02, 4.34074877e-03,
          5.42593608e-03, 1.08518719e-03, 5.42593608e-03, 9.22409073e-03,
          3.25556146e-03, 7.05371657e-03, 6.51112292e-03, 5.42593596e-04,
          2.71296804e-03, 6.51112292e-03, 1.08518719e-03, 3.25556146e-03,
          9.76668485e-03, 5.42593608e-03, 4.34074877e-03, 5.96852973e-03,
          1.62778073e-03, 2.71296804e-03, 7.59631023e-03, 1.62778073e-03,
          3.79815511e-03, 9.22409073e-03, 6.51112292e-03, 4.34074877e-03,
          4.34074877e-03, 5.96852973e-03, 9.22409073e-03, 2.71296804e-03,
          5.42593608e-03, 1.08518719e-03, 5.96852973e-03, 3.79815511e-03,
          7.05371657e-03, 1.62778073e-03, 4.34074877e-03, 3.79815511e-03,
          5.42593608e-03, 8.13890435e-03, 5.42593608e-03, 8.68149754e-03,
          5.96852973e-03, 9.22409073e-03, 5.42593608e-03, 1.03092780e-02,
          7.59631023e-03, 9.76668485e-03, 7.05371657e-03, 3.25556146e-03,
          3.79815511e-03, 3.25556146e-03, 7.59631023e-03, 7.59631023e-03,
          1.62778073e-03, 6.51112292e-03, 6.51112292e-03, 5.42593608e-03,
          4.34074877e-03, 7.59631023e-03, 5.96852973e-03, 5.96852973e-03,
          5.42593608e-03, 5.96852973e-03, 2.71296804e-03, 7.59631023e-03,
          3.79815511e-03, 3.25556146e-03, 8.68149754e-03, 6.51112292e-03,
          7.05371657e-03, 5.96852973e-03, 7.05371657e-03, 1.08518722e-02,
          1.08518719e-03, 6.51112292e-03, 4.88334242e-03, 5.96852973e-03,
          8.13890435e-03, 5.42593608e-03, 4.88334242e-03, 7.59631023e-03,
          5.42593608e-03, 4.88334242e-03, 1.62778073e-03, 5.42593608e-03,
          5.42593608e-03, 5.42593608e-03, 4.34074877e-03, 1.08518719e-03,
          3.79815511e-03, 1.08518719e-03, 9.76668485e-03, 6.51112292e-03,
          9.76668485e-03, 2.17037438e-03, 2.71296804e-03, 3.25556146e-03,
          1.62778073e-03, 5.42593608e-03, 6.51112292e-03, 4.88334242e-03,
          1.03092780e-02, 2.17037438e-03, 7.05371657e-03, 4.88334242e-03,
          2.71296804e-03, 0., 5.96852973e-03, 5.42593608e-03,
          2.71296804e-03, 7.05371657e-03, 2.71296804e-03, 6.51112292e-03,
          5.42593608e-03, 7.59631023e-03, 5.42593596e-04, 2.71296804e-03,
          6.51112292e-03, 1.62778073e-03, 7.05371657e-03, 8.68149754e-03,
          1.08518719e-03, 1.08518722e-02, 1.08518722e-02, 3.79815511e-03,
          2.17037438e-03, 5.42593608e-03, 7.05371657e-03, 4.34074877e-03,
          1.62778073e-03, 4.34074877e-03, 5.42593596e-04, 1.08518719e-03,
          4.34074877e-03, 8.13890435e-03, 2.71296804e-03, 1.08518719e-03,
          2.17037438e-03, 4.34074877e-03, 3.79815511e-03, 7.05371657e-03,
          2.71296804e-03, 3.25556146e-03, 5.42593596e-04, 6.51112292e-03,
          5.42593596e-04, 3.79815511e-03, 5.42593608e-03, 5.96852973e-03 ]
      - [ 3.84369004e-03, 1.15310699e-02, 8.32799543e-03, 7.04676518e-03,
          0., 6.40614983e-03, 3.84369004e-03, 2.56246002e-03,
          1.28123001e-03, 1.92184502e-03, 5.76553494e-03, 4.48430516e-03,
          7.68738007e-03, 3.20307491e-03, 4.48430516e-03, 7.04676518e-03,
          1.34529155e-02, 3.84369004e-03, 7.04676518e-03, 1.92184502e-03,
          3.20307491e-03, 1.08904550e-02, 7.04676518e-03, 7.68738007e-03,
          3.20307491e-03, 5.12492005e-03, 3.20307491e-03, 5.12492005e-03,
          4.48430516e-03, 5.12492005e-03, 1.92184502e-03, 3.20307491e-03,
          7.04676518e-03, 8.32799543e-03, 6.40614983e-03, 5.12492005e-03,
          4.48430516e-03, 1.79372206e-02, 7.04676518e-03, 3.20307491e-03,
          5.12492005e-03, 1.92184502e-03, 4.48430516e-03, 2.56246002e-03,
          6.40615006e-04, 2.56246002e-03, 7.68738007e-03, 8.32799543e-03,
          4.48430516e-03, 5.76553494e-03, 1.34529155e-02, 4.48430516e-03,
          6.40614983e-03, 6.40615006e-04, 5.12492005e-03, 7.68738007e-03,
          1.92184502e-03, 7.04676518e-03, 7.68738007e-03, 0.,
          3.20307491e-03, 5.76553494e-03, 3.20307491e-03, 5.76553494e-03,
          8.32799543e-03, 2.56246002e-03, 4.48430516e-03, 6.40614983e-03,
          6.40615006e-04, 1.92184502e-03, 8.96861032e-03, 1.92184502e-03,
          7.04676518e-03, 8.96861032e-03, 3.84369004e-03, 3.20307491e-03,
          3.84369004e-03, 3.84369004e-03, 8.96861032e-03, 1.92184502e-03,
          5.76553494e-03, 1.92184502e-03, 4.48430516e-03, 2.56246002e-03,
          7.68738007e-03, 1.92184502e-03, 3.20307491e-03, 3.20307491e-03,
          8.32799543e-03, 6.40614983e-03, 6.40614983e-03, 1.08904550e-02,
          3.20307491e-03, 7.68738007e-03, 5.12492005e-03, 1.02498401e-02,
          9.60922521e-03, 1.02498401e-02, 6.40614983e-03, 3.84369004e-03,
          4.48430516e-03, 3.84369004e-03, 5.12492005e-03, 7.68738007e-03,
          1.28123001e-03, 4.48430516e-03, 5.12492005e-03, 2.56246002e-03,
          3.20307491e-03, 8.32799543e-03, 6.40614983e-03, 8.96861032e-03,
          2.56246002e-03, 6.40614983e-03, 4.48430516e-03, 9.60922521e-03,
          3.20307491e-03, 1.92184502e-03, 8.32799543e-03, 4.48430516e-03,
          7.04676518e-03, 5.12492005e-03, 7.04676518e-03, 7.68738007e-03,
          2.56246002e-03, 7.04676518e-03, 7.68738007e-03, 3.20307491e-03,
          8.96861032e-03, 6.40614983e-03, 4.48430516e-03, 6.40614983e-03,
          5.12492005e-03, 5.12492005e-03, 1.92184502e-03, 1.92184502e-03,
          2.56246002e-03, 4.48430516e-03, 3.84369004e-03, 1.92184502e-03,
          5.12492005e-03, 6.40615006e-04, 9.60922521e-03, 4.48430516e-03,
          1.02498401e-02, 1.92184502e-03, 1.92184502e-03, 3.84369004e-03,
          3.20307491e-03, 4.48430516e-03, 5.12492005e-03, 3.20307491e-03,
          7.68738007e-03, 1.92184502e-03, 7.04676518e-03, 5.76553494e-03,
          3.20307491e-03, 0., 5.76553494e-03, 5.76553494e-03,
          4.48430516e-03, 4.48430516e-03, 2.56246002e-03, 5.12492005e-03,
          4.48430516e-03, 5.76553494e-03, 1.28123001e-03, 1.92184502e-03,
          5.76553494e-03, 1.28123001e-03, 8.32799543e-03, 6.40614983e-03,
          1.28123001e-03, 1.21716848e-02, 1.02498401e-02, 4.48430516e-03,
          3.84369004e-03, 5.76553494e-03, 5.12492005e-03, 3.84369004e-03,
          6.40615006e-04, 1.92184502e-03, 0., 1.28123001e-03,
          4.48430516e-03, 7.68738007e-03, 3.84369004e-03, 2.56246002e-03,
          1.28123001e-03, 5.76553494e-03, 6.40614983e-03, 7.04676518e-03,
          1.28123001e-03, 2.56246002e-03, 0., 3.84369004e-03,
          6.40615006e-04, 2.56246002e-03, 1.02498401e-02, 5.76553494e-03 ]
      - [ 3.96510679e-03, 7.13719241e-03, 6.34417124e-03, 7.13719241e-03,
          7.93021405e-04, 1.03092780e-02, 4.75812843e-03, 3.96510679e-03,
          3.96510679e-03, 2.37906422e-03, 5.55115007e-03, 3.96510679e-03,
          4.75812843e-03, 7.13719241e-03, 3.17208562e-03, 5.55115007e-03,
          1.26883425e-02, 3.96510679e-03, 4.75812843e-03, 3.17208562e-03,
          2.37906422e-03, 8.72323569e-03, 4.75812843e-03, 5.55115007e-03,
          3.17208562e-03, 4.75812843e-03, 2.37906422e-03, 6.34417124e-03,
          7.93021359e-03, 7.93021359e-03, 1.58604281e-03, 1.58604281e-03,
          9.51625686e-03, 7.13719241e-03, 1.11023001e-02, 7.13719241e-03,
          3.17208562e-03, 1.74464714e-02, 9.51625686e-03, 3.17208562e-03,
          4.75812843e-03, 3.96510679e-03, 2.37906422e-03, 4.75812843e-03,
          0., 1.58604281e-03, 1.26883425e-02, 3.96510679e-03,
          5.55115007e-03, 7.93021405e-04, 1.34813637e-02, 5.55115007e-03,
          7.13719241e-03, 1.58604281e-03, 4.75812843e-03, 5.55115007e-03,
          2.37906422e-03, 3.96510679e-03, 3.96510679e-03, 0.,
          3.96510679e-03, 4.75812843e-03, 3.17208562e-03, 7.93021405e-04,
          1.03092780e-02, 7.93021405e-04, 6.34417124e-03, 6.34417124e-03,
          1.58604281e-03, 3.96510679e-03, 4.75812843e-03, 2.37906422e-03,
          4.75812843e-03, 6.34417124e-03, 3.17208562e-03, 5.55115007e-03,
          3.17208562e-03, 3.17208562e-03, 1.03092780e-02, 1.58604281e-03,
          3.96510679e-03, 1.58604281e-03, 3.96510679e-03, 3.17208562e-03,
          1.42743848e-02, 2.37906422e-03, 1.58604281e-03, 1.58604281e-03,
          3.96510679e-03, 3.17208562e-03, 3.17208562e-03, 1.26883425e-02,
          7.93021359e-03, 7.13719241e-03, 2.37906422e-03, 1.11023001e-02,
          9.51625686e-03, 6.34417124e-03, 3.96510679e-03, 3.96510679e-03,
          5.55115007e-03, 6.34417124e-03, 4.75812843e-03, 7.13719241e-03,
          7.93021405e-04, 5.55115007e-03, 3.17208562e-03, 3.17208562e-03,
          1.58604281e-03, 1.03092780e-02, 8.72323569e-03, 5.55115007e-03,
          3.96510679e-03, 6.34417124e-03, 5.55115007e-03, 7.93021359e-03,
          3.17208562e-03, 8.72323569e-03, 1.03092780e-02, 3.17208562e-03,
          4.75812843e-03, 4.75812843e-03, 9.51625686e-03, 9.51625686e-03,
          7.93021405e-04, 7.13719241e-03, 4.75812843e-03, 3.96510679e-03,
          7.13719241e-03, 6.34417124e-03, 4.75812843e-03, 4.75812843e-03,
          6.34417124e-03, 7.13719241e-03, 3.96510679e-03, 6.34417124e-03,
          7.93021405e-04, 4.75812843e-03, 8.72323569e-03, 1.58604281e-03,
          3.96510679e-03, 0., 1.11023001e-02, 4.75812843e-03,
          1.18953213e-02, 7.93021405e-04, 2.37906422e-03, 3.96510679e-03,
          3.17208562e-03, 3.96510679e-03, 1.18953213e-02, 5.55115007e-03,
          7.93021359e-03, 2.37906422e-03, 3.96510679e-03, 6.34417124e-03,
          4.75812843e-03, 0., 6.34417124e-03, 3.17208562e-03,
          3.96510679e-03, 7.93021359e-03, 3.17208562e-03, 5.55115007e-03,
          3.17208562e-03, 4.75812843e-03, 7.93021405e-04, 3.17208562e-03,
          5.55115007e-03, 7.93021405e-04, 1.58604281e-03, 6.34417124e-03,
          3.17208562e-03, 1.26883425e-02, 1.03092780e-02, 3.96510679e-03,
          1.26883425e-02, 7.13719241e-03, 5.55115007e-03, 3.17208562e-03,
          1.58604281e-03, 1.58604281e-03, 1.58604281e-03, 1.58604281e-03,
          3.96510679e-03, 5.55115007e-03, 5.55115007e-03, 7.93021405e-04,
          7.93021405e-04, 3.96510679e-03, 4.75812843e-03, 4.75812843e-03,
          7.93021405e-04, 3.17208562e-03, 1.58604281e-03, 5.55115007e-03,
          0., 0., 8.72323569e-03, 5.55115007e-03 ]
      - [ 4.47928347e-03, 8.39865673e-03, 6.71892520e-03, 5.59910433e-03,
          5.59910433e-04, 9.51847713e-03, 5.59910433e-03, 2.23964173e-03,
          2.23964173e-03, 4.47928347e-03, 7.83874653e-03, 3.91937327e-03,
          7.83874653e-03, 6.15901500e-03, 5.59910433e-03, 7.83874653e-03,
          1.11982087e-02, 2.23964173e-03, 3.91937327e-03, 2.79955217e-03,
          5.03919367e-03, 1.00783873e-02, 7.27883540e-03, 7.83874653e-03,
          3.91937327e-03, 4.47928347e-03, 3.35946260e-03, 6.71892520e-03,
          1.11982087e-03, 5.03919367e-03, 5.59910433e-04, 1.67973130e-03,
          6.71892520e-03, 6.71892520e-03, 6.15901500e-03, 4.47928347e-03,
          1.67973130e-03, 3.35946260e-03, 7.83874653e-03, 3.91937327e-03,
          2.79955217e-03, 4.47928347e-03, 2.23964173e-03, 3.91937327e-03,
          0., 1.11982087e-03, 8.39865673e-03, 5.03919367e-03,
          4.47928347e-03, 2.23964173e-03, 1.17581189e-02, 3.91937327e-03,
          6.71892520e-03, 5.59910433e-04, 5.59910433e-03, 9.51847713e-03,
          4.47928347e-03, 7.27883540e-03, 8.39865673e-03, 5.59910433e-04,
          2.79955217e-03, 6.71892520e-03, 2.23964173e-03, 3.91937327e-03,
          8.95856693e-03, 2.23964173e-03, 5.59910433e-03, 5.03919367e-03,
          3.35946260e-03, 1.67973130e-03, 1.06382985e-02, 5.59910433e-04,
          3.35946260e-03, 8.39865673e-03, 4.47928347e-03, 3.35946260e-03,
          2.79955217e-03, 6.71892520e-03, 9.51847713e-03, 1.67973130e-03,
          3.91937327e-03, 2.23964173e-03, 5.59910433e-03, 3.91937327e-03,
          2.79955217e-03, 2.23964173e-03, 4.47928347e-03, 4.47928347e-03,
          5.59910433e-03, 7.27883540e-03, 6.15901500e-03, 7.83874653e-03,
          6.15901500e-03, 7.27883540e-03, 2.23964173e-03, 9.51847713e-03,
          7.83874653e-03, 1.06382985e-02, 5.59910433e-03, 5.03919367e-03,
          3.91937327e-03, 3.91937327e-03, 6.71892520e-03, 7.27883540e-03,
          1.67973130e-03, 6.15901500e-03, 5.03919367e-03, 5.03919367e-03,
          5.59910433e-03, 7.83874653e-03, 5.03919367e-03, 2.23964173e-03,
          6.71892520e-03, 5.59910433e-03, 2.23964173e-03, 6.15901500e-03,
          1.11982087e-03, 5.03919367e-03, 8.39865673e-03, 3.91937327e-03,
          1.00783873e-02, 8.95856693e-03, 7.27883540e-03, 1.11982087e-02,
          1.67973130e-03, 5.59910433e-03, 5.59910433e-03, 6.71892520e-03,
          8.95856693e-03, 6.71892520e-03, 3.35946260e-03, 7.83874653e-03,
          4.47928347e-03, 3.35946260e-03, 1.11982087e-03, 5.03919367e-03,
          6.15901500e-03, 6.15901500e-03, 3.91937327e-03, 1.11982087e-03,
          3.91937327e-03, 0., 1.00783873e-02, 6.71892520e-03,
          1.11982087e-02, 3.91937327e-03, 2.23964173e-03, 4.47928347e-03,
          1.67973130e-03, 6.15901500e-03, 4.47928347e-03, 6.15901500e-03,
          1.00783873e-02, 3.35946260e-03, 6.15901500e-03, 5.59910433e-03,
          3.35946260e-03, 0., 6.15901500e-03, 5.03919367e-03,
          1.67973130e-03, 5.59910433e-03, 2.23964173e-03, 7.83874653e-03,
          4.47928347e-03, 8.39865673e-03, 1.11982087e-03, 3.35946260e-03,
          6.71892520e-03, 2.23964173e-03, 3.91937327e-03, 9.51847713e-03,
          1.67973130e-03, 1.17581189e-02, 1.11982087e-02, 2.79955217e-03,
          5.59910433e-04, 5.59910433e-03, 5.59910433e-03, 6.71892520e-03,
          1.67973130e-03, 3.35946260e-03, 1.67973130e-03, 5.59910433e-04,
          6.15901500e-03, 8.95856693e-03, 4.47928347e-03, 1.11982087e-03,
          2.79955217e-03, 4.47928347e-03, 3.91937327e-03, 4.47928347e-03,
          2.79955217e-03, 1.67973130e-03, 0., 7.83874653e-03,
          5.59910433e-04, 3.35946260e-03, 9.51847713e-03, 6.15901500e-03 ]
      - [ 3.68098170e-03, 1.04294475e-02, 6.13496918e-03, 5.52147254e-03,
          0., 9.81595088e-03, 4.90797544e-03, 5.52147254e-03,
          1.22699386e-03, 3.06748459e-03, 6.74846629e-03, 3.68098170e-03,
          6.13496918e-03, 4.29447833e-03, 3.68098170e-03, 5.52147254e-03,
          1.16564417e-02, 4.90797544e-03, 4.90797544e-03, 4.90797544e-03,
          4.90797544e-03, 6.13496918e-03, 4.90797544e-03, 5.52147254e-03,
          1.84049085e-03, 4.29447833e-03, 2.45398772e-03, 5.52147254e-03,
          1.84049085e-03, 4.29447833e-03, 0., 1.84049085e-03,
          5.52147254e-03, 6.13496918e-03, 4.29447833e-03, 4.90797544e-03,
          2.45398772e-03, 1.41104292e-02, 5.52147254e-03, 3.68098170e-03,
          3.68098170e-03, 3.68098170e-03, 3.68098170e-03, 4.29447833e-03,
          6.13496930e-04, 1.84049085e-03, 8.58895667e-03, 7.36196339e-03,
          4.90797544e-03, 3.06748459e-03, 1.10429451e-02, 4.90797544e-03,
          6.74846629e-03, 6.13496930e-04, 3.68098170e-03, 7.97546003e-03,
          1.84049085e-03, 6.74846629e-03, 3.68098170e-03, 6.13496930e-04,
          3.68098170e-03, 8.58895667e-03, 1.84049085e-03, 3.68098170e-03,
          8.58895667e-03, 2.45398772e-03, 4.90797544e-03, 7.36196339e-03,
          6.13496930e-04, 1.84049085e-03, 9.20245424e-03, 1.84049085e-03,
          6.13496918e-03, 9.20245424e-03, 4.90797544e-03, 4.90797544e-03,
          2.45398772e-03, 6.13496918e-03, 9.20245424e-03, 2.45398772e-03,
          6.13496918e-03, 1.22699386e-03, 3.68098170e-03, 1.84049085e-03,
          9.20245424e-03, 2.45398772e-03, 3.06748459e-03, 3.68098170e-03,
          6.13496918e-03, 5.52147254e-03, 3.06748459e-03, 8.58895667e-03,
          3.68098170e-03, 8.58895667e-03, 4.90797544e-03, 9.81595088e-03,
          8.58895667e-03, 7.97546003e-03, 9.81595088e-03, 5.52147254e-03,
          3.68098170e-03, 4.29447833e-03, 9.81595088e-03, 8.58895667e-03,
          1.84049085e-03, 4.29447833e-03, 6.74846629e-03, 7.36196339e-03,
          4.29447833e-03, 7.36196339e-03, 6.74846629e-03, 6.13496918e-03,
          3.68098170e-03, 4.90797544e-03, 3.68098170e-03, 7.97546003e-03,
          3.68098170e-03, 3.06748459e-03, 6.13496918e-03, 6.13496918e-03,
          4.90797544e-03, 6.13496918e-03, 7.97546003e-03, 9.20245424e-03,
          3.68098170e-03, 7.97546003e-03, 4.90797544e-03, 6.13496918e-03,
          7.36196339e-03, 9.20245424e-03, 4.90797544e-03, 6.13496918e-03,
          6.13496918e-03, 4.29447833e-03, 1.22699386e-03, 6.13496918e-03,
          4.90797544e-03, 4.90797544e-03, 4.90797544e-03, 1.22699386e-03,
          4.29447833e-03, 0., 1.10429451e-02, 4.90797544e-03,
          9.81595088e-03, 3.68098170e-03, 2.45398772e-03, 4.29447833e-03,
          3.06748459e-03, 6.74846629e-03, 6.13496918e-03, 6.13496918e-03,
          6.13496918e-03, 2.45398772e-03, 6.13496918e-03, 4.29447833e-03,
          4.90797544e-03, 6.13496930e-04, 6.13496918e-03, 3.06748459e-03,
          3.68098170e-03, 9.20245424e-03, 3.68098170e-03, 6.74846629e-03,
          5.52147254e-03, 7.97546003e-03, 1.22699386e-03, 1.84049085e-03,
          8.58895667e-03, 0., 7.97546003e-03, 8.58895667e-03,
          1.22699386e-03, 1.16564417e-02, 1.16564417e-02, 3.68098170e-03,
          3.06748459e-03, 6.13496918e-03, 3.68098170e-03, 5.52147254e-03,
          1.84049085e-03, 1.84049085e-03, 1.84049085e-03, 6.13496930e-04,
          4.90797544e-03, 7.97546003e-03, 3.68098170e-03, 1.84049085e-03,
          1.22699386e-03, 7.36196339e-03, 3.68098170e-03, 7.97546003e-03,
          2.45398772e-03, 2.45398772e-03, 1.22699386e-03, 3.68098170e-03,
          6.13496930e-04, 3.68098170e-03, 4.29447833e-03, 6.13496918e-03 ]
      - [ 9.79431905e-04, 9.79431905e-03, 2.93829571e-03, 1.95886381e-03,
          9.79431905e-04, 4.89715952e-03, 7.83545524e-03, 9.79431905e-03,
          5.87659143e-03, 9.79431905e-04, 3.91772762e-03, 9.79431905e-04,
          2.93829571e-03, 6.85602333e-03, 3.91772762e-03, 3.91772762e-03,
          9.79431905e-04, 1.95886381e-03, 4.89715952e-03, 9.79431905e-04,
          6.85602333e-03, 0., 9.79431905e-04, 5.87659143e-03,
          2.93829571e-03, 9.79431905e-04, 1.95886381e-03, 6.85602333e-03,
          3.91772762e-03, 3.91772762e-03, 5.87659143e-03, 7.83545524e-03,
          5.87659143e-03, 0., 2.93829571e-03, 1.95886381e-03, 0.,
          2.93829571e-03, 4.89715952e-03, 1.95886381e-03, 1.95886381e-03,
          5.87659143e-03, 1.95886381e-03, 1.95886381e-03, 9.79431905e-03,
          1.56709105e-02, 0., 8.81488714e-03, 0., 2.15475019e-02,
          9.79431905e-04, 1.95886381e-03, 2.93829571e-03, 6.85602333e-03,
          0., 2.93829571e-03, 9.79431905e-04, 3.91772762e-03,
          4.89715952e-03, 1.86092071e-02, 9.79431905e-03, 4.89715952e-03,
          4.89715952e-03, 5.87659143e-03, 9.79431905e-04, 6.85602333e-03,
          1.95886381e-03, 3.91772762e-03, 2.44857967e-02, 9.79431905e-04,
          8.81488714e-03, 4.89715952e-03, 3.91772762e-03, 3.91772762e-03,
          4.89715952e-03, 6.85602333e-03, 1.27326148e-02, 4.89715952e-03,
          2.93829571e-03, 1.95886381e-03, 3.91772762e-03, 9.79431905e-04,
          1.95886381e-03, 1.95886381e-03, 2.93829571e-02, 1.07737510e-02,
          0., 2.93829571e-03, 8.81488714e-03, 4.89715952e-03,
          2.93829571e-03, 1.95886381e-03, 5.87659143e-03, 3.91772762e-03,
          3.91772762e-03, 0., 9.79431905e-04, 2.93829571e-03,
          8.81488714e-03, 6.85602333e-03, 0., 0., 1.17531829e-02,
          1.95886381e-03, 1.17531829e-02, 4.89715952e-03, 1.95886381e-03,
          9.79431905e-04, 5.87659143e-03, 9.79431905e-04, 6.85602333e-03,
          6.85602333e-03, 5.87659143e-03, 5.87659143e-03, 8.81488714e-03,
          1.17531829e-02, 9.79431905e-04, 7.83545524e-03, 2.93829571e-03,
          2.93829571e-03, 3.91772762e-03, 1.95886381e-03, 1.95886381e-03,
          9.79431905e-04, 1.27326148e-02, 2.93829571e-03, 4.89715952e-03,
          2.93829571e-03, 9.79431905e-04, 9.79431905e-04, 1.27326148e-02,
          7.83545524e-03, 6.85602333e-03, 2.93829571e-03, 2.93829571e-03,
          6.85602333e-03, 4.89715952e-03, 2.93829571e-03, 4.89715952e-03,
          1.95886381e-03, 1.95886381e-03, 2.93829571e-03, 9.79431905e-04,
          1.95886381e-03, 3.91772762e-03, 4.89715952e-03, 3.91772762e-03,
          1.17531829e-02, 1.95886381e-02, 8.81488714e-03, 5.87659143e-03,
          6.85602333e-03, 6.85602333e-03, 9.79431905e-04, 6.85602333e-03,
          5.87659143e-03, 4.89715952e-03, 1.27326148e-02, 0.,
          2.93829571e-03, 2.93829571e-03, 0., 4.89715952e-03,
          6.85602333e-03, 4.89715952e-03, 0., 6.85602333e-03,
          1.95886381e-03, 4.89715952e-03, 3.91772762e-03, 9.79431905e-04,
          5.87659143e-03, 6.85602333e-03, 0., 2.93829571e-03,
          4.89715952e-03, 9.79431905e-04, 2.93829571e-03, 6.85602333e-03,
          1.37120467e-02, 1.37120467e-02, 2.93829571e-03, 0.,
          1.95886381e-03, 2.93829571e-03, 0., 2.93829571e-03,
          9.79431905e-03, 3.91772762e-03, 4.89715952e-03, 7.83545524e-03,
          8.81488714e-03, 2.93829571e-02, 9.79431905e-04, 6.85602333e-03,
          9.79431905e-04, 1.56709105e-02, 5.87659143e-03, 4.89715952e-03,
          5.87659143e-03 ]
      - [ 8.05152988e-04, 5.63607085e-03, 8.05152988e-04, 1.61030598e-03,
          0., 1.61030598e-03, 3.22061195e-03, 7.24637695e-03,
          5.63607085e-03, 3.22061195e-03, 4.83091781e-03, 0.,
          8.05152988e-04, 4.02576476e-03, 4.02576476e-03, 2.41545890e-03,
          8.05152988e-04, 2.41545890e-03, 4.83091781e-03, 1.61030598e-03,
          8.85668304e-03, 8.05152988e-04, 2.41545890e-03, 8.05152953e-03,
          4.83091781e-03, 2.41545890e-03, 3.22061195e-03, 4.02576476e-03,
          2.41545890e-03, 7.24637695e-03, 1.61030598e-03, 5.63607085e-03,
          6.44122390e-03, 0., 3.22061195e-03, 4.83091781e-03,
          8.05152988e-04, 4.02576476e-03, 5.63607085e-03, 6.44122390e-03,
          4.02576476e-03, 4.02576476e-03, 3.22061195e-03, 8.05152953e-03,
          9.66183562e-03, 1.12721417e-02, 0., 1.28824478e-02,
          1.61030598e-03, 2.49597430e-02, 2.41545890e-03, 3.22061195e-03,
          8.05152988e-04, 4.83091781e-03, 1.61030598e-03, 2.41545890e-03,
          3.22061195e-03, 3.22061195e-03, 9.66183562e-03, 1.12721417e-02,
          7.24637695e-03, 4.02576476e-03, 8.85668304e-03, 6.44122390e-03,
          2.41545890e-03, 4.83091781e-03, 2.41545890e-03, 5.63607085e-03,
          2.17391308e-02, 8.05152988e-04, 9.66183562e-03, 7.24637695e-03,
          6.44122390e-03, 5.63607085e-03, 8.05152988e-04, 5.63607085e-03,
          1.12721417e-02, 3.22061195e-03, 4.83091781e-03, 3.22061195e-03,
          5.63607085e-03, 1.61030598e-03, 0., 2.41545890e-03,
          2.57648956e-02, 6.44122390e-03, 1.61030598e-03, 1.61030598e-03,
          7.24637695e-03, 4.83091781e-03, 3.22061195e-03, 1.61030598e-03,
          3.22061195e-03, 4.02576476e-03, 3.22061195e-03, 0.,
          8.05152988e-04, 3.22061195e-03, 4.83091781e-03, 4.83091781e-03,
          1.61030598e-03, 2.41545890e-03, 1.28824478e-02, 3.22061195e-03,
          7.24637695e-03, 3.22061195e-03, 8.05152988e-04, 1.61030598e-03,
          1.04669891e-02, 1.61030598e-03, 2.41545890e-03, 5.63607085e-03,
          4.02576476e-03, 9.66183562e-03, 6.44122390e-03, 1.28824478e-02,
          8.05152988e-04, 1.12721417e-02, 4.02576476e-03, 3.22061195e-03,
          5.63607085e-03, 0., 2.41545890e-03, 1.61030598e-03,
          1.69082135e-02, 1.61030598e-03, 8.85668304e-03, 3.22061195e-03,
          4.02576476e-03, 1.61030598e-03, 1.04669891e-02, 9.66183562e-03,
          4.02576476e-03, 2.41545890e-03, 8.05152988e-04, 4.02576476e-03,
          6.44122390e-03, 0., 8.85668304e-03, 3.22061195e-03, 0.,
          2.41545890e-03, 0., 8.05152988e-04, 1.61030598e-03,
          6.44122390e-03, 3.22061195e-03, 8.05152953e-03, 1.69082135e-02,
          9.66183562e-03, 5.63607085e-03, 5.63607085e-03, 6.44122390e-03,
          8.05152988e-04, 4.83091781e-03, 4.02576476e-03, 4.02576476e-03,
          1.12721417e-02, 8.05152988e-04, 8.05152988e-04, 3.22061195e-03,
          0., 8.85668304e-03, 5.63607085e-03, 4.02576476e-03, 0.,
          6.44122390e-03, 1.61030598e-03, 4.02576476e-03, 2.41545890e-03,
          8.05152988e-04, 2.41545890e-03, 8.85668304e-03, 2.41545890e-03,
          5.63607085e-03, 8.85668304e-03, 8.05152988e-04, 4.83091781e-03,
          8.05152953e-03, 2.17391308e-02, 1.20772952e-02, 2.41545890e-03,
          0., 1.61030598e-03, 8.05152988e-04, 8.05152988e-04,
          1.61030598e-03, 8.85668304e-03, 3.22061195e-03, 2.41545890e-03,
          1.61030591e-02, 7.24637695e-03, 4.10628021e-02, 3.22061195e-03,
          6.44122390e-03, 8.05152988e-04, 1.04669891e-02, 3.22061195e-03,
          4.83091781e-03, 8.05152953e-03 ]
      - [ 1.88679248e-03, 0., 0., 3.77358496e-03, 0., 1.88679248e-03,
          7.54716992e-03, 9.43396240e-03, 9.43396240e-03, 1.88679248e-03,
          7.54716992e-03, 1.88679248e-03, 1.88679248e-03, 5.66037744e-03,
          1.88679248e-03, 9.43396240e-03, 0., 5.66037744e-03,
          5.66037744e-03, 7.54716992e-03, 1.13207549e-02, 1.88679248e-03,
          5.66037744e-03, 3.77358496e-03, 1.13207549e-02, 3.77358496e-03,
          3.77358496e-03, 5.66037744e-03, 0., 5.66037744e-03, 0.,
          7.54716992e-03, 1.88679248e-03, 0., 0., 1.88679248e-03, 0.,
          9.43396240e-03, 5.66037744e-03, 1.88679248e-03, 3.77358496e-03,
          5.66037744e-03, 5.66037744e-03, 1.13207549e-02, 1.13207549e-02,
          7.54716992e-03, 0., 9.43396240e-03, 0., 5.66037744e-03,
          3.77358496e-03, 1.88679248e-03, 3.77358496e-03, 9.43396240e-03,
          1.88679248e-03, 1.88679248e-03, 5.66037744e-03, 7.54716992e-03,
          5.66037744e-03, 1.88679248e-02, 5.66037744e-03, 7.54716992e-03,
          1.88679248e-03, 9.43396240e-03, 1.88679248e-03, 3.77358496e-03,
          1.88679248e-03, 5.66037744e-03, 1.88679248e-03, 0.,
          1.50943398e-02, 3.77358496e-03, 3.77358496e-03, 1.88679248e-03,
          1.88679248e-03, 7.54716992e-03, 1.13207549e-02, 1.88679248e-03,
          0., 3.77358496e-03, 3.77358496e-03, 0., 1.88679248e-03,
          5.66037744e-03, 3.58490571e-02, 3.77358496e-03, 1.88679248e-03,
          1.88679248e-03, 7.54716992e-03, 3.77358496e-03, 0.,
          1.88679248e-03, 3.77358496e-03, 7.54716992e-03, 0., 0., 0.,
          3.77358496e-03, 5.66037744e-03, 1.88679248e-03, 0., 0.,
          9.43396240e-03, 5.66037744e-03, 1.50943398e-02, 1.13207549e-02,
          1.88679248e-03, 0., 5.66037744e-03, 1.88679248e-03,
          5.66037744e-03, 1.13207549e-02, 7.54716992e-03, 7.54716992e-03,
          7.54716992e-03, 9.43396240e-03, 1.88679248e-03, 1.13207549e-02,
          5.66037744e-03, 3.77358496e-03, 7.54716992e-03, 7.54716992e-03,
          0., 1.88679248e-03, 7.54716992e-03, 1.88679248e-03,
          5.66037744e-03, 5.66037744e-03, 3.77358496e-03, 1.88679248e-03,
          5.66037744e-03, 1.88679248e-03, 7.54716992e-03, 1.88679248e-03,
          5.66037744e-03, 3.77358496e-03, 5.66037744e-03, 1.88679248e-03,
          1.32075474e-02, 1.88679248e-03, 1.88679248e-03, 7.54716992e-03,
          0., 1.88679248e-03, 0., 3.77358496e-03, 1.13207549e-02,
          1.32075474e-02, 1.50943398e-02, 7.54716992e-03, 3.77358496e-03,
          5.66037744e-03, 7.54716992e-03, 0., 3.77358496e-03,
          5.66037744e-03, 3.77358496e-03, 3.77358496e-03, 1.88679248e-03,
          1.88679248e-03, 7.54716992e-03, 0., 1.69811323e-02,
          1.32075474e-02, 5.66037744e-03, 1.88679248e-03, 5.66037744e-03,
          1.88679248e-03, 1.13207549e-02, 3.77358496e-03, 0.,
          9.43396240e-03, 5.66037744e-03, 1.88679248e-03, 5.66037744e-03,
          1.50943398e-02, 1.88679248e-03, 5.66037744e-03, 1.13207549e-02,
          3.77358496e-03, 5.66037744e-03, 1.88679248e-03, 0.,
          3.77358496e-03, 0., 0., 1.88679248e-03, 7.54716992e-03,
          1.88679248e-03, 5.66037744e-03, 1.88679248e-03, 9.43396240e-03,
          1.88679248e-03, 9.43396240e-03, 1.13207549e-02, 1.88679248e-03,
          9.43396240e-03, 9.43396240e-03, 5.66037744e-03, 1.88679248e-03 ]
      - [ 0., 4.01875423e-03, 2.67916941e-03, 3.34896171e-03, 0.,
          4.68854653e-03, 2.67916941e-03, 6.02813112e-03, 1.00468853e-02,
          1.33958471e-03, 9.37709305e-03, 1.33958471e-03, 6.69792353e-04,
          0., 6.69792353e-04, 2.00937712e-03, 6.69792353e-04,
          2.67916941e-03, 7.36771571e-03, 6.02813112e-03, 3.34896171e-03,
          6.69792341e-03, 2.00937712e-03, 9.37709305e-03, 3.34896171e-03,
          2.00937712e-03, 0., 6.02813112e-03, 4.01875423e-03,
          9.37709305e-03, 2.67916941e-03, 6.69792341e-03, 2.67916941e-03,
          0., 6.02813112e-03, 6.02813112e-03, 1.33958471e-03,
          1.94239784e-02, 2.00937712e-03, 4.68854653e-03, 4.01875423e-03,
          2.67916941e-03, 2.67916941e-03, 7.36771571e-03, 7.36771571e-03,
          1.27260545e-02, 0., 7.36771571e-03, 7.36771571e-03,
          1.60750169e-02, 3.34896171e-03, 3.34896171e-03, 0.,
          4.01875423e-03, 4.01875423e-03, 2.67916941e-03, 2.00937712e-03,
          4.01875423e-03, 1.47354314e-02, 1.20562622e-02, 2.67916941e-03,
          6.69792341e-03, 2.67916941e-03, 1.33958471e-03, 4.01875423e-03,
          1.13864699e-02, 1.33958471e-03, 9.37709305e-03, 1.67448092e-02,
          7.36771571e-03, 6.02813112e-03, 4.68854653e-03, 6.02813112e-03,
          2.67916941e-03, 1.47354314e-02, 9.37709305e-03, 9.37709305e-03,
          4.68854653e-03, 5.35833882e-03, 8.70730076e-03, 2.67916941e-03,
          0., 2.00937712e-03, 6.69792353e-04, 2.61219013e-02,
          1.33958468e-02, 1.33958471e-03, 6.69792353e-04, 5.35833882e-03,
          2.67916941e-03, 6.69792353e-04, 6.69792353e-04, 2.00937712e-03,
          3.34896171e-03, 4.68854653e-03, 2.67916941e-03, 4.01875423e-03,
          3.34896171e-03, 4.68854653e-03, 3.34896171e-03, 0.,
          1.33958471e-03, 6.02813112e-03, 3.34896171e-03, 1.00468853e-02,
          4.68854653e-03, 0., 0., 8.70730076e-03, 1.33958471e-03,
          4.01875423e-03, 4.01875423e-03, 2.67916941e-03, 6.69792341e-03,
          6.69792341e-03, 1.60750169e-02, 1.07166776e-02, 1.00468853e-02,
          1.33958471e-03, 3.34896171e-03, 6.69792353e-04, 1.33958471e-03,
          4.01875423e-03, 0., 1.00468853e-02, 1.33958471e-03,
          4.68854653e-03, 7.36771571e-03, 5.35833882e-03, 6.02813112e-03,
          7.36771571e-03, 6.02813112e-03, 2.00937712e-03, 2.67916941e-03,
          1.33958471e-03, 4.68854653e-03, 3.34896171e-03, 1.33958471e-03,
          6.02813112e-03, 1.33958471e-03, 1.33958471e-03, 4.01875423e-03,
          6.69792353e-04, 1.33958471e-03, 6.69792353e-04, 1.33958468e-02,
          6.69792353e-04, 1.33958468e-02, 1.87541861e-02, 1.00468853e-02,
          3.14802416e-02, 5.35833882e-03, 2.00937712e-03, 6.69792353e-04,
          2.67916941e-03, 2.67916941e-03, 5.35833882e-03, 1.00468853e-02,
          2.00937712e-03, 0., 5.35833882e-03, 1.33958471e-03,
          2.67916941e-03, 4.68854653e-03, 4.01875423e-03, 0.,
          5.35833882e-03, 0., 1.07166776e-02, 5.35833882e-03,
          1.07166776e-02, 2.67916941e-03, 3.34896171e-03, 1.33958471e-03,
          6.02813112e-03, 3.34896171e-03, 1.47354314e-02, 2.00937712e-03,
          6.69792341e-03, 1.13864699e-02, 5.35833882e-03, 0., 0.,
          2.67916941e-03, 3.34896171e-03, 3.34896171e-03, 2.00937712e-03,
          6.02813112e-03, 2.67916941e-03, 1.33958471e-03, 1.33958468e-02,
          9.37709305e-03, 1.74146015e-02, 2.00937712e-03, 4.01875423e-03,
          3.34896171e-03, 8.70730076e-03, 1.33958471e-03, 4.01875423e-03,
          2.00937712e-03 ]
      - [ 1.57977885e-03, 1.57977885e-03, 0., 1.57977885e-03, 0.,
          4.73933667e-03, 7.89889414e-03, 3.15955770e-03, 6.31911540e-03,
          1.57977885e-03, 7.89889414e-03, 1.57977885e-03, 1.57977885e-03,
          3.15955770e-03, 4.73933667e-03, 4.73933667e-03, 3.15955770e-03,
          1.57977885e-03, 4.73933667e-03, 0., 2.05371249e-02,
          1.57977885e-03, 4.73933667e-03, 9.47867334e-03, 9.47867334e-03,
          3.15955770e-03, 3.15955770e-03, 9.47867334e-03, 3.15955770e-03,
          9.47867334e-03, 4.73933667e-03, 6.31911540e-03, 1.57977885e-03,
          0., 1.57977885e-03, 1.57977885e-03, 1.57977885e-03,
          6.31911540e-03, 7.89889414e-03, 3.15955770e-03, 3.15955770e-03,
          3.15955770e-03, 3.15955770e-03, 4.73933667e-03, 9.47867334e-03,
          4.73933667e-03, 0., 1.26382308e-02, 1.57977885e-03,
          1.10584516e-02, 1.57977885e-03, 1.57977885e-03, 4.73933667e-03,
          1.26382308e-02, 3.15955770e-03, 3.15955770e-03, 3.15955770e-03,
          4.73933667e-03, 1.57977885e-03, 1.26382308e-02, 1.10584516e-02,
          6.31911540e-03, 3.15955770e-03, 7.89889414e-03, 1.57977885e-03,
          9.47867334e-03, 1.57977885e-03, 3.15955770e-03, 1.10584516e-02,
          3.15955770e-03, 7.89889414e-03, 4.73933667e-03, 9.47867334e-03,
          6.31911540e-03, 1.57977885e-03, 4.73933667e-03, 6.31911540e-03,
          3.15955770e-03, 4.73933667e-03, 9.47867334e-03, 3.15955770e-03,
          0., 1.57977885e-03, 4.73933667e-03, 3.31753567e-02,
          6.31911540e-03, 1.57977885e-03, 4.73933667e-03, 4.73933667e-03,
          3.15955770e-03, 4.73933667e-03, 3.15955770e-03, 3.15955770e-03,
          4.73933667e-03, 3.15955770e-03, 1.57977885e-03, 0.,
          3.15955770e-03, 9.47867334e-03, 4.73933667e-03, 1.57977885e-03,
          1.57977885e-03, 7.89889414e-03, 7.89889414e-03, 1.26382308e-02,
          7.89889414e-03, 0., 1.57977885e-03, 4.73933667e-03,
          1.57977885e-03, 7.89889414e-03, 9.47867334e-03, 0.,
          1.10584516e-02, 9.47867334e-03, 9.47867334e-03, 0.,
          1.73775665e-02, 1.57977885e-03, 1.57977885e-03, 6.31911540e-03,
          1.57977885e-03, 1.57977885e-03, 1.57977885e-03, 9.47867334e-03,
          3.15955770e-03, 7.89889414e-03, 4.73933667e-03, 1.57977885e-03,
          1.57977885e-03, 9.47867334e-03, 9.47867334e-03, 6.31911540e-03,
          4.73933667e-03, 4.73933667e-03, 4.73933667e-03, 1.26382308e-02,
          0., 9.47867334e-03, 3.15955770e-03, 0., 1.57977885e-03,
          3.15955770e-03, 3.15955770e-03, 4.73933667e-03, 1.57977885e-03,
          7.89889414e-03, 1.10584516e-02, 1.26382308e-02, 3.15955770e-03,
          4.73933667e-03, 3.15955770e-03, 1.10584516e-02, 0.,
          4.73933667e-03, 9.47867334e-03, 1.57977885e-03, 6.31911540e-03,
          0., 3.15955770e-03, 6.31911540e-03, 0., 7.89889414e-03,
          1.26382308e-02, 4.73933667e-03, 0., 1.57977885e-03,
          1.57977885e-03, 9.47867334e-03, 3.15955770e-03, 0.,
          4.73933667e-03, 7.89889414e-03, 1.57977885e-03, 1.57977885e-03,
          9.47867334e-03, 1.57977885e-03, 7.89889414e-03, 1.26382308e-02,
          3.15955770e-03, 7.89889414e-03, 1.57977885e-03, 1.57977885e-03,
          1.57977885e-03, 0., 0., 3.15955770e-03, 9.47867334e-03,
          1.57977885e-03, 7.89889414e-03, 4.73933667e-03, 7.89889414e-03,
          6.31911540e-03, 3.15955770e-03, 1.57977883e-02, 1.57977885e-03,
          1.10584516e-02, 4.73933667e-03, 4.73933667e-03, 3.15955770e-03 ]
      - [ 1.20192312e-03, 8.41346197e-03, 2.40384624e-03, 4.80769249e-03,
          0., 3.60576948e-03, 3.60576948e-03, 1.08173080e-02,
          8.41346197e-03, 1.20192312e-03, 4.80769249e-03, 1.20192312e-03,
          0., 7.21153896e-03, 2.40384624e-03, 1.20192312e-03, 0.,
          1.44230779e-02, 3.60576948e-03, 1.20192312e-03, 8.41346197e-03,
          2.40384624e-03, 6.00961549e-03, 6.00961549e-03, 9.61538497e-03,
          2.40384624e-03, 1.20192312e-03, 6.00961549e-03, 2.40384624e-03,
          4.80769249e-03, 4.80769249e-03, 4.80769249e-03, 2.40384624e-03,
          0., 0., 1.20192312e-03, 0., 4.80769249e-03, 7.21153896e-03,
          6.00961549e-03, 2.40384624e-03, 2.40384624e-03, 2.40384624e-03,
          2.40384624e-03, 6.00961549e-03, 1.08173080e-02, 0.,
          1.20192310e-02, 1.20192312e-03, 7.21153896e-03, 2.40384624e-03,
          3.60576948e-03, 0., 4.80769249e-03, 1.20192312e-03,
          1.20192312e-03, 4.80769249e-03, 4.80769249e-03, 1.20192312e-03,
          1.56250000e-02, 1.08173080e-02, 7.21153896e-03, 1.80288460e-02,
          6.00961549e-03, 2.40384624e-03, 4.80769249e-03, 4.80769249e-03,
          3.60576948e-03, 2.52403859e-02, 2.28365399e-02, 7.21153896e-03,
          6.00961549e-03, 4.80769249e-03, 2.40384624e-03, 4.80769249e-03,
          6.00961549e-03, 8.41346197e-03, 1.20192312e-03, 1.20192312e-03,
          4.80769249e-03, 2.40384624e-03, 1.20192312e-03, 1.20192312e-03,
          2.40384624e-03, 3.24519239e-02, 8.41346197e-03, 1.20192312e-03,
          0., 9.61538497e-03, 4.80769249e-03, 1.20192312e-03,
          1.20192312e-03, 6.00961549e-03, 7.21153896e-03, 1.20192312e-03,
          1.20192312e-03, 0., 3.60576948e-03, 2.40384624e-03,
          8.41346197e-03, 0., 0., 9.61538497e-03, 6.00961549e-03,
          9.61538497e-03, 3.60576948e-03, 0., 1.20192312e-03,
          6.00961549e-03, 1.20192312e-03, 6.00961549e-03, 6.00961549e-03,
          6.00961549e-03, 8.41346197e-03, 7.21153896e-03, 1.68269239e-02,
          0., 8.41346197e-03, 2.40384624e-03, 2.40384624e-03,
          1.20192312e-03, 2.40384624e-03, 2.40384624e-03, 2.40384624e-03,
          7.21153896e-03, 2.40384624e-03, 8.41346197e-03, 1.20192312e-03,
          2.40384624e-03, 3.60576948e-03, 1.92307699e-02, 8.41346197e-03,
          2.40384624e-03, 3.60576948e-03, 3.60576948e-03, 6.00961549e-03,
          1.08173080e-02, 0., 7.21153896e-03, 0., 0., 4.80769249e-03, 0.,
          1.20192312e-03, 2.40384624e-03, 3.60576948e-03, 4.80769249e-03,
          7.21153896e-03, 1.80288460e-02, 8.41346197e-03, 3.60576948e-03,
          4.80769249e-03, 8.41346197e-03, 0., 3.60576948e-03,
          3.60576948e-03, 1.20192312e-03, 1.20192310e-02, 1.20192312e-03,
          1.20192312e-03, 2.40384624e-03, 0., 4.80769249e-03,
          6.00961549e-03, 4.80769249e-03, 0., 8.41346197e-03,
          3.60576948e-03, 3.60576948e-03, 6.00961549e-03, 2.40384624e-03,
          8.41346197e-03, 6.00961549e-03, 1.20192312e-03, 3.60576948e-03,
          9.61538497e-03, 2.52403859e-02, 2.40384624e-03, 1.08173080e-02,
          4.80769249e-03, 8.41346197e-03, 0., 1.20192312e-03,
          2.40384624e-03, 1.20192312e-03, 0., 6.00961549e-03,
          8.41346197e-03, 7.21153896e-03, 4.80769249e-03, 3.60576948e-03,
          8.41346197e-03, 9.61538497e-03, 7.21153896e-03, 1.20192310e-02,
          1.20192312e-03, 1.20192310e-02, 4.80769249e-03, 3.60576948e-03,
          1.20192312e-03 ]
      - [ 8.04505253e-04, 7.24054733e-03, 1.60901051e-03, 4.02252609e-03,
          0., 3.21802101e-03, 4.02252609e-03, 5.63153671e-03,
          7.24054733e-03, 2.41351570e-03, 5.63153671e-03, 1.60901051e-03,
          2.41351570e-03, 1.60901051e-03, 3.21802101e-03, 2.41351570e-03,
          1.60901051e-03, 1.60901051e-03, 6.43604202e-03, 8.04505253e-04,
          4.82703140e-03, 1.60901051e-03, 1.60901051e-03, 7.24054733e-03,
          7.24054733e-03, 3.21802101e-03, 8.04505253e-04, 4.82703140e-03,
          4.02252609e-03, 8.84955749e-03, 3.21802101e-03, 4.82703140e-03,
          4.82703140e-03, 0., 2.41351570e-03, 5.63153671e-03, 0.,
          3.21802101e-03, 5.63153671e-03, 5.63153671e-03, 4.02252609e-03,
          3.21802101e-03, 3.21802101e-03, 1.04585681e-02, 8.84955749e-03,
          1.20675787e-02, 0., 9.65406280e-03, 2.41351570e-03,
          2.49396637e-02, 2.41351570e-03, 2.41351570e-03, 8.04505253e-04,
          1.60901051e-03, 3.21802101e-03, 2.41351570e-03, 2.41351570e-03,
          4.82703140e-03, 1.04585681e-02, 1.12630734e-02, 8.04505218e-03,
          5.63153671e-03, 1.04585681e-02, 4.82703140e-03, 2.41351570e-03,
          4.02252609e-03, 1.60901051e-03, 7.24054733e-03, 2.25261468e-02,
          8.04505253e-04, 8.84955749e-03, 6.43604202e-03, 4.82703140e-03,
          3.21802101e-03, 1.60901051e-03, 4.82703140e-03, 1.28720840e-02,
          1.60901051e-03, 5.63153671e-03, 3.21802101e-03, 6.43604202e-03,
          2.41351570e-03, 2.41351570e-03, 1.60901051e-03, 7.24054733e-03,
          7.24054733e-03, 8.04505253e-04, 8.04505253e-04, 8.04505218e-03,
          4.82703140e-03, 2.41351570e-03, 3.21802101e-03, 1.60901051e-03,
          4.82703140e-03, 8.04505218e-03, 8.04505253e-04, 8.04505253e-04,
          4.02252609e-03, 5.63153671e-03, 7.24054733e-03, 2.41351570e-03,
          4.02252609e-03, 8.84955749e-03, 3.21802101e-03, 9.65406280e-03,
          4.82703140e-03, 8.04505253e-04, 1.60901051e-03, 7.24054733e-03,
          1.60901051e-03, 1.60901051e-03, 4.02252609e-03, 1.60901051e-03,
          4.82703140e-03, 9.65406280e-03, 1.44810947e-02, 2.41351570e-03,
          1.52856000e-02, 4.02252609e-03, 2.41351570e-03, 4.82703140e-03,
          8.04505253e-04, 1.60901051e-03, 2.41351570e-03, 1.68946106e-02,
          8.04505253e-04, 8.84955749e-03, 4.82703140e-03, 2.41351570e-03,
          3.21802101e-03, 9.65406280e-03, 9.65406280e-03, 4.82703140e-03,
          2.41351570e-03, 1.60901051e-03, 4.82703140e-03, 7.24054733e-03,
          8.04505253e-04, 3.21802101e-03, 2.41351570e-03, 0.,
          2.41351570e-03, 0., 8.04505253e-04, 1.60901051e-03,
          7.24054733e-03, 3.21802101e-03, 8.84955749e-03, 1.60901044e-02,
          8.84955749e-03, 4.02252609e-03, 5.63153671e-03, 8.84955749e-03,
          8.04505253e-04, 7.24054733e-03, 4.02252609e-03, 4.82703140e-03,
          1.04585681e-02, 1.60901051e-03, 8.04505253e-04, 3.21802101e-03,
          0., 4.82703140e-03, 7.24054733e-03, 5.63153671e-03, 0.,
          5.63153671e-03, 8.04505253e-04, 6.43604202e-03, 4.02252609e-03,
          0., 4.02252609e-03, 8.04505218e-03, 2.41351570e-03,
          4.82703140e-03, 6.43604202e-03, 8.04505253e-04, 2.41351570e-03,
          8.04505218e-03, 2.09171362e-02, 1.28720840e-02, 4.82703140e-03,
          0., 4.82703140e-03, 2.41351570e-03, 0., 4.02252609e-03,
          8.84955749e-03, 4.02252609e-03, 2.41351570e-03, 1.52856000e-02,
          8.84955749e-03, 4.42477874e-02, 2.41351570e-03, 2.41351570e-03,
          8.04505253e-04, 1.12630734e-02, 3.21802101e-03, 6.43604202e-03,
          4.82703140e-03 ]
      - [ 1.01832999e-03, 1.01832999e-02, 3.05498997e-03, 2.03665998e-03,
          0., 5.09164995e-03, 8.14663991e-03, 1.01832999e-02,
          9.16497037e-03, 3.05498997e-03, 5.09164995e-03, 2.03665998e-03,
          4.07331996e-03, 3.05498997e-03, 4.07331996e-03, 2.03665998e-03,
          2.03665998e-03, 2.03665998e-03, 6.10997993e-03, 1.01832999e-03,
          7.12830992e-03, 1.01832999e-03, 1.01832999e-03, 6.10997993e-03,
          7.12830992e-03, 2.03665998e-03, 2.03665998e-03, 8.14663991e-03,
          3.05498997e-03, 3.05498997e-03, 6.10997993e-03, 5.09164995e-03,
          3.05498997e-03, 0., 3.05498997e-03, 4.07331996e-03,
          1.01832999e-03, 1.01832999e-03, 4.07331996e-03, 3.05498997e-03,
          3.05498997e-03, 4.07331996e-03, 3.05498997e-03, 3.05498997e-03,
          9.16497037e-03, 1.73116103e-02, 0., 1.01832999e-02,
          1.01832999e-03, 2.03665998e-02, 2.03665998e-03, 2.03665998e-03,
          4.07331996e-03, 1.01832999e-03, 5.09164995e-03, 2.03665998e-03,
          2.03665998e-03, 2.03665998e-03, 4.07331996e-03, 2.13849302e-02,
          8.14663991e-03, 5.09164995e-03, 4.07331996e-03, 6.10997993e-03,
          1.01832999e-03, 7.12830992e-03, 3.05498997e-03, 5.09164995e-03,
          2.85132397e-02, 0., 1.01832999e-02, 5.09164995e-03,
          5.09164995e-03, 4.07331996e-03, 3.05498997e-03, 7.12830992e-03,
          1.73116103e-02, 2.03665998e-03, 5.09164995e-03, 2.03665998e-03,
          3.05498997e-03, 2.03665998e-03, 2.03665998e-03, 3.05498997e-03,
          1.01832999e-02, 9.16497037e-03, 0., 3.05498997e-03,
          1.01832999e-02, 6.10997993e-03, 2.03665998e-03, 3.05498997e-03,
          4.07331996e-03, 6.10997993e-03, 5.09164995e-03, 0.,
          2.03665998e-03, 2.03665998e-03, 5.09164995e-03, 9.16497037e-03,
          0., 1.01832999e-03, 1.32382903e-02, 2.03665998e-03,
          1.01832999e-02, 8.14663991e-03, 1.01832999e-03, 2.03665998e-03,
          5.09164995e-03, 1.01832999e-03, 5.09164995e-03, 4.07331996e-03,
          4.07331996e-03, 5.09164995e-03, 9.16497037e-03, 1.22199599e-02,
          0., 1.22199599e-02, 3.05498997e-03, 1.01832999e-03,
          3.05498997e-03, 2.03665998e-03, 3.05498997e-03, 1.01832999e-03,
          1.32382903e-02, 2.03665998e-03, 6.10997993e-03, 4.07331996e-03,
          2.03665998e-03, 1.01832999e-03, 1.32382903e-02, 1.01832999e-02,
          6.10997993e-03, 2.03665998e-03, 2.03665998e-03, 5.09164995e-03,
          5.09164995e-03, 1.01832999e-03, 5.09164995e-03, 1.01832999e-03,
          1.01832999e-03, 2.03665998e-03, 1.01832999e-03, 3.05498997e-03,
          3.05498997e-03, 6.10997993e-03, 4.07331996e-03, 1.32382903e-02,
          2.24032588e-02, 8.14663991e-03, 6.10997993e-03, 6.10997993e-03,
          7.12830992e-03, 1.01832999e-03, 1.01832999e-02, 2.03665998e-03,
          4.07331996e-03, 1.01832999e-02, 0., 1.01832999e-03,
          3.05498997e-03, 0., 8.14663991e-03, 9.16497037e-03,
          4.07331996e-03, 0., 4.07331996e-03, 2.03665998e-03,
          7.12830992e-03, 4.07331996e-03, 2.03665998e-03, 7.12830992e-03,
          8.14663991e-03, 0., 1.01832999e-03, 5.09164995e-03,
          1.01832999e-03, 4.07331996e-03, 9.16497037e-03, 1.52749494e-02,
          1.32382903e-02, 0., 0., 2.03665998e-03, 2.03665998e-03, 0.,
          3.05498997e-03, 9.16497037e-03, 5.09164995e-03, 4.07331996e-03,
          1.01832999e-02, 1.01832999e-02, 2.03665998e-02, 2.03665998e-03,
          2.03665998e-03, 1.01832999e-03, 1.42566198e-02, 5.09164995e-03,
          7.12830992e-03, 5.09164995e-03 ]
      - [ 1.21065381e-03, 4.84261522e-03, 0., 2.42130761e-03, 0.,
          6.05326891e-03, 9.68523044e-03, 4.84261522e-03, 1.08958846e-02,
          1.21065381e-03, 3.63196153e-03, 3.63196153e-03, 4.84261522e-03,
          2.42130761e-03, 2.42130761e-03, 3.63196153e-03, 2.42130761e-03,
          1.21065381e-03, 2.42130761e-03, 3.63196153e-03, 8.47457629e-03,
          3.63196153e-03, 1.21065381e-03, 7.26392306e-03, 4.84261522e-03,
          2.42130761e-03, 1.21065381e-03, 3.63196153e-03, 6.05326891e-03,
          3.63196153e-03, 1.21065381e-03, 4.84261522e-03, 7.26392306e-03,
          0., 3.63196153e-03, 4.84261522e-03, 0., 2.42130761e-03,
          6.05326891e-03, 8.47457629e-03, 3.63196153e-03, 3.63196153e-03,
          3.63196153e-03, 6.05326891e-03, 1.45278461e-02, 1.33171920e-02,
          0., 9.68523044e-03, 1.21065381e-03, 8.47457629e-03,
          2.42130761e-03, 1.21065381e-03, 1.21065381e-03, 4.84261522e-03,
          3.63196153e-03, 4.84261522e-03, 4.84261522e-03, 4.84261522e-03,
          1.21065381e-03, 1.93704609e-02, 8.47457629e-03, 1.08958846e-02,
          1.08958846e-02, 8.47457629e-03, 1.21065381e-03, 3.63196153e-03,
          3.63196153e-03, 4.84261522e-03, 1.93704609e-02, 1.21065381e-03,
          1.21065378e-02, 2.42130761e-03, 7.26392306e-03, 3.63196153e-03,
          9.68523044e-03, 3.63196153e-03, 1.45278461e-02, 6.05326891e-03,
          4.84261522e-03, 2.42130761e-03, 4.84261522e-03, 0., 0.,
          4.84261522e-03, 1.08958846e-02, 9.68523044e-03, 2.42130761e-03,
          1.21065381e-03, 8.47457629e-03, 6.05326891e-03, 1.21065381e-03,
          3.63196153e-03, 4.84261522e-03, 4.84261522e-03, 2.42130761e-03,
          0., 0., 1.21065381e-03, 6.05326891e-03, 7.26392306e-03,
          3.63196153e-03, 0., 1.08958846e-02, 4.84261522e-03,
          1.21065378e-02, 6.05326891e-03, 0., 3.63196153e-03,
          7.26392306e-03, 1.21065381e-03, 2.42130761e-03, 4.84261522e-03,
          3.63196153e-03, 3.63196153e-03, 8.47457629e-03, 1.33171920e-02,
          3.63196153e-03, 2.42130756e-02, 3.63196153e-03, 3.63196153e-03,
          3.63196153e-03, 0., 1.21065381e-03, 0., 1.08958846e-02,
          2.42130761e-03, 6.05326891e-03, 4.84261522e-03, 2.42130761e-03,
          3.63196153e-03, 1.08958846e-02, 8.47457629e-03, 6.05326891e-03,
          3.63196153e-03, 1.21065381e-03, 3.63196153e-03, 9.68523044e-03,
          0., 3.63196153e-03, 3.63196153e-03, 1.21065381e-03,
          6.05326891e-03, 0., 3.63196153e-03, 1.21065381e-03,
          9.68523044e-03, 4.84261522e-03, 1.57385003e-02, 1.57385003e-02,
          7.26392306e-03, 4.84261522e-03, 8.47457629e-03, 4.84261522e-03,
          1.21065381e-03, 8.47457629e-03, 7.26392306e-03, 2.42130761e-03,
          2.05811150e-02, 2.42130761e-03, 2.42130761e-03, 2.42130761e-03,
          0., 7.26392306e-03, 1.33171920e-02, 1.21065381e-03,
          1.21065381e-03, 3.63196153e-03, 2.42130761e-03, 6.05326891e-03,
          2.42130761e-03, 0., 6.05326891e-03, 6.05326891e-03, 0.,
          3.63196153e-03, 9.68523044e-03, 0., 2.42130761e-03,
          8.47457629e-03, 3.63196153e-03, 1.33171920e-02, 1.21065381e-03,
          0., 2.42130761e-03, 1.21065381e-03, 0., 2.42130761e-03,
          7.26392306e-03, 4.84261522e-03, 4.84261522e-03, 4.84261522e-03,
          1.08958846e-02, 8.47457629e-03, 0., 6.05326891e-03,
          2.42130761e-03, 1.33171920e-02, 3.63196153e-03, 4.84261522e-03,
          8.47457629e-03 ]
      - [ 1.31406041e-03, 2.62812083e-03, 1.31406041e-03, 5.25624165e-03,
          0., 2.62812083e-03, 6.57030195e-03, 3.94218136e-03,
          9.19842254e-03, 1.31406041e-03, 1.31406039e-02, 1.31406041e-03,
          0., 2.62812083e-03, 0., 2.62812083e-03, 3.94218136e-03,
          5.25624165e-03, 2.62812083e-03, 2.62812083e-03, 1.18265441e-02,
          0., 0., 5.25624165e-03, 5.25624165e-03, 1.31406041e-03,
          1.31406041e-03, 5.25624165e-03, 3.94218136e-03, 5.25624165e-03,
          1.31406041e-03, 5.25624165e-03, 1.31406041e-03, 0., 0.,
          5.25624165e-03, 0., 5.25624165e-03, 6.57030195e-03,
          3.94218136e-03, 1.31406041e-03, 3.94218136e-03, 7.88436271e-03,
          1.31406041e-03, 1.05124833e-02, 6.57030195e-03, 0.,
          7.88436271e-03, 5.25624165e-03, 9.19842254e-03, 2.62812083e-03,
          2.62812083e-03, 0., 9.19842254e-03, 3.94218136e-03,
          6.57030195e-03, 5.25624165e-03, 2.62812083e-03, 0.,
          1.18265441e-02, 9.19842254e-03, 5.25624165e-03, 1.31406039e-02,
          5.25624165e-03, 2.62812083e-03, 5.25624165e-03, 5.25624165e-03,
          5.25624165e-03, 2.75952686e-02, 1.31406041e-03, 9.19842254e-03,
          9.19842254e-03, 6.57030195e-03, 6.57030195e-03, 5.25624165e-03,
          5.25624165e-03, 1.18265441e-02, 2.62812083e-03, 5.25624165e-03,
          3.94218136e-03, 3.94218136e-03, 2.62812083e-03, 1.31406041e-03,
          5.25624165e-03, 2.62812078e-02, 9.19842254e-03, 1.31406041e-03,
          0., 6.57030195e-03, 5.25624165e-03, 3.94218136e-03,
          1.31406041e-03, 2.62812083e-03, 5.25624165e-03, 3.94218136e-03,
          0., 0., 3.94218136e-03, 5.25624165e-03, 7.88436271e-03,
          2.62812083e-03, 2.62812083e-03, 7.88436271e-03, 1.31406041e-03,
          1.05124833e-02, 1.31406039e-02, 0., 3.94218136e-03,
          5.25624165e-03, 1.31406041e-03, 6.57030195e-03, 9.19842254e-03,
          1.31406041e-03, 5.25624165e-03, 9.19842254e-03, 1.44546647e-02,
          1.31406041e-03, 9.19842254e-03, 1.31406041e-03, 2.62812083e-03,
          3.94218136e-03, 2.62812083e-03, 1.31406041e-03, 1.31406041e-03,
          1.57687254e-02, 2.62812083e-03, 6.57030195e-03, 5.25624165e-03,
          5.25624165e-03, 2.62812083e-03, 1.57687254e-02, 9.19842254e-03,
          3.94218136e-03, 3.94218136e-03, 5.25624165e-03, 7.88436271e-03,
          1.05124833e-02, 0., 5.25624165e-03, 1.31406041e-03, 0.,
          2.62812083e-03, 1.31406041e-03, 2.62812083e-03, 2.62812083e-03,
          5.25624165e-03, 3.94218136e-03, 9.19842254e-03, 1.05124833e-02,
          1.05124833e-02, 6.57030195e-03, 5.25624165e-03, 6.57030195e-03,
          1.31406041e-03, 5.25624165e-03, 5.25624165e-03, 3.94218136e-03,
          5.25624165e-03, 0., 1.31406041e-03, 5.25624165e-03, 0.,
          1.05124833e-02, 9.19842254e-03, 3.94218136e-03, 2.62812083e-03,
          3.94218136e-03, 1.31406041e-03, 7.88436271e-03, 3.94218136e-03,
          2.62812083e-03, 5.25624165e-03, 9.19842254e-03, 1.31406041e-03,
          2.62812083e-03, 5.25624165e-03, 2.62812083e-03, 3.94218136e-03,
          9.19842254e-03, 7.88436271e-03, 1.05124833e-02, 0., 0.,
          6.57030195e-03, 1.31406041e-03, 0., 6.57030195e-03,
          1.05124833e-02, 2.62812083e-03, 5.25624165e-03, 7.88436271e-03,
          7.88436271e-03, 1.97109058e-02, 3.94218136e-03, 9.19842254e-03,
          1.31406041e-03, 7.88436271e-03, 2.62812083e-03, 7.88436271e-03,
          3.94218136e-03 ]
      - [ 3.23101785e-03, 6.46203570e-03, 0., 1.61550893e-03, 0.,
          6.46203570e-03, 9.69305355e-03, 3.23101785e-03, 6.46203570e-03,
          4.84652678e-03, 6.46203570e-03, 3.23101785e-03, 1.61550893e-03,
          1.61550893e-03, 3.23101785e-03, 4.84652678e-03, 3.23101785e-03,
          6.46203570e-03, 4.84652678e-03, 0., 1.77705977e-02, 0.,
          4.84652678e-03, 6.46203570e-03, 8.07754509e-03, 3.23101785e-03,
          4.84652678e-03, 1.13085620e-02, 3.23101785e-03, 1.13085620e-02,
          1.61550893e-03, 6.46203570e-03, 3.23101785e-03, 0.,
          1.61550893e-03, 1.61550893e-03, 0., 3.23101785e-03,
          9.69305355e-03, 3.23101785e-03, 4.84652678e-03, 1.61550893e-03,
          1.61550893e-03, 9.69305355e-03, 1.45395808e-02, 6.46203570e-03,
          0., 1.13085620e-02, 3.23101785e-03, 8.07754509e-03,
          1.61550893e-03, 0., 3.23101785e-03, 1.61550893e-03,
          6.46203570e-03, 3.23101785e-03, 4.84652678e-03, 3.23101785e-03,
          0., 1.45395808e-02, 1.13085620e-02, 8.07754509e-03,
          3.23101785e-03, 8.07754509e-03, 1.61550893e-03, 4.84652678e-03,
          3.23101785e-03, 4.84652678e-03, 9.69305355e-03, 0.,
          4.84652678e-03, 3.23101785e-03, 8.07754509e-03, 3.23101785e-03,
          0., 3.23101785e-03, 6.46203570e-03, 3.23101785e-03,
          3.23101785e-03, 9.69305355e-03, 3.23101785e-03, 1.61550893e-03,
          1.61550893e-03, 3.23101785e-03, 9.69305355e-03, 1.13085620e-02,
          1.61550893e-03, 4.84652678e-03, 3.23101785e-03, 3.23101785e-03,
          4.84652678e-03, 4.84652678e-03, 0., 3.23101785e-03,
          4.84652678e-03, 1.61550893e-03, 0., 3.23101785e-03,
          8.07754509e-03, 4.84652678e-03, 3.23101785e-03, 1.61550893e-03,
          1.13085620e-02, 4.84652678e-03, 1.29240714e-02, 4.84652678e-03,
          1.61550893e-03, 1.61550893e-03, 3.23101785e-03, 1.61550893e-03,
          9.69305355e-03, 6.46203570e-03, 0., 1.29240714e-02,
          1.13085620e-02, 1.61550902e-02, 1.61550893e-03, 2.90791616e-02,
          3.23101785e-03, 1.61550893e-03, 6.46203570e-03, 1.61550893e-03,
          1.61550893e-03, 1.61550893e-03, 3.23101785e-03, 4.84652678e-03,
          6.46203570e-03, 4.84652678e-03, 0., 1.61550893e-03,
          1.29240714e-02, 6.46203570e-03, 1.13085620e-02, 4.84652678e-03,
          1.61550893e-03, 6.46203570e-03, 9.69305355e-03, 1.61550893e-03,
          1.61550893e-03, 1.61550893e-03, 0., 6.46203570e-03,
          3.23101785e-03, 1.61550893e-03, 3.23101785e-03, 3.23101785e-03,
          6.46203570e-03, 1.29240714e-02, 9.69305355e-03, 4.84652678e-03,
          1.93861071e-02, 0., 1.29240714e-02, 0., 6.46203570e-03,
          1.13085620e-02, 4.84652678e-03, 6.46203570e-03, 0.,
          3.23101785e-03, 6.46203570e-03, 0., 9.69305355e-03,
          1.29240714e-02, 3.23101785e-03, 0., 3.23101785e-03,
          1.61550893e-03, 8.07754509e-03, 6.46203570e-03, 1.61550893e-03,
          6.46203570e-03, 9.69305355e-03, 1.61550893e-03, 1.61550893e-03,
          6.46203570e-03, 1.61550893e-03, 3.23101785e-03, 1.13085620e-02,
          3.23101785e-03, 9.69305355e-03, 1.61550893e-03, 0.,
          3.23101785e-03, 0., 1.61550893e-03, 3.23101785e-03,
          9.69305355e-03, 6.46203570e-03, 4.84652678e-03, 3.23101785e-03,
          9.69305355e-03, 8.07754509e-03, 1.61550893e-03, 4.84652678e-03,
          1.61550893e-03, 9.69305355e-03, 8.07754509e-03, 6.46203570e-03,
          3.23101785e-03 ]
      - [ 0., 7.67543865e-03, 0., 4.38596494e-03, 0., 0., 6.57894742e-03,
          6.57894742e-03, 1.09649124e-02, 0., 1.31578948e-02,
          1.09649124e-03, 1.09649124e-03, 3.28947371e-03, 3.28947371e-03,
          1.09649124e-03, 3.28947371e-03, 6.57894742e-03, 3.28947371e-03,
          3.28947371e-03, 9.86842066e-03, 1.09649124e-03, 2.19298247e-03,
          3.28947371e-03, 7.67543865e-03, 1.09649124e-03, 2.19298247e-03,
          9.86842066e-03, 5.48245618e-03, 4.38596494e-03, 3.28947371e-03,
          7.67543865e-03, 4.38596494e-03, 0., 3.28947371e-03,
          3.28947371e-03, 1.09649124e-03, 4.38596494e-03, 6.57894742e-03,
          4.38596494e-03, 2.19298247e-03, 3.28947371e-03, 4.38596494e-03,
          3.28947371e-03, 8.77192989e-03, 1.31578948e-02, 0.,
          8.77192989e-03, 0., 1.20614041e-02, 3.28947371e-03,
          4.38596494e-03, 0., 6.57894742e-03, 2.19298247e-03,
          4.38596494e-03, 2.19298247e-03, 3.28947371e-03, 2.19298247e-03,
          1.97368413e-02, 9.86842066e-03, 1.09649124e-02, 8.77192989e-03,
          6.57894742e-03, 0., 5.48245618e-03, 3.28947371e-03,
          5.48245618e-03, 1.86403506e-02, 0., 8.77192989e-03,
          6.57894742e-03, 3.28947371e-03, 5.48245618e-03, 3.28947371e-03,
          7.67543865e-03, 1.31578948e-02, 3.28947371e-03, 6.57894742e-03,
          4.38596494e-03, 3.28947371e-03, 2.19298247e-03, 1.09649124e-03,
          3.28947371e-03, 2.19298247e-02, 1.31578948e-02, 3.28947371e-03,
          2.19298247e-03, 6.57894742e-03, 4.38596494e-03, 4.38596494e-03,
          2.19298247e-03, 4.38596494e-03, 3.28947371e-03, 3.28947371e-03,
          0., 2.19298247e-03, 3.28947371e-03, 5.48245618e-03,
          4.38596494e-03, 3.28947371e-03, 0., 9.86842066e-03,
          4.38596494e-03, 1.20614041e-02, 6.57894742e-03, 1.09649124e-03,
          2.19298247e-03, 5.48245618e-03, 2.19298247e-03, 5.48245618e-03,
          6.57894742e-03, 2.19298247e-03, 7.67543865e-03, 1.20614041e-02,
          1.31578948e-02, 1.09649124e-03, 9.86842066e-03, 1.09649124e-03,
          4.38596494e-03, 2.19298247e-03, 0., 1.09649124e-03,
          1.09649124e-03, 1.31578948e-02, 4.38596494e-03, 4.38596494e-03,
          5.48245618e-03, 2.19298247e-03, 1.09649124e-03, 1.53508773e-02,
          5.48245618e-03, 7.67543865e-03, 3.28947371e-03, 4.38596494e-03,
          6.57894742e-03, 9.86842066e-03, 1.09649124e-03, 6.57894742e-03,
          2.19298247e-03, 0., 5.48245618e-03, 1.09649124e-03,
          3.28947371e-03, 1.09649124e-03, 7.67543865e-03, 3.28947371e-03,
          1.31578948e-02, 1.42543856e-02, 8.77192989e-03, 6.57894742e-03,
          7.67543865e-03, 6.57894742e-03, 2.19298247e-03, 4.38596494e-03,
          5.48245618e-03, 4.38596494e-03, 1.31578948e-02, 0., 0.,
          4.38596494e-03, 1.09649124e-03, 8.77192989e-03, 7.67543865e-03,
          3.28947371e-03, 0., 6.57894742e-03, 3.28947371e-03,
          6.57894742e-03, 4.38596494e-03, 1.09649124e-03, 4.38596494e-03,
          6.57894742e-03, 2.19298247e-03, 1.09649124e-03, 6.57894742e-03,
          1.09649124e-03, 3.28947371e-03, 8.77192989e-03, 7.67543865e-03,
          1.09649124e-02, 1.09649124e-03, 1.09649124e-03, 4.38596494e-03,
          2.19298247e-03, 0., 4.38596494e-03, 6.57894742e-03,
          2.19298247e-03, 0., 6.57894742e-03, 8.77192989e-03,
          1.86403506e-02, 1.09649124e-03, 6.57894742e-03, 1.09649124e-03,
          1.42543856e-02, 3.28947371e-03, 3.28947371e-03, 6.57894742e-03 ]
      - [ 1.19474309e-03, 5.97371534e-03, 2.38948618e-03, 3.58422939e-03,
          1.19474309e-03, 3.58422939e-03, 4.77897236e-03, 2.38948618e-03,
          5.97371534e-03, 1.19474309e-03, 1.19474309e-03, 2.38948618e-03,
          1.19474309e-03, 1.19474309e-03, 2.38948618e-03, 0.,
          8.36320128e-03, 8.36320128e-03, 3.58422939e-03, 1.67264026e-02,
          8.36320128e-03, 3.58422939e-03, 7.16845877e-03, 4.77897236e-03,
          1.31421741e-02, 3.58422939e-03, 4.77897236e-03, 8.36320128e-03,
          3.58422939e-03, 1.91158894e-02, 5.97371534e-03, 4.77897236e-03,
          7.16845877e-03, 0., 4.77897236e-03, 5.97371534e-03,
          3.58422939e-03, 2.03106329e-02, 4.77897236e-03, 3.58422939e-03,
          3.58422939e-03, 1.19474309e-03, 1.19474309e-03, 5.97371534e-03,
          0., 1.19474309e-03, 1.19474309e-03, 2.38948618e-03,
          1.79211460e-02, 3.58422939e-03, 1.07526882e-02, 0., 0.,
          3.58422939e-03, 5.97371534e-03, 4.77897236e-03, 4.77897236e-03,
          7.16845877e-03, 1.19474309e-03, 1.19474309e-03, 2.38948618e-03,
          3.58422939e-03, 4.77897236e-03, 2.38948618e-03, 1.31421741e-02,
          2.86738351e-02, 8.36320128e-03, 2.38948618e-03, 0.,
          4.77897236e-03, 1.19474307e-02, 3.58422939e-03, 5.97371534e-03,
          2.38948618e-03, 2.74790917e-02, 7.16845877e-03, 2.38948618e-03,
          0., 1.19474309e-03, 4.77897236e-03, 2.38948618e-03,
          1.19474309e-03, 3.58422939e-03, 3.58422939e-03, 3.34528051e-02,
          2.38948618e-03, 4.77897236e-03, 3.58422939e-03, 5.97371534e-03,
          1.19474309e-03, 1.91158894e-02, 2.38948618e-03, 2.38948618e-03,
          5.97371534e-03, 2.38948618e-03, 8.36320128e-03, 3.58422939e-03,
          9.55794472e-03, 1.07526882e-02, 3.58422939e-03, 1.19474309e-03,
          3.58422939e-03, 8.36320128e-03, 3.58422939e-03, 1.67264026e-02,
          3.58422939e-03, 2.38948618e-03, 2.38948618e-03, 1.07526882e-02,
          0., 2.38948618e-03, 2.38948618e-03, 4.77897236e-03,
          3.58422939e-03, 3.58422939e-03, 4.77897236e-03, 2.62843482e-02,
          2.38948618e-03, 5.97371534e-03, 5.97371534e-03, 1.19474309e-03,
          2.38948618e-03, 4.77897236e-03, 4.77897236e-03, 0.,
          1.19474309e-03, 2.38948618e-03, 5.97371534e-03, 2.38948618e-03,
          1.19474309e-03, 4.77897236e-03, 0., 2.38948618e-03,
          4.77897236e-03, 3.58422939e-03, 5.97371534e-03, 1.19474309e-03,
          2.38948618e-03, 4.77897236e-03, 0., 0., 8.36320128e-03,
          1.19474309e-03, 4.77897236e-03, 5.97371534e-03, 1.19474307e-02,
          5.97371534e-03, 9.55794472e-03, 0., 2.38948618e-03,
          2.38948618e-03, 2.38948618e-03, 5.97371534e-03, 2.38948618e-03,
          5.97371534e-03, 4.77897236e-03, 2.38948618e-03, 1.19474309e-03,
          1.19474309e-03, 2.38948618e-03, 4.77897236e-03, 1.19474309e-03,
          2.38948618e-03, 1.19474309e-03, 1.19474307e-02, 0.,
          3.58422939e-03, 1.19474309e-03, 0., 4.77897236e-03,
          4.77897236e-03, 7.16845877e-03, 4.77897236e-03, 0.,
          1.19474309e-03, 2.38948618e-03, 1.91158894e-02, 4.77897236e-03,
          3.58422939e-03, 3.58422939e-03, 1.19474307e-02, 1.19474309e-03,
          0., 0., 7.16845877e-03, 5.97371534e-03, 3.58422939e-03,
          1.19474307e-02, 4.77897236e-03, 2.38948618e-03, 3.58422939e-03,
          1.55316601e-02, 2.38948618e-03, 4.77897236e-03, 8.36320128e-03,
          3.58422939e-03, 2.38948618e-03, 2.38948618e-03, 2.38948618e-03,
          1.07526882e-02 ]
      - [ 1.36239780e-03, 4.08719340e-03, 5.44959120e-03, 1.36239780e-03,
          2.72479560e-03, 4.08719340e-03, 8.17438681e-03, 6.81198901e-03,
          9.53678414e-03, 1.36239780e-03, 2.72479560e-03, 2.72479560e-03,
          0., 1.36239780e-03, 1.36239780e-03, 0., 8.17438681e-03,
          1.36239780e-03, 5.44959120e-03, 2.72479560e-03, 5.44959120e-03,
          4.08719340e-03, 8.17438681e-03, 8.17438681e-03, 1.36239780e-02,
          2.72479560e-03, 4.08719340e-03, 8.17438681e-03, 4.08719340e-03,
          2.04359666e-02, 6.81198901e-03, 2.72479560e-03, 6.81198901e-03,
          0., 4.08719340e-03, 8.17438681e-03, 2.72479560e-03,
          2.58855578e-02, 2.72479560e-03, 4.08719340e-03, 4.08719340e-03,
          1.36239780e-03, 0., 6.81198901e-03, 0., 0., 1.36239780e-03,
          4.08719340e-03, 1.36239780e-02, 4.08719340e-03, 1.63487736e-02,
          1.36239780e-03, 1.36239780e-03, 5.44959120e-03, 2.72479560e-03,
          6.81198901e-03, 8.17438681e-03, 8.17438681e-03, 2.72479560e-03,
          1.36239780e-03, 4.08719340e-03, 8.17438681e-03, 2.72479560e-03,
          2.72479560e-03, 1.08991824e-02, 2.72479560e-02, 9.53678414e-03,
          2.72479560e-03, 0., 4.08719340e-03, 1.22615807e-02,
          4.08719340e-03, 6.81198901e-03, 2.72479560e-03, 2.58855578e-02,
          5.44959120e-03, 4.08719340e-03, 0., 1.36239780e-03,
          2.72479560e-03, 2.72479560e-03, 1.36239780e-03, 1.36239780e-03,
          2.72479560e-03, 0., 5.44959120e-03, 4.08719340e-03,
          4.08719340e-03, 9.53678414e-03, 1.36239780e-03, 2.04359666e-02,
          2.72479560e-03, 5.44959120e-03, 8.17438681e-03, 1.36239780e-03,
          1.36239780e-02, 5.44959120e-03, 9.53678414e-03, 1.36239780e-02,
          2.72479560e-03, 1.36239780e-03, 4.08719340e-03, 4.08719340e-03,
          2.72479560e-03, 1.90735683e-02, 2.72479560e-03, 1.36239780e-03,
          2.72479560e-03, 8.17438681e-03, 0., 1.36239780e-03,
          4.08719340e-03, 5.44959120e-03, 1.36239780e-03, 4.08719340e-03,
          6.81198901e-03, 2.72479560e-02, 2.72479560e-03, 6.81198901e-03,
          8.17438681e-03, 1.36239780e-03, 1.36239780e-03, 4.08719340e-03,
          6.81198901e-03, 0., 4.08719340e-03, 4.08719340e-03,
          6.81198901e-03, 2.72479560e-03, 1.36239780e-03, 6.81198901e-03,
          2.72479560e-03, 1.36239780e-03, 5.44959120e-03, 4.08719340e-03,
          9.53678414e-03, 2.72479560e-03, 4.08719340e-03, 6.81198901e-03,
          0., 0., 8.17438681e-03, 1.36239780e-03, 6.81198901e-03,
          4.08719340e-03, 1.36239780e-02, 0., 8.17438681e-03, 0.,
          2.72479560e-03, 0., 5.44959120e-03, 4.08719340e-03,
          2.72479560e-03, 4.08719340e-03, 5.44959120e-03, 4.08719340e-03,
          2.72479560e-03, 1.36239780e-03, 1.36239780e-03, 5.44959120e-03,
          2.72479560e-03, 2.72479560e-03, 1.36239780e-03, 1.08991824e-02,
          1.36239780e-03, 5.44959120e-03, 0., 0., 4.08719340e-03,
          6.81198901e-03, 6.81198901e-03, 5.44959120e-03, 0.,
          1.36239780e-03, 2.72479560e-03, 0., 5.44959120e-03,
          4.08719340e-03, 6.81198901e-03, 1.49863753e-02, 1.36239780e-03,
          0., 0., 9.53678414e-03, 6.81198901e-03, 2.72479560e-03,
          1.08991824e-02, 4.08719340e-03, 2.72479560e-03, 5.44959120e-03,
          5.44959120e-03, 1.36239780e-03, 6.81198901e-03, 4.08719340e-03,
          2.72479560e-03, 4.08719340e-03, 4.08719340e-03, 2.72479560e-03,
          1.22615807e-02 ]
      - [ 0., 1.04347831e-02, 5.21739153e-03, 1.04347831e-02,
          3.47826094e-03, 0., 6.95652189e-03, 3.47826094e-03,
          5.21739153e-03, 5.21739153e-03, 3.47826094e-03, 3.47826094e-03,
          0., 3.47826094e-03, 3.47826094e-03, 5.21739153e-03,
          8.69565271e-03, 1.73913047e-03, 3.47826094e-03, 3.47826094e-03,
          3.47826094e-03, 3.47826094e-03, 3.47826094e-03, 1.04347831e-02,
          8.69565271e-03, 3.47826094e-03, 0., 8.69565271e-03, 0.,
          2.43478268e-02, 5.21739153e-03, 8.69565271e-03, 5.21739153e-03,
          0., 1.04347831e-02, 8.69565271e-03, 3.47826094e-03,
          1.56521741e-02, 3.47826094e-03, 6.95652189e-03, 3.47826094e-03,
          1.73913047e-03, 5.21739153e-03, 1.73913047e-03, 0.,
          6.95652189e-03, 0., 3.47826094e-03, 5.21739153e-03,
          3.47826094e-03, 1.04347831e-02, 6.95652189e-03, 1.73913047e-03,
          5.21739153e-03, 1.73913047e-03, 3.47826094e-03, 1.04347831e-02,
          8.69565271e-03, 3.47826094e-03, 1.73913047e-03, 6.95652189e-03,
          8.69565271e-03, 0., 3.47826094e-03, 1.39130438e-02,
          2.95652188e-02, 8.69565271e-03, 3.47826094e-03, 0.,
          1.73913047e-03, 3.47826094e-03, 6.95652189e-03, 5.21739153e-03,
          0., 3.13043483e-02, 3.47826094e-03, 3.47826094e-03, 0.,
          5.21739153e-03, 1.73913047e-03, 1.73913047e-03, 1.73913047e-03,
          3.47826094e-03, 3.47826094e-03, 0., 5.21739153e-03,
          5.21739153e-03, 5.21739153e-03, 8.69565271e-03, 0.,
          2.43478268e-02, 0., 1.73913047e-03, 5.21739153e-03,
          3.47826094e-03, 3.47826094e-03, 3.47826094e-03, 8.69565271e-03,
          1.21739134e-02, 1.73913047e-03, 3.47826094e-03, 5.21739153e-03,
          6.95652189e-03, 1.73913047e-03, 1.73913054e-02, 3.47826094e-03,
          1.73913047e-03, 1.73913047e-03, 1.04347831e-02, 0.,
          1.73913047e-03, 3.47826094e-03, 8.69565271e-03, 6.95652189e-03,
          5.21739153e-03, 1.04347831e-02, 2.26086956e-02, 5.21739153e-03,
          5.21739153e-03, 3.47826094e-03, 3.47826094e-03, 1.73913047e-03,
          1.73913047e-03, 6.95652189e-03, 3.47826094e-03, 3.47826094e-03,
          3.47826094e-03, 8.69565271e-03, 0., 1.73913047e-03, 0.,
          1.73913047e-03, 3.47826094e-03, 3.47826094e-03, 1.73913047e-03,
          6.95652189e-03, 0., 3.47826094e-03, 6.95652189e-03,
          5.21739153e-03, 0., 1.39130438e-02, 0., 0., 0., 1.04347831e-02,
          0., 5.21739153e-03, 1.73913047e-03, 1.21739134e-02, 0.,
          5.21739153e-03, 1.04347831e-02, 5.21739153e-03, 1.73913047e-03,
          5.21739153e-03, 1.73913047e-03, 1.73913047e-03, 3.47826094e-03,
          1.73913047e-03, 8.69565271e-03, 5.21739153e-03, 5.21739153e-03,
          5.21739153e-03, 5.21739153e-03, 0., 3.47826094e-03,
          1.73913047e-03, 1.73913047e-03, 3.47826094e-03, 6.95652189e-03,
          1.39130438e-02, 3.47826094e-03, 0., 5.21739153e-03,
          1.73913047e-03, 0., 1.73913047e-03, 5.21739153e-03,
          5.21739153e-03, 8.69565271e-03, 0., 0., 1.73913047e-03,
          3.47826094e-03, 1.73913047e-03, 5.21739153e-03, 1.21739134e-02,
          6.95652189e-03, 3.47826094e-03, 5.21739153e-03, 5.21739153e-03,
          1.73913047e-03, 8.69565271e-03, 5.21739153e-03, 5.21739153e-03,
          5.21739153e-03, 3.47826094e-03, 6.95652189e-03, 1.04347831e-02 ]
      - [ 2.51889159e-03, 3.77833750e-03, 2.51889159e-03, 2.51889159e-03,
          2.51889159e-03, 1.25944579e-03, 5.03778318e-03, 6.29722886e-03,
          6.29722886e-03, 3.77833750e-03, 3.77833750e-03, 3.77833750e-03,
          0., 1.25944579e-03, 5.03778318e-03, 2.51889159e-03,
          6.29722886e-03, 1.25944577e-02, 3.77833750e-03, 1.63727961e-02,
          5.03778318e-03, 2.51889159e-03, 7.55667500e-03, 8.81612021e-03,
          6.29722886e-03, 2.51889159e-03, 2.51889159e-03, 6.29722886e-03,
          2.51889159e-03, 1.76322404e-02, 5.03778318e-03, 7.55667500e-03,
          2.51889159e-03, 0., 5.03778318e-03, 6.29722886e-03,
          2.51889159e-03, 2.14105789e-02, 7.55667500e-03, 3.77833750e-03,
          3.77833750e-03, 1.25944579e-03, 1.25944579e-03, 8.81612021e-03,
          1.25944579e-03, 1.25944579e-03, 0., 2.51889159e-03,
          1.25944577e-02, 2.51889159e-03, 8.81612021e-03, 5.03778318e-03,
          2.51889159e-03, 6.29722886e-03, 2.51889159e-03, 6.29722886e-03,
          5.03778318e-03, 7.55667500e-03, 2.51889159e-03, 1.25944579e-03,
          3.77833750e-03, 5.03778318e-03, 2.51889159e-03, 2.51889159e-03,
          1.00755664e-02, 1.63727961e-02, 8.81612021e-03, 2.51889159e-03,
          0., 2.51889159e-03, 6.29722886e-03, 2.51889159e-03,
          8.81612021e-03, 1.25944579e-03, 3.40050347e-02, 2.51889159e-03,
          2.51889159e-03, 1.25944579e-03, 2.51889159e-03, 6.29722886e-03,
          5.03778318e-03, 2.51889159e-03, 1.25944579e-03, 1.25944579e-03,
          3.14861462e-02, 3.77833750e-03, 3.77833750e-03, 2.51889159e-03,
          5.03778318e-03, 0., 1.51133500e-02, 2.51889159e-03,
          3.77833750e-03, 6.29722886e-03, 2.51889159e-03, 5.03778318e-03,
          3.77833750e-03, 1.13350125e-02, 1.13350125e-02, 5.03778318e-03,
          2.51889159e-03, 2.51889159e-03, 3.77833750e-03, 3.77833750e-03,
          1.51133500e-02, 1.25944579e-03, 3.77833750e-03, 2.51889159e-03,
          8.81612021e-03, 0., 3.77833750e-03, 3.77833750e-03,
          6.29722886e-03, 6.29722886e-03, 2.51889159e-03, 5.03778318e-03,
          2.77078077e-02, 2.51889159e-03, 3.77833750e-03, 7.55667500e-03,
          1.25944579e-03, 1.25944579e-03, 2.51889159e-03, 7.55667500e-03,
          1.25944579e-03, 2.51889159e-03, 2.51889159e-03, 6.29722886e-03,
          1.25944579e-03, 1.25944579e-03, 6.29722886e-03, 2.51889159e-03,
          3.77833750e-03, 5.03778318e-03, 3.77833750e-03, 7.55667500e-03,
          1.25944579e-03, 3.77833750e-03, 6.29722886e-03, 1.25944579e-03,
          0., 1.13350125e-02, 1.25944579e-03, 8.81612021e-03,
          3.77833750e-03, 5.03778318e-03, 3.77833750e-03, 6.29722886e-03,
          0., 3.77833750e-03, 1.00755664e-02, 5.03778318e-03,
          8.81612021e-03, 2.51889159e-03, 5.03778318e-03, 3.77833750e-03,
          2.51889159e-03, 2.51889159e-03, 2.51889159e-03, 2.51889159e-03,
          3.77833750e-03, 0., 3.77833750e-03, 1.25944579e-03,
          1.13350125e-02, 0., 5.03778318e-03, 0., 0., 5.03778318e-03,
          5.03778318e-03, 5.03778318e-03, 3.77833750e-03, 1.25944579e-03,
          1.25944579e-03, 1.25944579e-03, 1.88916866e-02, 5.03778318e-03,
          3.77833750e-03, 3.77833750e-03, 1.63727961e-02, 1.25944579e-03,
          0., 2.51889159e-03, 7.55667500e-03, 3.77833750e-03,
          2.51889159e-03, 6.29722886e-03, 5.03778318e-03, 2.51889159e-03,
          5.03778318e-03, 1.38539039e-02, 1.25944579e-03, 5.03778318e-03,
          7.55667500e-03, 3.77833750e-03, 1.25944579e-03, 3.77833750e-03,
          5.03778318e-03, 1.00755664e-02 ]
      - [ 0., 6.06060633e-03, 6.06060633e-03, 6.06060633e-03, 0., 0.,
          4.04040422e-03, 2.02020211e-03, 1.41414143e-02, 6.06060633e-03,
          0., 6.06060633e-03, 0., 2.02020211e-03, 2.02020211e-03,
          4.04040422e-03, 4.04040422e-03, 1.21212127e-02, 2.02020211e-03,
          2.82828286e-02, 2.02020211e-03, 2.02020211e-03, 6.06060633e-03,
          4.04040422e-03, 8.08080845e-03, 2.02020211e-03, 4.04040422e-03,
          2.02020211e-03, 4.04040422e-03, 3.03030312e-02, 8.08080845e-03,
          8.08080845e-03, 4.04040422e-03, 0., 6.06060633e-03,
          8.08080845e-03, 0., 6.06060633e-03, 2.02020211e-03, 0.,
          4.04040422e-03, 0., 0., 6.06060633e-03, 2.02020211e-03, 0., 0.,
          4.04040422e-03, 6.06060633e-03, 4.04040422e-03, 6.06060633e-03,
          2.02020211e-03, 0., 1.41414143e-02, 0., 6.06060633e-03,
          1.01010110e-02, 6.06060633e-03, 0., 0., 1.01010110e-02,
          1.21212127e-02, 2.02020211e-03, 4.04040422e-03, 1.41414143e-02,
          3.63636389e-02, 1.01010110e-02, 6.06060633e-03, 0.,
          2.02020211e-03, 4.04040422e-03, 2.02020211e-03, 0.,
          8.08080845e-03, 3.23232338e-02, 2.02020211e-03, 4.04040422e-03,
          2.02020211e-03, 6.06060633e-03, 1.01010110e-02, 2.02020211e-03,
          0., 2.02020211e-03, 4.04040422e-03, 3.83838415e-02,
          8.08080845e-03, 4.04040422e-03, 0., 2.02020211e-03, 0.,
          6.06060633e-03, 2.02020211e-03, 2.02020211e-03, 6.06060633e-03,
          4.04040422e-03, 6.06060633e-03, 2.02020211e-03, 6.06060633e-03,
          1.41414143e-02, 2.02020211e-03, 4.04040422e-03, 4.04040422e-03,
          2.02020211e-03, 4.04040422e-03, 1.41414143e-02, 8.08080845e-03,
          2.02020211e-03, 2.02020211e-03, 6.06060633e-03, 0.,
          4.04040422e-03, 1.41414143e-02, 8.08080845e-03, 8.08080845e-03,
          6.06060633e-03, 8.08080845e-03, 6.06060633e-03, 2.02020211e-03,
          8.08080845e-03, 2.02020211e-03, 2.02020211e-03, 0.,
          2.02020211e-03, 6.06060633e-03, 2.02020211e-03, 4.04040422e-03,
          1.01010110e-02, 1.41414143e-02, 2.02020211e-03, 4.04040422e-03,
          4.04040422e-03, 4.04040422e-03, 6.06060633e-03, 4.04040422e-03,
          2.02020211e-03, 8.08080845e-03, 0., 0., 6.06060633e-03, 0., 0.,
          8.08080845e-03, 0., 4.04040422e-03, 4.04040422e-03,
          4.04040422e-03, 8.08080845e-03, 4.04040422e-03, 0.,
          6.06060633e-03, 1.41414143e-02, 0., 6.06060633e-03,
          4.04040422e-03, 2.02020211e-03, 6.06060633e-03, 2.02020211e-03,
          0., 0., 0., 2.02020211e-03, 2.02020211e-03, 4.04040422e-03,
          2.02020211e-03, 4.04040422e-03, 0., 6.06060633e-03, 0.,
          2.02020211e-03, 0., 1.01010110e-02, 8.08080845e-03,
          4.04040422e-03, 0., 6.06060633e-03, 6.06060633e-03,
          2.22222228e-02, 4.04040422e-03, 2.02020211e-03, 0.,
          8.08080845e-03, 2.02020211e-03, 0., 8.08080845e-03,
          8.08080845e-03, 2.02020211e-03, 0., 2.02020211e-03,
          8.08080845e-03, 2.02020211e-03, 4.04040422e-03, 1.01010110e-02,
          2.02020211e-03, 2.02020211e-03, 1.81818195e-02, 2.02020211e-03,
          4.04040422e-03, 0., 2.02020211e-03, 2.02020211e-03 ]
      - [ 0., 4.22535185e-03, 4.22535185e-03, 1.40845065e-03,
          1.40845065e-03, 4.22535185e-03, 8.45070370e-03, 5.63380262e-03,
          8.45070370e-03, 5.63380262e-03, 4.22535185e-03, 2.81690131e-03,
          0., 1.40845065e-03, 4.22535185e-03, 1.40845065e-03,
          5.63380262e-03, 1.40845065e-03, 5.63380262e-03, 1.40845065e-03,
          5.63380262e-03, 4.22535185e-03, 5.63380262e-03, 5.63380262e-03,
          7.04225339e-03, 4.22535185e-03, 4.22535185e-03, 7.04225339e-03,
          2.81690131e-03, 1.54929571e-02, 5.63380262e-03, 5.63380262e-03,
          2.81690131e-03, 0., 5.63380262e-03, 7.04225339e-03,
          1.40845065e-03, 2.11267602e-02, 5.63380262e-03, 2.81690131e-03,
          5.63380262e-03, 1.40845065e-03, 2.81690131e-03, 9.85915493e-03,
          0., 1.40845065e-03, 0., 2.81690131e-03, 7.04225339e-03,
          2.81690131e-03, 1.26760555e-02, 1.40845065e-03, 2.81690131e-03,
          7.04225339e-03, 5.63380262e-03, 7.04225339e-03, 8.45070370e-03,
