%YAML:1.0
my_svm: !!opencv-ml-svm
   svm_type: C_SVC
   kernel: { type:LINEAR }
   C: 1.
   term_criteria: { epsilon:2.2204460492503131e-16, iterations:100 }
   var_all: 200
   var_count: 200
   class_count: 5
   class_labels: !!opencv-matrix
      rows: 1
      cols: 5
      dt: i
      data: [ 0, 1, 2, 3, 4 ]
   sv_total: 10
   support_vectors:
      - [ 2.72953929e-03, 2.43741227e-03, -9.91494209e-02,
          -4.44518812e-02, -2.76581589e-02, -6.97320979e-03,
          -1.04742628e-02, 2.77029630e-02, -1.00681596e-02,
          -2.28548609e-02, -1.78657118e-02, -7.02982722e-03,
          2.31270539e-03, 7.77403936e-02, 4.23276648e-02, 1.59732811e-02,
          1.25090089e-02, -3.85161163e-03, 5.91239333e-02,
          -1.55279506e-03, -1.16569167e-02, -2.14262232e-02,
          1.51699353e-02, 4.55556996e-02, 3.90254334e-02,
          -6.10862896e-02, 2.21078447e-03, 6.96926797e-03,
          -8.02830420e-03, -2.95570642e-02, 2.16551125e-04,
          -2.81823687e-02, 0., 7.14778667e-04, 3.12785245e-02,
          1.32300444e-02, -9.59401298e-03, 2.54103038e-02,
          2.30766064e-03, 2.91987900e-02, 1.25083253e-02, 1.92862935e-02,
          2.86221132e-02, 1.07166301e-02, -2.40915501e-03,
          -2.72083841e-03, -9.23003443e-03, 2.47462876e-02,
          9.45942570e-03, 2.43116729e-03, -5.18541224e-02,
          -1.05474126e-02, -6.22570887e-02, -3.04862065e-03,
          -2.51119770e-02, 2.12640539e-02, 6.89320872e-03,
          -6.55233255e-03, 7.06190290e-03, 1.47596821e-02,
          7.85991899e-04, 0., 7.32892193e-03, 4.66520805e-03,
          -7.36867217e-03, 1.71430185e-02, -9.40959156e-03,
          -5.52376918e-02, -3.08753224e-03, 1.99042410e-02,
          1.12925423e-02, -1.11663723e-02, 1.12238852e-02,
          4.01567370e-02, -1.68899857e-02, 4.00593393e-02,
          -6.88355765e-04, -2.43902206e-02, 7.90281221e-02,
          3.28749511e-03, 5.05937217e-03, 1.58583932e-02, 1.54386768e-02,
          1.43476315e-02, 9.77306534e-03, 4.98499759e-02, 2.64346302e-02,
          -8.93418305e-03, 2.73203477e-05, 1.17994286e-02,
          -1.79533218e-03, -2.29866616e-02, -4.68444452e-03,
          -1.63698161e-03, -3.11137293e-03, -5.08573018e-02,
          2.86604762e-02, 1.43061520e-03, -4.35782038e-03,
          4.66037961e-03, 4.19038348e-03, -1.11814532e-02,
          -5.86468391e-02, -2.92336941e-02, -3.59840989e-02,
          6.74187765e-02, -2.55734427e-03, -9.96070635e-03,
          -1.42437238e-02, -5.68729341e-02, -1.67140004e-03,
          3.94691294e-03, 8.59632343e-03, -4.26637474e-03,
          -2.19497699e-02, 5.09077609e-02, 3.88154062e-04,
          2.23926604e-02, -6.21710392e-03, -1.84341744e-02, 0.,
          -7.98556302e-03, 2.68849591e-03, -8.20668880e-03,
          -3.59066436e-03, 0., -2.03327239e-02, 1.22950710e-02,
          1.53483637e-03, 1.94414780e-02, -6.76811039e-02,
          -3.61609086e-02, -3.42280231e-03, -1.22967931e-02,
          2.08877809e-02, 2.26757373e-03, -1.59560561e-01,
          1.33431377e-02, -6.98851282e-03, -1.27226464e-03,
          1.46043282e-02, 2.08029300e-02, 0., 0., 2.26757373e-03,
          2.55415700e-02, 6.70689438e-03, 1.32263154e-02, 7.06977118e-03,
          2.18008365e-03, -1.87677350e-02, -1.88102536e-02,
          3.04713491e-02, 6.11543888e-03, -1.39139127e-03,
          -2.81306561e-02, 2.32328335e-03, -3.21029574e-02,
          -1.58000495e-02, 1.49698649e-02, -1.71577325e-04,
          5.74317854e-03, 1.24086598e-02, -6.06643073e-02,
          2.04473976e-02, 1.17035732e-02, 6.75107585e-03,
          -8.92146677e-03, 1.69842993e-03, 4.98851156e-03,
          -3.08069065e-02, -2.41864976e-02, 1.44676631e-02,
          -2.93300003e-02, 0., 9.63752740e-04, 3.69818881e-03,
          -3.09506711e-03, 5.79061033e-03, 2.28932202e-02,
          1.16226100e-03, -1.66571010e-02, 1.06181558e-02,
          1.09624704e-02, 3.33617106e-02, 1.73533410e-02, 6.79765129e-04,
          1.68921612e-02, 6.27928376e-02, 4.10619704e-03, 1.41623139e-03,
          -4.97192331e-03, 2.61538988e-03, -2.70802365e-03,
          2.21682414e-02, 1.29032263e-03, -1.52909644e-02,
          1.28589710e-02, 8.11247062e-03, 7.68744946e-03 ]
      - [ -1.07924605e-03, -1.95422187e-03, 1.72738746e-01,
          -1.49481427e-02, -1.70837604e-02, -1.81420408e-02,
          -1.44408271e-02, 2.42682472e-02, 4.38091811e-05,
          -1.80903636e-03, -7.90869538e-03, -3.07221338e-02,
          -1.51727740e-02, 9.67548937e-02, 1.31929815e-02,
          1.80625468e-02, -1.18449973e-02, -3.29468809e-02,
          7.14638457e-02, -2.43810583e-02, 1.50067906e-03,
          1.05517199e-02, 1.57337785e-02, 5.99678233e-02, 3.64251435e-02,
          2.17024121e-03, -4.88123856e-03, -8.91280081e-03,
          -1.85431838e-02, -3.06436699e-03, 2.02058498e-02,
          -1.83182042e-02, -5.42701315e-03, -4.92832214e-02,
          2.69517004e-02, -9.50858556e-03, -3.13618965e-02,
          3.91614698e-02, -4.61760536e-03, 6.72851130e-03,
          -1.87846646e-03, 3.94903496e-03, -6.87908987e-03,
          8.71894043e-03, 9.02112946e-03, -1.26225241e-02,
          -5.51950838e-03, 5.70807867e-02, -6.15671929e-03,
          -5.50764948e-02, 1.81194283e-02, -8.39574262e-03,
          -1.60278548e-02, 1.41972164e-03, -1.19858133e-02,
          -2.45705107e-03, -6.14582002e-02, -8.84899963e-03,
          2.88815307e-03, 1.87573470e-02, 2.92037521e-03,
          -2.76941471e-02, 3.14623304e-03, -2.44023483e-02,
          -4.02453318e-02, 9.07538831e-03, 8.15229025e-04,
          -2.65244488e-03, -3.52187119e-02, 6.53797807e-03,
          -6.79841405e-03, 8.43438879e-03, -4.31595137e-03,
          4.30687256e-02, -1.95115767e-02, 1.39587130e-02,
          -2.57831905e-03, 3.39505263e-02, 9.09813046e-02,
          -7.90140126e-04, -1.67995486e-02, 4.97419247e-03,
          2.86061913e-02, 1.12609500e-02, -2.56527513e-02,
          5.09812869e-02, 5.97595563e-03, -1.70671986e-03,
          4.89350334e-02, -3.74849234e-03, -4.69289348e-02,
          1.50143448e-02, -7.17245694e-03, -8.23496282e-03,
          -9.27534886e-03, -6.14437321e-03, 1.45688625e-02,
          -1.44063691e-02, -1.19808968e-02, -6.40679244e-03,
          -1.05773648e-02, -2.16291733e-02, 5.42195793e-03,
          6.34765439e-03, 4.13397439e-02, 6.48302436e-02,
          -2.82633342e-02, -3.52276466e-03, -1.93546526e-02,
          -7.58319860e-03, -2.19637938e-02, 1.55843189e-02,
          9.76162311e-03, -9.19546187e-03, -2.32150182e-02,
          4.22465466e-02, -1.52467899e-02, 1.77117195e-02,
          -8.29144381e-03, 2.66973116e-02, -1.53076816e-02,
          -1.03238430e-02, 2.70854146e-03, -4.14086245e-02,
          -1.00266756e-02, -2.33643018e-02, -1.49389412e-02,
          1.52646601e-02, -3.13918246e-03, 1.60450768e-02,
          8.55934061e-03, -5.45692118e-03, -4.81224731e-02,
          1.02898362e-03, 4.28835303e-03, -1.25108589e-03,
          6.18186705e-02, -4.96698404e-03, -1.87350102e-02,
          -1.06858211e-02, 4.66008345e-03, 1.73798520e-02,
          -5.65362945e-02, -3.04263644e-02, -3.75688309e-03,
          3.37748416e-02, -2.84822509e-02, -1.10070850e-03,
          -2.70665996e-02, -1.91044491e-02, -1.68590564e-02,
          1.96491703e-02, 2.03375053e-03, -2.59359134e-04,
          1.72956940e-02, 1.29527850e-02, -1.05710011e-02,
          -2.56077554e-02, -4.18536458e-03, -8.77522398e-03,
          -3.40933097e-03, -1.41532980e-02, -1.78789757e-02,
          -6.47179550e-04, -4.52632830e-03, 4.08763578e-03,
          2.55152909e-03, -5.67073980e-03, 1.78428914e-03,
          -7.07032857e-03, -7.47514702e-03, 1.24414917e-02,
          -1.60506628e-02, 3.07500996e-02, -1.39598120e-02,
          -1.21875079e-02, -9.60985944e-03, -1.65687054e-02,
          5.06316544e-03, 3.44004715e-03, -3.58758983e-03,
          -5.02775749e-03, 8.97394959e-03, -1.80983578e-03,
          6.65218290e-03, 1.29270516e-02, -1.71865765e-02,
          -1.29085053e-02, 7.71570206e-02, -3.17370817e-02,
          -1.51927304e-02, -1.48311593e-02, -2.63038240e-02,
          -1.07550016e-03, -1.44089330e-02, -1.33942310e-02,
          3.81352752e-02, -9.96864773e-03, 3.79779190e-03,
          -1.19791050e-02 ]
      - [ 2.83142086e-03, 5.01414668e-03, 4.31528315e-04,
          -6.22869749e-03, -5.06197335e-04, -1.39521295e-02,
          -6.87705027e-03, -9.20358114e-03, 5.08183893e-03,
          -2.51430785e-04, -6.74119592e-03, -2.45634094e-02,
          -9.38341487e-03, 4.62539531e-02, 9.82700102e-03,
          -1.59411971e-03, 1.18619530e-02, -2.06640363e-03,
          7.04920664e-02, -1.63369551e-02, -3.58439907e-02,
          1.67302880e-03, -1.17593696e-02, -4.79234569e-02,
          2.46167704e-02, 2.30053975e-03, -3.47698806e-03,
          -3.29822465e-03, 4.68009431e-03, 2.73651676e-03,
          1.20207798e-02, -2.28456948e-02, 0., 2.26757373e-03,
          2.65767947e-02, -3.37745761e-03, 4.49025538e-05,
          -1.35222375e-02, 5.55086695e-03, 2.63786968e-02,
          3.95106012e-03, 9.20252316e-03, 1.40306577e-02, 8.98672268e-03,
          1.55772660e-02, -2.33266354e-02, -2.18240730e-02,
          -6.86193909e-03, -1.36950836e-02, 5.91660477e-03,
          7.06583308e-03, -2.11993381e-02, 8.73531331e-04,
          -1.38927139e-02, -1.66455703e-03, 3.06647504e-03,
          5.50431991e-03, 3.10690608e-04, 1.32664349e-02, 1.56512763e-02,
          3.77376331e-03, -2.62604700e-03, -4.68379166e-03,
          1.16332648e-02, -4.60432284e-03, 1.80323627e-02,
          -1.88326184e-02, 4.06571943e-03, -1.90960467e-02,
          -7.42627634e-03, 1.57168997e-03, -2.20595878e-02,
          -3.08970362e-03, 3.33707668e-02, -1.27854412e-02,
          -1.70003995e-03, -1.75470617e-02, 7.08361575e-03,
          5.94076179e-02, 1.69688128e-02, -2.29210351e-02,
          -1.25519577e-02, 4.71903710e-03, 1.04805101e-02,
          1.21464645e-02, 1.81759838e-02, 1.54027427e-02,
          -6.29406236e-03, 2.75455751e-02, -1.75417960e-02,
          -7.67655205e-03, 1.44595206e-02, 5.77918626e-03,
          -2.01756731e-02, -1.00822598e-02, -2.16235276e-02,
          3.79706547e-03, -3.46815912e-03, -8.14191997e-03,
          -4.51001152e-03, -4.85387165e-03, -6.15581498e-03,
          1.12797776e-02, 5.96730737e-04, 1.98780484e-02, 5.11800386e-02,
          -2.65796240e-02, -5.93376206e-03, -3.34052136e-04,
          -1.55302063e-02, -6.38558203e-03, 2.13147746e-03,
          3.77904391e-03, -6.45921612e-03, -6.24593673e-03,
          1.62211768e-02, -1.77242495e-02, -1.88874174e-03,
          -1.82588317e-03, 5.03831683e-03, -2.27272720e-03,
          -5.59015479e-03, -7.60078058e-03, 2.26757373e-03,
          -1.03025995e-02, 0., 1.29032263e-03, -1.12197874e-02,
          -1.18467268e-02, 7.86973909e-03, 2.06122920e-03,
          -3.07628792e-03, -8.93094949e-03, 3.80701339e-03,
          9.07966960e-03, 8.78684805e-04, 5.60129061e-02,
          -6.93374360e-03, -9.24776215e-03, -4.67994623e-03,
          -2.15562489e-02, 1.90958586e-02, 0., -7.83651136e-03,
          2.26757373e-03, -1.83978351e-04, 1.42113017e-02,
          -4.01029289e-02, 1.47930067e-02, 1.95850898e-03,
          -8.60978477e-03, 1.63581129e-02, 1.27953617e-02,
          1.16008986e-02, 3.84042524e-02, -7.07245572e-03,
          7.92566687e-03, -1.68931410e-02, -2.51301043e-02,
          -8.30588583e-03, -1.51331294e-02, 5.74317854e-03,
          8.65426846e-03, -4.87363851e-03, 7.06802402e-03,
          -1.36196744e-02, 3.86646180e-03, -2.55628414e-02,
          -1.58397704e-02, 1.99190574e-03, 2.04845681e-04,
          8.47816374e-03, 3.57830990e-03, 2.30319947e-02, 0.,
          -1.27053997e-02, -1.21422419e-02, -1.27127450e-02,
          5.46701113e-03, 2.77872998e-02, -1.11484053e-02,
          3.64917913e-03, -8.43137354e-02, -3.94445192e-03,
          3.53360698e-02, 2.63513718e-03, 1.20008609e-03, 1.41508393e-02,
          5.44192344e-02, -1.47441858e-02, 2.83631007e-03,
          -2.86320094e-02, -2.78424490e-02, -4.39064857e-03,
          1.41972387e-02, -9.82404570e-04, -1.93094602e-03,
          -6.96749194e-05, 1.70018934e-02, -6.98526111e-03 ]
      - [ -5.32221608e-03, -4.08829227e-02, 1.28649652e-01,
          -7.64500909e-03, -1.33901900e-02, 5.73650643e-04,
          -3.17438804e-02, -8.04026984e-03, 3.30599374e-03,
          1.49480980e-02, -2.48671044e-03, -1.07137682e-02,
          -8.98476020e-02, 1.00990906e-01, 2.55458727e-02,
          2.51119733e-02, 5.00395987e-03, -7.69103598e-03,
          9.29079354e-02, -1.22178085e-02, 8.79948772e-03,
          1.94087904e-02, 1.97563861e-02, 6.08928911e-02, 4.18091528e-02,
          -4.38134000e-03, -4.34686467e-02, -1.43202106e-02,
          -6.75770268e-03, 3.69605166e-03, -5.21910079e-02,
          -7.98227862e-02, -2.15872414e-02, 6.30356604e-04,
          3.18316258e-02, -1.14684105e-02, -3.27573973e-03,
          6.08177483e-02, -9.11289360e-03, 2.63146497e-02,
          2.29666866e-02, -2.46002972e-02, 2.90787276e-02,
          -2.87358090e-02, 2.17738505e-02, -1.52906692e-02,
          6.96846517e-03, 5.72466105e-02, -2.53239274e-02,
          8.32382403e-03, 1.86776035e-02, -1.83859468e-02,
          -3.53500433e-03, -9.20850318e-03, 9.86625208e-04,
          9.79373138e-03, 6.10766280e-03, -2.38405867e-03,
          1.01083610e-02, 1.78868566e-02, 1.22729223e-02,
          -1.75770689e-02, 3.18340166e-03, -5.03648352e-03,
          -2.42276303e-03, 2.48256568e-02, 3.76629992e-03,
          -5.64466231e-03, -2.63981763e-02, -2.46331096e-03,
          1.09717753e-02, -7.09879696e-02, -2.05958579e-02,
          3.39150988e-02, -1.12947775e-02, 2.89758686e-02,
          1.26743820e-02, -1.27930008e-02, 9.44724083e-02,
          4.20195144e-03, -1.63939390e-02, 9.19935387e-03,
          -5.90530075e-02, 7.41439452e-03, 1.64345745e-02,
          5.13024479e-02, 1.87674761e-02, -6.50533009e-04,
          4.15589996e-02, 9.37666558e-03, 0., 9.02915373e-03,
          2.51627527e-03, -1.61154848e-02, -1.26958629e-02,
          -7.45156489e-04, 2.52971109e-02, -1.34891104e-02,
          1.92765903e-03, -2.16430742e-02, -1.43390950e-02,
          -6.82617491e-03, 1.90297142e-02, 5.19658439e-03,
          4.35635261e-02, 6.98748454e-02, -1.36692403e-02,
          -7.34360889e-02, -1.04550561e-02, -3.82213108e-03,
          -3.40435952e-02, 2.75828931e-02, -6.96071982e-02,
          5.60262054e-03, -1.04182865e-02, 3.61313224e-02,
          -1.47801070e-02, 2.64117550e-02, -9.92827769e-03,
          2.18759961e-02, -3.53880823e-02, -8.52243789e-03,
          -1.36373297e-03, -1.84911245e-03, -3.39398235e-02,
          -1.51233356e-02, 3.41556035e-04, 1.64415650e-02,
          -3.77712995e-02, 2.53788754e-02, 7.81352445e-03,
          -2.21751165e-03, -7.45156489e-04, -6.20385516e-04,
          1.38458954e-02, -4.69525456e-02, 1.83434729e-02,
          2.59025712e-02, -2.27042809e-02, -6.05741218e-02,
          -7.30680488e-03, 1.23340674e-02, -1.73431262e-03,
          -2.80936435e-02, -5.80935180e-02, 3.78361605e-02,
          -1.90553498e-02, -1.35198445e-03, 1.31694190e-02,
          -1.46377869e-02, -9.20849293e-03, 1.05494736e-02,
          2.46607400e-02, -7.66666513e-03, 3.07905395e-02,
          1.46215428e-02, 1.31287910e-02, -4.31466103e-02,
          -6.83034305e-03, 8.09688866e-03, 8.95674899e-03,
          4.95763263e-03, -8.29057768e-03, -4.70404048e-03,
          9.22461785e-03, 2.23059338e-02, -5.47480248e-02,
          -4.42302078e-02, -2.11555958e-02, -2.07815394e-02,
          -2.06933799e-03, 1.04651107e-02, -2.16957796e-02,
          1.79775842e-02, -4.11668606e-03, -5.07527310e-03,
          -8.14381521e-03, -7.78752286e-03, -2.23127678e-02,
          2.15817224e-02, 3.27920949e-04, 6.51013060e-03, 1.92132127e-02,
          -2.88928114e-02, 3.39330062e-02, 2.81798951e-02,
          -2.44188514e-02, 8.92102346e-03, 7.38618001e-02,
          3.09749716e-03, -1.68559756e-02, -1.75866077e-03,
          -1.62153039e-02, -6.44839928e-02, -2.93959361e-02,
          -5.97188324e-02, 2.60392055e-02, -3.26999947e-02,
          2.23326776e-02, -3.80210229e-03 ]
      - [ -3.80878523e-03, -4.39163437e-03, 2.71888167e-01,
          2.95037404e-02, 1.05743995e-02, -1.11688301e-02,
          -3.96656431e-03, -3.43471649e-03, 1.01119690e-02,
          2.10458245e-02, 9.95701645e-03, -2.36923061e-02,
          -1.74854789e-02, 1.90144964e-02, -2.91346852e-02,
          2.08926410e-03, -2.43540052e-02, -2.90952697e-02,
          1.23399151e-02, -2.28282642e-02, 1.31575949e-02,
          3.19779441e-02, 5.63842128e-04, 1.44121218e-02,
          -2.60029198e-03, 6.32565320e-02, -7.09202327e-03,
          -1.58820692e-02, -1.05148805e-02, 2.64926963e-02,
          1.99892987e-02, 9.86416638e-03, -5.42701315e-03,
          -4.99980003e-02, -4.32682317e-03, -2.27386281e-02,
          -2.17678845e-02, 1.37511659e-02, -6.92526577e-03,
          -2.24702787e-02, -1.43867917e-02, -1.53372595e-02,
          -3.55012044e-02, -1.99768925e-03, 1.14302840e-02,
          -9.90168564e-03, 3.71052534e-03, 3.23344991e-02,
          -1.56161450e-02, -5.75076640e-02, 6.99735507e-02,
          2.15166947e-03, 4.62292358e-02, 4.46834229e-03, 1.31261647e-02,
          -2.37211045e-02, -6.83514103e-02, -2.29666731e-03,
          -4.17375006e-03, 3.99766536e-03, 2.13438342e-03,
          -2.76941471e-02, -4.18268889e-03, -2.90675573e-02,
          -3.28766592e-02, -8.06763023e-03, 1.02248210e-02,
          5.25852479e-02, -3.21311802e-02, -1.33662634e-02,
          -1.80909559e-02, 1.96007602e-02, -1.55398361e-02,
          2.91198865e-03, -2.62159086e-03, -2.61006281e-02,
          -1.88996317e-03, 5.83407469e-02, 1.19531853e-02,
          -4.07763524e-03, -2.18589213e-02, -1.08841993e-02,
          1.31675145e-02, -3.08668241e-03, -3.54258157e-02,
          1.13131036e-03, -2.04586759e-02, 7.22746365e-03,
          4.89077121e-02, -1.55479209e-02, -4.51336019e-02,
          3.80010083e-02, -2.48801266e-03, -6.59798132e-03,
          -6.16397616e-03, 4.47129309e-02, -1.40916128e-02,
          -1.58369839e-02, -7.62307690e-03, -1.10671716e-02,
          -1.47677483e-02, -1.04477210e-02, 6.40687943e-02,
          3.55813503e-02, 7.73238391e-02, -2.58853682e-03,
          -2.57059895e-02, 6.43794145e-03, -5.11092786e-03,
          4.92897332e-02, -2.02923939e-02, 1.16374064e-02,
          1.16529944e-03, -4.92908712e-03, -1.26524828e-03,
          -8.66121426e-03, -1.56349428e-02, -4.68093948e-03,
          -2.07433989e-03, 4.51314859e-02, -1.53076816e-02,
          -2.33827950e-03, 2.00453796e-05, -3.32019366e-02,
          -6.43601175e-03, -2.33643018e-02, 5.39378263e-03,
          2.96958955e-03, -4.67401883e-03, -3.39640165e-03,
          7.62404427e-02, 3.07039879e-02, -4.46996689e-02,
          1.33257769e-02, -1.65994298e-02, -3.51865962e-03,
          2.21379220e-01, -1.83101222e-02, -1.17464978e-02,
          -9.41355620e-03, -9.94424522e-03, -3.42307892e-03,
          -5.65362945e-02, -3.04263644e-02, -6.02445658e-03,
          8.23327433e-03, -3.51891443e-02, -1.43270241e-02,
          -3.41363698e-02, -2.12845318e-02, 1.90867926e-03,
          3.84594239e-02, -2.84375977e-02, -6.37479778e-03,
          1.86870862e-02, 4.10834402e-02, -1.28942840e-02,
          6.49520103e-03, 1.16146840e-02, -2.37450898e-02,
          -3.23775364e-03, -1.98964775e-02, -3.02876346e-02,
          6.00171275e-02, -2.49737259e-02, -7.61593739e-03,
          -4.19954676e-03, 3.25072720e-03, 8.58592102e-05,
          -1.20588401e-02, 2.33317595e-02, 3.66279893e-02,
          -3.05183250e-02, 6.00800999e-02, -1.39598120e-02,
          -1.31512610e-02, -1.33080482e-02, -1.34736393e-02,
          -7.27444887e-04, -1.94531735e-02, -4.74985084e-03,
          1.16293440e-02, -1.64420647e-03, -1.27723059e-02,
          -2.67095268e-02, -4.42628935e-03, -1.78663414e-02,
          -2.98006665e-02, 1.43641764e-02, -3.58432792e-02,
          -1.66089609e-02, -9.85923596e-03, -2.89192144e-02,
          1.63252349e-03, -3.65771763e-02, -1.46845533e-02,
          5.34262396e-02, -2.28276178e-02, -4.31467872e-03,
          -1.96665544e-02 ]
      - [ 1.01881684e-04, 2.57673394e-03, 9.95809510e-02, 3.82231846e-02,
          2.71519627e-02, -6.97891973e-03, 3.59721202e-03,
          -3.69065441e-02, 1.51499985e-02, 2.26034299e-02,
          1.11245159e-02, -1.75335836e-02, -1.16961207e-02,
          -3.14864404e-02, -3.25006656e-02, -1.75674018e-02,
          -6.47055567e-04, 1.78520801e-03, 1.13681331e-02,
          -1.47841610e-02, -2.41870750e-02, 2.30992511e-02,
          -2.69293059e-02, -9.34791565e-02, -1.44086629e-02,
          6.33868277e-02, -5.68777230e-03, -1.02674924e-02,
          1.27083985e-02, 3.22935805e-02, 1.18042286e-02, 5.33667486e-03,
          0., 1.55279506e-03, -4.70173033e-03, -1.66075006e-02,
          9.63891577e-03, -3.89325432e-02, 3.24320653e-03,
          -2.82009295e-03, -8.55726562e-03, -1.00837713e-02,
          -1.45914555e-02, -1.72990654e-03, 1.79864205e-02,
          -2.06057969e-02, -1.25940386e-02, -3.16082239e-02,
          -2.31545083e-02, 3.48543748e-03, 5.89199550e-02,
          -1.06519265e-02, 6.31306171e-02, -1.08440928e-02,
          2.34474204e-02, -1.81975774e-02, -1.38888892e-03,
          6.86302315e-03, 6.20453153e-03, 8.91595380e-04, 2.98777153e-03,
          -2.62604700e-03, -1.20127136e-02, 6.96805678e-03,
          2.76434934e-03, 8.89343792e-04, -9.42302682e-03,
          5.93034104e-02, -1.60085149e-02, -2.73305178e-02,
          -9.72085260e-03, -1.08932164e-02, -1.43135889e-02,
          -6.78597111e-03, 4.10454534e-03, -4.17593792e-02,
          -1.68587063e-02, 3.14738378e-02, -1.96205024e-02,
          1.36813177e-02, -2.79804058e-02, -2.84103490e-02,
          -1.07196402e-02, -3.86712188e-03, 2.37339968e-03,
          -3.16739902e-02, -1.10318875e-02, 2.64012092e-03,
          2.75182538e-02, -2.93412246e-02, -5.88122010e-03,
          3.74461822e-02, 1.04636308e-02, -1.85386930e-02,
          -6.97088707e-03, 2.92337742e-02, -2.48634107e-02,
          -4.89877444e-03, -3.78409959e-03, -9.17039160e-03,
          -9.04425513e-03, 5.02563827e-03, 6.99266195e-02,
          2.98304260e-02, 5.58621474e-02, -1.62387416e-02,
          -2.40222793e-02, 4.02694428e-03, 1.39096715e-02,
          4.13427278e-02, -4.71418211e-03, -1.81543548e-03,
          -4.81727952e-03, -2.19284138e-03, 1.57038346e-02,
          -3.46865840e-02, -1.81124043e-02, -2.42814012e-02,
          4.39122086e-03, 2.34724917e-02, -2.27272720e-03,
          2.39540823e-03, -1.02892770e-02, 1.04742628e-02,
          -6.71193469e-03, 0., 2.16230471e-02, -2.35148575e-02,
          -1.33815631e-02, -1.15717389e-02, 6.97423294e-02,
          3.30846198e-02, -5.50814718e-03, 1.61038078e-02,
          -1.18081123e-02, -1.38888892e-03, 2.15573460e-01,
          -2.02768818e-02, -2.25924933e-03, -3.40768136e-03,
          -3.61605771e-02, -1.70707237e-03, 0., -7.83651136e-03, 0.,
          -2.57255472e-02, 7.50440732e-03, -5.33292443e-02,
          7.72323553e-03, -2.21574679e-04, 1.01579502e-02,
          3.51683684e-02, -1.76759865e-02, 5.48545970e-03,
          3.97956446e-02, 2.10581999e-02, 5.60238399e-03, 1.52098155e-02,
          -9.33005475e-03, -2.32757498e-02, -1.49615528e-02, 0.,
          -3.75439133e-03, 5.57906702e-02, -1.33793727e-02,
          -2.53232475e-02, -2.88461382e-03, -1.66413728e-02,
          -1.75381992e-02, -2.99660582e-03, 3.10117509e-02,
          3.26646604e-02, -1.08893532e-02, 5.23619950e-02, 0.,
          -1.36691527e-02, -1.58404317e-02, -9.61767789e-03,
          -3.23599204e-04, 4.89407964e-03, -1.23106670e-02,
          2.03062799e-02, -9.49318931e-02, -1.49069224e-02,
          1.97435915e-03, -1.47182038e-02, 5.20320958e-04,
          -2.74132192e-03, -8.37360602e-03, -1.88503824e-02,
          1.42007868e-03, -2.36600861e-02, -3.04578394e-02,
          -1.68262469e-03, -7.97100365e-03, -2.27272720e-03,
          1.33600179e-02, -1.29286461e-02, 8.88942275e-03,
          -1.46727106e-02 ]
      - [ -8.05175584e-03, -4.33203354e-02, 2.27799073e-01,
          3.68068740e-02, 1.42679699e-02, 7.54686072e-03,
          -2.12696195e-02, -3.57432328e-02, 1.33741535e-02,
          3.78029570e-02, 1.53790014e-02, -3.68394144e-03,
          -9.21603069e-02, 2.32505165e-02, -1.67817920e-02,
          9.13869124e-03, -7.50504900e-03, -3.83942435e-03,
          3.37840058e-02, -1.06650135e-02, 2.04564035e-02,
          4.08350118e-02, 4.58645076e-03, 1.53371915e-02, 2.78371782e-03,
          5.67049496e-02, -4.56794314e-02, -2.12894790e-02,
          1.27060129e-03, 3.32531147e-02, -5.24075590e-02,
          -5.16404137e-02, -2.15872414e-02, -8.44220631e-05,
          5.53100079e-04, -2.46984549e-02, 6.31827302e-03,
          3.54074426e-02, -1.14205545e-02, -2.88414024e-03,
          1.04583614e-02, -4.38865907e-02, 4.56614594e-04,
          -3.94524373e-02, 2.41830070e-02, -1.25698308e-02,
          1.61984991e-02, 3.25003266e-02, -3.47833522e-02,
          5.89265674e-03, 7.05317259e-02, -7.83853419e-03,
          5.87220863e-02, -6.15988299e-03, 2.60986034e-02,
          -1.14703216e-02, -7.85545970e-04, 4.16827388e-03,
          3.04645766e-03, 3.12717445e-03, 1.14869308e-02,
          -1.75770689e-02, -4.14552074e-03, -9.70169157e-03,
          4.94590914e-03, 7.68263824e-03, 1.31758917e-02, 4.95930314e-02,
          -2.33106446e-02, -2.23675519e-02, -3.20767227e-04,
          -5.98215982e-02, -3.18197422e-02, -6.24164008e-03,
          5.59520954e-03, -1.10834725e-02, 1.33627383e-02,
          1.15972199e-02, 1.54442852e-02, 9.14456323e-04,
          -2.14533117e-02, -6.65903836e-03, -7.44916797e-02,
          -6.93323743e-03, 6.66150916e-03, 1.45247229e-03,
          -7.66715501e-03, 8.28365050e-03, 4.15316783e-02,
          -2.42276303e-03, 1.79533218e-03, 3.20158154e-02,
          7.20071979e-03, -1.44785028e-02, -9.58449021e-03,
          5.01121469e-02, -3.36336414e-03, -1.49197252e-02,
          6.28547929e-03, -2.63034534e-02, -1.85294785e-02,
          4.35527833e-03, 7.76765570e-02, 3.44302803e-02, 7.95476213e-02,
          2.45606666e-03, -1.11118965e-02, -6.34753779e-02,
          3.78866750e-03, 5.30508012e-02, -3.23721953e-02,
          2.36359797e-02, -7.82035217e-02, 9.86899529e-03,
          1.15314843e-02, -1.47764394e-02, -1.51682608e-02,
          4.01909556e-03, -3.71117378e-03, 4.03101705e-02,
          -3.53880823e-02, -5.36875101e-04, -4.05222923e-03,
          6.35757623e-03, -3.03491578e-02, -1.51233356e-02,
          2.06742808e-02, 4.14649537e-03, -3.93061377e-02,
          5.93739841e-03, 7.54946247e-02, 3.39433961e-02, 2.67764577e-03,
          1.16764084e-02, -7.04188645e-03, -4.92201187e-02,
          1.77904025e-01, 1.25594335e-02, -1.57157667e-02,
          -5.93018569e-02, -2.19111331e-02, -8.46886355e-03,
          -1.73431262e-03, -2.80936435e-02, -6.03610948e-02,
          1.22945933e-02, -2.57622432e-02, -1.45782996e-02,
          6.09964784e-03, -1.68178715e-02, 9.55924205e-03,
          2.93597281e-02, -5.81060909e-03, -1.37821035e-02,
          3.21819298e-02, 4.27521989e-02, 1.08055072e-02,
          -1.10436548e-02, 8.96970555e-03, -6.87297620e-03,
          9.12832655e-03, -7.85545970e-04, -2.06992384e-02,
          5.59602678e-02, -1.12227788e-02, 1.06023615e-02,
          -6.14991002e-02, -3.53087410e-02, -2.28540264e-02,
          -2.57700514e-02, 2.87375674e-02, 3.46516073e-02,
          -3.61634418e-02, 4.73075844e-02, -4.11668606e-03,
          -6.03902573e-03, -1.18420050e-02, -4.69245575e-03,
          -2.81033777e-02, -1.31149800e-03, -8.34340055e-04,
          2.31672321e-02, 8.59505590e-03, -3.98552828e-02,
          5.71294688e-04, 1.08265541e-02, -2.50986163e-02,
          -7.97113776e-03, 1.10689597e-02, -1.00869988e-03,
          -1.82722062e-02, 3.21326265e-03, -1.88306943e-02,
          -6.17759675e-02, -5.15641794e-02, -6.10091537e-02,
          4.13301699e-02, -4.55589630e-02, 1.42202070e-02,
          -1.14895515e-02 ]
      - [ 3.91066726e-03, 6.96836831e-03, -1.72307223e-01,
          8.71944521e-03, 1.65775623e-02, 4.18991083e-03, 7.56377680e-03,
          -3.34718265e-02, 5.03802951e-03, 1.55760557e-03,
          1.16749923e-03, 6.15872350e-03, 5.78935910e-03,
          -5.05009368e-02, -3.36598000e-03, -1.96566656e-02,
          2.37069502e-02, 3.08804791e-02, -9.71782021e-04,
          8.04410316e-03, -3.73446718e-02, -8.87869112e-03,
          -2.74931472e-02, -1.07891276e-01, -1.18083712e-02,
          1.30298547e-04, 1.40425074e-03, 5.61457640e-03, 2.32232790e-02,
          5.80088375e-03, -8.18507001e-03, -4.52749105e-03,
          5.42701315e-03, 5.15507944e-02, -3.74906929e-04,
          6.13112748e-03, 3.14068012e-02, -5.26837073e-02,
          1.01684723e-02, 1.96501855e-02, 5.82952658e-03, 5.25348820e-03,
          2.09097490e-02, 2.67782598e-04, 6.55613653e-03,
          -1.07041113e-02, -1.63045637e-02, -6.39427230e-02,
          -7.53836427e-03, 6.09931014e-02, -1.10535948e-02,
          -1.28035955e-02, 1.69013869e-02, -1.53124351e-02,
          1.03212558e-02, 5.52352611e-03, 6.69625178e-02, 9.15969070e-03,
          1.03782816e-02, -3.10606998e-03, 8.53388105e-04,
          2.50681005e-02, -7.83002470e-03, 3.60356122e-02,
          3.56410071e-02, 8.95697437e-03, -1.96478479e-02,
          6.71816478e-03, 1.61226653e-02, -1.39642544e-02,
          8.37010425e-03, -3.04939765e-02, 1.22624775e-03,
          -9.69795976e-03, 6.72613643e-03, -1.56587530e-02,
          -1.49687435e-02, -2.68669091e-02, -3.15736867e-02,
          1.77589525e-02, -6.12148596e-03, -1.75261497e-02,
          -2.38871537e-02, -7.80439586e-04, 3.77992168e-02,
          -3.28053012e-02, 9.42678750e-03, -4.58734250e-03,
          -2.13894583e-02, -1.37933036e-02, 3.92523818e-02,
          -5.54824539e-04, 1.29516432e-02, -1.19407112e-02,
          -8.06911383e-04, -1.54791549e-02, -1.07717970e-02,
          1.09382095e-02, 3.83897731e-03, 1.89678057e-03, 5.72349317e-03,
          1.54733583e-02, 5.85781969e-03, -5.75092388e-03,
          -2.14616954e-02, -1.36502041e-02, 1.68371107e-03,
          -2.41099740e-03, 1.90206002e-02, -7.94700719e-03,
          1.55782122e-02, -1.34528410e-02, -5.98257920e-03,
          2.73624575e-03, 1.69690810e-02, -2.60253698e-02,
          -2.47746008e-03, -1.96004622e-02, 6.46556076e-03,
          -2.16589961e-02, 1.30349537e-02, 4.73368773e-03,
          -1.03093218e-02, 4.36761975e-02, -2.75923172e-04,
          2.33643018e-02, 1.62292644e-02, -2.64844466e-02,
          -8.70754477e-03, -8.17533769e-03, -6.49811141e-03,
          2.38063326e-03, 3.91915217e-02, 2.77803000e-03, 4.79131658e-03,
          2.12977058e-03, -5.80576342e-03, -1.96675956e-03,
          9.48724896e-03, 6.00587483e-03, -2.62163337e-02,
          1.71600643e-03, 5.65362945e-02, 2.25898530e-02, 6.02445658e-03,
          -3.39588225e-02, 4.26935516e-02, -3.90022211e-02,
          4.18596044e-02, 2.10629590e-02, 8.24927073e-03,
          -3.29105719e-03, 1.07616112e-02, 1.18602579e-02,
          2.11085584e-02, -2.00252403e-02, 1.84966680e-02,
          8.71461444e-03, -2.09447388e-02, 4.69338614e-04,
          -1.17237987e-02, 1.98964775e-02, 2.65332442e-02,
          -4.22645919e-03, 1.15943523e-02, -1.77073106e-02,
          1.31493260e-03, -1.98921002e-02, -1.76240597e-02,
          9.06223431e-03, 7.67999236e-03, -3.96332750e-03,
          1.96289718e-02, -7.71810533e-03, 1.39598120e-02,
          -5.17891720e-04, -2.53238296e-03, 3.85596091e-03,
          4.03845683e-04, 2.43472531e-02, -7.56081566e-03,
          8.67693685e-03, -9.32876915e-02, -2.13461602e-03,
          2.86838859e-02, -1.02919145e-02, 1.83866620e-02,
          2.70593446e-02, -2.27377824e-02, 1.69928968e-02,
          1.80290397e-02, -1.38008492e-02, -1.53862452e-03,
          -3.31514818e-03, 2.86061727e-02, 1.24118263e-02,
          -4.00662199e-02, 9.89897270e-03, 1.32041015e-02,
          4.99384338e-03 ]
      - [ -4.24297014e-03, -3.89287025e-02, -4.40890975e-02,
          7.30313407e-03, 3.69357015e-03, 1.87156908e-02,
          -1.73030552e-02, -3.23085152e-02, 3.26218456e-03,
          1.67571343e-02, 5.42198494e-03, 2.00083647e-02,
          -7.46748298e-02, 4.23601968e-03, 1.23528913e-02,
          7.04942737e-03, 1.68489572e-02, 2.52558459e-02, 2.14440916e-02,
          1.21632507e-02, 7.29880808e-03, 8.85707140e-03, 4.02260851e-03,
          9.25069384e-04, 5.38400980e-03, -6.55158143e-03,
          -3.85874063e-02, -5.40740974e-03, 1.17854821e-02,
          6.76041888e-03, -7.23968595e-02, -6.15045801e-02,
          -1.61602274e-02, 4.99135777e-02, 4.87992354e-03,
          -1.95982540e-03, 2.80861575e-02, 2.16562767e-02,
          -4.49528871e-03, 1.95861384e-02, 2.48451531e-02,
          -2.85493322e-02, 3.59578170e-02, -3.74547504e-02,
          1.27527220e-02, -2.66814511e-03, 1.24879740e-02,
          1.65825477e-04, -1.91672090e-02, 6.34003207e-02,
          5.58176427e-04, -9.99020413e-03, 1.24928504e-02,
          -1.06282253e-02, 1.29724387e-02, 1.22507820e-02,
          6.75658658e-02, 6.46494096e-03, 7.22020771e-03,
          -8.70490971e-04, 9.35254712e-03, 1.01170782e-02,
          3.71686183e-05, 1.93658657e-02, 3.78225669e-02, 1.57502685e-02,
          2.95107090e-03, -2.99221720e-03, 8.82053562e-03,
          -9.00128949e-03, 1.77701898e-02, -7.94223621e-02,
          -1.62799079e-02, -9.15362872e-03, 8.21680017e-03,
          1.50171546e-02, 1.52527010e-02, -4.67435271e-02,
          3.49110016e-03, 4.99209156e-03, 4.05608676e-04, 4.22516139e-03,
          -8.76591951e-02, -3.84655502e-03, 4.20873277e-02,
          3.21161933e-04, 1.27915200e-02, 1.05618685e-03,
          -7.37603288e-03, 1.31251579e-02, 4.69289348e-02,
          -5.98519156e-03, 9.68873221e-03, -7.88052101e-03,
          -3.42051405e-03, 5.39921690e-03, 1.07282493e-02,
          9.17258498e-04, 1.39085557e-02, -1.52362809e-02,
          -3.76173039e-03, 1.48029989e-02, 1.36077572e-02,
          -1.15107046e-03, 2.22378247e-03, 5.04460325e-03,
          1.45940939e-02, -6.99133202e-02, 8.89959559e-03,
          3.76106729e-03, -1.20798005e-02, 1.19985742e-02,
          -7.93688223e-02, 1.47980824e-02, 1.27967326e-02,
          -6.11522514e-03, 4.66682483e-04, 8.70003551e-03,
          -1.63683388e-03, -4.82131727e-03, -2.00804006e-02,
          1.80140440e-03, -4.07227455e-03, 3.95595096e-02,
          -2.39131451e-02, 8.24096613e-03, 1.52804973e-02,
          1.17690582e-03, -3.46321203e-02, 9.33380052e-03,
          -7.45815982e-04, 3.23940977e-03, 4.73773144e-02,
          -1.64936914e-03, 9.55754239e-03, -4.57014591e-02,
          -4.34751958e-02, 3.08695547e-02, -3.96926934e-03,
          -4.98883016e-02, -1.19668888e-02, -5.04578464e-03,
          5.48019856e-02, 2.33272091e-03, -5.43366373e-02,
          4.06131893e-03, 9.42690112e-03, -2.51275953e-04,
          4.02360186e-02, 4.46666218e-03, 7.65056256e-03,
          -9.09969769e-03, 2.26269886e-02, -7.40730576e-03,
          1.34948455e-02, 1.66875776e-03, 2.36997921e-02,
          -1.75388567e-02, -2.64497823e-03, 1.68721136e-02,
          1.23660797e-02, 1.91109311e-02, 9.58839711e-03,
          -4.05686069e-03, 1.37509461e-02, 1.82182994e-02,
          -5.72995543e-02, -3.85594703e-02, -2.29398850e-02,
          -1.37112122e-02, 5.40580880e-03, -1.97638059e-03,
          -5.64511772e-03, -1.27725154e-02, 9.84312594e-03,
          7.11223530e-03, 1.46604388e-03, 8.78118351e-03,
          -2.73759328e-02, 1.81416757e-02, 3.91551061e-03,
          1.15378881e-02, 1.02392621e-02, -2.70829760e-02,
          2.72808224e-02, 1.52528435e-02, -7.23227579e-03,
          2.18295306e-02, -3.29521671e-03, 3.48345786e-02,
          -1.66324526e-03, 1.30724991e-02, 1.00885201e-02,
          -6.34084865e-02, -1.49870031e-02, -4.63246033e-02,
          -1.20960707e-02, -2.27313451e-02, 1.85348857e-02,
          8.17700289e-03 ]
      - [ -8.15363694e-03, -4.58970703e-02, 1.28218114e-01,
          -1.41631137e-03, -1.28839929e-02, 1.45257805e-02,
          -2.48668324e-02, 1.16331223e-03, -1.77584519e-03,
          1.51995290e-02, 4.25448595e-03, 1.38496421e-02,
          -8.04641917e-02, 5.47369570e-02, 1.57188717e-02,
          2.67060921e-02, -6.85799308e-03, -5.62463235e-03,
          2.24158727e-02, 4.11914755e-03, 4.46434766e-02, 1.77357625e-02,
          3.15157548e-02, 1.08816348e-01, 1.71923805e-02,
          -6.68187998e-03, -3.99916582e-02, -1.10219857e-02,
          -1.14377970e-02, 9.59535013e-04, -6.42117858e-02,
          -5.69770895e-02, -2.15872414e-02, -1.63721712e-03,
          5.25483023e-03, -8.09095241e-03, -3.32064228e-03,
          7.43399858e-02, -1.46637606e-02, -6.40474027e-05,
          1.90156270e-02, -3.38028222e-02, 1.50480699e-02,
          -3.77225317e-02, 6.19658548e-03, 8.03596620e-03,
          2.87925377e-02, 6.41085505e-02, -1.16288438e-02,
          2.40721880e-03, 1.16117708e-02, 2.81339209e-03,
          -4.40853555e-03, 4.68420982e-03, 2.65118224e-03,
          6.72725588e-03, 6.03342953e-04, -2.69474927e-03,
          -3.15807387e-03, 2.23557907e-03, 8.49915855e-03,
          -1.49510223e-02, 7.86719285e-03, -1.66697484e-02,
          2.18155980e-03, 6.79329457e-03, 2.25989185e-02,
          -9.71038174e-03, -7.30212964e-03, 4.96296538e-03,
          9.40008461e-03, -4.89283837e-02, -1.75061543e-02,
          5.44331037e-04, 1.49066409e-03, 3.06759086e-02, 3.02214436e-02,
          -1.98766179e-02, 3.50647867e-02, -1.27668614e-02,
          6.52709464e-03, 2.17513107e-02, -6.37720451e-02,
          -3.06611555e-03, 4.28810949e-03, 3.31264623e-02,
          3.36473249e-03, 5.64352935e-03, 1.40134254e-02, 2.69184615e-02,
          7.67655205e-03, -5.43036684e-03, -3.26291076e-03,
          4.06019017e-03, -2.61360267e-03, 2.08783709e-02,
          2.15000454e-02, -1.00209508e-02, 1.00695789e-02,
          -1.71330608e-02, -9.48522333e-03, -6.70359703e-04,
          7.74993747e-03, 4.59985342e-03, 2.36854777e-02, 1.86948068e-02,
          1.29103828e-02, -6.75023273e-02, -1.01210047e-02,
          1.17080752e-02, -2.76580136e-02, 2.54514161e-02,
          -7.33862445e-02, 1.20618362e-02, -4.17234935e-03,
          1.99101437e-02, 2.94414256e-03, 2.83004977e-02,
          -8.10239464e-03, 1.68376788e-02, -3.31153534e-02,
          -2.93228356e-03, 6.23704772e-03, -4.11668606e-03,
          -2.36372221e-02, -1.51233356e-02, -9.48766596e-04,
          2.76613533e-02, -2.59245746e-02, 1.75091382e-02,
          5.75229526e-03, 8.58776388e-04, 8.18579271e-03,
          -4.42739902e-03, 4.76622581e-03, -4.78312299e-02,
          -3.76694351e-02, 3.28363143e-02, -1.34565178e-02,
          -5.58941774e-02, 1.42494440e-02, -6.76179118e-03,
          -1.73431262e-03, -2.02571321e-02, -6.03610948e-02,
          3.80201414e-02, -3.32666524e-02, 3.87509465e-02,
          -1.62358745e-03, -1.65962968e-02, -5.98708284e-04,
          -5.80864027e-03, 1.18653774e-02, -1.92675628e-02,
          -7.61371292e-03, 2.16939989e-02, 5.20312320e-03,
          -2.62534712e-02, 1.82997603e-02, 1.64027736e-02,
          2.40898784e-02, -7.85545970e-04, -1.69448461e-02,
          1.69598148e-04, 2.15659407e-03, 3.59256081e-02,
          -5.86144850e-02, -1.86673682e-02, -5.31582674e-03,
          -2.27734465e-02, -2.27418356e-03, 1.98694714e-03,
          -2.52740905e-02, -5.05441008e-03, -4.11668606e-03,
          7.63012702e-03, 3.99842672e-03, 4.92522214e-03,
          -2.77797785e-02, -6.20557740e-03, 1.14763267e-02,
          2.86095124e-03, 1.03526950e-01, -2.49483585e-02,
          -1.40306447e-03, 2.55447589e-02, -2.56189369e-02,
          -5.22981538e-03, 1.94425657e-02, 1.78416837e-02,
          -1.96922850e-02, 2.68733483e-02, 1.16271442e-02,
          -6.00933433e-02, -4.35931757e-02, -5.87364286e-02,
          2.79701501e-02, -3.26303169e-02, 5.33078378e-03,
          3.18315905e-03 ]
   decision_functions:
      -
         sv_count: 1
         rho: -1.2564726173877716e-02
         alpha: [ 1. ]
         index: [ 0 ]
      -
         sv_count: 1
         rho: 9.2334875371307135e-03
         alpha: [ 1. ]
         index: [ 1 ]
      -
         sv_count: 1
         rho: 1.6812724061310291e-03
         alpha: [ 1. ]
         index: [ 2 ]
      -
         sv_count: 1
         rho: 2.9547419399023056e-03
         alpha: [ 1. ]
         index: [ 3 ]
      -
         sv_count: 1
         rho: 2.2368388250470161e-02
         alpha: [ 1. ]
         index: [ 4 ]
      -
         sv_count: 1
         rho: 1.4633485116064548e-02
         alpha: [ 1. ]
         index: [ 5 ]
      -
         sv_count: 1
         rho: 1.5108712716028094e-02
         alpha: [ 1. ]
         index: [ 6 ]
      -
         sv_count: 1
         rho: -8.1878150813281536e-03
         alpha: [ 1. ]
         index: [ 7 ]
      -
         sv_count: 1
         rho: -6.1399822589010000e-03
         alpha: [ 1. ]
         index: [ 8 ]
      -
         sv_count: 1
         rho: 1.5438410919159651e-03
         alpha: [ 1. ]
         index: [ 9 ]
