%YAML:1.0
my_svm: !!opencv-ml-svm
   svm_type: C_SVC
   kernel: { type:RBF, gamma:1. }
   C: 1.
   term_criteria: { epsilon:2.2204460492503131e-16, iterations:100 }
   var_all: 30
   var_count: 30
   class_count: 5
   class_labels: !!opencv-matrix
      rows: 1
      cols: 5
      dt: i
      data: [ 0, 1, 2, 3, 4 ]
   sv_total: 15
   support_vectors:
      - [ 3.40909064e-02, 5.90909086e-02, 2.95454543e-02, 3.18181813e-02,
          2.49999985e-02, 3.18181813e-02, 4.54545431e-02, 2.95454543e-02,
          2.95454543e-02, 2.49999985e-02, 2.95454543e-02, 2.95454543e-02,
          6.36363626e-02, 2.95454543e-02, 6.81818184e-03, 2.95454543e-02,
          3.86363640e-02, 2.04545446e-02, 4.99999970e-02, 4.31818180e-02,
          5.68181798e-02, 1.81818176e-02, 3.86363640e-02, 2.72727273e-02,
          1.81818176e-02, 1.59090906e-02, 5.22727259e-02, 3.40909064e-02,
          2.49999985e-02, 3.18181813e-02 ]
      - [ 2.41157562e-02, 4.66237925e-02, 4.01929244e-02, 3.05466242e-02,
          1.44694531e-02, 5.78778125e-02, 3.21543403e-02, 2.89389063e-02,
          3.53697762e-02, 2.09003203e-02, 2.25080382e-02, 2.41157562e-02,
          4.98392284e-02, 3.37620564e-02, 8.03858507e-03, 1.92926042e-02,
          3.53697762e-02, 2.09003203e-02, 9.00321528e-02, 4.01929244e-02,
          4.98392284e-02, 1.76848881e-02, 3.69774923e-02, 5.30546606e-02,
          9.64630209e-03, 1.76848881e-02, 4.66237925e-02, 3.37620564e-02,
          1.92926042e-02, 4.01929244e-02 ]
      - [ 4.74777445e-02, 3.85756679e-02, 3.56083065e-02, 2.67062318e-02,
          2.07715128e-02, 2.37388723e-02, 4.15430255e-02, 3.85756679e-02,
          3.85756679e-02, 1.78041533e-02, 3.56083065e-02, 2.67062318e-02,
          6.52818978e-02, 2.37388723e-02, 8.90207663e-03, 1.48367956e-02,
          3.85756679e-02, 3.85756679e-02, 5.34124635e-02, 5.04451022e-02,
          5.04451022e-02, 2.07715128e-02, 3.56083065e-02, 1.48367956e-02,
          2.37388723e-02, 8.90207663e-03, 3.85756679e-02, 3.85756679e-02,
          2.96735913e-02, 5.34124635e-02 ]
      - [ 4.31654677e-02, 4.07673866e-02, 3.35731432e-02, 3.83693054e-02,
          3.83693054e-02, 2.15827338e-02, 2.63788980e-02, 3.59712243e-02,
          1.19904075e-02, 2.87769791e-02, 2.39808150e-02, 1.67865716e-02,
          7.43405297e-02, 2.63788980e-02, 4.79616318e-03, 3.59712243e-02,
          2.63788980e-02, 3.59712243e-02, 7.67386109e-02, 2.63788980e-02,
          4.79616299e-02, 2.63788980e-02, 3.35731432e-02, 9.59232636e-03,
          1.43884895e-02, 8.63309354e-02, 1.91846527e-02, 2.87769791e-02,
          5.03597148e-02, 1.67865716e-02 ]
      - [ 3.96825373e-02, 6.08465597e-02, 3.17460299e-02, 3.43915336e-02,
          3.17460299e-02, 2.91005280e-02, 1.85185187e-02, 3.43915336e-02,
          1.32275131e-02, 3.17460299e-02, 1.85185187e-02, 1.85185187e-02,
          7.40740746e-02, 2.38095224e-02, 1.05820103e-02, 5.55555522e-02,
          3.70370373e-02, 3.43915336e-02, 7.14285672e-02, 1.32275131e-02,
          5.82010560e-02, 1.85185187e-02, 3.70370373e-02, 1.05820103e-02,
          5.29100513e-03, 7.14285672e-02, 3.43915336e-02, 2.38095224e-02,
          4.76190448e-02, 1.05820103e-02 ]
      - [ 4.37956192e-02, 5.47445267e-02, 3.28467153e-02, 2.55474448e-02,
          4.37956192e-02, 2.91970801e-02, 2.18978096e-02, 4.37956192e-02,
          3.64963501e-03, 3.64963487e-02, 2.18978096e-02, 1.45985400e-02,
          7.29926974e-02, 3.28467153e-02, 7.29927002e-03, 2.91970801e-02,
          2.55474448e-02, 3.28467153e-02, 7.66423345e-02, 1.82481743e-02,
          6.20437935e-02, 2.55474448e-02, 4.37956192e-02, 1.82481743e-02,
          7.29927002e-03, 6.20437935e-02, 1.82481743e-02, 2.91970801e-02,
          6.20437935e-02, 3.64963501e-03 ]
      - [ 3.20754722e-02, 2.64150947e-02, 2.64150947e-02, 4.52830195e-02,
          1.69811323e-02, 4.90566045e-02, 4.52830195e-02, 4.15094346e-02,
          3.20754722e-02, 2.45283023e-02, 1.88679248e-02, 4.15094346e-02,
          3.01886797e-02, 3.20754722e-02, 1.50943398e-02, 3.58490571e-02,
          9.43396240e-03, 3.77358496e-02, 8.67924541e-02, 6.41509444e-02,
          3.39622647e-02, 2.64150947e-02, 7.54716992e-03, 2.07547173e-02,
          1.69811323e-02, 4.90566045e-02, 6.03773594e-02, 3.20754722e-02,
          2.45283023e-02, 1.69811323e-02 ]
      - [ 2.94784587e-02, 2.04081628e-02, 1.81405898e-02, 3.40136066e-02,
          1.81405898e-02, 3.40136066e-02, 5.21541946e-02, 4.08163257e-02,
          2.49433108e-02, 2.72108838e-02, 1.13378689e-02, 5.66893443e-02,
          3.40136066e-02, 2.04081628e-02, 9.07029491e-03, 4.30839024e-02,
          1.13378689e-02, 5.44217676e-02, 5.66893443e-02, 8.39002281e-02,
          4.53514755e-02, 3.17460336e-02, 1.58730168e-02, 1.58730168e-02,
          1.81405898e-02, 3.62811796e-02, 6.57596365e-02, 3.40136066e-02,
          2.94784587e-02, 2.72108838e-02 ]
      - [ 2.75482088e-02, 2.75482088e-02, 1.92837473e-02, 2.20385678e-02,
          1.37741044e-02, 3.03030312e-02, 6.61157072e-02, 4.40771356e-02,
          3.03030312e-02, 2.20385678e-02, 1.37741044e-02, 5.23415990e-02,
          3.30578536e-02, 3.03030312e-02, 1.37741044e-02, 3.58126722e-02,
          0., 3.85674946e-02, 9.91735533e-02, 6.61157072e-02,
          5.23415990e-02, 3.03030312e-02, 1.10192839e-02, 2.47933883e-02,
          1.37741044e-02, 4.13223132e-02, 5.78512400e-02, 3.30578536e-02,
          3.30578536e-02, 1.65289268e-02 ]
      - [ 1.72043014e-02, 1.72043014e-02, 4.94623668e-02, 2.58064531e-02,
          2.15053763e-02, 1.05376348e-01, 7.74193555e-02, 3.87096778e-02,
          5.16129062e-02, 2.15053763e-02, 6.45161327e-03, 1.29032265e-02,
          1.93548389e-02, 3.01075280e-02, 2.15053763e-02, 2.15053763e-02,
          2.79569905e-02, 1.72043014e-02, 8.17204341e-02, 3.22580636e-02,
          1.50537640e-02, 2.58064531e-02, 1.29032265e-02, 5.16129062e-02,
          1.93548389e-02, 7.31182843e-02, 2.15053763e-02, 4.73118275e-02,
          1.93548389e-02, 1.72043014e-02 ]
      - [ 1.87891442e-02, 1.67014617e-02, 3.96659710e-02, 2.50521936e-02,
          2.92275585e-02, 9.39457193e-02, 6.68058470e-02, 3.13152410e-02,
          5.21920696e-02, 3.34029235e-02, 6.26304839e-03, 1.87891442e-02,
          1.46137793e-02, 2.29645092e-02, 2.29645092e-02, 2.92275585e-02,
          4.38413359e-02, 1.87891442e-02, 8.14196244e-02, 2.29645092e-02,
          1.67014617e-02, 2.71398760e-02, 1.46137793e-02, 5.21920696e-02,
          1.67014617e-02, 9.60334018e-02, 1.25260968e-02, 4.17536534e-02,
          1.87891442e-02, 1.46137793e-02 ]
      - [ 2.43243240e-02, 2.16216221e-02, 5.67567572e-02, 2.97297314e-02,
          2.97297314e-02, 1.02702707e-01, 8.37837830e-02, 2.97297314e-02,
          2.43243240e-02, 3.78378406e-02, 1.35135138e-02, 1.89189203e-02,
          3.24324332e-02, 2.97297314e-02, 2.43243240e-02, 1.08108111e-02,
          4.05405425e-02, 2.16216221e-02, 5.13513535e-02, 4.05405425e-02,
          1.08108111e-02, 3.51351351e-02, 1.89189203e-02, 6.21621646e-02,
          1.89189203e-02, 4.05405425e-02, 5.40540554e-03, 4.32432443e-02,
          2.43243240e-02, 1.62162166e-02 ]
      - [ 5.00568822e-02, 2.38907840e-02, 4.09556292e-02, 5.57451621e-02,
          1.36518767e-02, 5.46075068e-02, 3.41296904e-02, 5.68828210e-02,
          1.59271900e-02, 5.68828173e-03, 6.37087598e-02, 2.73037534e-02,
          1.47895329e-02, 7.39476681e-02, 4.55062538e-02, 2.61660963e-02,
          5.57451621e-02, 3.75426598e-02, 2.04778146e-02, 1.02389073e-02,
          3.64050046e-02, 6.82593836e-03, 5.11945374e-02, 7.96359498e-03,
          3.98179740e-02, 1.70648452e-02, 5.46075068e-02, 1.13765635e-02,
          3.75426598e-02, 1.02389073e-02 ]
      - [ 5.85533865e-02, 2.98507456e-02, 3.67393792e-02, 5.39609641e-02,
          1.83696896e-02, 6.31458089e-02, 2.87026390e-02, 5.85533865e-02,
          1.26291616e-02, 3.44431680e-03, 5.28128594e-02, 3.90355885e-02,
          1.03329504e-02, 6.65901229e-02, 4.13318016e-02, 2.29621120e-02,
          4.24799062e-02, 3.67393792e-02, 2.52583232e-02, 1.60734784e-02,
          4.13318016e-02, 3.44431680e-03, 3.90355885e-02, 9.18484479e-03,
          4.13318016e-02, 2.29621120e-02, 6.42939135e-02, 1.49253728e-02,
          3.90355885e-02, 6.88863359e-03 ]
      - [ 4.76190485e-02, 1.97044332e-02, 4.43349741e-02, 4.43349741e-02,
          1.47783253e-02, 5.25451563e-02, 2.29885057e-02, 6.56814426e-02,
          1.64203607e-02, 9.85221658e-03, 6.07553385e-02, 1.31362891e-02,
          2.46305428e-02, 6.56814426e-02, 3.61247957e-02, 3.11986860e-02,
          5.25451563e-02, 4.43349741e-02, 1.97044332e-02, 1.31362891e-02,
          3.11986860e-02, 4.92610829e-03, 5.58292270e-02, 3.28407227e-03,
          4.92610857e-02, 1.14942528e-02, 7.38916248e-02, 1.47783253e-02,
          4.43349741e-02, 1.14942528e-02 ]
   decision_functions:
      -
         sv_count: 6
         rho: -1.9074082374572754e-03
         alpha: [ 1., 1., 1., -1., -1., -1. ]
         index: [ 0, 1, 2, 3, 4, 5 ]
      -
         sv_count: 6
         rho: -1.6352534294128418e-03
         alpha: [ 1., 1., 1., -1., -1., -1. ]
         index: [ 0, 1, 2, 6, 7, 8 ]
      -
         sv_count: 6
         rho: 2.0422935485839844e-03
         alpha: [ 1., 1., 1., -1., -1., -1. ]
         index: [ 0, 1, 2, 9, 10, 11 ]
      -
         sv_count: 6
         rho: -6.4936280250549316e-04
         alpha: [ 1., 1., 1., -1., -1., -1. ]
         index: [ 0, 1, 2, 12, 13, 14 ]
      -
         sv_count: 6
         rho: 2.9662251472473145e-04
         alpha: [ 1., 1., 1., -1., -1., -1. ]
         index: [ 3, 4, 5, 6, 7, 8 ]
      -
         sv_count: 6
         rho: 1.2770891189575195e-03
         alpha: [ 1., 1., 1., -1., -1., -1. ]
         index: [ 3, 4, 5, 9, 10, 11 ]
      -
         sv_count: 6
         rho: -1.8274784088134766e-04
         alpha: [ 1., 1., 1., -1., -1., -1. ]
         index: [ 3, 4, 5, 12, 13, 14 ]
      -
         sv_count: 6
         rho: 5.4790973663330078e-03
         alpha: [ 1., 1., 1., -1., -1., -1. ]
         index: [ 6, 7, 8, 9, 10, 11 ]
      -
         sv_count: 6
         rho: 1.7151832580566406e-03
         alpha: [ 1., 1., 1., -1., -1., -1. ]
         index: [ 6, 7, 8, 12, 13, 14 ]
      -
         sv_count: 6
         rho: -2.5885403156280518e-03
         alpha: [ 1., 1., 1., -1., -1., -1. ]
         index: [ 9, 10, 11, 12, 13, 14 ]
